svm_type c_svc
kernel_type linear
nr_class 2
total_sv 2959
rho -1.0050559840105409
label 0 1
probA -1.0561606509296844
probB -0.35573279285581849
nr_sv 1689 1270
SV
0.082429642285490323 1:1 2:1 3:1 4:1 5:1 7:1 8:1 9:1 12:1 13:1 14:1 15:1 18:1 19:1 21:1 29:1 47:1 48:1 51:1 53:1 62:1 95:1 106:1 139:1 147:1 177:1 184:1 238:1 239:1 250:1 256:1 271:1 285:1 287:1 304:1 309:1 313:1 317:1 323:1 403:1 413:1 453:1 479:1 544:1 573:1 579:1 641:1 762:1 989:1 992:1 1046:1 1054:1 1059:1 1096:1 1100:1 1232:1 1615:1 2020:1 2034:1 2036:1 2082:1 2415:1 3019:1 3154:1 3226:1 3480:1 3517:1 3750:1 3817:1 3890:1 3989:1 4673:1 5079:1 6013:1 6384:1 6454:1 7035:1 7963:1 9189:1 9214:1 9579:1 9664:1 9717:1 9961:1 9992:1 10809:1 12581:1 14027:1 14060:1 17515:1 18078:1 18342:1 19336:1 20181:1 21167:1 23018:1 27218:1 28447:1 28460:1 28767:1 33460:1 
0.27567983727090861 1:1 3:1 5:1 6:1 7:1 8:1 9:1 12:1 13:1 14:1 15:1 18:1 19:1 20:1 39:1 45:1 50:1 51:1 53:1 57:1 62:1 84:1 93:1 95:1 139:1 177:1 191:1 236:1 251:1 276:1 289:1 304:1 322:1 396:1 414:1 446:1 451:1 479:1 535:1 544:1 571:1 585:1 605:1 901:1 961:1 1043:1 1055:1 1099:1 1147:1 1231:1 1453:1 1581:1 1613:1 2025:1 2038:1 2544:1 2999:1 3161:1 3376:1 3537:1 3969:1 4599:1 4742:1 4751:1 5059:1 6008:1 6356:1 6508:1 8680:1 8954:1 9564:1 9671:1 9988:1 10295:1 10796:1 11956:1 11967:1 12426:1 12576:1 13935:1 14079:1 17452:1 18102:1 21099:1 22829:1 23167:1 23195:1 24132:1 28351:1 
0.11654964215033602 1:1 3:1 4:1 7:1 8:1 9:1 13:1 14:1 18:1 19:1 20:1 21:1 29:1 48:1 52:1 57:1 58:1 64:1 84:1 99:1 139:1 142:1 143:1 251:1 289:1 295:1 308:1 322:1 324:1 414:1 422:1 450:1 455:1 535:1 570:1 605:1 612:1 652:1 743:1 756:1 991:1 1078:1 1150:1 1167:1 1277:1 1453:1 1676:1 2038:1 2067:1 3161:1 3537:1 3604:1 3610:1 3726:1 3960:1 4016:1 4742:1 4831:1 4833:1 5020:1 5109:1 6761:1 7193:1 7884:1 9210:1 9859:1 9865:1 10328:1 10434:1 11095:1 11967:1 14079:1 14254:1 18102:1 19758:1 21291:1 23167:1 23453:1 23466:1 24340:1 29729:1 31066:1 33148:1 
0.076870945955246961 1:1 3:1 4:1 5:1 7:1 8:1 9:1 11:1 12:1 14:1 15:1 16:1 18:1 19:1 20:1 22:1 26:1 36:1 48:1 51:1 55:1 65:1 74:1 81:1 82:1 95:1 99:1 139:1 147:1 177:1 194:1 239:1 246:1 272:1 289:1 307:1 309:1 316:1 361:1 379:1 387:1 469:1 479:1 507:1 517:1 535:1 570:1 588:1 605:1 672:1 675:1 710:1 857:1 992:1 1046:1 1051:1 1123:1 1286:1 1287:1 1382:1 1407:1 1629:1 1689:1 2038:1 2082:1 2593:1 3019:1 3102:1 3340:1 3537:1 3725:1 3758:1 3874:1 4269:1 4392:1 4488:1 5266:1 5665:1 5758:1 6548:1 7373:1 7377:1 7387:1 7587:1 8409:1 9214:1 9579:1 9635:1 10123:1 11170:1 11174:1 11181:1 11584:1 12667:1 12890:1 14079:1 17520:1 17914:1 18626:1 20096:1 20223:1 20767:1 21885:1 22203:1 22500:1 24803:1 26352:1 31706:1 31716:1 34355:1 
0.25702112177520037 1:1 3:1 4:1 5:1 7:1 8:1 12:1 13:1 14:1 15:1 19:1 20:1 21:1 48:1 51:1 52:1 81:1 84:1 95:1 139:1 142:1 147:1 157:1 177:1 189:1 197:1 251:1 272:1 289:1 290:1 396:1 414:1 450:1 479:1 493:1 573:1 588:1 605:1 639:1 644:1 990:1 992:1 994:1 1055:1 1070:1 1453:1 1612:1 2038:1 2039:1 2082:1 2093:1 2177:1 2512:1 2675:1 3161:1 3339:1 3351:1 3537:1 3573:1 4601:1 4742:1 5025:1 5504:1 6384:1 6551:1 7080:1 9214:1 9261:1 9671:1 9784:1 9795:1 11967:1 12553:1 14079:1 14114:1 14339:1 14599:1 15722:1 18102:1 18698:1 19608:1 22837:1 23167:1 23983:1 28465:1 29070:1 30733:1 
0.20746466634767249 5:1 6:1 18:1 21:1 50:1 194:1 197:1 210:1 535:1 644:1 1030:1 2593:1 2678:1 2779:1 7077:1 9485:1 16570:1 16880:1 30707:1 
0.20713817599707587 1:1 3:1 4:1 5:1 8:1 9:1 12:1 13:1 14:1 15:1 19:1 20:1 21:1 29:1 48:1 52:1 56:1 57:1 64:1 69:1 81:1 82:1 139:1 142:1 147:1 160:1 191:1 196:1 276:1 289:1 304:1 383:1 414:1 422:1 446:1 450:1 479:1 570:1 573:1 605:1 614:1 620:1 623:1 652:1 657:1 762:1 992:1 996:1 1071:1 1135:1 1147:1 1150:1 1277:1 1347:1 1407:1 2038:1 2095:1 2204:1 2544:1 2652:1 2664:1 3393:1 3545:1 4449:1 4740:1 4821:1 5020:1 6384:1 6782:1 6838:1 6875:1 7193:1 7287:1 7974:1 9227:1 9283:1 9813:1 10201:1 10287:1 10316:1 11095:1 11505:1 14087:1 14352:1 16523:1 18905:1 19451:1 22409:1 23157:1 28464:1 30155:1 31066:1 31445:1 33505:1 
0.038146238492328913 1:1 2:1 5:1 7:1 8:1 9:1 12:1 14:1 19:1 23:1 29:1 49:1 51:1 66:1 81:1 82:1 95:1 120:1 177:1 189:1 246:1 256:1 272:1 311:1 318:1 323:1 403:1 455:1 464:1 570:1 579:1 684:1 745:1 1007:1 1017:1 1051:1 1294:1 1407:1 1420:1 1624:1 1891:1 2517:1 3102:1 3217:1 3340:1 3802:1 3918:1 3986:1 4661:1 5112:1 5120:1 5205:1 6458:1 7417:1 7797:1 9395:1 9635:1 11204:1 11748:1 12642:1 13612:1 15747:1 17914:1 18626:1 20420:1 20942:1 22976:1 24358:1 24394:1 24617:1 28804:1 31827:1 32853:1 
0.0088084417154152741 4:1 5:1 6:1 7:1 8:1 9:1 12:1 13:1 14:1 15:1 18:1 20:1 29:1 32:1 48:1 51:1 52:1 53:1 57:1 58:1 142:1 147:1 177:1 194:1 196:1 220:1 243:1 244:1 295:1 304:1 317:1 322:1 385:1 387:1 413:1 418:1 422:1 425:1 426:1 470:1 472:1 490:1 535:1 540:1 605:1 756:1 797:1 992:1 1049:1 1078:1 1096:1 1150:1 1171:1 1173:1 2098:1 2593:1 2598:1 2652:1 2869:1 3056:1 3064:1 3610:1 3900:1 3960:1 4467:1 4485:1 4788:1 4831:1 4844:1 4851:1 5292:1 5309:1 5447:1 5937:1 7877:1 7885:1 8126:1 9229:1 9609:1 9865:1 9966:1 10326:1 10474:1 10485:1 14378:1 16096:1 17127:1 17702:1 17743:1 19756:1 20849:1 22461:1 23329:1 23453:1 23496:1 23513:1 24891:1 24931:1 25269:1 33150:1 
0.026004645838103878 4:1 5:1 6:1 7:1 9:1 13:1 14:1 16:1 18:1 19:1 26:1 32:1 36:1 39:1 50:1 51:1 53:1 58:1 74:1 159:1 181:1 183:1 191:1 210:1 236:1 238:1 245:1 247:1 256:1 304:1 313:1 317:1 323:1 413:1 446:1 469:1 477:1 507:1 517:1 544:1 577:1 588:1 599:1 710:1 793:1 812:1 857:1 891:1 899:1 1043:1 1050:1 1096:1 1177:1 1382:1 2191:1 2361:1 2413:1 2544:1 2765:1 2995:1 3091:1 3114:1 3243:1 3832:1 3890:1 4001:1 5266:1 5341:1 5676:1 5758:1 6016:1 6421:1 6428:1 6555:1 6666:1 7593:1 8206:1 8409:1 8599:1 8672:1 9560:1 9626:1 9961:1 10509:1 11584:1 14642:1 15047:1 15260:1 16805:1 17437:1 17875:1 18414:1 20605:1 21229:1 24807:1 24995:1 26104:1 26357:1 27257:1 28691:1 29090:1 29092:1 29362:1 32381:1 34355:1 34732:1 34898:1 
0.10516520983537106 1:1 3:1 4:1 5:1 6:1 7:1 8:1 9:1 12:1 13:1 14:1 18:1 19:1 20:1 23:1 29:1 36:1 39:1 48:1 49:1 51:1 52:1 53:1 58:1 62:1 66:1 82:1 98:1 100:1 139:1 142:1 177:1 191:1 195:1 196:1 206:1 244:1 245:1 256:1 260:1 262:1 271:1 276:1 289:1 300:1 307:1 317:1 318:1 387:1 413:1 446:1 447:1 460:1 464:1 535:1 547:1 570:1 573:1 575:1 579:1 588:1 605:1 610:1 637:1 693:1 699:1 743:1 759:1 766:1 850:1 901:1 902:1 990:1 1022:1 1049:1 1050:1 1061:1 1071:1 1082:1 1096:1 1165:1 1230:1 1235:1 1300:1 1422:1 1652:1 1723:1 2020:1 2038:1 2560:1 2625:1 2652:1 2739:1 3060:1 3096:1 3220:1 3278:1 3299:1 3393:1 3541:1 3657:1 3725:1 3890:1 3922:1 4488:1 5008:1 5157:1 5197:1 6057:1 6384:1 6391:1 6458:1 6553:1 6733:1 7017:1 7514:1 7558:1 7916:1 7987:1 7997:1 8345:1 8689:1 8705:1 9440:1 9605:1 9629:1 9739:1 9813:1 9888:1 9961:1 10418:1 10836:1 11282:1 11764:1 13006:1 14083:1 15929:1 16733:1 17724:1 17906:1 18308:1 18516:1 18566:1 18905:1 19427:1 19882:1 20085:1 20964:1 22500:1 23933:1 27410:1 28464:1 28805:1 29073:1 29617:1 30543:1 32205:1 32315:1 33575:1 34194:1 34951:1 34994:1 
0.0549291110575734 4:1 5:1 7:1 8:1 9:1 12:1 13:1 14:1 15:1 21:1 23:1 26:1 52:1 57:1 66:1 67:1 142:1 177:1 181:1 189:1 243:1 276:1 304:1 318:1 383:1 390:1 422:1 453:1 479:1 652:1 685:1 686:1 688:1 689:1 726:1 1071:1 1150:1 1295:1 1297:1 1324:1 2351:1 2506:1 3037:1 3380:1 3916:1 4431:1 4530:1 4821:1 5082:1 7196:1 7438:1 7458:1 7470:1 7490:1 7713:1 7715:1 9802:1 10316:1 11222:1 11249:1 11390:1 11392:1 15687:1 18788:1 20924:1 22663:1 24222:1 31090:1 31925:1 32012:1 32119:1 32698:1 32704:1 
0.032361321499570113 4:1 5:1 7:1 8:1 9:1 14:1 15:1 18:1 21:1 30:1 49:1 51:1 52:1 58:1 64:1 142:1 186:1 194:1 238:1 263:1 276:1 311:1 446:1 450:1 461:1 479:1 535:1 549:1 652:1 782:1 787:1 1021:1 1063:1 1071:1 1169:1 1277:1 2458:1 2593:1 3304:1 3385:1 3786:1 5020:1 5168:1 6086:1 7193:1 8078:1 8110:1 9420:1 9757:1 9807:1 10446:1 11095:1 15470:1 18578:1 18827:1 31066:1 33745:1 33815:1 
0.01532023017684072 1:1 2:1 3:1 4:1 5:1 6:1 7:1 8:1 9:1 10:1 11:1 13:1 14:1 15:1 18:1 20:1 21:1 26:1 36:1 39:1 48:1 51:1 52:1 54:1 58:1 59:1 63:1 64:1 67:1 81:1 82:1 89:1 111:1 139:1 147:1 177:1 190:1 191:1 194:1 196:1 205:1 246:1 272:1 276:1 300:1 318:1 342:1 355:1 418:1 446:1 451:1 457:1 477:1 480:1 535:1 536:1 544:1 605:1 610:1 622:1 624:1 645:1 655:1 658:1 705:1 846:1 865:1 903:1 907:1 992:1 1051:1 1071:1 1111:1 1177:1 1180:1 1258:1 1272:1 1308:1 1407:1 1524:1 1803:1 2025:1 2095:1 2528:1 2544:1 2548:1 2593:1 2665:1 3102:1 3340:1 3389:1 3393:1 3668:1 3919:1 4159:1 4217:1 4788:1 5046:1 5132:1 5346:1 5354:1 5884:1 6020:1 6732:1 6862:1 6900:1 7084:1 7231:1 7308:1 8324:1 8463:1 8708:1 8747:1 9227:1 9635:1 9813:1 10054:1 10514:1 10517:1 10988:1 11051:1 12177:1 13946:1 14356:1 15787:1 15868:1 16536:1 17914:1 18626:1 18864:1 18914:1 19925:1 20953:1 21619:1 23329:1 24425:1 25009:1 25023:1 26640:1 27287:1 29603:1 30087:1 30237:1 31207:1 31531:1 34154:1 34456:1 35111:1 
0.4451017267972549 1:1 4:1 5:1 9:1 11:1 14:1 20:1 22:1 45:1 48:1 53:1 58:1 92:1 142:1 151:1 177:1 304:1 308:1 309:1 313:1 318:1 326:1 368:1 446:1 455:1 614:1 667:1 960:1 993:1 1086:1 1097:1 1167:1 1559:1 2129:1 3726:1 3744:1 3835:1 3910:1 4050:1 4320:1 5109:1 6789:1 8940:1 9238:1 9970:1 10434:1 12316:1 14467:1 20627:1 22016:1 24340:1 29839:1 
0.10913532494561798 1:1 4:1 5:1 7:1 9:1 14:1 15:1 18:1 19:1 26:1 48:1 53:1 104:1 147:1 151:1 184:1 195:1 255:1 304:1 313:1 318:1 319:1 446:1 451:1 492:1 536:1 570:1 714:1 992:1 993:1 1097:1 1762:1 2099:1 2133:1 2429:1 2625:1 3202:1 3817:1 3914:1 3940:1 5053:1 5480:1 5896:1 7640:1 9230:1 9241:1 9972:1 13125:1 14399:1 14488:1 15351:1 18224:1 20905:1 21018:1 24106:1 26721:1 32530:1 
0.14206951137723023 1:1 4:1 5:1 7:1 8:1 10:1 14:1 18:1 20:1 21:1 23:1 26:1 29:1 51:1 52:1 54:1 82:1 98:1 147:1 191:1 194:1 238:1 243:1 290:1 337:1 450:1 469:1 470:1 535:1 554:1 628:1 639:1 652:1 693:1 712:1 726:1 757:1 762:1 1048:1 1077:1 1106:1 1422:1 1652:1 2098:1 2565:1 2612:1 3051:1 3580:1 4103:1 5025:1 5268:1 5298:1 6193:1 6951:1 7193:1 7508:1 7613:1 7716:1 7907:1 7962:1 9598:1 9855:1 10013:1 11764:1 14392:1 15982:1 16286:1 17660:1 19632:1 21519:1 23987:1 24817:1 24909:1 27874:1 30404:1 31069:1 32179:1 32710:1 33244:1 
0.13586755745871995 1:1 4:1 5:1 9:1 12:1 14:1 15:1 18:1 19:1 20:1 23:1 29:1 45:1 48:1 53:1 59:1 66:1 82:1 93:1 95:1 166:1 196:1 323:1 378:1 446:1 496:1 554:1 570:1 575:1 605:1 606:1 686:1 743:1 963:1 998:1 1100:1 1194:1 1296:1 1418:1 1563:1 1609:1 2254:1 2653:1 3986:1 3990:1 5555:1 6173:1 6408:1 6693:1 7461:1 8973:1 9297:1 9991:1 10567:1 11243:1 11710:1 16466:1 21181:1 25742:1 28611:1 29420:1 32027:1 
0.18180628592952622 1:1 6:1 7:1 14:1 15:1 22:1 45:1 65:1 81:1 82:1 87:1 95:1 206:1 238:1 453:1 479:1 675:1 952:1 956:1 1287:1 1407:1 1479:1 1615:1 2748:1 5079:1 7387:1 8859:1 8909:1 11181:1 12024:1 12581:1 16760:1 
0.18545194540818594 5:1 13:1 14:1 15:1 22:1 65:1 177:1 191:1 418:1 451:1 491:1 675:1 1287:1 2548:1 4786:1 5046:1 5466:1 7394:1 11186:1 15868:1 23320:1 25345:1 31750:1 
0.11470753330713405 1:1 4:1 19:1 48:1 99:1 143:1 570:1 588:1 991:1 1689:1 2067:1 6548:1 9210:1 12890:1 14259:1 
0.015363663646714739 1:1 3:1 4:1 5:1 6:1 7:1 8:1 9:1 13:1 14:1 15:1 19:1 20:1 21:1 22:1 48:1 64:1 65:1 95:1 139:1 147:1 151:1 177:1 212:1 256:1 271:1 289:1 323:1 413:1 450:1 491:1 573:1 606:1 645:1 675:1 993:1 1272:1 1287:1 1612:1 2020:1 2038:1 2082:1 2140:1 2815:1 3220:1 3538:1 3989:1 5025:1 5463:1 6384:1 6704:1 7091:1 7394:1 9246:1 11057:1 11186:1 12553:1 14080:1 14524:1 16987:1 18308:1 19404:1 21167:1 23976:1 28447:1 28464:1 29465:1 30790:1 31749:1 
0.0097192795697589249 1:1 2:1 4:1 5:1 7:1 8:1 9:1 10:1 12:1 13:1 14:1 15:1 19:1 20:1 21:1 22:1 23:1 26:1 40:1 46:1 51:1 52:1 54:1 56:1 57:1 64:1 65:1 66:1 81:1 82:1 95:1 115:1 142:1 147:1 177:1 181:1 182:1 189:1 195:1 196:1 246:1 272:1 276:1 304:1 329:1 338:1 379:1 387:1 418:1 445:1 450:1 466:1 479:1 491:1 570:1 575:1 584:1 605:1 656:1 658:1 661:1 675:1 688:1 710:1 918:1 975:1 1051:1 1071:1 1107:1 1134:1 1148:1 1163:1 1280:1 1287:1 1297:1 1407:1 1612:1 1866:1 2099:1 2355:1 2375:1 2503:1 2625:1 2652:1 3102:1 3340:1 3393:1 4069:1 4117:1 4389:1 4485:1 4774:1 4990:1 5020:1 5252:1 5466:1 6391:1 6506:1 7264:1 7309:1 7327:1 7387:1 7470:1 7478:1 7587:1 7599:1 8786:1 9101:1 9635:1 9813:1 10023:1 10189:1 10300:1 10405:1 11144:1 11181:1 11249:1 11254:1 12549:1 13538:1 14399:1 15026:1 15087:1 15664:1 17914:1 18626:1 18905:1 21460:1 21541:1 22184:1 23848:1 24776:1 25342:1 28934:1 31363:1 31559:1 31597:1 32075:1 32404:1 35166:1 
1 4:1 5:1 14:1 21:1 48:1 64:1 142:1 147:1 177:1 450:1 652:1 992:1 1277:1 2082:1 5020:1 7193:1 9214:1 11095:1 31066:1 
0.28284277735473318 1:1 5:1 6:1 7:1 8:1 18:1 19:1 21:1 29:1 52:1 64:1 81:1 177:1 212:1 222:1 244:1 272:1 560:1 575:1 588:1 645:1 760:1 1070:1 1272:1 2807:1 2893:1 3065:1 3339:1 6268:1 6391:1 6553:1 7091:1 7951:1 9784:1 11057:1 16963:1 17206:1 17750:1 28127:1 29073:1 30782:1 33422:1 
0.1546272391744842 1:1 2:1 4:1 5:1 6:1 7:1 8:1 9:1 12:1 14:1 19:1 21:1 23:1 51:1 66:1 81:1 82:1 87:1 115:1 151:1 191:1 210:1 211:1 238:1 246:1 272:1 311:1 316:1 382:1 466:1 572:1 656:1 658:1 684:1 1051:1 1294:1 1407:1 1481:1 1857:1 2131:1 2562:1 2774:1 2786:1 3102:1 3340:1 3786:1 3869:1 4419:1 5251:1 6375:1 7253:1 7309:1 7419:1 9635:1 11206:1 12032:1 13503:1 14477:1 15966:1 16849:1 16906:1 17914:1 18626:1 20737:1 22288:1 24774:1 28425:1 31293:1 31548:1 31833:1 
0.054779624051605871 4:1 5:1 7:1 9:1 13:1 14:1 15:1 18:1 19:1 20:1 23:1 29:1 48:1 59:1 62:1 66:1 147:1 151:1 177:1 190:1 194:1 243:1 262:1 311:1 322:1 413:1 465:1 479:1 482:1 493:1 535:1 544:1 585:1 605:1 693:1 750:1 757:1 992:1 993:1 1182:1 1238:1 1300:1 2082:1 2098:1 2139:1 2524:1 2593:1 3037:1 3050:1 3294:1 3806:1 3969:1 5219:1 5368:1 5504:1 6015:1 6517:1 7503:1 7819:1 7906:1 9214:1 9245:1 10523:1 10855:1 11273:1 14373:1 14520:1 17638:1 18553:1 20456:1 21102:1 25070:1 27243:1 28966:1 32141:1 32904:1 32909:1 33229:1 
0.25198934699116443 1:1 2:1 3:1 4:1 5:1 8:1 9:1 15:1 18:1 19:1 21:1 48:1 53:1 59:1 81:1 111:1 139:1 143:1 162:1 177:1 271:1 323:1 480:1 540:1 573:1 655:1 991:1 997:1 1100:1 1180:1 1803:1 2020:1 2055:1 2234:1 3989:1 5354:1 5937:1 6384:1 7235:1 9200:1 9293:1 9992:1 10517:1 14742:1 21167:1 25023:1 28447:1 31217:1 
0.41734364011742392 1:1 3:1 4:1 5:1 7:1 8:1 9:1 14:1 18:1 19:1 20:1 23:1 32:1 48:1 51:1 53:1 66:1 72:1 95:1 99:1 139:1 143:1 177:1 195:1 256:1 271:1 309:1 318:1 465:1 540:1 570:1 571:1 573:1 588:1 599:1 605:1 622:1 686:1 793:1 808:1 812:1 991:1 1059:1 1097:1 1296:1 1365:1 1625:1 1676:1 2020:1 2067:1 2642:1 3243:1 3744:1 3927:1 5219:1 5232:1 5953:1 6364:1 6384:1 6549:1 6666:1 6861:1 7450:1 8186:1 8206:1 9210:1 9722:1 9980:1 11234:1 11545:1 12645:1 14254:1 16422:1 18414:1 20992:1 24712:1 27001:1 28390:1 28447:1 29059:1 29362:1 30078:1 31968:1 33941:1 
0.28863041319124549 1:1 3:1 4:1 5:1 7:1 8:1 9:1 13:1 14:1 19:1 20:1 21:1 23:1 32:1 39:1 47:1 51:1 52:1 57:1 58:1 62:1 64:1 66:1 99:1 139:1 142:1 177:1 196:1 260:1 276:1 290:1 309:1 418:1 450:1 465:1 472:1 570:1 588:1 589:1 605:1 652:1 684:1 686:1 699:1 797:1 902:1 989:1 1061:1 1071:1 1148:1 1173:1 1230:1 1277:1 1294:1 1296:1 1676:1 2039:1 2652:1 3278:1 3393:1 3580:1 3744:1 4774:1 5020:1 5219:1 5309:1 6566:1 6577:1 7193:1 7207:1 7426:1 7450:1 7558:1 8126:1 8705:1 9190:1 9739:1 9813:1 10300:1 10485:1 11095:1 11212:1 11234:1 14120:1 18516:1 18905:1 19638:1 24931:1 29136:1 31066:1 31136:1 31875:1 31968:1 32315:1 34998:1 
0.064910383607172925 1:1 2:1 5:1 8:1 10:1 12:1 13:1 14:1 15:1 18:1 22:1 52:1 54:1 65:1 82:1 93:1 98:1 111:1 177:1 191:1 272:1 337:1 380:1 418:1 451:1 491:1 535:1 675:1 1070:1 1106:1 1287:1 1422:1 1565:1 1652:1 1803:1 2548:1 3349:1 4103:1 4402:1 4786:1 5046:1 5466:1 7394:1 9793:1 10013:1 11186:1 11764:1 12341:1 15868:1 18677:1 21519:1 22234:1 23320:1 25345:1 31750:1 
0.010178245275020184 3:1 4:1 5:1 7:1 8:1 9:1 14:1 18:1 19:1 20:1 21:1 23:1 51:1 53:1 64:1 66:1 139:1 142:1 194:1 256:1 271:1 304:1 313:1 323:1 324:1 450:1 535:1 573:1 579:1 627:1 652:1 685:1 686:1 1059:1 1100:1 1277:1 1296:1 2020:1 2593:1 3226:1 3817:1 3989:1 4029:1 5020:1 6384:1 6454:1 6938:1 7193:1 7441:1 7462:1 9717:1 9992:1 11095:1 11244:1 18342:1 21167:1 21368:1 28447:1 28767:1 30372:1 31066:1 31941:1 32041:1 
0.037961676586640507 3:1 4:1 5:1 8:1 9:1 11:1 15:1 18:1 19:1 20:1 21:1 22:1 29:1 37:1 47:1 48:1 64:1 65:1 139:1 147:1 151:1 177:1 280:1 301:1 304:1 322:1 368:1 479:1 560:1 570:1 605:1 656:1 658:1 675:1 754:1 870:1 989:1 992:1 993:1 1280:1 1287:1 2029:1 2050:1 2082:1 2139:1 3415:1 3670:1 3983:1 4317:1 6263:1 7251:1 7309:1 7387:1 7862:1 8496:1 9197:1 9214:1 9245:1 11144:1 11181:1 13969:1 14193:1 14521:1 19936:1 21151:1 28112:1 31547:1 33061:1 34553:1 
0.047904085209086837 1:1 3:1 4:1 5:1 8:1 9:1 12:1 13:1 14:1 15:1 18:1 19:1 20:1 23:1 45:1 47:1 48:1 49:1 52:1 66:1 90:1 99:1 139:1 143:1 147:1 177:1 180:1 191:1 194:1 196:1 271:1 276:1 282:1 285:1 304:1 308:1 318:1 323:1 387:1 418:1 451:1 455:1 460:1 481:1 535:1 573:1 583:1 605:1 686:1 959:1 989:1 991:1 1009:1 1071:1 1296:1 1538:1 1686:1 2020:1 2025:1 2031:1 2034:1 2067:1 2098:1 2349:1 2556:1 2593:1 2652:1 3376:1 3389:1 3393:1 3450:1 3482:1 3728:1 3918:1 3989:1 4485:1 4788:1 5046:1 5120:1 5160:1 5364:1 6384:1 6497:1 7449:1 8933:1 9184:1 9188:1 9210:1 9353:1 9813:1 11233:1 12250:1 12885:1 13935:1 13946:1 14000:1 14029:1 14258:1 14373:1 14998:1 15914:1 18872:1 18905:1 19069:1 19175:1 20114:1 20948:1 21167:1 23329:1 24397:1 24490:1 25054:1 28447:1 28912:1 31965:1 
1 4:1 5:1 9:1 13:1 18:1 23:1 53:1 66:1 147:1 194:1 308:1 317:1 418:1 426:1 535:1 686:1 1096:1 1296:1 2098:1 2593:1 3728:1 3900:1 4788:1 4851:1 7449:1 9966:1 11233:1 14373:1 20114:1 20849:1 23329:1 23513:1 31965:1 
0.52724875881470312 5:1 6:1 9:1 18:1 19:1 29:1 39:1 49:1 50:1 62:1 177:1 195:1 222:1 236:1 304:1 313:1 535:1 560:1 570:1 575:1 579:1 588:1 760:1 901:1 1022:1 1035:1 1043:1 1235:1 2625:1 2893:1 2999:1 3817:1 6268:1 6391:1 6454:1 6553:1 7951:1 8680:1 9440:1 9521:1 9564:1 10833:1 17206:1 17452:1 28127:1 28767:1 29073:1 33422:1 
0.10206921017366989 1:1 2:1 3:1 4:1 6:1 7:1 8:1 9:1 12:1 14:1 15:1 18:1 19:1 20:1 21:1 22:1 29:1 39:1 45:1 48:1 64:1 65:1 82:1 83:1 88:1 100:1 123:1 139:1 151:1 166:1 205:1 238:1 247:1 289:1 304:1 311:1 396:1 450:1 490:1 536:1 568:1 573:1 614:1 622:1 629:1 645:1 675:1 743:1 757:1 902:1 952:1 953:1 998:1 1272:1 1287:1 1413:1 1424:1 1445:1 1496:1 1710:1 1920:1 2038:1 2131:1 2254:1 3114:1 3545:1 3560:1 3786:1 3793:1 4594:1 5029:1 5454:1 5877:1 6342:1 6384:1 6788:1 6860:1 6961:1 7084:1 7393:1 7895:1 8700:1 8875:1 8893:1 9297:1 11051:1 11185:1 11672:1 11808:1 11919:1 12961:1 13715:1 14087:1 14102:1 14480:1 19456:1 19551:1 20378:1 22821:1 24006:1 25312:1 26603:1 28303:1 28464:1 29819:1 30055:1 30427:1 31744:1 33172:1 34981:1 
0.28389713869026562 1:1 4:1 5:1 6:1 7:1 9:1 12:1 13:1 14:1 15:1 19:1 20:1 21:1 26:1 32:1 39:1 48:1 53:1 56:1 58:1 64:1 67:1 99:1 142:1 143:1 147:1 177:1 224:1 238:1 318:1 393:1 398:1 413:1 446:1 472:1 479:1 493:1 570:1 605:1 645:1 651:1 705:1 735:1 797:1 892:1 907:1 990:1 991:1 992:1 1097:1 1137:1 1138:1 1173:1 1276:1 1308:1 1332:1 1676:1 2067:1 2082:1 2917:1 3910:1 4567:1 4630:1 5309:1 5504:1 7100:1 7168:1 7769:1 8126:1 8609:1 8739:1 9210:1 9214:1 9970:1 10227:1 10234:1 10485:1 11075:1 11428:1 14254:1 22760:1 22902:1 24931:1 30822:1 32808:1 35066:1 
0.42774287405132289 1:1 3:1 4:1 5:1 7:1 8:1 9:1 15:1 18:1 19:1 20:1 22:1 23:1 29:1 48:1 49:1 65:1 66:1 99:1 139:1 142:1 143:1 195:1 256:1 280:1 289:1 307:1 479:1 493:1 496:1 535:1 542:1 570:1 573:1 585:1 605:1 675:1 693:1 759:1 766:1 990:1 991:1 1022:1 1287:1 1300:1 1676:1 2029:1 2038:1 2067:1 2639:1 3220:1 3418:1 3537:1 3725:1 5518:1 5544:1 5991:1 6384:1 6508:1 7396:1 7514:1 7916:1 7997:1 9210:1 9444:1 11188:1 11282:1 13972:1 14079:1 14254:1 16406:1 18308:1 18946:1 20096:1 25559:1 25689:1 27142:1 28455:1 31763:1 32205:1 33575:1 
0.066087746144250226 1:1 5:1 6:1 8:1 15:1 18:1 20:1 45:1 100:1 185:1 194:1 210:1 285:1 484:1 535:1 610:1 624:1 967:1 1712:1 2443:1 2593:1 2776:1 3485:1 5382:1 6728:1 6900:1 9024:1 12977:1 15417:1 16853:1 19180:1 25099:1 29566:1 30235:1 
1 1:1 4:1 5:1 8:1 11:1 13:1 14:1 18:1 19:1 20:1 29:1 48:1 52:1 57:1 63:1 99:1 143:1 194:1 196:1 276:1 368:1 418:1 457:1 535:1 570:1 605:1 629:1 757:1 991:1 1071:1 1148:1 1261:1 1676:1 2067:1 2593:1 2652:1 3393:1 4317:1 4788:1 5142:1 6961:1 7901:1 9210:1 9813:1 10309:1 11012:1 14254:1 18905:1 23329:1 24457:1 30429:1 33214:1 
0.10842571095168244 3:1 4:1 5:1 7:1 8:1 9:1 13:1 14:1 16:1 18:1 19:1 21:1 23:1 26:1 47:1 48:1 49:1 53:1 62:1 64:1 66:1 67:1 139:1 142:1 147:1 177:1 181:1 194:1 201:1 238:1 245:1 286:1 290:1 304:1 413:1 450:1 453:1 518:1 535:1 555:1 573:1 646:1 651:1 652:1 685:1 705:1 721:1 989:1 992:1 1028:1 1086:1 1232:1 1277:1 1295:1 1319:1 2035:1 2039:1 2082:1 2098:1 2355:1 2593:1 2712:1 3074:1 3506:1 3579:1 5020:1 5079:1 5772:1 6205:1 6210:1 6384:1 7111:1 7168:1 7193:1 7196:1 7432:1 7679:1 9190:1 9214:1 9462:1 10809:1 11095:1 11216:1 11369:1 14049:1 14119:1 14373:1 15025:1 19286:1 19623:1 26425:1 27907:1 27932:1 28461:1 30855:1 31066:1 31088:1 31889:1 32626:1 
0.54224600091213315 3:1 5:1 8:1 9:1 12:1 15:1 19:1 23:1 32:1 47:1 62:1 66:1 72:1 139:1 177:1 271:1 282:1 304:1 309:1 313:1 387:1 479:1 493:1 573:1 585:1 686:1 808:1 989:1 1238:1 1296:1 1365:1 2020:1 2031:1 3450:1 3744:1 3817:1 4494:1 5504:1 6384:1 6508:1 6517:1 7450:1 8186:1 9186:1 10846:1 10855:1 11234:1 11545:1 14000:1 19073:1 22537:1 28447:1 28966:1 31968:1 33941:1 
0.1566930022350643 2:1 5:1 9:1 13:1 14:1 15:1 18:1 19:1 20:1 29:1 49:1 57:1 59:1 62:1 106:1 194:1 304:1 324:1 413:1 422:1 470:1 480:1 535:1 579:1 619:1 756:1 1021:1 1150:1 1180:1 1235:1 2593:1 4021:1 4833:1 5292:1 5352:1 6447:1 6835:1 7877:1 9420:1 10328:1 10516:1 10827:1 21322:1 23470:1 24888:1 29974:1 
0.081090655290491628 1:1 7:1 14:1 19:1 21:1 64:1 95:1 238:1 239:1 453:1 577:1 656:1 1279:1 1615:1 3019:1 5079:1 6422:1 7258:1 11123:1 12581:1 17515:1 28657:1 31322:1 
0.033677387082868292 1:1 2:1 3:1 5:1 7:1 8:1 9:1 13:1 14:1 15:1 18:1 19:1 20:1 29:1 49:1 51:1 52:1 57:1 58:1 62:1 81:1 82:1 98:1 111:1 139:1 177:1 179:1 182:1 194:1 239:1 246:1 272:1 287:1 295:1 322:1 413:1 422:1 461:1 479:1 535:1 540:1 542:1 554:1 573:1 610:1 756:1 1007:1 1051:1 1078:1 1150:1 1169:1 1232:1 1422:1 1670:1 1819:1 2036:1 2334:1 2373:1 2600:1 3010:1 3102:1 3339:1 3516:1 3610:1 3960:1 4831:1 5168:1 5942:1 5978:1 6177:1 6384:1 6721:1 7877:1 9635:1 9865:1 10326:1 10446:1 10809:1 11781:1 12833:1 13350:1 14059:1 14941:1 15079:1 16125:1 17485:1 17913:1 19328:1 19756:1 23453:1 26888:1 27078:1 27783:1 28462:1 
0.05797153619229195 1:1 3:1 4:1 5:1 6:1 8:1 9:1 19:1 20:1 29:1 48:1 53:1 69:1 99:1 139:1 143:1 180:1 210:1 271:1 289:1 323:1 570:1 573:1 605:1 749:1 991:1 1100:1 1339:1 1676:1 2020:1 2038:1 2067:1 2349:1 2764:1 3537:1 3989:1 6384:1 7814:1 9210:1 9992:1 11441:1 14079:1 14254:1 15003:1 16803:1 21167:1 28447:1 32889:1 
0.22626370898549075 1:1 2:1 3:1 5:1 6:1 8:1 9:1 12:1 14:1 16:1 18:1 19:1 21:1 26:1 29:1 36:1 45:1 46:1 50:1 53:1 60:1 64:1 93:1 130:1 139:1 180:1 205:1 229:1 271:1 323:1 378:1 383:1 390:1 409:1 446:1 513:1 549:1 573:1 645:1 716:1 755:1 759:1 864:1 961:1 981:1 1038:1 1100:1 1203:1 1272:1 1575:1 1978:1 2020:1 2349:1 2960:1 3989:1 4433:1 4526:1 4712:1 5736:1 6086:1 6384:1 7084:1 7653:1 7872:1 7928:1 8459:1 8951:1 9151:1 9536:1 9992:1 10636:1 11051:1 12396:1 13829:1 14992:1 17364:1 21167:1 22309:1 23096:1 26305:1 28447:1 32564:1 33094:1 33347:1 34450:1 
0.14139422749878752 1:1 3:1 4:1 5:1 6:1 7:1 8:1 9:1 11:1 12:1 13:1 14:1 15:1 16:1 18:1 19:1 20:1 21:1 23:1 39:1 48:1 51:1 53:1 58:1 66:1 82:1 85:1 92:1 95:1 139:1 142:1 147:1 151:1 177:1 194:1 223:1 239:1 255:1 271:1 289:1 307:1 308:1 310:1 313:1 317:1 322:1 323:1 361:1 368:1 369:1 387:1 418:1 426:1 453:1 455:1 493:1 496:1 505:1 535:1 539:1 544:1 546:1 554:1 573:1 581:1 586:1 605:1 606:1 614:1 657:1 686:1 688:1 699:1 901:1 992:1 993:1 1046:1 1096:1 1100:1 1167:1 1296:1 1297:1 1306:1 1420:1 1454:1 1559:1 1615:1 2020:1 2038:1 2082:1 2098:1 2140:1 2593:1 2911:1 3013:1 3204:1 3538:1 3725:1 3728:1 3779:1 3831:1 3900:1 3979:1 3989:1 3994:1 4271:1 4317:1 4339:1 4488:1 4788:1 4851:1 5093:1 5108:1 5518:1 5541:1 5653:1 5918:1 6014:1 6042:1 6173:1 6384:1 6482:1 6525:1 6693:1 6789:1 7284:1 7449:1 7480:1 7557:1 8688:1 9214:1 9246:1 9575:1 9966:1 9992:1 10433:1 11233:1 11256:1 11316:1 11742:1 12313:1 12591:1 14080:1 14373:1 14528:1 17246:1 17493:1 18237:1 19395:1 20085:1 20096:1 20114:1 20326:1 20590:1 20849:1 21133:1 21167:1 21209:1 21897:1 22061:1 22500:1 23329:1 23513:1 24289:1 24339:1 25556:1 25655:1 26043:1 26817:1 27232:1 27363:1 28447:1 28863:1 28994:1 29421:1 29836:1 31439:1 31965:1 32090:1 32310:1 34947:1 
0.010691723762799267 1:1 3:1 4:1 5:1 7:1 8:1 9:1 10:1 13:1 14:1 15:1 18:1 19:1 20:1 21:1 23:1 26:1 36:1 48:1 51:1 53:1 54:1 58:1 66:1 67:1 99:1 104:1 139:1 143:1 177:1 246:1 271:1 272:1 300:1 309:1 323:1 338:1 413:1 455:1 493:1 496:1 554:1 570:1 573:1 605:1 623:1 651:1 688:1 705:1 724:1 858:1 865:1 991:1 1051:1 1100:1 1107:1 1167:1 1297:1 1322:1 1676:1 1757:1 2020:1 2021:1 2067:1 3111:1 3360:1 3668:1 3744:1 3989:1 4113:1 5110:1 5518:1 5555:1 6173:1 6189:1 6384:1 6875:1 7168:1 7480:1 7701:1 8423:1 8471:1 9210:1 9644:1 9992:1 10021:1 10435:1 11256:1 11381:1 13919:1 14254:1 17949:1 18746:1 19930:1 21167:1 24344:1 25569:1 25754:1 27854:1 28447:1 28448:1 30155:1 32090:1 32668:1 34384:1 34490:1 
0.022302372769366516 1:1 2:1 3:1 4:1 5:1 6:1 8:1 9:1 12:1 13:1 14:1 15:1 16:1 18:1 19:1 20:1 21:1 22:1 23:1 26:1 39:1 45:1 48:1 52:1 53:1 57:1 58:1 62:1 63:1 65:1 66:1 67:1 83:1 99:1 101:1 111:1 115:1 139:1 143:1 177:1 179:1 189:1 191:1 194:1 197:1 201:1 223:1 271:1 276:1 289:1 302:1 304:1 307:1 313:1 318:1 323:1 383:1 390:1 418:1 429:1 446:1 460:1 461:1 479:1 508:1 535:1 536:1 570:1 573:1 579:1 605:1 622:1 625:1 644:1 651:1 657:1 670:1 685:1 705:1 710:1 903:1 953:1 991:1 1071:1 1084:1 1088:1 1100:1 1148:1 1169:1 1230:1 1232:1 1258:1 1285:1 1295:1 1308:1 1434:1 1676:1 1728:1 1819:1 1855:1 2020:1 2038:1 2067:1 2335:1 2506:1 2556:1 2593:1 2687:1 2715:1 2906:1 3376:1 3556:1 3688:1 3725:1 3817:1 3922:1 3989:1 4431:1 4530:1 4774:1 4883:1 5157:1 5168:1 5695:1 5894:1 6384:1 6458:1 6860:1 6925:1 7065:1 7182:1 7277:1 7352:1 7369:1 7440:1 7599:1 7606:1 8708:1 8883:1 9210:1 9800:1 9908:1 9915:1 9992:1 10300:1 10446:1 10809:1 10986:1 11152:1 11169:1 11224:1 11860:1 13021:1 13343:1 13489:1 14098:1 14254:1 14949:1 15687:1 15913:1 16585:1 16667:1 16672:1 17237:1 19529:1 19977:1 20085:1 20964:1 21167:1 22663:1 23616:1 26165:1 26713:1 28447:1 28464:1 28805:1 30067:1 30312:1 31042:1 31634:1 31701:1 31937:1 32406:1 32442:1 
0.18101386285811571 1:1 2:1 4:1 5:1 9:1 14:1 15:1 18:1 19:1 21:1 45:1 46:1 48:1 53:1 62:1 101:1 115:1 147:1 177:1 194:1 304:1 446:1 450:1 492:1 549:1 585:1 639:1 968:1 975:1 992:1 1086:1 1238:1 1724:1 1848:1 2082:1 2098:1 2607:1 5025:1 5484:1 6086:1 6516:1 9027:1 9084:1 9214:1 10854:1 14387:1 16204:1 23987:1 25397:1 28962:1 
1 1:1 2:1 4:1 9:1 10:1 14:1 21:1 46:1 54:1 64:1 81:1 82:1 115:1 142:1 304:1 313:1 337:1 450:1 652:1 975:1 1106:1 1277:1 1407:1 1855:1 3817:1 4103:1 5020:1 7193:1 9090:1 10013:1 11095:1 13489:1 21518:1 31066:1 
0.063134469473654545 1:1 3:1 4:1 5:1 6:1 7:1 8:1 9:1 11:1 12:1 13:1 14:1 15:1 16:1 18:1 19:1 20:1 21:1 26:1 39:1 45:1 48:1 55:1 56:1 57:1 60:1 62:1 64:1 82:1 92:1 93:1 139:1 142:1 147:1 177:1 183:1 191:1 194:1 223:1 255:1 280:1 289:1 305:1 307:1 324:1 364:1 368:1 378:1 383:1 390:1 392:1 411:1 422:1 450:1 451:1 465:1 492:1 502:1 507:1 517:1 518:1 535:1 555:1 570:1 573:1 577:1 585:1 605:1 606:1 610:1 644:1 652:1 654:1 656:1 714:1 903:1 907:1 961:1 992:1 1125:1 1145:1 1150:1 1206:1 1232:1 1238:1 1277:1 1279:1 1418:1 1559:1 1568:1 1575:1 1577:1 2029:1 2038:1 2095:1 2098:1 2406:1 2548:1 2593:1 2905:1 3207:1 3418:1 3541:1 3698:1 3725:1 4010:1 4291:1 4317:1 4431:1 4526:1 4553:1 4734:1 4833:1 5020:1 5046:1 5220:1 5498:1 5635:1 5665:1 5758:1 5772:1 6203:1 6211:1 6384:1 6433:1 6524:1 6701:1 6721:1 7069:1 7193:1 7224:1 7251:1 7629:1 8708:1 8747:1 8951:1 8952:1 9227:1 9229:1 10135:1 10285:1 10328:1 10652:1 10809:1 10862:1 11095:1 11117:1 11715:1 12313:1 12356:1 12396:1 12409:1 13972:1 14083:1 14356:1 14373:1 15233:1 15868:1 17236:1 18257:1 18946:1 19416:1 20006:1 20096:1 21947:1 22719:1 23150:1 23461:1 24658:1 25472:1 26005:1 26352:1 26423:1 27898:1 27939:1 28455:1 28706:1 28991:1 29453:1 30653:1 31066:1 31180:1 32479:1 35111:1 
0.0067789593259048554 1:1 3:1 4:1 5:1 6:1 7:1 8:1 9:1 11:1 12:1 14:1 16:1 18:1 19:1 20:1 23:1 48:1 52:1 58:1 62:1 66:1 82:1 92:1 93:1 95:1 98:1 139:1 142:1 147:1 177:1 194:1 223:1 255:1 280:1 289:1 307:1 308:1 310:1 318:1 324:1 368:1 383:1 387:1 446:1 453:1 455:1 505:1 535:1 544:1 573:1 586:1 605:1 606:1 617:1 684:1 992:1 1073:1 1167:1 1232:1 1294:1 1422:1 1559:1 1572:1 1615:1 1652:1 2038:1 2082:1 2593:1 2911:1 3204:1 3432:1 3538:1 3725:1 3726:1 3779:1 3910:1 4019:1 4317:1 4447:1 4499:1 5093:1 5108:1 5109:1 5653:1 6014:1 6384:1 6525:1 6702:1 6704:1 6815:1 7417:1 9214:1 9827:1 10433:1 10434:1 10809:1 11204:1 11764:1 12313:1 12385:1 12591:1 14080:1 17246:1 18237:1 19026:1 19402:1 19404:1 20096:1 20326:1 21312:1 22379:1 22574:1 24289:1 24339:1 24340:1 26043:1 27232:1 28464:1 28994:1 29457:1 29466:1 29928:1 31828:1 
0.036311145638517721 1:1 3:1 4:1 5:1 7:1 8:1 9:1 12:1 13:1 14:1 18:1 19:1 20:1 21:1 29:1 48:1 51:1 52:1 64:1 69:1 81:1 82:1 139:1 151:1 177:1 184:1 189:1 191:1 196:1 243:1 246:1 272:1 276:1 289:1 309:1 311:1 391:1 436:1 463:1 464:1 535:1 540:1 573:1 579:1 588:1 605:1 652:1 759:1 760:1 766:1 993:1 1051:1 1071:1 1277:1 1349:1 1407:1 2038:1 2129:1 2419:1 2507:1 2560:1 2652:1 3037:1 3049:1 3102:1 3340:1 3393:1 3537:1 3757:1 3789:1 4549:1 4942:1 5192:1 5200:1 5944:1 6384:1 6453:1 6557:1 7205:1 7916:1 7951:1 7997:1 7998:1 9238:1 9635:1 9813:1 11105:1 11511:1 14079:1 14471:1 15286:1 15697:1 15932:1 17633:1 17914:1 18626:1 18905:1 20218:1 20352:1 22715:1 23750:1 24583:1 24600:1 26907:1 28464:1 28760:1 29099:1 31128:1 33423:1 33575:1 33599:1 
0.19909819343452514 1:1 3:1 4:1 5:1 6:1 8:1 9:1 13:1 15:1 19:1 23:1 26:1 39:1 47:1 48:1 53:1 67:1 82:1 99:1 139:1 151:1 177:1 183:1 206:1 271:1 276:1 285:1 309:1 317:1 323:1 413:1 479:1 493:1 573:1 575:1 699:1 726:1 902:1 989:1 993:1 1096:1 1100:1 1324:1 1423:1 1680:1 2020:1 2025:1 2034:1 2129:1 2396:1 2739:1 3382:1 3493:1 3744:1 3890:1 3989:1 5504:1 6384:1 6391:1 7558:1 7719:1 8700:1 9188:1 9238:1 9961:1 9992:1 11396:1 11789:1 12858:1 13940:1 14036:1 14467:1 15182:1 16734:1 18804:1 19215:1 21167:1 28447:1 28451:1 32312:1 32719:1 34981:1 
0.11137527446675444 1:1 2:1 5:1 7:1 9:1 12:1 13:1 14:1 18:1 19:1 26:1 49:1 51:1 57:1 82:1 83:1 95:1 118:1 177:1 194:1 239:1 304:1 323:1 387:1 422:1 469:1 536:1 575:1 710:1 1007:1 1046:1 1150:1 1408:1 1440:1 1629:1 1875:1 2594:1 3019:1 3990:1 4485:1 4832:1 5266:1 5877:1 6406:1 7587:1 9579:1 10327:1 11637:1 11898:1 12667:1 13566:1 16050:1 17520:1 21179:1 23459:1 24803:1 26599:1 28584:1 
0.32333812694058905 1:1 3:1 5:1 8:1 9:1 10:1 11:1 18:1 19:1 23:1 29:1 54:1 55:1 62:1 66:1 81:1 139:1 194:1 276:1 307:1 337:1 372:1 535:1 570:1 579:1 693:1 759:1 760:1 766:1 1106:1 1129:1 1230:1 1235:1 1300:1 2025:1 2593:1 3391:1 3725:1 4102:1 4358:1 6450:1 7514:1 7916:1 7938:1 7997:1 10012:1 10165:1 10829:1 11282:1 13948:1 18882:1 20088:1 22104:1 28750:1 32205:1 33575:1 
0.053184581964759128 3:1 4:1 5:1 8:1 9:1 14:1 15:1 18:1 19:1 23:1 48:1 49:1 53:1 66:1 139:1 159:1 194:1 271:1 318:1 323:1 446:1 492:1 535:1 544:1 573:1 688:1 995:1 1021:1 1100:1 1297:1 2020:1 2191:1 2593:1 3910:1 3989:1 5480:1 6020:1 6384:1 7479:1 9270:1 9420:1 9992:1 11255:1 14645:1 21167:1 27281:1 28447:1 32077:1 
0.22871610903565076 3:1 5:1 8:1 9:1 15:1 18:1 19:1 20:1 62:1 63:1 139:1 194:1 289:1 304:1 481:1 535:1 579:1 610:1 620:1 1235:1 1257:1 2038:1 2593:1 3541:1 5364:1 6447:1 6736:1 6840:1 10827:1 10972:1 14083:1 19429:1 25061:1 29623:1 29985:1 
0.22838159733889993 1:1 4:1 5:1 6:1 7:1 9:1 11:1 12:1 13:1 14:1 21:1 26:1 29:1 39:1 48:1 50:1 51:1 53:1 57:1 64:1 95:1 142:1 166:1 177:1 236:1 239:1 304:1 317:1 355:1 383:1 413:1 422:1 450:1 457:1 469:1 652:1 710:1 757:1 897:1 907:1 998:1 1043:1 1046:1 1086:1 1150:1 1277:1 1629:1 2261:1 3003:1 3019:1 3890:1 4217:1 4431:1 4829:1 5020:1 5132:1 5266:1 7193:1 7587:1 7901:1 8640:1 8742:1 9303:1 9566:1 9579:1 10324:1 11095:1 12667:1 14804:1 17465:1 17520:1 23442:1 24425:1 24803:1 31066:1 33206:1 34815:1 35077:1 
0.11991223463513748 3:1 5:1 8:1 9:1 12:1 13:1 15:1 18:1 19:1 20:1 26:1 47:1 49:1 62:1 67:1 139:1 177:1 182:1 194:1 282:1 285:1 304:1 313:1 317:1 324:1 387:1 422:1 479:1 493:1 535:1 573:1 575:1 605:1 714:1 989:1 1007:1 1232:1 1234:1 1314:1 2031:1 2034:1 2387:1 2593:1 3450:1 3493:1 3833:1 3897:1 4010:1 4498:1 4821:1 5504:1 6384:1 6395:1 7635:1 9188:1 10809:1 10813:1 11348:1 14000:1 14036:1 15136:1 19075:1 19215:1 20609:1 20835:1 22570:1 28457:1 28509:1 32516:1 
0.51990198955735112 1:1 5:1 7:1 8:1 9:1 13:1 14:1 18:1 19:1 20:1 23:1 40:1 51:1 52:1 57:1 58:1 66:1 82:1 99:1 177:1 190:1 260:1 276:1 309:1 322:1 413:1 422:1 455:1 535:1 570:1 588:1 589:1 605:1 684:1 700:1 918:1 1061:1 1071:1 1150:1 1167:1 1294:1 1423:1 1676:1 2524:1 3279:1 3388:1 3744:1 3960:1 4831:1 5110:1 6566:1 6577:1 7417:1 7563:1 8787:1 9740:1 9809:1 10326:1 10435:1 11204:1 11785:1 18518:1 18854:1 23453:1 24344:1 29136:1 31829:1 32325:1 35174:1 
0.069273212968488901 3:1 4:1 5:1 8:1 9:1 14:1 15:1 18:1 19:1 20:1 21:1 22:1 36:1 48:1 53:1 58:1 64:1 65:1 139:1 159:1 194:1 280:1 289:1 304:1 475:1 479:1 535:1 573:1 610:1 656:1 675:1 846:1 865:1 995:1 1086:1 1175:1 1279:1 1287:1 2029:1 2038:1 2187:1 2593:1 3415:1 3541:1 5330:1 6384:1 6736:1 7254:1 7387:1 8324:1 8463:1 9266:1 10501:1 11119:1 11181:1 13969:1 14083:1 19429:1 24975:1 28464:1 29623:1 31297:1 34156:1 34456:1 
0.040205679711138712 1:1 2:1 3:1 4:1 5:1 7:1 8:1 9:1 13:1 14:1 15:1 18:1 19:1 20:1 21:1 23:1 26:1 29:1 45:1 47:1 48:1 52:1 53:1 62:1 66:1 67:1 83:1 90:1 95:1 113:1 139:1 147:1 177:1 182:1 191:1 196:1 262:1 272:1 276:1 290:1 304:1 313:1 317:1 323:1 324:1 413:1 451:1 455:1 460:1 479:1 540:1 570:1 579:1 605:1 648:1 688:1 693:1 714:1 743:1 759:1 766:1 953:1 959:1 989:1 992:1 1070:1 1077:1 1096:1 1235:1 1297:1 1300:1 1314:1 1436:1 1542:1 1617:1 1843:1 2025:1 2082:1 2087:1 2372:1 2556:1 2652:1 3299:1 3351:1 3389:1 3577:1 3817:1 3833:1 3890:1 3986:1 4010:1 5046:1 5106:1 5160:1 5954:1 6454:1 7139:1 7470:1 7509:1 7635:1 7921:1 7987:1 8885:1 8935:1 9184:1 9214:1 9219:1 9795:1 9853:1 9961:1 10833:1 11249:1 11278:1 11348:1 11881:1 12265:1 12600:1 13460:1 13946:1 14300:1 15914:1 18566:1 18701:1 18872:1 19618:1 20609:1 24490:1 27005:1 28767:1 30920:1 32184:1 32516:1 33300:1 
0.0033496648572479636 1:1 2:1 3:1 4:1 5:1 7:1 8:1 9:1 12:1 13:1 14:1 15:1 18:1 20:1 21:1 22:1 23:1 29:1 36:1 48:1 51:1 52:1 53:1 56:1 57:1 64:1 65:1 66:1 83:1 111:1 139:1 142:1 147:1 177:1 182:1 191:1 194:1 196:1 255:1 276:1 295:1 304:1 409:1 418:1 450:1 451:1 479:1 496:1 535:1 536:1 543:1 605:1 610:1 652:1 675:1 688:1 759:1 761:1 846:1 992:1 1058:1 1078:1 1086:1 1143:1 1148:1 1277:1 1287:1 1297:1 1434:1 1803:1 2025:1 2087:1 2095:1 2389:1 2548:1 2593:1 2655:1 3202:1 3391:1 3613:1 3615:1 4703:1 4788:1 5020:1 5046:1 5545:1 5878:1 6002:1 6721:1 7193:1 7397:1 7470:1 7916:1 7953:1 8324:1 9219:1 9227:1 9699:1 9869:1 10267:1 10309:1 11095:1 11189:1 11249:1 11848:1 13948:1 14305:1 14356:1 15166:1 15868:1 16474:1 18215:1 18882:1 19773:1 19791:1 23077:1 23329:1 25694:1 26615:1 27180:1 31066:1 31773:1 34154:1 
0.21781002811365974 5:1 6:1 9:1 11:1 18:1 21:1 53:1 55:1 177:1 194:1 210:1 322:1 369:1 540:1 645:1 1099:1 1127:1 2598:1 2776:1 3965:1 4332:1 5937:1 7089:1 9986:1 10149:1 16096:1 16857:1 21078:1 22040:1 30765:1 
0.11795686761793056 1:1 2:1 3:1 5:1 6:1 7:1 8:1 9:1 12:1 13:1 14:1 15:1 18:1 19:1 20:1 21:1 23:1 32:1 46:1 49:1 51:1 56:1 64:1 66:1 72:1 95:1 115:1 139:1 177:1 194:1 223:1 256:1 260:1 271:1 289:1 316:1 317:1 379:1 383:1 413:1 446:1 453:1 479:1 492:1 493:1 535:1 573:1 599:1 620:1 645:1 686:1 688:1 793:1 808:1 975:1 1007:1 1059:1 1134:1 1272:1 1297:1 1365:1 1615:1 1858:1 2020:1 2038:1 2593:1 2902:1 3243:1 3271:1 3551:1 3870:1 3890:1 4389:1 4447:1 5097:1 5480:1 5504:1 6384:1 6659:1 6848:1 7099:1 7456:1 7479:1 8186:1 9093:1 9722:1 10189:1 11063:1 11255:1 11545:1 12595:1 13510:1 14093:1 17231:1 18412:1 18491:1 19490:1 20749:1 22185:1 22379:1 24314:1 28447:1 28464:1 30012:1 30818:1 31999:1 32077:1 33941:1 
0.15955432884371834 1:1 2:1 4:1 5:1 7:1 14:1 18:1 20:1 21:1 23:1 26:1 36:1 39:1 51:1 64:1 67:1 77:1 82:1 98:1 111:1 142:1 177:1 194:1 268:1 450:1 535:1 610:1 652:1 684:1 726:1 860:1 865:1 887:1 1066:1 1277:1 1324:1 1396:1 1422:1 1652:1 1819:1 2593:1 3327:1 5020:1 6721:1 7193:1 7417:1 7711:1 8434:1 8473:1 8563:1 9773:1 11095:1 11388:1 11611:1 11764:1 13343:1 18609:1 31066:1 31828:1 32686:1 34407:1 34501:1 34650:1 
0.080789195137081521 1:1 4:1 5:1 8:1 9:1 10:1 13:1 18:1 19:1 48:1 52:1 54:1 57:1 81:1 99:1 143:1 190:1 276:1 322:1 337:1 413:1 422:1 535:1 570:1 991:1 1071:1 1106:1 1150:1 1676:1 2067:1 2524:1 3388:1 3960:1 4102:1 4831:1 9210:1 9809:1 10012:1 10326:1 14254:1 18854:1 23453:1 
0.27827590827274595 1:1 2:1 3:1 4:1 5:1 7:1 8:1 9:1 12:1 13:1 14:1 15:1 18:1 19:1 20:1 21:1 22:1 29:1 45:1 48:1 51:1 52:1 53:1 61:1 62:1 64:1 65:1 81:1 82:1 83:1 93:1 94:1 95:1 111:1 139:1 142:1 147:1 177:1 184:1 196:1 243:1 246:1 271:1 272:1 295:1 323:1 396:1 413:1 450:1 451:1 453:1 493:1 496:1 497:1 549:1 550:1 570:1 573:1 588:1 605:1 651:1 652:1 675:1 743:1 953:1 962:1 992:1 1051:1 1070:1 1078:1 1100:1 1221:1 1230:1 1276:1 1277:1 1287:1 1407:1 1434:1 1581:1 1590:1 1615:1 1810:1 2020:1 2082:1 2422:1 2652:1 3056:1 3102:1 3340:1 3349:1 3351:1 3604:1 3989:1 4591:1 5020:1 5046:1 5082:1 5518:1 5550:1 5578:1 6090:1 6120:1 6384:1 6548:1 7168:1 7193:1 7396:1 8883:1 8960:1 9214:1 9635:1 9793:1 9859:1 9992:1 10744:1 11075:1 11095:1 11188:1 11853:1 12422:1 12583:1 13275:1 15313:1 17702:1 17914:1 17919:1 18626:1 18684:1 18700:1 21167:1 24235:1 25564:1 25722:1 25824:1 27507:1 27638:1 28447:1 31066:1 31763:1 
0.1056343595368122 1:1 5:1 7:1 9:1 10:1 11:1 13:1 14:1 15:1 18:1 19:1 20:1 21:1 45:1 51:1 53:1 54:1 55:1 62:1 64:1 81:1 82:1 95:1 98:1 101:1 177:1 239:1 256:1 304:1 313:1 317:1 322:1 337:1 353:1 413:1 422:1 446:1 451:1 465:1 492:1 493:1 535:1 542:1 579:1 620:1 639:1 652:1 952:1 1059:1 1096:1 1106:1 1119:1 1235:1 1277:1 1422:1 1625:1 1659:1 1724:1 3023:1 3226:1 3817:1 3890:1 3897:1 3960:1 4102:1 4203:1 4831:1 5046:1 5231:1 5480:1 5516:1 5978:1 6454:1 6457:1 6848:1 7194:1 8873:1 9717:1 9961:1 10012:1 10091:1 10835:1 11096:1 11771:1 12650:1 12777:1 17534:1 18342:1 20841:1 21708:1 23453:1 24709:1 25537:1 27083:1 28767:1 28793:1 30016:1 31078:1 
0.17898055300071392 1:1 4:1 5:1 7:1 9:1 12:1 13:1 14:1 18:1 20:1 23:1 48:1 49:1 53:1 56:1 66:1 82:1 88:1 95:1 147:1 151:1 177:1 190:1 194:1 243:1 255:1 304:1 309:1 311:1 379:1 422:1 465:1 535:1 536:1 610:1 686:1 992:1 993:1 1018:1 1086:1 1134:1 1296:1 1413:1 1501:1 1625:1 2082:1 2129:1 2530:1 2593:1 3054:1 3202:1 3744:1 3801:1 4379:1 4825:1 5223:1 5889:1 6721:1 7450:1 9214:1 9238:1 9400:1 10182:1 11234:1 11677:1 12098:1 12647:1 14467:1 15793:1 17672:1 18220:1 20411:1 22137:1 23421:1 24666:1 26685:1 31968:1 
0.29066754647421256 1:1 2:1 3:1 4:1 5:1 7:1 8:1 12:1 13:1 14:1 15:1 16:1 18:1 19:1 20:1 21:1 32:1 46:1 48:1 51:1 52:1 56:1 57:1 59:1 60:1 81:1 82:1 83:1 108:1 121:1 132:1 139:1 147:1 177:1 194:1 196:1 246:1 272:1 276:1 289:1 393:1 418:1 447:1 482:1 492:1 493:1 497:1 499:1 516:1 535:1 573:1 605:1 639:1 793:1 983:1 992:1 1051:1 1071:1 1137:1 1148:1 1182:1 1204:1 1407:1 1431:1 1797:1 1904:1 1987:1 2038:1 2082:1 2098:1 2593:1 2652:1 3102:1 3340:1 3393:1 3537:1 4567:1 4788:1 4994:1 5368:1 5481:1 5516:1 5567:1 5603:1 5752:1 6384:1 9158:1 9214:1 9635:1 9813:1 10227:1 10309:1 10523:1 10643:1 11843:1 13214:1 13643:1 14079:1 14373:1 17914:1 18626:1 18905:1 22767:1 23329:1 23869:1 25070:1 25385:1 25538:1 25790:1 26339:1 28464:1 
0.29395401583703951 1:1 2:1 3:1 8:1 9:1 46:1 53:1 84:1 107:1 139:1 271:1 304:1 972:1 1086:1 1453:1 1779:1 2020:1 9047:1 11952:1 13150:1 
0.25603812740794241 3:1 5:1 6:1 7:1 8:1 9:1 10:1 13:1 14:1 19:1 21:1 36:1 39:1 54:1 57:1 64:1 77:1 139:1 177:1 205:1 247:1 276:1 304:1 342:1 442:1 453:1 464:1 570:1 573:1 645:1 652:1 856:1 902:1 1111:1 1160:1 1272:1 1401:1 2025:1 3114:1 3376:1 4155:1 4971:1 5086:1 5200:1 6384:1 7084:1 7196:1 8402:1 8699:1 10052:1 10387:1 11051:1 11620:1 13935:1 21609:1 23804:1 24260:1 24600:1 28451:1 31093:1 34337:1 
0.31951386073542615 1:1 4:1 5:1 6:1 7:1 8:1 11:1 13:1 14:1 18:1 20:1 23:1 26:1 45:1 48:1 50:1 51:1 52:1 57:1 63:1 67:1 81:1 82:1 88:1 94:1 95:1 147:1 177:1 182:1 196:1 222:1 238:1 246:1 272:1 276:1 355:1 413:1 418:1 457:1 536:1 605:1 606:1 685:1 726:1 962:1 992:1 1035:1 1051:1 1071:1 1148:1 1253:1 1324:1 1407:1 1413:1 1496:1 1590:1 1618:1 2082:1 2372:1 2652:1 2887:1 3102:1 3340:1 3393:1 4217:1 4774:1 5132:1 5889:1 6693:1 7433:1 7712:1 8960:1 9214:1 9515:1 9635:1 9813:1 10300:1 10930:1 11389:1 11672:1 12612:1 17170:1 17914:1 18626:1 18905:1 24425:1 26681:1 29418:1 31891:1 32693:1 
0.28615217436653889 1:1 2:1 3:1 5:1 8:1 9:1 14:1 18:1 49:1 58:1 82:1 84:1 111:1 139:1 177:1 194:1 273:1 304:1 447:1 544:1 1007:1 1165:1 1409:1 1453:1 1819:1 2022:1 2602:1 3362:1 4993:1 6008:1 10408:1 11643:1 11954:1 13352:1 13921:1 16149:1 18752:1 23853:1 
0.09309679750854688 1:1 5:1 12:1 13:1 15:1 22:1 23:1 65:1 66:1 81:1 82:1 93:1 177:1 383:1 413:1 491:1 675:1 684:1 1287:1 1294:1 1418:1 1568:1 4431:1 5463:1 7394:1 7416:1 7417:1 11186:1 11203:1 11204:1 11715:1 12356:1 31749:1 31826:1 
1 1:1 10:1 54:1 81:1 337:1 1106:1 4102:1 10012:1 
0.13016087294183259 5:1 19:1 49:1 195:1 570:1 1022:1 2625:1 9440:1 
0.097673614666607539 1:1 2:1 5:1 12:1 18:1 19:1 20:1 39:1 46:1 56:1 99:1 107:1 194:1 383:1 411:1 535:1 582:1 605:1 903:1 907:1 972:1 1145:1 1685:1 1789:1 2593:1 4447:1 4734:1 6486:1 8708:1 8747:1 9056:1 10285:1 12883:1 13193:1 22379:1 23150:1 28878:1 35111:1 
0.2092867596834887 2:1 3:1 4:1 5:1 7:1 8:1 9:1 13:1 14:1 15:1 19:1 21:1 49:1 57:1 64:1 111:1 139:1 142:1 177:1 179:1 195:1 238:1 280:1 311:1 323:1 422:1 446:1 450:1 492:1 573:1 585:1 652:1 1007:1 1008:1 1022:1 1150:1 1277:1 1803:1 2029:1 2334:1 2639:1 3422:1 3786:1 3989:1 4832:1 5020:1 5480:1 6384:1 6516:1 7193:1 9351:1 9444:1 10327:1 11095:1 13976:1 14935:1 16408:1 18959:1 21167:1 23458:1 28455:1 28959:1 31066:1 
0.28065219802443075 1:1 2:1 3:1 4:1 5:1 7:1 8:1 9:1 12:1 19:1 20:1 29:1 39:1 48:1 53:1 56:1 63:1 69:1 81:1 111:1 139:1 143:1 177:1 243:1 271:1 289:1 311:1 323:1 330:1 387:1 573:1 614:1 637:1 743:1 745:1 888:1 991:1 1100:1 1136:1 1267:1 1335:1 1803:1 2020:1 2038:1 2055:1 3037:1 3545:1 3789:1 3989:1 4083:1 4508:1 6384:1 6788:1 7008:1 7793:1 8569:1 9200:1 9992:1 10218:1 11036:1 14087:1 19456:1 20352:1 21167:1 21493:1 22617:1 28447:1 29820:1 30517:1 32836:1 34666:1 
0.11798848395325857 1:1 3:1 4:1 5:1 7:1 8:1 9:1 13:1 14:1 15:1 18:1 19:1 20:1 21:1 23:1 26:1 48:1 51:1 52:1 53:1 58:1 66:1 82:1 84:1 95:1 139:1 151:1 191:1 194:1 201:1 238:1 251:1 271:1 272:1 276:1 287:1 289:1 307:1 309:1 317:1 413:1 414:1 446:1 447:1 464:1 492:1 535:1 544:1 573:1 605:1 610:1 646:1 658:1 688:1 724:1 993:1 1055:1 1070:1 1088:1 1096:1 1165:1 1297:1 1409:1 1453:1 1609:1 2020:1 2025:1 2036:1 2038:1 2129:1 2560:1 2593:1 2725:1 3161:1 3351:1 3391:1 3517:1 3537:1 3541:1 3725:1 3757:1 3890:1 4742:1 4993:1 4995:1 5200:1 5480:1 6011:1 6384:1 6742:1 7106:1 7301:1 7479:1 7705:1 9238:1 9671:1 9795:1 9915:1 9961:1 10408:1 10409:1 11255:1 11643:1 11956:1 11965:1 11967:1 13948:1 14060:1 14079:1 14083:1 14471:1 15932:1 16700:1 18102:1 18696:1 18882:1 19335:1 19434:1 20085:1 20096:1 20218:1 23167:1 23853:1 23871:1 24600:1 27206:1 28464:1 29680:1 31495:1 32077:1 32677:1 
0.69619404978012911 1:1 3:1 4:1 7:1 8:1 9:1 18:1 19:1 20:1 36:1 48:1 51:1 53:1 74:1 99:1 139:1 143:1 256:1 271:1 289:1 304:1 307:1 313:1 323:1 544:1 570:1 573:1 579:1 622:1 859:1 865:1 991:1 1059:1 1100:1 1386:1 1676:1 2020:1 2038:1 2067:1 3226:1 3553:1 3725:1 3817:1 3819:1 3989:1 6016:1 6384:1 6454:1 6862:1 8426:1 8472:1 9210:1 9717:1 9992:1 11590:1 14095:1 14254:1 18342:1 19498:1 20085:1 20484:1 21167:1 27246:1 28447:1 28464:1 28767:1 30085:1 34390:1 34493:1 
0.60019901276858212 1:1 2:1 5:1 18:1 45:1 83:1 111:1 194:1 535:1 953:1 1434:1 1819:1 2593:1 8883:1 11860:1 13343:1 
0.082907408045464329 1:1 2:1 3:1 4:1 5:1 7:1 8:1 9:1 13:1 14:1 18:1 19:1 20:1 21:1 26:1 29:1 45:1 46:1 48:1 53:1 57:1 62:1 64:1 95:1 99:1 100:1 115:1 130:1 139:1 143:1 147:1 177:1 184:1 186:1 191:1 194:1 246:1 271:1 276:1 289:1 304:1 307:1 318:1 324:1 329:1 418:1 422:1 446:1 450:1 451:1 549:1 570:1 573:1 605:1 606:1 651:1 710:1 752:1 963:1 975:1 981:1 991:1 992:1 1086:1 1088:1 1150:1 1232:1 1276:1 1612:1 1676:1 1697:1 1859:1 1975:1 2020:1 2038:1 2067:1 2082:1 2098:1 2422:1 2468:1 2544:1 2607:1 3103:1 3385:1 3538:1 3725:1 3910:1 4010:1 4069:1 4780:1 4833:1 5025:1 5046:1 6090:1 6384:1 6708:1 7173:1 7601:1 7852:1 8976:1 9094:1 9148:1 9210:1 9214:1 9915:1 10328:1 10809:1 11079:1 12553:1 13513:1 13819:1 14080:1 14254:1 14387:1 15314:1 15531:1 16207:1 17923:1 18832:1 19407:1 20085:1 21461:1 23288:1 23461:1 23987:1 27507:1 28464:1 29489:1 31005:1 32411:1 33048:1 
0.092951525604135568 1:1 2:1 3:1 4:1 5:1 7:1 8:1 9:1 12:1 13:1 14:1 15:1 18:1 19:1 20:1 21:1 23:1 26:1 39:1 47:1 48:1 49:1 51:1 52:1 53:1 57:1 58:1 62:1 64:1 66:1 67:1 84:1 85:1 93:1 111:1 139:1 142:1 147:1 177:1 184:1 190:1 194:1 196:1 238:1 255:1 256:1 269:1 271:1 276:1 285:1 287:1 304:1 309:1 313:1 323:1 324:1 397:1 413:1 418:1 447:1 455:1 479:1 493:1 536:1 538:1 544:1 570:1 573:1 579:1 585:1 605:1 641:1 685:1 706:1 890:1 989:1 992:1 1018:1 1058:1 1059:1 1067:1 1071:1 1100:1 1148:1 1165:1 1167:1 1230:1 1238:1 1270:1 1295:1 1309:1 1453:1 1454:1 1582:1 1819:1 2020:1 2034:1 2036:1 2082:1 2415:1 2524:1 2528:1 2596:1 2652:1 3202:1 3226:1 3330:1 3393:1 3480:1 3517:1 3750:1 3817:1 3833:1 3989:1 4010:1 4606:1 4774:1 4995:1 5113:1 5121:1 5504:1 5880:1 5914:1 6013:1 6384:1 6454:1 6517:1 7039:1 7439:1 7573:1 8594:1 9189:1 9214:1 9397:1 9699:1 9717:1 9776:1 9813:1 9992:1 10300:1 10409:1 10437:1 10442:1 10855:1 11047:1 11223:1 11327:1 11952:1 12429:1 13346:1 14027:1 14060:1 15780:1 16081:1 18216:1 18342:1 18614:1 18905:1 19336:1 20181:1 20609:1 21167:1 23871:1 24370:1 24404:1 26622:1 26801:1 27218:1 28447:1 28767:1 28966:1 30586:1 31930:1 32347:1 34723:1 
0.54448338043973743 1:1 2:1 3:1 4:1 5:1 8:1 9:1 13:1 16:1 18:1 19:1 22:1 29:1 39:1 45:1 48:1 57:1 62:1 65:1 82:1 83:1 99:1 111:1 139:1 143:1 177:1 194:1 195:1 276:1 286:1 304:1 322:1 422:1 444:1 518:1 535:1 553:1 560:1 570:1 573:1 575:1 579:1 588:1 670:1 746:1 890:1 953:1 991:1 1150:1 1162:1 1235:1 1285:1 1423:1 1434:1 1676:1 1819:1 2025:1 2035:1 2056:1 2593:1 2611:1 2642:1 3376:1 3506:1 3960:1 4831:1 4979:1 5773:1 6154:1 6259:1 6384:1 6391:1 6447:1 6553:1 7364:1 7800:1 8593:1 8883:1 9201:1 10326:1 10394:1 10827:1 11164:1 11785:1 11860:1 13343:1 13935:1 14049:1 14222:1 16251:1 16425:1 19287:1 23453:1 23828:1 26427:1 27732:1 28092:1 28461:1 29073:1 31679:1 32859:1 34721:1 
0.75572661406146124 1:1 3:1 4:1 5:1 6:1 7:1 8:1 9:1 13:1 14:1 15:1 19:1 20:1 45:1 48:1 49:1 52:1 53:1 57:1 81:1 82:1 88:1 95:1 99:1 139:1 143:1 177:1 195:1 196:1 206:1 243:1 244:1 271:1 276:1 323:1 418:1 453:1 479:1 493:1 570:1 573:1 585:1 605:1 952:1 966:1 991:1 1022:1 1071:1 1100:1 1148:1 1413:1 1502:1 1615:1 1676:1 1688:1 2020:1 2055:1 2067:1 2639:1 2652:1 2748:1 3037:1 3060:1 3393:1 3989:1 4774:1 5082:1 5504:1 6384:1 6508:1 6517:1 8865:1 9017:1 9200:1 9210:1 9444:1 9813:1 9992:1 10300:1 11678:1 12102:1 12583:1 12887:1 14254:1 16409:1 16760:1 17728:1 18905:1 21167:1 24222:1 28447:1 28966:1 
0.22644078933722464 4:1 10:1 11:1 12:1 14:1 15:1 23:1 29:1 48:1 54:1 66:1 166:1 341:1 352:1 378:1 457:1 479:1 490:1 493:1 688:1 757:1 998:1 1110:1 1297:1 2261:1 4145:1 5130:1 5441:1 5504:1 7477:1 7901:1 9303:1 10042:1 11253:1 14804:1 21591:1 32066:1 33204:1 
0.58589127343413439 1:1 3:1 4:1 5:1 7:1 8:1 9:1 13:1 14:1 16:1 18:1 19:1 20:1 21:1 36:1 48:1 51:1 58:1 62:1 74:1 82:1 98:1 139:1 159:1 177:1 194:1 239:1 271:1 307:1 309:1 313:1 413:1 455:1 507:1 517:1 535:1 554:1 555:1 579:1 605:1 651:1 857:1 995:1 1046:1 1167:1 1235:1 1382:1 1422:1 1652:1 2020:1 2194:1 2612:1 3010:1 3725:1 3744:1 3819:1 5110:1 5678:1 5758:1 6173:1 6209:1 6454:1 7168:1 8409:1 9273:1 9572:1 10435:1 10833:1 11584:1 11764:1 14660:1 16269:1 17485:1 20085:1 20484:1 24344:1 26123:1 26358:1 27922:1 28769:1 34355:1 
0.020288562628092244 1:1 5:1 7:1 8:1 12:1 13:1 14:1 15:1 18:1 20:1 21:1 22:1 23:1 29:1 52:1 56:1 57:1 65:1 66:1 81:1 82:1 177:1 194:1 243:1 290:1 295:1 379:1 418:1 453:1 479:1 540:1 543:1 605:1 652:1 670:1 688:1 761:1 1078:1 1134:1 1148:1 1285:1 1297:1 1407:1 2598:1 2601:1 3054:1 3580:1 3615:1 4379:1 4774:1 5082:1 5937:1 6001:1 7196:1 7364:1 7470:1 7953:1 9869:1 10182:1 10300:1 11164:1 11249:1 16096:1 16142:1 17677:1 19634:1 19791:1 22133:1 24233:1 27176:1 31090:1 31670:1 
0.086955499940130757 1:1 2:1 3:1 4:1 5:1 8:1 11:1 13:1 14:1 18:1 19:1 20:1 21:1 29:1 36:1 39:1 47:1 48:1 52:1 57:1 64:1 99:1 111:1 139:1 142:1 143:1 162:1 166:1 177:1 179:1 194:1 196:1 276:1 300:1 355:1 418:1 450:1 451:1 460:1 535:1 540:1 568:1 570:1 605:1 622:1 652:1 655:1 743:1 856:1 896:1 989:1 991:1 997:1 998:1 1071:1 1148:1 1277:1 1676:1 1803:1 2049:1 2067:1 2234:1 2254:1 2334:1 2593:1 2652:1 2663:1 3378:1 3393:1 3663:1 4217:1 4788:1 5020:1 5046:1 5160:1 5954:1 6336:1 6871:1 7193:1 7235:1 8401:1 8628:1 9196:1 9210:1 9293:1 9297:1 9801:1 9813:1 10309:1 11095:1 14187:1 14254:1 14742:1 14935:1 16520:1 18781:1 18905:1 19910:1 23329:1 24490:1 27010:1 28283:1 30137:1 31066:1 31229:1 34332:1 34798:1 
0.052254162647347842 1:1 4:1 5:1 6:1 9:1 11:1 12:1 13:1 15:1 16:1 18:1 19:1 29:1 55:1 62:1 69:1 94:1 147:1 181:1 194:1 217:1 309:1 353:1 387:1 429:1 479:1 508:1 535:1 585:1 743:1 1119:1 1238:1 1335:1 1601:1 2098:1 2355:1 2593:1 2847:1 3747:1 4202:1 4490:1 4883:1 5690:1 6508:1 10090:1 10846:1 12514:1 14373:1 15025:1 17076:1 20168:1 21699:1 22510:1 23615:1 26154:1 
0.19778983738955908 1:1 2:1 4:1 7:1 9:1 14:1 18:1 19:1 20:1 21:1 26:1 29:1 46:1 48:1 51:1 53:1 64:1 81:1 115:1 143:1 255:1 256:1 304:1 313:1 318:1 446:1 469:1 560:1 577:1 579:1 605:1 656:1 658:1 723:1 757:1 975:1 991:1 1059:1 1086:1 1280:1 1859:1 2055:1 3209:1 3226:1 3817:1 3910:1 5274:1 6266:1 6433:1 6454:1 7258:1 7309:1 7687:1 7907:1 9094:1 9200:1 9717:1 11144:1 13513:1 18266:1 18342:1 24842:1 28123:1 28707:1 28767:1 31332:1 31553:1 33250:1 
0.24939083398649481 1:1 4:1 9:1 12:1 14:1 15:1 19:1 20:1 29:1 62:1 82:1 95:1 100:1 143:1 324:1 382:1 455:1 490:1 571:1 585:1 588:1 605:1 623:1 629:1 761:1 766:1 1231:1 1424:1 1617:1 1697:1 2056:1 4031:1 4414:1 5121:1 5444:1 6364:1 6514:1 6563:1 6889:1 6966:1 7958:1 7999:1 10804:1 11799:1 12608:1 14223:1 21380:1 22269:1 24410:1 25246:1 28386:1 28949:1 29127:1 30204:1 30451:1 33451:1 33604:1 
0.026034197183682016 1:1 2:1 3:1 7:1 8:1 9:1 12:1 15:1 18:1 19:1 20:1 59:1 100:1 118:1 139:1 239:1 271:1 311:1 323:1 387:1 480:1 493:1 496:1 544:1 573:1 620:1 1180:1 1709:1 1875:1 2020:1 3022:1 3787:1 3989:1 4492:1 5356:1 5518:1 5546:1 6023:1 6384:1 6848:1 10518:1 12959:1 13571:1 17531:1 20350:1 21167:1 22526:1 25038:1 25561:1 25705:1 27299:1 28447:1 30017:1 
1 15:1 23:1 66:1 479:1 688:1 1297:1 7470:1 11249:1 
1 9:1 13:1 20:1 57:1 324:1 422:1 605:1 1150:1 4010:1 4833:1 10328:1 23461:1 
0.4042378301583513 3:1 4:1 5:1 8:1 9:1 12:1 14:1 15:1 19:1 20:1 22:1 23:1 29:1 53:1 65:1 66:1 139:1 154:1 195:1 271:1 289:1 307:1 323:1 387:1 450:1 479:1 573:1 629:1 670:1 688:1 757:1 1100:1 1285:1 1297:1 2020:1 2038:1 2155:1 2628:1 3560:1 3725:1 3989:1 4488:1 5031:1 6384:1 6961:1 7365:1 7470:1 7895:1 9992:1 11165:1 11249:1 14102:1 14559:1 16368:1 19551:1 20085:1 21167:1 22500:1 24019:1 28447:1 28464:1 30427:1 31691:1 33173:1 
0.2228261869282924 1:1 4:1 5:1 6:1 9:1 14:1 15:1 19:1 48:1 50:1 53:1 58:1 82:1 99:1 147:1 177:1 191:1 206:1 304:1 318:1 446:1 451:1 460:1 461:1 479:1 575:1 992:1 1029:1 1086:1 1097:1 1169:1 1423:1 1680:1 2082:1 2544:1 2739:1 3922:1 5046:1 5160:1 5168:1 6404:1 9214:1 9466:1 9978:1 10446:1 11789:1 12862:1 16734:1 20966:1 24490:1 28569:1 
0.070531371369561724 1:1 2:1 3:1 4:1 5:1 6:1 7:1 8:1 12:1 13:1 14:1 18:1 20:1 21:1 23:1 29:1 36:1 39:1 46:1 47:1 48:1 56:1 58:1 66:1 69:1 82:1 95:1 98:1 106:1 126:1 139:1 159:1 166:1 177:1 179:1 205:1 238:1 300:1 379:1 403:1 426:1 436:1 446:1 453:1 477:1 535:1 554:1 555:1 610:1 644:1 645:1 658:1 684:1 743:1 745:1 759:1 766:1 856:1 898:1 980:1 989:1 995:1 998:1 1134:1 1139:1 1177:1 1294:1 1349:1 1422:1 1615:1 1670:1 1946:1 2049:1 2194:1 2254:1 2332:1 3663:1 4389:1 4661:1 4861:1 4931:1 5079:1 5340:1 6177:1 6215:1 6721:1 7066:1 7084:1 7300:1 7417:1 7789:1 7916:1 7997:1 8394:1 8654:1 9138:1 9196:1 9273:1 9297:1 10189:1 10244:1 10508:1 11204:1 11511:1 11781:1 12581:1 12833:1 13753:1 14187:1 14663:1 19904:1 22185:1 22970:1 23536:1 24991:1 27783:1 27959:1 30641:1 31478:1 31828:1 33575:1 34849:1 
0.090031086370033001 1:1 4:1 5:1 6:1 7:1 8:1 9:1 11:1 14:1 16:1 18:1 19:1 20:1 23:1 48:1 49:1 52:1 58:1 62:1 66:1 82:1 98:1 147:1 177:1 193:1 194:1 196:1 206:1 243:1 276:1 309:1 315:1 318:1 359:1 453:1 455:1 507:1 517:1 535:1 540:1 541:1 570:1 605:1 686:1 992:1 1020:1 1021:1 1071:1 1167:1 1230:1 1296:1 1422:1 1657:1 2098:1 2587:1 2593:1 2599:1 2652:1 2739:1 3054:1 3393:1 3744:1 3853:1 3916:1 4261:1 5082:1 5110:1 5678:1 5758:1 5937:1 5958:1 7455:1 9229:1 9419:1 9424:1 9813:1 10435:1 11237:1 11769:1 12757:1 14373:1 16026:1 16113:1 16733:1 17672:1 18905:1 20698:1 20924:1 21870:1 24233:1 24344:1 26112:1 26358:1 27022:1 31995:1 
0.43055021609718086 1:1 4:1 5:1 9:1 14:1 15:1 18:1 19:1 20:1 21:1 22:1 45:1 53:1 62:1 64:1 99:1 142:1 182:1 191:1 194:1 313:1 318:1 326:1 450:1 464:1 465:1 479:1 535:1 575:1 579:1 585:1 610:1 652:1 667:1 966:1 1097:1 1234:1 1277:1 1688:1 2387:1 2560:1 2593:1 3835:1 3927:1 4050:1 5020:1 5205:1 5223:1 6395:1 6454:1 6508:1 6733:1 7193:1 9017:1 9980:1 10813:1 11095:1 12887:1 15136:1 15933:1 20627:1 20988:1 24615:1 24673:1 28509:1 28780:1 29617:1 31066:1 
0.15809918324718139 1:1 3:1 4:1 5:1 8:1 9:1 11:1 12:1 15:1 18:1 19:1 20:1 23:1 36:1 39:1 48:1 63:1 74:1 92:1 99:1 139:1 143:1 151:1 174:1 177:1 180:1 186:1 271:1 276:1 285:1 289:1 304:1 307:1 313:1 355:1 393:1 497:1 501:1 544:1 570:1 573:1 582:1 622:1 623:1 684:1 859:1 865:1 903:1 991:1 993:1 1005:1 1259:1 1386:1 1553:1 1676:1 2020:1 2025:1 2034:1 2038:1 2067:1 2124:1 2316:1 2349:1 2451:1 3376:1 3379:1 3496:1 3553:1 3725:1 3819:1 4222:1 4574:1 5574:1 5627:1 6016:1 6384:1 6488:1 6862:1 6875:1 7422:1 8426:1 8472:1 8715:1 9210:1 9235:1 9347:1 10996:1 11590:1 12301:1 13935:1 13937:1 14039:1 14095:1 14254:1 14903:1 15000:1 18787:1 19239:1 19498:1 20085:1 20484:1 21747:1 22792:1 25816:1 25984:1 27246:1 28451:1 28464:1 28890:1 30085:1 30155:1 31850:1 34390:1 34493:1 35015:1 
0.36388604669537644 4:1 5:1 6:1 7:1 9:1 14:1 15:1 18:1 21:1 22:1 39:1 48:1 50:1 64:1 65:1 142:1 194:1 236:1 238:1 311:1 450:1 479:1 544:1 652:1 675:1 890:1 990:1 1043:1 1277:1 1287:1 2602:1 2994:1 3786:1 5020:1 6015:1 7193:1 7387:1 8592:1 9559:1 11095:1 11181:1 16154:1 17433:1 27234:1 31066:1 34713:1 
0.0090813427111746114 1:1 2:1 3:1 5:1 6:1 7:1 8:1 9:1 12:1 13:1 15:1 18:1 19:1 20:1 21:1 45:1 46:1 49:1 51:1 53:1 62:1 63:1 82:1 88:1 94:1 99:1 115:1 139:1 189:1 194:1 214:1 238:1 256:1 271:1 304:1 313:1 317:1 323:1 384:1 413:1 418:1 479:1 535:1 570:1 573:1 579:1 585:1 590:1 606:1 651:1 962:1 966:1 975:1 1017:1 1059:1 1096:1 1100:1 1242:1 1253:1 1413:1 1496:1 1590:1 1688:1 1862:1 2020:1 2500:1 2593:1 2824:1 3226:1 3817:1 3890:1 3986:1 3989:1 4457:1 4788:1 6384:1 6454:1 6508:1 6602:1 6693:1 7173:1 8960:1 9017:1 9097:1 9392:1 9717:1 9961:1 9992:1 10874:1 10930:1 11672:1 12887:1 13522:1 15652:1 18342:1 21167:1 22435:1 23329:1 28447:1 28767:1 29217:1 29418:1 31010:1 
0.63883766302347444 3:1 4:1 5:1 6:1 7:1 8:1 9:1 14:1 18:1 19:1 48:1 49:1 50:1 53:1 139:1 147:1 177:1 182:1 194:1 210:1 238:1 271:1 304:1 309:1 311:1 318:1 323:1 446:1 451:1 460:1 544:1 573:1 992:1 1021:1 1030:1 1086:1 1097:1 1100:1 2020:1 2082:1 2387:1 2602:1 2766:1 3744:1 3786:1 3910:1 3922:1 3989:1 5061:1 5160:1 6013:1 6015:1 6020:1 6384:1 9214:1 9427:1 9478:1 9970:1 9992:1 15144:1 16153:1 16154:1 16159:1 16809:1 20966:1 21167:1 24154:1 24496:1 27214:1 27234:1 27288:1 28447:1 
1 1:1 2:1 5:1 18:1 29:1 45:1 69:1 83:1 111:1 177:1 194:1 535:1 745:1 953:1 1337:1 1434:1 1803:1 1819:1 2593:1 7793:1 8883:1 11437:1 11860:1 13343:1 32836:1 
0.043923749158295423 1:1 3:1 4:1 5:1 6:1 7:1 8:1 9:1 11:1 13:1 14:1 15:1 18:1 19:1 20:1 21:1 22:1 23:1 39:1 51:1 64:1 65:1 66:1 77:1 92:1 98:1 139:1 142:1 177:1 194:1 220:1 241:1 272:1 322:1 368:1 432:1 450:1 496:1 535:1 536:1 539:1 541:1 548:1 552:1 575:1 605:1 610:1 652:1 670:1 686:1 902:1 1047:1 1277:1 1285:1 1296:1 1401:1 1559:1 1653:1 2021:1 2593:1 2610:1 2873:1 3032:1 3354:1 3964:1 4319:1 4904:1 5020:1 5549:1 5886:1 5915:1 5967:1 6078:1 6139:1 6391:1 6736:1 7193:1 7364:1 7460:1 8701:1 9585:1 11095:1 11164:1 11242:1 11621:1 12315:1 12735:1 13915:1 16238:1 17143:1 17554:1 18713:1 21074:1 22013:1 25718:1 26654:1 27055:1 27476:1 27702:1 29623:1 31066:1 31678:1 32018:1 34982:1 
0.018044196981689856 1:1 4:1 5:1 9:1 11:1 13:1 14:1 15:1 16:1 18:1 19:1 20:1 26:1 29:1 48:1 55:1 57:1 62:1 67:1 95:1 97:1 147:1 177:1 182:1 194:1 196:1 304:1 313:1 324:1 364:1 418:1 422:1 429:1 455:1 479:1 491:1 505:1 507:1 517:1 540:1 550:1 571:1 605:1 610:1 728:1 756:1 992:1 1125:1 1150:1 1231:1 1325:1 1617:1 1646:1 2087:1 2389:1 2598:1 2608:1 2652:1 3817:1 4014:1 4290:1 4774:1 4833:1 4881:1 5113:1 5472:1 5655:1 5678:1 5758:1 5937:1 6104:1 6366:1 6736:1 7732:1 7881:1 9219:1 10134:1 10328:1 10805:1 11402:1 12603:1 12712:1 14305:1 15164:1 16096:1 16216:1 21281:1 21938:1 23465:1 23599:1 24360:1 25371:1 26049:1 26120:1 26358:1 28395:1 29628:1 32740:1 33125:1 
0.079990893110970948 1:1 2:1 3:1 4:1 5:1 6:1 7:1 8:1 9:1 11:1 12:1 13:1 14:1 15:1 18:1 19:1 20:1 21:1 26:1 29:1 36:1 40:1 41:1 45:1 46:1 48:1 49:1 50:1 51:1 52:1 53:1 57:1 62:1 64:1 69:1 81:1 82:1 83:1 84:1 90:1 101:1 111:1 139:1 147:1 172:1 177:1 189:1 191:1 194:1 195:1 196:1 206:1 210:1 211:1 214:1 246:1 271:1 272:1 276:1 300:1 304:1 310:1 322:1 355:1 378:1 414:1 422:1 446:1 457:1 478:1 479:1 535:1 541:1 548:1 554:1 570:1 605:1 620:1 623:1 652:1 657:1 710:1 745:1 858:1 865:1 867:1 921:1 933:1 953:1 959:1 968:1 973:1 992:1 1003:1 1021:1 1022:1 1032:1 1051:1 1071:1 1086:1 1150:1 1230:1 1277:1 1337:1 1407:1 1434:1 1453:1 1530:1 1739:1 1816:1 1819:1 2020:1 2082:1 2304:1 2494:1 2544:1 2570:1 2593:1 2625:1 2652:1 2664:1 2741:1 2762:1 2786:1 2834:1 3102:1 3111:1 3340:1 3393:1 3668:1 3766:1 3973:1 4224:1 4739:1 4821:1 5132:1 5350:1 5962:1 6068:1 6173:1 6838:1 6872:1 7199:1 7287:1 7587:1 7793:1 8423:1 8471:1 8489:1 8798:1 8832:1 8883:1 8929:1 9037:1 9073:1 9214:1 9338:1 9420:1 9440:1 9493:1 9635:1 9644:1 9813:1 10316:1 11101:1 11437:1 11860:1 11952:1 12200:1 13071:1 13327:1 13338:1 13343:1 14878:1 15994:1 16521:1 16740:1 16900:1 17039:1 17914:1 17949:1 18626:1 18905:1 18913:1 19930:1 20273:1 21118:1 21753:1 24429:1 25016:1 27039:1 27443:1 31110:1 31445:1 32843:1 34384:1 34490:1 34535:1 35185:1 35240:1 
0.077538037612501817 1:1 2:1 4:1 5:1 7:1 8:1 9:1 12:1 13:1 14:1 15:1 16:1 18:1 20:1 21:1 22:1 23:1 32:1 36:1 45:1 48:1 51:1 52:1 53:1 58:1 59:1 65:1 74:1 81:1 83:1 94:1 111:1 142:1 159:1 177:1 189:1 194:1 243:1 260:1 272:1 304:1 327:1 378:1 387:1 422:1 465:1 472:1 490:1 493:1 499:1 507:1 517:1 535:1 536:1 605:1 639:1 681:1 688:1 697:1 797:1 850:1 856:1 857:1 953:1 995:1 1061:1 1070:1 1086:1 1173:1 1197:1 1291:1 1382:1 1434:1 1596:1 1819:1 2188:1 2503:1 2593:1 3049:1 3277:1 3350:1 4062:1 4505:1 4821:1 5219:1 5309:1 5441:1 5514:1 5603:1 5665:1 5758:1 5876:1 7411:1 7480:1 7538:1 8126:1 8341:1 8403:1 8409:1 8883:1 9267:1 9738:1 9794:1 10485:1 10573:1 11199:1 11584:1 11860:1 12489:1 13343:1 14625:1 15675:1 17631:1 18510:1 18691:1 21447:1 22610:1 24931:1 25521:1 26352:1 31813:1 32088:1 32270:1 34184:1 34338:1 34355:1 
0.069369652809267074 2:1 3:1 5:1 7:1 8:1 9:1 12:1 14:1 15:1 18:1 19:1 20:1 21:1 22:1 23:1 29:1 32:1 46:1 51:1 52:1 59:1 62:1 65:1 66:1 111:1 139:1 177:1 191:1 194:1 196:1 243:1 245:1 256:1 276:1 289:1 311:1 316:1 406:1 446:1 499:1 535:1 560:1 570:1 599:1 605:1 614:1 639:1 672:1 685:1 693:1 746:1 759:1 766:1 793:1 796:1 812:1 973:1 1050:1 1071:1 1197:1 1230:1 1286:1 1295:1 1300:1 1819:1 2038:1 2544:1 2618:1 2652:1 3056:1 3091:1 3243:1 3376:1 3537:1 3545:1 3789:1 3887:1 4687:1 5603:1 6259:1 6666:1 6788:1 7377:1 7440:1 7514:1 7800:1 7916:1 7997:1 8125:1 8206:1 9075:1 9626:1 9800:1 10573:1 11174:1 11224:1 11282:1 13366:1 14079:1 14087:1 16332:1 17702:1 17875:1 18414:1 19456:1 20362:1 20813:1 23046:1 28092:1 29362:1 29820:1 31719:1 31933:1 32205:1 32866:1 33575:1 33845:1 
0.20764405336083791 1:1 3:1 4:1 5:1 8:1 11:1 14:1 15:1 18:1 19:1 20:1 23:1 32:1 47:1 48:1 52:1 66:1 72:1 95:1 139:1 147:1 177:1 191:1 196:1 271:1 276:1 287:1 352:1 446:1 457:1 493:1 496:1 536:1 539:1 573:1 605:1 688:1 808:1 989:1 992:1 1071:1 1297:1 1365:1 1618:1 2020:1 2036:1 2082:1 2095:1 2544:1 2652:1 3393:1 3515:1 5130:1 5518:1 5541:1 5889:1 5918:1 6384:1 7480:1 8186:1 9189:1 9227:1 9813:1 11256:1 11545:1 12610:1 14058:1 14352:1 18905:1 19324:1 25556:1 25655:1 26681:1 26817:1 28447:1 32090:1 33941:1 
0.20531048574759087 1:1 3:1 5:1 8:1 9:1 12:1 13:1 15:1 20:1 23:1 45:1 47:1 57:1 66:1 94:1 139:1 177:1 189:1 190:1 285:1 324:1 390:1 393:1 418:1 422:1 479:1 493:1 610:1 685:1 962:1 989:1 1150:1 1295:1 1593:1 2034:1 2506:1 2528:1 3493:1 4014:1 4536:1 4557:1 4774:1 4833:1 5504:1 6732:1 7438:1 8962:1 9188:1 10328:1 11222:1 12474:1 14036:1 15689:1 15780:1 19215:1 21279:1 22687:1 23465:1 29603:1 31925:1 
0.15832992456743269 1:1 2:1 3:1 4:1 5:1 7:1 8:1 9:1 13:1 14:1 15:1 18:1 19:1 20:1 21:1 23:1 29:1 32:1 45:1 48:1 51:1 58:1 64:1 66:1 82:1 83:1 84:1 85:1 94:1 111:1 139:1 142:1 143:1 147:1 151:1 159:1 177:1 180:1 194:1 255:1 285:1 304:1 308:1 439:1 472:1 479:1 493:1 535:1 536:1 544:1 570:1 575:1 623:1 656:1 693:1 759:1 766:1 797:1 809:1 953:1 991:1 992:1 993:1 995:1 1058:1 1173:1 1279:1 1300:1 1409:1 1434:1 1453:1 1454:1 1607:1 1819:1 2034:1 2064:1 2082:1 2124:1 2188:1 2349:1 2593:1 3202:1 3493:1 3726:1 4958:1 5309:1 5504:1 5877:1 5880:1 6012:1 6393:1 6872:1 7256:1 7514:1 7924:1 7997:1 8126:1 8196:1 8883:1 9207:1 9214:1 9235:1 9267:1 9699:1 10485:1 11121:1 11282:1 11643:1 11860:1 11964:1 12534:1 13343:1 14036:1 14243:1 14626:1 15000:1 18216:1 19215:1 23780:1 24931:1 26600:1 26622:1 27207:1 28497:1 31302:1 32205:1 33318:1 33583:1 33956:1 
0.070325242689574435 1:1 3:1 4:1 5:1 8:1 9:1 14:1 19:1 20:1 21:1 45:1 58:1 62:1 64:1 84:1 95:1 101:1 139:1 142:1 177:1 272:1 304:1 318:1 447:1 450:1 451:1 579:1 605:1 652:1 657:1 968:1 1165:1 1235:1 1277:1 1453:1 1613:1 1739:1 2021:1 3351:1 3913:1 4995:1 5020:1 5046:1 6447:1 6458:1 7193:1 7277:1 9037:1 10409:1 10827:1 10836:1 11095:1 11953:1 12569:1 13067:1 13913:1 18699:1 20888:1 23871:1 28800:1 31066:1 
0.1244026913375422 2:1 5:1 8:1 14:1 18:1 19:1 20:1 23:1 29:1 39:1 40:1 49:1 52:1 66:1 77:1 78:1 111:1 191:1 194:1 295:1 446:1 465:1 535:1 540:1 552:1 570:1 605:1 685:1 761:1 902:1 908:1 1021:1 1078:1 1295:1 1401:1 1403:1 1819:1 2544:1 2561:1 2593:1 2610:1 3615:1 5219:1 5950:1 6138:1 7440:1 7953:1 8699:1 8751:1 9420:1 9869:1 11224:1 11620:1 11628:1 13359:1 15941:1 16237:1 19791:1 26975:1 27699:1 31933:1 35125:1 
0.68942768225086215 1:1 3:1 4:1 5:1 7:1 8:1 9:1 12:1 13:1 15:1 16:1 18:1 19:1 20:1 26:1 45:1 51:1 52:1 57:1 61:1 62:1 81:1 82:1 84:1 97:1 139:1 142:1 177:1 196:1 238:1 246:1 272:1 276:1 293:1 304:1 382:1 414:1 422:1 490:1 507:1 517:1 536:1 585:1 605:1 712:1 954:1 1051:1 1071:1 1147:1 1150:1 1218:1 1238:1 1407:1 1453:1 1646:1 2042:1 2652:1 3102:1 3340:1 3393:1 3599:1 4413:1 4740:1 4821:1 5444:1 5665:1 5758:1 5890:1 6514:1 7613:1 8899:1 9635:1 9813:1 10287:1 10316:1 10706:1 10852:1 11971:1 12712:1 14139:1 17914:1 18626:1 18905:1 19718:1 23157:1 25245:1 26352:1 26692:1 28949:1 
0.60071923464518051 1:1 4:1 5:1 7:1 8:1 14:1 19:1 20:1 32:1 48:1 51:1 52:1 58:1 99:1 142:1 143:1 177:1 182:1 196:1 243:1 276:1 472:1 570:1 623:1 797:1 991:1 1048:1 1071:1 1173:1 1676:1 2067:1 2372:1 2664:1 3042:1 3393:1 5309:1 6872:1 8126:1 9210:1 9590:1 9813:1 10485:1 14254:1 16521:1 17592:1 18913:1 24931:1 
0.13601687834142495 1:1 3:1 5:1 6:1 7:1 8:1 9:1 10:1 12:1 13:1 15:1 18:1 19:1 20:1 21:1 22:1 23:1 26:1 29:1 33:1 36:1 49:1 50:1 54:1 57:1 62:1 65:1 67:1 99:1 139:1 177:1 180:1 189:1 195:1 206:1 238:1 243:1 245:1 289:1 304:1 346:1 383:1 433:1 479:1 493:1 535:1 555:1 570:1 573:1 585:1 588:1 596:1 605:1 644:1 646:1 670:1 697:1 721:1 726:1 750:1 827:1 831:1 852:1 1022:1 1029:1 1114:1 1154:1 1244:1 1285:1 1319:1 1324:1 1679:1 2038:1 2349:1 2499:1 2625:1 2639:1 2642:1 2750:1 3037:1 3074:1 3537:1 4177:1 4433:1 4915:1 5504:1 6205:1 6384:1 6517:1 6548:1 6636:1 7078:1 7111:1 7360:1 7536:1 7679:1 7718:1 7819:1 8250:1 8289:1 8347:1 9444:1 9475:1 10068:1 10346:1 10885:1 11160:1 11369:1 11395:1 12857:1 14079:1 15003:1 15634:1 16409:1 16421:1 16770:1 21650:1 22309:1 23667:1 27907:1 28464:1 28966:1 29297:1 30713:1 30717:1 30855:1 31652:1 32253:1 32626:1 32715:1 32904:1 34098:1 
0.58028776719387876 1:1 2:1 3:1 4:1 5:1 7:1 8:1 9:1 14:1 19:1 29:1 48:1 49:1 51:1 53:1 58:1 69:1 81:1 84:1 111:1 139:1 143:1 177:1 195:1 256:1 271:1 304:1 323:1 470:1 571:1 573:1 579:1 745:1 991:1 1007:1 1059:1 1100:1 1171:1 1337:1 1453:1 1803:1 1820:1 2020:1 2055:1 2626:1 3226:1 3989:1 5283:1 6356:1 6384:1 6447:1 7793:1 9200:1 9717:1 9992:1 10468:1 11437:1 11952:1 13371:1 16357:1 18339:1 21167:1 24873:1 28351:1 28447:1 32836:1 32845:1 
0.10395737767056458 1:1 3:1 4:1 5:1 8:1 9:1 12:1 18:1 19:1 20:1 22:1 23:1 32:1 45:1 62:1 65:1 66:1 99:1 139:1 147:1 181:1 194:1 289:1 304:1 406:1 535:1 570:1 579:1 588:1 605:1 679:1 685:1 796:1 802:1 966:1 1235:1 1289:1 1295:1 1689:1 2038:1 2098:1 2355:1 2593:1 3537:1 4687:1 6447:1 6548:1 7405:1 7432:1 8125:1 8152:1 9018:1 10827:1 11193:1 11216:1 12890:1 14079:1 14373:1 15025:1 23046:1 31804:1 31889:1 33845:1 33884:1 
0.27793403133180233 3:1 5:1 7:1 8:1 9:1 12:1 13:1 15:1 18:1 19:1 20:1 49:1 51:1 52:1 56:1 57:1 62:1 139:1 177:1 180:1 196:1 256:1 276:1 282:1 285:1 304:1 307:1 313:1 387:1 418:1 479:1 493:1 496:1 540:1 573:1 605:1 1009:1 1059:1 1071:1 1136:1 1148:1 1232:1 2025:1 2031:1 2034:1 2349:1 2652:1 3220:1 3376:1 3393:1 3450:1 3480:1 3493:1 3725:1 3819:1 4485:1 4494:1 4774:1 5518:1 5542:1 5954:1 6384:1 9353:1 9715:1 9813:1 10209:1 10300:1 10809:1 13935:1 14000:1 14027:1 14036:1 14998:1 18308:1 18905:1 19069:1 19224:1 20088:1 20484:1 22539:1 25557:1 25668:1 27005:1 28460:1 
0.15504132799673739 1:1 3:1 4:1 8:1 14:1 15:1 19:1 20:1 39:1 48:1 52:1 58:1 62:1 82:1 99:1 100:1 139:1 143:1 289:1 302:1 461:1 479:1 570:1 573:1 605:1 606:1 903:1 991:1 1084:1 1169:1 1232:1 1424:1 1676:1 1697:1 2038:1 2067:1 3538:1 3688:1 5168:1 6384:1 6693:1 8708:1 9210:1 9908:1 10446:1 10809:1 11799:1 14080:1 14254:1 19395:1 19977:1 28464:1 29424:1 
0.12116120854010615 1:1 2:1 3:1 4:1 5:1 6:1 7:1 8:1 9:1 12:1 14:1 18:1 19:1 20:1 21:1 23:1 39:1 46:1 48:1 53:1 58:1 64:1 87:1 95:1 100:1 111:1 115:1 139:1 142:1 147:1 151:1 194:1 199:1 211:1 219:1 238:1 256:1 271:1 289:1 307:1 311:1 316:1 323:1 382:1 387:1 447:1 450:1 455:1 535:1 547:1 572:1 573:1 588:1 606:1 624:1 637:1 656:1 658:1 684:1 901:1 907:1 973:1 990:1 992:1 1100:1 1165:1 1280:1 1481:1 1612:1 1712:1 1824:1 1857:1 2020:1 2038:1 2098:1 2131:1 2593:1 2700:1 2792:1 2864:1 3235:1 3538:1 3725:1 3786:1 3802:1 3869:1 3989:1 4419:1 4488:1 5008:1 5020:1 5112:1 6057:1 6375:1 6384:1 6551:1 6704:1 6914:1 7022:1 7253:1 7309:1 7419:1 8689:1 8745:1 9080:1 9229:1 9992:1 10418:1 11144:1 12036:1 12549:1 12985:1 13398:1 13503:1 14080:1 14373:1 14481:1 16621:1 16929:1 17121:1 18380:1 19404:1 20085:1 20437:1 20737:1 21167:1 22288:1 22500:1 23931:1 24353:1 27410:1 28425:1 28447:1 28464:1 29070:1 29465:1 30286:1 30556:1 31293:1 31548:1 31833:1 34951:1 35099:1 
0.049026246217491694 1:1 2:1 3:1 4:1 5:1 8:1 9:1 12:1 14:1 15:1 18:1 19:1 23:1 26:1 29:1 45:1 46:1 48:1 53:1 59:1 62:1 93:1 95:1 111:1 130:1 139:1 142:1 147:1 151:1 160:1 177:1 194:1 292:1 304:1 309:1 318:1 329:1 379:1 396:1 446:1 450:1 451:1 460:1 479:1 480:1 482:1 493:1 535:1 547:1 549:1 550:1 553:1 570:1 573:1 579:1 585:1 686:1 705:1 759:1 766:1 961:1 981:1 990:1 993:1 996:1 1086:1 1097:1 1182:1 1235:1 1581:1 1612:1 1819:1 1981:1 2041:1 2098:1 2129:1 2204:1 2593:1 2605:1 2608:1 2611:1 3589:1 3744:1 3910:1 3913:1 3922:1 4066:1 4389:1 4599:1 5020:1 5061:1 5160:1 5354:1 5368:1 5505:1 6055:1 6090:1 6117:1 6154:1 6384:1 6458:1 6508:1 7466:1 7928:1 7997:1 8954:1 9154:1 9238:1 9283:1 9970:1 9978:1 10523:1 10836:1 12426:1 12549:1 13354:1 13839:1 14129:1 14373:1 14467:1 16183:1 16223:1 16251:1 19689:1 20888:1 20966:1 22184:1 22829:1 24159:1 24160:1 24496:1 25028:1 25070:1 25489:1 27394:1 27514:1 27609:1 27732:1 28466:1 28800:1 32050:1 33350:1 33587:1 
1 1:1 2:1 4:1 5:1 9:1 14:1 15:1 18:1 19:1 20:1 21:1 23:1 45:1 62:1 64:1 66:1 83:1 111:1 142:1 194:1 313:1 324:1 450:1 479:1 535:1 585:1 610:1 652:1 686:1 953:1 1238:1 1277:1 1296:1 1434:1 1819:1 2593:1 3833:1 4014:1 5020:1 6508:1 6736:1 7193:1 7453:1 8883:1 10846:1 11095:1 11236:1 11860:1 13343:1 20612:1 21281:1 29623:1 31066:1 31990:1 
0.15494521188566276 1:1 3:1 4:1 5:1 8:1 9:1 10:1 13:1 14:1 15:1 18:1 19:1 20:1 21:1 22:1 23:1 26:1 45:1 48:1 58:1 65:1 66:1 82:1 98:1 139:1 142:1 147:1 151:1 177:1 182:1 187:1 289:1 308:1 309:1 313:1 329:1 342:1 418:1 455:1 479:1 535:1 548:1 573:1 614:1 656:1 675:1 684:1 705:1 965:1 992:1 993:1 1167:1 1287:1 1294:1 1422:1 1652:1 1664:1 2038:1 2082:1 2129:1 2380:1 2476:1 3545:1 3726:1 3744:1 3837:1 4066:1 4157:1 4778:1 5109:1 6070:1 6384:1 6789:1 7254:1 7387:1 7417:1 9009:1 9214:1 9238:1 10434:1 11181:1 11204:1 11764:1 12810:1 14087:1 14467:1 15104:1 15555:1 19457:1 20636:1 21614:1 23273:1 24340:1 27458:1 28464:1 29840:1 31297:1 31828:1 
1 1:1 4:1 9:1 13:1 14:1 15:1 19:1 21:1 45:1 48:1 57:1 64:1 81:1 82:1 99:1 142:1 143:1 304:1 422:1 450:1 479:1 570:1 585:1 652:1 966:1 991:1 1150:1 1277:1 1407:1 1676:1 1688:1 2056:1 2067:1 4821:1 5020:1 6508:1 7193:1 9017:1 9201:1 9210:1 10316:1 11095:1 12887:1 14215:1 14254:1 31066:1 
1 1:1 4:1 19:1 48:1 99:1 143:1 570:1 991:1 1676:1 2067:1 9210:1 14254:1 
0.11263492445146454 1:1 3:1 4:1 5:1 8:1 14:1 16:1 18:1 19:1 20:1 21:1 48:1 49:1 60:1 99:1 139:1 143:1 191:1 289:1 446:1 521:1 553:1 570:1 573:1 605:1 655:1 991:1 1019:1 1208:1 1676:1 2038:1 2067:1 2544:1 3537:1 5821:1 6154:1 6384:1 7246:1 9210:1 9405:1 10673:1 14079:1 14254:1 26519:1 27732:1 28464:1 31268:1 
0.91722017919547305 4:1 5:1 7:1 9:1 12:1 19:1 29:1 48:1 51:1 62:1 142:1 166:1 181:1 262:1 304:1 383:1 579:1 743:1 755:1 998:1 1062:1 1235:1 2254:1 2351:1 3292:1 4434:1 6447:1 7869:1 9297:1 9746:1 10827:1 18542:1 22310:1 33081:1 
0.30626535631172025 1:1 3:1 4:1 5:1 6:1 7:1 8:1 9:1 10:1 13:1 14:1 18:1 19:1 20:1 21:1 45:1 48:1 51:1 52:1 53:1 57:1 58:1 82:1 84:1 85:1 88:1 95:1 98:1 99:1 139:1 143:1 151:1 152:1 177:1 196:1 222:1 238:1 239:1 244:1 251:1 256:1 257:1 276:1 289:1 304:1 317:1 318:1 323:1 342:1 414:1 418:1 426:1 453:1 455:1 465:1 535:1 536:1 570:1 573:1 579:1 605:1 643:1 955:1 991:1 993:1 1046:1 1049:1 1055:1 1059:1 1071:1 1100:1 1148:1 1167:1 1422:1 1453:1 1460:1 1512:1 1625:1 1652:1 1676:1 2038:1 2065:1 2067:1 2136:1 2149:1 2652:1 2887:1 3010:1 3065:1 3161:1 3226:1 3246:1 3393:1 3537:1 3894:1 3900:1 3916:1 3989:1 4151:1 4742:1 4774:1 4851:1 5079:1 5116:1 5219:1 5883:1 6384:1 6447:1 7051:1 8902:1 9210:1 9243:1 9572:1 9610:1 9671:1 9717:1 9813:1 9992:1 10300:1 10439:1 11764:1 11967:1 11996:1 12154:1 12645:1 14079:1 14248:1 14254:1 14505:1 14546:1 17168:1 17485:1 17746:1 18102:1 18339:1 18905:1 20824:1 20849:1 20922:1 21167:1 21602:1 23167:1 23508:1 24380:1 24382:1 26639:1 28464:1 30609:1 
0.032571859518017984 3:1 5:1 6:1 8:1 9:1 11:1 16:1 18:1 19:1 20:1 22:1 36:1 49:1 62:1 139:1 182:1 183:1 188:1 194:1 210:1 286:1 289:1 313:1 326:1 368:1 529:1 535:1 553:1 573:1 605:1 610:1 614:1 667:1 860:1 865:1 1011:1 1012:1 1232:1 2035:1 2038:1 2387:1 2398:1 2488:1 2593:1 2611:1 2771:1 3512:1 3537:1 3835:1 4050:1 4320:1 5861:1 6154:1 6384:1 6736:1 6789:1 8434:1 8473:1 9363:1 9370:1 10809:1 14055:1 14079:1 15150:1 15194:1 15594:1 16251:1 16826:1 19310:1 20627:1 22016:1 26578:1 27732:1 28461:1 28464:1 29623:1 29839:1 34410:1 34501:1 
0.12238050458091317 4:1 5:1 18:1 19:1 21:1 23:1 29:1 64:1 66:1 142:1 181:1 540:1 570:1 656:1 658:1 693:1 759:1 1280:1 1300:1 2351:1 5941:1 7251:1 7309:1 7509:1 7921:1 11144:1 11278:1 26874:1 31547:1 32184:1 33294:1 
1 1:1 4:1 19:1 48:1 99:1 143:1 570:1 991:1 1676:1 2067:1 9210:1 14254:1 
0.40843270891491279 1:1 4:1 5:1 7:1 8:1 9:1 13:1 14:1 15:1 48:1 49:1 52:1 57:1 82:1 88:1 95:1 157:1 177:1 243:1 272:1 304:1 414:1 455:1 479:1 994:1 1007:1 1070:1 1147:1 1413:1 1501:1 1617:1 2166:1 3037:1 3351:1 4740:1 5106:1 9251:1 9795:1 10287:1 11677:1 12087:1 12600:1 18701:1 23159:1 
0.01512573219623561 1:1 3:1 5:1 7:1 8:1 9:1 13:1 14:1 15:1 18:1 19:1 20:1 21:1 23:1 26:1 32:1 39:1 49:1 51:1 57:1 58:1 66:1 72:1 95:1 139:1 177:1 182:1 191:1 194:1 239:1 243:1 245:1 271:1 289:1 324:1 418:1 422:1 446:1 453:1 460:1 469:1 472:1 477:1 479:1 553:1 573:1 605:1 652:1 688:1 710:1 808:1 809:1 904:1 1011:1 1050:1 1148:1 1150:1 1173:1 1177:1 1297:1 1365:1 1621:1 2020:1 2038:1 2387:1 2544:1 2611:1 3019:1 3051:1 3075:1 3537:1 4010:1 4774:1 4833:1 5082:1 5161:1 5266:1 5310:1 5344:1 6154:1 6384:1 7211:1 7470:1 7587:1 8186:1 8190:1 8720:1 9363:1 9618:1 10300:1 10328:1 10486:1 10512:1 11249:1 11545:1 12629:1 14079:1 15150:1 16251:1 17517:1 17646:1 17790:1 23461:1 24232:1 24500:1 24803:1 24933:1 24998:1 27732:1 28447:1 28464:1 31151:1 33941:1 35022:1 
0.038587873192847053 1:1 3:1 4:1 5:1 8:1 12:1 13:1 14:1 18:1 20:1 23:1 29:1 36:1 47:1 48:1 56:1 57:1 66:1 69:1 82:1 93:1 139:1 147:1 166:1 177:1 182:1 194:1 300:1 378:1 383:1 414:1 465:1 535:1 539:1 540:1 605:1 693:1 743:1 759:1 766:1 856:1 989:1 998:1 1135:1 1147:1 1300:1 1335:1 1418:1 1563:1 2049:1 2082:1 2254:1 2387:1 2593:1 2598:1 3663:1 4435:1 4740:1 5219:1 5918:1 5952:1 7514:1 7920:1 7997:1 8403:1 9196:1 9297:1 10195:1 10287:1 11282:1 11710:1 14187:1 15140:1 16108:1 19911:1 22322:1 23160:1 26817:1 26982:1 32205:1 33285:1 33579:1 34338:1 
0.21785018803140449 5:1 6:1 8:1 13:1 15:1 18:1 20:1 21:1 22:1 52:1 57:1 64:1 65:1 177:1 194:1 196:1 205:1 276:1 418:1 499:1 550:1 554:1 605:1 622:1 645:1 657:1 670:1 1071:1 1148:1 1272:1 1285:1 2612:1 2652:1 3393:1 4774:1 5619:1 6122:1 6188:1 6863:1 7084:1 7277:1 7364:1 9813:1 10300:1 11051:1 11164:1 16281:1 18905:1 25967:1 27657:1 27846:1 30101:1 31680:1 
0.0023130969505247389 1:1 3:1 4:1 5:1 6:1 7:1 8:1 9:1 13:1 14:1 18:1 19:1 20:1 21:1 29:1 36:1 39:1 40:1 41:1 50:1 52:1 57:1 58:1 62:1 63:1 64:1 84:1 99:1 139:1 142:1 177:1 191:1 206:1 243:1 247:1 271:1 276:1 295:1 304:1 323:1 414:1 418:1 436:1 442:1 445:1 446:1 450:1 451:1 453:1 460:1 477:1 549:1 573:1 575:1 579:1 625:1 652:1 655:1 658:1 752:1 757:1 867:1 898:1 918:1 927:1 937:1 1029:1 1078:1 1147:1 1155:1 1160:1 1163:1 1177:1 1235:1 1260:1 1277:1 1453:1 1679:1 2020:1 2025:1 2544:1 2750:1 3037:1 3129:1 3389:1 3608:1 3989:1 4742:1 4774:1 4937:1 4975:1 4990:1 5020:1 5059:1 5086:1 5161:1 5340:1 6090:1 6384:1 6391:1 6447:1 6932:1 7193:1 7243:1 7308:1 7834:1 7903:1 8483:1 8493:1 8651:1 8786:1 8811:1 8844:1 9475:1 9863:1 10288:1 10363:1 10391:1 10405:1 10508:1 10827:1 11005:1 11095:1 11956:1 12857:1 13946:1 16770:1 17996:1 18864:1 19740:1 21167:1 23167:1 23729:1 23818:1 23848:1 24132:1 24263:1 24502:1 24990:1 27513:1 28447:1 30347:1 31066:1 31260:1 31541:1 33219:1 34514:1 34547:1 34837:1 35166:1 35213:1 35257:1 
0.18635761520215188 3:1 5:1 7:1 8:1 15:1 18:1 19:1 20:1 23:1 29:1 39:1 51:1 52:1 62:1 69:1 139:1 196:1 260:1 276:1 285:1 479:1 535:1 573:1 588:1 589:1 605:1 699:1 759:1 766:1 902:1 1061:1 1071:1 1232:1 1349:1 2034:1 2652:1 3278:1 3393:1 3480:1 6384:1 6566:1 6577:1 7558:1 7916:1 7997:1 8705:1 9739:1 9813:1 10809:1 11511:1 14027:1 18516:1 18905:1 28460:1 29136:1 32315:1 33575:1 34998:1 
0.10388151012140287 1:1 3:1 4:1 5:1 6:1 7:1 8:1 9:1 12:1 13:1 14:1 15:1 18:1 19:1 20:1 21:1 26:1 39:1 50:1 53:1 56:1 61:1 62:1 67:1 95:1 139:1 142:1 177:1 205:1 236:1 238:1 289:1 313:1 317:1 323:1 379:1 418:1 450:1 452:1 453:1 485:1 493:1 544:1 573:1 575:1 625:1 652:1 719:1 899:1 1043:1 1096:1 1134:1 1220:1 1232:1 1318:1 1615:1 2038:1 2998:1 3556:1 3832:1 3894:1 3990:1 4389:1 4774:1 5020:1 5067:1 5079:1 5397:1 5510:1 6016:1 6384:1 6391:1 6926:1 7193:1 7670:1 8664:1 9563:1 9963:1 10189:1 10731:1 10809:1 11365:1 12581:1 14098:1 17451:1 19530:1 20600:1 20824:1 21168:1 22185:1 25510:1 27257:1 28464:1 30315:1 31066:1 32605:1 34875:1 
0.041422536979626556 1:1 2:1 4:1 5:1 7:1 8:1 9:1 11:1 12:1 14:1 18:1 19:1 21:1 23:1 29:1 32:1 48:1 51:1 52:1 62:1 64:1 66:1 95:1 98:1 99:1 107:1 142:1 143:1 151:1 189:1 191:1 256:1 295:1 304:1 354:1 383:1 390:1 446:1 450:1 457:1 535:1 570:1 579:1 599:1 652:1 685:1 752:1 793:1 812:1 991:1 993:1 1059:1 1078:1 1235:1 1277:1 1295:1 1618:1 1652:1 1676:1 1788:1 2065:1 2067:1 2124:1 2506:1 2544:1 3243:1 3608:1 4210:1 4444:1 4530:1 5020:1 5131:1 6447:1 6666:1 7193:1 7438:1 7834:1 8206:1 9208:1 9210:1 9235:1 9722:1 9863:1 10827:1 11095:1 11222:1 12611:1 13182:1 14246:1 14254:1 15687:1 18414:1 19740:1 21733:1 22363:1 22670:1 24421:1 29362:1 31066:1 31925:1 
0.22609812315514391 1:1 2:1 4:1 5:1 7:1 9:1 13:1 14:1 15:1 18:1 19:1 21:1 26:1 29:1 45:1 58:1 67:1 69:1 83:1 111:1 142:1 177:1 194:1 243:1 308:1 413:1 428:1 455:1 466:1 496:1 535:1 542:1 575:1 588:1 651:1 655:1 717:1 724:1 760:1 953:1 1167:1 1170:1 1316:1 1322:1 1346:1 1434:1 1819:1 2593:1 3037:1 3726:1 4875:1 5109:1 5249:1 5544:1 5980:1 6391:1 6553:1 7168:1 7230:1 7660:1 7701:1 7951:1 8883:1 10434:1 10464:1 11359:1 11381:1 11500:1 11860:1 13343:1 23578:1 24340:1 24767:1 25682:1 27085:1 29073:1 32586:1 32668:1 33422:1 
0.029720234031964415 1:1 4:1 7:1 8:1 16:1 19:1 20:1 21:1 48:1 52:1 82:1 88:1 101:1 142:1 238:1 272:1 520:1 571:1 588:1 625:1 654:1 656:1 658:1 990:1 1070:1 1413:1 1496:1 1736:1 3357:1 5807:1 6354:1 6549:1 6932:1 7226:1 7268:1 7309:1 9798:1 11672:1 13055:1 18740:1 26496:1 28336:1 29055:1 30348:1 31196:1 31376:1 31562:1 
0.2839831801225301 1:1 4:1 5:1 14:1 18:1 19:1 45:1 48:1 49:1 81:1 82:1 95:1 147:1 194:1 195:1 446:1 535:1 571:1 588:1 963:1 992:1 1022:1 1407:1 1609:1 2098:1 2593:1 2642:1 6354:1 6549:1 8973:1 9229:1 9446:1 14373:1 16422:1 28335:1 29055:1 
0.20804146228856946 6:1 7:1 8:1 9:1 14:1 15:1 18:1 19:1 51:1 52:1 211:1 219:1 238:1 255:1 285:1 304:1 311:1 455:1 484:1 493:1 497:1 550:1 579:1 588:1 1058:1 1076:1 2792:1 2864:1 3205:1 3485:1 3786:1 5112:1 5383:1 5519:1 5578:1 6117:1 6447:1 6557:1 9702:1 9836:1 16929:1 17121:1 18248:1 19181:1 24353:1 25107:1 25584:1 25829:1 27621:1 29095:1 
0.024461225744975484 1:1 2:1 3:1 5:1 6:1 8:1 9:1 14:1 18:1 19:1 20:1 21:1 46:1 53:1 82:1 100:1 111:1 123:1 139:1 177:1 194:1 206:1 289:1 310:1 318:1 451:1 540:1 544:1 573:1 623:1 625:1 641:1 658:1 978:1 1097:1 1424:1 1711:1 1803:1 1911:1 2038:1 2598:1 2739:1 3556:1 3766:1 3914:1 5061:1 5937:1 6014:1 6384:1 6875:1 6932:1 7039:1 7296:1 9127:1 9972:1 11809:1 12970:1 13668:1 14098:1 16096:1 16735:1 19535:1 20271:1 20912:1 24151:1 27228:1 28464:1 30155:1 30342:1 30581:1 31467:1 
1 1:1 4:1 5:1 7:1 8:1 9:1 13:1 14:1 15:1 18:1 19:1 20:1 23:1 36:1 48:1 51:1 52:1 53:1 57:1 62:1 99:1 143:1 164:1 177:1 191:1 194:1 196:1 243:1 246:1 276:1 300:1 309:1 322:1 418:1 450:1 479:1 535:1 542:1 554:1 570:1 585:1 605:1 686:1 858:1 865:1 991:1 1051:1 1071:1 1099:1 1148:1 1238:1 1676:1 2067:1 2244:1 2547:1 2593:1 2652:1 3051:1 3111:1 3393:1 3668:1 3744:1 3967:1 4788:1 5040:1 5980:1 6173:1 6508:1 7450:1 8423:1 8471:1 9210:1 9644:1 9813:1 9987:1 10309:1 10846:1 14254:1 14772:1 15863:1 17649:1 17949:1 18905:1 19930:1 21091:1 23329:1 24059:1 27092:1 31968:1 34384:1 34490:1 
0.17686541830033797 1:1 3:1 4:1 5:1 6:1 7:1 8:1 14:1 15:1 19:1 32:1 48:1 51:1 59:1 72:1 99:1 139:1 143:1 191:1 210:1 211:1 256:1 271:1 446:1 484:1 570:1 573:1 599:1 793:1 808:1 812:1 991:1 1059:1 1183:1 1365:1 1676:1 2020:1 2067:1 2544:1 2774:1 2786:1 3243:1 5383:1 6384:1 6666:1 8186:1 8206:1 9210:1 9722:1 10526:1 11545:1 14254:1 16841:1 16906:1 18414:1 25104:1 28447:1 29362:1 33941:1 
0.10260181486579834 1:1 2:1 5:1 7:1 9:1 14:1 15:1 18:1 19:1 20:1 21:1 22:1 29:1 46:1 58:1 62:1 65:1 95:1 111:1 115:1 177:1 191:1 194:1 238:1 239:1 304:1 318:1 451:1 453:1 455:1 465:1 466:1 470:1 492:1 496:1 535:1 540:1 542:1 585:1 610:1 652:1 675:1 745:1 975:1 1171:1 1238:1 1287:1 1615:1 1819:1 1859:1 2562:1 2598:1 2600:1 3019:1 3918:1 5059:1 5079:1 5106:1 5223:1 5248:1 5283:1 5485:1 5537:1 5937:1 5978:1 6516:1 6736:1 7207:1 7397:1 7793:1 9094:1 10468:1 10854:1 11189:1 12581:1 13348:1 13516:1 15964:1 16096:1 16125:1 17515:1 20938:1 24140:1 24674:1 24765:1 24873:1 25412:1 27079:1 28963:1 29630:1 31137:1 31765:1 32844:1 
0.01393916846100968 4:1 5:1 8:1 13:1 14:1 18:1 19:1 20:1 29:1 52:1 57:1 58:1 62:1 142:1 191:1 194:1 196:1 295:1 418:1 450:1 451:1 535:1 552:1 575:1 605:1 759:1 1078:1 1148:1 1166:1 1234:1 2547:1 2593:1 2652:1 3613:1 4788:1 5020:1 5063:1 6135:1 6404:1 7930:1 9867:1 10309:1 10432:1 10819:1 15851:1 19783:1 23329:1 24176:1 28571:1 33357:1 
1 1:1 5:1 9:1 10:1 15:1 16:1 19:1 36:1 49:1 54:1 74:1 81:1 82:1 195:1 323:1 337:1 479:1 493:1 511:1 517:1 570:1 585:1 857:1 1022:1 1106:1 1382:1 1407:1 2639:1 3986:1 4103:1 5504:1 5723:1 5759:1 6517:1 8409:1 9444:1 10013:1 11584:1 16409:1 21518:1 26250:1 26364:1 28966:1 34356:1 
0.1729776113956874 1:1 2:1 3:1 4:1 5:1 7:1 8:1 9:1 12:1 13:1 14:1 15:1 16:1 18:1 20:1 22:1 36:1 39:1 45:1 46:1 47:1 48:1 51:1 52:1 65:1 74:1 81:1 83:1 111:1 115:1 139:1 147:1 159:1 177:1 191:1 194:1 253:1 272:1 289:1 300:1 304:1 307:1 316:1 378:1 387:1 428:1 446:1 451:1 460:1 479:1 490:1 493:1 507:1 535:1 568:1 605:1 672:1 856:1 857:1 898:1 907:1 953:1 975:1 989:1 992:1 995:1 1057:1 1070:1 1286:1 1382:1 1434:1 1819:1 1848:1 2038:1 2049:1 2095:1 2202:1 2544:1 2593:1 3190:1 3339:1 3537:1 3663:1 3725:1 3874:1 4488:1 4874:1 5046:1 5160:1 5441:1 5504:1 5514:1 5665:1 6345:1 7377:1 8401:1 8406:1 8656:1 8743:1 8883:1 9084:1 9196:1 9227:1 9281:1 9694:1 9784:1 11174:1 11581:1 11860:1 13343:1 14079:1 14187:1 14352:1 14693:1 18181:1 19910:1 20096:1 20767:1 22500:1 23571:1 24490:1 25521:1 28320:1 31716:1 34332:1 34346:1 34851:1 35084:1 
0.47445459658010802 1:1 3:1 4:1 5:1 7:1 8:1 9:1 14:1 18:1 19:1 20:1 23:1 32:1 36:1 39:1 45:1 47:1 48:1 49:1 51:1 52:1 53:1 58:1 66:1 72:1 81:1 82:1 95:1 99:1 139:1 142:1 143:1 177:1 184:1 191:1 238:1 256:1 260:1 271:1 272:1 287:1 289:1 300:1 304:1 309:1 446:1 451:1 453:1 460:1 472:1 544:1 570:1 573:1 588:1 589:1 605:1 686:1 699:1 797:1 808:1 856:1 902:1 963:1 989:1 991:1 1007:1 1061:1 1070:1 1086:1 1173:1 1296:1 1365:1 1407:1 1615:1 1676:1 2020:1 2036:1 2038:1 2049:1 2067:1 2415:1 2544:1 3220:1 3278:1 3339:1 3340:1 3517:1 3537:1 3663:1 3744:1 3750:1 5059:1 5094:1 5160:1 5309:1 6013:1 6384:1 6566:1 6577:1 7450:1 7558:1 8126:1 8186:1 8401:1 8705:1 8978:1 9189:1 9196:1 9210:1 9739:1 9784:1 9785:1 10485:1 11234:1 11545:1 12592:1 14060:1 14079:1 14187:1 14254:1 18308:1 18516:1 18626:1 19336:1 19910:1 20181:1 24132:1 24294:1 24494:1 24931:1 27218:1 28447:1 28464:1 29136:1 31968:1 32315:1 33941:1 34332:1 34998:1 
0.03131967532461883 1:1 2:1 3:1 5:1 7:1 8:1 9:1 12:1 13:1 14:1 15:1 18:1 19:1 26:1 45:1 47:1 57:1 58:1 62:1 67:1 94:1 120:1 139:1 177:1 191:1 194:1 243:1 280:1 304:1 306:1 316:1 317:1 383:1 413:1 418:1 426:1 428:1 446:1 451:1 455:1 496:1 535:1 542:1 579:1 705:1 962:1 989:1 1152:1 1166:1 1235:1 1308:1 1590:1 1891:1 2029:1 2544:1 2593:1 3051:1 3425:1 3714:1 3870:1 3900:1 4431:1 4788:1 4851:1 4875:1 5046:1 5106:1 5544:1 5980:1 6449:1 6457:1 8960:1 9185:1 10338:1 10421:1 10828:1 10835:1 13611:1 13979:1 17646:1 18986:1 20053:1 20741:1 20849:1 23329:1 23513:1 23578:1 25682:1 27092:1 28746:1 28794:1 
0.045754466226395722 2:1 7:1 8:1 9:1 10:1 13:1 14:1 18:1 19:1 20:1 21:1 23:1 33:1 36:1 41:1 46:1 54:1 57:1 61:1 62:1 66:1 115:1 238:1 271:1 280:1 304:1 318:1 324:1 342:1 432:1 442:1 453:1 563:1 589:1 601:1 605:1 613:1 639:1 686:1 824:1 867:1 930:1 934:1 975:1 1111:1 1160:1 1226:1 1249:1 1296:1 1848:1 3427:1 3916:1 4017:1 4149:1 4907:1 4975:1 5079:1 6297:1 6577:1 6679:1 6770:1 6773:1 7462:1 8244:1 8486:1 8490:1 8819:1 8839:1 9084:1 10046:1 10391:1 10774:1 10920:1 11244:1 18999:1 20922:1 21298:1 23655:1 23817:1 28190:1 29394:1 29774:1 32038:1 34033:1 34522:1 34542:1 35223:1 35249:1 
1 4:1 9:1 14:1 15:1 21:1 23:1 53:1 64:1 66:1 142:1 304:1 313:1 446:1 450:1 492:1 652:1 688:1 1094:1 1277:1 1297:1 3817:1 5020:1 5480:1 7193:1 7479:1 9938:1 11095:1 11255:1 31066:1 32077:1 
0.15193765301434922 1:1 2:1 3:1 4:1 5:1 7:1 8:1 9:1 10:1 13:1 14:1 18:1 19:1 20:1 21:1 23:1 26:1 29:1 45:1 54:1 57:1 62:1 64:1 66:1 67:1 69:1 83:1 106:1 139:1 142:1 147:1 151:1 177:1 181:1 191:1 194:1 195:1 243:1 271:1 276:1 289:1 304:1 318:1 323:1 338:1 418:1 450:1 455:1 464:1 535:1 570:1 573:1 596:1 610:1 642:1 644:1 652:1 689:1 724:1 750:1 752:1 953:1 1107:1 1148:1 1244:1 1277:1 1298:1 1322:1 1341:1 1429:1 2020:1 2025:1 2038:1 2099:1 2124:1 2356:1 2547:1 2560:1 2593:1 2628:1 3037:1 3376:1 3541:1 3918:1 3989:1 4116:1 4786:1 4788:1 5020:1 5025:1 5120:1 5197:1 6384:1 6636:1 6733:1 7049:1 7065:1 7193:1 7486:1 7697:1 7819:1 7847:1 8879:1 10022:1 10308:1 10309:1 10885:1 11095:1 11261:1 11377:1 11452:1 13935:1 14083:1 14402:1 15030:1 15854:1 15929:1 16368:1 19427:1 20948:1 21167:1 21537:1 23319:1 23329:1 23988:1 24397:1 28447:1 28464:1 29297:1 29617:1 30603:1 31066:1 32114:1 32648:1 32904:1 33021:1 
0.11608165598646597 1:1 5:1 6:1 8:1 9:1 11:1 12:1 13:1 14:1 18:1 19:1 52:1 82:1 95:1 188:1 194:1 223:1 280:1 315:1 316:1 353:1 355:1 384:1 418:1 455:1 535:1 583:1 1073:1 1420:1 1617:1 2479:1 2593:1 2909:1 3425:1 3851:1 3871:1 4196:1 4226:1 4461:1 4783:1 5114:1 6497:1 9821:1 11744:1 12604:1 15559:1 17241:1 18987:1 20687:1 20757:1 21675:1 21767:1 22446:1 23303:1 24373:1 28910:1 
1 1:1 10:1 54:1 81:1 82:1 337:1 1106:1 1407:1 4102:1 4103:1 10012:1 10013:1 21518:1 
0.0089947102621879393 1:1 4:1 5:1 6:1 7:1 8:1 9:1 11:1 12:1 14:1 16:1 18:1 19:1 20:1 23:1 29:1 48:1 51:1 52:1 55:1 62:1 66:1 81:1 93:1 97:1 99:1 142:1 143:1 147:1 177:1 181:1 191:1 194:1 196:1 206:1 244:1 276:1 295:1 304:1 353:1 383:1 390:1 451:1 507:1 517:1 540:1 570:1 579:1 605:1 610:1 624:1 684:1 761:1 991:1 992:1 1049:1 1071:1 1078:1 1119:1 1235:1 1294:1 1575:1 1646:1 1676:1 2055:1 2095:1 2351:1 2548:1 2598:1 2652:1 2746:1 3060:1 3393:1 3615:1 4204:1 4431:1 4530:1 5046:1 5678:1 5758:1 5954:1 6447:1 6724:1 6900:1 7426:1 7959:1 9200:1 9227:1 9605:1 9813:1 9869:1 10092:1 10827:1 11212:1 12397:1 12712:1 14356:1 15868:1 16110:1 16751:1 17727:1 18905:1 19795:1 21713:1 22663:1 26114:1 26358:1 27005:1 29539:1 30233:1 31875:1 33454:1 
1 3:1 4:1 5:1 7:1 8:1 9:1 13:1 14:1 18:1 23:1 29:1 32:1 47:1 49:1 58:1 66:1 139:1 142:1 181:1 184:1 190:1 238:1 287:1 309:1 413:1 472:1 540:1 544:1 693:1 759:1 766:1 797:1 989:1 1018:1 1173:1 1300:1 2036:1 2351:1 2415:1 2524:1 3517:1 3750:1 5309:1 5941:1 6013:1 7514:1 7921:1 7997:1 8126:1 9189:1 9397:1 10485:1 11282:1 14060:1 19336:1 20181:1 24931:1 26874:1 27218:1 32205:1 33294:1 33580:1 
0.095362546675025958 1:1 2:1 3:1 4:1 5:1 7:1 8:1 9:1 10:1 12:1 14:1 18:1 19:1 20:1 33:1 42:1 46:1 48:1 51:1 53:1 54:1 81:1 82:1 93:1 111:1 125:1 139:1 147:1 177:1 179:1 182:1 189:1 191:1 194:1 243:1 247:1 256:1 271:1 304:1 309:1 313:1 323:1 337:1 378:1 387:1 451:1 536:1 573:1 579:1 600:1 605:1 833:1 939:1 946:1 973:1 992:1 1048:1 1052:1 1059:1 1100:1 1106:1 1418:1 1563:1 1814:1 1933:1 2020:1 2082:1 2087:1 2341:1 2372:1 2503:1 2548:1 2594:1 3051:1 3129:1 3226:1 3745:1 3817:1 3989:1 4009:1 4102:1 4490:1 5061:1 5877:1 6384:1 6454:1 6669:1 8300:1 8305:1 8855:1 9071:1 9214:1 9219:1 9598:1 9654:1 9717:1 9992:1 10012:1 11710:1 13315:1 14300:1 14973:1 15666:1 15878:1 16050:1 17650:1 18000:1 18342:1 20163:1 21167:1 21261:1 22508:1 24148:1 26605:1 28447:1 28767:1 29370:1 34133:1 35274:1 
0.017257656592493047 1:1 3:1 4:1 5:1 7:1 8:1 9:1 10:1 12:1 18:1 20:1 21:1 48:1 51:1 52:1 53:1 54:1 61:1 81:1 101:1 139:1 147:1 177:1 182:1 194:1 196:1 250:1 271:1 272:1 276:1 307:1 337:1 383:1 536:1 554:1 605:1 642:1 992:1 1054:1 1070:1 1088:1 1106:1 1218:1 1726:1 2020:1 2025:1 2100:1 2387:1 2612:1 2652:1 3148:1 3339:1 3376:1 3725:1 4102:1 4435:1 5894:1 6173:1 7049:1 9231:1 9660:1 9784:1 9915:1 10012:1 10708:1 13017:1 13935:1 14414:1 15151:1 16269:1 18036:1 20085:1 22322:1 26711:1 30603:1 
0.54772744252179051 1:1 2:1 3:1 4:1 5:1 8:1 10:1 14:1 15:1 18:1 45:1 47:1 48:1 54:1 58:1 81:1 83:1 111:1 139:1 157:1 194:1 271:1 337:1 461:1 479:1 493:1 535:1 953:1 989:1 994:1 1106:1 1169:1 1434:1 1819:1 2020:1 2177:1 2593:1 4102:1 5179:1 5504:1 8883:1 9182:1 9261:1 10012:1 10455:1 11860:1 13343:1 14599:1 24550:1 
0.81632478995136615 1:1 5:1 7:1 8:1 9:1 14:1 18:1 19:1 26:1 49:1 51:1 52:1 62:1 95:1 177:1 186:1 194:1 238:1 239:1 276:1 311:1 318:1 446:1 469:1 535:1 579:1 710:1 1021:1 1046:1 1071:1 1235:1 1629:1 2458:1 2593:1 3019:1 3385:1 3786:1 3910:1 5266:1 6458:1 7587:1 9420:1 9579:1 9807:1 10836:1 12667:1 15470:1 17520:1 18827:1 24803:1 28799:1 
0.047581768061498469 1:1 3:1 4:1 5:1 8:1 9:1 12:1 13:1 15:1 19:1 20:1 29:1 52:1 57:1 62:1 82:1 100:1 139:1 143:1 177:1 271:1 295:1 307:1 382:1 418:1 490:1 579:1 585:1 605:1 610:1 761:1 1078:1 1148:1 1235:1 1238:1 1424:1 1701:1 2020:1 2056:1 3615:1 3725:1 4414:1 4774:1 5444:1 6450:1 6514:1 6721:1 7953:1 9869:1 10300:1 10829:1 10852:1 11802:1 12924:1 14223:1 19791:1 20085:1 22269:1 25246:1 28750:1 28949:1 
0.44348654419320011 2:1 3:1 4:1 8:1 9:1 11:1 13:1 14:1 15:1 16:1 18:1 19:1 20:1 21:1 23:1 29:1 46:1 48:1 52:1 53:1 55:1 57:1 62:1 115:1 139:1 166:1 289:1 292:1 295:1 313:1 317:1 318:1 322:1 323:1 364:1 422:1 429:1 433:1 446:1 455:1 491:1 492:1 516:1 535:1 554:1 573:1 605:1 652:1 693:1 743:1 759:1 761:1 766:1 975:1 998:1 1078:1 1096:1 1125:1 1150:1 1232:1 1859:1 2038:1 2041:1 2254:1 3537:1 3592:1 3615:1 3831:1 3903:1 3910:1 3960:1 3979:1 3989:1 4290:1 4831:1 4887:1 4920:1 5113:1 5120:1 5474:1 5489:1 5749:1 6173:1 6384:1 7198:1 7514:1 7916:1 7953:1 7997:1 9094:1 9297:1 9869:1 9968:1 10134:1 10326:1 10809:1 13513:1 14079:1 14132:1 19704:1 19791:1 20590:1 20864:1 21133:1 21167:1 21939:1 23453:1 23627:1 23681:1 24368:1 24397:1 25375:1 25431:1 26328:1 28464:1 28466:1 31106:1 32205:1 33575:1 
0.57428289399764865 2:1 3:1 5:1 8:1 9:1 12:1 15:1 16:1 18:1 19:1 20:1 32:1 49:1 62:1 63:1 111:1 139:1 177:1 180:1 282:1 286:1 304:1 387:1 496:1 516:1 554:1 562:1 573:1 605:1 622:1 795:1 1009:1 1232:1 1258:1 1803:1 2031:1 2035:1 2349:1 3450:1 3505:1 4485:1 5555:1 5751:1 6173:1 6281:1 6384:1 6867:1 8124:1 9353:1 10809:1 10992:1 14000:1 14048:1 14998:1 19069:1 19281:1 25742:1 26338:1 28166:1 28461:1 30126:1 33836:1 
0.091048205035153817 1:1 5:1 7:1 8:1 9:1 12:1 14:1 15:1 18:1 19:1 23:1 26:1 29:1 49:1 51:1 81:1 191:1 194:1 238:1 245:1 246:1 256:1 272:1 285:1 311:1 387:1 446:1 490:1 493:1 543:1 594:1 693:1 726:1 750:1 1019:1 1021:1 1051:1 2544:1 2601:1 3074:1 3102:1 3240:1 3339:1 3493:1 3802:1 4492:1 5449:1 5514:1 6000:1 6628:1 7503:1 7716:1 7820:1 9405:1 9426:1 9635:1 16141:1 17913:1 18399:1 19221:1 20441:1 22532:1 25280:1 25526:1 27174:1 29285:1 32142:1 32706:1 32916:1 
0.40538818631121981 4:1 5:1 14:1 21:1 48:1 64:1 142:1 162:1 177:1 450:1 644:1 652:1 997:1 1277:1 2226:1 5020:1 7065:1 7193:1 9288:1 11095:1 14723:1 31066:1 
0.20919628563676013 1:1 4:1 5:1 6:1 7:1 8:1 9:1 11:1 12:1 14:1 18:1 20:1 21:1 29:1 36:1 39:1 50:1 51:1 52:1 55:1 58:1 64:1 81:1 151:1 177:1 182:1 191:1 194:1 222:1 250:1 272:1 300:1 304:1 318:1 355:1 383:1 450:1 451:1 460:1 470:1 543:1 554:1 568:1 605:1 614:1 624:1 652:1 761:1 858:1 865:1 899:1 1035:1 1054:1 1070:1 1120:1 1171:1 1277:1 2136:1 2387:1 2556:1 2601:1 2612:1 2898:1 3148:1 3339:1 3668:1 3914:1 4225:1 4435:1 5029:1 5046:1 5061:1 5160:1 5297:1 6006:1 6173:1 6339:1 6782:1 6904:1 7202:1 7959:1 8423:1 8471:1 8662:1 9524:1 9660:1 9784:1 10102:1 10478:1 11103:1 14504:1 15151:1 15914:1 16147:1 16269:1 17224:1 18036:1 19930:1 20900:1 21764:1 22322:1 24009:1 24153:1 24490:1 24496:1 24907:1 27189:1 28296:1 30251:1 31122:1 33455:1 34384:1 34490:1 34863:1 
0.017974703170406614 1:1 3:1 4:1 5:1 7:1 8:1 9:1 10:1 12:1 14:1 18:1 19:1 20:1 21:1 23:1 29:1 39:1 45:1 48:1 52:1 54:1 64:1 69:1 82:1 95:1 103:1 139:1 142:1 177:1 194:1 243:1 280:1 282:1 311:1 313:1 323:1 324:1 338:1 379:1 383:1 450:1 554:1 570:1 573:1 579:1 617:1 623:1 624:1 637:1 639:1 656:1 686:1 762:1 903:1 907:1 952:1 990:1 1073:1 1107:1 1279:1 1347:1 1427:1 1612:1 1750:1 2031:1 2612:1 3037:1 3432:1 3447:1 3789:1 3832:1 3993:1 4026:1 4113:1 4389:1 4447:1 5020:1 6199:1 6384:1 6453:1 6815:1 6875:1 6905:1 7022:1 7251:1 7453:1 7962:1 8715:1 8747:1 8877:1 9827:1 10021:1 11117:1 11501:1 11826:1 12549:1 13097:1 13998:1 16291:1 19028:1 19055:1 20352:1 20602:1 21199:1 21349:1 22184:1 22396:1 27889:1 28457:1 28760:1 29928:1 30155:1 30262:1 30558:1 31989:1 35015:1 35116:1 
0.019648285383706641 1:1 4:1 5:1 6:1 7:1 9:1 12:1 13:1 15:1 16:1 18:1 19:1 20:1 26:1 32:1 48:1 51:1 57:1 59:1 62:1 82:1 93:1 100:1 147:1 177:1 194:1 201:1 228:1 238:1 239:1 245:1 256:1 305:1 309:1 311:1 324:1 385:1 422:1 484:1 507:1 535:1 540:1 586:1 599:1 605:1 614:1 624:1 714:1 793:1 812:1 992:1 1050:1 1150:1 1183:1 1239:1 1418:1 1570:1 1712:1 2098:1 2593:1 2598:1 2718:1 2953:1 3022:1 3091:1 3243:1 3698:1 3758:1 3786:1 4010:1 4466:1 4833:1 5393:1 5682:1 5937:1 6526:1 6666:1 6788:1 6904:1 7629:1 7632:1 8206:1 9229:1 9626:1 10328:1 10530:1 10863:1 11717:1 12371:1 12981:1 14373:1 16096:1 16678:1 17344:1 17532:1 17875:1 18414:1 20006:1 20227:1 22456:1 23461:1 25129:1 26131:1 29004:1 29362:1 29819:1 30255:1 32479:1 32493:1 
0.70722452470627961 1:1 2:1 4:1 5:1 7:1 9:1 11:1 12:1 13:1 14:1 15:1 16:1 18:1 20:1 26:1 48:1 51:1 53:1 60:1 82:1 95:1 100:1 118:1 151:1 177:1 190:1 239:1 304:1 309:1 313:1 315:1 352:1 383:1 414:1 469:1 480:1 518:1 550:1 614:1 714:1 993:1 1046:1 1094:1 1206:1 1424:1 1629:1 1705:1 1874:1 2129:1 2525:1 3019:1 3744:1 3817:1 3848:1 4443:1 4740:1 5270:1 5356:1 5771:1 6105:1 6791:1 7628:1 9238:1 9579:1 9938:1 10651:1 11804:1 12669:1 12945:1 13563:1 14467:1 15765:1 17520:1 22357:1 23164:1 24826:1 25037:1 26407:1 27558:1 29842:1 
1 1:1 3:1 4:1 5:1 6:1 8:1 9:1 10:1 13:1 14:1 18:1 19:1 39:1 48:1 50:1 53:1 54:1 57:1 81:1 91:1 99:1 139:1 143:1 147:1 191:1 236:1 271:1 304:1 323:1 337:1 422:1 446:1 460:1 535:1 570:1 573:1 901:1 991:1 992:1 1043:1 1100:1 1106:1 1150:1 1548:1 1676:1 2020:1 2067:1 2095:1 2556:1 2999:1 3989:1 4102:1 4106:1 4821:1 5157:1 6384:1 8680:1 9210:1 9227:1 9564:1 9992:1 10015:1 10316:1 12288:1 14254:1 14360:1 15913:1 17452:1 21167:1 21524:1 28447:1 
0.11043572366815738 1:1 2:1 3:1 4:1 5:1 6:1 8:1 9:1 12:1 14:1 15:1 18:1 19:1 21:1 23:1 26:1 39:1 45:1 48:1 50:1 53:1 62:1 64:1 66:1 77:1 83:1 99:1 111:1 139:1 142:1 143:1 181:1 194:1 201:1 236:1 271:1 304:1 307:1 323:1 387:1 446:1 451:1 492:1 535:1 553:1 570:1 573:1 575:1 579:1 585:1 588:1 652:1 699:1 716:1 901:1 902:1 953:1 991:1 1043:1 1100:1 1235:1 1238:1 1277:1 1306:1 1401:1 1434:1 1689:1 1819:1 2020:1 2067:1 2351:1 2593:1 2611:1 2719:1 2999:1 3725:1 3989:1 4488:1 5061:1 5480:1 6156:1 6384:1 6394:1 6412:1 6447:1 6516:1 6548:1 6553:1 7194:1 7558:1 7654:1 8680:1 8699:1 8705:1 8883:1 9210:1 9564:1 9992:1 10827:1 10854:1 11096:1 11317:1 11620:1 11860:1 12890:1 13343:1 14259:1 16253:1 16688:1 17452:1 20085:1 21167:1 22500:1 24160:1 27740:1 28447:1 28498:1 28630:1 28959:1 29076:1 31081:1 32315:1 32572:1 34994:1 
0.059360277325584201 1:1 3:1 4:1 5:1 8:1 9:1 15:1 16:1 18:1 19:1 20:1 21:1 23:1 48:1 49:1 53:1 60:1 66:1 99:1 139:1 143:1 147:1 177:1 195:1 271:1 323:1 479:1 493:1 496:1 499:1 516:1 539:1 570:1 573:1 585:1 605:1 657:1 688:1 991:1 1022:1 1100:1 1204:1 1297:1 1676:1 2020:1 2067:1 2082:1 2639:1 3989:1 5504:1 5518:1 5541:1 5619:1 5754:1 5918:1 6384:1 6517:1 7277:1 7480:1 9210:1 9444:1 9992:1 10645:1 11256:1 14254:1 16409:1 21167:1 25556:1 25655:1 25967:1 26347:1 26817:1 28447:1 28966:1 32090:1 
0.37131739980080675 1:1 3:1 4:1 5:1 7:1 8:1 9:1 10:1 19:1 23:1 26:1 29:1 32:1 48:1 51:1 54:1 62:1 67:1 84:1 99:1 139:1 143:1 151:1 177:1 182:1 256:1 276:1 304:1 343:1 570:1 571:1 579:1 599:1 685:1 726:1 743:1 793:1 812:1 991:1 993:1 1059:1 1112:1 1231:1 1235:1 1324:1 1453:1 1676:1 2025:1 2067:1 2124:1 2372:1 3243:1 3376:1 4161:1 6356:1 6447:1 6666:1 7433:1 7712:1 8206:1 9210:1 9235:1 9722:1 10056:1 10796:1 10827:1 11389:1 11956:1 13935:1 14254:1 18414:1 28351:1 29362:1 31891:1 32693:1 
0.048893913381102216 1:1 4:1 5:1 7:1 9:1 12:1 13:1 14:1 16:1 18:1 19:1 20:1 21:1 26:1 36:1 48:1 51:1 53:1 56:1 95:1 142:1 147:1 177:1 191:1 194:1 239:1 255:1 317:1 323:1 379:1 398:1 413:1 429:1 446:1 450:1 469:1 504:1 535:1 566:1 588:1 589:1 605:1 610:1 651:1 710:1 859:1 865:1 992:1 1046:1 1058:1 1096:1 1100:1 1134:1 1138:1 1612:1 1629:1 2098:1 2544:1 2593:1 3019:1 3213:1 3890:1 4002:1 4389:1 4633:1 4880:1 5020:1 5266:1 6319:1 6566:1 6577:1 6580:1 6721:1 7182:1 7601:1 8430:1 8472:1 9229:1 9579:1 9710:1 9961:1 10000:1 10189:1 10236:1 12549:1 12667:1 14373:1 17520:1 18279:1 21241:1 22184:1 22912:1 24810:1 28245:1 29137:1 29168:1 31040:1 32411:1 34404:1 34497:1 
0.070003371961830263 4:1 5:1 7:1 9:1 11:1 13:1 14:1 15:1 18:1 20:1 23:1 55:1 57:1 59:1 66:1 147:1 177:1 182:1 191:1 194:1 243:1 311:1 355:1 418:1 455:1 465:1 482:1 535:1 605:1 685:1 1120:1 1148:1 1182:1 1295:1 2098:1 2372:1 2384:1 2552:1 2561:1 2593:1 3054:1 3789:1 4225:1 4778:1 5112:1 5219:1 5368:1 7433:1 10102:1 10303:1 10523:1 11217:1 14373:1 15129:1 15898:1 15941:1 17672:1 20360:1 21766:1 23268:1 24354:1 25070:1 31897:1 
0.067844545872064566 1:1 3:1 4:1 5:1 6:1 7:1 8:1 9:1 12:1 13:1 14:1 15:1 18:1 19:1 20:1 21:1 23:1 47:1 48:1 51:1 53:1 58:1 62:1 66:1 84:1 93:1 139:1 147:1 177:1 183:1 191:1 206:1 238:1 243:1 271:1 285:1 287:1 289:1 304:1 307:1 311:1 317:1 323:1 383:1 390:1 413:1 446:1 447:1 479:1 544:1 570:1 573:1 579:1 588:1 590:1 610:1 656:1 688:1 989:1 992:1 1048:1 1086:1 1096:1 1100:1 1165:1 1235:1 1242:1 1297:1 1453:1 1575:1 2020:1 2034:1 2036:1 2038:1 2082:1 2396:1 2544:1 2746:1 3043:1 3480:1 3517:1 3541:1 3725:1 3786:1 3890:1 3989:1 4444:1 4530:1 4995:1 6011:1 6384:1 6453:1 6548:1 6606:1 6721:1 7268:1 7470:1 9188:1 9214:1 9591:1 9961:1 9992:1 10409:1 10832:1 10878:1 11249:1 11965:1 12397:1 14027:1 14060:1 14083:1 15186:1 16751:1 17601:1 19335:1 19416:1 20096:1 21167:1 22363:1 22670:1 23871:1 27206:1 28447:1 28759:1 29234:1 31375:1 
0.020830467442841821 1:1 3:1 5:1 7:1 8:1 15:1 18:1 19:1 20:1 21:1 22:1 23:1 32:1 51:1 65:1 66:1 72:1 99:1 139:1 177:1 194:1 256:1 271:1 499:1 550:1 554:1 570:1 573:1 599:1 622:1 644:1 670:1 684:1 793:1 808:1 1059:1 1285:1 1294:1 1365:1 1676:1 2020:1 2612:1 3243:1 5608:1 6122:1 6188:1 6384:1 6659:1 6863:1 7065:1 7364:1 7426:1 8186:1 9722:1 11164:1 11212:1 11545:1 16281:1 18412:1 25919:1 27653:1 27846:1 28447:1 30101:1 31680:1 31875:1 33941:1 
0.032124552534240881 1:1 2:1 3:1 4:1 5:1 7:1 8:1 9:1 10:1 12:1 13:1 14:1 15:1 18:1 19:1 20:1 21:1 23:1 29:1 46:1 49:1 51:1 53:1 54:1 59:1 62:1 66:1 82:1 98:1 118:1 125:1 139:1 147:1 177:1 191:1 194:1 195:1 196:1 247:1 256:1 258:1 271:1 282:1 289:1 306:1 311:1 313:1 323:1 337:1 387:1 403:1 418:1 426:1 455:1 482:1 491:1 535:1 570:1 573:1 579:1 605:1 644:1 685:1 688:1 746:1 976:1 1022:1 1060:1 1100:1 1106:1 1182:1 1230:1 1232:1 1235:1 1295:1 1297:1 1422:1 1652:1 1875:1 1933:1 2020:1 2031:1 2038:1 2098:1 2552:1 2593:1 2625:1 2652:1 3129:1 3217:1 3257:1 3454:1 3537:1 3718:1 3793:1 3802:1 3818:1 3989:1 4103:1 4494:1 4662:1 4774:1 4851:1 5112:1 5368:1 5469:1 6384:1 6453:1 7079:1 7440:1 7478:1 7800:1 9105:1 9440:1 9724:1 9992:1 10013:1 10523:1 10809:1 10832:1 11224:1 11254:1 11764:1 13572:1 14004:1 14079:1 14373:1 15898:1 17996:1 18441:1 19093:1 20063:1 20386:1 20420:1 20479:1 21167:1 21519:1 22538:1 22978:1 23508:1 24356:1 25070:1 25359:1 28447:1 28457:1 28765:1 30719:1 31936:1 32076:1 32866:1 
0.73467135251383753 1:1 2:1 3:1 4:1 5:1 7:1 8:1 14:1 15:1 18:1 19:1 20:1 23:1 32:1 40:1 48:1 51:1 58:1 66:1 72:1 78:1 82:1 99:1 111:1 139:1 142:1 143:1 147:1 161:1 177:1 181:1 194:1 255:1 271:1 472:1 493:1 496:1 535:1 539:1 540:1 570:1 573:1 605:1 688:1 797:1 808:1 908:1 991:1 1058:1 1173:1 1297:1 1365:1 1403:1 1423:1 1676:1 1819:1 2020:1 2056:1 2082:1 2218:1 2363:1 2593:1 3203:1 5309:1 5518:1 5541:1 5918:1 5941:1 6384:1 7480:1 8126:1 8186:1 8751:1 9201:1 9700:1 10485:1 11256:1 11545:1 11628:1 11785:1 13343:1 14222:1 15055:1 18226:1 24931:1 25556:1 25655:1 26817:1 26883:1 28447:1 32090:1 33941:1 35125:1 
