svm_type c_svc
kernel_type linear
nr_class 2
total_sv 1266
rho -0.6033458124400839
label 0 1
probA -2.2465042968299
probB -0.33480773317075357
nr_sv 822 444
SV
0.0089392766746449869 9:1 10:1 11:1 12:1 13:1 14:1 15:1 17:1 19:1 21:1 22:1 23:1 24:1 26:1 27:1 28:1 29:1 30:1 50:1 61:1 63:1 66:1 67:1 69:1 73:1 75:1 76:1 81:1 177:1 193:1 196:1 216:1 253:1 268:1 303:1 325:1 368:1 383:1 448:1 456:1 458:1 461:1 462:1 463:1 509:1 565:1 572:1 585:1 592:1 625:1 636:1 637:1 645:1 662:1 673:1 676:1 688:1 697:1 703:1 707:1 710:1 737:1 747:1 758:1 764:1 768:1 795:1 812:1 817:1 818:1 838:1 1060:1 1087:1 1106:1 1142:1 1232:1 1244:1 1291:1 1354:1 1388:1 1410:1 1506:1 2117:1 2447:1 2514:1 2683:1 2703:1 3140:1 4018:1 4027:1 4033:1 4592:1 4772:1 5664:1 5847:1 5899:1 5928:1 5965:1 5982:1 5988:1 6495:1 7211:1 7213:1 7304:1 7307:1 7532:1 8026:1 8237:1 8247:1 8422:1 8541:1 8672:1 8736:1 8893:1 9037:1 9130:1 9155:1 9579:1 9588:1 9724:1 9942:1 10000:1 10657:1 10753:1 10768:1 10932:1 12529:1 12666:1 12901:1 13196:1 13912:1 14004:1 14404:1 14951:1 14953:1 15180:1 15344:1 16143:1 18139:1 20200:1 21486:1 23290:1 27587:1 27705:1 30056:1 30885:1 35102:1 36155:1 36472:1 36802:1 36942:1 38659:1 41703:1 41723:1 42090:1 42099:1 45090:1 46049:1 47195:1 47531:1 48110:1 48298:1 49938:1 50480:1 50583:1 52753:1 52860:1 53495:1 54455:1 54769:1 57887:1 58519:1 58610:1 59154:1 
0.17385462321423412 9:1 10:1 11:1 13:1 14:1 15:1 16:1 17:1 19:1 20:1 21:1 22:1 23:1 26:1 27:1 28:1 29:1 30:1 31:1 34:1 50:1 62:1 67:1 68:1 69:1 71:1 72:1 73:1 79:1 82:1 181:1 193:1 195:1 226:1 248:1 316:1 320:1 325:1 326:1 327:1 359:1 392:1 403:1 409:1 413:1 426:1 437:1 438:1 457:1 462:1 463:1 490:1 517:1 526:1 530:1 552:1 565:1 613:1 631:1 688:1 693:1 697:1 700:1 704:1 715:1 731:1 733:1 737:1 747:1 758:1 768:1 775:1 784:1 816:1 835:1 882:1 934:1 1060:1 1061:1 1123:1 1253:1 1264:1 1297:1 1315:1 1339:1 1354:1 1455:1 1516:1 2211:1 2441:1 2493:1 2507:1 2815:1 3044:1 3049:1 3861:1 3925:1 4018:1 4023:1 4030:1 4056:1 4081:1 4487:1 4876:1 5051:1 5112:1 5325:1 5528:1 5885:1 5959:1 5992:1 6265:1 6688:1 6768:1 7213:1 7896:1 8145:1 8828:1 8912:1 8981:1 9043:1 9278:1 9474:1 9516:1 9572:1 9720:1 9995:1 10000:1 10002:1 10110:1 10267:1 10729:1 10907:1 11224:1 12531:1 12571:1 13048:1 14074:1 14181:1 14452:1 14601:1 14807:1 14953:1 15726:1 16236:1 18629:1 20146:1 20499:1 20633:1 21953:1 22707:1 26507:1 27541:1 27657:1 27981:1 29759:1 31394:1 31947:1 32275:1 33411:1 34391:1 36424:1 36757:1 36970:1 36972:1 37803:1 39362:1 39802:1 41726:1 45600:1 48662:1 48672:1 49193:1 49586:1 51279:1 52153:1 52157:1 52454:1 53463:1 54720:1 54773:1 54813:1 55324:1 56149:1 58346:1 59044:1 60103:1 64048:1 64239:1 
0.0059674208885498441 9:1 10:1 11:1 12:1 13:1 15:1 16:1 17:1 19:1 20:1 21:1 22:1 23:1 24:1 26:1 27:1 28:1 29:1 30:1 34:1 39:1 50:1 62:1 64:1 68:1 69:1 71:1 72:1 73:1 76:1 79:1 82:1 86:1 171:1 178:1 182:1 187:1 194:1 216:1 248:1 268:1 277:1 290:1 308:1 325:1 327:1 369:1 428:1 429:1 437:1 438:1 447:1 450:1 452:1 456:1 463:1 465:1 490:1 501:1 508:1 522:1 530:1 552:1 557:1 599:1 620:1 642:1 671:1 676:1 688:1 693:1 703:1 711:1 731:1 737:1 743:1 747:1 748:1 758:1 768:1 772:1 779:1 781:1 789:1 791:1 811:1 812:1 818:1 828:1 835:1 934:1 946:1 957:1 991:1 1062:1 1116:1 1153:1 1173:1 1277:1 1283:1 1323:1 1335:1 1350:1 1417:1 1455:1 1461:1 1516:1 1559:1 1569:1 1580:1 2144:1 2217:1 2326:1 2462:1 2476:1 2705:1 3068:1 3069:1 3308:1 3473:1 3678:1 4041:1 4081:1 4100:1 5378:1 5419:1 5530:1 5625:1 5694:1 5771:1 5835:1 5996:1 6003:1 6041:1 6246:1 6365:1 6454:1 6600:1 6744:1 6761:1 7086:1 7104:1 7693:1 8350:1 8645:1 8732:1 8811:1 9021:1 9192:1 9474:1 9581:1 9592:1 9594:1 9653:1 9724:1 9770:1 10002:1 10082:1 10175:1 10179:1 10301:1 10344:1 10626:1 10663:1 10785:1 10907:1 11626:1 11761:1 12055:1 12577:1 12994:1 13447:1 14300:1 14317:1 14646:1 14752:1 14893:1 14908:1 15409:1 15732:1 15775:1 16236:1 16552:1 16632:1 18334:1 19300:1 20307:1 20392:1 21548:1 22937:1 22976:1 23907:1 25398:1 27829:1 28271:1 33695:1 33971:1 34408:1 34837:1 35719:1 36087:1 37016:1 37049:1 38159:1 38873:1 39737:1 41236:1 41242:1 43798:1 46806:1 47961:1 48278:1 48481:1 49843:1 50778:1 52175:1 52760:1 52885:1 52898:1 53500:1 53823:1 54813:1 55225:1 55606:1 55614:1 56467:1 57979:1 58693:1 59055:1 61071:1 61499:1 62530:1 
0.0066849244913843213 4:1 10:1 11:1 12:1 13:1 15:1 16:1 17:1 20:1 22:1 23:1 26:1 27:1 29:1 30:1 31:1 34:1 39:1 50:1 62:1 68:1 69:1 79:1 81:1 82:1 122:1 216:1 226:1 248:1 268:1 293:1 319:1 394:1 403:1 422:1 423:1 431:1 462:1 517:1 592:1 615:1 626:1 627:1 641:1 688:1 724:1 731:1 754:1 755:1 795:1 797:1 812:1 843:1 880:1 955:1 975:1 980:1 991:1 1061:1 1123:1 1270:1 1297:1 1449:1 1506:1 1521:1 2697:1 2812:1 3044:1 3062:1 3071:1 3545:1 3894:1 4911:1 5276:1 5284:1 5437:1 5959:1 7532:1 7929:1 8044:1 8068:1 8341:1 9375:1 9474:1 9840:1 9856:1 10382:1 10657:1 10959:1 11193:1 11728:1 11870:1 11929:1 12043:1 12575:1 13045:1 14221:1 14452:1 15670:1 16143:1 16276:1 21431:1 21942:1 22859:1 22991:1 24984:1 33143:1 33179:1 34050:1 36757:1 44841:1 45166:1 45271:1 46750:1 51672:1 52153:1 52177:1 54096:1 54141:1 57887:1 59279:1 59986:1 61382:1 61794:1 61994:1 64264:1 
0.029779850311374673 12:1 13:1 16:1 17:1 19:1 21:1 22:1 26:1 28:1 29:1 31:1 49:1 68:1 74:1 78:1 81:1 83:1 89:1 268:1 303:1 327:1 417:1 438:1 454:1 456:1 463:1 498:1 561:1 569:1 592:1 597:1 723:1 783:1 784:1 795:1 812:1 862:1 1029:1 1267:1 1372:1 1443:1 1506:1 1531:1 1606:1 4102:1 5187:1 5789:1 5844:1 6007:1 6332:1 7142:1 7242:1 7532:1 7659:1 9349:1 10244:1 10250:1 10657:1 11072:1 12217:1 12229:1 14211:1 15097:1 15596:1 16143:1 16338:1 16741:1 28320:1 32710:1 35801:1 36125:1 37097:1 41830:1 43635:1 51545:1 56020:1 57887:1 59625:1 63055:1 
0.23302862002251229 9:1 11:1 12:1 13:1 14:1 15:1 16:1 17:1 20:1 21:1 26:1 27:1 28:1 29:1 31:1 34:1 64:1 67:1 68:1 69:1 73:1 79:1 86:1 171:1 193:1 194:1 248:1 268:1 273:1 290:1 293:1 311:1 325:1 338:1 396:1 403:1 409:1 420:1 427:1 438:1 446:1 452:1 456:1 462:1 530:1 561:1 565:1 569:1 688:1 712:1 713:1 725:1 731:1 747:1 768:1 795:1 804:1 858:1 946:1 1156:1 1173:1 1176:1 1257:1 1262:1 1278:1 1354:1 1449:1 1569:1 2449:1 2476:1 3044:1 3060:1 3067:1 3266:1 3487:1 3543:1 3722:1 4018:1 4942:1 5043:1 5218:1 5350:1 5610:1 5755:1 5844:1 5954:1 6757:1 7159:1 7212:1 7242:1 9208:1 9239:1 9474:1 9713:1 9987:1 10506:1 11038:1 11629:1 13284:1 13460:1 13494:1 14098:1 14146:1 14952:1 15670:1 16554:1 20225:1 20383:1 22834:1 22912:1 23759:1 24783:1 31645:1 32825:1 33549:1 34778:1 35587:1 36125:1 39708:1 41488:1 41711:1 41840:1 50840:1 51039:1 52153:1 52167:1 54635:1 59454:1 61082:1 
0.01181624137375234 6:1 9:1 11:1 12:1 13:1 15:1 16:1 17:1 19:1 22:1 23:1 24:1 26:1 27:1 28:1 31:1 34:1 39:1 64:1 67:1 71:1 79:1 161:1 178:1 189:1 194:1 248:1 268:1 273:1 325:1 392:1 409:1 417:1 423:1 431:1 438:1 447:1 457:1 461:1 462:1 469:1 486:1 503:1 585:1 599:1 603:1 608:1 646:1 673:1 688:1 693:1 701:1 731:1 737:1 744:1 747:1 748:1 772:1 791:1 857:1 865:1 866:1 942:1 987:1 1153:1 1156:1 1253:1 1325:1 1449:1 1455:1 1462:1 2144:1 2383:1 2476:1 3049:1 3057:1 3071:1 3263:1 4018:1 4870:1 5063:1 5173:1 5302:1 5433:1 5620:1 5857:1 5937:1 5976:1 6086:1 6383:1 7675:1 7765:1 7836:1 8428:1 8433:1 8667:1 8811:1 8982:1 9474:1 9590:1 9591:1 9692:1 9724:1 9770:1 10074:1 10342:1 11022:1 11081:1 11100:1 11565:1 12026:1 13281:1 14071:1 14656:1 15670:1 15739:1 15810:1 18318:1 19753:1 20392:1 22718:1 22805:1 22987:1 23725:1 31353:1 32059:1 32573:1 33322:1 34028:1 36637:1 36894:1 37343:1 38235:1 44151:1 44460:1 47211:1 47227:1 48054:1 48481:1 52165:1 52177:1 52866:1 52877:1 53304:1 53498:1 53822:1 55162:1 56454:1 59642:1 59776:1 60864:1 62406:1 
0.00571915363451509 9:1 10:1 11:1 13:1 14:1 16:1 17:1 20:1 21:1 27:1 28:1 29:1 31:1 69:1 79:1 80:1 177:1 188:1 231:1 248:1 316:1 352:1 403:1 431:1 449:1 456:1 462:1 522:1 526:1 552:1 731:1 740:1 764:1 795:1 866:1 1291:1 1297:1 1449:1 1475:1 2131:1 2346:1 2881:1 3044:1 3071:1 3864:1 4385:1 5433:1 5681:1 5832:1 5959:1 5968:1 6605:1 6680:1 9474:1 9620:1 9928:1 11088:1 14397:1 14452:1 14458:1 15670:1 15919:1 18246:1 22987:1 26527:1 29388:1 34018:1 35220:1 36757:1 36822:1 38913:1 39313:1 52153:1 52177:1 52989:1 54323:1 59678:1 
0.0046682908627786674 9:1 11:1 13:1 15:1 16:1 20:1 21:1 23:1 27:1 28:1 29:1 61:1 65:1 72:1 183:1 196:1 248:1 310:1 314:1 320:1 326:1 379:1 403:1 542:1 552:1 620:1 725:1 778:1 803:1 818:1 1093:1 1106:1 1189:1 1198:1 1343:1 2244:1 2533:1 3044:1 3714:1 3799:1 3925:1 4051:1 4689:1 6961:1 10141:1 10492:1 10777:1 12736:1 12915:1 13576:1 13643:1 14840:1 20850:1 25596:1 26031:1 30488:1 40665:1 57056:1 58643:1 
0.018565439191371508 9:1 10:1 11:1 12:1 13:1 16:1 17:1 20:1 21:1 22:1 26:1 27:1 28:1 29:1 32:1 50:1 61:1 64:1 72:1 73:1 79:1 80:1 81:1 178:1 187:1 189:1 193:1 216:1 248:1 268:1 277:1 303:1 309:1 316:1 325:1 331:1 429:1 438:1 448:1 463:1 522:1 526:1 530:1 557:1 565:1 577:1 592:1 688:1 705:1 733:1 758:1 794:1 795:1 811:1 812:1 885:1 1051:1 1097:1 1160:1 1335:1 1339:1 1354:1 1451:1 1492:1 1505:1 2144:1 2322:1 2376:1 2442:1 2703:1 3069:1 3324:1 3693:1 3865:1 4018:1 4162:1 5415:1 5649:1 5982:1 6597:1 6694:1 6753:1 7103:1 7196:1 7364:1 7532:1 7541:1 9075:1 9506:1 10369:1 10629:1 10657:1 11238:1 12414:1 12788:1 13326:1 14749:1 14795:1 14939:1 15689:1 16056:1 16120:1 18335:1 19276:1 19666:1 20166:1 21486:1 22972:1 24034:1 25486:1 26543:1 28605:1 33925:1 34949:1 38848:1 39433:1 39662:1 41225:1 42880:1 50113:1 52352:1 56544:1 57719:1 57887:1 60121:1 
0.033873720022021492 9:1 10:1 12:1 13:1 15:1 16:1 17:1 20:1 22:1 24:1 26:1 27:1 28:1 39:1 50:1 64:1 67:1 68:1 69:1 79:1 88:1 194:1 230:1 273:1 309:1 327:1 386:1 392:1 413:1 422:1 438:1 448:1 451:1 530:1 585:1 683:1 688:1 712:1 725:1 737:1 744:1 758:1 991:1 1060:1 1156:1 1247:1 1253:1 1264:1 1287:1 1455:1 1598:1 2458:1 2868:1 3266:1 3703:1 4081:1 4800:1 4883:1 5121:1 5250:1 5649:1 5738:1 6753:1 8774:1 9201:1 9572:1 9697:1 12043:1 12549:1 13284:1 14017:1 14077:1 14188:1 14357:1 15726:1 16709:1 23751:1 25549:1 30976:1 31440:1 32381:1 34957:1 35518:1 39662:1 48383:1 53339:1 64134:1 
0.025014782224813851 9:1 10:1 11:1 12:1 13:1 15:1 16:1 17:1 19:1 20:1 21:1 22:1 23:1 26:1 27:1 28:1 29:1 30:1 31:1 34:1 49:1 62:1 64:1 69:1 78:1 79:1 81:1 82:1 187:1 193:1 194:1 216:1 248:1 273:1 293:1 308:1 321:1 325:1 329:1 392:1 403:1 428:1 429:1 431:1 446:1 450:1 452:1 458:1 462:1 469:1 494:1 530:1 532:1 552:1 589:1 620:1 636:1 688:1 695:1 697:1 701:1 725:1 731:1 737:1 747:1 748:1 754:1 758:1 772:1 789:1 816:1 817:1 818:1 819:1 843:1 854:1 866:1 934:1 942:1 1031:1 1116:1 1156:1 1176:1 1297:1 1431:1 1449:1 1455:1 1471:1 1509:1 1521:1 2326:1 2438:1 2458:1 2707:1 3044:1 3068:1 3069:1 3071:1 3266:1 3561:1 3678:1 3957:1 4018:1 4031:1 4144:1 4886:1 5371:1 5419:1 5420:1 5433:1 5610:1 5715:1 5774:1 5889:1 5959:1 5976:1 6086:1 6301:1 6767:1 6780:1 7499:1 8221:1 8858:1 8895:1 8991:1 8999:1 9474:1 9577:1 9718:1 9754:1 9831:1 10079:1 10301:1 10710:1 10734:1 10785:1 10801:1 10954:1 11013:1 11091:1 11563:1 11565:1 12251:1 12996:1 13284:1 13508:1 14452:1 15492:1 15670:1 15729:1 15884:1 16181:1 16272:1 19315:1 20123:1 21562:1 22932:1 22976:1 22977:1 22987:1 23751:1 25046:1 25398:1 27127:1 27667:1 28535:1 31450:1 33971:1 33978:1 34020:1 34779:1 35408:1 35740:1 36757:1 36882:1 37343:1 37944:1 39797:1 39867:1 42667:1 48873:1 49019:1 49683:1 49759:1 52153:1 52175:1 52177:1 52731:1 53439:1 53709:1 54069:1 55202:1 58189:1 58693:1 58777:1 59235:1 59366:1 59706:1 60849:1 60864:1 63120:1 
0.015209832074977909 9:1 10:1 11:1 12:1 13:1 14:1 16:1 17:1 19:1 20:1 21:1 22:1 23:1 24:1 26:1 27:1 28:1 29:1 30:1 31:1 33:1 34:1 39:1 62:1 64:1 65:1 66:1 68:1 69:1 76:1 79:1 82:1 83:1 86:1 88:1 178:1 181:1 196:1 231:1 248:1 250:1 268:1 299:1 303:1 310:1 319:1 321:1 325:1 326:1 357:1 359:1 403:1 409:1 421:1 427:1 428:1 432:1 438:1 462:1 494:1 533:1 541:1 552:1 561:1 592:1 603:1 620:1 636:1 643:1 658:1 670:1 693:1 697:1 711:1 717:1 725:1 731:1 737:1 749:1 758:1 768:1 772:1 795:1 803:1 835:1 843:1 872:1 880:1 923:1 942:1 945:1 955:1 976:1 985:1 991:1 1126:1 1181:1 1185:1 1204:1 1226:1 1274:1 1278:1 1408:1 1449:1 1516:1 1521:1 1538:1 1544:1 1578:1 1591:1 2146:1 2211:1 2514:1 2887:1 3044:1 3061:1 3067:1 3068:1 3101:1 3618:1 3714:1 3909:1 3960:1 4041:1 4047:1 4051:1 4442:1 4481:1 5051:1 5238:1 5346:1 5382:1 5448:1 5959:1 6299:1 6814:1 6926:1 7159:1 7532:1 7762:1 8221:1 8378:1 8498:1 8630:1 8829:1 8893:1 9193:1 9297:1 9300:1 9474:1 9572:1 9780:1 9981:1 10058:1 10079:1 10488:1 10907:1 10954:1 11122:1 11190:1 11422:1 11561:1 11607:1 11721:1 11882:1 11990:1 12050:1 13083:1 13539:1 13708:1 13857:1 14263:1 15316:1 15670:1 16236:1 16272:1 16364:1 16408:1 16611:1 16692:1 18344:1 18625:1 22271:1 22842:1 22908:1 22941:1 23119:1 25222:1 25596:1 26814:1 27145:1 27830:1 27907:1 27909:1 29590:1 29739:1 31947:1 32944:1 33717:1 34075:1 36757:1 37924:1 40059:1 41511:1 44125:1 46969:1 47343:1 47884:1 48676:1 50783:1 51317:1 51332:1 52168:1 52173:1 53865:1 55202:1 57031:1 59055:1 59060:1 59235:1 59977:1 60411:1 60831:1 60999:1 61359:1 61852:1 62199:1 62487:1 
0.073544281948268189 9:1 10:1 11:1 13:1 16:1 17:1 22:1 26:1 27:1 29:1 31:1 34:1 49:1 50:1 61:1 65:1 69:1 74:1 86:1 177:1 216:1 248:1 315:1 325:1 326:1 403:1 413:1 436:1 462:1 609:1 688:1 725:1 731:1 816:1 882:1 959:1 1023:1 1061:1 1087:1 1204:1 1297:1 1378:1 1582:1 2117:1 2703:1 3044:1 3053:1 3843:1 4018:1 4051:1 5111:1 5502:1 5959:1 7867:1 9474:1 10707:1 11224:1 11785:1 12175:1 12558:1 12666:1 13708:1 14452:1 15139:1 16652:1 18139:1 21486:1 22755:1 26313:1 32264:1 34276:1 36757:1 44622:1 52153:1 52161:1 60102:1 61610:1 62881:1 64186:1 
0.0074719038051386582 9:1 10:1 11:1 12:1 13:1 16:1 17:1 20:1 21:1 22:1 23:1 24:1 26:1 27:1 28:1 29:1 31:1 49:1 50:1 62:1 64:1 69:1 76:1 81:1 83:1 171:1 216:1 220:1 228:1 229:1 248:1 268:1 273:1 277:1 302:1 311:1 320:1 321:1 325:1 403:1 438:1 452:1 462:1 530:1 552:1 592:1 643:1 676:1 697:1 707:1 711:1 723:1 725:1 730:1 731:1 749:1 758:1 768:1 775:1 812:1 816:1 866:1 1037:1 1062:1 1116:1 1119:1 1124:1 1125:1 1156:1 1297:1 1422:1 1506:1 1533:1 2690:1 2747:1 2838:1 2843:1 2861:1 3044:1 3247:1 3324:1 3643:1 3747:1 3925:1 3960:1 4041:1 5770:1 5958:1 5959:1 6744:1 7532:1 7541:1 8368:1 8734:1 8907:1 9128:1 9173:1 9356:1 9463:1 9474:1 9788:1 9996:1 10112:1 10657:1 10712:1 11091:1 12334:1 12581:1 12979:1 13007:1 13070:1 13078:1 13266:1 14452:1 15443:1 16143:1 16350:1 21372:1 22102:1 22132:1 22212:1 24054:1 25297:1 25775:1 27145:1 27810:1 35693:1 36754:1 36757:1 42880:1 48289:1 49146:1 50444:1 51579:1 52119:1 52153:1 53905:1 54741:1 55327:1 57887:1 57892:1 58206:1 59704:1 63379:1 64274:1 
0.022677244302035774 9:1 10:1 11:1 12:1 13:1 14:1 16:1 17:1 18:1 20:1 22:1 23:1 26:1 27:1 28:1 29:1 30:1 31:1 39:1 61:1 64:1 70:1 79:1 82:1 83:1 177:1 233:1 248:1 287:1 290:1 294:1 310:1 311:1 316:1 319:1 325:1 338:1 403:1 420:1 428:1 435:1 438:1 457:1 462:1 463:1 476:1 526:1 535:1 541:1 585:1 592:1 597:1 626:1 688:1 697:1 698:1 700:1 725:1 731:1 768:1 772:1 777:1 816:1 835:1 866:1 876:1 985:1 1087:1 1173:1 1305:1 1449:1 1516:1 1533:1 2132:1 2911:1 3044:1 3060:1 3068:1 3441:1 3473:1 3570:1 3714:1 3737:1 3865:1 3911:1 4027:1 4030:1 5214:1 5382:1 5487:1 5864:1 5954:1 5992:1 6155:1 6674:1 6838:1 6942:1 7557:1 7664:1 8044:1 8903:1 8922:1 8979:1 9474:1 9994:1 10058:1 10133:1 10713:1 10907:1 11094:1 11167:1 11990:1 12681:1 13447:1 14521:1 15670:1 16236:1 16353:1 18261:1 22361:1 22833:1 22941:1 24571:1 25093:1 25615:1 25729:1 26548:1 26831:1 27595:1 27655:1 32793:1 33717:1 34200:1 36239:1 36969:1 37519:1 39262:1 40581:1 43014:1 43663:1 45151:1 49125:1 49573:1 52167:1 54713:1 55409:1 58215:1 59041:1 59044:1 59724:1 59917:1 62209:1 
0.00045816911883737481 9:1 10:1 11:1 12:1 13:1 14:1 17:1 19:1 20:1 22:1 23:1 24:1 26:1 27:1 28:1 29:1 30:1 31:1 33:1 34:1 50:1 64:1 66:1 76:1 82:1 83:1 86:1 171:1 193:1 208:1 216:1 249:1 268:1 290:1 293:1 309:1 321:1 325:1 326:1 327:1 330:1 355:1 444:1 501:1 508:1 516:1 522:1 526:1 607:1 627:1 641:1 649:1 673:1 688:1 694:1 695:1 703:1 707:1 712:1 717:1 725:1 747:1 754:1 758:1 765:1 775:1 783:1 809:1 835:1 862:1 918:1 934:1 938:1 942:1 960:1 1060:1 1153:1 1173:1 1224:1 1419:1 1516:1 1531:1 1559:1 2449:1 2699:1 2708:1 3080:1 3473:1 3555:1 3693:1 3974:1 4024:1 4033:1 4071:1 4102:1 4148:1 4426:1 5577:1 6363:1 6464:1 6567:1 6591:1 6673:1 7820:1 8068:1 8318:1 8465:1 8672:1 8835:1 8859:1 9042:1 9112:1 9134:1 9201:1 9294:1 9713:1 9844:1 9954:1 10110:1 10227:1 10598:1 10907:1 11070:1 11072:1 11374:1 11510:1 11566:1 11788:1 12553:1 13447:1 13851:1 15421:1 16236:1 16338:1 20222:1 21475:1 21564:1 23060:1 25018:1 25484:1 27320:1 27547:1 27710:1 28083:1 28304:1 28552:1 29538:1 34594:1 38123:1 38558:1 38797:1 39255:1 44374:1 45274:1 46516:1 47288:1 48099:1 48111:1 48880:1 49953:1 50284:1 50497:1 51301:1 54109:1 54534:1 55314:1 55927:1 57590:1 59047:1 59595:1 59625:1 60319:1 60890:1 61612:1 64156:1 
0.090231752940624674 9:1 11:1 12:1 13:1 16:1 17:1 27:1 31:1 50:1 64:1 68:1 79:1 83:1 194:1 248:1 277:1 302:1 303:1 310:1 403:1 417:1 427:1 448:1 725:1 731:1 757:1 858:1 1045:1 1051:1 1160:1 1184:1 1267:1 1474:1 1528:1 2458:1 3044:1 3067:1 3305:1 3634:1 3714:1 5174:1 5350:1 5643:1 9474:1 9888:1 11039:1 12417:1 13310:1 13549:1 14200:1 15910:1 16315:1 22912:1 25614:1 32578:1 33549:1 52153:1 54239:1 59457:1 63607:1 
0.069479163619948228 9:1 10:1 11:1 12:1 13:1 15:1 16:1 17:1 20:1 21:1 26:1 27:1 28:1 29:1 33:1 34:1 62:1 64:1 67:1 69:1 79:1 81:1 86:1 177:1 179:1 212:1 234:1 248:1 268:1 275:1 277:1 315:1 316:1 320:1 325:1 375:1 420:1 428:1 438:1 447:1 448:1 461:1 526:1 552:1 688:1 697:1 725:1 737:1 758:1 817:1 905:1 946:1 1113:1 1158:1 1236:1 1296:1 1455:1 1509:1 1569:1 2133:1 2153:1 2634:1 2915:1 3060:1 3288:1 3324:1 3837:1 3851:1 3925:1 4018:1 4626:1 5214:1 5371:1 5625:1 5655:1 5933:1 6680:1 8907:1 9572:1 10734:1 11622:1 12948:1 13302:1 13923:1 14439:1 15726:1 16181:1 16548:1 18264:1 21115:1 22833:1 23859:1 24034:1 26291:1 26359:1 30121:1 32797:1 34850:1 35026:1 36620:1 39305:1 49146:1 61042:1 
0.00031902816702898782 11:1 12:1 13:1 16:1 17:1 20:1 23:1 26:1 27:1 28:1 31:1 34:1 64:1 68:1 79:1 86:1 248:1 277:1 303:1 310:1 316:1 325:1 327:1 413:1 420:1 428:1 438:1 448:1 462:1 463:1 524:1 526:1 635:1 715:1 725:1 731:1 772:1 782:1 786:1 866:1 872:1 946:1 1160:1 1264:1 1449:1 1569:1 3053:1 3060:1 3068:1 3310:1 3714:1 3852:1 4045:1 4101:1 5099:1 5121:1 5214:1 5382:1 5664:1 5954:1 6009:1 6637:1 6680:1 8196:1 9272:1 9474:1 10058:1 10195:1 10282:1 11096:1 11132:1 11635:1 13313:1 14188:1 15670:1 16559:1 22743:1 22833:1 22941:1 23920:1 25615:1 26379:1 27894:1 28281:1 32391:1 32797:1 33717:1 35117:1 37120:1 39113:1 39306:1 45769:1 51247:1 52167:1 56224:1 59744:1 59823:1 61131:1 
0.0029289605651622009 3:1 9:1 10:1 11:1 13:1 14:1 15:1 16:1 17:1 20:1 21:1 22:1 23:1 24:1 26:1 27:1 28:1 29:1 30:1 39:1 50:1 61:1 62:1 65:1 66:1 67:1 74:1 79:1 81:1 112:1 178:1 196:1 216:1 245:1 248:1 303:1 310:1 315:1 320:1 325:1 327:1 355:1 365:1 368:1 369:1 386:1 413:1 421:1 426:1 448:1 522:1 526:1 561:1 572:1 589:1 595:1 620:1 663:1 688:1 697:1 712:1 714:1 725:1 726:1 733:1 758:1 783:1 791:1 795:1 817:1 838:1 980:1 987:1 1051:1 1106:1 1116:1 1198:1 1203:1 1224:1 1232:1 1247:1 1367:1 1446:1 1509:1 1798:1 2143:1 2144:1 2514:1 2683:1 3024:1 3053:1 3061:1 3714:1 3835:1 3942:1 4018:1 4027:1 4044:1 4102:1 4411:1 4561:1 4585:1 4797:1 4798:1 5099:1 5238:1 5339:1 5664:1 6597:1 6674:1 7161:1 7299:1 7486:1 7607:1 8571:1 8893:1 9201:1 9260:1 9400:1 9515:1 10248:1 10337:1 10734:1 10923:1 11922:1 12019:1 12421:1 12901:1 12975:1 13653:1 13684:1 13838:1 13906:1 14015:1 15045:1 15631:1 16181:1 17375:1 18310:1 18329:1 22743:1 22842:1 25603:1 26278:1 27066:1 27587:1 27885:1 28324:1 29967:1 30026:1 30944:1 30959:1 32946:1 33485:1 35102:1 38847:1 39262:1 41536:1 42060:1 42536:1 47658:1 51189:1 51780:1 52448:1 56041:1 56428:1 59108:1 61971:1 62340:1 63643:1 
0.017161023652453158 9:1 12:1 13:1 15:1 16:1 17:1 20:1 22:1 26:1 27:1 28:1 29:1 34:1 61:1 64:1 65:1 67:1 68:1 72:1 79:1 81:1 86:1 176:1 182:1 189:1 268:1 281:1 314:1 325:1 327:1 369:1 375:1 386:1 393:1 413:1 438:1 452:1 463:1 522:1 542:1 592:1 595:1 613:1 688:1 737:1 758:1 803:1 812:1 934:1 946:1 1086:1 1164:1 1203:1 1236:1 1264:1 1335:1 1455:1 1506:1 1569:1 2096:1 2229:1 2379:1 2396:1 3370:1 3812:1 4018:1 4081:1 4635:1 4804:1 4895:1 5121:1 5771:1 5982:1 6606:1 6961:1 7532:1 7607:1 7896:1 9572:1 10492:1 10657:1 11626:1 12647:1 13362:1 13684:1 13929:1 14188:1 14757:1 15726:1 16143:1 16552:1 18016:1 18730:1 19705:1 19863:1 26119:1 30189:1 31007:1 32381:1 35708:1 38930:1 40665:1 57066:1 57887:1 61071:1 
0.09562738833089085 9:1 10:1 11:1 12:1 13:1 14:1 15:1 16:1 22:1 23:1 26:1 27:1 28:1 29:1 34:1 61:1 64:1 67:1 79:1 81:1 86:1 171:1 177:1 216:1 248:1 268:1 277:1 321:1 325:1 327:1 355:1 380:1 403:1 592:1 641:1 688:1 696:1 697:1 711:1 729:1 731:1 733:1 758:1 817:1 942:1 1087:1 1153:1 1241:1 1451:1 1509:1 1565:1 2117:1 2703:1 3044:1 3324:1 3960:1 4018:1 4027:1 4041:1 4081:1 4426:1 4704:1 7532:1 8319:1 8873:1 8914:1 9177:1 9428:1 9474:1 9511:1 10737:1 11565:1 12666:1 13967:1 15693:1 16184:1 16516:1 18139:1 21486:1 24041:1 27145:1 27603:1 27814:1 29539:1 30571:1 46522:1 48925:1 49231:1 50683:1 52153:1 52400:1 58381:1 60881:1 
0.038829564557437544 9:1 11:1 13:1 15:1 16:1 17:1 20:1 21:1 22:1 23:1 26:1 27:1 28:1 29:1 30:1 34:1 69:1 72:1 79:1 81:1 82:1 86:1 189:1 248:1 325:1 379:1 383:1 394:1 403:1 417:1 423:1 438:1 462:1 463:1 469:1 522:1 563:1 595:1 620:1 630:1 641:1 688:1 731:1 758:1 795:1 811:1 843:1 946:1 952:1 1297:1 1335:1 1449:1 1505:1 1521:1 1569:1 2379:1 3044:1 3057:1 3063:1 4018:1 4688:1 4775:1 4911:1 5168:1 5279:1 5959:1 5982:1 6095:1 6606:1 7182:1 7615:1 8126:1 8314:1 9474:1 10635:1 10959:1 11635:1 11686:1 14452:1 14757:1 15670:1 16126:1 16276:1 16559:1 19710:1 22801:1 22862:1 30462:1 30906:1 36757:1 37378:1 38930:1 41591:1 43383:1 45503:1 52153:1 52165:1 52170:1 57759:1 59254:1 61116:1 61271:1 
0.098672335786454415 11:1 12:1 19:1 22:1 26:1 27:1 28:1 29:1 39:1 49:1 50:1 64:1 74:1 81:1 88:1 250:1 290:1 508:1 619:1 688:1 723:1 725:1 758:1 817:1 991:1 1023:1 1062:1 1173:1 1384:1 1509:1 1598:1 3114:1 3492:1 6454:1 7981:1 9344:1 10734:1 12043:1 12176:1 12577:1 13465:1 15173:1 16181:1 16709:1 23195:1 24803:1 44998:1 51524:1 62899:1 
0.0048924770443313078 9:1 10:1 12:1 13:1 16:1 17:1 21:1 22:1 23:1 26:1 27:1 28:1 31:1 62:1 64:1 73:1 74:1 78:1 177:1 189:1 208:1 216:1 277:1 303:1 308:1 315:1 316:1 325:1 326:1 327:1 426:1 447:1 456:1 463:1 561:1 565:1 569:1 597:1 608:1 641:1 688:1 693:1 705:1 712:1 725:1 758:1 768:1 786:1 872:1 1116:1 1160:1 1354:1 1372:1 1430:1 2112:1 2391:1 2687:1 2695:1 3305:1 3325:1 3680:1 3835:1 3851:1 4035:1 4051:1 4081:1 5318:1 5625:1 5844:1 5982:1 7150:1 7159:1 7213:1 7242:1 7659:1 7847:1 8334:1 8810:1 9064:1 9208:1 10002:1 10283:1 11136:1 12976:1 12984:1 13310:1 14953:1 15097:1 15473:1 19844:1 21342:1 21410:1 24062:1 25415:1 26260:1 26359:1 27728:1 34851:1 36125:1 41426:1 41500:1 41723:1 41840:1 43635:1 44531:1 46684:1 48461:1 50061:1 50851:1 54813:1 56229:1 59851:1 
0.027147022010626454 9:1 10:1 11:1 12:1 13:1 14:1 15:1 16:1 17:1 22:1 23:1 26:1 27:1 28:1 50:1 62:1 64:1 67:1 68:1 74:1 79:1 171:1 216:1 248:1 273:1 303:1 312:1 314:1 325:1 350:1 375:1 379:1 383:1 417:1 422:1 437:1 450:1 457:1 463:1 593:1 595:1 603:1 620:1 688:1 699:1 725:1 731:1 782:1 1052:1 1067:1 1116:1 1156:1 1244:1 1267:1 1277:1 1373:1 1449:1 2703:1 3062:1 3247:1 3748:1 3796:1 4018:1 4029:1 4362:1 4619:1 4679:1 4688:1 4772:1 5182:1 5256:1 5533:1 5702:1 5867:1 6005:1 7570:1 7615:1 7745:1 8943:1 9474:1 10195:1 12443:1 12617:1 12992:1 13266:1 14004:1 14207:1 14302:1 15107:1 15670:1 21496:1 22852:1 25991:1 27622:1 29284:1 30366:1 30462:1 30889:1 32656:1 33036:1 34423:1 35309:1 36279:1 37058:1 43079:1 43376:1 49373:1 52169:1 63766:1 64350:1 
0.025965861913959627 9:1 10:1 11:1 12:1 13:1 14:1 15:1 16:1 17:1 19:1 20:1 22:1 23:1 26:1 27:1 28:1 29:1 39:1 61:1 62:1 64:1 66:1 71:1 79:1 177:1 216:1 220:1 248:1 293:1 325:1 327:1 355:1 399:1 426:1 438:1 462:1 463:1 504:1 506:1 528:1 599:1 635:1 637:1 688:1 697:1 701:1 712:1 725:1 731:1 758:1 772:1 782:1 783:1 816:1 819:1 970:1 1087:1 1119:1 1176:1 1224:1 1326:1 1449:1 2117:1 2703:1 2765:1 3066:1 3564:1 4018:1 4093:1 4421:1 4972:1 5329:1 5954:1 6006:1 6401:1 6421:1 6732:1 7691:1 8200:1 8261:1 8914:1 9004:1 9222:1 9474:1 10058:1 10195:1 10224:1 10726:1 10800:1 12666:1 13023:1 13511:1 13846:1 14673:1 15670:1 18139:1 21486:1 21786:1 22900:1 25081:1 28226:1 29515:1 33440:1 37080:1 38305:1 38402:1 39574:1 43783:1 45817:1 46201:1 49235:1 49804:1 50930:1 52172:1 58325:1 58774:1 
0.029621256946538711 11:1 12:1 13:1 16:1 17:1 19:1 22:1 23:1 26:1 27:1 28:1 29:1 30:1 39:1 50:1 68:1 69:1 71:1 79:1 81:1 82:1 88:1 248:1 268:1 325:1 327:1 403:1 413:1 437:1 438:1 457:1 462:1 498:1 592:1 643:1 700:1 707:1 731:1 737:1 758:1 768:1 812:1 835:1 970:1 1060:1 1264:1 1297:1 1320:1 1455:1 1506:1 1516:1 1589:1 3044:1 4030:1 4081:1 5121:1 5528:1 5864:1 5959:1 6343:1 7532:1 8374:1 8981:1 9128:1 9474:1 9572:1 10002:1 10657:1 10907:1 12544:1 14188:1 14452:1 14633:1 15726:1 16143:1 16236:1 27657:1 32381:1 34396:1 36221:1 36757:1 38067:1 46936:1 49586:1 50450:1 52153:1 54813:1 57887:1 59044:1 64119:1 
0.056789608303693943 9:1 10:1 12:1 13:1 17:1 21:1 22:1 23:1 26:1 27:1 28:1 29:1 30:1 31:1 61:1 62:1 64:1 73:1 82:1 83:1 193:1 195:1 196:1 216:1 290:1 303:1 325:1 327:1 462:1 557:1 561:1 577:1 608:1 636:1 641:1 688:1 706:1 711:1 725:1 733:1 741:1 758:1 772:1 778:1 817:1 818:1 843:1 858:1 1106:1 1116:1 1173:1 1353:1 1521:1 1528:1 2443:1 2496:1 2533:1 2703:1 3473:1 4041:1 4081:1 5969:1 7105:1 7142:1 7379:1 7824:1 8224:1 8314:1 9099:1 9179:1 9517:1 9639:1 10079:1 10153:1 10734:1 10777:1 10959:1 11038:1 12915:1 12992:1 13447:1 14922:1 16276:1 16314:1 20178:1 20536:1 20850:1 21507:1 27816:1 36830:1 41258:1 42279:1 45956:1 50223:1 50700:1 52464:1 53088:1 55207:1 55480:1 58651:1 59254:1 59451:1 
0.00040518880893524888 10:1 11:1 12:1 13:1 14:1 15:1 16:1 17:1 21:1 22:1 23:1 26:1 27:1 28:1 29:1 31:1 34:1 39:1 50:1 62:1 64:1 73:1 78:1 79:1 81:1 88:1 90:1 216:1 248:1 290:1 303:1 313:1 325:1 326:1 357:1 359:1 379:1 393:1 431:1 435:1 450:1 452:1 463:1 469:1 565:1 607:1 608:1 637:1 688:1 707:1 718:1 725:1 731:1 758:1 772:1 812:1 866:1 934:1 970:1 979:1 980:1 1048:1 1116:1 1173:1 1354:1 1441:1 1449:1 1506:1 1589:1 1616:1 2703:1 2704:1 3071:1 3075:1 3473:1 3786:1 4018:1 4056:1 4446:1 4485:1 4670:1 4678:1 4895:1 5433:1 5483:1 5716:1 5774:1 5982:1 6081:1 7213:1 7792:1 7824:1 8270:1 9122:1 9323:1 9474:1 10067:1 10670:1 11091:1 11907:1 11917:1 12386:1 12993:1 13447:1 14953:1 15583:1 15670:1 16156:1 16773:1 21486:1 21519:1 22987:1 23016:1 25946:1 27981:1 29631:1 29755:1 30361:1 34020:1 34178:1 35417:1 35737:1 41723:1 46271:1 50392:1 51434:1 52177:1 52180:1 55112:1 58017:1 59706:1 61923:1 61937:1 61942:1 63521:1 
0.0097460425454972931 9:1 11:1 13:1 14:1 15:1 16:1 17:1 20:1 21:1 22:1 23:1 24:1 26:1 27:1 28:1 30:1 63:1 65:1 67:1 69:1 73:1 76:1 79:1 82:1 188:1 189:1 193:1 194:1 241:1 248:1 303:1 314:1 315:1 320:1 321:1 325:1 326:1 350:1 379:1 392:1 403:1 409:1 422:1 448:1 451:1 455:1 457:1 463:1 534:1 552:1 561:1 571:1 585:1 593:1 602:1 608:1 620:1 636:1 658:1 688:1 693:1 698:1 725:1 733:1 737:1 764:1 768:1 843:1 1134:1 1138:1 1198:1 1253:1 1287:1 1292:1 1357:1 1408:1 1455:1 1521:1 2350:1 2370:1 2386:1 2430:1 2467:1 3004:1 3049:1 3799:1 3819:1 3925:1 3975:1 4018:1 4028:1 4051:1 4365:1 4688:1 4872:1 5057:1 5250:1 5654:1 5738:1 5816:1 5857:1 5992:1 6821:1 7155:1 7159:1 7284:1 7583:1 7724:1 7828:1 8228:1 8508:1 8827:1 8928:1 9505:1 9579:1 9592:1 9939:1 9981:1 10943:1 13139:1 13161:1 13643:1 14072:1 14357:1 14408:1 14968:1 15324:1 15731:1 16261:1 19509:1 19782:1 20025:1 20347:1 22585:1 22713:1 26030:1 27324:1 27610:1 29309:1 30469:1 31359:1 31997:1 35001:1 35518:1 35992:1 36958:1 41475:1 41488:1 41966:1 43200:1 43922:1 44399:1 45978:1 47396:1 48650:1 49313:1 52322:1 52748:1 52882:1 54413:1 
0.024836972291408969 9:1 13:1 14:1 16:1 24:1 26:1 28:1 29:1 49:1 68:1 76:1 81:1 171:1 325:1 338:1 360:1 436:1 663:1 688:1 693:1 768:1 783:1 804:1 818:1 1035:1 1276:1 1411:1 1499:1 4023:1 4519:1 5512:1 8567:1 8806:1 10000:1 10230:1 10506:1 10781:1 12294:1 14286:1 15355:1 16082:1 27524:1 29867:1 34325:1 47646:1 54773:1 55943:1 58676:1 
0.013261637371265223 9:1 10:1 11:1 12:1 13:1 14:1 15:1 16:1 17:1 19:1 20:1 21:1 22:1 23:1 26:1 27:1 28:1 29:1 30:1 34:1 50:1 64:1 69:1 72:1 74:1 75:1 79:1 81:1 82:1 86:1 171:1 178:1 179:1 195:1 216:1 248:1 268:1 290:1 315:1 320:1 325:1 327:1 342:1 347:1 369:1 386:1 403:1 422:1 428:1 448:1 450:1 457:1 462:1 508:1 526:1 536:1 552:1 585:1 589:1 593:1 613:1 619:1 625:1 629:1 634:1 688:1 693:1 701:1 729:1 731:1 735:1 737:1 747:1 764:1 778:1 782:1 789:1 795:1 817:1 838:1 934:1 942:1 957:1 1058:1 1153:1 1297:1 1336:1 1384:1 1396:1 1455:1 1493:1 1509:1 1518:1 1580:1 2144:1 2168:1 2511:1 2703:1 3044:1 3068:1 3481:1 3832:1 3925:1 4018:1 4023:1 4101:1 4237:1 4311:1 4801:1 5250:1 5253:1 5375:1 5396:1 5664:1 5694:1 5865:1 5957:1 5959:1 5975:1 6466:1 6690:1 6854:1 7486:1 7578:1 7902:1 7977:1 8026:1 8094:1 8188:1 8812:1 9003:1 9447:1 9474:1 9545:1 9581:1 9587:1 9724:1 9924:1 10143:1 10200:1 10301:1 10307:1 10743:1 10923:1 11558:1 11747:1 12524:1 14451:1 14452:1 14783:1 15170:1 15223:1 15737:1 16190:1 16246:1 16622:1 18334:1 18448:1 20644:1 21486:1 22934:1 22955:1 24756:1 26227:1 26230:1 27529:1 28283:1 29077:1 30989:1 33008:1 33655:1 33824:1 35098:1 36257:1 36749:1 36757:1 36865:1 38562:1 39412:1 40200:1 42536:1 43147:1 44724:1 44989:1 45095:1 45353:1 45745:1 48491:1 49788:1 52036:1 52153:1 52174:1 52592:1 52760:1 52841:1 53489:1 55428:1 55771:1 56301:1 58442:1 59108:1 60804:1 64020:1 
0.015735855384919444 9:1 11:1 12:1 13:1 15:1 16:1 17:1 18:1 20:1 21:1 22:1 23:1 24:1 26:1 27:1 28:1 29:1 50:1 69:1 70:1 72:1 74:1 76:1 80:1 90:1 183:1 189:1 248:1 268:1 277:1 293:1 303:1 311:1 325:1 326:1 379:1 383:1 426:1 428:1 438:1 444:1 450:1 456:1 457:1 458:1 463:1 475:1 476:1 522:1 552:1 585:1 592:1 593:1 597:1 602:1 608:1 637:1 642:1 673:1 688:1 701:1 707:1 725:1 731:1 737:1 740:1 758:1 772:1 784:1 794:1 812:1 818:1 1061:1 1067:1 1291:1 1292:1 1304:1 1305:1 1335:1 1372:1 1419:1 1492:1 1623:1 2261:1 2376:1 2377:1 3068:1 3325:1 3558:1 3729:1 4018:1 4031:1 4051:1 4688:1 4753:1 5318:1 5382:1 5574:1 5702:1 5706:1 5832:1 5865:1 5874:1 5899:1 6007:1 6134:1 6155:1 6606:1 7532:1 7556:1 7564:1 7582:1 7653:1 7724:1 7824:1 8247:1 8345:1 8672:1 8985:1 8998:1 9127:1 9474:1 9581:1 9620:1 10075:1 10080:1 10269:1 10380:1 10671:1 10772:1 12564:1 12566:1 12624:1 14397:1 14413:1 14504:1 14521:1 14757:1 15093:1 15421:1 16064:1 16809:1 18946:1 19660:1 19679:1 19697:1 22941:1 24062:1 25039:1 25693:1 27661:1 27674:1 30472:1 33730:1 34562:1 35309:1 35339:1 36260:1 36337:1 36472:1 37111:1 37474:1 37516:1 38928:1 43009:1 43174:1 43184:1 43598:1 43911:1 46768:1 48108:1 49603:1 49752:1 50432:1 52174:1 52770:1 52990:1 55182:1 55216:1 56167:1 56605:1 58027:1 58626:1 64213:1 64221:1 64408:1 
0.016102231393133899 9:1 10:1 11:1 12:1 13:1 15:1 16:1 17:1 20:1 22:1 23:1 24:1 26:1 27:1 28:1 39:1 49:1 61:1 64:1 69:1 74:1 76:1 78:1 187:1 216:1 248:1 277:1 290:1 321:1 325:1 383:1 403:1 428:1 438:1 446:1 447:1 450:1 462:1 523:1 603:1 608:1 620:1 673:1 688:1 701:1 718:1 723:1 731:1 737:1 748:1 758:1 772:1 992:1 1036:1 1097:1 1173:1 1297:1 1373:1 1419:1 1433:1 1443:1 2319:1 2703:1 3044:1 3068:1 3321:1 3473:1 3975:1 4018:1 4753:1 5382:1 5610:1 5625:1 5706:1 5959:1 6621:1 7745:1 7824:1 8677:1 8987:1 9333:1 9355:1 9474:1 9578:1 9754:1 10058:1 10067:1 12072:1 12327:1 12785:1 13447:1 14452:1 15107:1 15424:1 15523:1 15599:1 19229:1 21486:1 22941:1 24017:1 27322:1 33723:1 34779:1 34847:1 35339:1 36757:1 39055:1 48129:1 49627:1 51491:1 51573:1 52153:1 52738:1 53694:1 55105:1 62629:1 63358:1 
0.05449269689446936 9:1 11:1 12:1 13:1 14:1 15:1 16:1 17:1 21:1 22:1 26:1 27:1 28:1 29:1 31:1 39:1 67:1 74:1 80:1 81:1 179:1 248:1 268:1 316:1 358:1 391:1 428:1 438:1 449:1 457:1 552:1 585:1 597:1 693:1 712:1 731:1 768:1 772:1 786:1 811:1 880:1 991:1 1252:1 1372:1 1478:1 1505:1 2153:1 3068:1 3853:1 4456:1 4856:1 5395:1 5686:1 5857:1 7660:1 8812:1 9212:1 9474:1 9992:1 10058:1 10286:1 10626:1 11193:1 12063:1 14060:1 15098:1 15947:1 16118:1 22954:1 26392:1 29672:1 31226:1 33822:1 35236:1 43637:1 48483:1 50872:1 52174:1 54677:1 56237:1 60002:1 62585:1 
0.025815744316643924 9:1 11:1 13:1 15:1 16:1 17:1 19:1 20:1 21:1 22:1 26:1 27:1 28:1 29:1 31:1 50:1 68:1 69:1 72:1 189:1 250:1 325:1 393:1 396:1 429:1 450:1 452:1 455:1 456:1 486:1 522:1 526:1 530:1 552:1 595:1 607:1 688:1 724:1 746:1 758:1 812:1 866:1 1049:1 1273:1 1291:1 1335:1 1339:1 2379:1 3093:1 4018:1 4895:1 4944:1 5415:1 5716:1 5764:1 5809:1 5832:1 6606:1 6688:1 6755:1 7632:1 7813:1 9363:1 9712:1 10670:1 11091:1 12395:1 14253:1 14397:1 14757:1 14797:1 19726:1 31661:1 33931:1 35417:1 35646:1 35924:1 38930:1 39362:1 39700:1 43497:1 44319:1 51599:1 53401:1 58022:1 59700:1 63549:1 
0.0030181699366726043 9:1 10:1 11:1 12:1 13:1 14:1 16:1 17:1 18:1 19:1 20:1 22:1 23:1 24:1 26:1 27:1 28:1 29:1 31:1 34:1 39:1 50:1 62:1 64:1 65:1 66:1 69:1 76:1 79:1 81:1 83:1 171:1 216:1 248:1 268:1 290:1 316:1 318:1 319:1 325:1 326:1 338:1 352:1 368:1 403:1 426:1 431:1 438:1 446:1 449:1 452:1 457:1 461:1 469:1 476:1 490:1 508:1 535:1 542:1 597:1 599:1 613:1 633:1 673:1 688:1 696:1 701:1 707:1 718:1 730:1 731:1 737:1 747:1 758:1 804:1 817:1 862:1 866:1 934:1 942:1 987:1 1060:1 1116:1 1153:1 1173:1 1195:1 1232:1 1285:1 1419:1 1449:1 1455:1 1499:1 1533:1 2703:1 2704:1 3044:1 3066:1 3071:1 3473:1 3861:1 3869:1 3888:1 3911:1 4031:1 4056:1 4390:1 4592:1 5343:1 5432:1 5610:1 5681:1 5755:1 5885:1 5932:1 6081:1 6161:1 6246:1 6454:1 6842:1 6971:1 7644:1 7678:1 7902:1 8175:1 8672:1 8866:1 8993:1 9118:1 9330:1 9457:1 9474:1 9577:1 9717:1 10506:1 10753:1 11065:1 11095:1 11561:1 12021:1 12529:1 12993:1 13447:1 13626:1 13912:1 14328:1 15421:1 15670:1 15729:1 16082:1 16354:1 21498:1 21519:1 22905:1 22986:1 26507:1 26572:1 26638:1 26835:1 27669:1 27981:1 29432:1 30056:1 33523:1 34008:1 34758:1 35223:1 35587:1 36426:1 36604:1 37528:1 40164:1 40735:1 43716:1 44726:1 45709:1 48102:1 49698:1 50344:1 51477:1 52088:1 52172:1 52177:1 52731:1 53433:1 58514:1 59558:1 59737:1 60832:1 62364:1 
0.02493283189557538 9:1 10:1 11:1 12:1 13:1 15:1 16:1 17:1 19:1 20:1 21:1 22:1 23:1 24:1 25:1 27:1 28:1 29:1 31:1 50:1 61:1 64:1 67:1 68:1 74:1 76:1 77:1 79:1 81:1 177:1 194:1 233:1 248:1 268:1 293:1 303:1 310:1 319:1 383:1 392:1 409:1 427:1 437:1 438:1 450:1 452:1 462:1 463:1 494:1 501:1 530:1 532:1 533:1 544:1 565:1 592:1 597:1 599:1 602:1 603:1 635:1 636:1 664:1 687:1 725:1 733:1 740:1 749:1 751:1 758:1 782:1 803:1 812:1 862:1 866:1 872:1 1062:1 1087:1 1176:1 1244:1 1277:1 1373:1 1412:1 1428:1 1467:1 1506:1 2132:1 2464:1 2907:1 3067:1 3558:1 3714:1 3909:1 4753:1 4772:1 4890:1 5063:1 5357:1 5530:1 5706:1 5715:1 5770:1 5954:1 6005:1 6286:1 6365:1 6744:1 6755:1 6780:1 6817:1 6986:1 7196:1 7532:1 7653:1 7687:1 7728:1 7756:1 8204:1 8231:1 8574:1 8782:1 9494:1 9624:1 9788:1 9809:1 10195:1 10495:1 10657:1 10663:1 10666:1 11059:1 11091:1 11132:1 12577:1 12681:1 13506:1 14004:1 14300:1 15116:1 15359:1 15467:1 15858:1 16143:1 18259:1 20311:1 22348:1 22918:1 25034:1 25614:1 26817:1 30889:1 31485:1 32056:1 33590:1 34408:1 35339:1 35412:1 35689:1 37058:1 38150:1 39699:1 39861:1 40086:1 40802:1 43602:1 43770:1 43938:1 44079:1 45837:1 45997:1 47671:1 48402:1 53019:1 53912:1 54006:1 57089:1 57887:1 57975:1 57995:1 59500:1 59704:1 59825:1 
0.048615283572715981 9:1 11:1 12:1 13:1 17:1 18:1 19:1 20:1 22:1 26:1 27:1 28:1 29:1 34:1 39:1 64:1 70:1 74:1 81:1 86:1 178:1 187:1 250:1 273:1 277:1 290:1 303:1 325:1 326:1 446:1 475:1 486:1 508:1 526:1 597:1 608:1 688:1 696:1 747:1 755:1 758:1 768:1 812:1 825:1 957:1 970:1 1156:1 1173:1 1304:1 1372:1 1506:1 1580:1 2146:1 2322:1 3093:1 3114:1 3261:1 3325:1 3473:1 4026:1 4071:1 5612:1 6129:1 6454:1 6668:1 7649:1 7832:1 8873:1 9740:1 9848:1 10000:1 10671:1 10846:1 11771:1 13279:1 13447:1 14499:1 15090:1 16157:1 16640:1 18341:1 19263:1 23195:1 23699:1 24077:1 27573:1 28102:1 34800:1 37458:1 43563:1 44423:1 48926:1 53602:1 54776:1 58029:1 61543:1 
0.011806106759463045 9:1 11:1 12:1 13:1 15:1 16:1 17:1 21:1 22:1 23:1 26:1 27:1 28:1 29:1 39:1 61:1 64:1 68:1 73:1 74:1 75:1 80:1 178:1 182:1 248:1 268:1 303:1 320:1 325:1 369:1 383:1 392:1 413:1 426:1 428:1 438:1 561:1 569:1 582:1 589:1 592:1 595:1 637:1 644:1 688:1 707:1 731:1 758:1 764:1 803:1 987:1 1092:1 1153:1 1264:1 1364:1 1367:1 1399:1 1475:1 2144:1 2217:1 2235:1 3066:1 3068:1 3939:1 4018:1 4753:1 4870:1 5115:1 5335:1 5371:1 7159:1 7242:1 7426:1 7486:1 7532:1 7619:1 8254:1 8402:1 9129:1 9474:1 9933:1 10483:1 12019:1 12731:1 14184:1 15015:1 15045:1 15250:1 15923:1 18334:1 18766:1 22902:1 22932:1 27040:1 31353:1 32314:1 33461:1 41488:1 41840:1 42388:1 42536:1 43401:1 46115:1 47074:1 50469:1 52172:1 54344:1 62345:1 
0.015885375670324352 9:1 11:1 12:1 13:1 15:1 16:1 17:1 20:1 21:1 22:1 26:1 27:1 28:1 29:1 34:1 39:1 61:1 67:1 68:1 69:1 81:1 86:1 179:1 187:1 248:1 268:1 315:1 391:1 403:1 429:1 446:1 448:1 457:1 541:1 552:1 607:1 693:1 725:1 791:1 811:1 817:1 819:1 946:1 970:1 1097:1 1252:1 1273:1 1282:1 1292:1 1505:1 1569:1 2153:1 2337:1 3044:1 3819:1 4856:1 5420:1 5610:1 5655:1 5879:1 6953:1 7792:1 8812:1 10329:1 10626:1 10734:1 10801:1 11622:1 12798:1 14060:1 14257:1 14314:1 14425:1 16118:1 16548:1 19432:1 31226:1 33978:1 34758:1 35014:1 36371:1 40631:1 48483:1 58777:1 61042:1 
0.0056909859995745195 9:1 10:1 11:1 12:1 13:1 14:1 15:1 16:1 17:1 20:1 21:1 22:1 23:1 26:1 27:1 28:1 29:1 34:1 49:1 50:1 62:1 64:1 68:1 74:1 75:1 78:1 79:1 81:1 182:1 216:1 220:1 248:1 268:1 281:1 290:1 303:1 313:1 319:1 321:1 325:1 350:1 352:1 369:1 381:1 383:1 413:1 429:1 437:1 438:1 448:1 450:1 456:1 469:1 522:1 526:1 533:1 552:1 592:1 593:1 618:1 629:1 643:1 688:1 707:1 725:1 737:1 748:1 758:1 771:1 793:1 812:1 817:1 819:1 946:1 1023:1 1033:1 1062:1 1116:1 1119:1 1164:1 1173:1 1277:1 1383:1 1392:1 1434:1 1455:1 1466:1 1506:1 2225:1 2692:1 2761:1 3053:1 3375:1 3473:1 3782:1 3909:1 3961:1 4018:1 4375:1 4383:1 4724:1 4762:1 5119:1 5420:1 5530:1 5658:1 5660:1 5694:1 5832:1 6090:1 6600:1 6668:1 6800:1 7532:1 7564:1 7955:1 8097:1 8377:1 9128:1 9572:1 9771:1 10052:1 10360:1 10657:1 10734:1 10801:1 11622:1 12175:1 12272:1 12577:1 12981:1 13019:1 13366:1 13447:1 14300:1 15158:1 15207:1 15549:1 15726:1 15846:1 16143:1 18704:1 21380:1 21753:1 22762:1 24277:1 25925:1 26801:1 27172:1 29355:1 29376:1 30646:1 30815:1 32346:1 33978:1 34408:1 35050:1 35074:1 37356:1 38878:1 39961:1 44923:1 45381:1 46954:1 50452:1 53832:1 55034:1 56512:1 57887:1 58777:1 61043:1 62883:1 63169:1 
0.013940691391949356 9:1 10:1 11:1 12:1 13:1 14:1 15:1 16:1 17:1 20:1 21:1 22:1 23:1 24:1 26:1 27:1 28:1 29:1 30:1 50:1 62:1 64:1 65:1 75:1 78:1 79:1 82:1 171:1 183:1 187:1 189:1 212:1 248:1 290:1 302:1 315:1 320:1 325:1 338:1 368:1 369:1 383:1 409:1 413:1 422:1 423:1 438:1 448:1 450:1 456:1 530:1 557:1 585:1 595:1 596:1 629:1 639:1 641:1 675:1 688:1 693:1 694:1 698:1 712:1 731:1 737:1 758:1 772:1 782:1 816:1 848:1 1060:1 1062:1 1113:1 1173:1 1184:1 1194:1 1400:1 1401:1 1430:1 1455:1 1523:1 2258:1 2326:1 2379:1 2640:1 3049:1 3473:1 3478:1 3643:1 3825:1 3929:1 4024:1 4592:1 4760:1 5043:1 5115:1 5250:1 5259:1 5287:1 5664:1 5694:1 5835:1 6744:1 6755:1 7099:1 7619:1 7639:1 8089:1 8307:1 8334:1 8706:1 8822:1 8836:1 8940:1 9201:1 9474:1 9581:1 10073:1 10200:1 10707:1 10992:1 12529:1 12588:1 12953:1 13447:1 13452:1 13558:1 13607:1 15274:1 15284:1 15484:1 15732:1 16292:1 18915:1 18923:1 19300:1 19307:1 19714:1 21147:1 22700:1 24738:1 25300:1 26185:1 26972:1 27548:1 30056:1 30810:1 32309:1 33060:1 33189:1 35099:1 36082:1 39685:1 41178:1 43405:1 43531:1 46470:1 46679:1 48212:1 48609:1 48728:1 49367:1 52157:1 52760:1 55154:1 55771:1 59345:1 64293:1 
0.00086304128028562375 9:1 11:1 12:1 13:1 14:1 15:1 16:1 17:1 18:1 19:1 20:1 21:1 22:1 23:1 26:1 27:1 28:1 29:1 30:1 33:1 50:1 61:1 64:1 66:1 67:1 68:1 70:1 82:1 171:1 179:1 181:1 187:1 248:1 250:1 277:1 290:1 311:1 316:1 321:1 325:1 327:1 328:1 342:1 346:1 347:1 357:1 368:1 369:1 386:1 392:1 409:1 413:1 417:1 426:1 444:1 448:1 450:1 456:1 461:1 462:1 478:1 490:1 536:1 557:1 607:1 626:1 631:1 641:1 642:1 648:1 688:1 697:1 701:1 707:1 711:1 725:1 731:1 735:1 736:1 737:1 747:1 758:1 804:1 843:1 925:1 1060:1 1097:1 1173:1 1226:1 1232:1 1253:1 1264:1 1267:1 1307:1 1521:1 2168:1 2200:1 2332:1 3049:1 3097:1 3321:1 3473:1 3477:1 3481:1 3729:1 3848:1 3974:1 4041:1 4081:1 4119:1 4237:1 4300:1 4311:1 4445:1 4592:1 4801:1 4870:1 5051:1 5121:1 5122:1 5181:1 5185:1 5318:1 5564:1 5651:1 5694:1 5835:1 5942:1 5975:1 6185:1 6246:1 6851:1 6871:1 7086:1 7802:1 8046:1 8145:1 8314:1 8349:1 8461:1 8903:1 8989:1 9003:1 9127:1 9173:1 9474:1 9545:1 9562:1 9581:1 9724:1 10512:1 10959:1 11434:1 12529:1 12795:1 13447:1 13451:1 13860:1 13912:1 14071:1 14188:1 14189:1 14209:1 14545:1 16276:1 18448:1 18555:1 19376:1 22707:1 23089:1 24016:1 24728:1 24756:1 25691:1 26331:1 27303:1 27810:1 28408:1 29041:1 29077:1 29611:1 30056:1 30988:1 31353:1 31943:1 32381:1 32397:1 32645:1 32685:1 34491:1 34971:1 36072:1 36680:1 36865:1 37591:1 40189:1 40336:1 44261:1 45182:1 45596:1 46794:1 47279:1 49109:1 49649:1 49788:1 50434:1 52157:1 52592:1 52681:1 52760:1 53489:1 57207:1 59254:1 
0.0058261787084426418 9:1 10:1 12:1 13:1 15:1 16:1 17:1 20:1 21:1 22:1 23:1 26:1 27:1 28:1 29:1 31:1 34:1 39:1 50:1 62:1 64:1 68:1 72:1 73:1 74:1 75:1 79:1 83:1 90:1 180:1 189:1 216:1 220:1 268:1 277:1 303:1 315:1 319:1 320:1 321:1 325:1 327:1 391:1 429:1 435:1 438:1 445:1 447:1 461:1 463:1 517:1 522:1 530:1 533:1 552:1 561:1 565:1 592:1 613:1 615:1 625:1 688:1 693:1 697:1 699:1 712:1 737:1 758:1 768:1 783:1 812:1 866:1 942:1 975:1 987:1 1048:1 1119:1 1153:1 1275:1 1339:1 1353:1 1354:1 1382:1 1388:1 1455:1 1533:1 1616:1 2186:1 2376:1 2694:1 2697:1 2703:1 2747:1 3324:1 3838:1 3894:1 3909:1 3925:1 3980:1 4018:1 4027:1 4029:1 4042:1 4089:1 4856:1 5415:1 5489:1 5586:1 5625:1 5928:1 5982:1 6006:1 6606:1 6768:1 6796:1 7161:1 7211:1 7213:1 7532:1 7541:1 7902:1 7929:1 8026:1 8813:1 8907:1 8957:1 9201:1 9576:1 9994:1 10000:1 10230:1 10657:1 11086:1 11550:1 11870:1 12016:1 12386:1 13007:1 14272:1 14807:1 14936:1 14951:1 14953:1 15148:1 15180:1 15728:1 16346:1 16773:1 18516:1 19660:1 21405:1 21431:1 21494:1 21496:1 24034:1 24055:1 26300:1 26799:1 27367:1 27598:1 27636:1 27838:1 28202:1 31227:1 33925:1 34212:1 34657:1 34850:1 37083:1 38928:1 39799:1 39944:1 41529:1 41703:1 41738:1 42880:1 44719:1 44841:1 45095:1 48498:1 49146:1 49456:1 52721:1 54711:1 54769:1 55940:1 57892:1 59658:1 61794:1 62316:1 63521:1 
0.012786616380583891 9:1 10:1 11:1 12:1 13:1 14:1 15:1 16:1 17:1 20:1 21:1 22:1 23:1 26:1 27:1 28:1 29:1 30:1 34:1 39:1 61:1 67:1 72:1 78:1 81:1 82:1 86:1 177:1 194:1 196:1 208:1 217:1 228:1 248:1 268:1 303:1 365:1 379:1 391:1 413:1 422:1 463:1 522:1 552:1 592:1 597:1 636:1 693:1 718:1 731:1 733:1 747:1 758:1 783:1 800:1 811:1 812:1 843:1 957:1 976:1 980:1 1087:1 1252:1 1335:1 1430:1 1506:1 1521:1 1580:1 2118:1 2464:1 2476:1 2517:1 2720:1 2842:1 3053:1 3062:1 4555:1 4670:1 4856:1 5099:1 5260:1 6006:1 6612:1 7532:1 7665:1 8221:1 8827:1 9319:1 9474:1 9494:1 9718:1 10224:1 10425:1 10440:1 10626:1 10657:1 10954:1 11761:1 11882:1 11917:1 12667:1 14060:1 14763:1 15486:1 16143:1 16272:1 16632:1 18151:1 20311:1 20386:1 20692:1 20706:1 21604:1 22120:1 22743:1 22853:1 29948:1 31236:1 33077:1 37080:1 38999:1 43690:1 48648:1 48653:1 51415:1 52169:1 53439:1 56867:1 57887:1 59235:1 61499:1 61845:1 61937:1 
0.013225986669279183 4:1 9:1 10:1 11:1 12:1 13:1 15:1 16:1 17:1 19:1 20:1 21:1 22:1 23:1 24:1 26:1 27:1 28:1 29:1 31:1 39:1 50:1 62:1 64:1 65:1 67:1 72:1 73:1 76:1 79:1 81:1 83:1 150:1 189:1 194:1 238:1 248:1 268:1 273:1 277:1 286:1 303:1 322:1 325:1 326:1 394:1 399:1 428:1 454:1 457:1 462:1 463:1 494:1 522:1 541:1 565:1 572:1 592:1 597:1 608:1 620:1 636:1 662:1 668:1 671:1 688:1 725:1 727:1 731:1 743:1 747:1 749:1 758:1 768:1 782:1 786:1 795:1 811:1 817:1 866:1 880:1 980:1 985:1 1058:1 1061:1 1131:1 1156:1 1160:1 1204:1 1259:1 1335:1 1354:1 1415:1 1417:1 1461:1 1509:1 1544:1 2043:1 2376:1 2391:1 2458:1 2987:1 3068:1 3266:1 3324:1 3433:1 3985:1 4018:1 4051:1 4911:1 4979:1 5378:1 5785:1 5869:1 5954:1 5959:1 6005:1 6286:1 6606:1 6950:1 7206:1 7209:1 7298:1 7532:1 7550:1 7664:1 7824:1 8237:1 8539:1 8615:1 8640:1 9426:1 9474:1 9653:1 9735:1 9787:1 10000:1 10195:1 10282:1 10637:1 10735:1 11097:1 11190:1 11929:1 11990:1 12513:1 12571:1 13128:1 13284:1 13326:1 13708:1 14115:1 14757:1 14947:1 15387:1 15404:1 15775:1 16182:1 16408:1 17925:1 19660:1 19832:1 22531:1 22937:1 23751:1 24034:1 24552:1 31755:1 33693:1 35788:1 36309:1 36757:1 37058:1 38928:1 38937:1 40619:1 41673:1 41693:1 42042:1 42948:1 43663:1 43667:1 46042:1 47518:1 47827:1 47925:1 51853:1 52174:1 53578:1 53897:1 54769:1 56225:1 57775:1 58379:1 59762:1 59977:1 61994:1 62216:1 63963:1 64248:1 
0.51717546775371837 12:1 13:1 14:1 15:1 16:1 20:1 22:1 26:1 28:1 29:1 64:1 67:1 68:1 81:1 268:1 314:1 319:1 321:1 327:1 338:1 386:1 393:1 413:1 426:1 526:1 542:1 585:1 688:1 758:1 803:1 804:1 806:1 1153:1 1247:1 1264:1 1499:1 1501:1 3812:1 3902:1 3954:1 4081:1 4804:1 4895:1 5114:1 5121:1 5318:1 6685:1 6961:1 10492:1 10506:1 10564:1 14021:1 14183:1 14188:1 16082:1 16108:1 26119:1 26729:1 31007:1 32291:1 32381:1 39341:1 40665:1 57066:1 57487:1 
0.0093432866189799603 3:1 9:1 10:1 11:1 13:1 14:1 16:1 17:1 20:1 21:1 22:1 24:1 26:1 27:1 28:1 49:1 62:1 63:1 65:1 68:1 74:1 76:1 79:1 106:1 176:1 178:1 193:1 216:1 248:1 303:1 310:1 313:1 316:1 326:1 327:1 357:1 403:1 413:1 422:1 436:1 438:1 448:1 463:1 530:1 561:1 589:1 593:1 602:1 658:1 688:1 697:1 725:1 726:1 731:1 733:1 758:1 775:1 783:1 1033:1 1116:1 1138:1 1204:1 1264:1 1367:1 1408:1 1446:1 1449:1 1451:1 1748:1 2104:1 2144:1 2426:1 2692:1 3044:1 3062:1 3076:1 3714:1 3786:1 3852:1 3865:1 4051:1 4081:1 4102:1 4444:1 5121:1 5256:1 5510:1 5643:1 5999:1 6744:1 7151:1 7486:1 7564:1 7584:1 7724:1 8496:1 8903:1 9394:1 9474:1 9500:1 10112:1 10224:1 12280:1 12981:1 13173:1 13708:1 14188:1 15045:1 15315:1 15625:1 15670:1 15683:1 17233:1 18050:1 18316:1 21382:1 22852:1 23038:1 25596:1 25944:1 26372:1 26555:1 28301:1 29598:1 32381:1 33047:1 34317:1 37030:1 41437:1 42536:1 43227:1 43911:1 47337:1 49113:1 51755:1 52169:1 52267:1 55327:1 63203:1 
0.017683281533079451 5:1 6:1 9:1 10:1 13:1 15:1 16:1 17:1 21:1 26:1 27:1 28:1 29:1 34:1 39:1 50:1 62:1 67:1 73:1 86:1 90:1 160:1 161:1 195:1 216:1 220:1 303:1 306:1 315:1 325:1 376:1 383:1 392:1 426:1 450:1 462:1 463:1 561:1 693:1 697:1 712:1 718:1 725:1 746:1 761:1 768:1 781:1 795:1 957:1 980:1 1048:1 1119:1 1237:1 1353:1 1580:1 1616:1 2055:1 2493:1 2703:1 2765:1 2766:1 3668:1 3835:1 4027:1 4042:1 4649:1 4762:1 4885:1 5325:1 5715:1 5954:1 5985:1 7150:1 8828:1 8893:1 8912:1 9221:1 9323:1 9700:1 9917:1 9983:1 10192:1 11747:1 11921:1 12386:1 13023:1 13938:1 14929:1 16622:1 16773:1 20486:1 21508:1 21786:1 21800:1 26266:1 27587:1 27855:1 30273:1 30824:1 31442:1 33411:1 35407:1 36925:1 41426:1 48662:1 49197:1 50927:1 51437:1 53347:1 54302:1 54614:1 55721:1 61968:1 63521:1 
0.014171053842034244 4:1 9:1 10:1 11:1 12:1 13:1 14:1 15:1 16:1 17:1 19:1 20:1 21:1 22:1 23:1 24:1 25:1 26:1 27:1 28:1 29:1 34:1 49:1 64:1 65:1 67:1 71:1 72:1 73:1 74:1 76:1 77:1 135:1 178:1 179:1 181:1 189:1 195:1 231:1 248:1 268:1 281:1 290:1 291:1 303:1 310:1 314:1 315:1 320:1 325:1 327:1 352:1 359:1 369:1 379:1 391:1 403:1 409:1 426:1 429:1 438:1 447:1 448:1 450:1 455:1 462:1 498:1 515:1 522:1 526:1 536:1 552:1 561:1 574:1 589:1 592:1 593:1 597:1 602:1 636:1 642:1 663:1 687:1 688:1 693:1 694:1 701:1 707:1 711:1 731:1 737:1 747:1 758:1 768:1 774:1 784:1 789:1 799:1 803:1 816:1 818:1 936:1 1033:1 1164:1 1173:1 1198:1 1252:1 1333:1 1335:1 1358:1 1367:1 1372:1 1411:1 1428:1 1956:1 2144:1 2168:1 2211:1 2376:1 2498:1 2507:1 2887:1 3044:1 3049:1 3069:1 3375:1 3474:1 3481:1 3497:1 3714:1 3799:1 3835:1 3925:1 4018:1 4089:1 4385:1 4475:1 4670:1 4859:1 5051:1 5322:1 5419:1 5620:1 5643:1 5694:1 5818:1 5975:1 6341:1 6556:1 6606:1 6678:1 6679:1 6860:1 7161:1 7312:1 7486:1 7501:1 7554:1 7564:1 7650:1 7724:1 8228:1 8359:1 8559:1 8781:1 8828:1 8849:1 9003:1 9127:1 9177:1 9474:1 9572:1 9581:1 9724:1 10000:1 10097:1 10267:1 10303:1 10407:1 10488:1 10725:1 10785:1 11507:1 12280:1 13366:1 13455:1 13643:1 14063:1 14732:1 14757:1 14977:1 15045:1 15057:1 15091:1 15351:1 15466:1 17748:1 18316:1 18444:1 18622:1 19677:1 20543:1 20633:1 22271:1 22707:1 22976:1 24271:1 24714:1 24756:1 24833:1 25596:1 26017:1 26263:1 28202:1 29387:1 31279:1 31947:1 33392:1 33971:1 36010:1 36865:1 38060:1 38768:1 38928:1 39283:1 39299:1 40243:1 41529:1 42536:1 42698:1 42975:1 43566:1 43911:1 45983:1 46847:1 47611:1 48391:1 48666:1 48823:1 49788:1 50441:1 50683:1 52157:1 52175:1 52760:1 53483:1 53489:1 54769:1 55269:1 56145:1 56276:1 56655:1 57031:1 58306:1 58694:1 60660:1 63203:1 
0.30102392057466881 11:1 13:1 14:1 16:1 17:1 23:1 26:1 27:1 30:1 50:1 65:1 66:1 69:1 79:1 82:1 248:1 310:1 326:1 338:1 368:1 403:1 427:1 438:1 462:1 641:1 688:1 725:1 731:1 733:1 737:1 843:1 1052:1 1204:1 1232:1 1297:1 1451:1 1521:1 3044:1 3067:1 3714:1 4051:1 4586:1 5355:1 5959:1 8314:1 9474:1 9500:1 9572:1 10959:1 12434:1 13708:1 13907:1 14452:1 15683:1 16276:1 22916:1 25614:1 30031:1 33575:1 36757:1 52153:1 52267:1 59254:1 
0.014036146997077158 11:1 12:1 13:1 14:1 15:1 16:1 17:1 19:1 22:1 23:1 26:1 27:1 28:1 29:1 31:1 34:1 50:1 63:1 64:1 66:1 67:1 69:1 79:1 248:1 281:1 303:1 315:1 325:1 327:1 360:1 402:1 413:1 426:1 431:1 438:1 448:1 457:1 458:1 469:1 508:1 593:1 597:1 599:1 637:1 688:1 712:1 731:1 733:1 758:1 772:1 783:1 812:1 866:1 934:1 1051:1 1138:1 1164:1 1228:1 1261:1 1292:1 1449:1 1451:1 3053:1 3071:1 3375:1 3835:1 4018:1 4042:1 4081:1 4102:1 4516:1 5011:1 5121:1 5318:1 5433:1 5643:1 5664:1 5865:1 5899:1 6081:1 6462:1 7582:1 7651:1 7693:1 8259:1 9201:1 9474:1 9505:1 10058:1 10075:1 10234:1 10663:1 11100:1 12429:1 13162:1 13366:1 13878:1 14136:1 14413:1 15670:1 15688:1 22764:1 22987:1 24271:1 26260:1 27838:1 28310:1 29850:1 31850:1 32392:1 34028:1 35114:1 36260:1 36477:1 38549:1 43174:1 43586:1 43804:1 46185:1 52177:1 52333:1 55182:1 55961:1 57979:1 59774:1 63696:1 
0.011802398036521288 9:1 10:1 11:1 13:1 15:1 16:1 17:1 20:1 27:1 28:1 29:1 34:1 39:1 61:1 69:1 79:1 177:1 218:1 223:1 248:1 316:1 382:1 403:1 413:1 429:1 462:1 463:1 547:1 725:1 731:1 758:1 789:1 818:1 939:1 976:1 1087:1 1297:1 1445:1 1449:1 2119:1 2727:1 2797:1 3044:1 3069:1 3865:1 4741:1 5112:1 5419:1 5959:1 5982:1 7022:1 9474:1 10305:1 10785:1 11535:1 11882:1 12668:1 14452:1 15670:1 18156:1 21619:1 21896:1 22976:1 26543:1 30711:1 32278:1 33971:1 36757:1 40887:1 52153:1 52175:1 56290:1 58696:1 60744:1 61843:1 
0.0060616444862521719 9:1 10:1 12:1 13:1 14:1 15:1 16:1 17:1 20:1 21:1 22:1 23:1 26:1 27:1 28:1 29:1 30:1 31:1 39:1 50:1 61:1 64:1 66:1 73:1 81:1 83:1 171:1 177:1 182:1 184:1 193:1 194:1 212:1 215:1 216:1 273:1 277:1 281:1 325:1 327:1 368:1 369:1 376:1 413:1 455:1 457:1 463:1 540:1 565:1 589:1 595:1 641:1 688:1 700:1 711:1 714:1 725:1 729:1 758:1 764:1 768:1 783:1 812:1 843:1 862:1 880:1 991:1 1060:1 1084:1 1087:1 1156:1 1160:1 1232:1 1354:1 1506:1 1531:1 1544:1 2116:1 2117:1 2217:1 2282:1 2426:1 2458:1 2649:1 2676:1 2703:1 3266:1 3326:1 3383:1 4018:1 4041:1 4044:1 4085:1 4102:1 4592:1 4646:1 5119:1 5822:1 5867:1 5982:1 6901:1 7213:1 7485:1 7612:1 8323:1 8968:1 9175:1 9261:1 9436:1 9935:1 10000:1 10230:1 10654:1 10959:1 11072:1 11193:1 12043:1 12529:1 12666:1 13284:1 13328:1 13912:1 14953:1 16140:1 16338:1 16411:1 18122:1 18139:1 19052:1 21205:1 21321:1 21486:1 23751:1 24087:1 24322:1 27812:1 27886:1 28174:1 28307:1 30056:1 30265:1 32364:1 36025:1 36277:1 41723:1 42523:1 43363:1 46582:1 49529:1 50669:1 51198:1 51904:1 54374:1 54792:1 55943:1 57866:1 59262:1 59625:1 59986:1 
0.09311684160753031 9:1 10:1 11:1 13:1 14:1 15:1 16:1 17:1 19:1 20:1 22:1 23:1 24:1 26:1 27:1 28:1 31:1 66:1 67:1 69:1 74:1 83:1 187:1 194:1 212:1 248:1 327:1 355:1 386:1 427:1 457:1 462:1 486:1 517:1 536:1 593:1 608:1 625:1 638:1 641:1 643:1 673:1 701:1 703:1 725:1 731:1 758:1 779:1 786:1 858:1 872:1 1224:1 1247:1 1297:1 1370:1 1528:1 2315:1 2458:1 2644:1 3067:1 4105:1 4424:1 4801:1 5346:1 5880:1 5959:1 6850:1 7584:1 7824:1 8024:1 8292:1 8326:1 8385:1 8670:1 8998:1 9019:1 9474:1 10174:1 10283:1 11039:1 11136:1 13849:1 14018:1 14452:1 15081:1 16315:1 21171:1 22908:1 28337:1 29533:1 30987:1 36392:1 36757:1 40180:1 43230:1 45080:1 46382:1 46604:1 46992:1 48088:1 49755:1 52173:1 55601:1 56229:1 59457:1 59847:1 
0.015532609572759603 9:1 10:1 12:1 15:1 16:1 17:1 21:1 22:1 23:1 26:1 28:1 30:1 39:1 61:1 62:1 64:1 67:1 73:1 82:1 183:1 220:1 299:1 391:1 403:1 438:1 457:1 552:1 571:1 582:1 597:1 602:1 608:1 620:1 636:1 718:1 758:1 843:1 986:1 987:1 1093:1 1119:1 1181:1 1252:1 1357:1 1521:1 2244:1 2762:1 3614:1 4862:1 5869:1 7284:1 7426:1 7644:1 7736:1 7824:1 8245:1 9330:1 10943:1 11995:1 12022:1 12026:1 12736:1 13020:1 13537:1 14066:1 14968:1 16261:1 21762:1 25200:1 31306:1 36300:1 41967:1 42392:1 43971:1 46076:1 51478:1 62385:1 62402:1 
0.0034649267362164109 9:1 10:1 12:1 13:1 14:1 15:1 17:1 19:1 22:1 26:1 27:1 28:1 39:1 50:1 61:1 62:1 64:1 69:1 79:1 88:1 189:1 193:1 216:1 290:1 302:1 303:1 314:1 318:1 321:1 325:1 359:1 379:1 438:1 448:1 452:1 457:1 490:1 585:1 597:1 602:1 608:1 688:1 698:1 699:1 737:1 768:1 772:1 991:1 1060:1 1103:1 1116:1 1173:1 1184:1 1292:1 1455:1 1598:1 2386:1 2436:1 2696:1 3479:1 3641:1 3799:1 3878:1 3975:1 4018:1 4485:1 4670:1 4679:1 4685:1 5643:1 5750:1 5857:1 5869:1 6262:1 7651:1 7736:1 7832:1 7836:1 8935:1 8946:1 9583:1 10000:1 10058:1 10074:1 12043:1 12536:1 12858:1 12985:1 13453:1 13556:1 14408:1 15733:1 16709:1 19789:1 20094:1 21423:1 24739:1 25282:1 26017:1 26604:1 27332:1 29753:1 30367:1 30447:1 36304:1 37776:1 43577:1 43973:1 44423:1 44460:1 49345:1 49393:1 49398:1 52790:1 54769:1 55170:1 64074:1 
0.064859552429390746 9:1 10:1 11:1 12:1 13:1 16:1 17:1 20:1 21:1 22:1 23:1 24:1 26:1 27:1 28:1 29:1 31:1 34:1 61:1 62:1 64:1 73:1 76:1 78:1 83:1 187:1 189:1 193:1 196:1 216:1 248:1 268:1 290:1 316:1 327:1 333:1 422:1 438:1 446:1 461:1 522:1 540:1 557:1 593:1 643:1 668:1 688:1 696:1 707:1 711:1 725:1 758:1 772:1 817:1 866:1 942:1 1097:1 1106:1 1116:1 1173:1 1350:1 1415:1 1434:1 1533:1 2336:1 2377:1 2448:1 2532:1 2709:1 3062:1 3473:1 3850:1 4081:1 4192:1 5256:1 5610:1 5932:1 6606:1 6901:1 7103:1 7584:1 8378:1 8615:1 8866:1 9128:1 9173:1 10058:1 10734:1 11095:1 11559:1 12797:1 12914:1 12998:1 13447:1 14907:1 15387:1 15549:1 16354:1 19397:1 19699:1 20210:1 20828:1 21573:1 22852:1 26354:1 28677:1 33047:1 34774:1 36604:1 38929:1 41229:1 43217:1 46959:1 47827:1 50453:1 59737:1 60811:1 
0.020067706503549443 9:1 11:1 12:1 13:1 14:1 15:1 16:1 17:1 18:1 21:1 22:1 24:1 26:1 27:1 28:1 29:1 31:1 34:1 39:1 50:1 61:1 64:1 70:1 73:1 79:1 81:1 83:1 86:1 193:1 248:1 268:1 281:1 302:1 303:1 311:1 338:1 383:1 403:1 438:1 448:1 452:1 462:1 463:1 476:1 582:1 592:1 595:1 658:1 711:1 712:1 725:1 731:1 744:1 758:1 804:1 812:1 866:1 946:1 987:1 1045:1 1103:1 1164:1 1184:1 1305:1 1364:1 1462:1 1499:1 1506:1 1533:1 1569:1 2448:1 2449:1 3044:1 3370:1 3375:1 3634:1 3732:1 4753:1 5643:1 5770:1 5954:1 5982:1 6155:1 7426:1 7532:1 7619:1 8508:1 9177:1 9201:1 9474:1 9683:1 10506:1 10657:1 11091:1 11635:1 12019:1 12867:1 13366:1 13549:1 14521:1 15015:1 15802:1 16082:1 16143:1 16350:1 16559:1 20213:1 20222:1 24271:1 25703:1 35689:1 37517:1 42388:1 43401:1 47410:1 50683:1 52153:1 53253:1 57887:1 59704:1 61116:1 62345:1 
0.029552966615496098 9:1 11:1 12:1 13:1 14:1 15:1 16:1 17:1 20:1 21:1 22:1 24:1 27:1 28:1 29:1 49:1 67:1 68:1 72:1 73:1 74:1 79:1 81:1 171:1 248:1 268:1 303:1 310:1 323:1 354:1 369:1 392:1 409:1 420:1 428:1 438:1 448:1 450:1 526:1 530:1 583:1 592:1 593:1 672:1 675:1 731:1 737:1 758:1 772:1 804:1 1033:1 1253:1 1262:1 1339:1 1365:1 1370:1 1455:1 1499:1 3060:1 3068:1 3714:1 4009:1 4404:1 4870:1 5043:1 5214:1 5382:1 5650:1 5694:1 6687:1 6753:1 7443:1 7532:1 7564:1 8661:1 8697:1 9474:1 9572:1 10067:1 10520:1 12272:1 14071:1 14146:1 14795:1 15025:1 15064:1 15726:1 16095:1 22833:1 22941:1 25615:1 27474:1 29478:1 31353:1 32800:1 33723:1 34965:1 39360:1 39663:1 42431:1 48034:1 52167:1 55099:1 57264:1 63169:1 
0.027754229840796972 9:1 10:1 11:1 12:1 13:1 14:1 15:1 16:1 17:1 20:1 21:1 22:1 23:1 24:1 26:1 27:1 28:1 29:1 30:1 31:1 39:1 49:1 64:1 66:1 67:1 69:1 74:1 76:1 79:1 82:1 83:1 187:1 189:1 212:1 248:1 268:1 277:1 290:1 299:1 314:1 316:1 325:1 326:1 360:1 369:1 391:1 392:1 403:1 413:1 436:1 447:1 448:1 456:1 462:1 463:1 517:1 530:1 533:1 552:1 582:1 585:1 592:1 596:1 597:1 636:1 637:1 641:1 642:1 671:1 673:1 688:1 696:1 699:1 701:1 706:1 712:1 713:1 730:1 731:1 737:1 743:1 747:1 748:1 758:1 764:1 784:1 803:1 810:1 812:1 843:1 872:1 970:1 991:1 1033:1 1153:1 1173:1 1228:1 1253:1 1291:1 1297:1 1372:1 1417:1 1419:1 1449:1 1455:1 1461:1 1521:1 1538:1 2329:1 2376:1 2644:1 3044:1 3076:1 3324:1 3473:1 3606:1 3794:1 3865:1 4029:1 4036:1 4042:1 4071:1 4508:1 4861:1 4887:1 5112:1 5510:1 5620:1 5654:1 5664:1 5832:1 5854:1 5959:1 5982:1 6753:1 6792:1 7428:1 7532:1 7541:1 7561:1 7637:1 7650:1 8221:1 8254:1 8319:1 8360:1 8645:1 8670:1 8873:1 8890:1 8957:1 8997:1 9081:1 9201:1 9246:1 9455:1 9474:1 9579:1 9669:1 9717:1 9746:1 9765:1 9939:1 10262:1 10500:1 10610:1 10657:1 10954:1 10959:1 11136:1 12043:1 12276:1 13447:1 13871:1 14079:1 14397:1 14452:1 15091:1 15409:1 15419:1 15670:1 15731:1 15789:1 16272:1 16276:1 16377:1 19332:1 19684:1 21179:1 23038:1 24043:1 24050:1 26543:1 27636:1 27737:1 27838:1 28086:1 29825:1 31294:1 31457:1 32278:1 34315:1 34998:1 35114:1 36183:1 36757:1 39672:1 42396:1 42880:1 43035:1 43522:1 43566:1 46120:1 46522:1 46537:1 46880:1 47963:1 48087:1 48925:1 48993:1 49460:1 49742:1 51093:1 52074:1 52153:1 52181:1 52748:1 53192:1 53432:1 53634:1 53788:1 54416:1 56104:1 57138:1 57637:1 57887:1 59235:1 59258:1 59843:1 63190:1 
0.028655913203416698 11:1 12:1 13:1 14:1 15:1 16:1 17:1 19:1 21:1 22:1 23:1 26:1 27:1 28:1 29:1 31:1 39:1 64:1 66:1 81:1 83:1 248:1 268:1 287:1 303:1 327:1 357:1 359:1 369:1 379:1 403:1 457:1 504:1 565:1 593:1 594:1 626:1 630:1 637:1 707:1 739:1 758:1 776:1 817:1 880:1 980:1 1153:1 1170:1 1226:1 1509:1 1544:1 3044:1 3441:1 4096:1 4446:1 4475:1 4690:1 5865:1 6401:1 7209:1 7564:1 7602:1 8044:1 8112:1 8256:1 9115:1 9611:1 10124:1 10746:1 11187:1 11917:1 13419:1 13861:1 16192:1 16406:1 24571:1 28251:1 29626:1 30508:1 36244:1 38301:1 41691:1 43320:1 45151:1 46162:1 50308:1 52958:1 55373:1 58477:1 59961:1 61952:1 
0.012410556849788949 9:1 11:1 12:1 13:1 14:1 15:1 16:1 17:1 19:1 20:1 21:1 22:1 23:1 24:1 26:1 27:1 28:1 29:1 30:1 33:1 39:1 64:1 69:1 71:1 72:1 75:1 76:1 82:1 88:1 193:1 248:1 290:1 303:1 325:1 359:1 379:1 403:1 448:1 462:1 504:1 536:1 552:1 607:1 620:1 629:1 630:1 637:1 643:1 658:1 688:1 701:1 707:1 712:1 731:1 749:1 758:1 768:1 783:1 788:1 811:1 843:1 911:1 970:1 1173:1 1297:1 1326:1 1342:1 1392:1 1408:1 1521:1 1589:1 2449:1 3044:1 3473:1 3484:1 4031:1 4475:1 4670:1 5643:1 5959:1 6401:1 6867:1 7816:1 8106:1 8114:1 8269:1 8388:1 8508:1 8989:1 9115:1 9227:1 9474:1 9787:1 10000:1 10230:1 10293:1 10626:1 10943:1 11348:1 13447:1 14452:1 14673:1 14830:1 15209:1 15324:1 16261:1 20239:1 24769:1 27665:1 36757:1 38310:1 40309:1 44356:1 45408:1 45434:1 46264:1 47015:1 47411:1 49644:1 50310:1 50977:1 52153:1 53893:1 54781:1 55943:1 56248:1 60287:1 
0.024686359033443794 9:1 11:1 12:1 13:1 14:1 16:1 17:1 20:1 21:1 22:1 26:1 28:1 29:1 50:1 64:1 65:1 72:1 73:1 74:1 78:1 178:1 248:1 277:1 303:1 313:1 316:1 321:1 325:1 338:1 342:1 403:1 449:1 542:1 561:1 589:1 593:1 688:1 724:1 758:1 818:1 1051:1 1160:1 1195:1 1343:1 1353:1 1367:1 1444:1 2144:1 3044:1 3321:1 3774:1 3853:1 3961:1 4018:1 4242:1 5672:1 6972:1 7159:1 7486:1 7564:1 9365:1 10762:1 12419:1 13324:1 13621:1 14850:1 14934:1 15045:1 15603:1 18316:1 24008:1 26384:1 27172:1 28786:1 35174:1 40738:1 41488:1 42536:1 51606:1 63612:1 
0.013601574295460366 9:1 10:1 12:1 13:1 14:1 15:1 16:1 17:1 20:1 21:1 22:1 23:1 26:1 27:1 28:1 29:1 34:1 49:1 61:1 64:1 65:1 68:1 69:1 73:1 80:1 81:1 86:1 171:1 182:1 189:1 193:1 226:1 268:1 290:1 292:1 303:1 316:1 319:1 320:1 321:1 325:1 326:1 327:1 328:1 359:1 369:1 389:1 413:1 417:1 422:1 447:1 451:1 456:1 458:1 463:1 526:1 540:1 552:1 561:1 565:1 569:1 585:1 592:1 608:1 620:1 642:1 643:1 688:1 693:1 699:1 705:1 725:1 729:1 730:1 758:1 764:1 768:1 775:1 781:1 782:1 793:1 795:1 804:1 817:1 934:1 942:1 957:1 1037:1 1103:1 1173:1 1199:1 1264:1 1267:1 1287:1 1293:1 1354:1 1491:1 1499:1 1509:1 1559:1 1565:1 1580:1 2217:1 2376:1 2436:1 2825:1 3473:1 3518:1 3851:1 3915:1 3925:1 3975:1 4035:1 4051:1 4081:1 4130:1 4493:1 4845:1 5119:1 5121:1 5181:1 5250:1 5620:1 5738:1 5844:1 5889:1 5982:1 5992:1 5999:1 6680:1 6903:1 7153:1 7160:1 7213:1 7242:1 7555:1 7844:1 8342:1 8374:1 8815:1 8955:1 9064:1 9442:1 9461:1 9924:1 9981:1 9995:1 10110:1 10179:1 10198:1 10364:1 10525:1 10734:1 11568:1 11747:1 12330:1 12858:1 13447:1 13673:1 14186:1 14188:1 14206:1 14357:1 14431:1 14953:1 16052:1 16100:1 16181:1 16518:1 16622:1 19678:1 20100:1 22007:1 26356:1 26870:1 27340:1 27728:1 28464:1 29773:1 31196:1 32360:1 32381:1 32647:1 35518:1 36125:1 36970:1 37029:1 39305:1 40427:1 41455:1 41513:1 41723:1 41726:1 41732:1 41836:1 42993:1 44503:1 46925:1 48515:1 49453:1 50069:1 51983:1 52113:1 54720:1 55320:1 55618:1 55756:1 56531:1 57305:1 60904:1 63364:1 
0.0020938877525120648 3:1 9:1 10:1 11:1 12:1 13:1 14:1 15:1 16:1 17:1 19:1 20:1 26:1 27:1 30:1 31:1 34:1 49:1 63:1 64:1 66:1 71:1 72:1 79:1 82:1 112:1 171:1 177:1 187:1 194:1 223:1 248:1 269:1 273:1 310:1 316:1 325:1 367:1 369:1 409:1 413:1 431:1 438:1 450:1 469:1 494:1 522:1 530:1 549:1 688:1 725:1 731:1 733:1 737:1 831:1 866:1 934:1 1035:1 1036:1 1138:1 1154:1 1156:1 1231:1 1316:1 1346:1 1451:1 1455:1 1514:1 1797:1 2123:1 2318:1 2458:1 2791:1 3049:1 3053:1 3071:1 3222:1 3266:1 3714:1 3845:1 4018:1 4579:1 5043:1 5119:1 5433:1 5694:1 6081:1 6295:1 6596:1 6744:1 7048:1 9474:1 9500:1 9572:1 9581:1 10882:1 11100:1 12294:1 12323:1 13161:1 13255:1 13284:1 13901:1 14611:1 14877:1 15683:1 15726:1 16222:1 17369:1 18194:1 19213:1 21863:1 22700:1 22762:1 22987:1 23563:1 23751:1 25603:1 30007:1 32346:1 34028:1 37889:1 38843:1 40980:1 52177:1 52267:1 52760:1 58946:1 59774:1 63343:1 
0.039686256451823554 9:1 10:1 11:1 12:1 13:1 15:1 16:1 17:1 21:1 22:1 26:1 27:1 28:1 30:1 31:1 39:1 50:1 68:1 69:1 73:1 79:1 82:1 88:1 189:1 216:1 248:1 274:1 314:1 325:1 330:1 369:1 383:1 403:1 409:1 437:1 438:1 446:1 450:1 463:1 565:1 592:1 711:1 718:1 731:1 737:1 758:1 835:1 862:1 970:1 991:1 1049:1 1262:1 1282:1 1354:1 1455:1 1516:1 1598:1 2376:1 2708:1 3044:1 3077:1 3276:1 3803:1 4041:1 4148:1 4762:1 5058:1 5519:1 5610:1 5694:1 5982:1 7213:1 7538:1 9177:1 9316:1 9474:1 9572:1 10907:1 11063:1 12067:1 12394:1 14160:1 14314:1 14953:1 15726:1 16236:1 16719:1 19663:1 21564:1 23045:1 23810:1 26065:1 27814:1 28547:1 30815:1 32009:1 34363:1 34758:1 41723:1 42850:1 50683:1 52182:1 59055:1 59521:1 62612:1 63536:1 
0.02884164034929235 10:1 11:1 12:1 13:1 15:1 16:1 17:1 22:1 23:1 26:1 27:1 28:1 29:1 30:1 67:1 79:1 82:1 216:1 248:1 268:1 311:1 316:1 325:1 327:1 394:1 413:1 438:1 446:1 457:1 463:1 585:1 641:1 688:1 694:1 697:1 737:1 758:1 768:1 803:1 843:1 1255:1 1455:1 1521:1 2703:1 3053:1 3722:1 3865:1 4018:1 4027:1 4081:1 4917:1 5119:1 5610:1 5857:1 5992:1 8317:1 8837:1 8903:1 9572:1 9577:1 9587:1 10002:1 10489:1 10959:1 14087:1 15726:1 15729:1 15737:1 16276:1 21494:1 22762:1 26548:1 27595:1 31555:1 32346:1 34766:1 36974:1 46504:1 48748:1 49125:1 52731:1 52838:1 54813:1 57033:1 59256:1 
0.04663986639999089 9:1 12:1 13:1 14:1 15:1 16:1 17:1 19:1 20:1 23:1 24:1 26:1 27:1 28:1 29:1 31:1 39:1 64:1 67:1 68:1 78:1 83:1 176:1 182:1 273:1 290:1 303:1 316:1 327:1 338:1 369:1 392:1 394:1 413:1 438:1 463:1 514:1 527:1 530:1 635:1 643:1 668:1 672:1 688:1 707:1 733:1 758:1 768:1 774:1 803:1 872:1 989:1 1156:1 1173:1 1253:1 1255:1 1264:1 1434:1 1538:1 2096:1 2217:1 3251:1 3473:1 3865:1 4081:1 4089:1 4872:1 4917:1 5121:1 5982:1 6542:1 6697:1 6744:1 8199:1 8380:1 8617:1 8656:1 9128:1 9506:1 9981:1 10104:1 10501:1 11132:1 12037:1 13269:1 13447:1 14072:1 14087:1 14188:1 15549:1 16373:1 18010:1 23646:1 26543:1 28192:1 31360:1 31560:1 32381:1 38740:1 45796:1 46976:1 47845:1 48020:1 50455:1 52352:1 55293:1 57145:1 59824:1 62446:1 
0.010812678223099656 10:1 11:1 13:1 16:1 17:1 21:1 26:1 27:1 28:1 34:1 39:1 50:1 62:1 68:1 69:1 73:1 79:1 86:1 220:1 228:1 248:1 303:1 325:1 326:1 327:1 413:1 421:1 438:1 451:1 452:1 462:1 552:1 582:1 584:1 711:1 718:1 725:1 733:1 747:1 748:1 758:1 942:1 970:1 976:1 1051:1 1119:1 1124:1 1264:1 1287:1 1288:1 1364:1 1366:1 1445:1 1565:1 2747:1 2842:1 3053:1 4041:1 4071:1 4081:1 5099:1 5121:1 5235:1 5737:1 5770:1 5954:1 7414:1 7450:1 9192:1 9319:1 9494:1 9720:1 9742:1 11565:1 11882:1 12428:1 13007:1 13069:1 14188:1 14356:1 14379:1 15007:1 15031:1 16516:1 22120:1 22743:1 27829:1 28088:1 32381:1 35516:1 35689:1 42457:1 50761:1 51415:1 53445:1 60881:1 61845:1 63693:1 
0.0049800274243430864 3:1 9:1 10:1 11:1 12:1 13:1 15:1 16:1 17:1 19:1 21:1 22:1 23:1 26:1 27:1 28:1 29:1 30:1 31:1 34:1 39:1 61:1 64:1 67:1 69:1 73:1 79:1 81:1 82:1 83:1 88:1 112:1 177:1 194:1 216:1 233:1 248:1 250:1 268:1 281:1 290:1 295:1 299:1 321:1 325:1 327:1 369:1 370:1 391:1 429:1 431:1 450:1 456:1 461:1 463:1 511:1 552:1 565:1 575:1 585:1 592:1 593:1 602:1 620:1 688:1 696:1 705:1 706:1 711:1 713:1 718:1 725:1 731:1 733:1 737:1 747:1 749:1 758:1 789:1 800:1 812:1 817:1 818:1 819:1 835:1 843:1 858:1 862:1 866:1 880:1 934:1 956:1 970:1 976:1 986:1 987:1 1087:1 1173:1 1252:1 1291:1 1354:1 1455:1 1467:1 1509:1 1516:1 1521:1 1528:1 1531:1 1533:1 1589:1 1794:1 2132:1 2476:1 2703:1 2906:1 3069:1 3071:1 3117:1 3377:1 3491:1 3575:1 3614:1 3970:1 4018:1 4026:1 4035:1 4036:1 4041:1 4107:1 4598:1 4861:1 5419:1 5437:1 5694:1 5695:1 5832:1 5932:1 5982:1 6505:1 7213:1 7324:1 7545:1 7558:1 7584:1 7718:1 8866:1 8890:1 9073:1 9088:1 9173:1 9177:1 9246:1 9319:1 9474:1 9515:1 9581:1 9720:1 9794:1 10301:1 10320:1 10429:1 10657:1 10753:1 10785:1 10789:1 10907:1 10943:1 11039:1 11068:1 11095:1 11192:1 11729:1 11883:1 11995:1 12016:1 12681:1 13464:1 14065:1 14397:1 14953:1 15732:1 15863:1 16198:1 16236:1 16261:1 16315:1 16335:1 16354:1 18258:1 20388:1 21507:1 22345:1 22976:1 22991:1 23214:1 24283:1 24795:1 25109:1 25200:1 27251:1 27584:1 27731:1 27744:1 27810:1 27814:1 28340:1 30078:1 31294:1 33971:1 34049:1 35268:1 36604:1 38676:1 41723:1 42130:1 42915:1 43017:1 43231:1 48995:1 50104:1 50176:1 50683:1 51093:1 51416:1 52175:1 52177:1 52426:1 52431:1 52440:1 52761:1 53462:1 53949:1 56368:1 56820:1 57907:1 58517:1 58704:1 58715:1 59049:1 59055:1 59464:1 59587:1 59737:1 59982:1 61864:1 62322:1 
0.011538005677353195 4:1 10:1 11:1 12:1 13:1 15:1 16:1 17:1 19:1 20:1 21:1 22:1 23:1 24:1 26:1 27:1 28:1 29:1 30:1 39:1 50:1 62:1 64:1 67:1 68:1 72:1 74:1 78:1 82:1 134:1 228:1 250:1 268:1 285:1 290:1 303:1 314:1 321:1 379:1 391:1 437:1 448:1 459:1 494:1 501:1 530:1 577:1 592:1 603:1 608:1 620:1 626:1 641:1 672:1 680:1 688:1 690:1 697:1 707:1 713:1 718:1 748:1 758:1 768:1 778:1 812:1 816:1 819:1 843:1 970:1 992:1 1062:1 1124:1 1153:1 1173:1 1252:1 1277:1 1339:1 1373:1 1441:1 1521:1 1950:1 2838:1 3101:1 3426:1 3473:1 3799:1 3975:1 4670:1 4861:1 5530:1 5654:1 5920:1 6299:1 6365:1 6753:1 6764:1 7381:1 7549:1 7745:1 7841:1 8046:1 8314:1 8315:1 8664:1 8747:1 8796:1 8893:1 9111:1 9246:1 9333:1 9750:1 9981:1 10157:1 10657:1 10712:1 10800:1 10943:1 10959:1 12078:1 12577:1 13066:1 13447:1 14065:1 14300:1 14795:1 15107:1 15587:1 16261:1 16276:1 17733:1 22093:1 23119:1 24522:1 26017:1 27337:1 31294:1 34408:1 35001:1 36555:1 37931:1 38161:1 39667:1 39774:1 42303:1 42944:1 44489:1 45185:1 46481:1 48048:1 48435:1 50275:1 51093:1 51493:1 53652:1 55522:1 57899:1 58197:1 58767:1 59254:1 62654:1 
0.051508837692185859 9:1 10:1 11:1 12:1 13:1 15:1 16:1 17:1 20:1 21:1 22:1 23:1 26:1 27:1 28:1 31:1 39:1 64:1 69:1 73:1 79:1 83:1 88:1 188:1 194:1 230:1 248:1 273:1 299:1 303:1 326:1 379:1 403:1 445:1 457:1 462:1 517:1 571:1 576:1 607:1 635:1 641:1 688:1 696:1 725:1 729:1 731:1 735:1 737:1 758:1 768:1 872:1 970:1 991:1 1156:1 1292:1 1297:1 1357:1 1455:1 1538:1 1598:1 2363:1 2458:1 2872:1 3044:1 3266:1 3606:1 4054:1 4689:1 5596:1 5879:1 5959:1 7283:1 7342:1 7802:1 8192:1 8319:1 8890:1 9441:1 9474:1 9539:1 9576:1 9981:1 11136:1 12043:1 13284:1 14425:1 14452:1 14967:1 15728:1 16377:1 16709:1 19593:1 22228:1 23751:1 27965:1 30490:1 34711:1 36378:1 36757:1 41950:1 44259:1 46537:1 48993:1 51977:1 52153:1 52564:1 52725:1 59843:1 
0.050434086760896703 9:1 11:1 12:1 13:1 16:1 17:1 19:1 22:1 23:1 24:1 26:1 27:1 28:1 31:1 39:1 64:1 68:1 71:1 76:1 78:1 83:1 189:1 194:1 248:1 290:1 299:1 325:1 327:1 409:1 413:1 428:1 438:1 447:1 448:1 462:1 463:1 506:1 585:1 597:1 608:1 631:1 638:1 643:1 673:1 688:1 701:1 707:1 710:1 712:1 718:1 729:1 737:1 747:1 758:1 768:1 772:1 880:1 976:1 987:1 992:1 1173:1 1262:1 1264:1 1327:1 1419:1 1434:1 1544:1 2370:1 2381:1 2476:1 3068:1 3473:1 3615:1 4040:1 4042:1 4081:1 5058:1 5063:1 5121:1 5378:1 5641:1 5664:1 5965:1 5996:1 6422:1 7644:1 7824:1 8134:1 8292:1 8368:1 8677:1 9004:1 9116:1 9123:1 9163:1 9201:1 9333:1 9442:1 9578:1 9579:1 9716:1 10000:1 10079:1 11185:1 11882:1 12026:1 12072:1 13447:1 14163:1 14188:1 14683:1 15424:1 15540:1 16404:1 19733:1 20384:1 22937:1 25215:1 27801:1 27838:1 32013:1 32059:1 32381:1 33693:1 34925:1 35114:1 36802:1 37014:1 38415:1 45517:1 46376:1 48129:1 49799:1 50324:1 50403:1 50625:1 51491:1 51980:1 52742:1 52753:1 53422:1 54788:1 55205:1 59954:1 61852:1 62402:1 62629:1 
0.0084323177365794796 4:1 9:1 11:1 12:1 13:1 15:1 16:1 17:1 18:1 19:1 21:1 22:1 23:1 26:1 27:1 28:1 29:1 34:1 49:1 64:1 68:1 69:1 70:1 74:1 79:1 143:1 178:1 189:1 248:1 250:1 270:1 277:1 303:1 310:1 333:1 369:1 409:1 423:1 426:1 427:1 428:1 456:1 457:1 478:1 498:1 552:1 592:1 595:1 618:1 620:1 631:1 688:1 693:1 731:1 756:1 758:1 768:1 781:1 783:1 803:1 957:1 1023:1 1037:1 1160:1 1262:1 1291:1 1307:1 1383:1 1473:1 2010:1 2146:1 2376:1 3063:1 3067:1 3068:1 3105:1 3243:1 3331:1 3714:1 4205:1 5058:1 5279:1 5318:1 5350:1 5378:1 5832:1 5867:1 6185:1 6343:1 7534:1 7607:1 7955:1 8145:1 8811:1 9474:1 9882:1 9981:1 10179:1 10224:1 10488:1 11754:1 12175:1 12336:1 13332:1 14160:1 14397:1 14545:1 15158:1 15904:1 17869:1 18347:1 19661:1 22862:1 22912:1 22937:1 23145:1 23637:1 24118:1 25611:1 28721:1 32009:1 33549:1 33680:1 36274:1 37591:1 38069:1 42826:1 44923:1 45596:1 48482:1 52174:1 54211:1 55614:1 57031:1 61465:1 62889:1 63381:1 
0.041034599983728465 9:1 12:1 13:1 14:1 15:1 16:1 17:1 21:1 24:1 26:1 27:1 28:1 29:1 30:1 31:1 34:1 39:1 64:1 73:1 79:1 82:1 83:1 86:1 183:1 194:1 268:1 299:1 311:1 320:1 325:1 342:1 369:1 426:1 438:1 463:1 552:1 565:1 658:1 698:1 708:1 712:1 733:1 737:1 747:1 758:1 768:1 805:1 835:1 866:1 880:1 957:1 980:1 986:1 1153:1 1181:1 1354:1 1455:1 1516:1 1533:1 1544:1 1580:1 2261:1 2476:1 3614:1 3722:1 3925:1 4028:1 4038:1 4246:1 5339:1 5992:1 7213:1 8509:1 8925:1 9136:1 9201:1 9501:1 9572:1 9720:1 9995:1 10000:1 10531:1 10907:1 11097:1 11187:1 11756:1 11912:1 11995:1 13537:1 14953:1 15726:1 16236:1 16356:1 16406:1 16629:1 18958:1 20388:1 25200:1 27607:1 27781:1 28810:1 33485:1 36970:1 36972:1 41726:1 47419:1 49288:1 50509:1 52272:1 53452:1 54720:1 54778:1 59052:1 59758:1 59957:1 61483:1 
0.031292416655335421 9:1 11:1 12:1 13:1 15:1 16:1 17:1 22:1 27:1 29:1 31:1 50:1 64:1 67:1 83:1 194:1 248:1 273:1 293:1 316:1 402:1 403:1 438:1 462:1 602:1 607:1 725:1 731:1 737:1 747:1 795:1 862:1 1058:1 1156:1 1176:1 1261:1 1531:1 2458:1 3044:1 3266:1 3543:1 3864:1 5016:1 5975:1 7735:1 7798:1 9474:1 9572:1 9724:1 11065:1 12521:1 13284:1 13494:1 14140:1 16332:1 23751:1 26539:1 31863:1 36865:1 43966:1 44228:1 52153:1 53483:1 59556:1 64002:1 
0.038472907154104702 10:1 11:1 13:1 14:1 15:1 16:1 17:1 20:1 22:1 23:1 26:1 27:1 29:1 39:1 67:1 69:1 75:1 79:1 81:1 216:1 231:1 248:1 325:1 352:1 392:1 403:1 417:1 438:1 457:1 462:1 547:1 597:1 615:1 625:1 698:1 731:1 737:1 795:1 812:1 975:1 976:1 1253:1 1297:1 1388:1 1449:1 1506:1 2703:1 2881:1 3044:1 3057:1 4028:1 4391:1 4876:1 5168:1 5182:1 5869:1 5959:1 7022:1 7644:1 7929:1 8026:1 8930:1 9474:1 9572:1 10677:1 11878:1 11882:1 14074:1 14452:1 15180:1 15670:1 16162:1 21495:1 22801:1 22813:1 27611:1 29436:1 31394:1 32657:1 36300:1 36757:1 40887:1 44845:1 45095:1 49325:1 52153:1 52165:1 58065:1 61824:1 61846:1 
0.055966297792066647 9:1 15:1 17:1 18:1 21:1 22:1 26:1 27:1 28:1 29:1 61:1 67:1 69:1 70:1 188:1 189:1 193:1 392:1 438:1 456:1 475:1 552:1 576:1 609:1 688:1 737:1 758:1 799:1 1098:1 1253:1 1291:1 1304:1 2363:1 2392:1 2426:1 4876:1 5832:1 6139:1 7342:1 7854:1 9572:1 10417:1 12815:1 14074:1 14397:1 14509:1 19593:1 19849:1 31394:1 37492:1 44568:1 56740:1 
0.014184245015849067 6:1 9:1 11:1 12:1 13:1 14:1 15:1 16:1 17:1 19:1 20:1 21:1 22:1 23:1 24:1 26:1 27:1 28:1 29:1 31:1 39:1 64:1 65:1 66:1 67:1 69:1 75:1 76:1 79:1 80:1 81:1 83:1 161:1 187:1 194:1 195:1 248:1 281:1 303:1 310:1 325:1 326:1 355:1 357:1 369:1 383:1 399:1 403:1 406:1 417:1 420:1 422:1 428:1 438:1 448:1 450:1 457:1 462:1 463:1 508:1 522:1 526:1 530:1 552:1 593:1 594:1 597:1 620:1 636:1 637:1 641:1 668:1 688:1 693:1 697:1 705:1 713:1 725:1 731:1 740:1 743:1 747:1 748:1 764:1 768:1 769:1 772:1 781:1 783:1 784:1 809:1 816:1 817:1 862:1 976:1 1164:1 1204:1 1224:1 1259:1 1292:1 1398:1 1415:1 1461:1 1478:1 1509:1 1531:1 2322:1 2477:1 2506:1 3044:1 3047:1 3057:1 3060:1 3062:1 3068:1 3375:1 3377:1 3714:1 4027:1 4051:1 4056:1 4071:1 4411:1 4426:1 4442:1 4772:1 4975:1 5040:1 5168:1 5218:1 5260:1 5382:1 5643:1 5665:1 5694:1 5706:1 5866:1 5959:1 5988:1 6471:1 6611:1 6668:1 6674:1 6753:1 7582:1 7601:1 7664:1 8221:1 8255:1 8328:1 8615:1 8827:1 8893:1 9061:1 9243:1 9474:1 9623:1 9669:1 9718:1 9727:1 9762:1 9937:1 9986:1 10013:1 10067:1 10190:1 10231:1 10267:1 10598:1 10707:1 10753:1 11059:1 11882:1 13366:1 13368:1 13708:1 13710:1 13838:1 14114:1 14414:1 15232:1 15387:1 15789:1 15941:1 16198:1 16326:1 19263:1 20419:1 20612:1 22698:1 22801:1 22834:1 22853:1 22941:1 24271:1 24287:1 25596:1 25610:1 25615:1 27587:1 27981:1 28092:1 29542:1 29588:1 30885:1 31741:1 32822:1 33076:1 33723:1 35132:1 35347:1 36271:1 36757:1 36938:1 38582:1 38993:1 39262:1 39673:1 43180:1 43317:1 43667:1 46149:1 46620:1 47830:1 48654:1 51072:1 52156:1 52165:1 52167:1 53002:1 53193:1 53439:1 53511:1 53763:1 54388:1 54632:1 54870:1 55099:1 55706:1 55948:1 56130:1 57591:1 58515:1 59500:1 61846:1 
0.0075160121366672729 9:1 10:1 11:1 12:1 13:1 14:1 15:1 16:1 17:1 21:1 22:1 23:1 26:1 27:1 28:1 31:1 34:1 39:1 50:1 61:1 62:1 64:1 73:1 78:1 79:1 90:1 171:1 181:1 216:1 248:1 290:1 314:1 325:1 326:1 357:1 359:1 375:1 393:1 431:1 435:1 450:1 463:1 469:1 565:1 608:1 637:1 688:1 697:1 707:1 725:1 731:1 758:1 772:1 866:1 934:1 979:1 1048:1 1061:1 1067:1 1084:1 1116:1 1173:1 1354:1 1431:1 1449:1 1616:1 1624:1 2209:1 2703:1 2704:1 3071:1 3075:1 3473:1 3796:1 4018:1 4056:1 4446:1 4485:1 4619:1 4628:1 4895:1 5433:1 5483:1 5716:1 5982:1 6081:1 7213:1 7824:1 8270:1 8901:1 9122:1 9474:1 10067:1 11100:1 11907:1 12386:1 12555:1 12624:1 12993:1 13447:1 14953:1 15498:1 15670:1 16773:1 16820:1 18607:1 21486:1 21519:1 22987:1 23016:1 25991:1 25995:1 27981:1 29631:1 29755:1 30132:1 34028:1 34178:1 35417:1 41723:1 46271:1 49081:1 50392:1 52177:1 52180:1 55112:1 59774:1 61923:1 63521:1 64402:1 
0.022446010231339977 11:1 12:1 13:1 15:1 16:1 17:1 20:1 22:1 23:1 24:1 26:1 27:1 28:1 39:1 64:1 67:1 68:1 79:1 88:1 248:1 268:1 316:1 325:1 327:1 392:1 413:1 422:1 438:1 448:1 463:1 533:1 537:1 615:1 641:1 642:1 671:1 688:1 712:1 731:1 733:1 737:1 743:1 748:1 758:1 772:1 985:1 991:1 1153:1 1253:1 1264:1 1449:1 1455:1 1461:1 1598:1 3062:1 3865:1 4042:1 4081:1 4872:1 5121:1 5276:1 5664:1 5982:1 6810:1 6883:1 7937:1 8334:1 8360:1 8645:1 9201:1 9212:1 9474:1 9506:1 9572:1 9672:1 9742:1 10065:1 11986:1 12043:1 14072:1 14188:1 15670:1 15726:1 15792:1 16709:1 22859:1 26543:1 27838:1 31360:1 32381:1 33147:1 35114:1 40041:1 40369:1 44871:1 46688:1 46863:1 47963:1 50874:1 52169:1 52352:1 53216:1 55089:1 62186:1 
0.0090646168682006825 9:1 12:1 15:1 17:1 21:1 22:1 27:1 28:1 29:1 31:1 34:1 39:1 61:1 73:1 79:1 81:1 86:1 182:1 188:1 268:1 369:1 450:1 462:1 463:1 552:1 582:1 592:1 597:1 602:1 608:1 725:1 749:1 764:1 784:1 812:1 821:1 866:1 946:1 987:1 1098:1 1364:1 1467:1 1506:1 1569:1 2217:1 2346:1 5694:1 5954:1 6007:1 7426:1 7532:1 7653:1 7728:1 7736:1 7828:1 9788:1 9933:1 10272:1 10657:1 10666:1 10817:1 11096:1 11635:1 12026:1 12802:1 15015:1 15858:1 16143:1 16559:1 37113:1 42392:1 43594:1 43938:1 43972:1 44393:1 53912:1 54344:1 56182:1 57887:1 57995:1 57999:1 58840:1 59744:1 61129:1 62403:1 
0.028179780831921835 9:1 11:1 12:1 13:1 14:1 15:1 16:1 20:1 21:1 22:1 23:1 26:1 27:1 28:1 29:1 31:1 49:1 64:1 66:1 67:1 68:1 73:1 83:1 194:1 248:1 293:1 325:1 326:1 327:1 367:1 391:1 403:1 413:1 517:1 577:1 593:1 642:1 688:1 706:1 707:1 725:1 731:1 733:1 741:1 747:1 768:1 795:1 803:1 810:1 819:1 858:1 1035:1 1176:1 1231:1 1252:1 1264:1 1361:1 1528:1 2458:1 3044:1 3543:1 4018:1 4051:1 4056:1 4089:1 4579:1 4859:1 5120:1 7368:1 7381:1 7583:1 8359:1 9088:1 9127:1 9474:1 9516:1 9639:1 9720:1 9728:1 10000:1 10501:1 10602:1 10796:1 11039:1 12308:1 13494:1 13901:1 14063:1 14187:1 14999:1 16315:1 27981:1 28202:1 30012:1 31279:1 32374:1 42238:1 42302:1 43200:1 46843:1 46850:1 50175:1 50441:1 52153:1 52452:1 53086:1 53463:1 53519:1 54769:1 57145:1 58741:1 59457:1 63303:1 
0.040180252045682541 9:1 11:1 12:1 13:1 15:1 16:1 17:1 19:1 20:1 21:1 22:1 23:1 26:1 27:1 28:1 32:1 61:1 64:1 65:1 67:1 68:1 72:1 171:1 248:1 250:1 281:1 303:1 312:1 320:1 325:1 327:1 331:1 383:1 391:1 413:1 422:1 428:1 438:1 446:1 457:1 494:1 536:1 552:1 593:1 595:1 626:1 697:1 701:1 711:1 731:1 758:1 772:1 781:1 899:1 1084:1 1164:1 1209:1 1252:1 1264:1 1342:1 3062:1 3068:1 3101:1 3373:1 3748:1 3925:1 4041:1 4081:1 4171:1 4753:1 4858:1 5121:1 5256:1 5382:1 5610:1 5867:1 6301:1 6851:1 7570:1 7619:1 8046:1 8907:1 8998:1 9177:1 9474:1 10058:1 10183:1 11299:1 13364:1 13765:1 14062:1 14188:1 14817:1 22852:1 22941:1 23120:1 24266:1 27814:1 28640:1 31265:1 32381:1 33036:1 33717:1 34779:1 36283:1 37950:1 40189:1 43079:1 43401:1 45185:1 49146:1 49748:1 50683:1 52169:1 55645:1 60220:1 
0.012635582133948376 9:1 11:1 14:1 15:1 16:1 17:1 19:1 20:1 22:1 23:1 24:1 26:1 27:1 28:1 29:1 31:1 67:1 69:1 72:1 81:1 181:1 189:1 191:1 198:1 248:1 359:1 369:1 392:1 403:1 409:1 438:1 454:1 461:1 462:1 463:1 486:1 522:1 530:1 595:1 635:1 671:1 712:1 729:1 731:1 737:1 744:1 747:1 772:1 782:1 817:1 866:1 1253:1 1297:1 1335:1 1509:1 2211:1 2379:1 2418:1 2556:1 3044:1 3049:1 4494:1 4876:1 5051:1 5781:1 5946:1 5959:1 5996:1 6606:1 6768:1 7607:1 8202:1 8639:1 9222:1 9443:1 9450:1 9474:1 9572:1 9691:1 9716:1 10071:1 10200:1 10213:1 10753:1 11095:1 14074:1 14452:1 14757:1 16198:1 18632:1 19705:1 19962:1 20941:1 22707:1 29792:1 31394:1 31947:1 36708:1 36757:1 37009:1 38930:1 39805:1 45830:1 47911:1 50933:1 51995:1 52056:1 52153:1 52157:1 53298:1 53423:1 53429:1 55128:1 55771:1 55854:1 58513:1 59743:1 
0.10448169712392254 9:1 11:1 12:1 13:1 14:1 15:1 16:1 17:1 22:1 23:1 26:1 27:1 28:1 29:1 30:1 31:1 39:1 49:1 64:1 65:1 67:1 69:1 81:1 82:1 83:1 189:1 248:1 301:1 325:1 326:1 362:1 375:1 399:1 403:1 452:1 462:1 463:1 595:1 620:1 688:1 712:1 725:1 731:1 758:1 768:1 782:1 804:1 817:1 843:1 866:1 880:1 970:1 991:1 1035:1 1183:1 1204:1 1236:1 1297:1 1499:1 1509:1 1521:1 1533:1 2379:1 3044:1 3630:1 4018:1 4051:1 4529:1 4635:1 4972:1 5771:1 5959:1 5992:1 7634:1 9201:1 9222:1 9474:1 10000:1 10195:1 10527:1 10734:1 10943:1 11091:1 11193:1 12063:1 12314:1 13547:1 13708:1 13929:1 14452:1 16102:1 16181:1 16261:1 16350:1 19728:1 25261:1 29892:1 30183:1 35712:1 36757:1 36972:1 43502:1 50930:1 52153:1 54769:1 57320:1 59705:1 60002:1 62588:1 63321:1 
0.01134658008045244 9:1 10:1 11:1 12:1 13:1 14:1 15:1 16:1 17:1 19:1 20:1 21:1 22:1 23:1 26:1 27:1 28:1 29:1 30:1 31:1 34:1 49:1 64:1 65:1 67:1 78:1 79:1 81:1 82:1 83:1 181:1 187:1 188:1 196:1 212:1 213:1 248:1 268:1 277:1 285:1 290:1 301:1 316:1 320:1 325:1 327:1 330:1 353:1 359:1 391:1 396:1 409:1 429:1 438:1 447:1 457:1 461:1 463:1 494:1 507:1 525:1 552:1 561:1 567:1 585:1 592:1 636:1 641:1 642:1 688:1 693:1 696:1 701:1 703:1 707:1 712:1 729:1 731:1 737:1 747:1 758:1 782:1 789:1 795:1 800:1 804:1 812:1 818:1 843:1 858:1 862:1 866:1 934:1 1035:1 1173:1 1183:1 1198:1 1252:1 1257:1 1430:1 1449:1 1499:1 1506:1 1521:1 1528:1 1531:1 1533:1 2211:1 2321:1 2355:1 2514:1 2517:1 2652:1 2660:1 3049:1 3069:1 3329:1 3422:1 3473:1 3481:1 3630:1 3851:1 3865:1 3925:1 4033:1 4081:1 4151:1 4396:1 4475:1 4859:1 4944:1 5051:1 5419:1 5625:1 5631:1 5857:1 5932:1 5946:1 5982:1 6295:1 6433:1 6642:1 7159:1 7161:1 7220:1 7532:1 8221:1 8314:1 8359:1 8829:1 8866:1 8998:1 9035:1 9127:1 9201:1 9222:1 9441:1 9474:1 9572:1 9724:1 10200:1 10301:1 10427:1 10519:1 10657:1 10785:1 10954:1 10959:1 11034:1 11065:1 11086:1 11095:1 12314:1 13447:1 13455:1 13547:1 13643:1 14063:1 14100:1 15488:1 15670:1 16094:1 16143:1 16272:1 16276:1 16310:1 16332:1 16354:1 18622:1 19245:1 19531:1 20694:1 21246:1 21283:1 22707:1 22976:1 24108:1 24506:1 24754:1 25261:1 26359:1 26543:1 27703:1 28564:1 29464:1 31279:1 31659:1 31947:1 33971:1 34854:1 34879:1 36604:1 36708:1 37898:1 38459:1 41498:1 41525:1 41761:1 46847:1 48678:1 49743:1 49911:1 50441:1 50933:1 51971:1 52157:1 52175:1 53483:1 55771:1 56806:1 57260:1 57887:1 58693:1 59235:1 59254:1 59417:1 59543:1 59659:1 59737:1 59743:1 63321:1 
0.010100683033982514 10:1 11:1 12:1 13:1 16:1 17:1 20:1 21:1 22:1 26:1 27:1 28:1 29:1 39:1 49:1 63:1 68:1 69:1 72:1 74:1 88:1 208:1 229:1 248:1 281:1 315:1 325:1 403:1 413:1 426:1 428:1 438:1 445:1 446:1 456:1 549:1 561:1 569:1 577:1 592:1 609:1 688:1 694:1 713:1 731:1 758:1 795:1 811:1 987:1 1029:1 1138:1 1264:1 1282:1 1291:1 1346:1 1378:1 1597:1 2849:1 3044:1 3053:1 3068:1 3370:1 3835:1 4018:1 4024:1 5111:1 5119:1 5340:1 5371:1 5583:1 5610:1 5844:1 7043:1 7159:1 7242:1 7364:1 7545:1 7864:1 8847:1 9232:1 9474:1 10647:1 12016:1 12220:1 13162:1 14186:1 14314:1 14402:1 14875:1 15137:1 16702:1 22156:1 22755:1 22932:1 26279:1 27555:1 32262:1 32349:1 33495:1 34758:1 36125:1 40963:1 41488:1 41840:1 42909:1 44610:1 48804:1 52174:1 57838:1 62322:1 63011:1 
0.066207592916046012 11:1 12:1 13:1 14:1 15:1 16:1 17:1 22:1 23:1 26:1 27:1 28:1 29:1 64:1 67:1 69:1 74:1 79:1 80:1 248:1 268:1 313:1 316:1 327:1 350:1 382:1 413:1 426:1 428:1 438:1 448:1 451:1 457:1 463:1 585:1 603:1 607:1 620:1 688:1 731:1 749:1 758:1 768:1 772:1 812:1 1153:1 1243:1 1287:1 1292:1 1373:1 1467:1 1481:1 3068:1 3781:1 3865:1 4081:1 4354:1 4741:1 5112:1 5318:1 5371:1 5653:1 5741:1 5857:1 5992:1 7745:1 7798:1 9474:1 9788:1 10002:1 10065:1 10670:1 13978:1 14360:1 14408:1 15107:1 15858:1 15968:1 22932:1 25918:1 26548:1 30711:1 32278:1 34988:1 35530:1 36974:1 44228:1 52174:1 53914:1 54813:1 55082:1 58019:1 
0.010525837489743907 9:1 10:1 11:1 12:1 13:1 14:1 16:1 17:1 20:1 21:1 22:1 23:1 26:1 27:1 28:1 29:1 30:1 39:1 50:1 62:1 64:1 69:1 74:1 79:1 80:1 81:1 82:1 88:1 181:1 187:1 189:1 195:1 220:1 238:1 248:1 268:1 277:1 302:1 309:1 338:1 347:1 359:1 365:1 403:1 409:1 420:1 438:1 456:1 458:1 462:1 522:1 534:1 540:1 552:1 557:1 589:1 592:1 602:1 607:1 620:1 629:1 637:1 688:1 707:1 731:1 732:1 737:1 741:1 758:1 772:1 781:1 782:1 804:1 843:1 970:1 991:1 1062:1 1119:1 1153:1 1184:1 1297:1 1367:1 1455:1 1483:1 1499:1 1521:1 1598:1 2211:1 2330:1 2336:1 2376:1 2386:1 2496:1 2747:1 2990:1 3044:1 3049:1 3060:1 3309:1 3643:1 3710:1 4329:1 4475:1 4494:1 4549:1 5051:1 5210:1 5832:1 5899:1 5959:1 6606:1 6823:1 6913:1 7101:1 7495:1 7501:1 7532:1 7735:1 7798:1 8094:1 8251:1 9114:1 9474:1 9485:1 9586:1 9633:1 10075:1 10187:1 10200:1 10201:1 10506:1 10943:1 12043:1 12577:1 12588:1 13007:1 13558:1 14452:1 15057:1 15736:1 16003:1 16082:1 16261:1 16709:1 18622:1 18632:1 19357:1 19405:1 19660:1 19788:1 20534:1 22548:1 22707:1 22832:1 23917:1 25300:1 25590:1 29168:1 29782:1 31947:1 32776:1 36474:1 36757:1 38928:1 40107:1 40463:1 41203:1 42618:1 42623:1 42692:1 43966:1 44228:1 45366:1 46097:1 50296:1 52153:1 52157:1 52167:1 52211:1 52827:1 53056:1 55182:1 55680:1 55771:1 55774:1 64293:1 
0.05014121743669462 4:1 9:1 10:1 11:1 12:1 13:1 14:1 15:1 16:1 17:1 21:1 22:1 23:1 24:1 26:1 27:1 28:1 29:1 30:1 39:1 64:1 67:1 69:1 76:1 79:1 81:1 82:1 145:1 178:1 216:1 226:1 248:1 290:1 325:1 338:1 399:1 403:1 428:1 457:1 552:1 585:1 594:1 636:1 641:1 643:1 673:1 688:1 690:1 694:1 718:1 729:1 731:1 758:1 800:1 835:1 843:1 987:1 992:1 1173:1 1259:1 1292:1 1419:1 1447:1 1495:1 1521:1 2023:1 2144:1 2703:1 2825:1 3044:1 3068:1 3473:1 4020:1 4024:1 4984:1 5371:1 5857:1 7591:1 8221:1 8314:1 8368:1 8677:1 8800:1 8844:1 9333:1 9433:1 9474:1 10429:1 10907:1 10954:1 10959:1 12018:1 12070:1 13447:1 14119:1 14408:1 15424:1 15640:1 16067:1 16272:1 16276:1 17893:1 18316:1 21488:1 22005:1 22932:1 27519:1 27553:1 31780:1 48129:1 48440:1 48791:1 51489:1 51887:1 52174:1 56820:1 59038:1 59235:1 59254:1 62337:1 62618:1 
0.066687206962678158 9:1 10:1 12:1 16:1 17:1 23:1 24:1 33:1 62:1 64:1 68:1 69:1 191:1 220:1 287:1 409:1 438:1 620:1 672:1 678:1 905:1 1119:1 1170:1 1262:1 1278:1 2419:1 2747:1 3438:1 5060:1 8663:1 8740:1 13007:1 13417:1 14161:1 19975:1 32031:1 48047:1 
0.016075691281585421 9:1 12:1 13:1 15:1 17:1 21:1 22:1 23:1 26:1 28:1 29:1 31:1 34:1 50:1 61:1 64:1 67:1 73:1 80:1 83:1 171:1 189:1 268:1 287:1 290:1 316:1 391:1 438:1 461:1 463:1 584:1 597:1 627:1 696:1 697:1 717:1 724:1 758:1 781:1 789:1 799:1 866:1 938:1 957:1 1047:1 1062:1 1084:1 1170:1 1252:1 1366:1 1483:1 1533:1 2381:1 3442:1 3490:1 3865:1 4865:1 5932:1 5982:1 7459:1 7644:1 8065:1 8866:1 8903:1 9310:1 9361:1 10183:1 10304:1 10402:1 11095:1 11510:1 11750:1 12380:1 12591:1 13420:1 14069:1 15040:1 16001:1 16354:1 19733:1 24578:1 24793:1 26543:1 31319:1 36604:1 42478:1 45264:1 49125:1 51374:1 51591:1 55644:1 56278:1 59737:1 61441:1 63497:1 64306:1 
0.00039477087594007158 9:1 10:1 11:1 12:1 13:1 14:1 15:1 16:1 17:1 19:1 21:1 22:1 23:1 26:1 27:1 28:1 29:1 30:1 39:1 50:1 62:1 64:1 66:1 67:1 69:1 78:1 79:1 81:1 82:1 196:1 238:1 248:1 268:1 277:1 281:1 303:1 310:1 313:1 325:1 338:1 357:1 359:1 369:1 379:1 399:1 413:1 426:1 438:1 448:1 450:1 451:1 456:1 457:1 462:1 506:1 565:1 593:1 597:1 627:1 688:1 693:1 701:1 706:1 724:1 737:1 739:1 758:1 803:1 804:1 843:1 980:1 1051:1 1131:1 1153:1 1164:1 1226:1 1259:1 1278:1 1287:1 1444:1 1455:1 1499:1 1521:1 2520:1 2981:1 3053:1 3305:1 3387:1 3714:1 3788:1 4018:1 4031:1 4442:1 4475:1 4670:1 4979:1 5119:1 5334:1 5664:1 5694:1 5741:1 5841:1 5869:1 5967:1 6422:1 7209:1 7564:1 7651:1 8058:1 8829:1 8991:1 8997:1 9088:1 9365:1 9572:1 9612:1 10483:1 10506:1 10946:1 11917:1 12417:1 12419:1 13122:1 13378:1 13857:1 14115:1 14360:1 15603:1 15726:1 16082:1 16264:1 20725:1 22514:1 22762:1 24360:1 25603:1 25961:1 27667:1 29590:1 31751:1 32346:1 33452:1 35106:1 35534:1 36112:1 36304:1 36819:1 38411:1 41693:1 43586:1 45215:1 48681:1 49672:1 49735:1 50164:1 51606:1 52965:1 59194:1 61937:1 63607:1 63619:1 
0.16572205718110056 9:1 11:1 13:1 14:1 16:1 17:1 21:1 26:1 27:1 28:1 29:1 39:1 66:1 79:1 81:1 88:1 193:1 248:1 326:1 346:1 417:1 428:1 438:1 557:1 576:1 688:1 705:1 731:1 758:1 811:1 991:1 1218:1 1449:1 1505:1 1598:1 2442:1 3057:1 3068:1 4056:1 4301:1 5168:1 5371:1 7103:1 7342:1 9074:1 9474:1 10629:1 12043:1 13803:1 15670:1 16120:1 16709:1 20165:1 22801:1 22932:1 27981:1 29048:1 41225:1 50107:1 52165:1 52174:1 57719:1 
0.10733362996703455 11:1 12:1 13:1 14:1 15:1 16:1 17:1 21:1 22:1 23:1 26:1 27:1 28:1 29:1 31:1 39:1 67:1 68:1 80:1 81:1 83:1 248:1 268:1 303:1 338:1 396:1 421:1 423:1 461:1 571:1 602:1 615:1 626:1 638:1 641:1 696:1 697:1 698:1 725:1 778:1 812:1 817:1 866:1 876:1 970:1 1257:1 1270:1 1482:1 1509:1 1533:1 3061:1 4948:1 5241:1 5284:1 5932:1 7286:1 7742:1 7927:1 8044:1 8290:1 8320:1 8321:1 8866:1 8893:1 8922:1 10157:1 10666:1 10734:1 11095:1 11166:1 14103:1 14221:1 15992:1 16181:1 16354:1 22844:1 31677:1 32966:1 33179:1 36604:1 41984:1 44002:1 45165:1 46366:1 46539:1 46553:1 55528:1 58001:1 59737:1 59914:1 
0.051094252351522804 9:1 11:1 12:1 13:1 14:1 15:1 16:1 17:1 20:1 21:1 26:1 27:1 28:1 29:1 31:1 34:1 64:1 65:1 67:1 68:1 69:1 73:1 79:1 86:1 171:1 193:1 194:1 248:1 273:1 290:1 293:1 310:1 320:1 325:1 327:1 338:1 396:1 403:1 409:1 420:1 427:1 438:1 446:1 452:1 462:1 530:1 561:1 565:1 569:1 688:1 712:1 713:1 725:1 731:1 747:1 758:1 768:1 795:1 804:1 858:1 942:1 1156:1 1173:1 1176:1 1189:1 1257:1 1262:1 1278:1 1354:1 1449:1 1565:1 2449:1 2476:1 3044:1 3060:1 3067:1 3266:1 3487:1 3543:1 3714:1 3939:1 4018:1 4081:1 4942:1 5043:1 5218:1 5350:1 5610:1 5755:1 5954:1 6757:1 7159:1 7212:1 7242:1 9208:1 9239:1 9474:1 9713:1 10002:1 10506:1 11038:1 11562:1 13284:1 13460:1 13494:1 13576:1 14098:1 14146:1 14952:1 15670:1 16513:1 20225:1 20383:1 22834:1 22912:1 23759:1 24783:1 25596:1 27040:1 31645:1 32825:1 33549:1 34778:1 35587:1 39708:1 41488:1 41711:1 41840:1 50851:1 51039:1 52153:1 52167:1 54813:1 59454:1 60845:1 
0.0092050394144196027 9:1 10:1 11:1 12:1 13:1 14:1 16:1 17:1 22:1 23:1 24:1 26:1 27:1 28:1 39:1 50:1 61:1 63:1 64:1 66:1 69:1 76:1 79:1 189:1 193:1 216:1 248:1 290:1 309:1 321:1 325:1 327:1 342:1 357:1 403:1 423:1 462:1 593:1 607:1 620:1 663:1 688:1 694:1 697:1 710:1 724:1 725:1 731:1 748:1 758:1 783:1 791:1 991:1 1051:1 1099:1 1138:1 1173:1 1226:1 1297:1 1411:1 1466:1 2390:1 2447:1 2688:1 2705:1 3044:1 3063:1 3473:1 3693:1 3961:1 4018:1 4102:1 4253:1 4451:1 5279:1 5959:1 7582:1 7792:1 8550:1 8837:1 8912:1 9155:1 9365:1 9474:1 9770:1 10224:1 10344:1 12047:1 12425:1 12835:1 13166:1 13447:1 13865:1 14452:1 15348:1 15845:1 19812:1 20200:1 21349:1 21550:1 22862:1 25488:1 27185:1 28301:1 28847:1 29659:1 36757:1 43174:1 47578:1 48738:1 49193:1 50594:1 51611:1 52153:1 53823:1 56462:1 62468:1 63672:1 
0.011006229845095734 9:1 11:1 12:1 13:1 15:1 16:1 21:1 22:1 23:1 26:1 27:1 28:1 39:1 67:1 68:1 74:1 79:1 179:1 248:1 268:1 310:1 325:1 327:1 391:1 392:1 403:1 413:1 416:1 435:1 576:1 603:1 626:1 688:1 693:1 731:1 733:1 758:1 768:1 986:1 1252:1 1253:1 1264:1 1373:1 1451:1 2153:1 3044:1 3056:1 3075:1 3714:1 4018:1 4089:1 4856:1 4870:1 5119:1 5121:1 5160:1 5488:1 7342:1 7749:1 8044:1 8812:1 9474:1 9500:1 10000:1 12009:1 14060:1 14071:1 14188:1 15110:1 15683:1 22794:1 23021:1 25596:1 28202:1 31226:1 31353:1 32346:1 32386:1 32536:1 34207:1 44029:1 45161:1 48483:1 52180:1 52267:1 54769:1 62285:1 
0.0059939296096218715 6:1 10:1 12:1 13:1 15:1 16:1 17:1 20:1 21:1 24:1 26:1 27:1 28:1 29:1 31:1 34:1 39:1 67:1 79:1 83:1 161:1 223:1 274:1 303:1 316:1 319:1 320:1 333:1 382:1 413:1 456:1 525:1 542:1 561:1 574:1 675:1 697:1 725:1 762:1 803:1 862:1 962:1 989:1 1243:1 1445:1 1531:1 2796:1 3278:1 3860:1 3901:1 3932:1 4210:1 4741:1 5112:1 5848:1 6646:1 6961:1 7142:1 7314:1 8698:1 8920:1 9918:1 10496:1 11066:1 11815:1 12040:1 13978:1 16333:1 21892:1 23822:1 26482:1 26701:1 26992:1 28743:1 30711:1 32274:1 36160:1 39146:1 40666:1 42110:1 48182:1 49281:1 57096:1 59564:1 61675:1 62452:1 
0.001855125328591645 9:1 10:1 11:1 12:1 13:1 15:1 16:1 17:1 19:1 20:1 21:1 22:1 23:1 24:1 26:1 27:1 28:1 29:1 30:1 31:1 34:1 62:1 63:1 64:1 67:1 69:1 71:1 73:1 75:1 81:1 82:1 83:1 171:1 180:1 188:1 189:1 195:1 196:1 216:1 220:1 241:1 248:1 251:1 268:1 281:1 287:1 290:1 292:1 310:1 316:1 319:1 325:1 326:1 327:1 329:1 375:1 392:1 403:1 422:1 428:1 438:1 446:1 450:1 454:1 455:1 458:1 462:1 469:1 486:1 504:1 517:1 522:1 524:1 536:1 552:1 571:1 577:1 592:1 595:1 597:1 603:1 608:1 620:1 635:1 637:1 639:1 641:1 662:1 688:1 693:1 696:1 725:1 729:1 731:1 737:1 748:1 764:1 768:1 772:1 778:1 783:1 784:1 795:1 802:1 811:1 812:1 816:1 817:1 835:1 848:1 866:1 942:1 1116:1 1119:1 1140:1 1153:1 1170:1 1173:1 1236:1 1253:1 1297:1 1326:1 1357:1 1400:1 1506:1 1523:1 1533:1 2191:1 2364:1 2376:1 2379:1 2387:1 2391:1 2507:1 2519:1 2697:1 2704:1 2765:1 3004:1 3044:1 3062:1 3068:1 3122:1 3370:1 3384:1 3451:1 3473:1 3523:1 3714:1 3859:1 3900:1 4023:1 4026:1 4072:1 4085:1 4102:1 4139:1 4619:1 4627:1 4868:1 4887:1 5260:1 5382:1 5610:1 5699:1 5781:1 5803:1 5889:1 5954:1 5959:1 6086:1 6399:1 6612:1 6635:1 6865:1 7285:1 7379:1 7532:1 7555:1 7628:1 7657:1 7669:1 7745:1 7832:1 7841:1 8208:1 8259:1 8270:1 8296:1 8316:1 8541:1 8821:1 8828:1 8877:1 9442:1 9474:1 9584:1 9746:1 9750:1 9939:1 9986:1 9992:1 10004:1 10058:1 10067:1 10141:1 10234:1 10267:1 10471:1 10626:1 10657:1 10707:1 10745:1 10907:1 10984:1 10990:1 10992:1 11085:1 11567:1 12986:1 12993:1 13023:1 13181:1 13428:1 13447:1 13924:1 14070:1 14452:1 14671:1 14969:1 15270:1 16143:1 16287:1 16290:1 16292:1 16345:1 18527:1 19615:1 19678:1 19722:1 19794:1 19840:1 20633:1 20722:1 21435:1 21532:1 21786:1 22586:1 22853:1 22941:1 23239:1 24333:1 24619:1 24930:1 25610:1 26448:1 26695:1 27536:1 27575:1 28106:1 28176:1 28310:1 28513:1 30129:1 31343:1 31458:1 33072:1 33723:1 34779:1 35279:1 36757:1 37345:1 38281:1 39001:1 39107:1 40271:1 41978:1 42287:1 42995:1 43467:1 43619:1 43701:1 44427:1 44484:1 45879:1 46195:1 46273:1 46406:1 46497:1 47524:1 48600:1 48672:1 48935:1 51985:1 52153:1 52801:1 53634:1 53655:1 54416:1 54424:1 54632:1 54682:1 54838:1 55101:1 55961:1 56130:1 56985:1 57887:1 58465:1 59040:1 59340:1 59345:1 59655:1 60899:1 
0.019204920467940801 9:1 11:1 12:1 13:1 14:1 16:1 17:1 20:1 22:1 23:1 26:1 27:1 28:1 29:1 30:1 34:1 50:1 64:1 65:1 69:1 74:1 79:1 80:1 82:1 86:1 171:1 178:1 193:1 194:1 248:1 268:1 281:1 290:1 316:1 327:1 342:1 412:1 420:1 438:1 444:1 449:1 526:1 589:1 641:1 688:1 729:1 731:1 789:1 794:1 799:1 843:1 938:1 957:1 1060:1 1164:1 1173:1 1195:1 1278:1 1367:1 1449:1 1492:1 1521:1 1580:1 2144:1 2426:1 2460:1 3052:1 3060:1 3372:1 3473:1 3853:1 4107:1 4242:1 5089:1 5214:1 5577:1 5672:1 6690:1 7500:1 8314:1 9428:1 9474:1 10304:1 10376:1 10402:1 10959:1 11510:1 11750:1 12529:1 13363:1 13447:1 13621:1 15056:1 15670:1 16060:1 16276:1 16624:1 18321:1 20292:1 22736:1 22833:1 24261:1 26384:1 28341:1 28786:1 32803:1 34578:1 35174:1 39415:1 42675:1 52167:1 56278:1 56578:1 59254:1 61441:1 
0.024541185068982601 9:1 10:1 12:1 13:1 16:1 17:1 21:1 23:1 26:1 27:1 28:1 29:1 34:1 50:1 61:1 62:1 64:1 73:1 78:1 79:1 81:1 86:1 194:1 196:1 238:1 281:1 290:1 311:1 325:1 403:1 456:1 463:1 552:1 561:1 620:1 688:1 693:1 697:1 707:1 725:1 737:1 748:1 758:1 771:1 778:1 795:1 817:1 818:1 957:1 1060:1 1106:1 1131:1 1173:1 1353:1 1430:1 1455:1 1509:1 1580:1 2477:1 2533:1 2988:1 3388:1 3473:1 3732:1 4027:1 5832:1 5995:1 7159:1 8827:1 8898:1 9107:1 9586:1 9742:1 10037:1 10141:1 10734:1 10777:1 11747:1 12544:1 12915:1 13129:1 13447:1 14934:1 15486:1 15736:1 16181:1 16622:1 20405:1 20850:1 22540:1 24375:1 25713:1 27590:1 36993:1 41493:1 48654:1 49046:1 52827:1 58643:1 64113:1 
0.027119217824838171 9:1 10:1 11:1 12:1 13:1 14:1 15:1 16:1 17:1 20:1 21:1 23:1 24:1 26:1 27:1 28:1 29:1 30:1 50:1 61:1 64:1 67:1 68:1 69:1 73:1 76:1 79:1 82:1 177:1 182:1 194:1 216:1 248:1 273:1 290:1 316:1 325:1 368:1 369:1 392:1 403:1 423:1 438:1 452:1 455:1 462:1 517:1 557:1 626:1 641:1 673:1 688:1 698:1 701:1 712:1 725:1 731:1 737:1 768:1 795:1 843:1 848:1 1060:1 1087:1 1156:1 1173:1 1253:1 1270:1 1297:1 1350:1 1419:1 1455:1 1521:1 1523:1 2117:1 2217:1 2458:1 2703:1 3044:1 3266:1 3473:1 3478:1 3859:1 4018:1 4592:1 4876:1 5284:1 5750:1 5770:1 5803:1 5954:1 5959:1 7094:1 8044:1 8334:1 8670:1 8940:1 8993:1 9208:1 9474:1 9572:1 9583:1 9992:1 10959:1 10984:1 12529:1 12666:1 13284:1 13447:1 13452:1 14074:1 14221:1 14452:1 14899:1 15419:1 15733:1 16276:1 16287:1 18139:1 21486:1 23751:1 24738:1 26448:1 30056:1 31394:1 33179:1 35689:1 36757:1 41127:1 45151:1 46684:1 48084:1 49367:1 49707:1 50844:1 52153:1 52790:1 54682:1 59273:1 
0.017755446449996107 9:1 10:1 11:1 13:1 15:1 16:1 17:1 20:1 21:1 23:1 26:1 27:1 28:1 29:1 30:1 34:1 39:1 61:1 62:1 72:1 81:1 82:1 88:1 187:1 220:1 248:1 303:1 314:1 319:1 320:1 392:1 403:1 438:1 463:1 526:1 530:1 533:1 542:1 552:1 561:1 569:1 641:1 688:1 731:1 789:1 803:1 811:1 843:1 942:1 970:1 1097:1 1119:1 1343:1 1505:1 1521:1 1589:1 2329:1 2766:1 3044:1 3811:1 3906:1 3925:1 4870:1 6012:1 6684:1 6744:1 6800:1 6961:1 7142:1 7242:1 8314:1 9474:1 10307:1 10492:1 10640:1 10959:1 11561:1 12793:1 13024:1 14840:1 16130:1 16276:1 19338:1 21808:1 26107:1 26764:1 31353:1 37133:1 39327:1 39973:1 40665:1 41830:1 52153:1 56303:1 57065:1 57791:1 59254:1 60830:1 
0.0032240897857438483 9:1 14:1 15:1 16:1 17:1 21:1 24:1 26:1 27:1 28:1 50:1 66:1 69:1 73:1 79:1 193:1 359:1 368:1 383:1 426:1 438:1 449:1 451:1 463:1 565:1 658:1 688:1 701:1 712:1 737:1 744:1 758:1 770:1 1060:1 1232:1 1287:1 1354:1 1455:1 1462:1 2449:1 4475:1 4592:1 4761:1 5329:1 5687:1 5741:1 5994:1 7213:1 8508:1 8982:1 9201:1 9572:1 9683:1 10025:1 12529:1 13912:1 14360:1 14953:1 15726:1 15802:1 20222:1 30056:1 30814:1 33429:1 35241:1 35533:1 36985:1 41728:1 47411:1 53253:1 54922:1 
0.0042705297002318615 4:1 9:1 10:1 11:1 12:1 13:1 14:1 15:1 16:1 17:1 19:1 20:1 21:1 22:1 23:1 24:1 26:1 27:1 28:1 29:1 31:1 34:1 39:1 50:1 64:1 65:1 66:1 67:1 68:1 69:1 73:1 74:1 83:1 137:1 180:1 208:1 216:1 236:1 248:1 281:1 290:1 298:1 299:1 303:1 311:1 316:1 321:1 325:1 327:1 355:1 360:1 369:1 379:1 391:1 409:1 428:1 438:1 445:1 448:1 452:1 457:1 458:1 462:1 469:1 508:1 537:1 561:1 585:1 587:1 592:1 597:1 599:1 603:1 625:1 637:1 641:1 643:1 673:1 688:1 697:1 698:1 701:1 711:1 712:1 713:1 718:1 731:1 748:1 758:1 765:1 772:1 781:1 812:1 866:1 946:1 964:1 970:1 980:1 985:1 1053:1 1164:1 1173:1 1181:1 1203:1 1228:1 1252:1 1262:1 1292:1 1353:1 1373:1 1533:1 1969:1 2186:1 2705:1 2953:1 3068:1 3375:1 3392:1 3477:1 3605:1 3606:1 3732:1 3845:1 3954:1 4018:1 4028:1 4042:1 4100:1 4426:1 4516:1 4688:1 4861:1 5050:1 5371:1 5583:1 5643:1 5664:1 5754:1 5770:1 5857:1 5859:1 5899:1 5976:1 6090:1 6462:1 6884:1 7147:1 7474:1 7560:1 7651:1 7693:1 7748:1 7762:1 8039:1 8259:1 8333:1 8372:1 8670:1 8903:1 8932:1 8993:1 9177:1 9201:1 9246:1 9323:1 9474:1 9762:1 9954:1 10075:1 10186:1 10192:1 10657:1 10663:1 11087:1 11630:1 11834:1 11917:1 11988:1 12456:1 13366:1 13451:1 13535:1 13690:1 13878:1 14065:1 14152:1 14408:1 14926:1 15121:1 16347:1 17781:1 18509:1 21548:1 22437:1 22932:1 24271:1 24393:1 24728:1 25186:1 25716:1 27612:1 27838:1 28274:1 29545:1 29850:1 30462:1 31294:1 31939:1 35114:1 35574:1 35705:1 36193:1 36477:1 36889:1 37360:1 38549:1 40371:1 41396:1 42504:1 43034:1 43586:1 43804:1 44028:1 44121:1 45142:1 46185:1 46672:1 46921:1 48084:1 49107:1 49330:1 49697:1 49707:1 50683:1 51093:1 51434:1 52174:1 53765:1 54532:1 55182:1 55661:1 55721:1 57908:1 57979:1 59663:1 61084:1 61724:1 61950:1 62195:1 
0.016194406549521236 9:1 11:1 12:1 13:1 14:1 15:1 16:1 17:1 19:1 20:1 21:1 22:1 23:1 26:1 27:1 28:1 29:1 30:1 31:1 34:1 50:1 64:1 65:1 66:1 67:1 68:1 71:1 79:1 81:1 82:1 86:1 171:1 194:1 248:1 268:1 273:1 290:1 310:1 316:1 320:1 325:1 326:1 327:1 350:1 360:1 364:1 369:1 389:1 409:1 420:1 428:1 437:1 450:1 455:1 457:1 462:1 498:1 509:1 526:1 536:1 552:1 561:1 592:1 593:1 602:1 608:1 631:1 636:1 641:1 688:1 701:1 725:1 731:1 737:1 747:1 758:1 768:1 804:1 812:1 843:1 882:1 946:1 959:1 1052:1 1061:1 1067:1 1156:1 1173:1 1195:1 1204:1 1228:1 1250:1 1277:1 1320:1 1329:1 1449:1 1506:1 1521:1 1582:1 2476:1 3049:1 3060:1 3068:1 3266:1 3481:1 3714:1 3861:1 3925:1 4018:1 4051:1 4089:1 4362:1 4509:1 4537:1 4838:1 5043:1 5214:1 5371:1 5533:1 5694:1 5818:1 5865:1 5975:1 6341:1 6492:1 6674:1 6860:1 7161:1 7532:1 7578:1 7736:1 7824:1 8147:1 8228:1 8314:1 9003:1 9474:1 9581:1 9713:1 9724:1 10000:1 10528:1 10657:1 10666:1 10959:1 11224:1 11624:1 11785:1 12443:1 12558:1 12617:1 13284:1 13455:1 13626:1 13708:1 13872:1 14048:1 14302:1 14631:1 14702:1 15670:1 16143:1 16276:1 16652:1 20383:1 22700:1 22833:1 22932:1 23759:1 24756:1 25615:1 26493:1 28202:1 29282:1 29829:1 29915:1 31159:1 32793:1 34423:1 36010:1 36257:1 36865:1 38060:1 38630:1 39262:1 40243:1 41529:1 43147:1 43971:1 45618:1 45983:1 49788:1 52157:1 52167:1 52760:1 53489:1 54769:1 57326:1 57887:1 57999:1 59254:1 60102:1 61051:1 61610:1 63766:1 64186:1 64350:1 
0.099366107599451636 9:1 10:1 11:1 13:1 15:1 16:1 17:1 20:1 21:1 22:1 27:1 28:1 31:1 34:1 39:1 61:1 74:1 80:1 86:1 182:1 188:1 223:1 248:1 316:1 369:1 428:1 450:1 455:1 462:1 530:1 544:1 552:1 615:1 725:1 731:1 764:1 768:1 866:1 946:1 975:1 1098:1 1382:1 1478:1 1569:1 2217:1 2346:1 2791:1 3068:1 3859:1 5375:1 5694:1 5826:1 5954:1 5959:1 6755:1 6985:1 7929:1 9474:1 9933:1 9992:1 11096:1 11634:1 11872:1 12802:1 15148:1 15947:1 16558:1 21869:1 22934:1 26465:1 33660:1 36053:1 36757:1 39685:1 40801:1 44843:1 52174:1 54344:1 54682:1 59744:1 61109:1 61807:1 
