svm_type c_svc
kernel_type linear
nr_class 2
total_sv 3441
rho -1.1293915248322013
label 0 1
probA -1.066673337048696
probB -0.51092159815227778
nr_sv 2085 1356
SV
0.010673036883600115 1:1 2:1 3:1 4:1 5:1 7:1 8:1 9:1 12:1 13:1 14:1 15:1 18:1 19:1 21:1 29:1 47:1 48:1 51:1 53:1 62:1 95:1 106:1 139:1 147:1 177:1 184:1 238:1 239:1 250:1 256:1 271:1 285:1 287:1 304:1 309:1 313:1 317:1 323:1 403:1 413:1 453:1 479:1 544:1 573:1 579:1 641:1 762:1 989:1 992:1 1046:1 1054:1 1059:1 1096:1 1100:1 1232:1 1615:1 2020:1 2034:1 2036:1 2082:1 2415:1 3019:1 3154:1 3226:1 3480:1 3517:1 3750:1 3817:1 3890:1 3989:1 4673:1 5079:1 6013:1 6384:1 6454:1 7035:1 7963:1 9189:1 9214:1 9579:1 9664:1 9717:1 9961:1 9992:1 10809:1 12581:1 14027:1 14060:1 17515:1 18078:1 18342:1 19336:1 20181:1 21167:1 23018:1 27218:1 28447:1 28460:1 28767:1 33460:1 
0.18523430731680274 1:1 2:1 3:1 4:1 5:1 8:1 9:1 14:1 15:1 18:1 20:1 22:1 32:1 46:1 48:1 49:1 52:1 63:1 65:1 72:1 90:1 95:1 111:1 139:1 147:1 177:1 180:1 185:1 271:1 272:1 285:1 304:1 446:1 479:1 493:1 496:1 554:1 610:1 620:1 675:1 796:1 973:1 992:1 1007:1 1070:1 1257:1 1287:1 1360:1 1525:1 1609:1 1806:1 2020:1 2034:1 2090:1 2349:1 2439:1 3347:1 3351:1 3493:1 5504:1 5518:1 5555:1 6177:1 6721:1 6848:1 7387:1 8125:1 9063:1 9222:1 9795:1 10979:1 11181:1 11532:1 13239:1 14036:1 14320:1 15000:1 15400:1 18660:1 18696:1 19215:1 25569:1 25744:1 27783:1 30017:1 33839:1 
0.20688997966129707 1:1 4:1 5:1 7:1 8:1 9:1 11:1 14:1 15:1 18:1 19:1 20:1 29:1 45:1 48:1 49:1 51:1 52:1 55:1 58:1 82:1 98:1 99:1 151:1 195:1 238:1 239:1 245:1 262:1 295:1 304:1 318:1 372:1 453:1 470:1 479:1 535:1 570:1 585:1 605:1 743:1 752:1 761:1 766:1 966:1 993:1 1022:1 1046:1 1050:1 1078:1 1129:1 1171:1 1422:1 1652:1 1688:1 2136:1 2625:1 3010:1 3096:1 3299:1 3615:1 3916:1 4353:1 5079:1 5289:1 6508:1 7834:1 7953:1 7987:1 9017:1 9243:1 9440:1 9572:1 9629:1 9869:1 10161:1 10473:1 11764:1 12887:1 14505:1 17485:1 17906:1 18566:1 19791:1 20922:1 22088:1 24881:1 
0.19889810913698183 1:1 3:1 4:1 5:1 7:1 8:1 9:1 11:1 12:1 14:1 15:1 16:1 18:1 19:1 20:1 22:1 26:1 36:1 48:1 51:1 55:1 65:1 74:1 81:1 82:1 95:1 99:1 139:1 147:1 177:1 194:1 239:1 246:1 272:1 289:1 307:1 309:1 316:1 361:1 379:1 387:1 469:1 479:1 507:1 517:1 535:1 570:1 588:1 605:1 672:1 675:1 710:1 857:1 992:1 1046:1 1051:1 1123:1 1286:1 1287:1 1382:1 1407:1 1629:1 1689:1 2038:1 2082:1 2593:1 3019:1 3102:1 3340:1 3537:1 3725:1 3758:1 3874:1 4269:1 4392:1 4488:1 5266:1 5665:1 5758:1 6548:1 7373:1 7377:1 7387:1 7587:1 8409:1 9214:1 9579:1 9635:1 10123:1 11170:1 11174:1 11181:1 11584:1 12667:1 12890:1 14079:1 17520:1 17914:1 18626:1 20096:1 20223:1 20767:1 21885:1 22203:1 22500:1 24803:1 26352:1 31706:1 31716:1 34355:1 
0.078243960340882629 1:1 2:1 5:1 7:1 8:1 9:1 12:1 14:1 19:1 23:1 29:1 49:1 51:1 66:1 81:1 82:1 95:1 120:1 177:1 189:1 246:1 256:1 272:1 311:1 318:1 323:1 403:1 455:1 464:1 570:1 579:1 684:1 745:1 1007:1 1017:1 1051:1 1294:1 1407:1 1420:1 1624:1 1891:1 2517:1 3102:1 3217:1 3340:1 3802:1 3918:1 3986:1 4661:1 5112:1 5120:1 5205:1 6458:1 7417:1 7797:1 9395:1 9635:1 11204:1 11748:1 12642:1 13612:1 15747:1 17914:1 18626:1 20420:1 20942:1 22976:1 24358:1 24394:1 24617:1 28804:1 31827:1 32853:1 
0.12991761190554982 1:1 3:1 4:1 5:1 7:1 8:1 9:1 12:1 13:1 14:1 15:1 18:1 19:1 20:1 22:1 29:1 39:1 57:1 58:1 62:1 65:1 100:1 139:1 142:1 151:1 177:1 238:1 289:1 304:1 311:1 318:1 387:1 396:1 418:1 447:1 450:1 490:1 547:1 573:1 579:1 629:1 637:1 675:1 757:1 901:1 907:1 1148:1 1165:1 1235:1 1287:1 1723:1 2038:1 2131:1 3560:1 3786:1 3913:1 4485:1 4594:1 4774:1 5008:1 5020:1 5029:1 5454:1 6057:1 6384:1 6458:1 6961:1 7022:1 7393:1 7895:1 8689:1 8745:1 10300:1 10418:1 10836:1 11185:1 13007:1 14102:1 14477:1 19551:1 20888:1 22821:1 23933:1 24006:1 25312:1 27408:1 28464:1 28800:1 30427:1 30556:1 31744:1 33172:1 34951:1 35099:1 
0.049711101370478454 1:1 5:1 6:1 7:1 9:1 11:1 12:1 14:1 15:1 18:1 20:1 26:1 50:1 53:1 82:1 88:1 93:1 104:1 177:1 189:1 194:1 206:1 243:1 318:1 319:1 355:1 379:1 383:1 389:1 447:1 465:1 492:1 535:1 549:1 610:1 714:1 1029:1 1097:1 1413:1 1418:1 1501:1 1568:1 1574:1 1762:1 2495:1 2593:1 2607:1 2746:1 3054:1 3927:1 3940:1 4224:1 4379:1 4431:1 4518:1 4993:1 5010:1 5223:1 5481:1 6087:1 6736:1 7640:1 9471:1 9980:1 11677:1 11715:1 12098:1 12356:1 12393:1 13125:1 15611:1 16205:1 16750:1 17672:1 20988:1 21019:1 21754:1 22137:1 22636:1 23860:1 23938:1 24674:1 25384:1 27502:1 29636:1 32530:1 
0.02345047739052751 1:1 2:1 3:1 4:1 5:1 8:1 15:1 18:1 20:1 23:1 46:1 66:1 84:1 111:1 139:1 147:1 177:1 196:1 289:1 493:1 496:1 536:1 539:1 605:1 610:1 622:1 688:1 973:1 1297:1 1453:1 1821:1 2038:1 2082:1 2652:1 2663:1 3541:1 5518:1 5541:1 5879:1 5918:1 6738:1 6860:1 7480:1 9077:1 11256:1 11967:1 13387:1 14083:1 16511:1 19431:1 25556:1 25655:1 26621:1 26817:1 29659:1 30057:1 32090:1 
0.084322282636435861 4:1 5:1 6:1 7:1 8:1 9:1 12:1 13:1 14:1 15:1 18:1 20:1 29:1 32:1 48:1 51:1 52:1 53:1 57:1 58:1 142:1 147:1 177:1 194:1 196:1 220:1 243:1 244:1 295:1 304:1 317:1 322:1 385:1 387:1 413:1 418:1 422:1 425:1 426:1 470:1 472:1 490:1 535:1 540:1 605:1 756:1 797:1 992:1 1049:1 1078:1 1096:1 1150:1 1171:1 1173:1 2098:1 2593:1 2598:1 2652:1 2869:1 3056:1 3064:1 3610:1 3900:1 3960:1 4467:1 4485:1 4788:1 4831:1 4844:1 4851:1 5292:1 5309:1 5447:1 5937:1 7877:1 7885:1 8126:1 9229:1 9609:1 9865:1 9966:1 10326:1 10474:1 10485:1 14378:1 16096:1 17127:1 17702:1 17743:1 19756:1 20849:1 22461:1 23329:1 23453:1 23496:1 23513:1 24891:1 24931:1 25269:1 33150:1 
0.14166359802297174 1:1 3:1 4:1 5:1 7:1 8:1 9:1 13:1 14:1 15:1 16:1 18:1 19:1 20:1 39:1 48:1 53:1 57:1 58:1 62:1 81:1 88:1 90:1 99:1 100:1 139:1 143:1 157:1 194:1 238:1 271:1 304:1 323:1 418:1 429:1 447:1 479:1 505:1 535:1 570:1 571:1 573:1 603:1 614:1 898:1 991:1 994:1 1086:1 1100:1 1148:1 1165:1 1231:1 1251:1 1496:1 1525:1 1676:1 1705:1 2020:1 2055:1 2067:1 2166:1 2593:1 3989:1 4788:1 4881:1 5000:1 5659:1 6359:1 6384:1 6687:1 6797:1 8657:1 9200:1 9210:1 9251:1 9992:1 10309:1 10412:1 10799:1 10926:1 12948:1 14254:1 21167:1 23329:1 23600:1 23882:1 26067:1 28354:1 28447:1 29407:1 29877:1 34852:1 
0.082485284652341589 3:1 4:1 5:1 6:1 7:1 8:1 9:1 11:1 12:1 13:1 14:1 15:1 16:1 18:1 19:1 20:1 21:1 29:1 36:1 48:1 53:1 55:1 62:1 139:1 142:1 147:1 151:1 166:1 177:1 190:1 225:1 238:1 289:1 300:1 304:1 313:1 316:1 318:1 366:1 378:1 413:1 450:1 451:1 453:1 479:1 492:1 493:1 508:1 535:1 550:1 573:1 579:1 585:1 614:1 652:1 759:1 857:1 992:1 993:1 998:1 1086:1 1126:1 1232:1 1235:1 1238:1 2038:1 2049:1 2094:1 2124:1 2263:1 2524:1 2939:1 3545:1 3664:1 3827:1 3865:1 3913:1 4301:1 5020:1 5046:1 5079:1 5485:1 5516:1 5697:1 6117:1 6384:1 6458:1 6508:1 6789:1 7196:1 7916:1 8407:1 9226:1 9235:1 9304:1 10144:1 10809:1 10836:1 10846:1 14087:1 14188:1 14343:1 14810:1 17312:1 19457:1 19912:1 20539:1 20888:1 21985:1 25404:1 25541:1 26174:1 27618:1 28464:1 28473:1 28800:1 29834:1 31088:1 34353:1 
0.026472523212718882 1:1 3:1 4:1 5:1 6:1 7:1 8:1 9:1 10:1 12:1 14:1 15:1 18:1 19:1 20:1 21:1 22:1 23:1 29:1 39:1 47:1 48:1 49:1 51:1 52:1 58:1 62:1 64:1 65:1 81:1 95:1 139:1 142:1 166:1 177:1 184:1 191:1 194:1 196:1 205:1 238:1 243:1 262:1 272:1 280:1 282:1 287:1 304:1 309:1 313:1 319:1 324:1 339:1 379:1 383:1 446:1 450:1 455:1 466:1 479:1 492:1 493:1 501:1 535:1 544:1 554:1 573:1 579:1 585:1 617:1 623:1 625:1 637:1 645:1 652:1 655:1 675:1 687:1 743:1 750:1 903:1 989:1 990:1 998:1 1019:1 1062:1 1073:1 1170:1 1235:1 1238:1 1272:1 1277:1 1287:1 1612:1 2021:1 2031:1 2036:1 2254:1 2415:1 2544:1 2612:1 2666:1 3037:1 3290:1 3339:1 3432:1 3447:1 3517:1 3750:1 3760:1 3817:1 3941:1 4019:1 4133:1 4389:1 4447:1 5020:1 5118:1 5249:1 5480:1 5516:1 5629:1 6013:1 6199:1 6384:1 6454:1 6523:1 6815:1 6875:1 6926:1 7019:1 7084:1 7193:1 7198:1 7230:1 7387:1 7469:1 7819:1 8715:1 9183:1 9189:1 9297:1 9405:1 9744:1 9827:1 10464:1 10833:1 10861:1 11051:1 11095:1 11181:1 12549:1 13903:1 13998:1 14060:1 16291:1 16544:1 18536:1 19026:1 19055:1 19336:1 20181:1 20255:1 21026:1 21312:1 21576:1 22184:1 22396:1 24391:1 24767:1 25537:1 25993:1 27218:1 27888:1 28457:1 28767:1 28987:1 29928:1 30155:1 30317:1 30548:1 31066:1 31105:1 32056:1 32904:1 35015:1 
0.031274486345763138 3:1 4:1 5:1 7:1 8:1 9:1 12:1 14:1 32:1 49:1 58:1 139:1 142:1 186:1 250:1 271:1 307:1 311:1 387:1 472:1 797:1 812:1 1015:1 1173:1 2020:1 2458:1 3149:1 3725:1 3796:1 4488:1 5311:1 8126:1 8209:1 9382:1 10487:1 15474:1 18046:1 20085:1 20395:1 22500:1 24934:1 33967:1 
0.064919877559014655 1:1 2:1 3:1 5:1 6:1 7:1 8:1 9:1 12:1 14:1 15:1 18:1 19:1 20:1 21:1 23:1 29:1 45:1 46:1 51:1 66:1 83:1 111:1 128:1 139:1 177:1 182:1 183:1 194:1 195:1 196:1 210:1 245:1 257:1 258:1 262:1 289:1 304:1 309:1 311:1 318:1 387:1 455:1 479:1 493:1 547:1 573:1 605:1 614:1 644:1 685:1 688:1 743:1 766:1 953:1 973:1 1050:1 1060:1 1297:1 1450:1 1809:1 1960:1 2038:1 2387:1 2398:1 2605:1 2628:1 2652:1 2777:1 3096:1 3249:1 3257:1 3299:1 3545:1 3744:1 3803:1 3918:1 4499:1 5110:1 5504:1 6057:1 6384:1 6782:1 6788:1 7079:1 7433:1 7480:1 7987:1 8897:1 9066:1 9629:1 9724:1 11256:1 11940:1 13262:1 13791:1 14087:1 15146:1 15198:1 16185:1 16368:1 16867:1 17906:1 18421:1 18441:1 18566:1 19456:1 20446:1 20941:1 22579:1 24344:1 27416:1 28464:1 29826:1 30719:1 31898:1 32084:1 
0.051259404282371496 1:1 2:1 3:1 4:1 5:1 7:1 8:1 13:1 14:1 18:1 19:1 20:1 39:1 45:1 46:1 48:1 51:1 81:1 82:1 95:1 107:1 111:1 139:1 147:1 177:1 190:1 194:1 238:1 239:1 243:1 256:1 289:1 413:1 453:1 477:1 542:1 573:1 606:1 887:1 951:1 972:1 992:1 1059:1 1420:1 1615:1 1634:1 1778:1 1819:1 2038:1 2094:1 2524:1 2600:1 3019:1 3037:1 3220:1 3538:1 5079:1 5082:1 5337:1 5978:1 6384:1 6704:1 8563:1 9046:1 9226:1 9715:1 11756:1 12581:1 12583:1 12684:1 13147:1 13350:1 14080:1 14343:1 16125:1 17515:1 18308:1 19404:1 24222:1 24986:1 27079:1 28464:1 29466:1 34650:1 
0.0313583686625434 1:1 3:1 4:1 5:1 6:1 7:1 8:1 9:1 12:1 13:1 14:1 15:1 19:1 20:1 21:1 48:1 51:1 52:1 57:1 58:1 62:1 81:1 82:1 139:1 142:1 143:1 177:1 196:1 210:1 246:1 272:1 276:1 282:1 308:1 393:1 418:1 455:1 461:1 479:1 499:1 573:1 605:1 645:1 990:1 991:1 1051:1 1071:1 1148:1 1167:1 1169:1 1232:1 1407:1 2031:1 2056:1 2652:1 2762:1 3102:1 3340:1 3393:1 3451:1 3726:1 4573:1 4774:1 5109:1 5168:1 5609:1 6384:1 7089:1 9201:1 9635:1 9813:1 10300:1 10434:1 10446:1 10809:1 14001:1 14215:1 17914:1 18626:1 18905:1 19086:1 22791:1 24340:1 25928:1 28457:1 30755:1 
0.016011090859960071 1:1 3:1 4:1 5:1 7:1 8:1 9:1 13:1 14:1 18:1 19:1 20:1 23:1 32:1 45:1 48:1 51:1 52:1 58:1 66:1 94:1 99:1 139:1 142:1 143:1 177:1 182:1 196:1 243:1 245:1 271:1 276:1 322:1 323:1 413:1 472:1 554:1 570:1 573:1 589:1 614:1 623:1 686:1 797:1 962:1 991:1 1050:1 1071:1 1173:1 1296:1 1590:1 1676:1 2020:1 2067:1 2372:1 2664:1 3042:1 3079:1 3393:1 3979:1 3989:1 5309:1 6189:1 6384:1 6582:1 6797:1 6872:1 6890:1 7460:1 8126:1 8960:1 9210:1 9619:1 9813:1 10485:1 11242:1 14254:1 16521:1 17592:1 17805:1 18913:1 21137:1 21167:1 24931:1 27858:1 28447:1 29178:1 29877:1 30206:1 32023:1 
0.02334232305568722 3:1 5:1 7:1 8:1 9:1 13:1 16:1 18:1 19:1 20:1 23:1 26:1 36:1 39:1 40:1 49:1 51:1 57:1 67:1 74:1 139:1 177:1 238:1 256:1 276:1 286:1 289:1 311:1 317:1 323:1 422:1 426:1 532:1 554:1 570:1 573:1 588:1 605:1 614:1 699:1 726:1 852:1 902:1 917:1 922:1 1007:1 1059:1 1150:1 1324:1 1379:1 2025:1 2035:1 2038:1 3220:1 3376:1 3514:1 3545:1 3786:1 3900:1 3986:1 4001:1 4825:1 4832:1 4854:1 5872:1 6173:1 6384:1 6551:1 6793:1 7558:1 7719:1 8362:1 8700:1 8782:1 8805:1 9715:1 10327:1 11396:1 11578:1 13935:1 14057:1 14087:1 18308:1 19317:1 19461:1 20850:1 21227:1 23417:1 23460:1 23520:1 26594:1 28451:1 28461:1 28464:1 29070:1 29860:1 32312:1 32719:1 34242:1 34981:1 35162:1 35201:1 
0.093846015571699679 1:1 3:1 4:1 5:1 7:1 8:1 9:1 10:1 12:1 13:1 14:1 15:1 18:1 19:1 20:1 21:1 22:1 32:1 33:1 36:1 40:1 48:1 49:1 51:1 54:1 58:1 62:1 65:1 95:1 139:1 142:1 147:1 151:1 177:1 191:1 194:1 195:1 239:1 243:1 280:1 304:1 318:1 323:1 346:1 351:1 393:1 442:1 446:1 450:1 453:1 466:1 472:1 493:1 496:1 540:1 547:1 548:1 570:1 573:1 579:1 599:1 605:1 639:1 670:1 804:1 809:1 814:1 850:1 865:1 910:1 922:1 992:1 1022:1 1046:1 1114:1 1118:1 1170:1 1173:1 1235:1 1247:1 1285:1 1615:1 2029:1 2095:1 2140:1 2544:1 2605:1 2606:1 2625:1 3019:1 3037:1 3415:1 3913:1 3989:1 4172:1 4194:1 4567:1 4974:1 5020:1 5082:1 5241:1 5310:1 5518:1 5542:1 5937:1 6058:1 6084:1 6384:1 6458:1 6664:1 7364:1 8164:1 8190:1 8341:1 8467:1 8755:1 8802:1 9227:1 9440:1 9579:1 10065:1 10082:1 10460:1 10486:1 10836:1 10908:1 11164:1 12583:1 13969:1 14352:1 14524:1 16186:1 16202:1 17515:1 20888:1 21167:1 21670:1 22768:1 23812:1 24222:1 24933:1 25557:1 25660:1 27420:1 27492:1 28455:1 28800:1 29360:1 31673:1 31674:1 33897:1 34181:1 34466:1 35132:1 35192:1 
0.082787101821114012 4:1 5:1 6:1 7:1 9:1 12:1 14:1 15:1 18:1 19:1 22:1 23:1 26:1 39:1 48:1 50:1 51:1 62:1 67:1 142:1 147:1 177:1 182:1 194:1 198:1 214:1 217:1 243:1 256:1 304:1 313:1 318:1 322:1 329:1 411:1 450:1 479:1 484:1 493:1 535:1 550:1 579:1 675:1 685:1 714:1 726:1 892:1 907:1 992:1 1033:1 1059:1 1235:1 1324:1 2101:1 2372:1 2608:1 2694:1 2838:1 2854:1 3054:1 3226:1 3817:1 3831:1 3913:1 3960:1 4071:1 4734:1 5020:1 5384:1 5504:1 6108:1 6454:1 6458:1 7396:1 7433:1 7635:1 7712:1 8610:1 8739:1 9232:1 9504:1 9717:1 10836:1 11389:1 14424:1 16219:1 16611:1 17050:1 17103:1 17685:1 18342:1 20575:1 20888:1 21468:1 23146:1 25116:1 27569:1 28767:1 28800:1 31760:1 31891:1 32514:1 32693:1 34764:1 35067:1 
0.97721587267464727 1:1 2:1 4:1 5:1 7:1 8:1 9:1 14:1 18:1 19:1 20:1 36:1 45:1 48:1 51:1 52:1 53:1 58:1 62:1 81:1 83:1 111:1 142:1 151:1 172:1 177:1 182:1 194:1 256:1 272:1 304:1 308:1 455:1 535:1 554:1 575:1 579:1 605:1 858:1 953:1 993:1 1003:1 1059:1 1070:1 1086:1 1167:1 1234:1 1235:1 1434:1 1819:1 2124:1 2300:1 2372:1 2593:1 3222:1 3339:1 3726:1 5109:1 6173:1 6391:1 6395:1 6447:1 8423:1 8883:1 9235:1 9334:1 9716:1 9784:1 10434:1 10811:1 10827:1 11860:1 13343:1 14867:1 18314:1 24340:1 28502:1 34384:1 
0.041594650439447635 1:1 3:1 4:1 5:1 6:1 7:1 8:1 9:1 13:1 16:1 18:1 19:1 20:1 21:1 26:1 29:1 48:1 49:1 57:1 61:1 62:1 64:1 99:1 139:1 143:1 177:1 201:1 221:1 238:1 289:1 304:1 307:1 311:1 323:1 433:1 505:1 544:1 570:1 575:1 579:1 588:1 596:1 614:1 645:1 656:1 705:1 750:1 766:1 991:1 1028:1 1154:1 1220:1 1244:1 1272:1 1683:1 1689:1 2038:1 2067:1 2712:1 2878:1 3545:1 3725:1 3786:1 3986:1 4922:1 5658:1 6011:1 6391:1 6447:1 6462:1 6553:1 6648:1 6788:1 7097:1 7260:1 7818:1 7992:1 9210:1 9462:1 10352:1 10728:1 10893:1 11061:1 12878:1 12894:1 14087:1 14257:1 17155:1 19456:1 20096:1 23689:1 26066:1 27206:1 28814:1 29073:1 29336:1 29819:1 30808:1 31341:1 33537:1 
0.37428119232839596 2:1 3:1 4:1 5:1 6:1 7:1 8:1 9:1 10:1 14:1 15:1 18:1 19:1 20:1 21:1 22:1 23:1 26:1 36:1 39:1 46:1 48:1 50:1 51:1 53:1 54:1 64:1 65:1 67:1 115:1 139:1 142:1 147:1 177:1 194:1 222:1 256:1 289:1 304:1 313:1 324:1 350:1 450:1 453:1 479:1 499:1 535:1 550:1 573:1 579:1 605:1 610:1 639:1 652:1 675:1 697:1 726:1 852:1 899:1 975:1 992:1 1035:1 1059:1 1086:1 1117:1 1277:1 1287:1 1324:1 1848:1 2038:1 2082:1 2098:1 2593:1 2890:1 3220:1 3226:1 3537:1 3817:1 4014:1 4189:1 5020:1 5094:1 5603:1 6122:1 6384:1 6454:1 6721:1 7193:1 7387:1 7536:1 7718:1 8363:1 8665:1 9084:1 9214:1 9229:1 9518:1 9717:1 10077:1 11095:1 11181:1 11395:1 14079:1 14373:1 17197:1 18308:1 18342:1 21273:1 21664:1 24294:1 27649:1 28464:1 28767:1 31066:1 32261:1 32715:1 34249:1 34883:1 
0.039019004936698784 1:1 3:1 4:1 5:1 7:1 8:1 9:1 10:1 12:1 13:1 15:1 18:1 19:1 20:1 22:1 26:1 29:1 48:1 54:1 62:1 63:1 65:1 69:1 84:1 90:1 104:1 139:1 151:1 177:1 195:1 243:1 271:1 280:1 285:1 304:1 309:1 311:1 343:1 379:1 387:1 413:1 479:1 491:1 547:1 573:1 575:1 588:1 606:1 675:1 706:1 755:1 759:1 993:1 1112:1 1232:1 1253:1 1287:1 1342:1 1453:1 1525:1 1758:1 2020:1 2029:1 2034:1 2129:1 2642:1 3037:1 3420:1 3480:1 3744:1 3759:1 3789:1 4164:1 4385:1 4492:1 5463:1 6057:1 6384:1 6391:1 6553:1 6710:1 7394:1 7570:1 7865:1 7926:1 9238:1 10059:1 10809:1 10940:1 11186:1 11455:1 11952:1 13111:1 13974:1 14027:1 14467:1 16425:1 18955:1 20247:1 20352:1 21630:1 22162:1 22527:1 27412:1 28455:1 28460:1 29073:1 29506:1 31749:1 32339:1 33065:1 33339:1 
0.050681837311638521 1:1 3:1 5:1 7:1 8:1 9:1 12:1 13:1 16:1 19:1 20:1 21:1 53:1 63:1 94:1 99:1 101:1 139:1 177:1 189:1 256:1 272:1 276:1 311:1 313:1 379:1 429:1 507:1 573:1 606:1 610:1 657:1 1094:1 1253:1 1601:1 1679:1 1739:1 2021:1 2025:1 2495:1 3220:1 3357:1 3387:1 3802:1 3823:1 4388:1 4882:1 5665:1 6384:1 6707:1 6721:1 7281:1 9944:1 10938:1 12513:1 12857:1 13069:1 13918:1 13944:1 15616:1 18308:1 18742:1 18838:1 20423:1 20521:1 22181:1 23601:1 28448:1 28451:1 29484:1 31423:1 
1 4:1 5:1 8:1 19:1 20:1 29:1 48:1 49:1 52:1 166:1 195:1 196:1 276:1 570:1 605:1 743:1 998:1 1022:1 1071:1 2254:1 2625:1 2652:1 3393:1 9297:1 9440:1 9813:1 18905:1 
0.06209676803441206 3:1 5:1 8:1 9:1 14:1 18:1 20:1 23:1 29:1 36:1 47:1 49:1 52:1 69:1 139:1 177:1 194:1 196:1 276:1 300:1 324:1 451:1 535:1 540:1 557:1 605:1 610:1 686:1 759:1 766:1 856:1 989:1 1021:1 1071:1 1349:1 2049:1 2598:1 2615:1 2652:1 3393:1 3663:1 4014:1 5046:1 5937:1 6227:1 6736:1 7462:1 7916:1 7997:1 8397:1 9196:1 9436:1 9813:1 11511:1 14187:1 16096:1 16308:1 18905:1 19907:1 21281:1 28005:1 29628:1 32036:1 33575:1 34314:1 
0.13881043797392437 1:1 2:1 3:1 5:1 7:1 8:1 9:1 12:1 13:1 18:1 19:1 20:1 26:1 36:1 39:1 45:1 51:1 57:1 77:1 93:1 111:1 139:1 194:1 238:1 247:1 255:1 289:1 311:1 324:1 383:1 390:1 422:1 535:1 558:1 566:1 573:1 605:1 610:1 735:1 859:1 865:1 887:1 892:1 907:1 961:1 1058:1 1150:1 1396:1 1575:1 1819:1 2038:1 2593:1 2616:1 3120:1 3213:1 3541:1 3786:1 4010:1 4447:1 4530:1 4833:1 6255:1 6319:1 6384:1 6736:1 7769:1 8426:1 8472:1 8563:1 8612:1 8739:1 8951:1 9710:1 10328:1 11611:1 12397:1 13365:1 14083:1 16330:1 17968:1 18279:1 19429:1 22379:1 22671:1 23461:1 28086:1 28245:1 28464:1 29623:1 32808:1 34390:1 34493:1 34650:1 34778:1 35068:1 
0.033843128881607676 3:1 4:1 5:1 6:1 7:1 8:1 9:1 13:1 14:1 15:1 18:1 19:1 20:1 21:1 26:1 39:1 47:1 48:1 49:1 51:1 52:1 53:1 57:1 58:1 62:1 139:1 142:1 147:1 177:1 194:1 195:1 196:1 236:1 244:1 276:1 280:1 285:1 290:1 304:1 308:1 324:1 418:1 422:1 455:1 461:1 479:1 493:1 499:1 535:1 540:1 570:1 585:1 605:1 642:1 661:1 705:1 901:1 907:1 989:1 992:1 1022:1 1049:1 1071:1 1076:1 1086:1 1148:1 1150:1 1167:1 1169:1 1230:1 2029:1 2039:1 2082:1 2098:1 2593:1 2625:1 2639:1 2652:1 3003:1 3072:1 3393:1 3415:1 3498:1 3572:1 3726:1 4010:1 4774:1 4833:1 5109:1 5168:1 5504:1 5623:1 5954:1 6517:1 7049:1 7324:1 8684:1 8745:1 9190:1 9214:1 9229:1 9440:1 9444:1 9616:1 9813:1 9848:1 10300:1 10328:1 10434:1 10446:1 13969:1 14113:1 14373:1 16409:1 17466:1 17778:1 18905:1 19251:1 19598:1 23461:1 24340:1 25976:1 27005:1 28966:1 30604:1 34931:1 35095:1 
1 1:1 4:1 19:1 48:1 99:1 143:1 570:1 588:1 991:1 1689:1 2067:1 6548:1 9210:1 12890:1 14259:1 
1 1:1 3:1 4:1 8:1 10:1 15:1 19:1 32:1 48:1 54:1 72:1 99:1 139:1 143:1 271:1 341:1 479:1 570:1 573:1 808:1 991:1 1110:1 1365:1 1676:1 2020:1 2067:1 4140:1 6384:1 8186:1 9210:1 10037:1 11545:1 14254:1 28447:1 33941:1 
0.12888647263385219 1:1 3:1 4:1 5:1 6:1 7:1 8:1 9:1 13:1 14:1 15:1 19:1 20:1 21:1 22:1 48:1 64:1 65:1 95:1 139:1 147:1 151:1 177:1 212:1 256:1 271:1 289:1 323:1 413:1 450:1 491:1 573:1 606:1 645:1 675:1 993:1 1272:1 1287:1 1612:1 2020:1 2038:1 2082:1 2140:1 2815:1 3220:1 3538:1 3989:1 5025:1 5463:1 6384:1 6704:1 7091:1 7394:1 9246:1 11057:1 11186:1 12553:1 14080:1 14524:1 16987:1 18308:1 19404:1 21167:1 23976:1 28447:1 28464:1 29465:1 30790:1 31749:1 
1 4:1 5:1 14:1 21:1 48:1 64:1 142:1 147:1 177:1 450:1 652:1 992:1 1277:1 2082:1 5020:1 7193:1 9214:1 11095:1 31066:1 
0.2045700572421382 1:1 3:1 4:1 5:1 7:1 8:1 9:1 14:1 15:1 18:1 19:1 45:1 48:1 49:1 51:1 62:1 95:1 139:1 147:1 159:1 177:1 191:1 194:1 256:1 285:1 304:1 313:1 318:1 446:1 450:1 451:1 460:1 492:1 540:1 544:1 573:1 579:1 963:1 995:1 1019:1 1059:1 1232:1 1612:1 2034:1 2098:1 2191:1 2544:1 2598:1 3226:1 3492:1 3817:1 3922:1 5025:1 5046:1 5160:1 5480:1 5937:1 6020:1 6384:1 6454:1 8976:1 9270:1 9405:1 9717:1 10809:1 12553:1 14035:1 14378:1 14645:1 16096:1 18342:1 19206:1 20966:1 23987:1 24490:1 27288:1 28460:1 28767:1 
0.0069178619667488858 1:1 5:1 6:1 7:1 8:1 18:1 19:1 21:1 29:1 52:1 64:1 81:1 177:1 212:1 222:1 244:1 272:1 560:1 575:1 588:1 645:1 760:1 1070:1 1272:1 2807:1 2893:1 3065:1 3339:1 6268:1 6391:1 6553:1 7091:1 7951:1 9784:1 11057:1 16963:1 17206:1 17750:1 28127:1 29073:1 30782:1 33422:1 
1 4:1 5:1 7:1 8:1 13:1 18:1 20:1 36:1 48:1 51:1 52:1 57:1 147:1 177:1 196:1 246:1 276:1 300:1 418:1 554:1 605:1 858:1 865:1 992:1 1051:1 1071:1 1148:1 2082:1 2652:1 3111:1 3393:1 3668:1 4774:1 6173:1 8423:1 8471:1 9214:1 9644:1 9813:1 10300:1 17949:1 18905:1 19930:1 34384:1 34490:1 
0.0068931861844795409 1:1 2:1 3:1 4:1 5:1 6:1 7:1 8:1 9:1 13:1 14:1 18:1 20:1 36:1 47:1 49:1 51:1 53:1 57:1 58:1 74:1 88:1 106:1 139:1 142:1 194:1 222:1 243:1 244:1 257:1 300:1 308:1 317:1 318:1 413:1 422:1 453:1 455:1 465:1 535:1 536:1 605:1 845:1 856:1 989:1 1021:1 1049:1 1096:1 1150:1 1167:1 1377:1 1512:1 2049:1 2593:1 2887:1 3054:1 3065:1 3246:1 3663:1 3726:1 3890:1 3916:1 4830:1 5082:1 5109:1 5219:1 5883:1 8318:1 8403:1 9196:1 9420:1 9610:1 9961:1 10325:1 10434:1 11569:1 12154:1 14187:1 17168:1 17672:1 17746:1 19911:1 20924:1 23448:1 24233:1 24340:1 26639:1 34338:1 
0.067532524572517252 1:1 3:1 4:1 5:1 7:1 8:1 9:1 11:1 14:1 18:1 19:1 20:1 21:1 22:1 36:1 45:1 48:1 51:1 52:1 53:1 62:1 65:1 81:1 95:1 99:1 101:1 139:1 143:1 151:1 159:1 177:1 182:1 188:1 194:1 256:1 272:1 289:1 304:1 323:1 368:1 446:1 540:1 544:1 552:1 566:1 570:1 573:1 575:1 579:1 588:1 605:1 610:1 622:1 648:1 670:1 860:1 865:1 968:1 991:1 993:1 995:1 1059:1 1070:1 1086:1 1235:1 1285:1 1609:1 1676:1 1731:1 2038:1 2055:1 2067:1 2124:1 2200:1 2372:1 2488:1 2610:1 3220:1 3222:1 3351:1 3553:1 4001:1 4319:1 5947:1 6023:1 6141:1 6319:1 6384:1 6391:1 6395:1 6447:1 6553:1 6721:1 6861:1 7127:1 7364:1 8433:1 8473:1 9033:1 9200:1 9210:1 9235:1 9279:1 9715:1 9716:1 9795:1 10827:1 11164:1 13038:1 14095:1 14254:1 14680:1 15593:1 16239:1 18308:1 18314:1 18696:1 19497:1 21228:1 22011:1 26949:1 27306:1 27708:1 28246:1 28464:1 28502:1 29073:1 30074:1 31678:1 34500:1 
0.25103516160537431 1:1 2:1 3:1 4:1 5:1 6:1 7:1 8:1 9:1 12:1 13:1 18:1 19:1 20:1 21:1 23:1 46:1 48:1 50:1 51:1 53:1 56:1 57:1 62:1 93:1 111:1 115:1 139:1 147:1 177:1 182:1 194:1 196:1 199:1 206:1 256:1 271:1 289:1 304:1 307:1 313:1 322:1 323:1 378:1 383:1 390:1 422:1 535:1 544:1 570:1 573:1 575:1 579:1 588:1 589:1 605:1 610:1 623:1 656:1 689:1 973:1 975:1 992:1 1029:1 1059:1 1088:1 1100:1 1135:1 1150:1 1230:1 1234:1 1575:1 1824:1 1848:1 2020:1 2038:1 2082:1 2387:1 2593:1 2602:1 2664:1 2704:1 2746:1 3226:1 3541:1 3725:1 3817:1 3960:1 3989:1 4449:1 4526:1 4831:1 6008:1 6384:1 6395:1 6454:1 6566:1 6577:1 6736:1 6875:1 7268:1 7492:1 9080:1 9084:1 9214:1 9471:1 9717:1 9915:1 9992:1 10201:1 10326:1 10813:1 12396:1 13402:1 14083:1 15136:1 16149:1 16523:1 16640:1 16751:1 18342:1 19429:1 20085:1 21167:1 22409:1 23453:1 28447:1 28464:1 28509:1 28767:1 29136:1 29632:1 30155:1 31386:1 32125:1 
0.05373042720920785 1:1 3:1 4:1 5:1 8:1 9:1 12:1 13:1 16:1 18:1 19:1 20:1 21:1 29:1 48:1 52:1 60:1 63:1 64:1 82:1 100:1 139:1 151:1 190:1 194:1 271:1 276:1 282:1 289:1 304:1 307:1 387:1 418:1 518:1 535:1 555:1 596:1 605:1 606:1 623:1 639:1 642:1 658:1 746:1 993:1 1071:1 1206:1 1253:1 1269:1 1424:1 1711:1 2020:1 2031:1 2038:1 2124:1 2528:1 2593:1 3388:1 3450:1 3537:1 3725:1 4488:1 4788:1 5772:1 6215:1 6635:1 6693:1 6895:1 7049:1 7297:1 7800:1 9235:1 9809:1 10652:1 10930:1 11809:1 12974:1 14000:1 14079:1 15787:1 18857:1 19070:1 20085:1 22500:1 23329:1 26426:1 27957:1 29295:1 29424:1 30215:1 30607:1 31468:1 32862:1 
0.27000857688697927 1:1 2:1 3:1 4:1 5:1 6:1 7:1 8:1 9:1 13:1 14:1 15:1 18:1 19:1 20:1 21:1 29:1 46:1 48:1 49:1 51:1 52:1 59:1 64:1 81:1 82:1 111:1 130:1 139:1 151:1 177:1 190:1 191:1 205:1 238:1 246:1 272:1 289:1 309:1 413:1 464:1 480:1 542:1 573:1 605:1 645:1 759:1 766:1 981:1 993:1 1018:1 1051:1 1070:1 1180:1 1272:1 1407:1 1803:1 1981:1 2038:1 2129:1 2524:1 2560:1 3102:1 3339:1 3340:1 3537:1 3757:1 5200:1 5354:1 5977:1 6384:1 7084:1 7923:1 7997:1 9154:1 9238:1 9397:1 9635:1 9784:1 10517:1 11051:1 13839:1 14079:1 14471:1 15932:1 17914:1 18626:1 20218:1 24600:1 25023:1 28464:1 33309:1 33582:1 
0.42009851381876651 1:1 2:1 3:1 4:1 5:1 6:1 7:1 8:1 9:1 12:1 13:1 14:1 15:1 18:1 19:1 20:1 21:1 23:1 29:1 45:1 48:1 50:1 52:1 57:1 66:1 69:1 83:1 101:1 113:1 139:1 147:1 177:1 194:1 196:1 222:1 256:1 282:1 295:1 318:1 324:1 393:1 418:1 422:1 426:1 451:1 497:1 535:1 536:1 573:1 575:1 588:1 605:1 624:1 639:1 685:1 743:1 756:1 953:1 992:1 1035:1 1078:1 1150:1 1295:1 1335:1 1436:1 1724:1 1841:1 2031:1 2082:1 2593:1 2665:1 2887:1 3220:1 3451:1 3610:1 3914:1 4010:1 4571:1 4788:1 4830:1 4833:1 4851:1 5061:1 5578:1 5894:1 6384:1 6391:1 6553:1 6898:1 7443:1 7886:1 8885:1 9214:1 9515:1 9865:1 10325:1 10328:1 11227:1 11879:1 13451:1 14001:1 16534:1 17171:1 18308:1 19084:1 19759:1 20912:1 22782:1 23329:1 23447:1 23461:1 23513:1 24147:1 25826:1 26710:1 28457:1 29073:1 31959:1 33152:1 
0.027844626548131447 1:1 2:1 3:1 4:1 5:1 6:1 7:1 8:1 9:1 12:1 14:1 15:1 16:1 18:1 19:1 20:1 21:1 23:1 26:1 39:1 46:1 48:1 51:1 52:1 60:1 67:1 87:1 137:1 139:1 151:1 195:1 196:1 210:1 211:1 256:1 272:1 276:1 289:1 304:1 313:1 318:1 323:1 325:1 387:1 446:1 490:1 521:1 550:1 573:1 579:1 588:1 592:1 605:1 614:1 639:1 644:1 686:1 705:1 901:1 987:1 993:1 1059:1 1071:1 1208:1 1308:1 1481:1 2014:1 2021:1 2038:1 2124:1 2642:1 2652:1 2778:1 2786:1 3220:1 3226:1 3344:1 3393:1 3545:1 3834:1 3910:1 3989:1 4037:1 4503:1 5449:1 5814:1 6114:1 6384:1 6447:1 6569:1 6615:1 6794:1 7078:1 7453:1 8692:1 9178:1 9235:1 9715:1 9717:1 9813:1 10667:1 12032:1 13895:1 13908:1 14087:1 16435:1 16874:1 16910:1 18308:1 18339:1 18651:1 18905:1 19462:1 20624:1 21167:1 22593:1 25284:1 26504:1 27592:1 28448:1 28464:1 29149:1 29256:1 29862:1 30717:1 31991:1 34960:1 
0.21500459619743231 1:1 3:1 4:1 5:1 7:1 8:1 9:1 12:1 13:1 15:1 18:1 19:1 20:1 21:1 23:1 39:1 47:1 48:1 53:1 56:1 62:1 63:1 64:1 66:1 81:1 82:1 88:1 139:1 143:1 147:1 194:1 238:1 285:1 304:1 308:1 317:1 411:1 418:1 426:1 479:1 493:1 535:1 570:1 579:1 605:1 606:1 656:1 686:1 903:1 989:1 991:1 1096:1 1145:1 1235:1 1253:1 1279:1 1296:1 1413:1 1496:1 2034:1 2055:1 2098:1 2593:1 3493:1 3728:1 3900:1 4733:1 4788:1 4851:1 5504:1 6447:1 6693:1 7251:1 7449:1 8708:1 9188:1 9200:1 9966:1 10284:1 10827:1 10930:1 11117:1 11233:1 11672:1 14036:1 14373:1 19215:1 20114:1 20849:1 23139:1 23329:1 23513:1 29418:1 31965:1 
0.099943362621512558 1:1 2:1 5:1 9:1 13:1 14:1 18:1 19:1 20:1 29:1 46:1 99:1 107:1 194:1 317:1 436:1 465:1 535:1 579:1 610:1 757:1 972:1 1683:1 1789:1 2593:1 3908:1 4937:1 5223:1 6457:1 6736:1 7906:1 9056:1 12877:1 13192:1 20875:1 23731:1 24674:1 28798:1 29623:1 33231:1 
0.033807600548159844 4:1 5:1 7:1 9:1 13:1 14:1 15:1 18:1 19:1 20:1 23:1 29:1 48:1 59:1 62:1 66:1 147:1 151:1 177:1 190:1 194:1 243:1 262:1 311:1 322:1 413:1 465:1 479:1 482:1 493:1 535:1 544:1 585:1 605:1 693:1 750:1 757:1 992:1 993:1 1182:1 1238:1 1300:1 2082:1 2098:1 2139:1 2524:1 2593:1 3037:1 3050:1 3294:1 3806:1 3969:1 5219:1 5368:1 5504:1 6015:1 6517:1 7503:1 7819:1 7906:1 9214:1 9245:1 10523:1 10855:1 11273:1 14373:1 14520:1 17638:1 18553:1 20456:1 21102:1 25070:1 27243:1 28966:1 32141:1 32904:1 32909:1 33229:1 
0.38139015580198299 12:1 13:1 15:1 57:1 378:1 428:1 490:1 1152:1 4871:1 5441:1 10334:1 23554:1 
0.14930681730676026 1:1 2:1 4:1 5:1 7:1 9:1 10:1 14:1 15:1 18:1 19:1 21:1 26:1 29:1 45:1 48:1 51:1 54:1 58:1 59:1 83:1 99:1 111:1 142:1 143:1 194:1 201:1 238:1 262:1 308:1 338:1 453:1 455:1 499:1 535:1 570:1 639:1 705:1 757:1 953:1 991:1 1062:1 1107:1 1167:1 1197:1 1434:1 1676:1 1819:1 2067:1 2593:1 2712:1 3294:1 3726:1 4130:1 5079:1 5109:1 5603:1 7898:1 8883:1 9210:1 9748:1 10032:1 10434:1 10573:1 11860:1 13343:1 14254:1 18551:1 21570:1 24340:1 33186:1 
0.4252403387299577 4:1 5:1 9:1 13:1 14:1 15:1 16:1 18:1 19:1 20:1 21:1 23:1 53:1 59:1 62:1 66:1 147:1 177:1 194:1 317:1 318:1 413:1 465:1 482:1 507:1 517:1 535:1 590:1 610:1 654:1 686:1 1096:1 1182:1 1242:1 1296:1 2098:1 2593:1 3890:1 3927:1 5223:1 5368:1 5665:1 5758:1 6604:1 6736:1 7224:1 7458:1 9961:1 10523:1 10876:1 11240:1 14373:1 20988:1 24674:1 25070:1 26352:1 29229:1 29623:1 31180:1 32015:1 
0.062293326294805371 1:1 4:1 5:1 7:1 8:1 9:1 11:1 12:1 13:1 14:1 20:1 21:1 36:1 48:1 52:1 57:1 64:1 90:1 142:1 181:1 250:1 272:1 276:1 315:1 324:1 358:1 387:1 442:1 450:1 605:1 652:1 850:1 990:1 1071:1 1160:1 1277:1 1543:1 2351:1 3149:1 3347:1 3380:1 3852:1 4010:1 4237:1 4496:1 4968:1 5020:1 7193:1 8344:1 9802:1 10385:1 11095:1 12271:1 18052:1 18670:1 18788:1 20689:1 21793:1 22558:1 23799:1 31066:1 34192:1 
0.074703085604450978 1:1 2:1 5:1 8:1 10:1 12:1 13:1 14:1 15:1 18:1 22:1 52:1 54:1 65:1 82:1 93:1 98:1 111:1 177:1 191:1 272:1 337:1 380:1 418:1 451:1 491:1 535:1 675:1 1070:1 1106:1 1287:1 1422:1 1565:1 1652:1 1803:1 2548:1 3349:1 4103:1 4402:1 4786:1 5046:1 5466:1 7394:1 9793:1 10013:1 11186:1 11764:1 12341:1 15868:1 18677:1 21519:1 22234:1 23320:1 25345:1 31750:1 
0.10587686923555524 3:1 4:1 5:1 7:1 8:1 9:1 12:1 13:1 14:1 15:1 19:1 20:1 21:1 29:1 32:1 39:1 48:1 49:1 51:1 52:1 62:1 64:1 72:1 139:1 142:1 166:1 177:1 195:1 196:1 246:1 271:1 276:1 282:1 288:1 302:1 317:1 387:1 397:1 413:1 450:1 479:1 493:1 570:1 573:1 585:1 605:1 652:1 743:1 766:1 808:1 897:1 907:1 998:1 1007:1 1022:1 1051:1 1071:1 1232:1 1277:1 1365:1 2020:1 2031:1 2037:1 2268:1 2639:1 2652:1 3113:1 3393:1 3450:1 3524:1 3690:1 3890:1 4498:1 4606:1 5020:1 5504:1 6384:1 6517:1 7193:1 7987:1 8186:1 8647:1 8742:1 9308:1 9444:1 9646:1 9813:1 10809:1 11095:1 11545:1 14000:1 14066:1 14819:1 16409:1 17953:1 18905:1 19075:1 19990:1 22568:1 28447:1 28457:1 28463:1 28966:1 31066:1 33941:1 34832:1 35080:1 
0.19317338653821919 3:1 4:1 5:1 7:1 8:1 9:1 12:1 13:1 14:1 19:1 21:1 29:1 48:1 58:1 62:1 139:1 162:1 177:1 180:1 238:1 271:1 311:1 383:1 425:1 470:1 575:1 579:1 588:1 656:1 756:1 997:1 1171:1 1235:1 2020:1 2235:1 2349:1 3786:1 4433:1 4843:1 5292:1 6391:1 6453:1 6553:1 7268:1 7885:1 9294:1 10474:1 10832:1 14749:1 14992:1 22309:1 23492:1 24891:1 28759:1 29073:1 31379:1 33149:1 
0.023846963817313643 3:1 4:1 5:1 8:1 9:1 11:1 15:1 18:1 19:1 20:1 21:1 22:1 29:1 37:1 47:1 48:1 64:1 65:1 139:1 147:1 151:1 177:1 280:1 301:1 304:1 322:1 368:1 479:1 560:1 570:1 605:1 656:1 658:1 675:1 754:1 870:1 989:1 992:1 993:1 1280:1 1287:1 2029:1 2050:1 2082:1 2139:1 3415:1 3670:1 3983:1 4317:1 6263:1 7251:1 7309:1 7387:1 7862:1 8496:1 9197:1 9214:1 9245:1 11144:1 11181:1 13969:1 14193:1 14521:1 19936:1 21151:1 28112:1 31547:1 33061:1 34553:1 
0.00075912397374570831 2:1 4:1 5:1 7:1 8:1 9:1 12:1 14:1 15:1 16:1 18:1 19:1 20:1 21:1 23:1 29:1 48:1 51:1 52:1 58:1 66:1 69:1 126:1 142:1 147:1 177:1 181:1 194:1 238:1 260:1 276:1 280:1 318:1 397:1 450:1 461:1 479:1 507:1 537:1 542:1 586:1 605:1 655:1 688:1 693:1 755:1 760:1 766:1 990:1 992:1 1061:1 1071:1 1073:1 1169:1 1297:1 1346:1 1953:1 2082:1 2098:1 2351:1 2355:1 2595:1 3274:1 3380:1 3427:1 3913:1 4606:1 5025:1 5168:1 5668:1 5906:1 5977:1 6526:1 7237:1 7470:1 7514:1 7875:1 7949:1 7994:1 9214:1 9735:1 9802:1 9823:1 10446:1 11249:1 11499:1 13765:1 14375:1 15017:1 16073:1 18506:1 18788:1 18997:1 20891:1 23987:1 26082:1 26776:1 29000:1 31233:1 32203:1 33104:1 33417:1 33561:1 
0.072048886355900149 4:1 5:1 9:1 13:1 18:1 23:1 53:1 66:1 147:1 194:1 308:1 317:1 418:1 426:1 535:1 686:1 1096:1 1296:1 2098:1 2593:1 3728:1 3900:1 4788:1 4851:1 7449:1 9966:1 11233:1 14373:1 20114:1 20849:1 23329:1 23513:1 31965:1 
0.17230929762533173 1:1 2:1 3:1 4:1 5:1 8:1 9:1 11:1 14:1 15:1 16:1 18:1 19:1 20:1 21:1 22:1 39:1 48:1 53:1 55:1 62:1 65:1 77:1 82:1 97:1 99:1 111:1 139:1 142:1 177:1 194:1 197:1 271:1 289:1 323:1 353:1 451:1 492:1 507:1 517:1 535:1 536:1 540:1 570:1 573:1 588:1 622:1 644:1 675:1 887:1 990:1 1100:1 1119:1 1230:1 1232:1 1287:1 1396:1 1423:1 1646:1 1689:1 1819:1 2020:1 2038:1 2593:1 2598:1 2678:1 3553:1 3989:1 4204:1 5061:1 5485:1 5680:1 5758:1 5877:1 5937:1 6384:1 6548:1 6860:1 7065:1 7395:1 8563:1 9992:1 10092:1 10809:1 11187:1 11611:1 11795:1 12712:1 12890:1 13343:1 13348:1 14095:1 16096:1 16569:1 19496:1 21167:1 21713:1 24151:1 25413:1 26129:1 26359:1 26609:1 28447:1 28464:1 30055:1 31754:1 34650:1 
0.22730943223222341 1:1 2:1 3:1 4:1 5:1 7:1 8:1 9:1 12:1 13:1 14:1 15:1 18:1 19:1 20:1 21:1 22:1 29:1 32:1 45:1 48:1 51:1 52:1 57:1 64:1 65:1 72:1 82:1 93:1 101:1 111:1 139:1 147:1 166:1 177:1 182:1 191:1 194:1 196:1 243:1 253:1 256:1 271:1 276:1 313:1 316:1 324:1 378:1 418:1 451:1 479:1 536:1 544:1 573:1 575:1 587:1 605:1 610:1 641:1 656:1 672:1 743:1 766:1 808:1 968:1 992:1 998:1 1048:1 1057:1 1059:1 1071:1 1148:1 1279:1 1286:1 1365:1 1418:1 1563:1 1725:1 1803:1 2020:1 2082:1 2268:1 2372:1 2548:1 2594:1 2652:1 3051:1 3182:1 3222:1 3393:1 3833:1 3865:1 4014:1 4774:1 5061:1 5877:1 6016:1 6384:1 6395:1 6538:1 6721:1 7039:1 7267:1 7377:1 7987:1 8186:1 9028:1 9214:1 9308:1 9598:1 9690:1 9716:1 9813:1 10300:1 11131:1 11174:1 11545:1 11710:1 13010:1 14819:1 15878:1 16050:1 17650:1 18314:1 18905:1 20612:1 21273:1 24148:1 26605:1 27258:1 28447:1 28502:1 29040:1 30581:1 31369:1 31713:1 33941:1 
0.86844376800298861 1:1 3:1 4:1 5:1 6:1 8:1 9:1 13:1 18:1 23:1 32:1 33:1 45:1 48:1 57:1 66:1 72:1 84:1 90:1 139:1 170:1 182:1 194:1 206:1 271:1 310:1 439:1 535:1 685:1 793:1 796:1 812:1 814:1 959:1 1002:1 1157:1 1295:1 1360:1 1453:1 1530:1 2020:1 2283:1 2387:1 2593:1 2741:1 3766:1 4959:1 7433:1 8125:1 8206:1 8929:1 9320:1 10378:1 11217:1 11532:1 11952:1 12200:1 15136:1 16740:1 20273:1 23783:1 31898:1 33839:1 
1 4:1 5:1 8:1 19:1 20:1 48:1 52:1 147:1 177:1 196:1 276:1 570:1 623:1 992:1 1071:1 2082:1 2664:1 3393:1 6872:1 9214:1 9813:1 16521:1 18913:1 
0.052140265564045371 4:1 5:1 6:1 9:1 12:1 15:1 16:1 18:1 20:1 21:1 23:1 29:1 64:1 66:1 147:1 177:1 189:1 194:1 221:1 308:1 397:1 493:1 496:1 507:1 517:1 525:1 535:1 539:1 605:1 645:1 658:1 686:1 688:1 758:1 1280:1 1296:1 1297:1 2082:1 2098:1 2513:1 2593:1 2885:1 3728:1 4606:1 5518:1 5541:1 5675:1 5758:1 5838:1 5918:1 7097:1 7300:1 7449:1 7480:1 7912:1 11139:1 11233:1 11256:1 14373:1 15725:1 17164:1 20114:1 25556:1 25655:1 26103:1 26356:1 26543:1 26817:1 30811:1 31489:1 31965:1 32090:1 33262:1 
0.00063823030142784551 1:1 2:1 3:1 4:1 6:1 7:1 8:1 9:1 12:1 14:1 15:1 18:1 19:1 20:1 21:1 22:1 29:1 39:1 45:1 48:1 64:1 65:1 82:1 83:1 88:1 100:1 123:1 139:1 151:1 166:1 205:1 238:1 247:1 289:1 304:1 311:1 396:1 450:1 490:1 536:1 568:1 573:1 614:1 622:1 629:1 645:1 675:1 743:1 757:1 902:1 952:1 953:1 998:1 1272:1 1287:1 1413:1 1424:1 1445:1 1496:1 1710:1 1920:1 2038:1 2131:1 2254:1 3114:1 3545:1 3560:1 3786:1 3793:1 4594:1 5029:1 5454:1 5877:1 6342:1 6384:1 6788:1 6860:1 6961:1 7084:1 7393:1 7895:1 8700:1 8875:1 8893:1 9297:1 11051:1 11185:1 11672:1 11808:1 11919:1 12961:1 13715:1 14087:1 14102:1 14480:1 19456:1 19551:1 20378:1 22821:1 24006:1 25312:1 26603:1 28303:1 28464:1 29819:1 30055:1 30427:1 31744:1 33172:1 34981:1 
0.076359967645002733 1:1 3:1 4:1 5:1 6:1 7:1 8:1 9:1 12:1 13:1 14:1 15:1 16:1 19:1 20:1 21:1 26:1 32:1 37:1 48:1 49:1 50:1 53:1 64:1 72:1 95:1 104:1 139:1 142:1 147:1 157:1 177:1 190:1 191:1 195:1 217:1 254:1 271:1 289:1 313:1 324:1 379:1 410:1 413:1 450:1 465:1 479:1 513:1 570:1 573:1 606:1 610:1 623:1 652:1 705:1 808:1 874:1 884:1 992:1 994:1 1019:1 1022:1 1033:1 1094:1 1277:1 1365:1 1612:1 1757:1 2020:1 2038:1 2082:1 2166:1 2524:1 2561:1 2625:1 2853:1 3197:1 3538:1 3833:1 4014:1 4397:1 4722:1 5020:1 5025:1 5233:1 5729:1 6384:1 6704:1 6732:1 6875:1 7193:1 8186:1 8510:1 8557:1 9214:1 9251:1 9413:1 9440:1 9503:1 9952:1 11095:1 11545:1 12553:1 14080:1 15953:1 17098:1 18208:1 19404:1 20612:1 21279:1 22220:1 23118:1 23976:1 24720:1 26278:1 28447:1 28464:1 29465:1 29600:1 30155:1 31066:1 33941:1 34571:1 34631:1 
0.088658824210256379 1:1 4:1 5:1 6:1 7:1 9:1 12:1 13:1 14:1 15:1 19:1 20:1 21:1 26:1 32:1 39:1 48:1 53:1 56:1 58:1 64:1 67:1 99:1 142:1 143:1 147:1 177:1 224:1 238:1 318:1 393:1 398:1 413:1 446:1 472:1 479:1 493:1 570:1 605:1 645:1 651:1 705:1 735:1 797:1 892:1 907:1 990:1 991:1 992:1 1097:1 1137:1 1138:1 1173:1 1276:1 1308:1 1332:1 1676:1 2067:1 2082:1 2917:1 3910:1 4567:1 4630:1 5309:1 5504:1 7100:1 7168:1 7769:1 8126:1 8609:1 8739:1 9210:1 9214:1 9970:1 10227:1 10234:1 10485:1 11075:1 11428:1 14254:1 22760:1 22902:1 24931:1 30822:1 32808:1 35066:1 
0.083606153297348149 1:1 2:1 4:1 5:1 6:1 9:1 10:1 12:1 13:1 14:1 18:1 19:1 21:1 46:1 48:1 49:1 50:1 54:1 62:1 64:1 93:1 123:1 142:1 147:1 177:1 181:1 190:1 191:1 194:1 205:1 206:1 304:1 318:1 338:1 378:1 390:1 413:1 446:1 450:1 451:1 460:1 535:1 540:1 579:1 645:1 978:1 992:1 1018:1 1029:1 1107:1 1235:1 1272:1 1575:1 1910:1 2082:1 2095:1 2355:1 2524:1 2556:1 2593:1 2746:1 3913:1 4116:1 4526:1 5020:1 5061:1 5157:1 5160:1 5950:1 6447:1 6458:1 7084:1 9126:1 9227:1 9397:1 9471:1 10022:1 10827:1 10836:1 11051:1 12396:1 13664:1 14360:1 15017:1 15913:1 15914:1 16751:1 20888:1 21536:1 24147:1 24496:1 26972:1 28800:1 
0.018590031257573993 1:1 2:1 3:1 4:1 5:1 6:1 7:1 8:1 9:1 13:1 14:1 15:1 18:1 19:1 23:1 48:1 53:1 57:1 58:1 59:1 62:1 82:1 88:1 98:1 106:1 139:1 142:1 143:1 147:1 177:1 194:1 199:1 205:1 243:1 271:1 307:1 308:1 318:1 418:1 451:1 455:1 480:1 482:1 535:1 541:1 579:1 684:1 991:1 1097:1 1148:1 1167:1 1180:1 1182:1 1235:1 1413:1 1422:1 1501:1 1658:1 2020:1 2056:1 2098:1 2593:1 2700:1 3037:1 3725:1 3726:1 3914:1 4788:1 5065:1 5109:1 5352:1 5368:1 5957:1 6450:1 7417:1 9201:1 9972:1 10309:1 10434:1 10516:1 10523:1 10829:1 11677:1 11770:1 12087:1 12768:1 14221:1 14373:1 16619:1 20085:1 20916:1 23329:1 24189:1 24340:1 25070:1 28750:1 31825:1 
0.080964597706869423 1:1 2:1 3:1 4:1 5:1 7:1 8:1 9:1 12:1 14:1 15:1 16:1 19:1 20:1 21:1 26:1 37:1 45:1 47:1 48:1 51:1 52:1 60:1 62:1 83:1 111:1 124:1 139:1 147:1 177:1 182:1 191:1 196:1 238:1 243:1 253:1 276:1 282:1 289:1 304:1 313:1 387:1 446:1 453:1 479:1 499:1 530:1 573:1 585:1 605:1 620:1 641:1 710:1 883:1 953:1 989:1 992:1 1048:1 1057:1 1071:1 1215:1 1238:1 1446:1 1803:1 1924:1 2031:1 2038:1 2087:1 2095:1 2389:1 2544:1 2550:1 2652:1 3051:1 3182:1 3376:1 3450:1 3551:1 3817:1 4494:1 5079:1 5605:1 5863:1 6384:1 6508:1 6853:1 7039:1 7587:1 8553:1 8894:1 9186:1 9219:1 9227:1 9598:1 9690:1 9800:1 10691:1 10846:1 11922:1 13720:1 14000:1 14093:1 14305:1 14352:1 15164:1 15884:1 17651:1 19073:1 19494:1 22537:1 25910:1 26580:1 28464:1 30040:1 30581:1 34623:1 
0.077093463584202007 1:1 2:1 4:1 5:1 6:1 8:1 9:1 12:1 13:1 15:1 18:1 19:1 20:1 21:1 29:1 46:1 48:1 52:1 61:1 64:1 69:1 99:1 121:1 142:1 143:1 147:1 177:1 181:1 190:1 210:1 276:1 304:1 387:1 413:1 425:1 426:1 482:1 498:1 535:1 550:1 570:1 614:1 645:1 759:1 977:1 991:1 1071:1 1221:1 1272:1 1345:1 1676:1 1894:1 2067:1 2082:1 2351:1 2524:1 2532:1 2773:1 3380:1 3388:1 4485:1 4844:1 4855:1 5368:1 5591:1 6121:1 6782:1 7089:1 7916:1 9114:1 9210:1 9802:1 9809:1 10745:1 11055:1 11481:1 13614:1 14254:1 15804:1 16838:1 18788:1 18860:1 23496:1 23525:1 25067:1 25864:1 27642:1 30762:1 
0.24930038137151186 1:1 4:1 5:1 7:1 9:1 14:1 19:1 20:1 36:1 48:1 58:1 62:1 99:1 143:1 177:1 243:1 304:1 311:1 475:1 570:1 579:1 588:1 614:1 860:1 991:1 1175:1 1235:1 1676:1 1689:1 2067:1 3037:1 3789:1 5328:1 6447:1 6548:1 6788:1 8436:1 9210:1 10500:1 10827:1 12890:1 14254:1 14259:1 20352:1 24972:1 29820:1 34413:1 
0.020282933357147336 3:1 4:1 6:1 7:1 8:1 9:1 12:1 14:1 18:1 19:1 20:1 36:1 39:1 51:1 58:1 63:1 139:1 142:1 222:1 256:1 271:1 277:1 304:1 307:1 313:1 387:1 465:1 475:1 568:1 573:1 579:1 617:1 623:1 637:1 847:1 899:1 903:1 907:1 1059:1 1175:1 1267:1 2020:1 2026:1 2898:1 3226:1 3400:1 3725:1 3817:1 4488:1 5228:1 5323:1 6339:1 6384:1 6454:1 6816:1 6875:1 7022:1 8325:1 8671:1 8715:1 8747:1 9717:1 10496:1 11045:1 13956:1 17224:1 18342:1 18924:1 20085:1 22500:1 24703:1 24953:1 28300:1 28452:1 28767:1 29932:1 30155:1 30558:1 34896:1 35015:1 35116:1 
0.043142653498313296 1:1 2:1 3:1 4:1 5:1 6:1 7:1 8:1 9:1 12:1 13:1 14:1 15:1 18:1 19:1 20:1 21:1 22:1 23:1 29:1 30:1 48:1 50:1 51:1 52:1 53:1 56:1 57:1 58:1 64:1 65:1 66:1 84:1 85:1 94:1 95:1 100:1 111:1 139:1 142:1 157:1 167:1 177:1 181:1 191:1 194:1 206:1 212:1 255:1 260:1 271:1 288:1 290:1 309:1 316:1 318:1 323:1 379:1 387:1 397:1 413:1 422:1 446:1 450:1 451:1 460:1 470:1 479:1 490:1 535:1 536:1 540:1 570:1 573:1 575:1 605:1 610:1 624:1 645:1 656:1 658:1 668:1 684:1 688:1 745:1 779:1 999:1 1029:1 1058:1 1077:1 1097:1 1100:1 1134:1 1150:1 1171:1 1272:1 1284:1 1297:1 1453:1 1454:1 1596:1 1612:1 1712:1 1807:1 2020:1 2037:1 2174:1 2271:1 2351:1 2544:1 2593:1 2598:1 2747:1 2816:1 3202:1 3269:1 3527:1 3584:1 3744:1 3874:1 3910:1 3922:1 3989:1 4389:1 4490:1 4606:1 4828:1 4830:1 5033:1 5061:1 5160:1 5283:1 5455:1 5880:1 5937:1 6384:1 6404:1 6736:1 6900:1 7091:1 7251:1 7309:1 7347:1 7418:1 7470:1 7793:1 8046:1 9310:1 9472:1 9699:1 9858:1 9978:1 9992:1 10189:1 10325:1 10468:1 11057:1 11150:1 11249:1 11966:1 12494:1 12560:1 12977:1 13240:1 14069:1 14593:1 14827:1 16096:1 16756:1 16989:1 18216:1 18475:1 19369:1 19664:1 20769:1 20966:1 21167:1 22184:1 22507:1 23439:1 23444:1 24029:1 24151:1 24496:1 24873:1 25313:1 26622:1 28447:1 28569:1 29623:1 30239:1 30791:1 31547:1 31628:1 31831:1 32838:1 
0.15578952345382835 1:1 4:1 5:1 6:1 7:1 9:1 12:1 13:1 14:1 15:1 18:1 19:1 22:1 39:1 48:1 50:1 56:1 65:1 95:1 142:1 194:1 236:1 238:1 247:1 311:1 379:1 413:1 450:1 491:1 493:1 496:1 535:1 542:1 553:1 585:1 670:1 675:1 901:1 990:1 1043:1 1134:1 1285:1 1287:1 1612:1 2611:1 2999:1 3120:1 3786:1 4389:1 5020:1 5463:1 5518:1 5544:1 5984:1 6163:1 6517:1 7364:1 7394:1 8680:1 9564:1 10189:1 11164:1 11186:1 12549:1 16260:1 17452:1 17968:1 22184:1 25559:1 25686:1 27118:1 27754:1 28972:1 31679:1 31749:1 
0.10182615078683015 3:1 4:1 5:1 8:1 9:1 15:1 18:1 19:1 20:1 21:1 36:1 39:1 47:1 48:1 53:1 59:1 62:1 64:1 139:1 147:1 172:1 177:1 194:1 271:1 285:1 323:1 479:1 482:1 493:1 535:1 573:1 575:1 603:1 605:1 656:1 860:1 902:1 989:1 1003:1 1100:1 1182:1 1251:1 1279:1 2020:1 2034:1 2098:1 2301:1 2593:1 3493:1 3989:1 5368:1 5504:1 6384:1 6391:1 6689:1 7256:1 8433:1 8700:1 9188:1 9335:1 9992:1 10523:1 10928:1 11121:1 14036:1 14373:1 14868:1 19215:1 21167:1 25070:1 28447:1 29409:1 31300:1 34981:1 
0.19908942676723393 1:1 3:1 4:1 5:1 6:1 8:1 9:1 13:1 14:1 15:1 18:1 19:1 21:1 45:1 49:1 53:1 57:1 64:1 95:1 101:1 139:1 142:1 191:1 194:1 195:1 210:1 271:1 323:1 418:1 447:1 450:1 479:1 535:1 573:1 585:1 639:1 645:1 968:1 1022:1 1100:1 1148:1 1272:1 1612:1 1724:1 2020:1 2545:1 2593:1 2639:1 2774:1 3989:1 4788:1 5004:1 5020:1 6384:1 6508:1 7089:1 9027:1 9444:1 9992:1 10309:1 11055:1 12549:1 15843:1 16406:1 16842:1 21167:1 23329:1 23906:1 28447:1 30763:1 
0.043193958175671635 5:1 11:1 12:1 13:1 14:1 15:1 19:1 21:1 62:1 177:1 364:1 393:1 424:1 451:1 490:1 492:1 499:1 585:1 651:1 1238:1 4289:1 4566:1 4841:1 5046:1 5453:1 5485:1 5615:1 6521:1 7178:1 10859:1 21930:1 22755:1 23490:1 25306:1 25404:1 25955:1 28984:1 31029:1 
0.10809040820769909 2:1 3:1 5:1 7:1 8:1 9:1 12:1 14:1 15:1 18:1 19:1 20:1 21:1 23:1 29:1 30:1 39:1 47:1 51:1 52:1 53:1 66:1 106:1 139:1 194:1 243:1 250:1 271:1 285:1 289:1 302:1 307:1 311:1 403:1 455:1 497:1 535:1 570:1 573:1 605:1 623:1 641:1 694:1 762:1 780:1 903:1 989:1 1054:1 1084:1 1088:1 1301:1 2020:1 2034:1 2038:1 2593:1 3054:1 3154:1 3496:1 3554:1 3688:1 3725:1 3789:1 4673:1 5112:1 5567:1 6384:1 6872:1 7035:1 7521:1 7963:1 8060:1 8708:1 9188:1 9664:1 9908:1 9915:1 11288:1 14039:1 14096:1 17672:1 18078:1 19237:1 19505:1 19977:1 20085:1 20360:1 23018:1 24354:1 25790:1 28464:1 32218:1 33460:1 33699:1 
0.063694358821860572 1:1 3:1 5:1 7:1 8:1 9:1 12:1 13:1 14:1 15:1 18:1 19:1 21:1 29:1 47:1 51:1 53:1 57:1 58:1 62:1 95:1 139:1 189:1 194:1 262:1 271:1 272:1 290:1 307:1 317:1 318:1 378:1 418:1 426:1 436:1 446:1 461:1 464:1 479:1 535:1 573:1 644:1 743:1 752:1 766:1 989:1 1062:1 1088:1 1096:1 1155:1 1169:1 1232:1 1609:1 2020:1 2021:1 2039:1 2494:1 2593:1 3299:1 3351:1 3573:1 3725:1 3900:1 3926:1 4788:1 4851:1 4935:1 5168:1 5200:1 6384:1 7074:1 7847:1 7987:1 9183:1 9752:1 9915:1 9966:1 10361:1 10446:1 10809:1 13913:1 14114:1 18566:1 18696:1 19602:1 20085:1 20849:1 20979:1 23329:1 23513:1 23716:1 24600:1 28447:1 28465:1 30676:1 33025:1 
0.0033639169681240404 1:1 3:1 4:1 5:1 7:1 8:1 9:1 10:1 14:1 15:1 16:1 18:1 19:1 20:1 21:1 26:1 29:1 48:1 51:1 60:1 61:1 62:1 64:1 95:1 139:1 142:1 151:1 177:1 195:1 239:1 289:1 304:1 309:1 314:1 318:1 338:1 450:1 469:1 498:1 518:1 550:1 560:1 570:1 573:1 579:1 589:1 605:1 610:1 622:1 656:1 658:1 714:1 752:1 761:1 993:1 1046:1 1206:1 1223:1 1235:1 1279:1 1280:1 1629:1 2038:1 2129:1 2628:1 3019:1 3537:1 3744:1 3840:1 3913:1 4113:1 5020:1 5270:1 5587:1 5771:1 6121:1 6262:1 6269:1 6384:1 6458:1 6588:1 6721:1 6737:1 6865:1 7251:1 7269:1 7309:1 7628:1 7843:1 7954:1 9238:1 9579:1 10651:1 10764:1 10836:1 11117:1 11144:1 12669:1 14079:1 14467:1 16368:1 17520:1 20648:1 20888:1 24826:1 25856:1 26420:1 27641:1 28106:1 28129:1 28464:1 28800:1 29190:1 29650:1 30120:1 31393:1 31563:1 32989:1 33430:1 
0.39677935823576527 1:1 2:1 4:1 5:1 9:1 14:1 15:1 18:1 19:1 21:1 45:1 46:1 48:1 53:1 62:1 101:1 115:1 147:1 177:1 194:1 304:1 446:1 450:1 492:1 549:1 585:1 639:1 968:1 975:1 992:1 1086:1 1238:1 1724:1 1848:1 2082:1 2098:1 2607:1 5025:1 5484:1 6086:1 6516:1 9027:1 9084:1 9214:1 10854:1 14387:1 16204:1 23987:1 25397:1 28962:1 
0.038075956261832876 3:1 4:1 5:1 7:1 8:1 9:1 10:1 12:1 14:1 19:1 20:1 21:1 26:1 29:1 47:1 48:1 51:1 53:1 54:1 139:1 142:1 184:1 189:1 201:1 243:1 257:1 262:1 276:1 290:1 304:1 323:1 338:1 378:1 387:1 453:1 573:1 605:1 644:1 705:1 757:1 766:1 989:1 990:1 1062:1 1086:1 1107:1 2025:1 2039:1 2419:1 2494:1 2503:1 2712:1 3049:1 3246:1 3299:1 3383:1 3573:1 3989:1 4130:1 4503:1 5095:1 6384:1 7074:1 7898:1 7996:1 9184:1 9752:1 10032:1 13941:1 14114:1 15286:1 15674:1 17631:1 18570:1 18811:1 19602:1 21167:1 21570:1 22593:1 24308:1 28465:1 30676:1 33197:1 33571:1 
0.023914822693045797 1:1 2:1 3:1 4:1 5:1 7:1 8:1 9:1 13:1 14:1 18:1 19:1 20:1 26:1 29:1 39:1 45:1 46:1 48:1 49:1 53:1 57:1 83:1 90:1 113:1 130:1 139:1 147:1 159:1 177:1 181:1 194:1 238:1 256:1 271:1 289:1 311:1 318:1 323:1 436:1 446:1 451:1 535:1 542:1 544:1 558:1 573:1 579:1 588:1 605:1 610:1 637:1 705:1 723:1 759:1 901:1 907:1 953:1 959:1 981:1 992:1 1021:1 1097:1 1100:1 1155:1 1436:1 1538:1 1841:1 1978:1 2020:1 2038:1 2082:1 2191:1 2361:1 2593:1 3220:1 3541:1 3567:1 3802:1 3910:1 3914:1 3989:1 4001:1 4938:1 5050:1 5977:1 6023:1 6234:1 6247:1 6384:1 6453:1 6557:1 6721:1 7022:1 7687:1 7923:1 7936:1 8697:1 8745:1 8885:1 8933:1 9151:1 9214:1 9420:1 9970:1 9992:1 10364:1 11879:1 12246:1 13451:1 13826:1 14083:1 14109:1 14646:1 15047:1 18308:1 19416:1 19593:1 20423:1 20903:1 21167:1 21231:1 23737:1 24082:1 27306:1 28067:1 28447:1 28464:1 28765:1 29099:1 30556:1 33309:1 33385:1 34978:1 35105:1 
0.026911005453778076 1:1 3:1 5:1 6:1 7:1 8:1 9:1 12:1 13:1 14:1 18:1 19:1 20:1 21:1 23:1 26:1 32:1 39:1 40:1 51:1 52:1 53:1 57:1 62:1 66:1 82:1 95:1 98:1 104:1 139:1 177:1 180:1 191:1 194:1 195:1 196:1 237:1 238:1 239:1 243:1 244:1 245:1 256:1 271:1 276:1 280:1 304:1 309:1 311:1 313:1 318:1 323:1 383:1 418:1 444:1 451:1 453:1 458:1 535:1 553:1 570:1 571:1 573:1 579:1 599:1 605:1 639:1 684:1 686:1 705:1 793:1 812:1 890:1 920:1 1048:1 1049:1 1059:1 1071:1 1086:1 1094:1 1148:1 1162:1 1230:1 1232:1 1235:1 1294:1 1296:1 1420:1 1422:1 1613:1 1669:1 1757:1 2020:1 2029:1 2349:1 2550:1 2593:1 2625:1 2652:1 3007:1 3010:1 3051:1 3073:1 3075:1 3243:1 3393:1 3422:1 3427:1 3744:1 3786:1 3791:1 3832:1 3920:1 3987:1 4433:1 4788:1 4979:1 5046:1 5079:1 5147:1 6154:1 6372:1 6384:1 6453:1 6666:1 7417:1 7450:1 8206:1 8593:1 8791:1 9598:1 9617:1 9722:1 9813:1 9951:1 10309:1 10394:1 10809:1 10832:1 11204:1 11234:1 11741:1 11780:1 12569:1 12828:1 13976:1 13981:1 14992:1 15884:1 17475:1 17484:1 17651:1 17779:1 17782:1 18414:1 18905:1 18961:1 19002:1 20369:1 20597:1 20959:1 21160:1 22309:1 23329:1 23828:1 24469:1 27732:1 28409:1 28455:1 28759:1 29362:1 31828:1 31968:1 34715:1 
0.30409047216892826 1:1 3:1 4:1 5:1 7:1 8:1 9:1 14:1 15:1 18:1 19:1 20:1 22:1 29:1 48:1 51:1 52:1 53:1 58:1 65:1 81:1 95:1 139:1 142:1 159:1 166:1 194:1 195:1 243:1 246:1 272:1 289:1 304:1 318:1 446:1 450:1 461:1 479:1 496:1 535:1 542:1 573:1 610:1 675:1 743:1 766:1 995:1 998:1 1048:1 1051:1 1070:1 1086:1 1097:1 1169:1 1287:1 1609:1 1612:1 2038:1 2187:1 2268:1 2593:1 2628:1 3055:1 3102:1 3339:1 3351:1 3541:1 3910:1 5020:1 5168:1 5544:1 5980:1 6384:1 6736:1 7397:1 7987:1 9266:1 9308:1 9602:1 9635:1 9795:1 9970:1 10446:1 11189:1 12549:1 14083:1 14819:1 16368:1 17695:1 17913:1 18696:1 18698:1 19429:1 25682:1 27095:1 28464:1 29623:1 31772:1 
0.24189928671937169 3:1 4:1 5:1 6:1 7:1 8:1 9:1 12:1 13:1 14:1 15:1 18:1 19:1 20:1 21:1 49:1 51:1 53:1 57:1 62:1 64:1 139:1 142:1 177:1 195:1 196:1 210:1 211:1 250:1 258:1 271:1 318:1 322:1 323:1 393:1 422:1 450:1 484:1 535:1 570:1 573:1 579:1 605:1 644:1 652:1 1022:1 1054:1 1060:1 1100:1 1150:1 1235:1 1277:1 2020:1 2625:1 2652:1 2762:1 2786:1 3151:1 3257:1 3913:1 3960:1 3989:1 4560:1 4831:1 5020:1 5383:1 6384:1 6458:1 7079:1 7193:1 9440:1 9662:1 9724:1 9992:1 10326:1 10836:1 11095:1 16900:1 18059:1 18441:1 20888:1 21167:1 22735:1 23453:1 25104:1 28447:1 28800:1 30719:1 31066:1 
0.15050133800573531 1:1 3:1 4:1 5:1 6:1 7:1 8:1 9:1 11:1 12:1 13:1 14:1 18:1 19:1 20:1 21:1 29:1 30:1 32:1 33:1 37:1 39:1 48:1 49:1 51:1 52:1 53:1 57:1 62:1 75:1 84:1 139:1 142:1 167:1 170:1 190:1 191:1 194:1 236:1 250:1 251:1 256:1 289:1 290:1 295:1 304:1 310:1 311:1 313:1 358:1 378:1 387:1 413:1 414:1 439:1 440:1 446:1 450:1 535:1 544:1 553:1 570:1 581:1 599:1 605:1 655:1 756:1 780:1 804:1 807:1 814:1 823:1 878:1 890:1 999:1 1002:1 1018:1 1019:1 1054:1 1055:1 1078:1 1094:1 1157:1 1247:1 1392:1 1453:1 2038:1 2272:1 2283:1 2541:1 2544:1 2602:1 2994:1 3149:1 3161:1 3228:1 3537:1 3581:1 3610:1 3785:1 3802:1 3817:1 3822:1 4246:1 4494:1 4742:1 4956:1 4960:1 5020:1 6015:1 6151:1 6477:1 6664:1 7246:1 7877:1 8056:1 8164:1 8174:1 8239:1 8527:1 8592:1 9311:1 9320:1 9404:1 9405:1 9661:1 9671:1 9865:1 9943:1 10376:1 10908:1 11603:1 11967:1 14079:1 14828:1 15830:1 16154:1 17433:1 18051:1 18102:1 18351:1 19641:1 19756:1 20343:1 20430:1 20508:1 21840:1 22537:1 23167:1 23772:1 23788:1 27241:1 28851:1 29360:1 31267:1 33897:1 34589:1 34713:1 
0.5622896535119486 3:1 4:1 5:1 8:1 9:1 14:1 15:1 18:1 19:1 23:1 48:1 49:1 53:1 66:1 139:1 159:1 194:1 271:1 318:1 323:1 446:1 492:1 535:1 544:1 573:1 688:1 995:1 1021:1 1100:1 1297:1 2020:1 2191:1 2593:1 3910:1 3989:1 5480:1 6020:1 6384:1 7479:1 9270:1 9420:1 9992:1 11255:1 14645:1 21167:1 27281:1 28447:1 32077:1 
0.053839785897683054 1:1 2:1 3:1 4:1 5:1 8:1 9:1 13:1 14:1 15:1 18:1 19:1 20:1 21:1 26:1 32:1 36:1 45:1 47:1 48:1 49:1 53:1 59:1 61:1 67:1 72:1 82:1 83:1 95:1 111:1 139:1 142:1 177:1 191:1 194:1 271:1 285:1 317:1 413:1 446:1 447:1 451:1 479:1 480:1 493:1 535:1 566:1 573:1 610:1 644:1 724:1 808:1 860:1 865:1 952:1 989:1 990:1 1021:1 1096:1 1180:1 1227:1 1322:1 1365:1 1408:1 1420:1 1434:1 1613:1 1803:1 1816:1 2020:1 2034:1 2544:1 2545:1 2593:1 3493:1 3890:1 4993:1 5046:1 5354:1 5504:1 6319:1 6384:1 6733:1 7076:1 7697:1 8186:1 8434:1 8473:1 8871:1 9188:1 9420:1 9961:1 10517:1 10785:1 11377:1 11545:1 11634:1 11741:1 11848:1 12569:1 13328:1 14036:1 15837:1 19215:1 23852:1 25027:1 28246:1 28447:1 29610:1 30701:1 32656:1 33941:1 34409:1 34501:1 
0.18514705382293226 3:1 5:1 8:1 9:1 15:1 18:1 19:1 20:1 62:1 63:1 139:1 194:1 289:1 304:1 481:1 535:1 579:1 610:1 620:1 1235:1 1257:1 2038:1 2593:1 3541:1 5364:1 6447:1 6736:1 6840:1 10827:1 10972:1 14083:1 19429:1 25061:1 29623:1 29985:1 
0.092992786178284936 3:1 4:1 5:1 6:1 8:1 9:1 14:1 18:1 19:1 20:1 39:1 48:1 49:1 50:1 62:1 139:1 142:1 151:1 177:1 194:1 205:1 236:1 289:1 304:1 318:1 450:1 452:1 553:1 573:1 579:1 610:1 899:1 993:1 1021:1 1043:1 1235:1 2038:1 2124:1 2611:1 2998:1 3541:1 3913:1 5020:1 5067:1 6154:1 6384:1 6458:1 6721:1 8664:1 9235:1 9434:1 9563:1 10836:1 14083:1 16251:1 17451:1 19416:1 20888:1 27732:1 28464:1 28800:1 34875:1 
0.34439529745459035 3:1 4:1 5:1 8:1 9:1 14:1 15:1 16:1 18:1 19:1 23:1 48:1 49:1 53:1 66:1 139:1 147:1 177:1 180:1 193:1 195:1 285:1 309:1 318:1 319:1 446:1 451:1 479:1 492:1 493:1 518:1 540:1 579:1 585:1 588:1 686:1 992:1 1022:1 1097:1 1296:1 2034:1 2097:1 2349:1 2588:1 2639:1 2642:1 3493:1 3744:1 3914:1 3940:1 5046:1 5049:1 5480:1 5504:1 5769:1 5953:1 6459:1 6508:1 6557:1 7450:1 9228:1 9444:1 9972:1 11234:1 14036:1 14372:1 15000:1 16031:1 16406:1 16427:1 19215:1 20900:1 20902:1 21018:1 24078:1 26393:1 27001:1 28808:1 29104:1 31968:1 
0.0029092871850772591 1:1 2:1 3:1 4:1 5:1 6:1 7:1 8:1 9:1 12:1 13:1 14:1 18:1 20:1 21:1 22:1 23:1 30:1 33:1 39:1 45:1 48:1 51:1 53:1 56:1 57:1 58:1 65:1 66:1 82:1 83:1 84:1 90:1 93:1 101:1 111:1 139:1 147:1 151:1 177:1 182:1 191:1 194:1 205:1 243:1 263:1 271:1 289:1 304:1 306:1 307:1 308:1 313:1 316:1 318:1 378:1 383:1 387:1 414:1 446:1 459:1 473:1 535:1 539:1 549:1 605:1 645:1 672:1 684:1 686:1 699:1 782:1 816:1 901:1 953:1 959:1 968:1 993:1 1048:1 1063:1 1088:1 1136:1 1147:1 1174:1 1286:1 1294:1 1296:1 1306:1 1418:1 1434:1 1453:1 1538:1 1563:1 1568:1 1729:1 1819:1 2020:1 2038:1 2082:1 2098:1 2124:1 2372:1 2544:1 2593:1 3042:1 3302:1 3537:1 3710:1 3725:1 3728:1 3818:1 3827:1 3865:1 3921:1 4444:1 4494:1 4740:1 4749:1 5151:1 5313:1 5918:1 6086:1 7084:1 7375:1 7418:1 7449:1 7557:1 8078:1 8221:1 8683:1 8883:1 8933:1 9031:1 9235:1 9590:1 9755:1 9915:1 10209:1 10287:1 10489:1 11172:1 11205:1 11233:1 11316:1 11715:1 11860:1 11967:1 12252:1 12363:1 13027:1 13343:1 14079:1 14373:1 17592:1 18574:1 20039:1 20085:1 20114:1 20473:1 20539:1 20962:1 22363:1 22538:1 23160:1 23185:1 24478:1 24936:1 26817:1 31709:1 31831:1 31965:1 32307:1 33745:1 34002:1 34919:1 
0.2671694192381554 1:1 2:1 3:1 4:1 5:1 6:1 7:1 8:1 9:1 12:1 13:1 14:1 15:1 18:1 19:1 20:1 21:1 26:1 29:1 48:1 49:1 50:1 51:1 52:1 53:1 56:1 69:1 81:1 82:1 84:1 95:1 107:1 139:1 147:1 151:1 177:1 194:1 196:1 207:1 214:1 239:1 250:1 251:1 271:1 276:1 289:1 304:1 307:1 313:1 322:1 323:1 387:1 393:1 414:1 446:1 469:1 499:1 535:1 548:1 573:1 605:1 645:1 714:1 759:1 992:1 993:1 1021:1 1032:1 1046:1 1054:1 1055:1 1071:1 1086:1 1100:1 1137:1 1345:1 1407:1 1420:1 1453:1 1609:1 1629:1 1778:1 2020:1 2025:1 2038:1 2082:1 2124:1 2593:1 2652:1 2752:1 2834:1 3019:1 3149:1 3161:1 3376:1 3393:1 3537:1 3725:1 3819:1 3973:1 3989:1 4494:1 4573:1 4740:1 4742:1 5270:1 5609:1 6068:1 6384:1 7086:1 7628:1 7916:1 9214:1 9235:1 9420:1 9493:1 9579:1 9661:1 9671:1 9813:1 9992:1 10231:1 11481:1 11738:1 11967:1 12669:1 13147:1 13935:1 14079:1 16784:1 17039:1 17520:1 18051:1 18102:1 18905:1 20088:1 20484:1 21118:1 21167:1 22539:1 22791:1 23157:1 23167:1 24826:1 25927:1 27444:1 28447:1 30749:1 
0.062647861232102378 1:1 2:1 3:1 4:1 5:1 7:1 8:1 9:1 12:1 13:1 14:1 15:1 18:1 20:1 21:1 22:1 23:1 29:1 36:1 48:1 51:1 52:1 53:1 56:1 57:1 64:1 65:1 66:1 83:1 111:1 139:1 142:1 147:1 177:1 182:1 191:1 194:1 196:1 255:1 276:1 295:1 304:1 409:1 418:1 450:1 451:1 479:1 496:1 535:1 536:1 543:1 605:1 610:1 652:1 675:1 688:1 759:1 761:1 846:1 992:1 1058:1 1078:1 1086:1 1143:1 1148:1 1277:1 1287:1 1297:1 1434:1 1803:1 2025:1 2087:1 2095:1 2389:1 2548:1 2593:1 2655:1 3202:1 3391:1 3613:1 3615:1 4703:1 4788:1 5020:1 5046:1 5545:1 5878:1 6002:1 6721:1 7193:1 7397:1 7470:1 7916:1 7953:1 8324:1 9219:1 9227:1 9699:1 9869:1 10267:1 10309:1 11095:1 11189:1 11249:1 11848:1 13948:1 14305:1 14356:1 15166:1 15868:1 16474:1 18215:1 18882:1 19773:1 19791:1 23077:1 23329:1 25694:1 26615:1 27180:1 31066:1 31773:1 34154:1 
0.29460340327600198 1:1 2:1 3:1 4:1 5:1 7:1 8:1 10:1 11:1 13:1 14:1 15:1 18:1 19:1 20:1 23:1 32:1 39:1 40:1 45:1 48:1 51:1 52:1 54:1 55:1 57:1 58:1 72:1 83:1 99:1 111:1 139:1 143:1 177:1 182:1 194:1 196:1 260:1 271:1 276:1 338:1 364:1 366:1 418:1 457:1 477:1 492:1 535:1 540:1 570:1 573:1 588:1 589:1 605:1 700:1 808:1 903:1 907:1 918:1 953:1 991:1 1061:1 1071:1 1107:1 1125:1 1148:1 1177:1 1365:1 1434:1 1676:1 1819:1 2020:1 2067:1 2389:1 2593:1 2652:1 3279:1 3393:1 4113:1 4291:1 4299:1 4774:1 5140:1 5346:1 5490:1 5942:1 6384:1 6566:1 6577:1 7563:1 8186:1 8708:1 8747:1 8787:1 8883:1 9210:1 9740:1 9813:1 10021:1 10135:1 10300:1 10514:1 11545:1 11860:1 13343:1 14254:1 15164:1 18518:1 18905:1 21943:1 21971:1 24452:1 25009:1 25439:1 26896:1 28447:1 29136:1 32325:1 33941:1 35111:1 35174:1 
0.04730471799676899 6:1 7:1 26:1 40:1 50:1 228:1 237:1 238:1 712:1 911:1 1044:1 2951:1 3005:1 7613:1 8757:1 9568:1 17339:1 17469:1 35134:1 
0.046331640151745769 1:1 2:1 3:1 4:1 5:1 7:1 8:1 9:1 11:1 12:1 13:1 14:1 16:1 18:1 19:1 20:1 21:1 26:1 46:1 48:1 51:1 52:1 53:1 63:1 67:1 81:1 95:1 115:1 139:1 147:1 151:1 177:1 182:1 191:1 194:1 196:1 256:1 272:1 286:1 304:1 309:1 313:1 316:1 323:1 367:1 378:1 413:1 451:1 457:1 507:1 511:1 540:1 573:1 575:1 605:1 606:1 651:1 724:1 975:1 992:1 993:1 1059:1 1070:1 1086:1 1253:1 1322:1 1618:1 1848:1 1855:1 2035:1 2087:1 2129:1 2372:1 2389:1 2548:1 2598:1 2652:1 3222:1 3339:1 3501:1 3503:1 3744:1 3827:1 3832:1 3865:1 3989:1 4306:1 5046:1 5141:1 5678:1 5717:1 5950:1 6384:1 6395:1 6704:1 7168:1 7701:1 9084:1 9090:1 9219:1 9238:1 9716:1 9784:1 10936:1 11381:1 12618:1 13497:1 14044:1 14046:1 14305:1 14467:1 15164:1 15868:1 16107:1 18314:1 19263:1 19268:1 20539:1 20599:1 21167:1 21997:1 24456:1 26114:1 26226:1 26971:1 28461:1 28502:1 29468:1 32668:1 
0.10168694819642828 1:1 2:1 4:1 5:1 6:1 9:1 11:1 13:1 18:1 20:1 29:1 48:1 50:1 53:1 57:1 82:1 83:1 98:1 123:1 130:1 147:1 177:1 194:1 206:1 304:1 315:1 324:1 352:1 422:1 535:1 537:1 544:1 606:1 610:1 752:1 992:1 1029:1 1086:1 1150:1 1422:1 1445:1 1654:1 1911:1 1975:1 2082:1 2593:1 2740:1 3848:1 4011:1 4014:1 4833:1 5907:1 6017:1 6693:1 6736:1 7851:1 9214:1 9467:1 10328:1 11766:1 11916:1 12746:1 13671:1 13818:1 16738:1 21262:1 21281:1 23462:1 26778:1 27261:1 29422:1 29623:1 33040:1 
0.099600485479126005 1:1 3:1 5:1 7:1 8:1 9:1 10:1 11:1 12:1 13:1 14:1 15:1 18:1 20:1 23:1 26:1 29:1 32:1 33:1 51:1 52:1 54:1 55:1 56:1 57:1 66:1 72:1 81:1 82:1 92:1 95:1 139:1 177:1 238:1 246:1 271:1 272:1 295:1 304:1 346:1 364:1 368:1 379:1 439:1 453:1 465:1 479:1 492:1 493:1 535:1 558:1 605:1 610:1 613:1 688:1 728:1 752:1 757:1 766:1 796:1 807:1 812:1 827:1 1051:1 1078:1 1114:1 1125:1 1134:1 1157:1 1297:1 1360:1 1407:1 1559:1 1615:1 2020:1 3102:1 3340:1 3348:1 3608:1 4175:1 4291:1 4317:1 4389:1 4959:1 5079:1 5223:1 5226:1 5498:1 5504:1 6250:1 6721:1 6771:1 7470:1 7480:1 7741:1 7834:1 7906:1 7996:1 8125:1 8174:1 8215:1 8266:1 9635:1 9863:1 10067:1 10135:1 10189:1 10378:1 11249:1 11256:1 11532:1 12313:1 12581:1 17914:1 18626:1 18676:1 19740:1 21646:1 21947:1 22185:1 23787:1 24666:1 24682:1 25474:1 28079:1 29748:1 32084:1 32763:1 33231:1 33574:1 33839:1 33982:1 34067:1 
0.035592183700429166 1:1 3:1 4:1 5:1 6:1 7:1 8:1 9:1 12:1 13:1 14:1 15:1 18:1 19:1 20:1 22:1 39:1 48:1 49:1 50:1 51:1 53:1 57:1 58:1 62:1 65:1 100:1 139:1 142:1 147:1 177:1 180:1 191:1 194:1 195:1 222:1 256:1 271:1 285:1 304:1 313:1 317:1 323:1 383:1 413:1 422:1 446:1 447:1 450:1 460:1 479:1 493:1 535:1 547:1 568:1 570:1 573:1 579:1 585:1 610:1 624:1 637:1 668:1 675:1 899:1 901:1 907:1 992:1 1007:1 1022:1 1035:1 1059:1 1100:1 1150:1 1165:1 1232:1 1238:1 1284:1 1287:1 1712:1 1723:1 2020:1 2034:1 2095:1 2349:1 2556:1 2593:1 2625:1 2898:1 3226:1 3480:1 3817:1 3890:1 3989:1 4433:1 4829:1 5008:1 5020:1 5157:1 5504:1 6056:1 6339:1 6384:1 6454:1 6517:1 6736:1 6900:1 7022:1 7347:1 7387:1 8662:1 8689:1 8745:1 9227:1 9440:1 9524:1 9717:1 9992:1 10324:1 10418:1 10809:1 10855:1 11150:1 11181:1 12977:1 13007:1 14027:1 14360:1 14992:1 15913:1 17224:1 18342:1 21167:1 22309:1 23442:1 23933:1 27399:1 28296:1 28447:1 28460:1 28767:1 28966:1 29623:1 30239:1 30556:1 31628:1 34860:1 34950:1 35099:1 
0.11370359590484509 1:1 3:1 4:1 5:1 7:1 8:1 9:1 13:1 14:1 15:1 19:1 20:1 21:1 23:1 26:1 39:1 48:1 49:1 51:1 57:1 58:1 62:1 67:1 82:1 94:1 139:1 142:1 143:1 151:1 157:1 177:1 181:1 191:1 197:1 256:1 289:1 304:1 418:1 444:1 446:1 451:1 479:1 493:1 573:1 579:1 625:1 639:1 644:1 688:1 726:1 890:1 991:1 993:1 994:1 1007:1 1059:1 1162:1 1166:1 1232:1 1235:1 1324:1 1419:1 1593:1 2038:1 2056:1 2124:1 2177:1 2351:1 2544:1 2675:1 3226:1 3556:1 4774:1 4979:1 5059:1 5504:1 6384:1 6447:1 6919:1 7080:1 7480:1 7714:1 8584:1 9201:1 9235:1 9261:1 9717:1 10394:1 10429:1 10809:1 10827:1 11391:1 11732:1 12474:1 14098:1 14219:1 14599:1 18339:1 19526:1 23825:1 24132:1 28464:1 30302:1 30733:1 32084:1 32702:1 34685:1 
0.20432216286289187 4:1 5:1 8:1 9:1 12:1 13:1 48:1 52:1 53:1 147:1 177:1 189:1 276:1 304:1 391:1 418:1 992:1 1071:1 1086:1 2082:1 2507:1 3387:1 4544:1 4774:1 9214:1 9808:1 15695:1 18846:1 22702:1 
0.004986770069562445 3:1 5:1 8:1 9:1 11:1 14:1 16:1 18:1 19:1 20:1 21:1 22:1 49:1 62:1 65:1 139:1 177:1 191:1 194:1 286:1 318:1 368:1 446:1 451:1 460:1 511:1 535:1 555:1 573:1 610:1 649:1 670:1 1019:1 1232:1 1285:1 2035:1 2544:1 2593:1 2613:1 3503:1 3922:1 4319:1 5061:1 5160:1 5720:1 6207:1 6384:1 6721:1 7151:1 7364:1 9405:1 10809:1 11164:1 14046:1 16294:1 19270:1 20966:1 22011:1 24147:1 24496:1 26242:1 27918:1 28461:1 30949:1 31681:1 
0.0069676120516973554 3:1 4:1 5:1 6:1 7:1 8:1 9:1 10:1 13:1 14:1 15:1 18:1 19:1 20:1 23:1 26:1 29:1 30:1 48:1 49:1 54:1 57:1 62:1 66:1 139:1 157:1 177:1 182:1 183:1 194:1 201:1 230:1 256:1 271:1 289:1 307:1 311:1 323:1 338:1 418:1 453:1 481:1 535:1 570:1 575:1 614:1 686:1 693:1 705:1 752:1 780:1 994:1 1007:1 1012:1 1107:1 1148:1 1234:1 1296:1 1300:1 2020:1 2038:1 2168:1 2387:1 2410:1 2593:1 2712:1 2970:1 3217:1 3545:1 3725:1 3802:1 3986:1 4130:1 4788:1 5094:1 5364:1 6395:1 6788:1 7448:1 7504:1 7850:1 8059:1 9253:1 9372:1 10032:1 10309:1 10813:1 11232:1 11274:1 14087:1 14582:1 15136:1 15253:1 17395:1 19456:1 20096:1 20420:1 21570:1 23329:1 24291:1 25049:1 28509:1 29825:1 31964:1 32156:1 33032:1 33697:1 
0.047387191539157485 1:1 3:1 4:1 5:1 6:1 7:1 8:1 9:1 12:1 14:1 19:1 21:1 29:1 49:1 51:1 52:1 53:1 64:1 81:1 139:1 147:1 177:1 180:1 211:1 225:1 229:1 238:1 244:1 271:1 272:1 282:1 304:1 311:1 323:1 387:1 390:1 450:1 573:1 645:1 652:1 755:1 1009:1 1049:1 1070:1 1100:1 1272:1 2020:1 2031:1 2082:1 2349:1 2800:1 2939:1 2960:1 3066:1 3339:1 3450:1 3786:1 3989:1 4485:1 4492:1 4532:1 5025:1 6384:1 7090:1 7193:1 7872:1 9353:1 9611:1 9784:1 9992:1 11056:1 14000:1 14998:1 16950:1 17311:1 17364:1 17755:1 19069:1 21167:1 22525:1 22677:1 23976:1 28447:1 30778:1 31069:1 33097:1 
0.13737078407193368 4:1 5:1 9:1 13:1 29:1 48:1 57:1 147:1 151:1 177:1 304:1 436:1 747:1 992:1 1155:1 2082:1 2124:1 4933:1 7805:1 9214:1 10359:1 23711:1 32876:1 
0.15642607505309034 1:1 2:1 4:1 5:1 9:1 12:1 18:1 19:1 23:1 26:1 39:1 40:1 46:1 49:1 66:1 78:1 82:1 93:1 111:1 115:1 147:1 177:1 194:1 329:1 378:1 535:1 536:1 574:1 588:1 699:1 705:1 902:1 908:1 975:1 1007:1 1306:1 1403:1 1418:1 1563:1 1819:1 1866:1 2098:1 2593:1 2594:1 4066:1 5877:1 6387:1 6552:1 7558:1 8705:1 8751:1 9101:1 11317:1 11628:1 11710:1 13344:1 13537:1 14373:1 16050:1 26605:1 28481:1 29071:1 32315:1 34993:1 35125:1 
0.0059917821548161063 2:1 3:1 5:1 7:1 8:1 9:1 11:1 12:1 14:1 18:1 19:1 20:1 21:1 23:1 36:1 39:1 51:1 53:1 62:1 74:1 111:1 137:1 139:1 194:1 199:1 238:1 243:1 256:1 258:1 280:1 306:1 311:1 313:1 315:1 316:1 323:1 368:1 387:1 453:1 542:1 544:1 570:1 572:1 573:1 605:1 652:1 686:1 852:1 901:1 1059:1 1094:1 1230:1 1379:1 1824:1 2014:1 2029:1 2602:1 2702:1 3054:1 3219:1 3220:1 3260:1 3424:1 3723:1 3802:1 3804:1 3818:1 3860:1 3874:1 3986:1 4317:1 4492:1 5079:1 5980:1 6015:1 6374:1 6384:1 7196:1 7456:1 8362:1 8686:1 9715:1 9939:1 11578:1 13400:1 13894:1 13978:1 16154:1 16634:1 17679:1 18304:1 18308:1 18447:1 18980:1 20081:1 20422:1 20449:1 20482:1 20713:1 20770:1 22534:1 27094:1 27241:1 28424:1 28455:1 31088:1 32001:1 34242:1 34936:1 
0.22207622070267941 1:1 2:1 3:1 5:1 6:1 8:1 9:1 12:1 13:1 15:1 16:1 18:1 19:1 20:1 21:1 23:1 29:1 39:1 45:1 49:1 50:1 52:1 57:1 60:1 62:1 64:1 66:1 83:1 111:1 139:1 177:1 189:1 194:1 196:1 205:1 236:1 276:1 289:1 324:1 393:1 418:1 436:1 479:1 518:1 535:1 544:1 555:1 570:1 605:1 642:1 645:1 658:1 685:1 759:1 901:1 953:1 1007:1 1043:1 1071:1 1148:1 1155:1 1206:1 1230:1 1272:1 1295:1 1434:1 1819:1 2038:1 2509:1 2593:1 2652:1 2999:1 3393:1 3537:1 4010:1 4557:1 4774:1 4938:1 5772:1 6024:1 6215:1 7049:1 7084:1 7297:1 7438:1 7924:1 8680:1 8883:1 9564:1 9813:1 10300:1 10364:1 10652:1 11051:1 11222:1 11860:1 13343:1 14079:1 15704:1 17452:1 18905:1 23734:1 26426:1 27309:1 27957:1 30607:1 31468:1 31926:1 33326:1 
0.018841892043484611 1:1 2:1 3:1 4:1 5:1 7:1 8:1 13:1 14:1 15:1 16:1 18:1 19:1 20:1 21:1 22:1 26:1 32:1 36:1 45:1 57:1 58:1 59:1 62:1 65:1 74:1 81:1 82:1 84:1 111:1 139:1 142:1 147:1 177:1 180:1 181:1 194:1 197:1 201:1 238:1 271:1 289:1 293:1 414:1 451:1 482:1 493:1 496:1 507:1 517:1 535:1 573:1 599:1 610:1 644:1 658:1 675:1 712:1 795:1 857:1 954:1 1147:1 1166:1 1182:1 1232:1 1247:1 1287:1 1382:1 1407:1 1453:1 1825:1 2020:1 2038:1 2042:1 2098:1 2349:1 2351:1 2593:1 2688:1 2716:1 3541:1 3599:1 4740:1 5049:1 5368:1 5518:1 5537:1 5665:1 5758:1 6384:1 6660:1 6739:1 7068:1 7299:1 7396:1 7613:1 8124:1 8409:1 8899:1 10287:1 10423:1 10523:1 10809:1 10904:1 11188:1 11584:1 11971:1 13409:1 14083:1 14139:1 14373:1 14992:1 16590:1 16673:1 19432:1 19718:1 23157:1 24078:1 25070:1 25552:1 26352:1 28464:1 29352:1 29672:1 30644:1 31473:1 31763:1 33838:1 34355:1 
0.83623052149246313 1:1 4:1 5:1 8:1 9:1 13:1 14:1 15:1 18:1 19:1 22:1 29:1 45:1 48:1 52:1 65:1 90:1 99:1 147:1 157:1 194:1 295:1 304:1 318:1 418:1 426:1 455:1 479:1 535:1 585:1 675:1 756:1 959:1 966:1 992:1 994:1 1078:1 1287:1 1538:1 1688:1 2098:1 2166:1 2593:1 3610:1 3918:1 4788:1 4851:1 5106:1 6508:1 7387:1 7886:1 8933:1 9017:1 9229:1 9251:1 9865:1 11181:1 12250:1 12887:1 14373:1 19759:1 20938:1 23329:1 23513:1 33152:1 
0.25683911290016859 1:1 2:1 3:1 4:1 5:1 7:1 8:1 9:1 14:1 18:1 19:1 20:1 22:1 29:1 45:1 46:1 48:1 51:1 52:1 53:1 58:1 61:1 65:1 81:1 82:1 83:1 95:1 98:1 99:1 111:1 115:1 139:1 143:1 147:1 177:1 194:1 239:1 271:1 272:1 289:1 304:1 307:1 309:1 450:1 455:1 535:1 553:1 560:1 570:1 573:1 605:1 606:1 670:1 746:1 953:1 975:1 991:1 1046:1 1070:1 1088:1 1167:1 1223:1 1285:1 1422:1 1434:1 1612:1 1652:1 1676:1 1819:1 1848:1 2020:1 2038:1 2067:1 2082:1 2593:1 2611:1 3010:1 3339:1 3537:1 3538:1 3725:1 3744:1 5025:1 5110:1 6154:1 6259:1 6384:1 6704:1 7364:1 7800:1 8883:1 9084:1 9210:1 9572:1 9784:1 9915:1 10435:1 10762:1 11164:1 11764:1 11860:1 12553:1 13343:1 14079:1 14080:1 14254:1 16251:1 17485:1 19404:1 20085:1 23976:1 24344:1 27732:1 28092:1 28464:1 29465:1 31679:1 32866:1 
0.568404749991541 1:1 2:1 3:1 4:1 5:1 6:1 7:1 8:1 9:1 14:1 18:1 19:1 36:1 46:1 47:1 53:1 58:1 99:1 111:1 139:1 142:1 177:1 184:1 210:1 211:1 255:1 271:1 272:1 307:1 310:1 313:1 475:1 544:1 570:1 847:1 973:1 989:1 1088:1 1175:1 1676:1 1810:1 2020:1 2021:1 2429:1 2762:1 2786:1 3204:1 3355:1 3725:1 3770:1 3822:1 5323:1 6016:1 8325:1 9067:1 9183:1 9915:1 10496:1 13280:1 13916:1 15352:1 16900:1 18239:1 18724:1 20085:1 20289:1 20501:1 24953:1 27249:1 
0.21165511351980096 1:1 2:1 3:1 4:1 5:1 7:1 8:1 10:1 14:1 15:1 18:1 19:1 20:1 21:1 22:1 23:1 26:1 29:1 32:1 33:1 39:1 45:1 48:1 51:1 54:1 58:1 65:1 72:1 95:1 99:1 100:1 111:1 139:1 147:1 177:1 185:1 191:1 194:1 201:1 238:1 256:1 271:1 289:1 290:1 346:1 446:1 450:1 451:1 469:1 470:1 477:1 479:1 493:1 496:1 535:1 537:1 554:1 573:1 585:1 610:1 619:1 620:1 624:1 652:1 668:1 693:1 710:1 712:1 726:1 743:1 757:1 808:1 814:1 899:1 907:1 963:1 966:1 992:1 1059:1 1114:1 1171:1 1177:1 1284:1 1365:1 1613:1 1688:1 1712:1 1816:1 2020:1 2038:1 2082:1 2098:1 2444:1 2544:1 2593:1 2612:1 2726:1 3220:1 3551:1 3580:1 4172:1 5025:1 5046:1 5066:1 5266:1 5268:1 5282:1 5346:1 5518:1 5539:1 5899:1 6185:1 6384:1 6508:1 6736:1 6837:1 6848:1 6900:1 7193:1 7347:1 7508:1 7595:1 7613:1 7716:1 7907:1 8186:1 8663:1 8672:1 8744:1 8977:1 9017:1 9214:1 9715:1 10065:1 10467:1 10514:1 11150:1 11545:1 12569:1 12887:1 12977:1 13327:1 14093:1 14392:1 15423:1 16279:1 16703:1 18308:1 19490:1 19632:1 23987:1 24194:1 24808:1 24817:1 25007:1 25554:1 25647:1 26735:1 27837:1 28447:1 28464:1 29623:1 29979:1 30017:1 30239:1 31069:1 31628:1 32179:1 32384:1 32710:1 33244:1 33941:1 34874:1 34898:1 35086:1 35090:1 
0.079007513745636443 1:1 3:1 4:1 5:1 6:1 7:1 8:1 9:1 12:1 13:1 14:1 15:1 18:1 19:1 20:1 21:1 22:1 23:1 29:1 30:1 36:1 41:1 45:1 47:1 49:1 50:1 51:1 53:1 58:1 59:1 62:1 64:1 65:1 66:1 82:1 93:1 98:1 139:1 147:1 182:1 184:1 190:1 194:1 195:1 196:1 205:1 229:1 238:1 239:1 256:1 271:1 285:1 287:1 304:1 309:1 313:1 323:1 378:1 413:1 475:1 479:1 482:1 485:1 491:1 535:1 540:1 544:1 570:1 573:1 575:1 579:1 585:1 605:1 645:1 675:1 694:1 755:1 782:1 867:1 924:1 937:1 961:1 989:1 1018:1 1022:1 1038:1 1059:1 1100:1 1175:1 1182:1 1232:1 1234:1 1238:1 1272:1 1287:1 1301:1 1422:1 1563:1 1652:1 2020:1 2034:1 2036:1 2098:1 2387:1 2415:1 2524:1 2593:1 2625:1 2652:1 2960:1 3010:1 3226:1 3480:1 3517:1 3750:1 3817:1 3989:1 5331:1 5368:1 5398:1 5463:1 5954:1 6013:1 6384:1 6395:1 6454:1 6512:1 7084:1 7394:1 7522:1 7864:1 8072:1 8480:1 8493:1 8808:1 8844:1 8943:1 9189:1 9397:1 9440:1 9536:1 9717:1 9992:1 10502:1 10523:1 10809:1 10813:1 10850:1 11051:1 11186:1 11289:1 11764:1 14027:1 14060:1 14373:1 15136:1 17359:1 17485:1 18342:1 19336:1 20181:1 21167:1 24981:1 25070:1 25136:1 27005:1 27218:1 28447:1 28460:1 28509:1 28767:1 28945:1 31749:1 32221:1 33726:1 34511:1 34547:1 35205:1 35255:1 
0.036451827465990301 1:1 4:1 5:1 7:1 9:1 12:1 13:1 14:1 18:1 19:1 20:1 29:1 49:1 53:1 57:1 58:1 62:1 88:1 90:1 100:1 142:1 177:1 190:1 191:1 194:1 243:1 250:1 317:1 322:1 324:1 379:1 418:1 422:1 447:1 450:1 451:1 540:1 542:1 549:1 571:1 605:1 629:1 759:1 1018:1 1021:1 1099:1 1150:1 1165:1 1231:1 1506:1 1537:1 1717:1 2528:1 2547:1 2598:1 3051:1 3147:1 3894:1 3967:1 4010:1 4393:1 4774:1 4833:1 5000:1 5020:1 5046:1 5937:1 5980:1 6090:1 6359:1 6962:1 7928:1 9399:1 9423:1 9987:1 10328:1 10412:1 10799:1 12127:1 12235:1 12997:1 15780:1 15851:1 16096:1 17649:1 18031:1 20824:1 21091:1 22209:1 23461:1 23886:1 27092:1 27507:1 28357:1 30437:1 33350:1 
0.37444190396825572 1:1 2:1 3:1 4:1 5:1 8:1 14:1 15:1 19:1 20:1 21:1 29:1 32:1 33:1 47:1 48:1 49:1 58:1 69:1 72:1 99:1 111:1 139:1 143:1 147:1 179:1 191:1 196:1 271:1 285:1 446:1 473:1 479:1 493:1 570:1 573:1 605:1 639:1 762:1 808:1 814:1 989:1 991:1 992:1 1008:1 1174:1 1347:1 1365:1 1676:1 1816:1 2020:1 2034:1 2067:1 2100:1 2334:1 2544:1 2652:1 3493:1 5312:1 5504:1 6384:1 7962:1 8186:1 9188:1 9210:1 9231:1 9351:1 10488:1 11501:1 11545:1 13327:1 14036:1 14254:1 14414:1 14940:1 19215:1 28447:1 33941:1 
0.13923832526723229 1:1 3:1 4:1 7:1 8:1 9:1 18:1 19:1 20:1 36:1 48:1 51:1 53:1 74:1 99:1 139:1 143:1 256:1 271:1 289:1 304:1 307:1 313:1 323:1 544:1 570:1 573:1 579:1 622:1 859:1 865:1 991:1 1059:1 1100:1 1386:1 1676:1 2020:1 2038:1 2067:1 3226:1 3553:1 3725:1 3817:1 3819:1 3989:1 6016:1 6384:1 6454:1 6862:1 8426:1 8472:1 9210:1 9717:1 9992:1 11590:1 14095:1 14254:1 18342:1 19498:1 20085:1 20484:1 21167:1 27246:1 28447:1 28464:1 28767:1 30085:1 34390:1 34493:1 
0.04192804063306322 1:1 2:1 3:1 5:1 6:1 7:1 8:1 9:1 12:1 13:1 14:1 15:1 18:1 19:1 20:1 21:1 22:1 29:1 45:1 50:1 64:1 65:1 84:1 93:1 95:1 99:1 107:1 111:1 139:1 177:1 184:1 191:1 192:1 194:1 210:1 211:1 217:1 243:1 271:1 272:1 289:1 307:1 309:1 387:1 397:1 403:1 418:1 451:1 458:1 465:1 480:1 491:1 493:1 535:1 537:1 570:1 582:1 588:1 605:1 610:1 613:1 645:1 675:1 760:1 963:1 966:1 1033:1 1272:1 1287:1 1453:1 1582:1 1619:1 1676:1 1779:1 1817:1 2020:1 2038:1 2419:1 2548:1 2561:1 2577:1 2593:1 2595:1 2774:1 2786:1 2847:1 3054:1 3349:1 3541:1 3725:1 3750:1 4488:1 4490:1 4606:1 4671:1 4786:1 5046:1 5149:1 5226:1 5353:1 5466:1 5505:1 5899:1 6487:1 6560:1 6736:1 6771:1 7090:1 7394:1 7951:1 8982:1 9012:1 9499:1 11056:1 11186:1 11967:1 12429:1 12624:1 13150:1 13340:1 14083:1 15289:1 15868:1 15948:1 16002:1 16067:1 16848:1 16906:1 17076:1 17674:1 18685:1 19429:1 20085:1 20182:1 22500:1 22511:1 23015:1 23320:1 24475:1 24682:1 25020:1 25345:1 25488:1 26736:1 28882:1 29116:1 29623:1 29749:1 30770:1 31750:1 33424:1 
1 1:1 4:1 5:1 13:1 16:1 19:1 21:1 36:1 48:1 57:1 74:1 99:1 143:1 177:1 195:1 433:1 507:1 517:1 570:1 644:1 857:1 991:1 1154:1 1382:1 1676:1 2067:1 2625:1 4915:1 5665:1 5758:1 7078:1 8409:1 9210:1 10346:1 11584:1 14254:1 23667:1 26352:1 30713:1 34355:1 
0.067114549154565453 4:1 5:1 8:1 9:1 13:1 19:1 20:1 48:1 52:1 57:1 62:1 147:1 177:1 196:1 271:1 276:1 304:1 421:1 579:1 605:1 992:1 1071:1 1149:1 1235:1 2082:1 2652:1 3393:1 4816:1 6447:1 9214:1 9813:1 10313:1 10827:1 18905:1 
0.0086868236538712382 1:1 4:1 5:1 6:1 7:1 8:1 9:1 13:1 14:1 15:1 18:1 19:1 20:1 21:1 33:1 42:1 48:1 51:1 57:1 62:1 64:1 99:1 142:1 143:1 151:1 177:1 205:1 210:1 211:1 245:1 246:1 257:1 298:1 304:1 309:1 318:1 428:1 450:1 479:1 496:1 563:1 570:1 579:1 585:1 588:1 605:1 645:1 658:1 819:1 833:1 939:1 946:1 991:1 993:1 1051:1 1152:1 1235:1 1238:1 1272:1 1280:1 1689:1 2067:1 2129:1 2762:1 2782:1 3092:1 3110:1 3246:1 3646:1 3744:1 3913:1 4875:1 5020:1 5561:1 6303:1 6447:1 6458:1 6508:1 6548:1 7089:1 7090:1 7300:1 8230:1 8300:1 8305:1 8855:1 9210:1 9238:1 9643:1 10338:1 10827:1 10836:1 10846:1 11056:1 11139:1 12890:1 14259:1 14467:1 17876:1 17947:1 19867:1 20888:1 23584:1 25782:1 28204:1 28800:1 30755:1 30767:1 31482:1 34020:1 34133:1 35274:1 
0.26675875737648785 1:1 3:1 4:1 8:1 10:1 15:1 19:1 32:1 45:1 48:1 54:1 72:1 81:1 82:1 89:1 99:1 139:1 143:1 271:1 272:1 341:1 479:1 570:1 573:1 808:1 958:1 991:1 1110:1 1365:1 1407:1 1519:1 1676:1 2020:1 2067:1 3340:1 4140:1 6384:1 8186:1 8925:1 9210:1 10037:1 11545:1 12166:1 14254:1 18626:1 28447:1 33941:1 
0.24543509827946441 1:1 3:1 4:1 5:1 7:1 8:1 9:1 13:1 14:1 16:1 18:1 19:1 20:1 21:1 36:1 48:1 51:1 58:1 62:1 74:1 82:1 98:1 139:1 159:1 177:1 194:1 239:1 271:1 307:1 309:1 313:1 413:1 455:1 507:1 517:1 535:1 554:1 555:1 579:1 605:1 651:1 857:1 995:1 1046:1 1167:1 1235:1 1382:1 1422:1 1652:1 2020:1 2194:1 2612:1 3010:1 3725:1 3744:1 3819:1 5110:1 5678:1 5758:1 6173:1 6209:1 6454:1 7168:1 8409:1 9273:1 9572:1 10435:1 10833:1 11584:1 11764:1 14660:1 16269:1 17485:1 20085:1 20484:1 24344:1 26123:1 26358:1 27922:1 28769:1 34355:1 
0.052901648731575407 1:1 3:1 4:1 5:1 7:1 8:1 9:1 11:1 12:1 14:1 15:1 19:1 20:1 21:1 23:1 45:1 48:1 52:1 53:1 55:1 66:1 82:1 88:1 95:1 99:1 139:1 151:1 177:1 184:1 191:1 196:1 243:1 250:1 271:1 272:1 307:1 309:1 353:1 398:1 446:1 492:1 575:1 605:1 610:1 624:1 644:1 688:1 952:1 993:1 1070:1 1088:1 1119:1 1297:1 1413:1 1506:1 1609:1 1680:1 2020:1 2129:1 2419:1 2544:1 2652:1 2665:1 3056:1 3153:1 3351:1 3725:1 3744:1 4206:1 4629:1 5480:1 6408:1 6733:1 6900:1 7070:1 7479:1 8865:1 9238:1 9795:1 9915:1 10094:1 11255:1 11682:1 12130:1 12865:1 14467:1 15291:1 16536:1 17702:1 18065:1 18696:1 20085:1 21721:1 22899:1 28616:1 29610:1 30238:1 30658:1 32077:1 
0.057254932672501119 4:1 5:1 7:1 8:1 9:1 15:1 19:1 20:1 22:1 23:1 29:1 32:1 48:1 49:1 51:1 52:1 66:1 147:1 177:1 198:1 199:1 238:1 245:1 256:1 276:1 313:1 324:1 479:1 493:1 599:1 605:1 675:1 686:1 693:1 750:1 793:1 812:1 992:1 1026:1 1059:1 1071:1 1296:1 2101:1 2694:1 2705:1 3074:1 3243:1 3376:1 3833:1 4010:1 5504:1 6666:1 7396:1 7453:1 7503:1 7820:1 8206:1 9232:1 9458:1 9722:1 9800:1 11236:1 14424:1 16611:1 16643:1 18414:1 20609:1 29362:1 31760:1 31990:1 32142:1 32916:1 
0.039119412435275079 1:1 2:1 4:1 5:1 8:1 9:1 12:1 15:1 18:1 19:1 20:1 21:1 39:1 45:1 48:1 52:1 83:1 99:1 111:1 124:1 157:1 159:1 194:1 196:1 276:1 304:1 398:1 479:1 490:1 535:1 568:1 585:1 605:1 614:1 657:1 887:1 953:1 966:1 994:1 995:1 1071:1 1446:1 1688:1 1819:1 1930:1 2166:1 2202:1 2593:1 2652:1 3393:1 4638:1 5456:1 6330:1 6508:1 6514:1 6782:1 7284:1 8563:1 8894:1 9017:1 9251:1 9281:1 9813:1 11925:1 12887:1 13343:1 13730:1 14686:1 18905:1 22925:1 25318:1 28260:1 28953:1 31436:1 34650:1 
0.0033575026591032096 3:1 4:1 5:1 6:1 7:1 8:1 9:1 12:1 13:1 14:1 15:1 19:1 20:1 21:1 23:1 29:1 36:1 39:1 47:1 48:1 57:1 58:1 62:1 64:1 139:1 166:1 177:1 205:1 243:1 247:1 289:1 300:1 304:1 318:1 323:1 387:1 418:1 426:1 442:1 446:1 453:1 477:1 479:1 493:1 501:1 573:1 585:1 637:1 645:1 686:1 743:1 850:1 856:1 897:1 898:1 989:1 998:1 1160:1 1177:1 1232:1 1238:1 1272:1 2038:1 2049:1 2254:1 3037:1 3114:1 3567:1 3663:1 3916:1 3998:1 4499:1 4774:1 4851:1 4968:1 5082:1 5340:1 5504:1 5628:1 6384:1 6517:1 6523:1 7013:1 7084:1 7461:1 8343:1 8394:1 8642:1 8654:1 9196:1 9297:1 10385:1 10508:1 10809:1 10855:1 10861:1 11051:1 14109:1 14187:1 19586:1 19904:1 20924:1 21219:1 22578:1 23508:1 23798:1 24222:1 24991:1 25989:1 28464:1 28966:1 28986:1 30530:1 32032:1 34190:1 34823:1 34847:1 
0.042325510449545495 3:1 5:1 8:1 9:1 14:1 15:1 20:1 21:1 23:1 37:1 59:1 66:1 139:1 177:1 180:1 280:1 304:1 318:1 451:1 455:1 492:1 493:1 610:1 657:1 698:1 882:1 1192:1 1305:1 2029:1 2349:1 3427:1 3914:1 5046:1 5106:1 5489:1 5516:1 6723:1 7281:1 7549:1 8549:1 10552:1 11310:1 13981:1 14996:1 18998:1 20900:1 25427:1 25543:1 29538:1 31424:1 32294:1 34620:1 
0.56914523560249997 1:1 2:1 3:1 4:1 5:1 6:1 7:1 8:1 9:1 14:1 15:1 18:1 19:1 23:1 29:1 36:1 39:1 45:1 50:1 53:1 58:1 62:1 69:1 74:1 83:1 84:1 111:1 139:1 164:1 177:1 191:1 194:1 206:1 236:1 243:1 271:1 309:1 310:1 322:1 323:1 450:1 461:1 479:1 535:1 542:1 570:1 573:1 686:1 752:1 852:1 901:1 953:1 1043:1 1099:1 1100:1 1169:1 1230:1 1341:1 1379:1 1434:1 1453:1 1819:1 2020:1 2244:1 2547:1 2593:1 2741:1 2999:1 3051:1 3744:1 3766:1 3967:1 3986:1 3989:1 5040:1 5168:1 5980:1 6384:1 7450:1 7839:1 8362:1 8680:1 8883:1 9564:1 9987:1 9992:1 10446:1 11448:1 11578:1 11860:1 11952:1 13343:1 14772:1 15863:1 16740:1 17452:1 17649:1 20273:1 21091:1 21167:1 24059:1 27092:1 28447:1 31968:1 32971:1 34242:1 
1 3:1 4:1 5:1 7:1 8:1 9:1 14:1 15:1 18:1 19:1 20:1 23:1 32:1 48:1 52:1 72:1 139:1 157:1 164:1 177:1 191:1 196:1 243:1 271:1 276:1 309:1 450:1 481:1 542:1 570:1 623:1 686:1 807:1 994:1 1071:1 1364:1 2020:1 2168:1 2244:1 2547:1 2664:1 3051:1 3393:1 3744:1 5040:1 5364:1 5980:1 6872:1 7450:1 8177:1 9253:1 9813:1 11543:1 14582:1 14772:1 15863:1 16521:1 17649:1 18913:1 24059:1 25049:1 27092:1 31968:1 33924:1 
0.088711930745113368 1:1 2:1 3:1 4:1 5:1 6:1 7:1 8:1 9:1 12:1 13:1 14:1 15:1 18:1 19:1 20:1 21:1 23:1 29:1 48:1 49:1 50:1 53:1 62:1 64:1 69:1 101:1 111:1 139:1 142:1 147:1 164:1 177:1 190:1 191:1 222:1 243:1 271:1 289:1 322:1 323:1 378:1 428:1 446:1 450:1 460:1 490:1 496:1 535:1 536:1 537:1 542:1 573:1 620:1 639:1 652:1 685:1 759:1 990:1 992:1 1018:1 1035:1 1099:1 1100:1 1232:1 1277:1 1345:1 1724:1 1803:1 2020:1 2038:1 2095:1 2243:1 2534:1 2547:1 2556:1 2887:1 3051:1 3551:1 3967:1 3989:1 4871:1 5020:1 5040:1 5157:1 5441:1 5539:1 5894:1 5899:1 5980:1 6384:1 6850:1 7193:1 7440:1 7916:1 9227:1 9402:1 9515:1 9987:1 9992:1 10809:1 11095:1 11481:1 14093:1 14360:1 14768:1 15808:1 15863:1 15913:1 17171:1 17649:1 19492:1 21091:1 21167:1 23554:1 24058:1 25647:1 26710:1 26729:1 27092:1 28447:1 28464:1 30027:1 31066:1 31937:1 
0.37037243957891924 5:1 8:1 9:1 11:1 12:1 13:1 14:1 15:1 18:1 20:1 23:1 29:1 52:1 55:1 56:1 58:1 66:1 177:1 182:1 191:1 194:1 295:1 309:1 355:1 383:1 418:1 451:1 455:1 460:1 491:1 535:1 540:1 610:1 624:1 688:1 761:1 1078:1 1120:1 1135:1 1167:1 1297:1 2387:1 2556:1 2593:1 2598:1 3615:1 3744:1 4225:1 4435:1 4788:1 5046:1 5110:1 5160:1 5466:1 5937:1 6721:1 6900:1 7478:1 7959:1 9869:1 10102:1 10195:1 10435:1 11254:1 15140:1 15914:1 16096:1 19795:1 21764:1 22322:1 23329:1 24344:1 24490:1 25346:1 30232:1 32075:1 33454:1 
0.18269936695091732 1:1 3:1 4:1 5:1 6:1 7:1 8:1 9:1 12:1 13:1 14:1 15:1 18:1 19:1 20:1 29:1 45:1 48:1 50:1 51:1 52:1 59:1 62:1 81:1 84:1 90:1 95:1 139:1 147:1 177:1 194:1 196:1 205:1 211:1 214:1 243:1 246:1 262:1 272:1 276:1 289:1 304:1 311:1 316:1 387:1 391:1 413:1 461:1 479:1 482:1 484:1 493:1 535:1 570:1 573:1 585:1 605:1 606:1 617:1 743:1 766:1 959:1 992:1 1032:1 1051:1 1062:1 1071:1 1182:1 1230:1 1232:1 1238:1 1453:1 1531:1 1622:1 2021:1 2038:1 2082:1 2098:1 2593:1 2652:1 2658:1 2782:1 2831:1 3056:1 3102:1 3299:1 3339:1 3351:1 3393:1 3538:1 3789:1 3878:1 4485:1 4542:1 5172:1 5368:1 5383:1 5504:1 6384:1 6508:1 6517:1 6695:1 6816:1 7987:1 8930:1 9214:1 9491:1 9635:1 9752:1 9813:1 10523:1 10809:1 10846:1 10855:1 11953:1 12204:1 12634:1 13913:1 14080:1 14373:1 16499:1 17026:1 17707:1 17913:1 18566:1 18704:1 18905:1 19397:1 20362:1 20790:1 24529:1 25070:1 25102:1 28464:1 28966:1 29433:1 29930:1 
0.078267764360749795 1:1 3:1 4:1 5:1 6:1 7:1 8:1 9:1 10:1 14:1 18:1 19:1 20:1 21:1 39:1 48:1 49:1 52:1 54:1 63:1 99:1 139:1 142:1 151:1 177:1 181:1 194:1 206:1 243:1 276:1 304:1 342:1 453:1 541:1 573:1 588:1 589:1 605:1 623:1 637:1 652:1 903:1 993:1 1021:1 1071:1 1111:1 1267:1 1689:1 2025:1 2124:1 2351:1 2599:1 2750:1 3037:1 3376:1 3380:1 4155:1 5082:1 5958:1 6384:1 6566:1 6577:1 6875:1 7019:1 7196:1 8715:1 9235:1 9424:1 9802:1 10052:1 11044:1 12900:1 13935:1 16113:1 16772:1 18788:1 21609:1 24222:1 27027:1 28451:1 29136:1 30155:1 30548:1 31090:1 35015:1 
0.037796360600209446 1:1 3:1 4:1 5:1 8:1 9:1 13:1 14:1 15:1 18:1 19:1 20:1 21:1 23:1 29:1 57:1 62:1 64:1 66:1 82:1 100:1 139:1 142:1 147:1 194:1 195:1 289:1 313:1 324:1 422:1 450:1 479:1 535:1 573:1 585:1 605:1 606:1 610:1 629:1 652:1 686:1 757:1 1150:1 1232:1 1238:1 1277:1 1296:1 1424:1 1697:1 2038:1 2099:1 2593:1 2628:1 3538:1 3560:1 3833:1 4010:1 4014:1 4833:1 5020:1 5025:1 6384:1 6508:1 6693:1 6736:1 6961:1 7193:1 7453:1 7895:1 10328:1 10809:1 10846:1 11095:1 11236:1 11799:1 14080:1 14102:1 14402:1 16368:1 19395:1 19551:1 20612:1 21281:1 23461:1 23988:1 28464:1 29424:1 29623:1 30427:1 31066:1 31990:1 33171:1 
0.24128154112695605 3:1 8:1 14:1 19:1 32:1 33:1 58:1 62:1 72:1 139:1 271:1 473:1 573:1 599:1 793:1 808:1 812:1 816:1 1174:1 1247:1 1365:1 2020:1 5313:1 6384:1 6666:1 8186:1 8206:1 8221:1 10489:1 10910:1 11545:1 24936:1 28447:1 29362:1 33941:1 34002:1 
0.10435945347137476 3:1 5:1 6:1 7:1 8:1 9:1 11:1 18:1 19:1 20:1 21:1 22:1 29:1 51:1 53:1 65:1 69:1 139:1 180:1 194:1 210:1 256:1 271:1 304:1 310:1 323:1 368:1 555:1 573:1 579:1 605:1 649:1 670:1 752:1 1059:1 1100:1 1285:1 1341:1 2020:1 2349:1 2613:1 2764:1 3226:1 3769:1 3989:1 4317:1 6207:1 6384:1 6447:1 7151:1 7364:1 7839:1 9717:1 9992:1 11164:1 11448:1 14992:1 16294:1 16803:1 18339:1 20278:1 21167:1 27918:1 28447:1 30948:1 31681:1 32972:1 
0.037125511225071732 1:1 2:1 3:1 4:1 5:1 8:1 9:1 12:1 13:1 14:1 15:1 16:1 19:1 20:1 21:1 26:1 46:1 48:1 49:1 58:1 67:1 81:1 82:1 100:1 115:1 118:1 139:1 143:1 195:1 286:1 313:1 316:1 323:1 378:1 379:1 413:1 461:1 479:1 493:1 511:1 570:1 573:1 585:1 605:1 651:1 724:1 975:1 976:1 991:1 1022:1 1169:1 1322:1 1407:1 1697:1 1855:1 1873:1 2035:1 2055:1 2056:1 2625:1 2639:1 3503:1 3827:1 3832:1 3865:1 3989:1 4393:1 5168:1 5504:1 5717:1 6384:1 6517:1 7168:1 7701:1 9090:1 9103:1 9200:1 9201:1 9440:1 9444:1 10446:1 11381:1 13497:1 13556:1 14046:1 14215:1 16409:1 19268:1 20539:1 20599:1 21167:1 22204:1 26226:1 28461:1 28966:1 32668:1 
0.37260815664681463 1:1 3:1 4:1 5:1 8:1 9:1 13:1 15:1 18:1 19:1 20:1 23:1 26:1 29:1 32:1 48:1 49:1 52:1 57:1 62:1 66:1 69:1 72:1 99:1 139:1 143:1 196:1 201:1 271:1 276:1 285:1 304:1 324:1 413:1 422:1 479:1 535:1 570:1 573:1 605:1 686:1 705:1 759:1 766:1 803:1 808:1 812:1 991:1 1028:1 1071:1 1150:1 1232:1 1296:1 1349:1 1365:1 1367:1 1676:1 2020:1 2034:1 2067:1 2652:1 2712:1 3393:1 3480:1 4010:1 4833:1 6384:1 7446:1 7916:1 7997:1 8153:1 8186:1 8213:1 9210:1 9462:1 9813:1 10328:1 10809:1 11230:1 11511:1 11545:1 11550:1 14027:1 14254:1 18905:1 23461:1 28447:1 28460:1 33575:1 33941:1 33976:1 
0.12254574289874819 1:1 4:1 5:1 6:1 8:1 9:1 13:1 14:1 16:1 18:1 19:1 20:1 39:1 48:1 50:1 52:1 57:1 60:1 82:1 95:1 147:1 151:1 177:1 194:1 195:1 196:1 236:1 276:1 304:1 418:1 444:1 447:1 451:1 505:1 535:1 575:1 588:1 605:1 890:1 901:1 992:1 993:1 1043:1 1071:1 1148:1 1162:1 1198:1 1420:1 1610:1 1613:1 2082:1 2124:1 2593:1 2642:1 2652:1 2999:1 3393:1 4788:1 4979:1 4993:1 5046:1 5655:1 6391:1 6553:1 8593:1 8680:1 9214:1 9235:1 9564:1 9813:1 10309:1 10394:1 10589:1 11741:1 12539:1 12569:1 16425:1 17452:1 18905:1 23329:1 23828:1 23862:1 26046:1 29073:1 34721:1 
0.084745699661759141 1:1 2:1 3:1 4:1 5:1 6:1 7:1 8:1 9:1 10:1 12:1 13:1 14:1 15:1 18:1 19:1 20:1 47:1 48:1 49:1 50:1 51:1 53:1 94:1 99:1 106:1 111:1 139:1 143:1 177:1 179:1 195:1 196:1 206:1 256:1 271:1 282:1 304:1 306:1 313:1 316:1 318:1 323:1 338:1 387:1 388:1 422:1 446:1 479:1 544:1 570:1 573:1 579:1 585:1 622:1 989:1 991:1 1007:1 1022:1 1029:1 1059:1 1100:1 1596:1 1676:1 1821:1 2020:1 2031:1 2067:1 2334:1 2639:1 2663:1 2747:1 3226:1 3450:1 3708:1 3818:1 3875:1 3910:1 3989:1 4114:1 4499:1 4511:1 4828:1 6016:1 6384:1 6447:1 6508:1 6862:1 9186:1 9210:1 9444:1 9472:1 9717:1 9992:1 12494:1 13387:1 14000:1 14254:1 14943:1 16406:1 16513:1 16756:1 18339:1 19076:1 20471:1 20778:1 21167:1 21532:1 22574:1 22623:1 23440:1 27245:1 28447:1 30085:1 
0.057778236542392787 1:1 2:1 3:1 4:1 5:1 6:1 8:1 9:1 12:1 13:1 14:1 15:1 16:1 18:1 19:1 20:1 21:1 22:1 32:1 33:1 36:1 37:1 39:1 42:1 46:1 47:1 48:1 50:1 52:1 53:1 57:1 58:1 61:1 62:1 65:1 75:1 81:1 115:1 139:1 142:1 147:1 157:1 191:1 194:1 196:1 217:1 236:1 271:1 272:1 275:1 285:1 304:1 307:1 318:1 387:1 422:1 446:1 450:1 472:1 479:1 493:1 508:1 535:1 551:1 566:1 600:1 605:1 625:1 655:1 658:1 670:1 797:1 833:1 860:1 878:1 901:1 940:1 946:1 975:1 989:1 990:1 992:1 1043:1 1070:1 1088:1 1150:1 1173:1 1227:1 1248:1 1285:1 1392:1 1859:1 2020:1 2024:1 2034:1 2095:1 2100:1 2166:1 2544:1 2609:1 2652:1 2847:1 2999:1 3339:1 3370:1 3493:1 3725:1 3910:1 4488:1 4821:1 5020:1 5309:1 5504:1 5690:1 6127:1 6318:1 6669:1 6932:1 7230:1 7308:1 7364:1 8126:1 8301:1 8305:1 8440:1 8527:1 8680:1 8846:1 8855:1 9094:1 9188:1 9227:1 9564:1 9784:1 9915:1 10316:1 10485:1 10784:1 10911:1 11164:1 11603:1 13513:1 13929:1 14036:1 14352:1 14414:1 16228:1 17075:1 17452:1 18765:1 19215:1 20085:1 20087:1 22500:1 24931:1 26154:1 27672:1 28238:1 29370:1 30347:1 31530:1 31677:1 34128:1 34133:1 34420:1 34589:1 35262:1 35275:1 
0.34901926734089556 1:1 2:1 3:1 4:1 6:1 7:1 8:1 9:1 10:1 15:1 18:1 19:1 21:1 45:1 47:1 48:1 50:1 54:1 62:1 64:1 81:1 82:1 101:1 126:1 139:1 151:1 222:1 238:1 285:1 304:1 306:1 337:1 479:1 493:1 542:1 544:1 570:1 579:1 648:1 655:1 656:1 968:1 989:1 993:1 1035:1 1106:1 1235:1 1279:1 1407:1 1731:1 1953:1 2034:1 2124:1 2889:1 3493:1 3719:1 4103:1 5504:1 5977:1 6010:1 6447:1 7127:1 7237:1 7251:1 9033:1 9188:1 9235:1 9517:1 10013:1 10827:1 11117:1 13038:1 13765:1 14036:1 17181:1 19215:1 20070:1 21518:1 27204:1 31233:1 
0.0062115597075787241 2:1 4:1 5:1 9:1 13:1 18:1 19:1 20:1 29:1 48:1 62:1 69:1 111:1 147:1 177:1 194:1 196:1 317:1 418:1 535:1 579:1 605:1 745:1 992:1 1235:1 1337:1 1803:1 2082:1 2100:1 2593:1 2652:1 3894:1 4788:1 6457:1 7793:1 9214:1 9231:1 10835:1 11437:1 14414:1 20828:1 23329:1 28791:1 32836:1 
0.0052148815569761694 1:1 2:1 3:1 4:1 5:1 7:1 8:1 9:1 11:1 12:1 13:1 14:1 16:1 18:1 19:1 20:1 21:1 23:1 26:1 29:1 30:1 36:1 39:1 48:1 51:1 57:1 58:1 60:1 62:1 64:1 66:1 77:1 82:1 95:1 98:1 111:1 139:1 142:1 143:1 147:1 151:1 162:1 177:1 188:1 189:1 194:1 239:1 243:1 256:1 276:1 284:1 288:1 290:1 302:1 304:1 307:1 311:1 313:1 317:1 324:1 369:1 383:1 387:1 391:1 401:1 414:1 422:1 437:1 446:1 450:1 455:1 469:1 475:1 518:1 535:1 538:1 539:1 544:1 553:1 573:1 575:1 579:1 588:1 605:1 610:1 617:1 624:1 644:1 652:1 655:1 693:1 714:1 757:1 783:1 787:1 847:1 887:1 890:1 993:1 1046:1 1059:1 1150:1 1175:1 1206:1 1232:1 1234:1 1277:1 1300:1 1396:1 1422:1 1629:1 1652:1 1669:1 1819:1 2025:1 2033:1 2037:1 2039:1 2051:1 2056:1 2098:1 2124:1 2234:1 2489:1 2499:1 2507:1 2516:1 2593:1 2597:1 3019:1 3037:1 3226:1 3376:1 3473:1 3526:1 3573:1 3680:1 3725:1 3789:1 3817:1 3833:1 3891:1 4010:1 4026:1 4336:1 4447:1 4488:1 4550:1 4654:1 4740:1 4833:1 4949:1 5020:1 5021:1 5025:1 5121:1 5270:1 5323:1 5770:1 5914:1 5928:1 6019:1 6154:1 6384:1 6401:1 6453:1 6454:1 6557:1 6731:1 6816:1 6900:1 6905:1 7074:1 7193:1 7233:1 7508:1 7628:1 7635:1 7893:1 8090:1 8111:1 8325:1 8563:1 8588:1 9235:1 9579:1 9717:1 10328:1 10496:1 10650:1 10809:1 10816:1 11095:1 11277:1 11611:1 11764:1 11780:1 12669:1 12828:1 13343:1 13935:1 14020:1 14068:1 14114:1 14200:1 14221:1 14377:1 14741:1 15601:1 15645:1 15698:1 15745:1 16089:1 17520:1 18342:1 19160:1 19365:1 19602:1 19953:1 20088:1 20352:1 20609:1 20817:1 21346:1 21349:1 22049:1 22379:1 22500:1 22717:1 22961:1 23162:1 23473:1 23764:1 23961:1 23987:1 24409:1 24826:1 24953:1 26399:1 26804:1 26852:1 27276:1 27732:1 28459:1 28465:1 28475:1 28550:1 28760:1 28767:1 29099:1 29593:1 29932:1 30236:1 30263:1 30695:1 31066:1 31067:1 31069:1 31214:1 32171:1 32516:1 33775:1 33822:1 34650:1 34699:1 
0.11910183311397474 2:1 4:1 5:1 7:1 9:1 13:1 14:1 16:1 18:1 19:1 23:1 26:1 29:1 36:1 48:1 53:1 67:1 74:1 111:1 159:1 186:1 191:1 195:1 201:1 247:1 304:1 306:1 309:1 317:1 413:1 446:1 507:1 517:1 540:1 579:1 693:1 712:1 726:1 752:1 857:1 995:1 1096:1 1324:1 1382:1 1825:1 2190:1 2456:1 2544:1 2634:1 2716:1 3114:1 3710:1 3759:1 3890:1 5676:1 5758:1 5946:1 6449:1 7504:1 7616:1 7716:1 7838:1 8409:1 9269:1 9961:1 11393:1 11584:1 13409:1 14634:1 15464:1 16389:1 16675:1 20042:1 20244:1 26104:1 26357:1 26930:1 28745:1 32149:1 32459:1 32707:1 32967:1 34355:1 
0.27384631886641508 1:1 3:1 4:1 5:1 7:1 8:1 9:1 13:1 14:1 15:1 18:1 19:1 20:1 21:1 23:1 51:1 52:1 53:1 61:1 66:1 84:1 139:1 142:1 177:1 191:1 194:1 195:1 251:1 256:1 271:1 276:1 289:1 304:1 313:1 318:1 323:1 414:1 418:1 450:1 451:1 491:1 535:1 555:1 571:1 573:1 579:1 605:1 614:1 657:1 688:1 1055:1 1059:1 1071:1 1100:1 1222:1 1297:1 1453:1 2020:1 2025:1 2038:1 2547:1 2593:1 2626:1 3161:1 3226:1 3376:1 3389:1 3537:1 3829:1 3914:1 3989:1 4742:1 4788:1 5020:1 5062:1 5466:1 6214:1 6356:1 6384:1 6447:1 6789:1 7284:1 7478:1 9671:1 9717:1 9810:1 9992:1 10756:1 11254:1 11956:1 11967:1 13935:1 14079:1 15851:1 16357:1 18102:1 18339:1 18865:1 20558:1 20913:1 21167:1 23167:1 23329:1 24170:1 25346:1 27953:1 28351:1 28447:1 29835:1 31439:1 32075:1 
0.27864953130132242 1:1 3:1 4:1 5:1 7:1 8:1 9:1 14:1 19:1 21:1 26:1 48:1 51:1 52:1 64:1 95:1 139:1 147:1 151:1 177:1 195:1 239:1 271:1 276:1 304:1 469:1 573:1 639:1 714:1 992:1 993:1 1046:1 1071:1 1269:1 1629:1 2020:1 2082:1 2124:1 2628:1 3019:1 3392:1 5270:1 6384:1 7628:1 9214:1 9235:1 9579:1 9812:1 12669:1 16368:1 17520:1 18903:1 24826:1 28447:1 
0.20779375253749188 1:1 2:1 5:1 7:1 8:1 9:1 14:1 15:1 16:1 18:1 20:1 21:1 36:1 39:1 51:1 58:1 77:1 90:1 101:1 111:1 177:1 194:1 246:1 272:1 300:1 304:1 309:1 447:1 455:1 461:1 492:1 520:1 543:1 554:1 605:1 654:1 858:1 887:1 1051:1 1165:1 1167:1 1169:1 1396:1 1525:1 1736:1 1819:1 2601:1 3111:1 3357:1 3665:1 3744:1 5000:1 5110:1 5178:1 5489:1 5793:1 5997:1 6173:1 7226:1 8423:1 8563:1 9644:1 10412:1 10435:1 10454:1 11611:1 13055:1 13351:1 16138:1 17948:1 18740:1 19919:1 23882:1 24344:1 24546:1 25429:1 27164:1 31185:1 34384:1 34650:1 
0.054361162556653138 1:1 3:1 4:1 5:1 7:1 8:1 9:1 12:1 13:1 14:1 18:1 19:1 20:1 23:1 29:1 32:1 48:1 51:1 52:1 57:1 61:1 66:1 82:1 90:1 94:1 139:1 142:1 151:1 177:1 256:1 271:1 295:1 309:1 316:1 324:1 381:1 413:1 422:1 439:1 450:1 535:1 536:1 571:1 605:1 686:1 757:1 807:1 993:1 1059:1 1078:1 1150:1 1157:1 1218:1 1296:1 1419:1 1543:1 1590:1 2020:1 2129:1 3218:1 3611:1 3744:1 3868:1 4010:1 4412:1 4828:1 4956:1 5020:1 5877:1 6360:1 7450:1 7895:1 8174:1 9238:1 9714:1 9866:1 10323:1 10376:1 10697:1 11234:1 11730:1 12271:1 14467:1 18297:1 19763:1 20733:1 22260:1 23436:1 23772:1 26606:1 28367:1 31968:1 33169:1 
0.05233485542278412 1:1 3:1 4:1 5:1 8:1 9:1 12:1 13:1 18:1 19:1 20:1 21:1 26:1 29:1 48:1 52:1 57:1 61:1 62:1 64:1 67:1 101:1 139:1 147:1 177:1 195:1 196:1 276:1 289:1 316:1 324:1 387:1 422:1 535:1 540:1 570:1 573:1 605:1 610:1 629:1 639:1 657:1 706:1 759:1 766:1 992:1 1071:1 1150:1 1219:1 1230:1 1269:1 1309:1 1739:1 2038:1 2082:1 2628:1 2652:1 3393:1 3541:1 3874:1 4031:1 4504:1 4828:1 5953:1 6384:1 6721:1 6966:1 7277:1 7575:1 7916:1 7997:1 9214:1 9813:1 10323:1 10723:1 11329:1 13067:1 14083:1 16368:1 18905:1 19416:1 20776:1 21380:1 22608:1 23439:1 26996:1 28464:1 30450:1 32350:1 33575:1 
0.0096830571787058905 1:1 2:1 4:1 5:1 6:1 7:1 9:1 12:1 14:1 15:1 16:1 18:1 20:1 21:1 22:1 45:1 48:1 51:1 53:1 59:1 65:1 82:1 85:1 98:1 101:1 111:1 142:1 147:1 177:1 189:1 191:1 206:1 244:1 304:1 379:1 380:1 390:1 446:1 451:1 479:1 490:1 499:1 507:1 540:1 620:1 654:1 657:1 675:1 968:1 990:1 1049:1 1086:1 1197:1 1287:1 1422:1 1456:1 1657:1 1736:1 1814:1 2095:1 2495:1 2544:1 2548:1 2739:1 3060:1 4382:1 4402:1 4528:1 5059:1 5451:1 5619:1 5665:1 5937:1 6838:1 7218:1 7287:1 7393:1 9035:1 9605:1 10580:1 11185:1 11769:1 11979:1 12757:1 13051:1 13312:1 14356:1 15613:1 15877:1 16733:1 17724:1 22150:1 22236:1 22660:1 24132:1 25293:1 25970:1 31164:1 31445:1 31743:1 
0.036780472973417078 1:1 4:1 5:1 7:1 9:1 10:1 12:1 13:1 14:1 15:1 19:1 20:1 26:1 39:1 49:1 51:1 53:1 54:1 58:1 62:1 93:1 104:1 142:1 177:1 184:1 195:1 201:1 243:1 256:1 304:1 309:1 317:1 318:1 324:1 338:1 387:1 413:1 418:1 426:1 450:1 461:1 477:1 479:1 571:1 579:1 606:1 705:1 898:1 1028:1 1048:1 1059:1 1086:1 1096:1 1101:1 1107:1 1169:1 1177:1 1235:1 1572:1 1757:1 2419:1 2626:1 2712:1 3044:1 3055:1 3226:1 3744:1 3890:1 3913:1 4011:1 4130:1 4490:1 4774:1 4851:1 5020:1 5168:1 5340:1 6372:1 6447:1 6458:1 6702:1 8654:1 9462:1 9592:1 9717:1 9961:1 10001:1 10032:1 10446:1 10508:1 10836:1 12380:1 15290:1 16363:1 17604:1 17693:1 18339:1 20888:1 21267:1 21570:1 22507:1 23508:1 24991:1 28409:1 28800:1 29457:1 34847:1 
0.019707909998807886 1:1 2:1 3:1 4:1 5:1 6:1 7:1 8:1 9:1 13:1 14:1 15:1 18:1 19:1 20:1 22:1 23:1 26:1 30:1 36:1 45:1 46:1 48:1 50:1 51:1 53:1 58:1 65:1 66:1 95:1 98:1 111:1 139:1 151:1 167:1 177:1 182:1 191:1 195:1 222:1 255:1 257:1 271:1 304:1 307:1 309:1 311:1 313:1 323:1 418:1 446:1 455:1 469:1 479:1 493:1 496:1 497:1 536:1 540:1 548:1 550:1 573:1 579:1 588:1 605:1 675:1 688:1 733:1 782:1 859:1 965:1 973:1 993:1 999:1 1035:1 1058:1 1094:1 1100:1 1167:1 1287:1 1297:1 1629:1 1664:1 1820:1 2020:1 2124:1 2273:1 2372:1 2544:1 2634:1 2887:1 3205:1 3246:1 3725:1 3744:1 3803:1 3819:1 3989:1 4778:1 5110:1 5279:1 5518:1 5519:1 5542:1 5578:1 5889:1 5950:1 6070:1 6117:1 6384:1 6447:1 6453:1 6462:1 6557:1 7387:1 7480:1 7754:1 8072:1 8428:1 9009:1 9076:1 9235:1 9312:1 9515:1 9702:1 9940:1 9992:1 10435:1 11181:1 11256:1 12673:1 12810:1 13375:1 14832:1 16393:1 17170:1 18248:1 20085:1 20444:1 20484:1 21167:1 23268:1 24344:1 24863:1 25557:1 25584:1 25666:1 25829:1 26686:1 26967:1 27458:1 27621:1 28447:1 28766:1 28815:1 29095:1 32090:1 32781:1 33723:1 34398:1 
0.18298163232558015 1:1 2:1 3:1 4:1 5:1 6:1 7:1 8:1 9:1 12:1 14:1 15:1 18:1 19:1 20:1 21:1 26:1 45:1 48:1 50:1 52:1 53:1 56:1 58:1 62:1 64:1 67:1 83:1 84:1 90:1 95:1 111:1 139:1 142:1 147:1 177:1 181:1 189:1 191:1 194:1 195:1 206:1 210:1 243:1 256:1 271:1 272:1 278:1 289:1 307:1 310:1 323:1 324:1 379:1 390:1 397:1 446:1 450:1 451:1 453:1 460:1 461:1 479:1 481:1 535:1 554:1 573:1 585:1 605:1 610:1 652:1 714:1 953:1 959:1 992:1 1030:1 1070:1 1088:1 1100:1 1134:1 1166:1 1169:1 1238:1 1277:1 1314:1 1434:1 1453:1 1530:1 1609:1 1615:1 1819:1 2020:1 2027:1 2038:1 2082:1 2095:1 2098:1 2351:1 2506:1 2556:1 2593:1 2612:1 2628:1 2741:1 2777:1 3054:1 3220:1 3351:1 3405:1 3541:1 3725:1 3766:1 3989:1 4010:1 4389:1 4538:1 4606:1 5020:1 5050:1 5082:1 5157:1 5168:1 5170:1 5364:1 6173:1 6384:1 6508:1 6731:1 7193:1 7644:1 8883:1 8929:1 9214:1 9227:1 9229:1 9483:1 9795:1 9915:1 9992:1 10189:1 10424:1 10446:1 10448:1 10846:1 11095:1 11354:1 11860:1 11952:1 12200:1 12583:1 13343:1 13961:1 14083:1 14360:1 14392:1 15691:1 15913:1 16269:1 16368:1 16740:1 16867:1 17672:1 18308:1 18696:1 18928:1 19425:1 20085:1 20273:1 21167:1 22185:1 22691:1 24079:1 24233:1 24526:1 25049:1 28447:1 28453:1 28464:1 29592:1 31066:1 32543:1 
1 3:1 4:1 8:1 15:1 19:1 32:1 48:1 72:1 139:1 157:1 271:1 479:1 493:1 573:1 808:1 994:1 1365:1 2020:1 2177:1 5504:1 6384:1 8186:1 9261:1 11545:1 14599:1 28447:1 33941:1 
0.044862088315828656 1:1 3:1 4:1 5:1 6:1 8:1 9:1 13:1 14:1 15:1 18:1 19:1 22:1 23:1 33:1 48:1 57:1 62:1 65:1 66:1 82:1 94:1 99:1 139:1 142:1 143:1 147:1 151:1 159:1 170:1 177:1 191:1 194:1 210:1 211:1 280:1 304:1 308:1 309:1 318:1 414:1 418:1 447:1 450:1 455:1 484:1 493:1 496:1 539:1 550:1 553:1 570:1 573:1 579:1 584:1 588:1 670:1 688:1 814:1 991:1 993:1 995:1 1002:1 1147:1 1148:1 1235:1 1285:1 1297:1 1419:1 1423:1 1593:1 1676:1 1689:1 2029:1 2067:1 2082:1 2095:1 2129:1 2193:1 2283:1 2552:1 2611:1 2762:1 2786:1 3419:1 3728:1 3744:1 3913:1 4740:1 4774:1 4993:1 5020:1 5106:1 5383:1 5518:1 5541:1 5918:1 6108:1 6154:1 6384:1 6458:1 6503:1 6562:1 7364:1 7480:1 9210:1 9238:1 9272:1 9320:1 10287:1 10300:1 10836:1 11164:1 11256:1 11732:1 11795:1 12474:1 12898:1 13973:1 14254:1 14358:1 14467:1 14651:1 15894:1 16251:1 16900:1 18947:1 20112:1 20888:1 23163:1 23861:1 25104:1 25556:1 25655:1 26817:1 27568:1 27732:1 28455:1 28800:1 28928:1 29124:1 31679:1 32090:1 
0.037726346217944767 1:1 2:1 3:1 4:1 5:1 7:1 8:1 9:1 12:1 13:1 14:1 15:1 18:1 19:1 20:1 21:1 29:1 49:1 51:1 53:1 58:1 63:1 64:1 69:1 101:1 106:1 139:1 142:1 177:1 181:1 182:1 194:1 245:1 250:1 256:1 271:1 280:1 289:1 304:1 307:1 323:1 378:1 379:1 383:1 418:1 426:1 428:1 450:1 451:1 464:1 490:1 535:1 540:1 573:1 575:1 579:1 582:1 623:1 625:1 641:1 651:1 652:1 756:1 1007:1 1050:1 1054:1 1059:1 1086:1 1100:1 1166:1 1260:1 1277:1 1343:1 1725:1 2020:1 2029:1 2038:1 2351:1 2387:1 2593:1 2598:1 3091:1 3147:1 3220:1 3226:1 3418:1 3554:1 3725:1 3989:1 4394:1 4435:1 4774:1 4851:1 4871:1 5020:1 5050:1 5201:1 5441:1 5937:1 5952:1 6384:1 6406:1 6447:1 6486:1 6883:1 6925:1 7035:1 7180:1 7193:1 7206:1 7887:1 9626:1 9659:1 9715:1 9992:1 10424:1 11000:1 11095:1 11106:1 11467:1 13008:1 13972:1 14096:1 15140:1 16096:1 16108:1 17867:1 18032:1 18308:1 18339:1 18946:1 19511:1 20096:1 21167:1 22212:1 22322:1 23508:1 23554:1 24079:1 24607:1 26982:1 28447:1 28455:1 28587:1 28874:1 30181:1 30311:1 31034:1 31066:1 31133:1 33156:1 
0.39364096790227471 3:1 4:1 5:1 7:1 8:1 9:1 12:1 15:1 18:1 19:1 20:1 21:1 23:1 26:1 29:1 48:1 53:1 66:1 67:1 139:1 147:1 177:1 189:1 245:1 256:1 289:1 304:1 390:1 397:1 496:1 535:1 539:1 555:1 573:1 605:1 610:1 646:1 688:1 693:1 721:1 759:1 992:1 1086:1 1297:1 1300:1 1319:1 2038:1 2082:1 2506:1 3091:1 3220:1 3541:1 4538:1 4606:1 5541:1 5918:1 6205:1 6384:1 6731:1 7111:1 7481:1 7509:1 7679:1 7916:1 9214:1 11257:1 11278:1 11369:1 14083:1 15691:1 17863:1 18308:1 19425:1 22691:1 25655:1 26817:1 27907:1 28464:1 29592:1 30865:1 32096:1 32180:1 32626:1 
0.17593943236559284 1:1 3:1 4:1 5:1 6:1 7:1 8:1 9:1 12:1 13:1 14:1 15:1 18:1 19:1 20:1 32:1 39:1 48:1 49:1 51:1 52:1 58:1 72:1 82:1 93:1 98:1 99:1 139:1 143:1 148:1 177:1 195:1 210:1 238:1 253:1 271:1 272:1 289:1 311:1 397:1 418:1 426:1 477:1 498:1 539:1 570:1 573:1 605:1 613:1 614:1 808:1 898:1 991:1 1007:1 1057:1 1070:1 1177:1 1365:1 1423:1 1582:1 1656:1 1676:1 2020:1 2038:1 2056:1 2067:1 2107:1 2628:1 2777:1 3194:1 3349:1 3354:1 3545:1 3786:1 4606:1 4774:1 4851:1 5340:1 5590:1 5919:1 6384:1 6771:1 6788:1 8186:1 8654:1 9201:1 9210:1 9697:1 9793:1 10508:1 11545:1 11785:1 12429:1 12750:1 14087:1 14222:1 14254:1 14437:1 16368:1 16867:1 18199:1 18685:1 18714:1 19456:1 23508:1 24991:1 25862:1 26826:1 28447:1 28464:1 29753:1 29819:1 33941:1 34847:1 
0.32006463433263166 1:1 3:1 4:1 5:1 7:1 8:1 9:1 13:1 14:1 15:1 16:1 18:1 19:1 20:1 22:1 23:1 29:1 45:1 48:1 49:1 51:1 62:1 65:1 66:1 82:1 88:1 90:1 94:1 139:1 142:1 166:1 177:1 180:1 191:1 194:1 239:1 243:1 276:1 286:1 289:1 323:1 413:1 418:1 426:1 450:1 465:1 479:1 518:1 535:1 540:1 571:1 573:1 605:1 623:1 675:1 693:1 756:1 759:1 962:1 998:1 1019:1 1046:1 1231:1 1287:1 1300:1 1413:1 1501:1 1542:1 1590:1 2025:1 2035:1 2038:1 2263:1 2349:1 2547:1 2561:1 2593:1 3016:1 3037:1 3389:1 3506:1 3537:1 3989:1 4788:1 4851:1 5020:1 5233:1 5769:1 5937:1 5940:1 6354:1 6384:1 6875:1 7387:1 7507:1 7886:1 7921:1 8960:1 9304:1 9413:1 9576:1 10794:1 11181:1 11276:1 11677:1 12087:1 12266:1 13946:1 14049:1 14079:1 14813:1 14994:1 15851:1 15953:1 17500:1 18865:1 19283:1 21167:1 23329:1 23513:1 24720:1 26388:1 26873:1 28336:1 28461:1 28464:1 30155:1 32169:1 33152:1 33291:1 
0.025832603601003552 3:1 4:1 7:1 8:1 9:1 13:1 14:1 15:1 19:1 20:1 21:1 22:1 48:1 62:1 64:1 65:1 139:1 142:1 238:1 289:1 311:1 317:1 413:1 422:1 426:1 450:1 491:1 573:1 614:1 652:1 675:1 990:1 1232:1 1277:1 1287:1 2038:1 3545:1 3786:1 3900:1 4825:1 4854:1 5020:1 5463:1 6384:1 6793:1 7193:1 7394:1 10809:1 11095:1 11186:1 14087:1 19461:1 20850:1 23417:1 23520:1 28464:1 29860:1 31066:1 31749:1 
