svm_type c_svc
kernel_type linear
nr_class 2
total_sv 1686
rho 1.1940603600084765
label 1 0
probA -2.1006723186854575
probB 0.055698361485720993
nr_sv 754 932
SV
0.037907844252462228 9:1 10:1 11:1 12:1 13:1 14:1 15:1 16:1 17:1 20:1 22:1 23:1 26:1 27:1 28:1 29:1 31:1 34:1 62:1 64:1 66:1 67:1 68:1 69:1 79:1 81:1 83:1 171:1 182:1 194:1 196:1 216:1 248:1 268:1 273:1 277:1 303:1 311:1 321:1 325:1 327:1 346:1 352:1 357:1 369:1 375:1 380:1 392:1 413:1 420:1 423:1 426:1 451:1 455:1 457:1 517:1 522:1 526:1 533:1 536:1 585:1 592:1 602:1 630:1 635:1 693:1 725:1 731:1 735:1 737:1 747:1 758:1 783:1 789:1 795:1 805:1 817:1 862:1 866:1 957:1 1116:1 1153:1 1156:1 1218:1 1226:1 1241:1 1264:1 1270:1 1287:1 1455:1 1509:1 1531:1 1533:1 2219:1 2476:1 2514:1 2705:1 3060:1 3266:1 3324:1 3729:1 3970:1 4023:1 4081:1 4102:1 4287:1 4387:1 4442:1 4619:1 4703:1 4870:1 5121:1 5210:1 5292:1 5321:1 5741:1 5815:1 5864:1 6600:1 6668:1 6792:1 6800:1 6855:1 7532:1 7718:1 8113:1 8205:1 8806:1 8829:1 9474:1 9551:1 9587:1 9713:1 10247:1 10321:1 10531:1 10743:1 11068:1 11092:1 11756:1 12994:1 13284:1 13796:1 13857:1 13966:1 14188:1 14229:1 14360:1 15737:1 16190:1 16335:1 16351:1 18657:1 20383:1 21550:1 22832:1 23759:1 24037:1 25692:1 27251:1 27524:1 28323:1 28942:1 29411:1 29590:1 30562:1 31353:1 32381:1 32773:1 33226:1 33375:1 35531:1 35970:1 36221:1 38874:1 39961:1 40210:1 45427:1 45850:1 48676:1 52167:1 52619:1 52840:1 56037:1 56380:1 58448:1 59587:1 59715:1 61483:1 
0.16660129749936978 9:1 11:1 12:1 13:1 15:1 16:1 17:1 18:1 19:1 20:1 22:1 23:1 24:1 26:1 27:1 28:1 29:1 34:1 64:1 67:1 68:1 76:1 79:1 81:1 86:1 194:1 248:1 268:1 273:1 284:1 311:1 318:1 319:1 321:1 325:1 327:1 392:1 403:1 413:1 417:1 438:1 446:1 448:1 476:1 508:1 517:1 530:1 592:1 608:1 633:1 673:1 707:1 711:1 725:1 731:1 733:1 737:1 758:1 768:1 789:1 812:1 946:1 956:1 1156:1 1253:1 1264:1 1419:1 1455:1 1506:1 1569:1 2458:1 3044:1 3057:1 3266:1 3412:1 3734:1 3888:1 3894:1 3960:1 4041:1 4107:1 4872:1 5116:1 5168:1 5174:1 5610:1 5651:1 5658:1 6161:1 6454:1 6751:1 7532:1 7832:1 8175:1 8672:1 9118:1 9177:1 9474:1 9517:1 9577:1 10000:1 10320:1 10671:1 11622:1 11729:1 13284:1 14072:1 14185:1 15421:1 15729:1 16157:1 16548:1 22801:1 22806:1 23751:1 24464:1 25721:1 26638:1 27145:1 27814:1 28352:1 31367:1 32322:1 32581:1 34758:1 34770:1 34974:1 35037:1 37528:1 39649:1 44423:1 45709:1 48102:1 50344:1 50683:1 52165:1 52474:1 52731:1 54789:1 56368:1 58029:1 61043:1 
0.0033344528998544621 9:1 12:1 13:1 14:1 15:1 16:1 17:1 19:1 20:1 21:1 22:1 23:1 24:1 26:1 27:1 28:1 29:1 30:1 31:1 33:1 34:1 39:1 50:1 64:1 66:1 67:1 68:1 71:1 73:1 76:1 82:1 83:1 86:1 171:1 182:1 187:1 189:1 194:1 200:1 268:1 273:1 277:1 290:1 303:1 321:1 325:1 332:1 347:1 352:1 358:1 368:1 369:1 383:1 392:1 413:1 447:1 450:1 455:1 457:1 462:1 494:1 517:1 522:1 528:1 533:1 536:1 552:1 557:1 585:1 592:1 593:1 597:1 608:1 629:1 637:1 641:1 658:1 668:1 688:1 698:1 701:1 708:1 711:1 725:1 747:1 748:1 758:1 764:1 771:1 778:1 816:1 835:1 866:1 870:1 880:1 922:1 925:1 957:1 991:1 1047:1 1060:1 1153:1 1160:1 1173:1 1221:1 1232:1 1253:1 1264:1 1316:1 1350:1 1408:1 1415:1 1516:1 1533:1 1536:1 1544:1 1580:1 2227:1 2324:1 2376:1 2391:1 2476:1 2586:1 3247:1 3321:1 3473:1 3960:1 3965:1 4028:1 4038:1 4041:1 4187:1 4326:1 4387:1 4452:1 4582:1 4592:1 4762:1 4767:1 4887:1 5116:1 5119:1 5622:1 5694:1 5815:1 5857:1 5954:1 6307:1 6616:1 6722:1 6792:1 6865:1 7099:1 7532:1 7537:1 7564:1 7664:1 7835:1 8094:1 8255:1 8324:1 8506:1 8509:1 8615:1 8940:1 8988:1 9136:1 9173:1 9734:1 9742:1 9746:1 9760:1 9939:1 10042:1 10154:1 10707:1 10907:1 11092:1 11111:1 11193:1 11408:1 11444:1 11764:1 12043:1 12376:1 12529:1 13324:1 13447:1 13828:1 13912:1 14079:1 14185:1 14620:1 14904:1 15322:1 15387:1 16236:1 16351:1 16361:1 16411:1 16635:1 18720:1 19288:1 19662:1 19837:1 20400:1 20998:1 24011:1 27145:1 27224:1 27619:1 27781:1 27810:1 28665:1 29144:1 29415:1 30018:1 30056:1 30815:1 30848:1 31457:1 32322:1 32364:1 34820:1 35970:1 37981:1 39033:1 39541:1 40277:1 41176:1 42829:1 43663:1 44444:1 45363:1 46137:1 46589:1 47382:1 47419:1 47832:1 49361:1 49633:1 50509:1 53556:1 53634:1 53746:1 54416:1 54992:1 55494:1 59042:1 59052:1 59715:1 59986:1 60384:1 60463:1 61520:1 63465:1 
0.030254770636291207 9:1 10:1 11:1 12:1 13:1 16:1 17:1 21:1 22:1 23:1 24:1 26:1 27:1 28:1 29:1 30:1 39:1 61:1 63:1 64:1 65:1 81:1 82:1 171:1 177:1 193:1 195:1 220:1 248:1 268:1 273:1 320:1 325:1 328:1 409:1 417:1 457:1 461:1 462:1 565:1 589:1 592:1 639:1 680:1 688:1 693:1 707:1 731:1 758:1 795:1 812:1 816:1 848:1 978:1 1103:1 1138:1 1156:1 1198:1 1206:1 1506:1 1523:1 2121:1 2430:1 2485:1 2765:1 3049:1 3057:1 3247:1 3935:1 4018:1 4129:1 5043:1 5182:1 5861:1 5929:1 5959:1 7211:1 7482:1 7532:1 8310:1 8750:1 8810:1 8828:1 9124:1 9474:1 10657:1 10721:1 10984:1 11897:1 12854:1 13163:1 13266:1 13649:1 13741:1 16143:1 16287:1 18181:1 20012:1 21788:1 22700:1 22813:1 27022:1 28458:1 32652:1 36195:1 36592:1 36757:1 41704:1 46474:1 48323:1 48468:1 48658:1 50415:1 52157:1 57887:1 58283:1 61897:1 
0.032036247135485682 9:1 10:1 11:1 12:1 13:1 14:1 15:1 16:1 17:1 20:1 21:1 22:1 23:1 26:1 27:1 28:1 29:1 30:1 34:1 61:1 62:1 67:1 73:1 79:1 81:1 82:1 86:1 171:1 177:1 178:1 196:1 208:1 212:1 248:1 268:1 273:1 303:1 310:1 311:1 316:1 357:1 391:1 428:1 448:1 455:1 517:1 557:1 592:1 641:1 697:1 701:1 712:1 713:1 737:1 758:1 768:1 812:1 816:1 818:1 843:1 943:1 1087:1 1113:1 1252:1 1350:1 1455:1 1506:1 1521:1 1566:1 2112:1 2144:1 2533:1 2652:1 3068:1 3247:1 3714:1 3725:1 3859:1 4445:1 4857:1 5371:1 5643:1 5651:1 5803:1 7090:1 7532:1 8335:1 8897:1 8989:1 9208:1 9249:1 9579:1 9992:1 10657:1 10726:1 10762:1 10959:1 11580:1 12661:1 12963:1 14061:1 14895:1 15731:1 16143:1 16276:1 16525:1 18334:1 20842:1 21262:1 22932:1 25615:1 25663:1 26448:1 29611:1 31242:1 34969:1 41105:1 46710:1 49037:1 49649:1 50844:1 51117:1 52743:1 54682:1 57887:1 58317:1 59274:1 60934:1 
0.10591327666175573 9:1 10:1 11:1 13:1 14:1 16:1 17:1 20:1 21:1 27:1 28:1 29:1 31:1 69:1 79:1 80:1 177:1 188:1 231:1 248:1 316:1 352:1 403:1 431:1 449:1 456:1 462:1 522:1 526:1 552:1 731:1 740:1 764:1 795:1 866:1 1291:1 1297:1 1449:1 1475:1 2131:1 2346:1 2881:1 3044:1 3071:1 3864:1 4385:1 5433:1 5681:1 5832:1 5959:1 5968:1 6605:1 6680:1 9474:1 9620:1 9928:1 11088:1 14397:1 14452:1 14458:1 15670:1 15919:1 18246:1 22987:1 26527:1 29388:1 34018:1 35220:1 36757:1 36822:1 38913:1 39313:1 52153:1 52177:1 52989:1 54323:1 59678:1 
0.0084673391199068318 9:1 10:1 11:1 13:1 15:1 16:1 17:1 20:1 21:1 22:1 23:1 26:1 27:1 28:1 30:1 31:1 34:1 61:1 67:1 69:1 73:1 79:1 82:1 86:1 177:1 194:1 216:1 230:1 248:1 309:1 319:1 325:1 326:1 327:1 383:1 391:1 392:1 396:1 426:1 428:1 446:1 448:1 457:1 463:1 517:1 557:1 607:1 620:1 642:1 688:1 701:1 707:1 725:1 731:1 733:1 743:1 747:1 758:1 782:1 789:1 838:1 866:1 934:1 944:1 1087:1 1104:1 1244:1 1253:1 1257:1 1292:1 1350:1 1449:1 1461:1 1518:1 1567:1 2117:1 2458:1 2703:1 2868:1 3066:1 3068:1 3703:1 3894:1 4018:1 4051:1 4107:1 4772:1 4859:1 4872:1 4944:1 5329:1 5371:1 5610:1 5649:1 5658:1 5879:1 6005:1 7104:1 7792:1 8359:1 8989:1 9127:1 9474:1 9516:1 9517:1 9653:1 9720:1 10195:1 10301:1 10923:1 11085:1 11598:1 12666:1 12874:1 14004:1 14072:1 14100:1 14425:1 14908:1 15670:1 15775:1 16246:1 16533:1 18139:1 21486:1 22900:1 22932:1 25549:1 28340:1 30889:1 31279:1 31367:1 31658:1 33432:1 34779:1 34957:1 35037:1 36371:1 37058:1 41234:1 46843:1 49647:1 50441:1 52172:1 52452:1 52474:1 53463:1 59105:1 59655:1 60973:1 
0.0078027532756636646 9:1 10:1 11:1 12:1 13:1 14:1 15:1 16:1 17:1 19:1 20:1 21:1 22:1 23:1 26:1 27:1 28:1 29:1 30:1 31:1 39:1 50:1 61:1 64:1 65:1 67:1 68:1 69:1 79:1 80:1 81:1 82:1 83:1 171:1 177:1 187:1 189:1 193:1 194:1 196:1 216:1 220:1 233:1 248:1 268:1 273:1 281:1 303:1 313:1 316:1 319:1 320:1 325:1 327:1 355:1 369:1 383:1 385:1 386:1 403:1 413:1 444:1 446:1 448:1 450:1 455:1 462:1 463:1 494:1 517:1 522:1 526:1 530:1 533:1 536:1 552:1 589:1 592:1 597:1 630:1 637:1 641:1 688:1 696:1 712:1 715:1 725:1 731:1 747:1 748:1 758:1 764:1 768:1 772:1 791:1 800:1 812:1 843:1 858:1 866:1 882:1 993:1 1060:1 1087:1 1097:1 1099:1 1153:1 1156:1 1164:1 1203:1 1247:1 1264:1 1297:1 1466:1 1478:1 1506:1 1521:1 1533:1 2117:1 2121:1 2315:1 2329:1 2332:1 2373:1 2449:1 2476:1 2517:1 2703:1 2760:1 2914:1 3044:1 3266:1 3372:1 3377:1 3784:1 3865:1 3902:1 3925:1 4018:1 4045:1 4081:1 4423:1 4772:1 4787:1 4797:1 4800:1 5121:1 5558:1 5610:1 5643:1 5694:1 5706:1 5708:1 5813:1 5959:1 5982:1 5988:1 6014:1 6295:1 6612:1 6677:1 6684:1 6751:1 6768:1 6800:1 6855:1 7495:1 7532:1 7651:1 8112:1 8259:1 8314:1 8877:1 9212:1 9267:1 9474:1 9713:1 9746:1 9928:1 9937:1 9994:1 10067:1 10346:1 10445:1 10657:1 10959:1 11038:1 11083:1 11223:1 12082:1 12534:1 12666:1 12793:1 12821:1 13284:1 13363:1 13368:1 13705:1 14015:1 14017:1 14188:1 14452:1 15835:1 15948:1 16143:1 16276:1 16343:1 18139:1 18178:1 19338:1 19367:1 19637:1 20229:1 20383:1 20711:1 21486:1 21744:1 22366:1 23759:1 24246:1 24287:1 24288:1 25939:1 26543:1 26723:1 27889:1 29527:1 30885:1 30924:1 30953:1 30974:1 32381:1 34758:1 35347:1 35351:1 35962:1 36757:1 36938:1 37160:1 37898:1 38999:1 39279:1 39327:1 39649:1 39816:1 39973:1 40209:1 42620:1 43577:1 46185:1 48941:1 50876:1 51217:1 52153:1 53624:1 54320:1 54385:1 54705:1 55099:1 56480:1 56884:1 57887:1 59254:1 59454:1 59643:1 60092:1 64055:1 
0.0085660912111988376 9:1 11:1 12:1 13:1 15:1 16:1 17:1 20:1 21:1 22:1 23:1 24:1 26:1 27:1 28:1 29:1 30:1 31:1 34:1 49:1 64:1 65:1 67:1 69:1 73:1 75:1 76:1 82:1 83:1 86:1 171:1 189:1 193:1 194:1 195:1 248:1 273:1 277:1 281:1 316:1 319:1 321:1 325:1 375:1 392:1 403:1 417:1 422:1 428:1 438:1 446:1 447:1 448:1 450:1 452:1 456:1 457:1 462:1 463:1 466:1 525:1 530:1 533:1 535:1 552:1 561:1 565:1 585:1 592:1 596:1 597:1 608:1 613:1 627:1 658:1 673:1 688:1 700:1 705:1 711:1 723:1 725:1 729:1 744:1 747:1 758:1 764:1 772:1 811:1 835:1 838:1 858:1 866:1 942:1 957:1 1023:1 1156:1 1195:1 1253:1 1291:1 1353:1 1354:1 1390:1 1408:1 1516:1 1518:1 1528:1 1580:1 2376:1 2437:1 2476:1 2496:1 3044:1 3068:1 3247:1 3266:1 3321:1 3324:1 3377:1 3851:1 3861:1 3901:1 3909:1 3911:1 3954:1 3975:1 4018:1 4035:1 4041:1 4619:1 4883:1 5190:1 5259:1 5371:1 5610:1 5622:1 5658:1 5660:1 5699:1 5770:1 5832:1 5885:1 5954:1 5982:1 6062:1 6652:1 6751:1 6804:1 6842:1 7151:1 7153:1 7213:1 7541:1 7638:1 7644:1 7828:1 7902:1 8058:1 8510:1 8679:1 8972:1 9064:1 9175:1 9344:1 9442:1 9692:1 9713:1 9924:1 10065:1 10626:1 10907:1 10923:1 11038:1 11091:1 11561:1 11761:1 12175:1 13266:1 13284:1 13626:1 14077:1 14397:1 14931:1 14953:1 15193:1 15326:1 16236:1 16246:1 16314:1 16632:1 19666:1 20108:1 20383:1 20527:1 22932:1 23759:1 24003:1 24034:1 24284:1 26358:1 26507:1 26705:1 26805:1 26835:1 27324:1 27728:1 27812:1 31436:1 32721:1 33059:1 34779:1 34820:1 35050:1 35081:1 35279:1 35689:1 36426:1 37287:1 39177:1 39649:1 39997:1 40164:1 41430:1 41448:1 41723:1 42878:1 43530:1 44387:1 44726:1 45227:1 47428:1 48135:1 49545:1 50062:1 50674:1 51523:1 51983:1 53312:1 55087:1 59049:1 59055:1 59105:1 59447:1 59704:1 60832:1 61499:1 62881:1 
0.11560257399324993 4:1 9:1 11:1 12:1 13:1 14:1 15:1 16:1 17:1 21:1 22:1 23:1 24:1 25:1 27:1 28:1 29:1 31:1 64:1 65:1 68:1 69:1 73:1 77:1 79:1 81:1 83:1 126:1 173:1 189:1 194:1 248:1 253:1 268:1 277:1 320:1 326:1 327:1 338:1 369:1 403:1 413:1 428:1 446:1 448:1 450:1 457:1 462:1 463:1 552:1 565:1 572:1 592:1 595:1 608:1 620:1 636:1 676:1 687:1 725:1 731:1 737:1 743:1 758:1 764:1 772:1 782:1 799:1 804:1 812:1 818:1 858:1 866:1 1160:1 1204:1 1264:1 1297:1 1354:1 1428:1 1455:1 1461:1 1499:1 1506:1 1528:1 1533:1 1897:1 2069:1 2391:1 2458:1 3044:1 3068:1 3140:1 3320:1 3925:1 4051:1 4068:1 4101:1 5121:1 5382:1 5610:1 5665:1 5694:1 5867:1 5959:1 5982:1 7213:1 7307:1 7532:1 7607:1 7828:1 8237:1 8736:1 8781:1 9474:1 9577:1 9653:1 9925:1 10067:1 10074:1 10195:1 10414:1 10506:1 10657:1 10772:1 11039:1 11085:1 11087:1 13323:1 13708:1 14188:1 14452:1 14953:1 15466:1 15729:1 15775:1 16082:1 16143:1 16315:1 16345:1 16347:1 17625:1 17952:1 19834:1 22941:1 23290:1 23988:1 28064:1 28281:1 32391:1 33723:1 34758:1 34779:1 35130:1 36274:1 36757:1 41723:1 42099:1 44388:1 46049:1 48300:1 48394:1 52153:1 52731:1 54308:1 55099:1 55169:1 56736:1 57887:1 58625:1 59457:1 59655:1 59675:1 
0.042871026159851139 9:1 10:1 11:1 12:1 13:1 15:1 16:1 17:1 19:1 20:1 21:1 22:1 23:1 24:1 26:1 27:1 28:1 29:1 34:1 49:1 62:1 64:1 65:1 67:1 68:1 73:1 79:1 81:1 86:1 196:1 216:1 248:1 268:1 277:1 314:1 316:1 318:1 319:1 320:1 321:1 325:1 369:1 379:1 392:1 409:1 413:1 438:1 450:1 462:1 494:1 517:1 530:1 533:1 541:1 571:1 572:1 585:1 592:1 602:1 635:1 682:1 688:1 701:1 731:1 748:1 768:1 772:1 795:1 812:1 816:1 957:1 1035:1 1116:1 1160:1 1196:1 1198:1 1253:1 1264:1 1357:1 1449:1 1506:1 1580:1 2514:1 2693:1 3049:1 3321:1 3799:1 3864:1 3879:1 3894:1 3909:1 3942:1 3970:1 4031:1 4681:1 4887:1 5065:1 5114:1 5694:1 5976:1 6297:1 6744:1 6804:1 6814:1 6938:1 7283:1 7309:1 7532:1 7718:1 8192:1 8766:1 8991:1 9474:1 9750:1 9994:1 10000:1 10058:1 10657:1 10707:1 11764:1 12304:1 12982:1 13324:1 13631:1 13653:1 14079:1 14183:1 14967:1 15670:1 16143:1 16635:1 21389:1 22720:1 24013:1 26025:1 26540:1 26610:1 26805:1 26814:1 27071:1 27251:1 27667:1 30391:1 31458:1 32074:1 32297:1 36880:1 37900:1 39994:1 40063:1 40556:1 41950:1 42101:1 48361:1 49672:1 52157:1 53663:1 53667:1 54711:1 54781:1 57887:1 61520:1 63289:1 
0.02661038019543403 9:1 10:1 11:1 12:1 13:1 14:1 16:1 17:1 20:1 21:1 22:1 23:1 24:1 26:1 27:1 28:1 31:1 34:1 39:1 62:1 64:1 68:1 69:1 73:1 76:1 83:1 171:1 187:1 189:1 193:1 212:1 245:1 268:1 277:1 284:1 303:1 319:1 325:1 333:1 365:1 423:1 448:1 456:1 457:1 463:1 517:1 522:1 526:1 536:1 552:1 557:1 561:1 569:1 585:1 589:1 592:1 597:1 637:1 642:1 663:1 665:1 688:1 695:1 712:1 744:1 764:1 768:1 858:1 946:1 987:1 1113:1 1153:1 1160:1 1270:1 1291:1 1292:1 1350:1 1353:1 1411:1 1528:1 2315:1 2381:1 2426:1 2432:1 2449:1 2649:1 3033:1 3319:1 3411:1 3894:1 3898:1 3912:1 4018:1 4196:1 4561:1 5298:1 5643:1 5832:1 5844:1 5857:1 5988:1 6606:1 6688:1 6861:1 7103:1 7153:1 7159:1 7242:1 7482:1 7548:1 7651:1 8251:1 8357:1 8571:1 8604:1 8857:1 9208:1 9688:1 9937:1 10008:1 11038:1 11629:1 12016:1 12960:1 13322:1 14235:1 14397:1 14408:1 14907:1 14931:1 15357:1 16314:1 19738:1 20045:1 20225:1 21210:1 22655:1 23972:1 24459:1 26678:1 26849:1 28698:1 29966:1 33295:1 36125:1 36938:1 38931:1 39362:1 40249:1 41215:1 41445:1 41488:1 41840:1 42934:1 43577:1 46087:1 46836:1 47658:1 47795:1 48852:1 50854:1 53289:1 54385:1 54850:1 59454:1 61082:1 62324:1 
0.011558353821622871 9:1 11:1 12:1 13:1 16:1 17:1 19:1 20:1 22:1 26:1 27:1 28:1 29:1 64:1 65:1 69:1 71:1 79:1 80:1 183:1 189:1 250:1 268:1 280:1 310:1 315:1 316:1 325:1 403:1 409:1 420:1 438:1 448:1 457:1 494:1 508:1 509:1 541:1 585:1 592:1 597:1 688:1 697:1 713:1 737:1 748:1 758:1 772:1 781:1 799:1 1163:1 1203:1 1292:1 1316:1 1329:1 1455:1 1466:1 1483:1 2244:1 2376:1 3114:1 3361:1 3716:1 3830:1 3845:1 4018:1 5058:1 5227:1 5655:1 5857:1 5869:1 6295:1 6454:1 6480:1 6926:1 7532:1 7644:1 8897:1 9234:1 9587:1 9754:1 9762:1 10065:1 10183:1 10190:1 10410:1 13353:1 13684:1 14408:1 14611:1 14693:1 15737:1 15839:1 15842:1 16004:1 19660:1 23195:1 24215:1 25635:1 26217:1 32009:1 32864:1 35021:1 36300:1 37889:1 38595:1 49038:1 51011:1 52845:1 53699:1 53758:1 55084:1 55639:1 55698:1 56685:1 
0.045675947630869781 9:1 10:1 11:1 12:1 13:1 14:1 15:1 16:1 17:1 18:1 19:1 20:1 21:1 22:1 23:1 26:1 27:1 28:1 29:1 31:1 32:1 39:1 50:1 66:1 67:1 68:1 73:1 74:1 79:1 80:1 81:1 179:1 199:1 216:1 239:1 248:1 250:1 268:1 277:1 303:1 310:1 325:1 327:1 344:1 369:1 379:1 396:1 409:1 423:1 427:1 438:1 483:1 486:1 526:1 536:1 557:1 571:1 590:1 592:1 619:1 626:1 641:1 688:1 699:1 702:1 704:1 706:1 711:1 731:1 740:1 748:1 758:1 772:1 778:1 812:1 862:1 883:1 980:1 1060:1 1216:1 1257:1 1270:1 1350:1 1357:1 1384:1 1449:1 1482:1 1506:1 2158:1 2566:1 2703:1 3049:1 3067:1 3093:1 3305:1 3714:1 4018:1 4029:1 4093:1 4270:1 4688:1 4943:1 5049:1 5297:1 5357:1 6222:1 6690:1 6851:1 7109:1 7288:1 7511:1 7532:1 7979:1 8046:1 8325:1 8327:1 8333:1 8941:1 9016:1 9052:1 9085:1 9192:1 9474:1 9623:1 9742:1 10058:1 10157:1 10657:1 11059:1 11917:1 12543:1 13790:1 14099:1 14234:1 14911:1 14971:1 15171:1 15670:1 15992:1 16143:1 18390:1 21496:1 22705:1 22918:1 25614:1 27620:1 28226:1 30462:1 31648:1 31929:1 33285:1 33589:1 37669:1 39410:1 40189:1 41283:1 41995:1 42750:1 44993:1 45181:1 46603:1 46618:1 46677:1 49839:1 50001:1 50154:1 50761:1 52157:1 53011:1 55532:1 57887:1 59500:1 61950:1 64109:1 
0.052563021009437917 9:1 11:1 12:1 13:1 14:1 15:1 16:1 17:1 20:1 21:1 22:1 23:1 24:1 26:1 27:1 28:1 34:1 50:1 61:1 64:1 65:1 66:1 67:1 69:1 74:1 79:1 86:1 171:1 188:1 195:1 248:1 268:1 319:1 326:1 368:1 391:1 403:1 438:1 448:1 462:1 517:1 522:1 571:1 589:1 635:1 642:1 665:1 688:1 707:1 725:1 731:1 733:1 744:1 747:1 772:1 934:1 946:1 1060:1 1098:1 1153:1 1204:1 1232:1 1252:1 1297:1 1367:1 1462:1 1559:1 1569:1 2359:1 2496:1 3044:1 3894:1 3898:1 4051:1 4592:1 4859:1 5658:1 5959:1 6591:1 7283:1 7501:1 8192:1 8359:1 8593:1 9127:1 9474:1 9516:1 9688:1 9720:1 10058:1 11622:1 12529:1 12811:1 13708:1 13912:1 14063:1 14452:1 15057:1 15806:1 16548:1 19564:1 20522:1 26671:1 30056:1 31279:1 35037:1 35040:1 36757:1 41950:1 42692:1 46843:1 47733:1 50441:1 52153:1 52452:1 53282:1 53463:1 61043:1 
0.018548260128365347 9:1 10:1 12:1 13:1 15:1 16:1 17:1 19:1 21:1 22:1 23:1 26:1 27:1 28:1 29:1 49:1 50:1 62:1 64:1 69:1 80:1 89:1 171:1 195:1 216:1 220:1 238:1 277:1 286:1 290:1 303:1 314:1 325:1 326:1 327:1 383:1 426:1 438:1 448:1 451:1 454:1 457:1 458:1 462:1 494:1 504:1 552:1 577:1 589:1 592:1 593:1 603:1 636:1 637:1 643:1 644:1 688:1 693:1 697:1 701:1 707:1 732:1 741:1 748:1 758:1 768:1 772:1 778:1 781:1 816:1 817:1 1030:1 1058:1 1116:1 1119:1 1131:1 1173:1 1287:1 1482:1 1607:1 2493:1 2496:1 2703:1 2747:1 2759:1 2987:1 3325:1 3431:1 3473:1 3803:1 4018:1 4037:1 4072:1 4081:1 4760:1 5325:1 5643:1 5741:1 5785:1 5861:1 5899:1 5969:1 6302:1 6401:1 7379:1 7482:1 7501:1 7550:1 7582:1 7756:1 8221:1 8251:1 8265:1 8374:1 8411:1 8828:1 8912:1 9003:1 9128:1 9485:1 9639:1 9754:1 9762:1 9990:1 10002:1 10074:1 10075:1 10160:1 10179:1 10716:1 10740:1 12240:1 12513:1 12992:1 13007:1 13017:1 13128:1 13447:1 14360:1 15995:1 16747:1 20491:1 20534:1 21503:1 21734:1 22531:1 24078:1 24540:1 26064:1 27777:1 28112:1 28120:1 30796:1 33411:1 35532:1 35794:1 36209:1 36474:1 36830:1 37959:1 38308:1 42284:1 42692:1 42947:1 43174:1 44076:1 46087:1 46229:1 46936:1 47133:1 48662:1 49193:1 49785:1 50450:1 52218:1 53088:1 53706:1 53757:1 54657:1 54813:1 55165:1 55182:1 55571:1 55627:1 58246:1 58406:1 63091:1 63963:1 
0.011478361088734334 9:1 10:1 12:1 13:1 15:1 17:1 19:1 20:1 21:1 22:1 23:1 26:1 27:1 28:1 29:1 62:1 67:1 69:1 75:1 79:1 171:1 179:1 189:1 216:1 268:1 284:1 311:1 325:1 328:1 391:1 392:1 393:1 448:1 450:1 456:1 508:1 522:1 530:1 552:1 592:1 593:1 625:1 688:1 693:1 697:1 704:1 706:1 713:1 725:1 737:1 747:1 748:1 781:1 782:1 784:1 809:1 816:1 817:1 1116:1 1252:1 1286:1 1291:1 1388:1 1466:1 2153:1 2376:1 2703:1 3412:1 3734:1 4018:1 4034:1 4036:1 4130:1 4856:1 4886:1 4905:1 5651:1 5715:1 5716:1 5832:1 6471:1 6606:1 6755:1 7532:1 7582:1 8026:1 8806:1 8812:1 8915:1 9044:1 9088:1 9243:1 9579:1 9734:1 9762:1 10183:1 10190:1 10195:1 10267:1 10598:1 10708:1 10745:1 12992:1 14060:1 14341:1 14397:1 15180:1 15842:1 19660:1 21500:1 21502:1 24467:1 25721:1 27712:1 27744:1 28469:1 31226:1 31454:1 31525:1 34974:1 35408:1 35424:1 38582:1 38928:1 39699:1 43174:1 45095:1 48483:1 49254:1 49962:1 50174:1 51072:1 52746:1 53565:1 53758:1 53763:1 55650:1 55706:1 56131:1 57591:1 58163:1 58462:1 
0.03877717333345912 9:1 10:1 11:1 12:1 13:1 14:1 15:1 16:1 17:1 19:1 20:1 21:1 22:1 23:1 26:1 27:1 28:1 29:1 61:1 65:1 67:1 71:1 73:1 75:1 79:1 81:1 171:1 177:1 178:1 187:1 196:1 216:1 248:1 277:1 325:1 326:1 327:1 338:1 347:1 383:1 388:1 409:1 428:1 463:1 509:1 517:1 522:1 533:1 561:1 589:1 607:1 620:1 627:1 629:1 688:1 725:1 731:1 743:1 748:1 758:1 764:1 775:1 778:1 782:1 812:1 817:1 1087:1 1204:1 1244:1 1249:1 1329:1 1353:1 1390:1 1449:1 1509:1 2117:1 2144:1 2329:1 2532:1 2703:1 3049:1 3068:1 3324:1 4018:1 4051:1 4085:1 4309:1 4772:1 4819:1 5048:1 5385:1 5982:1 6492:1 6591:1 6792:1 7161:1 7502:1 7815:1 8058:1 8094:1 9474:1 9653:1 9760:1 9763:1 9937:1 10108:1 10147:1 10216:1 10670:1 10734:1 10750:1 12666:1 13708:1 14004:1 14033:1 14702:1 14936:1 15193:1 15670:1 16181:1 18139:1 18334:1 19332:1 20836:1 21486:1 22704:1 22944:1 24034:1 28175:1 30883:1 31089:1 31924:1 33742:1 38631:1 41526:1 42710:1 44343:1 45227:1 45351:1 52157:1 53740:1 53773:1 54393:1 55300:1 55444:1 55875:1 58023:1 58492:1 
0.018319019097544985 9:1 11:1 12:1 13:1 15:1 16:1 17:1 19:1 20:1 21:1 22:1 23:1 26:1 27:1 28:1 29:1 30:1 31:1 49:1 61:1 71:1 73:1 74:1 79:1 83:1 171:1 195:1 196:1 197:1 248:1 277:1 303:1 311:1 315:1 325:1 392:1 403:1 413:1 428:1 448:1 463:1 501:1 522:1 583:1 589:1 597:1 606:1 637:1 688:1 699:1 711:1 733:1 737:1 743:1 758:1 764:1 795:1 838:1 866:1 1023:1 1106:1 1323:1 1365:1 1372:1 1375:1 1455:1 1533:1 2489:1 2514:1 2544:1 3068:1 3324:1 3729:1 3819:1 3825:1 4029:1 4041:1 4872:1 5099:1 5371:1 5651:1 5655:1 5664:1 5982:1 6363:1 6613:1 7436:1 7501:1 7665:1 7779:1 8251:1 8958:1 9188:1 9505:1 9579:1 9669:1 9924:1 10923:1 11087:1 12175:1 12901:1 14644:1 15020:1 15102:1 15127:1 15731:1 16347:1 20461:1 20896:1 22932:1 24043:1 25692:1 26178:1 27637:1 27825:1 31359:1 34971:1 35018:1 35113:1 38135:1 39016:1 42415:1 42689:1 43679:1 46102:1 49466:1 50743:1 52322:1 52749:1 53190:1 59108:1 59667:1 62890:1 
0.061467322599991193 9:1 10:1 12:1 13:1 15:1 16:1 17:1 19:1 20:1 21:1 22:1 23:1 26:1 28:1 29:1 30:1 31:1 34:1 49:1 62:1 64:1 65:1 67:1 81:1 82:1 83:1 86:1 171:1 216:1 220:1 268:1 273:1 287:1 290:1 314:1 316:1 318:1 319:1 322:1 325:1 327:1 382:1 386:1 436:1 438:1 452:1 461:1 463:1 508:1 526:1 552:1 561:1 592:1 593:1 602:1 636:1 637:1 641:1 688:1 693:1 694:1 696:1 707:1 712:1 758:1 768:1 781:1 795:1 812:1 843:1 866:1 957:1 1035:1 1116:1 1156:1 1170:1 1173:1 1197:1 1203:1 1243:1 1506:1 1521:1 1533:1 1580:1 2693:1 2757:1 3247:1 3451:1 3475:1 3805:1 3865:1 3888:1 3902:1 3997:1 4018:1 4081:1 4089:1 4751:1 4798:1 5512:1 5750:1 5932:1 5992:1 6468:1 6680:1 6682:1 7161:1 7532:1 7582:1 7724:1 8221:1 8228:1 8264:1 8316:1 8806:1 8841:1 8866:1 9121:1 9201:1 9997:1 10002:1 10187:1 10657:1 10954:1 11095:1 11747:1 12314:1 12982:1 13266:1 13428:1 13449:1 13635:1 13684:1 13985:1 16143:1 16272:1 16354:1 16622:1 21392:1 21720:1 24621:1 24717:1 26076:1 26548:1 26644:1 26727:1 27422:1 28201:1 30762:1 30965:1 34337:1 36604:1 36974:1 38569:1 39314:1 39320:1 41529:1 43174:1 43921:1 45983:1 46215:1 46482:1 48769:1 50366:1 54758:1 54813:1 55685:1 57887:1 59235:1 59737:1 63321:1 
0.021986317012209333 9:1 10:1 11:1 12:1 13:1 14:1 15:1 16:1 17:1 22:1 23:1 26:1 27:1 28:1 50:1 62:1 64:1 67:1 68:1 74:1 79:1 171:1 216:1 248:1 273:1 303:1 312:1 314:1 325:1 350:1 375:1 379:1 383:1 417:1 422:1 437:1 450:1 457:1 463:1 593:1 595:1 603:1 620:1 688:1 699:1 725:1 731:1 782:1 1052:1 1067:1 1116:1 1156:1 1244:1 1267:1 1277:1 1373:1 1449:1 2703:1 3062:1 3247:1 3748:1 3796:1 4018:1 4029:1 4362:1 4619:1 4679:1 4688:1 4772:1 5182:1 5256:1 5533:1 5702:1 5867:1 6005:1 7570:1 7615:1 7745:1 8943:1 9474:1 10195:1 12443:1 12617:1 12992:1 13266:1 14004:1 14207:1 14302:1 15107:1 15670:1 21496:1 22852:1 25991:1 27622:1 29284:1 30366:1 30462:1 30889:1 32656:1 33036:1 34423:1 35309:1 36279:1 37058:1 43079:1 43376:1 49373:1 52169:1 63766:1 64350:1 
0.025461248859299884 9:1 10:1 11:1 12:1 13:1 14:1 15:1 16:1 17:1 18:1 20:1 21:1 22:1 24:1 26:1 27:1 28:1 29:1 30:1 34:1 62:1 65:1 69:1 70:1 79:1 82:1 86:1 171:1 196:1 216:1 220:1 248:1 284:1 303:1 309:1 315:1 319:1 321:1 325:1 352:1 379:1 383:1 392:1 403:1 409:1 417:1 421:1 426:1 428:1 438:1 446:1 448:1 450:1 452:1 463:1 481:1 517:1 530:1 552:1 561:1 565:1 592:1 663:1 693:1 701:1 711:1 713:1 731:1 737:1 741:1 744:1 768:1 772:1 783:1 805:1 806:1 811:1 817:1 835:1 934:1 957:1 1116:1 1194:1 1288:1 1308:1 1455:1 1516:1 1559:1 1580:1 2532:1 2703:1 2756:1 3044:1 3049:1 3057:1 3066:1 3068:1 3412:1 3695:1 3831:1 3894:1 3960:1 4023:1 4041:1 4043:1 4386:1 4685:1 4753:1 4762:1 4880:1 4883:1 5043:1 5168:1 5176:1 5238:1 5329:1 5382:1 5610:1 5649:1 5706:1 5715:1 5750:1 6006:1 6208:1 6751:1 7142:1 7213:1 7548:1 8559:1 8829:1 8989:1 9177:1 9241:1 9474:1 9577:1 9636:1 9686:1 9994:1 10067:1 10230:1 10537:1 10559:1 10626:1 10739:1 10907:1 11761:1 12992:1 13608:1 14365:1 14561:1 15729:1 16236:1 16632:1 20831:1 21490:1 21509:1 21716:1 22700:1 22801:1 22900:1 22941:1 24464:1 25499:1 26221:1 27157:1 27542:1 27814:1 27872:1 29398:1 30437:1 30824:1 31420:1 31432:1 32604:1 32933:1 33432:1 33723:1 34758:1 34770:1 34779:1 34951:1 35339:1 35343:1 35402:1 35405:1 37083:1 37636:1 39649:1 41738:1 42935:1 47612:1 48691:1 49647:1 50683:1 51063:1 52157:1 52172:1 52731:1 53075:1 53276:1 54699:1 55105:1 55940:1 57371:1 57476:1 58404:1 59055:1 61499:1 
0.049323077869382052 9:1 10:1 11:1 12:1 13:1 14:1 15:1 16:1 17:1 20:1 21:1 22:1 23:1 26:1 27:1 28:1 29:1 34:1 49:1 61:1 62:1 64:1 65:1 67:1 75:1 78:1 79:1 80:1 81:1 86:1 171:1 188:1 189:1 196:1 216:1 220:1 248:1 268:1 273:1 277:1 303:1 312:1 314:1 316:1 319:1 321:1 325:1 326:1 346:1 369:1 379:1 383:1 417:1 422:1 438:1 450:1 452:1 455:1 457:1 462:1 463:1 517:1 535:1 552:1 585:1 592:1 593:1 594:1 597:1 602:1 608:1 613:1 627:1 688:1 700:1 711:1 725:1 731:1 733:1 748:1 749:1 768:1 772:1 782:1 793:1 795:1 811:1 812:1 942:1 957:1 1022:1 1098:1 1099:1 1106:1 1119:1 1156:1 1195:1 1240:1 1244:1 1390:1 1432:1 1449:1 1467:1 1478:1 1506:1 1580:1 2346:1 2370:1 2514:1 2703:1 2765:1 3062:1 3247:1 3324:1 3748:1 3756:1 3799:1 3859:1 3861:1 3911:1 3962:1 4018:1 4041:1 4072:1 4300:1 4685:1 4689:1 4772:1 5178:1 5256:1 5694:1 5750:1 5803:1 5885:1 5954:1 6005:1 6842:1 7532:1 7570:1 7593:1 7644:1 7736:1 7836:1 7902:1 8058:1 8969:1 9179:1 9474:1 9502:1 9771:1 9788:1 9992:1 10067:1 10195:1 10353:1 10626:1 10657:1 10666:1 11561:1 11761:1 12170:1 12802:1 12820:1 12901:1 13023:1 13266:1 13626:1 13953:1 14004:1 15193:1 15519:1 15670:1 15858:1 15947:1 16143:1 16632:1 21486:1 21786:1 22852:1 24034:1 25801:1 26031:1 26448:1 26507:1 26835:1 27192:1 27816:1 28129:1 29041:1 30439:1 30499:1 30889:1 32613:1 33036:1 36426:1 37058:1 40164:1 43085:1 43290:1 43975:1 44455:1 44726:1 45227:1 49536:1 50690:1 52169:1 52282:1 53827:1 53912:1 54682:1 55099:1 56498:1 57887:1 57999:1 60832:1 61499:1 62873:1 
0.041707210777310676 9:1 10:1 11:1 12:1 13:1 14:1 15:1 16:1 19:1 20:1 21:1 22:1 24:1 26:1 27:1 28:1 29:1 34:1 50:1 64:1 66:1 67:1 72:1 79:1 181:1 187:1 189:1 216:1 231:1 248:1 268:1 277:1 319:1 320:1 323:1 325:1 326:1 327:1 359:1 368:1 379:1 391:1 392:1 409:1 509:1 522:1 533:1 540:1 546:1 558:1 592:1 675:1 688:1 699:1 724:1 729:1 731:1 733:1 739:1 758:1 768:1 812:1 816:1 939:1 1058:1 1060:1 1153:1 1232:1 1252:1 1253:1 1335:1 1447:1 1451:1 2211:1 2342:1 2376:1 2703:1 2897:1 3049:1 3325:1 3326:1 3909:1 3930:1 4012:1 4018:1 4064:1 4081:1 4475:1 4592:1 4688:1 4865:1 4872:1 5051:1 6492:1 6606:1 6813:1 6904:1 7004:1 7114:1 7532:1 7541:1 8703:1 8946:1 9372:1 9440:1 9474:1 9509:1 9513:1 9613:1 9995:1 10657:1 10714:1 11539:1 12513:1 12529:1 13912:1 14069:1 14072:1 14757:1 15647:1 15695:1 18622:1 19457:1 19666:1 21486:1 22308:1 22707:1 24071:1 24086:1 26813:1 26979:1 27489:1 28048:1 30056:1 30462:1 31326:1 31362:1 31947:1 38628:1 38928:1 40050:1 40431:1 40839:1 41313:1 42881:1 42882:1 48198:1 49399:1 51650:1 51963:1 52157:1 52372:1 52423:1 52970:1 54724:1 57887:1 58223:1 60756:1 63960:1 
0.037649433270372831 9:1 13:1 14:1 16:1 24:1 26:1 28:1 29:1 49:1 68:1 76:1 81:1 171:1 325:1 338:1 360:1 436:1 663:1 688:1 693:1 768:1 783:1 804:1 818:1 1035:1 1276:1 1411:1 1499:1 4023:1 4519:1 5512:1 8567:1 8806:1 10000:1 10230:1 10506:1 10781:1 12294:1 14286:1 15355:1 16082:1 27524:1 29867:1 34325:1 47646:1 54773:1 55943:1 58676:1 
1 9:1 13:1 15:1 17:1 20:1 21:1 26:1 27:1 28:1 31:1 61:1 65:1 69:1 83:1 187:1 314:1 325:1 326:1 369:1 456:1 462:1 526:1 533:1 561:1 569:1 688:1 725:1 747:1 748:1 758:1 862:1 1097:1 1203:1 1291:1 1297:1 1531:1 2329:1 3794:1 4018:1 4051:1 5844:1 5975:1 6689:1 6800:1 7159:1 7242:1 9734:1 9742:1 11063:1 12793:1 13684:1 14402:1 14463:1 16330:1 19338:1 36125:1 36873:1 39386:1 39976:1 41488:1 41840:1 53556:1 59515:1 
0.023531683029149913 9:1 10:1 11:1 12:1 13:1 15:1 16:1 17:1 20:1 22:1 23:1 24:1 26:1 27:1 28:1 39:1 49:1 61:1 64:1 69:1 74:1 76:1 78:1 187:1 216:1 248:1 277:1 290:1 321:1 325:1 383:1 403:1 428:1 438:1 446:1 447:1 450:1 462:1 523:1 603:1 608:1 620:1 673:1 688:1 701:1 718:1 723:1 731:1 737:1 748:1 758:1 772:1 992:1 1036:1 1097:1 1173:1 1297:1 1373:1 1419:1 1433:1 1443:1 2319:1 2703:1 3044:1 3068:1 3321:1 3473:1 3975:1 4018:1 4753:1 5382:1 5610:1 5625:1 5706:1 5959:1 6621:1 7745:1 7824:1 8677:1 8987:1 9333:1 9355:1 9474:1 9578:1 9754:1 10058:1 10067:1 12072:1 12327:1 12785:1 13447:1 14452:1 15107:1 15424:1 15523:1 15599:1 19229:1 21486:1 22941:1 24017:1 27322:1 33723:1 34779:1 34847:1 35339:1 36757:1 39055:1 48129:1 49627:1 51491:1 51573:1 52153:1 52738:1 53694:1 55105:1 62629:1 63358:1 
0.087398624337635372 9:1 10:1 11:1 13:1 15:1 16:1 17:1 19:1 20:1 22:1 26:1 27:1 28:1 31:1 50:1 62:1 69:1 72:1 83:1 90:1 189:1 216:1 248:1 309:1 318:1 321:1 325:1 369:1 403:1 426:1 438:1 450:1 451:1 452:1 462:1 490:1 526:1 597:1 602:1 607:1 608:1 688:1 701:1 725:1 731:1 751:1 758:1 862:1 866:1 1048:1 1116:1 1287:1 1297:1 1336:1 1531:1 1616:1 2386:1 2696:1 2699:1 2703:1 3044:1 3693:1 3878:1 3965:1 3974:1 4018:1 5329:1 5694:1 5741:1 5770:1 5954:1 5959:1 6262:1 6673:1 7653:1 7736:1 7818:1 7824:1 8982:1 9474:1 9809:1 11068:1 11091:1 12386:1 12985:1 14360:1 14452:1 14769:1 16335:1 16773:1 19789:1 21423:1 21475:1 21486:1 25484:1 26604:1 27220:1 27319:1 33429:1 35533:1 35689:1 36757:1 37776:1 39255:1 43594:1 43971:1 44364:1 52153:1 54006:1 59584:1 59704:1 63521:1 
0.018731460229230661 9:1 10:1 11:1 12:1 13:1 14:1 16:1 17:1 19:1 20:1 21:1 22:1 23:1 26:1 27:1 28:1 31:1 50:1 64:1 65:1 68:1 72:1 73:1 83:1 90:1 179:1 181:1 189:1 216:1 248:1 268:1 281:1 316:1 325:1 327:1 359:1 409:1 413:1 428:1 446:1 466:1 486:1 522:1 557:1 592:1 602:1 607:1 634:1 642:1 688:1 697:1 710:1 731:1 748:1 758:1 778:1 869:1 872:1 1048:1 1153:1 1203:1 1264:1 1335:1 1350:1 1535:1 1616:1 2161:1 2211:1 2376:1 2386:1 2703:1 3049:1 3068:1 3391:1 3850:1 4018:1 4040:1 4081:1 4475:1 5051:1 5121:1 5371:1 5610:1 6064:1 6598:1 6606:1 7101:1 7532:1 7735:1 7798:1 8179:1 8360:1 8903:1 9155:1 9474:1 9760:1 10151:1 11105:1 11137:1 12386:1 13701:1 14188:1 14757:1 14906:1 16360:1 16773:1 18422:1 18622:1 19660:1 19788:1 21486:1 22707:1 22932:1 24392:1 26354:1 27794:1 31947:1 32381:1 34779:1 37295:1 38857:1 38928:1 41203:1 43966:1 44228:1 46876:1 49111:1 50589:1 52157:1 53743:1 55459:1 59781:1 59860:1 63521:1 
0.0095708451675714512 9:1 10:1 11:1 12:1 13:1 15:1 16:1 17:1 19:1 20:1 21:1 22:1 23:1 26:1 27:1 28:1 29:1 30:1 34:1 49:1 50:1 62:1 63:1 64:1 71:1 72:1 81:1 82:1 86:1 171:1 187:1 189:1 194:1 238:1 245:1 248:1 268:1 273:1 303:1 315:1 321:1 325:1 327:1 369:1 409:1 421:1 426:1 438:1 490:1 515:1 530:1 536:1 552:1 557:1 561:1 569:1 585:1 591:1 593:1 608:1 634:1 705:1 706:1 712:1 725:1 747:1 758:1 768:1 805:1 811:1 812:1 835:1 957:1 1032:1 1062:1 1131:1 1138:1 1153:1 1156:1 1333:1 1342:1 1506:1 1516:1 1580:1 2326:1 2375:1 2458:1 2476:1 2990:1 3024:1 3049:1 3266:1 3831:1 3835:1 3954:1 4035:1 4036:1 4081:1 5058:1 5236:1 5339:1 6260:1 6555:1 6744:1 6858:1 7086:1 7150:1 7155:1 7242:1 7523:1 7573:1 7832:1 8180:1 9064:1 9088:1 9201:1 9713:1 10000:1 10002:1 10531:1 10626:1 10671:1 10907:1 11756:1 11761:1 12264:1 12581:1 13131:1 13161:1 13284:1 14731:1 14824:1 16157:1 16236:1 16629:1 16632:1 19300:1 19652:1 20383:1 22550:1 22714:1 23751:1 23759:1 26220:1 26278:1 27728:1 27744:1 32008:1 32919:1 33485:1 37747:1 38762:1 40236:1 41426:1 41465:1 41838:1 42783:1 43111:1 44423:1 45718:1 50061:1 50169:1 54785:1 54813:1 58029:1 59049:1 61483:1 61499:1 63158:1 64276:1 
0.027609916164362446 9:1 10:1 11:1 12:1 13:1 15:1 16:1 17:1 19:1 20:1 22:1 26:1 27:1 28:1 30:1 31:1 64:1 65:1 67:1 68:1 71:1 79:1 82:1 171:1 189:1 216:1 248:1 273:1 277:1 290:1 311:1 316:1 319:1 321:1 325:1 327:1 379:1 413:1 431:1 438:1 490:1 494:1 523:1 592:1 599:1 688:1 693:1 711:1 731:1 733:1 758:1 835:1 862:1 1173:1 1203:1 1240:1 1264:1 1316:1 1451:1 1516:1 2383:1 2703:1 3071:1 3263:1 3326:1 3474:1 3725:1 3845:1 3899:1 3960:1 4018:1 4041:1 4081:1 4676:1 5121:1 5432:1 6246:1 6295:1 6621:1 7541:1 7678:1 8806:1 9177:1 9474:1 9509:1 10907:1 11068:1 13448:1 13684:1 13944:1 14188:1 14611:1 15691:1 16236:1 19754:1 21486:1 22986:1 23725:1 24086:1 24703:1 25671:1 26686:1 27150:1 27814:1 30341:1 32381:1 34011:1 37889:1 39055:1 42882:1 43716:1 50683:1 52177:1 52364:1 59055:1 59581:1 
0.063634537269879887 9:1 11:1 13:1 15:1 16:1 17:1 19:1 20:1 21:1 22:1 26:1 27:1 28:1 29:1 31:1 50:1 68:1 69:1 72:1 189:1 250:1 325:1 393:1 396:1 429:1 450:1 452:1 455:1 456:1 486:1 522:1 526:1 530:1 552:1 595:1 607:1 688:1 724:1 746:1 758:1 812:1 866:1 1049:1 1273:1 1291:1 1335:1 1339:1 2379:1 3093:1 4018:1 4895:1 4944:1 5415:1 5716:1 5764:1 5809:1 5832:1 6606:1 6688:1 6755:1 7632:1 7813:1 9363:1 9712:1 10670:1 11091:1 12395:1 14253:1 14397:1 14757:1 14797:1 19726:1 31661:1 33931:1 35417:1 35646:1 35924:1 38930:1 39362:1 39700:1 43497:1 44319:1 51599:1 53401:1 58022:1 59700:1 63549:1 
0.020124457858531914 9:1 10:1 11:1 12:1 13:1 14:1 15:1 16:1 17:1 21:1 22:1 23:1 26:1 27:1 28:1 29:1 31:1 39:1 61:1 62:1 64:1 68:1 73:1 74:1 79:1 171:1 183:1 188:1 194:1 212:1 216:1 236:1 248:1 277:1 290:1 303:1 309:1 313:1 325:1 327:1 350:1 358:1 369:1 379:1 403:1 409:1 422:1 423:1 446:1 450:1 457:1 462:1 552:1 561:1 592:1 596:1 603:1 611:1 626:1 629:1 688:1 701:1 705:1 712:1 733:1 735:1 737:1 747:1 758:1 768:1 784:1 802:1 816:1 858:1 994:1 1098:1 1113:1 1116:1 1173:1 1270:1 1353:1 1373:1 1455:1 2258:1 2346:1 2476:1 2640:1 2692:1 2959:1 3044:1 3049:1 3305:1 3326:1 3481:1 3708:1 3781:1 4018:1 4042:1 4081:1 4089:1 4367:1 4458:1 4674:1 5043:1 5259:1 5274:1 5284:1 5287:1 5610:1 5694:1 5864:1 5975:1 7161:1 7541:1 7639:1 7749:1 7881:1 8044:1 8105:1 9003:1 9061:1 9224:1 9515:1 9539:1 9577:1 9581:1 9720:1 9724:1 10000:1 10267:1 10469:1 10719:1 11039:1 12101:1 12802:1 12953:1 12981:1 13455:1 14221:1 14936:1 15110:1 15729:1 18923:1 18932:1 20388:1 21147:1 21379:1 22466:1 22700:1 24086:1 24756:1 25580:1 25922:1 27858:1 28202:1 29317:1 29676:1 30336:1 33060:1 33138:1 33179:1 33196:1 34758:1 36226:1 36865:1 41529:1 42882:1 43531:1 44029:1 44672:1 45151:1 45154:1 45403:1 49788:1 50962:1 52446:1 52556:1 52731:1 52760:1 53462:1 53489:1 54769:1 56141:1 56967:1 58259:1 59464:1 62744:1 
0.01398222925433972 9:1 10:1 12:1 13:1 15:1 16:1 17:1 18:1 20:1 21:1 22:1 23:1 26:1 27:1 28:1 29:1 30:1 34:1 49:1 50:1 61:1 64:1 65:1 70:1 74:1 79:1 82:1 86:1 171:1 177:1 193:1 195:1 212:1 216:1 229:1 268:1 277:1 290:1 309:1 319:1 325:1 369:1 417:1 436:1 450:1 455:1 456:1 481:1 522:1 533:1 541:1 565:1 569:1 603:1 620:1 641:1 688:1 696:1 700:1 724:1 748:1 758:1 764:1 768:1 772:1 783:1 807:1 816:1 843:1 957:1 1028:1 1048:1 1084:1 1087:1 1160:1 1173:1 1203:1 1308:1 1373:1 1466:1 1521:1 1580:1 2129:1 2433:1 2506:1 2651:1 2703:1 2860:1 3309:1 3473:1 3493:1 3690:1 3909:1 4018:1 4030:1 5176:1 5505:1 5694:1 5815:1 5844:1 6209:1 6609:1 6796:1 6814:1 6926:1 7203:1 7245:1 7745:1 8314:1 8866:1 8980:1 9362:1 9750:1 9754:1 9924:1 9994:1 10073:1 10226:1 10578:1 10707:1 10959:1 11764:1 12211:1 12386:1 12678:1 13312:1 13447:1 13466:1 13692:1 14562:1 15107:1 15836:1 16276:1 16635:1 18236:1 20051:1 20609:1 21244:1 21486:1 22197:1 23911:1 24811:1 25467:1 26814:1 27656:1 32599:1 34289:1 35973:1 36126:1 37639:1 38955:1 39946:1 40059:1 41656:1 41850:1 49578:1 51596:1 53663:1 53705:1 54711:1 55157:1 55913:1 57526:1 59254:1 61520:1 62977:1 63521:1 
0.00058791415732058823 9:1 10:1 11:1 12:1 13:1 15:1 16:1 17:1 20:1 22:1 23:1 24:1 26:1 27:1 28:1 29:1 30:1 31:1 39:1 61:1 62:1 64:1 67:1 76:1 79:1 83:1 88:1 171:1 178:1 179:1 187:1 189:1 194:1 212:1 248:1 268:1 292:1 319:1 325:1 392:1 403:1 409:1 422:1 446:1 455:1 517:1 530:1 533:1 536:1 541:1 585:1 600:1 643:1 665:1 711:1 733:1 748:1 749:1 758:1 764:1 785:1 799:1 835:1 866:1 981:1 1099:1 1113:1 1153:1 1253:1 1413:1 1466:1 1533:1 1594:1 2144:1 2170:1 2337:1 2370:1 2464:1 2650:1 3044:1 3049:1 3518:1 3894:1 4041:1 4887:1 5043:1 5263:1 5610:1 5815:1 5818:1 6751:1 6792:1 6867:1 6930:1 7705:1 8390:1 8598:1 9193:1 9509:1 9746:1 9776:1 9924:1 9930:1 9937:1 10276:1 10406:1 10907:1 11092:1 11949:1 12820:1 12961:1 14079:1 15376:1 15835:1 16351:1 16695:1 18316:1 18458:1 19412:1 20318:1 21230:1 22700:1 27830:1 31457:1 33084:1 34763:1 35970:1 36013:1 39649:1 40310:1 40511:1 43847:1 47029:1 47759:1 50781:1 52362:1 53626:1 53632:1 53853:1 54332:1 54399:1 56187:1 56651:1 59055:1 59715:1 62073:1 
1 10:1 12:1 13:1 16:1 17:1 20:1 21:1 26:1 27:1 28:1 29:1 62:1 64:1 68:1 79:1 223:1 230:1 290:1 316:1 325:1 413:1 445:1 452:1 462:1 530:1 561:1 569:1 688:1 725:1 747:1 749:1 758:1 811:1 1121:1 1173:1 1264:1 1467:1 2791:1 2868:1 3473:1 3864:1 4018:1 5112:1 5596:1 5754:1 5975:1 6757:1 7159:1 7242:1 9713:1 9787:1 10640:1 13033:1 13447:1 14181:1 15857:1 21870:1 26539:1 32277:1 34709:1 35584:1 36855:1 39707:1 41488:1 41840:1 53898:1 57791:1 
0.026046005820684413 9:1 10:1 11:1 12:1 13:1 15:1 16:1 17:1 19:1 20:1 21:1 22:1 23:1 24:1 26:1 27:1 28:1 29:1 30:1 31:1 34:1 39:1 49:1 61:1 62:1 64:1 65:1 67:1 73:1 75:1 78:1 79:1 81:1 83:1 86:1 171:1 179:1 187:1 188:1 189:1 216:1 248:1 268:1 277:1 281:1 316:1 319:1 320:1 321:1 325:1 329:1 375:1 382:1 393:1 431:1 436:1 438:1 448:1 452:1 454:1 457:1 463:1 469:1 504:1 517:1 537:1 540:1 552:1 565:1 585:1 589:1 592:1 595:1 608:1 637:1 641:1 642:1 674:1 693:1 712:1 717:1 718:1 731:1 737:1 748:1 758:1 764:1 768:1 772:1 781:1 782:1 795:1 805:1 812:1 843:1 858:1 866:1 934:1 942:1 946:1 957:1 993:1 1035:1 1097:1 1098:1 1116:1 1153:1 1198:1 1199:1 1243:1 1354:1 1402:1 1441:1 1455:1 1506:1 1528:1 1565:1 1580:1 2161:1 2333:1 2336:1 2346:1 2376:1 2707:1 3071:1 3324:1 3383:1 3845:1 3894:1 3925:1 3963:1 3975:1 4047:1 4141:1 4626:1 4751:1 4898:1 5433:1 5512:1 5658:1 5774:1 5794:1 5857:1 5861:1 5982:1 6081:1 6401:1 6885:1 6904:1 7213:1 7482:1 7532:1 7541:1 7611:1 7843:1 8247:1 8339:1 8360:1 8692:1 8820:1 9201:1 9301:1 9310:1 9334:1 9474:1 9587:1 9750:1 9763:1 9924:1 9992:1 10071:1 10179:1 10200:1 10548:1 10657:1 10959:1 11036:1 11091:1 11563:1 11622:1 11747:1 11756:1 12089:1 12314:1 12796:1 12802:1 12996:1 13643:1 13666:1 13985:1 14953:1 15295:1 15588:1 15737:1 16143:1 16312:1 16514:1 16622:1 18415:1 19386:1 19400:1 19666:1 21561:1 22987:1 24059:1 24317:1 27196:1 27339:1 27910:1 28528:1 30123:1 30762:1 31506:1 34020:1 34337:1 35037:1 35737:1 35831:1 36195:1 38297:1 40375:1 40431:1 41723:1 42880:1 43350:1 44495:1 46740:1 46878:1 48172:1 48582:1 51337:1 51378:1 51497:1 52177:1 52839:1 53661:1 53769:1 54671:1 55136:1 55622:1 55771:1 57443:1 57887:1 59277:1 59431:1 59706:1 60857:1 61043:1 61491:1 62683:1 63321:1 
0.34892012194283567 9:1 11:1 12:1 13:1 16:1 17:1 20:1 21:1 23:1 24:1 26:1 27:1 28:1 31:1 61:1 64:1 65:1 73:1 83:1 178:1 191:1 194:1 248:1 277:1 290:1 311:1 325:1 428:1 448:1 455:1 517:1 533:1 557:1 571:1 635:1 673:1 688:1 701:1 725:1 758:1 858:1 866:1 1101:1 1173:1 1203:1 1350:1 1357:1 1528:1 1533:1 2144:1 2420:1 2458:1 3068:1 3324:1 3473:1 3729:1 4018:1 5371:1 5651:1 5803:1 5815:1 6792:1 7090:1 7283:1 8192:1 8670:1 8996:1 11039:1 11087:1 11092:1 12850:1 13447:1 13684:1 14895:1 14967:1 16315:1 16347:1 16351:1 18334:1 19980:1 22932:1 24034:1 25692:1 34971:1 35970:1 41105:1 41950:1 48086:1 49723:1 59457:1 59667:1 59715:1 
0.0099917500291503772 9:1 10:1 12:1 13:1 15:1 17:1 20:1 22:1 24:1 26:1 27:1 28:1 29:1 61:1 62:1 64:1 65:1 67:1 76:1 171:1 187:1 189:1 196:1 223:1 268:1 273:1 290:1 325:1 327:1 383:1 438:1 455:1 522:1 540:1 541:1 593:1 668:1 688:1 696:1 725:1 758:1 807:1 1097:1 1121:1 1153:1 1173:1 1203:1 1244:1 1415:1 2336:1 2377:1 2524:1 2789:1 3247:1 3473:1 4026:1 4081:1 4765:1 5823:1 6606:1 6612:1 6901:1 6926:1 7584:1 8615:1 8869:1 10568:1 12797:1 13031:1 13447:1 13688:1 13997:1 15387:1 19397:1 19699:1 20766:1 21851:1 27570:1 30844:1 36036:1 38929:1 39005:1 43217:1 47827:1 48893:1 
0.0101935085809808 9:1 10:1 11:1 12:1 13:1 14:1 15:1 16:1 17:1 19:1 20:1 21:1 22:1 23:1 24:1 26:1 27:1 28:1 29:1 31:1 34:1 49:1 50:1 61:1 62:1 64:1 65:1 66:1 76:1 79:1 81:1 83:1 171:1 187:1 193:1 194:1 216:1 248:1 268:1 273:1 277:1 318:1 320:1 325:1 327:1 342:1 368:1 375:1 403:1 420:1 438:1 446:1 448:1 501:1 522:1 530:1 540:1 549:1 572:1 592:1 620:1 630:1 668:1 682:1 688:1 696:1 701:1 707:1 712:1 725:1 731:1 737:1 743:1 747:1 758:1 781:1 789:1 812:1 862:1 882:1 949:1 1035:1 1037:1 1054:1 1060:1 1097:1 1116:1 1156:1 1160:1 1198:1 1203:1 1214:1 1232:1 1415:1 1455:1 1461:1 1506:1 1531:1 1546:1 2336:1 2438:1 2458:1 2476:1 2705:1 3044:1 3247:1 3266:1 3318:1 3883:1 3942:1 4018:1 4026:1 4042:1 4100:1 4249:1 4588:1 4619:1 5218:1 5610:1 5664:1 6363:1 6609:1 6744:1 6751:1 6901:1 6904:1 7049:1 7309:1 7532:1 8113:1 8622:1 8766:1 8869:1 8989:1 9115:1 9201:1 9474:1 9577:1 9653:1 9713:1 10187:1 10313:1 10657:1 11070:1 11223:1 11656:1 12314:1 12337:1 12477:1 12529:1 12797:1 12994:1 13284:1 13321:1 13653:1 13684:1 13780:1 13909:1 15393:1 15729:1 15775:1 16143:1 16336:1 16429:1 19397:1 19400:1 20115:1 20383:1 21548:1 23751:1 23759:1 23968:1 26619:1 27071:1 27570:1 27838:1 28275:1 28823:1 30049:1 32816:1 34758:1 35114:1 38131:1 38960:1 39649:1 40431:1 40988:1 42101:1 45427:1 47874:1 48363:1 48893:1 49658:1 50309:1 52153:1 52731:1 55681:1 56345:1 57887:1 59597:1 60091:1 61185:1 63321:1 63392:1 63876:1 
0.058576895275256141 9:1 10:1 11:1 13:1 14:1 15:1 16:1 17:1 20:1 21:1 22:1 23:1 26:1 27:1 28:1 29:1 39:1 61:1 62:1 63:1 66:1 67:1 69:1 74:1 81:1 171:1 188:1 189:1 216:1 248:1 258:1 303:1 321:1 350:1 365:1 380:1 388:1 394:1 403:1 450:1 455:1 462:1 517:1 552:1 589:1 595:1 597:1 602:1 603:1 608:1 626:1 688:1 725:1 731:1 758:1 800:1 816:1 817:1 987:1 1084:1 1098:1 1116:1 1146:1 1220:1 1241:1 1297:1 1373:1 1509:1 2346:1 2386:1 2683:1 2699:1 3044:1 3175:1 3957:1 4362:1 4365:1 4561:1 4709:1 4822:1 4927:1 5717:1 5803:1 5954:1 5959:1 7497:1 7624:1 7664:1 7736:1 7749:1 7824:1 8044:1 9474:1 10429:1 10707:1 10734:1 12019:1 12802:1 12988:1 13218:1 13813:1 13816:1 13972:1 14452:1 15110:1 16181:1 19789:1 21464:1 23376:1 27126:1 29290:1 29304:1 29967:1 30592:1 31108:1 31599:1 35434:1 36757:1 42647:1 43433:1 43663:1 43971:1 44029:1 45151:1 52153:1 56813:1 62348:1 
0.08893919079350894 9:1 10:1 12:1 13:1 16:1 19:1 23:1 26:1 28:1 50:1 62:1 64:1 65:1 68:1 71:1 171:1 226:1 273:1 290:1 315:1 325:1 426:1 437:1 494:1 627:1 688:1 712:1 758:1 1062:1 1123:1 1173:1 1203:1 1277:1 1316:1 2812:1 3247:1 3473:1 3835:1 4018:1 5339:1 5530:1 6294:1 8054:1 9201:1 12577:1 13045:1 13447:1 13684:1 14300:1 14610:1 21939:1 26278:1 33485:1 34408:1 37887:1 45204:1 
0.26926933008676041 11:1 13:1 14:1 16:1 17:1 23:1 26:1 27:1 30:1 50:1 65:1 66:1 69:1 79:1 82:1 248:1 310:1 326:1 338:1 368:1 403:1 427:1 438:1 462:1 641:1 688:1 725:1 731:1 733:1 737:1 843:1 1052:1 1204:1 1232:1 1297:1 1451:1 1521:1 3044:1 3067:1 3714:1 4051:1 4586:1 5355:1 5959:1 8314:1 9474:1 9500:1 9572:1 10959:1 12434:1 13708:1 13907:1 14452:1 15683:1 16276:1 22916:1 25614:1 30031:1 33575:1 36757:1 52153:1 52267:1 59254:1 
0.033592722653698073 9:1 10:1 11:1 12:1 13:1 16:1 17:1 19:1 20:1 27:1 28:1 29:1 34:1 61:1 64:1 69:1 79:1 177:1 222:1 223:1 248:1 291:1 310:1 316:1 403:1 429:1 462:1 463:1 494:1 526:1 725:1 731:1 758:1 789:1 818:1 939:1 1087:1 1174:1 1297:1 1449:1 2122:1 2778:1 2790:1 3044:1 3069:1 3494:1 3714:1 3865:1 5419:1 5959:1 5982:1 6295:1 6674:1 9474:1 10305:1 10785:1 11535:1 12671:1 13467:1 14452:1 15670:1 18186:1 21830:1 21854:1 22976:1 25596:1 26543:1 33971:1 36757:1 37898:1 39262:1 52153:1 52175:1 56290:1 58696:1 60742:1 
0.0095444183461189172 9:1 10:1 12:1 13:1 14:1 15:1 16:1 17:1 20:1 21:1 22:1 23:1 26:1 27:1 28:1 29:1 30:1 31:1 39:1 50:1 61:1 64:1 66:1 73:1 81:1 83:1 171:1 177:1 182:1 184:1 193:1 194:1 212:1 215:1 216:1 273:1 277:1 281:1 325:1 327:1 368:1 369:1 376:1 413:1 455:1 457:1 463:1 540:1 565:1 589:1 595:1 641:1 688:1 700:1 711:1 714:1 725:1 729:1 758:1 764:1 768:1 783:1 812:1 843:1 862:1 880:1 991:1 1060:1 1084:1 1087:1 1156:1 1160:1 1232:1 1354:1 1506:1 1531:1 1544:1 2116:1 2117:1 2217:1 2282:1 2426:1 2458:1 2649:1 2676:1 2703:1 3266:1 3326:1 3383:1 4018:1 4041:1 4044:1 4085:1 4102:1 4592:1 4646:1 5119:1 5822:1 5867:1 5982:1 6901:1 7213:1 7485:1 7612:1 8323:1 8968:1 9175:1 9261:1 9436:1 9935:1 10000:1 10230:1 10654:1 10959:1 11072:1 11193:1 12043:1 12529:1 12666:1 13284:1 13328:1 13912:1 14953:1 16140:1 16338:1 16411:1 18122:1 18139:1 19052:1 21205:1 21321:1 21486:1 23751:1 24087:1 24322:1 27812:1 27886:1 28174:1 28307:1 30056:1 30265:1 32364:1 36025:1 36277:1 41723:1 42523:1 43363:1 46582:1 49529:1 50669:1 51198:1 51904:1 54374:1 54792:1 55943:1 57866:1 59262:1 59625:1 59986:1 
0.050634811498149114 9:1 10:1 11:1 12:1 13:1 15:1 16:1 17:1 19:1 20:1 21:1 22:1 23:1 24:1 26:1 27:1 28:1 30:1 31:1 34:1 49:1 61:1 62:1 64:1 76:1 78:1 79:1 83:1 86:1 171:1 177:1 178:1 188:1 212:1 216:1 223:1 248:1 290:1 303:1 320:1 325:1 327:1 329:1 369:1 417:1 427:1 445:1 448:1 450:1 452:1 457:1 462:1 494:1 530:1 532:1 552:1 565:1 597:1 613:1 620:1 643:1 673:1 688:1 697:1 701:1 705:1 707:1 729:1 736:1 748:1 758:1 768:1 854:1 858:1 934:1 952:1 1031:1 1087:1 1116:1 1121:1 1173:1 1419:1 1434:1 1454:1 1528:1 1559:1 2117:1 2144:1 2346:1 2630:1 2683:1 2707:1 2791:1 3067:1 3473:1 3935:1 4018:1 4031:1 4035:1 4081:1 4144:1 5182:1 5348:1 5584:1 5664:1 5694:1 5754:1 5869:1 5885:1 5976:1 6301:1 6757:1 6780:1 7201:1 7209:1 7664:1 7912:1 8374:1 8669:1 8907:1 8991:1 9068:1 9128:1 9441:1 9562:1 9750:1 10000:1 10002:1 11013:1 11026:1 11679:1 12251:1 12666:1 12996:1 13033:1 13447:1 15418:1 15549:1 15722:1 16303:1 18127:1 18333:1 21562:1 21870:1 22910:1 27016:1 27667:1 27729:1 28535:1 32666:1 33542:1 34634:1 35109:1 35575:1 36309:1 36431:1 36880:1 37944:1 39707:1 39867:1 41651:1 41693:1 43675:1 44775:1 46936:1 48072:1 49152:1 49672:1 50081:1 50450:1 51965:1 52682:1 53667:1 54769:1 54813:1 59366:1 59383:1 63120:1 
0.047303160478812029 9:1 10:1 11:1 12:1 13:1 15:1 16:1 17:1 21:1 22:1 24:1 26:1 27:1 28:1 29:1 34:1 62:1 67:1 68:1 69:1 73:1 79:1 179:1 193:1 216:1 228:1 248:1 277:1 316:1 325:1 327:1 392:1 413:1 417:1 438:1 445:1 452:1 457:1 561:1 565:1 585:1 607:1 658:1 688:1 713:1 717:1 725:1 731:1 744:1 758:1 799:1 956:1 1124:1 1253:1 1264:1 1292:1 1353:1 1354:1 1449:1 2158:1 2454:1 2695:1 2840:1 3057:1 3324:1 3845:1 4018:1 4081:1 4883:1 5121:1 5178:1 5586:1 5754:1 5857:1 5879:1 7159:1 7209:1 7792:1 8508:1 9234:1 9309:1 9474:1 9683:1 10407:1 11729:1 13068:1 14077:1 14188:1 14425:1 14934:1 14950:1 15670:1 18403:1 20274:1 21408:1 22106:1 22810:1 24034:1 31430:1 32381:1 32615:1 34658:1 35577:1 36371:1 41488:1 41687:1 47413:1 51008:1 51364:1 52165:1 53253:1 56653:1 
1 9:1 11:1 14:1 15:1 16:1 17:1 21:1 22:1 23:1 27:1 28:1 29:1 61:1 69:1 75:1 79:1 188:1 248:1 359:1 369:1 427:1 450:1 462:1 552:1 575:1 597:1 602:1 629:1 725:1 729:1 731:1 748:1 749:1 758:1 772:1 812:1 1098:1 1297:1 1392:1 1447:1 1467:1 2346:1 2362:1 3067:1 4475:1 5346:1 5694:1 5959:1 7336:1 7653:1 7728:1 8106:1 9441:1 9474:1 9754:1 9788:1 10067:1 10666:1 12802:1 14452:1 15209:1 15648:1 15858:1 19591:1 22908:1 36757:1 42160:1 43594:1 43938:1 45408:1 51976:1 52173:1 53701:1 53912:1 55099:1 57995:1 
0.0020801924147402211 9:1 10:1 11:1 12:1 13:1 15:1 16:1 17:1 18:1 19:1 20:1 21:1 22:1 24:1 26:1 27:1 28:1 29:1 30:1 34:1 49:1 50:1 61:1 62:1 64:1 67:1 69:1 70:1 74:1 79:1 81:1 82:1 86:1 187:1 188:1 191:1 193:1 212:1 216:1 248:1 281:1 290:1 303:1 308:1 319:1 320:1 323:1 325:1 329:1 369:1 375:1 383:1 428:1 438:1 445:1 450:1 457:1 464:1 481:1 494:1 517:1 525:1 532:1 552:1 558:1 585:1 593:1 608:1 662:1 672:1 675:1 688:1 701:1 733:1 758:1 768:1 795:1 800:1 812:1 817:1 848:1 854:1 964:1 1031:1 1049:1 1098:1 1116:1 1173:1 1236:1 1244:1 1278:1 1292:1 1308:1 1370:1 1451:1 1506:1 1523:1 1587:1 2321:1 2346:1 2411:1 2438:1 2644:1 2697:1 2703:1 2707:1 3068:1 3370:1 3473:1 3681:1 3894:1 3930:1 4009:1 4012:1 4018:1 4031:1 4144:1 4637:1 4773:1 5371:1 5584:1 5694:1 5857:1 6034:1 6204:1 6301:1 6652:1 6780:1 7114:1 7566:1 7832:1 8526:1 8536:1 8653:1 8703:1 8986:1 8991:1 9513:1 9995:1 10000:1 10429:1 10671:1 10741:1 10984:1 11013:1 11832:1 12251:1 12394:1 12802:1 12996:1 13447:1 13931:1 14005:1 14408:1 14557:1 15065:1 15695:1 16157:1 16287:1 16681:1 19252:1 19930:1 20113:1 21175:1 21431:1 21486:1 21562:1 22932:1 25417:1 26979:1 27470:1 27489:1 27667:1 28535:1 30201:1 30898:1 34639:1 37213:1 37625:1 37944:1 39173:1 39867:1 41313:1 43056:1 44423:1 47487:1 47995:1 48198:1 49610:1 49672:1 52421:1 52423:1 54724:1 54769:1 56818:1 58029:1 58422:1 59366:1 61707:1 63120:1 63544:1 
0.023851880847582357 9:1 11:1 12:1 13:1 14:1 15:1 16:1 17:1 19:1 20:1 21:1 22:1 23:1 26:1 27:1 28:1 29:1 30:1 31:1 34:1 50:1 61:1 64:1 66:1 69:1 71:1 79:1 80:1 82:1 86:1 183:1 188:1 195:1 196:1 248:1 268:1 316:1 325:1 338:1 342:1 386:1 393:1 402:1 403:1 417:1 426:1 438:1 446:1 450:1 452:1 455:1 456:1 457:1 462:1 490:1 530:1 544:1 552:1 557:1 592:1 607:1 636:1 699:1 711:1 725:1 731:1 737:1 748:1 758:1 768:1 772:1 778:1 804:1 811:1 818:1 835:1 866:1 957:1 1058:1 1098:1 1106:1 1153:1 1214:1 1291:1 1315:1 1455:1 1478:1 1516:1 1580:1 2261:1 2346:1 2485:1 2521:1 2533:1 3044:1 3057:1 3859:1 4029:1 4246:1 4800:1 4895:1 5016:1 5178:1 5338:1 5610:1 5716:1 5750:1 5755:1 5770:1 5826:1 5832:1 5864:1 5954:1 6268:1 6757:1 6985:1 7105:1 7532:1 7815:1 8224:1 8952:1 8965:1 9177:1 9474:1 9587:1 9754:1 9992:1 10067:1 10153:1 10506:1 10626:1 10777:1 10907:1 11091:1 11761:1 12522:1 12802:1 12915:1 13777:1 14397:1 14604:1 15737:1 15947:1 16236:1 16632:1 18957:1 20737:1 20850:1 22810:1 26465:1 27631:1 27644:1 28810:1 30979:1 31864:1 32613:1 33472:1 34758:1 35417:1 35587:1 35689:1 36053:1 36221:1 37834:1 39708:1 40798:1 41249:1 44336:1 45956:1 49438:1 49510:1 50683:1 52165:1 52840:1 53701:1 54682:1 55112:1 55480:1 58651:1 59043:1 59704:1 61499:1 64008:1 
0.0011871409985516604 9:1 10:1 11:1 12:1 13:1 15:1 16:1 17:1 19:1 20:1 21:1 22:1 23:1 24:1 26:1 27:1 28:1 29:1 30:1 31:1 32:1 34:1 49:1 61:1 64:1 67:1 68:1 69:1 71:1 72:1 73:1 75:1 76:1 78:1 79:1 81:1 82:1 171:1 187:1 230:1 248:1 250:1 268:1 273:1 277:1 303:1 309:1 315:1 320:1 325:1 326:1 327:1 386:1 389:1 403:1 409:1 413:1 417:1 426:1 436:1 438:1 446:1 456:1 457:1 462:1 463:1 494:1 501:1 504:1 526:1 533:1 542:1 552:1 565:1 585:1 589:1 592:1 595:1 613:1 627:1 635:1 637:1 673:1 701:1 703:1 712:1 715:1 725:1 731:1 737:1 747:1 758:1 768:1 783:1 812:1 817:1 822:1 835:1 866:1 900:1 942:1 1033:1 1084:1 1097:1 1153:1 1156:1 1247:1 1264:1 1291:1 1292:1 1297:1 1326:1 1343:1 1354:1 1390:1 1419:1 1433:1 1449:1 1506:1 1516:1 2329:1 2868:1 3044:1 3049:1 3057:1 3076:1 3107:1 3247:1 3326:1 3703:1 3835:1 3925:1 4033:1 4045:1 4062:1 4071:1 4081:1 4102:1 4798:1 4839:1 5043:1 5121:1 5168:1 5339:1 5510:1 5610:1 5612:1 5832:1 5857:1 5885:1 5959:1 5982:1 6294:1 6364:1 6401:1 6673:1 6684:1 6689:1 6690:1 6800:1 6975:1 7213:1 7482:1 7532:1 7625:1 7902:1 8058:1 8198:1 8257:1 8670:1 8987:1 8998:1 9023:1 9201:1 9269:1 9474:1 9587:1 9591:1 9724:1 9981:1 10230:1 10657:1 10734:1 10829:1 10907:1 11085:1 11309:1 11566:1 12269:1 12793:1 13266:1 14016:1 14188:1 14397:1 14408:1 14452:1 14673:1 14852:1 14953:1 15193:1 15419:1 15523:1 15670:1 16143:1 16236:1 19338:1 22700:1 22801:1 23038:1 23155:1 24096:1 25549:1 26278:1 27693:1 27891:1 28038:1 28091:1 28307:1 30958:1 31163:1 32381:1 33485:1 34310:1 34763:1 34795:1 36426:1 36757:1 37887:1 38149:1 38302:1 39259:1 39327:1 39393:1 39404:1 39973:1 40761:1 41723:1 43438:1 44730:1 45229:1 45793:1 46173:1 48088:1 49627:1 49757:1 49860:1 51231:1 52153:1 52165:1 52181:1 52838:1 52871:1 53494:1 55933:1 57887:1 58855:1 59047:1 59058:1 59656:1 60230:1 60890:1 63165:1 
0.013712236026663532 9:1 10:1 12:1 13:1 14:1 15:1 16:1 17:1 20:1 21:1 22:1 23:1 26:1 27:1 28:1 29:1 34:1 49:1 61:1 64:1 65:1 68:1 69:1 73:1 80:1 81:1 86:1 171:1 182:1 189:1 193:1 226:1 268:1 290:1 292:1 303:1 316:1 319:1 320:1 321:1 325:1 326:1 327:1 328:1 359:1 369:1 389:1 413:1 417:1 422:1 447:1 451:1 456:1 458:1 463:1 526:1 540:1 552:1 561:1 565:1 569:1 585:1 592:1 608:1 620:1 642:1 643:1 688:1 693:1 699:1 705:1 725:1 729:1 730:1 758:1 764:1 768:1 775:1 781:1 782:1 793:1 795:1 804:1 817:1 934:1 942:1 957:1 1037:1 1103:1 1173:1 1199:1 1264:1 1267:1 1287:1 1293:1 1354:1 1491:1 1499:1 1509:1 1559:1 1565:1 1580:1 2217:1 2376:1 2436:1 2825:1 3473:1 3518:1 3851:1 3915:1 3925:1 3975:1 4035:1 4051:1 4081:1 4130:1 4493:1 4845:1 5119:1 5121:1 5181:1 5250:1 5620:1 5738:1 5844:1 5889:1 5982:1 5992:1 5999:1 6680:1 6903:1 7153:1 7160:1 7213:1 7242:1 7555:1 7844:1 8342:1 8374:1 8815:1 8955:1 9064:1 9442:1 9461:1 9924:1 9981:1 9995:1 10110:1 10179:1 10198:1 10364:1 10525:1 10734:1 11568:1 11747:1 12330:1 12858:1 13447:1 13673:1 14186:1 14188:1 14206:1 14357:1 14431:1 14953:1 16052:1 16100:1 16181:1 16518:1 16622:1 19678:1 20100:1 22007:1 26356:1 26870:1 27340:1 27728:1 28464:1 29773:1 31196:1 32360:1 32381:1 32647:1 35518:1 36125:1 36970:1 37029:1 39305:1 40427:1 41455:1 41513:1 41723:1 41726:1 41732:1 41836:1 42993:1 44503:1 46925:1 48515:1 49453:1 50069:1 51983:1 52113:1 54720:1 55320:1 55618:1 55756:1 56531:1 57305:1 60904:1 63364:1 
1 9:1 10:1 11:1 12:1 13:1 15:1 16:1 17:1 19:1 20:1 21:1 22:1 23:1 26:1 27:1 28:1 29:1 31:1 34:1 49:1 61:1 62:1 65:1 69:1 74:1 80:1 86:1 187:1 216:1 248:1 281:1 316:1 325:1 326:1 330:1 392:1 403:1 455:1 457:1 462:1 508:1 517:1 526:1 532:1 533:1 552:1 585:1 595:1 603:1 620:1 696:1 706:1 711:1 725:1 731:1 748:1 758:1 768:1 811:1 881:1 942:1 957:1 1031:1 1097:1 1116:1 1204:1 1292:1 1297:1 1373:1 1478:1 1565:1 1580:1 2329:1 2703:1 2708:1 3044:1 3383:1 3859:1 4026:1 4036:1 4041:1 4051:1 4158:1 4866:1 5803:1 5857:1 5867:1 5959:1 6454:1 6688:1 6787:1 6800:1 7628:1 7745:1 8877:1 9081:1 9192:1 9474:1 9742:1 9992:1 10626:1 11208:1 11565:1 11761:1 12251:1 12793:1 12992:1 12997:1 13708:1 14408:1 14452:1 15107:1 15947:1 16516:1 16632:1 19338:1 21502:1 21569:1 24322:1 26448:1 27575:1 27737:1 27829:1 28591:1 36291:1 36757:1 39367:1 39907:1 39975:1 43452:1 48942:1 50761:1 52153:1 54682:1 60041:1 60881:1 61499:1 63124:1 
0.0054180053305712475 9:1 10:1 11:1 12:1 13:1 14:1 15:1 16:1 17:1 18:1 22:1 23:1 26:1 27:1 28:1 34:1 49:1 64:1 66:1 74:1 78:1 79:1 193:1 194:1 230:1 248:1 290:1 314:1 325:1 342:1 379:1 383:1 384:1 392:1 403:1 426:1 444:1 450:1 452:1 461:1 462:1 463:1 484:1 603:1 626:1 688:1 694:1 697:1 701:1 737:1 747:1 748:1 754:1 758:1 772:1 946:1 1028:1 1173:1 1214:1 1373:1 1431:1 1466:1 2438:1 2477:1 2868:1 3044:1 3481:1 3803:1 4018:1 4254:1 4688:1 4756:1 4783:1 4891:1 5329:1 5577:1 5702:1 5707:1 5715:1 5771:1 5930:1 5975:1 5982:1 6229:1 7749:1 8044:1 8848:1 8901:1 8991:1 9003:1 9581:1 9724:1 9742:1 9754:1 9835:1 10078:1 11626:1 12215:1 13455:1 13784:1 15110:1 15498:1 15839:1 20117:1 20405:1 24756:1 26062:1 28858:1 30462:1 30780:1 30919:1 31490:1 33434:1 34587:1 35309:1 35350:1 35413:1 35708:1 36597:1 36865:1 37679:1 44029:1 45151:1 48816:1 49085:1 49674:1 49683:1 49788:1 52771:1 53489:1 53708:1 54080:1 55190:1 61071:1 62998:1 
0.056691640525992654 9:1 11:1 12:1 13:1 15:1 16:1 17:1 19:1 20:1 21:1 22:1 23:1 26:1 27:1 28:1 29:1 31:1 39:1 50:1 64:1 65:1 69:1 71:1 74:1 83:1 171:1 178:1 248:1 273:1 277:1 293:1 303:1 316:1 321:1 325:1 379:1 403:1 428:1 446:1 450:1 462:1 504:1 530:1 552:1 585:1 602:1 607:1 608:1 619:1 620:1 637:1 688:1 706:1 731:1 749:1 768:1 775:1 811:1 816:1 862:1 872:1 880:1 991:1 1047:1 1057:1 1156:1 1160:1 1176:1 1195:1 1203:1 1297:1 1326:1 1384:1 1531:1 1538:1 1544:1 2144:1 3044:1 3068:1 3247:1 3305:1 3561:1 3854:1 3970:1 3975:1 4018:1 4036:1 4685:1 5378:1 5610:1 5702:1 5959:1 6401:1 6751:1 7718:1 7816:1 7838:1 7970:1 7976:1 8269:1 9081:1 9474:1 9787:1 10000:1 10112:1 10626:1 10707:1 11068:1 11122:1 11193:1 12043:1 12373:1 12499:1 13266:1 13310:1 13508:1 13622:1 13684:1 14452:1 14673:1 15167:1 15169:1 16335:1 16364:1 16411:1 18334:1 22937:1 25043:1 26398:1 27251:1 27334:1 27737:1 30447:1 33693:1 34758:1 35308:1 36757:1 38310:1 39649:1 44356:1 44471:1 44962:1 44974:1 46264:1 52153:1 53893:1 54785:1 55330:1 59587:1 59986:1 63449:1 
0.013670911243482952 9:1 10:1 11:1 12:1 13:1 14:1 15:1 16:1 17:1 19:1 20:1 21:1 22:1 23:1 26:1 27:1 28:1 29:1 31:1 39:1 61:1 64:1 67:1 68:1 69:1 79:1 81:1 83:1 171:1 182:1 189:1 220:1 236:1 248:1 268:1 273:1 277:1 281:1 303:1 309:1 315:1 318:1 325:1 355:1 379:1 380:1 386:1 392:1 415:1 420:1 423:1 426:1 428:1 452:1 454:1 456:1 461:1 486:1 501:1 508:1 517:1 526:1 530:1 533:1 536:1 552:1 585:1 589:1 592:1 626:1 641:1 642:1 696:1 697:1 699:1 711:1 712:1 731:1 739:1 742:1 747:1 755:1 758:1 802:1 812:1 862:1 985:1 994:1 1092:1 1099:1 1153:1 1164:1 1240:1 1241:1 1247:1 1270:1 1291:1 1472:1 1506:1 1531:1 2235:1 2370:1 2764:1 2959:1 3055:1 3060:1 3068:1 3263:1 3305:1 3386:1 3695:1 3708:1 3835:1 3888:1 4026:1 4426:1 4674:1 4704:1 4798:1 4870:1 4878:1 5145:1 5223:1 5284:1 5339:1 5371:1 5763:1 5781:1 5832:1 5933:1 5935:1 6365:1 6454:1 6679:1 6757:1 6792:1 6866:1 7482:1 7532:1 8044:1 8333:1 8359:1 8869:1 8905:1 8958:1 9177:1 9201:1 9474:1 9610:1 9643:1 9729:1 9860:1 10469:1 10657:1 11070:1 11986:1 12101:1 12731:1 12820:1 13377:1 13942:1 13967:1 14016:1 14221:1 14397:1 15891:1 16143:1 16336:1 18766:1 21781:1 22466:1 22782:1 22835:1 22932:1 23718:1 24346:1 25503:1 25580:1 26278:1 26638:1 27570:1 29545:1 30328:1 30336:1 30571:1 30964:1 31353:1 31408:1 32466:1 32852:1 33179:1 33485:1 35640:1 36618:1 36632:1 38157:1 39299:1 39713:1 40293:1 45160:1 46672:1 46851:1 48899:1 49135:1 49468:1 50683:1 52167:1 52174:1 52951:1 53098:1 53521:1 54153:1 56967:1 57887:1 59597:1 62178:1 62744:1 
0.0039058896670823911 9:1 10:1 11:1 12:1 13:1 15:1 16:1 17:1 19:1 20:1 21:1 22:1 23:1 26:1 27:1 28:1 31:1 34:1 39:1 50:1 61:1 62:1 65:1 67:1 68:1 69:1 71:1 73:1 79:1 83:1 90:1 171:1 177:1 187:1 189:1 216:1 220:1 248:1 268:1 321:1 325:1 369:1 375:1 379:1 383:1 386:1 409:1 413:1 438:1 444:1 450:1 457:1 463:1 504:1 508:1 522:1 530:1 540:1 561:1 585:1 592:1 595:1 597:1 607:1 608:1 613:1 620:1 637:1 649:1 688:1 725:1 731:1 743:1 758:1 782:1 791:1 862:1 872:1 934:1 946:1 984:1 1061:1 1087:1 1097:1 1119:1 1199:1 1236:1 1244:1 1264:1 1292:1 1326:1 1353:1 1461:1 1531:1 1538:1 1623:1 2117:1 2326:1 2336:1 2376:1 2396:1 2703:1 2747:1 3049:1 3960:1 3963:1 3965:1 3974:1 4018:1 4635:1 4688:1 4772:1 4797:1 5043:1 5116:1 5572:1 5694:1 5702:1 5857:1 6005:1 6401:1 6454:1 6606:1 6744:1 6901:1 7155:1 7532:1 7622:1 7653:1 7798:1 7850:1 7896:1 8270:1 8466:1 9474:1 9679:1 10195:1 10339:1 11068:1 11122:1 11618:1 11975:1 12555:1 12666:1 12797:1 13007:1 13666:1 13929:1 14004:1 14185:1 14408:1 14673:1 14933:1 15798:1 16335:1 16364:1 16801:1 18139:1 19300:1 19397:1 19660:1 19863:1 21486:1 22700:1 27145:1 27204:1 27220:1 27299:1 30189:1 30462:1 30889:1 30949:1 32322:1 34537:1 35309:1 37058:1 38311:1 38928:1 41474:1 43418:1 43594:1 43598:1 44228:1 44554:1 46279:1 47289:1 52157:1 53241:1 56438:1 59584:1 61027:1 62137:1 
0.001033509912762069 9:1 10:1 11:1 12:1 13:1 14:1 15:1 16:1 17:1 18:1 19:1 20:1 21:1 22:1 23:1 26:1 27:1 28:1 29:1 31:1 34:1 39:1 50:1 64:1 66:1 69:1 70:1 71:1 79:1 81:1 83:1 178:1 187:1 208:1 248:1 250:1 253:1 268:1 277:1 284:1 290:1 315:1 320:1 321:1 325:1 326:1 357:1 369:1 403:1 409:1 422:1 426:1 435:1 438:1 446:1 450:1 451:1 457:1 462:1 463:1 475:1 476:1 486:1 498:1 523:1 530:1 536:1 552:1 585:1 592:1 642:1 644:1 688:1 704:1 724:1 731:1 733:1 736:1 737:1 758:1 789:1 812:1 818:1 862:1 866:1 942:1 946:1 993:1 1058:1 1173:1 1226:1 1287:1 1297:1 1304:1 1305:1 1320:1 1449:1 1451:1 1506:1 1531:1 1533:1 2146:1 2319:1 3044:1 3075:1 3093:1 3148:1 3324:1 3412:1 3473:1 3835:1 3925:1 3954:1 4034:1 4061:1 4451:1 5056:1 5250:1 5318:1 5494:1 5610:1 5694:1 5738:1 5864:1 5959:1 6012:1 6129:1 6162:1 6343:1 6618:1 6751:1 6866:1 7532:1 7541:1 7548:1 8350:1 8413:1 9052:1 9372:1 9474:1 9477:1 9505:1 9558:1 9572:1 10307:1 10311:1 10657:1 10762:1 11071:1 11097:1 11563:1 11624:1 12096:1 12513:1 13447:1 13865:1 14357:1 14452:1 14499:1 14528:1 14633:1 15670:1 15673:1 15688:1 16143:1 16337:1 16356:1 18341:1 19226:1 23027:1 23327:1 24048:1 24464:1 26260:1 27718:1 28018:1 29661:1 31978:1 34256:1 34758:1 35518:1 36226:1 36757:1 37137:1 37458:1 37530:1 38067:1 39649:1 40289:1 42880:1 42935:1 46796:1 47145:1 50007:1 51650:1 52153:1 52180:1 52195:1 52333:1 52656:1 56305:1 56330:1 57887:1 59617:1 59766:1 60848:1 61051:1 62726:1 63962:1 
0.0029527289367157553 9:1 11:1 12:1 13:1 14:1 15:1 16:1 17:1 20:1 21:1 22:1 23:1 25:1 26:1 27:1 28:1 29:1 50:1 64:1 65:1 68:1 69:1 74:1 77:1 79:1 171:1 187:1 194:1 248:1 273:1 292:1 303:1 325:1 327:1 342:1 346:1 380:1 413:1 428:1 448:1 450:1 452:1 463:1 522:1 533:1 552:1 619:1 620:1 687:1 688:1 698:1 725:1 731:1 737:1 743:1 747:1 758:1 768:1 782:1 783:1 794:1 807:1 1057:1 1060:1 1156:1 1175:1 1203:1 1264:1 1288:1 1384:1 1428:1 1455:1 1461:1 2329:1 2476:1 3068:1 3266:1 3542:1 4018:1 4081:1 4102:1 4249:1 4302:1 4701:1 5121:1 5371:1 5643:1 5703:1 5759:1 6005:1 6591:1 6796:1 7976:1 8783:1 8925:1 9474:1 9579:1 9653:1 9713:1 10002:1 10200:1 10230:1 10376:1 10584:1 12499:1 12536:1 13284:1 13493:1 13684:1 14188:1 14371:1 15169:1 15468:1 15731:1 15775:1 19334:1 20383:1 22932:1 23759:1 24980:1 28307:1 28822:1 29057:1 30550:1 32381:1 35315:1 35613:1 37062:1 39932:1 44974:1 48417:1 49289:1 52174:1 52743:1 54813:1 55771:1 55945:1 56584:1 57550:1 64069:1 
0.029928387987861817 9:1 10:1 12:1 13:1 14:1 15:1 17:1 20:1 22:1 23:1 24:1 26:1 27:1 28:1 29:1 31:1 32:1 33:1 34:1 50:1 61:1 62:1 64:1 65:1 66:1 76:1 78:1 79:1 83:1 85:1 171:1 181:1 182:1 187:1 189:1 196:1 216:1 223:1 268:1 303:1 313:1 319:1 321:1 325:1 328:1 331:1 352:1 368:1 375:1 381:1 461:1 522:1 526:1 533:1 536:1 540:1 542:1 585:1 589:1 593:1 608:1 609:1 620:1 637:1 639:1 646:1 658:1 688:1 696:1 697:1 706:1 707:1 725:1 743:1 748:1 758:1 768:1 778:1 789:1 803:1 816:1 818:1 855:1 866:1 883:1 912:1 956:1 1060:1 1097:1 1116:1 1121:1 1153:1 1206:1 1232:1 1408:1 1431:1 1461:1 1466:1 1533:1 1554:1 2205:1 2225:1 2336:1 2391:1 2533:1 2699:1 2789:1 2796:1 3782:1 3909:1 3976:1 4036:1 4129:1 4160:1 4383:1 4385:1 4592:1 4619:1 4716:1 5932:1 6600:1 6612:1 6694:1 6809:1 6870:1 6901:1 6961:1 7482:1 7564:1 7841:1 7869:1 8247:1 8255:1 8295:1 8426:1 8500:1 8506:1 8866:1 8900:1 9084:1 9124:1 9653:1 9750:1 10000:1 10154:1 10320:1 10483:1 10721:1 10777:1 10785:1 11095:1 11352:1 11729:1 12529:1 12797:1 12988:1 13031:1 13037:1 13741:1 13912:1 15322:1 15497:1 15775:1 15836:1 16354:1 16443:1 18583:1 18702:1 19397:1 19840:1 20850:1 21477:1 21851:1 21892:1 25926:1 26810:1 27357:1 27740:1 28458:1 29376:1 29395:1 30056:1 30613:1 36604:1 38878:1 39010:1 39432:1 40038:1 40327:1 40663:1 44488:1 44644:1 46137:1 46391:1 47347:1 47382:1 49072:1 50142:1 50405:1 53667:1 54785:1 55490:1 55494:1 56368:1 58283:1 58652:1 58704:1 59737:1 60291:1 
0.06943078311492358 9:1 10:1 11:1 12:1 13:1 14:1 15:1 16:1 17:1 20:1 21:1 22:1 23:1 26:1 27:1 28:1 29:1 30:1 34:1 39:1 64:1 65:1 69:1 72:1 73:1 81:1 86:1 177:1 178:1 194:1 197:1 220:1 226:1 248:1 268:1 273:1 293:1 310:1 319:1 321:1 365:1 392:1 403:1 427:1 428:1 450:1 456:1 463:1 517:1 522:1 552:1 557:1 565:1 592:1 608:1 620:1 694:1 697:1 725:1 731:1 741:1 758:1 768:1 769:1 783:1 795:1 812:1 831:1 954:1 991:1 1156:1 1176:1 1199:1 1291:1 1335:1 1350:1 1506:1 1577:1 2126:1 2144:1 2458:1 2541:1 2756:1 2808:1 3044:1 3067:1 3068:1 3266:1 3543:1 3714:1 3894:1 3975:1 4562:1 4880:1 5350:1 5371:1 5715:1 5832:1 6006:1 6613:1 7090:1 7213:1 7532:1 7833:1 8841:1 8897:1 9474:1 9636:1 9994:1 10017:1 10230:1 10657:1 10875:1 11709:1 12047:1 13284:1 13494:1 13673:1 14397:1 14764:1 14895:1 16143:1 16603:1 18207:1 18333:1 20877:1 21716:1 22912:1 22932:1 23751:1 25615:1 27329:1 29971:1 31420:1 33549:1 35402:1 37083:1 39014:1 41105:1 41738:1 44433:1 48768:1 49037:1 52153:1 53075:1 54699:1 54883:1 55940:1 57887:1 58931:1 61324:1 62470:1 
0.030227240588034762 9:1 10:1 11:1 12:1 13:1 15:1 16:1 17:1 19:1 20:1 21:1 22:1 26:1 27:1 28:1 29:1 34:1 39:1 49:1 50:1 61:1 62:1 64:1 67:1 71:1 78:1 86:1 182:1 187:1 194:1 220:1 248:1 268:1 319:1 320:1 325:1 369:1 383:1 392:1 413:1 417:1 422:1 438:1 452:1 455:1 462:1 501:1 522:1 540:1 541:1 552:1 615:1 688:1 695:1 723:1 725:1 731:1 737:1 747:1 748:1 758:1 768:1 772:1 789:1 795:1 942:1 957:1 964:1 993:1 1036:1 1060:1 1097:1 1119:1 1153:1 1244:1 1253:1 1323:1 1443:1 1580:1 1587:1 2217:1 2336:1 2476:1 2757:1 3053:1 3057:1 3062:1 3916:1 3925:1 4018:1 4765:1 4870:1 5119:1 5168:1 5276:1 5764:1 5805:1 5823:1 5959:1 6363:1 6600:1 6610:1 6901:1 6926:1 6934:1 7943:1 8858:1 9355:1 9474:1 9591:1 9724:1 9754:1 9995:1 10058:1 10307:1 11561:1 11747:1 11837:1 12096:1 12327:1 12533:1 12797:1 13015:1 13997:1 14071:1 14644:1 15599:1 16622:1 16685:1 19397:1 20392:1 21725:1 22762:1 22801:1 22859:1 26896:1 30844:1 31353:1 32346:1 33149:1 35645:1 35879:1 36036:1 36757:1 38132:1 38873:1 38983:1 40541:1 44907:1 48859:1 51573:1 52165:1 52169:1 52871:1 53498:1 53694:1 54720:1 56303:1 60836:1 61744:1 62726:1 63358:1 64052:1 
0.099991374411239745 9:1 11:1 12:1 13:1 14:1 15:1 16:1 17:1 18:1 20:1 22:1 23:1 26:1 27:1 28:1 29:1 61:1 64:1 65:1 67:1 70:1 79:1 81:1 171:1 187:1 248:1 268:1 277:1 287:1 311:1 325:1 327:1 355:1 380:1 403:1 457:1 476:1 540:1 592:1 626:1 641:1 696:1 697:1 711:1 725:1 729:1 737:1 748:1 758:1 782:1 817:1 1097:1 1153:1 1203:1 1241:1 1305:1 1455:1 1509:1 2336:1 3044:1 3324:1 3441:1 3737:1 4027:1 4041:1 4081:1 4426:1 4704:1 5864:1 6155:1 6901:1 7532:1 8044:1 8319:1 8873:1 8914:1 9192:1 9428:1 9587:1 9763:1 10195:1 10737:1 12797:1 13702:1 13967:1 14521:1 15737:1 16184:1 19397:1 24041:1 24571:1 25729:1 27603:1 27829:1 29539:1 30571:1 36221:1 37519:1 45151:1 46522:1 48925:1 49231:1 50773:1 52840:1 53768:1 58381:1 
0.0025448405790987985 11:1 12:1 13:1 14:1 15:1 16:1 17:1 19:1 20:1 23:1 26:1 27:1 28:1 30:1 31:1 50:1 64:1 65:1 66:1 67:1 69:1 79:1 80:1 82:1 83:1 248:1 268:1 287:1 290:1 316:1 319:1 325:1 357:1 385:1 391:1 403:1 420:1 426:1 428:1 438:1 450:1 455:1 462:1 463:1 466:1 494:1 517:1 530:1 533:1 536:1 620:1 631:1 641:1 642:1 643:1 688:1 697:1 701:1 707:1 711:1 724:1 731:1 733:1 746:1 747:1 748:1 758:1 772:1 781:1 783:1 843:1 866:1 872:1 1061:1 1153:1 1170:1 1173:1 1203:1 1226:1 1252:1 1297:1 1449:1 1483:1 1521:1 1538:1 3044:1 3060:1 3066:1 3438:1 3473:1 3865:1 3867:1 3894:1 4041:1 4444:1 4787:1 4859:1 5223:1 5329:1 5371:1 5708:1 5815:1 5959:1 5982:1 6006:1 6062:1 6295:1 6755:1 6804:1 6856:1 8147:1 8333:1 8359:1 8368:1 8903:1 9004:1 9127:1 9128:1 9177:1 9192:1 9375:1 9474:1 9509:1 9707:1 9720:1 9732:1 9754:1 10058:1 10194:1 10224:1 10959:1 11092:1 11122:1 12571:1 13417:1 13447:1 13702:1 13859:1 14063:1 14452:1 15670:1 16008:1 16276:1 16364:1 22835:1 22900:1 26543:1 26569:1 27829:1 29598:1 30924:1 31279:1 32847:1 33440:1 35351:1 35978:1 36757:1 37080:1 37288:1 37898:1 39693:1 40000:1 40230:1 45618:1 46672:1 46854:1 49126:1 49804:1 50441:1 50444:1 50683:1 50768:1 51670:1 52153:1 52167:1 52172:1 52362:1 53378:1 53458:1 53547:1 53694:1 55742:1 59272:1 59715:1 64239:1 
0.10141958970396985 9:1 10:1 11:1 12:1 13:1 14:1 15:1 16:1 17:1 19:1 20:1 21:1 22:1 23:1 26:1 31:1 50:1 61:1 66:1 69:1 75:1 83:1 177:1 181:1 188:1 216:1 220:1 248:1 277:1 284:1 311:1 319:1 325:1 346:1 357:1 369:1 403:1 446:1 448:1 450:1 456:1 490:1 525:1 530:1 532:1 552:1 561:1 569:1 592:1 625:1 635:1 688:1 724:1 866:1 872:1 1058:1 1087:1 1098:1 1226:1 1291:1 1388:1 1533:1 1538:1 2117:1 2199:1 2346:1 2703:1 2756:1 3044:1 3324:1 3412:1 3729:1 3901:1 4018:1 4295:1 4451:1 5610:1 5651:1 5694:1 5844:1 6254:1 6648:1 6751:1 6778:1 7159:1 7242:1 7548:1 8027:1 8204:1 9372:1 11087:1 11132:1 12513:1 12666:1 12802:1 13865:1 14402:1 15181:1 16347:1 16373:1 18139:1 18548:1 21486:1 21707:1 24034:1 24464:1 25692:1 26703:1 28985:1 29661:1 34758:1 34971:1 36125:1 37714:1 39162:1 39649:1 39852:1 41488:1 41840:1 42935:1 45100:1 45835:1 51650:1 59667:1 59825:1 63962:1 
0.076126832287978619 9:1 15:1 17:1 18:1 21:1 22:1 26:1 27:1 28:1 29:1 61:1 67:1 69:1 70:1 188:1 189:1 193:1 392:1 438:1 456:1 475:1 552:1 576:1 609:1 688:1 737:1 758:1 799:1 1098:1 1253:1 1291:1 1304:1 2363:1 2392:1 2426:1 4876:1 5832:1 6139:1 7342:1 7854:1 9572:1 10417:1 12815:1 14074:1 14397:1 14509:1 19593:1 19849:1 31394:1 37492:1 44568:1 56740:1 
0.11075292149762478 9:1 11:1 12:1 13:1 14:1 16:1 17:1 19:1 22:1 26:1 27:1 28:1 29:1 49:1 61:1 64:1 65:1 71:1 196:1 248:1 301:1 321:1 328:1 350:1 403:1 438:1 494:1 585:1 698:1 731:1 782:1 795:1 818:1 1035:1 1106:1 1183:1 1199:1 1316:1 2514:1 3044:1 3630:1 3954:1 4131:1 4354:1 6304:1 8928:1 9474:1 10200:1 10780:1 12301:1 12901:1 13547:1 13659:1 14618:1 25256:1 28487:1 37971:1 49309:1 52153:1 55771:1 58669:1 63280:1 
0.014207376383530007 9:1 10:1 11:1 12:1 13:1 14:1 15:1 16:1 17:1 18:1 19:1 20:1 21:1 22:1 24:1 26:1 27:1 28:1 29:1 39:1 50:1 61:1 67:1 68:1 70:1 71:1 74:1 78:1 79:1 81:1 171:1 179:1 188:1 194:1 208:1 216:1 248:1 250:1 268:1 277:1 303:1 309:1 313:1 316:1 319:1 327:1 350:1 358:1 365:1 369:1 380:1 421:1 437:1 448:1 450:1 452:1 454:1 455:1 457:1 459:1 475:1 486:1 490:1 501:1 517:1 522:1 526:1 530:1 577:1 592:1 593:1 668:1 697:1 725:1 731:1 737:1 747:1 748:1 758:1 772:1 783:1 801:1 810:1 812:1 817:1 992:1 1052:1 1098:1 1241:1 1277:1 1304:1 1323:1 1370:1 1431:1 1449:1 1455:1 1506:1 1509:1 2158:1 2364:1 2477:1 2695:1 3061:1 3093:1 3305:1 3309:1 3687:1 3693:1 3787:1 3859:1 3906:1 4102:1 4362:1 4452:1 4563:1 4709:1 5245:1 5522:1 5653:1 5694:1 5768:1 5783:1 5803:1 5864:1 5918:1 6130:1 6246:1 6365:1 6610:1 6690:1 6753:1 6757:1 7366:1 7375:1 7532:1 7567:1 8615:1 8906:1 9474:1 9587:1 9713:1 9754:1 10071:1 10224:1 10456:1 10606:1 10657:1 10734:1 12077:1 12443:1 12816:1 13972:1 14293:1 14500:1 14646:1 15066:1 15502:1 15670:1 15737:1 16143:1 16181:1 18390:1 18392:1 19613:1 20412:1 21416:1 22845:1 23912:1 25481:1 25951:1 26448:1 26769:1 28301:1 29282:1 29979:1 30594:1 32983:1 34376:1 34993:1 35672:1 35777:1 36221:1 36539:1 37461:1 38157:1 38984:1 39413:1 39666:1 39716:1 42231:1 42252:1 43058:1 47829:1 49143:1 52168:1 52840:1 53703:1 55129:1 56921:1 57626:1 57887:1 62641:1 63766:1 
0.33612337393743152 9:1 10:1 12:1 13:1 15:1 17:1 20:1 21:1 23:1 26:1 27:1 29:1 31:1 50:1 61:1 62:1 73:1 79:1 83:1 90:1 193:1 196:1 220:1 277:1 291:1 311:1 325:1 375:1 438:1 448:1 455:1 461:1 525:1 565:1 630:1 688:1 696:1 725:1 743:1 795:1 866:1 1061:1 1067:1 1106:1 1119:1 1354:1 1461:1 1533:1 1624:1 2426:1 2514:1 2747:1 3324:1 3494:1 3729:1 4018:1 4637:1 5651:1 5808:1 5932:1 6648:1 7207:1 8113:1 8885:1 9662:1 11087:1 11095:1 12555:1 12624:1 12901:1 13007:1 14948:1 15782:1 16347:1 16354:1 16820:1 24034:1 25692:1 30195:1 34971:1 35899:1 36611:1 39162:1 41679:1 45432:1 48977:1 53158:1 59667:1 59737:1 64402:1 
0.039226101746355831 9:1 11:1 12:1 13:1 14:1 16:1 17:1 19:1 20:1 21:1 22:1 23:1 26:1 27:1 28:1 29:1 31:1 34:1 39:1 65:1 68:1 71:1 79:1 86:1 181:1 189:1 193:1 248:1 268:1 321:1 325:1 326:1 355:1 413:1 431:1 438:1 456:1 486:1 498:1 501:1 530:1 547:1 557:1 592:1 599:1 641:1 688:1 703:1 711:1 712:1 725:1 731:1 748:1 758:1 764:1 795:1 858:1 957:1 991:1 1203:1 1204:1 1264:1 1323:1 1449:1 1466:1 1580:1 2207:1 2383:1 2440:1 3053:1 3071:1 3960:1 4018:1 4033:1 4051:1 4426:1 5116:1 5119:1 5431:1 5835:1 6332:1 6365:1 6369:1 6761:1 7030:1 7093:1 7532:1 7685:1 8333:1 9019:1 9029:1 9177:1 9201:1 9474:1 9746:1 9942:1 11036:1 11747:1 12063:1 13694:1 13708:1 14185:1 14646:1 15670:1 15835:1 16622:1 18598:1 19761:1 20131:1 22762:1 22985:1 27145:1 27698:1 29545:1 32322:1 32346:1 33997:1 36078:1 38159:1 38184:1 39737:1 40926:1 41122:1 43760:1 46672:1 49888:1 50683:1 52161:1 52177:1 53636:1 54451:1 59435:1 62581:1 
0.11097274563834783 9:1 12:1 13:1 14:1 15:1 16:1 17:1 21:1 22:1 26:1 27:1 28:1 29:1 31:1 34:1 67:1 73:1 81:1 86:1 179:1 268:1 315:1 316:1 325:1 327:1 338:1 369:1 391:1 422:1 450:1 463:1 561:1 585:1 688:1 693:1 737:1 768:1 784:1 804:1 817:1 819:1 862:1 942:1 959:1 1252:1 1353:1 1499:1 1565:1 1582:1 2153:1 3832:1 3865:1 4018:1 4089:1 4856:1 5250:1 5694:1 6007:1 7161:1 8812:1 9581:1 10000:1 10270:1 10506:1 10745:1 10801:1 11065:1 11558:1 11778:1 14060:1 14936:1 16082:1 16510:1 16645:1 26227:1 26561:1 28202:1 31226:1 37112:1 41529:1 48483:1 52760:1 54769:1 56177:1 58464:1 58787:1 59557:1 60804:1 61566:1 
0.017904103187029705 9:1 10:1 11:1 12:1 13:1 14:1 15:1 16:1 17:1 18:1 20:1 22:1 23:1 24:1 26:1 27:1 28:1 29:1 50:1 64:1 66:1 67:1 70:1 79:1 90:1 181:1 182:1 196:1 208:1 216:1 248:1 281:1 293:1 303:1 319:1 325:1 347:1 358:1 368:1 369:1 388:1 403:1 409:1 422:1 448:1 478:1 517:1 533:1 593:1 609:1 625:1 675:1 688:1 700:1 731:1 758:1 795:1 799:1 814:1 1048:1 1060:1 1164:1 1176:1 1232:1 1249:1 1307:1 1449:1 1616:1 2200:1 2217:1 2529:1 2703:1 3044:1 3049:1 3062:1 3375:1 3543:1 3909:1 4030:1 4326:1 4456:1 4592:1 4826:1 5051:1 5065:1 5256:1 5643:1 6180:1 6792:1 7577:1 7854:1 8022:1 8697:1 8966:1 9474:1 10409:1 10703:1 12386:1 12529:1 13366:1 13494:1 13912:1 14037:1 14541:1 15670:1 16773:1 18562:1 20818:1 21497:1 22707:1 22852:1 24271:1 26797:1 27645:1 29146:1 29672:1 30056:1 31119:1 31943:1 32085:1 33041:1 37577:1 43141:1 44566:1 49519:1 52153:1 52157:1 52169:1 56669:1 58134:1 63521:1 
0.013019218108370841 9:1 10:1 11:1 12:1 13:1 14:1 15:1 16:1 17:1 20:1 21:1 22:1 23:1 26:1 27:1 28:1 29:1 31:1 39:1 50:1 61:1 66:1 67:1 68:1 73:1 79:1 83:1 90:1 187:1 216:1 220:1 248:1 277:1 311:1 325:1 327:1 347:1 354:1 360:1 369:1 386:1 393:1 413:1 423:1 428:1 438:1 448:1 450:1 457:1 517:1 533:1 541:1 547:1 565:1 597:1 620:1 629:1 688:1 695:1 715:1 743:1 758:1 772:1 800:1 816:1 866:1 880:1 985:1 994:1 1048:1 1097:1 1228:1 1247:1 1264:1 1270:1 1354:1 1461:1 1533:1 1616:1 2329:1 2703:1 2756:1 3068:1 3324:1 3729:1 4018:1 4045:1 4081:1 4322:1 4405:1 4517:1 4806:1 4895:1 5121:1 5287:1 5371:1 5651:1 5694:1 5716:1 5869:1 6792:1 6938:1 7033:1 7209:1 7644:1 7653:1 8094:1 8858:1 9276:1 9653:1 10067:1 10433:1 10710:1 11087:1 11190:1 11990:1 12100:1 12386:1 12793:1 13879:1 14023:1 14188:1 14224:1 14950:1 15775:1 16347:1 16773:1 19332:1 21511:1 21707:1 22932:1 24034:1 25692:1 27898:1 29136:1 29486:1 29853:1 31025:1 32381:1 33193:1 34971:1 35417:1 36300:1 40562:1 40940:1 41693:1 43594:1 45362:1 48872:1 51260:1 55112:1 56837:1 58189:1 59667:1 59977:1 62205:1 62739:1 63521:1 
0.026735121087448896 9:1 10:1 11:1 12:1 13:1 15:1 16:1 17:1 19:1 22:1 23:1 24:1 26:1 27:1 28:1 39:1 50:1 62:1 64:1 69:1 74:1 88:1 171:1 189:1 216:1 238:1 248:1 268:1 290:1 310:1 325:1 326:1 379:1 417:1 426:1 428:1 444:1 457:1 458:1 508:1 585:1 592:1 599:1 603:1 639:1 643:1 665:1 688:1 697:1 699:1 710:1 718:1 731:1 748:1 758:1 764:1 771:1 782:1 987:1 993:1 1060:1 1116:1 1131:1 1153:1 1173:1 1292:1 1373:1 1600:1 2376:1 2704:1 2988:1 3066:1 3068:1 3473:1 3714:1 4040:1 4056:1 4688:1 5183:1 5343:1 5371:1 5558:1 5857:1 5900:1 6454:1 7532:1 7693:1 7762:1 8299:1 8387:1 8589:1 8897:1 8946:1 9155:1 9330:1 9474:1 9746:1 9939:1 10044:1 10216:1 12021:1 12088:1 12537:1 12993:1 13129:1 13447:1 14408:1 15121:1 16725:1 19660:1 21519:1 22537:1 22905:1 22932:1 25615:1 27794:1 27981:1 30480:1 32669:1 33523:1 36484:1 43798:1 44129:1 46432:1 47011:1 47717:1 49037:1 49399:1 50585:1 51477:1 52172:1 53634:1 54416:1 55003:1 55872:1 62372:1 62677:1 64078:1 
0.0048592897919344799 9:1 10:1 11:1 12:1 13:1 14:1 15:1 16:1 17:1 20:1 21:1 22:1 23:1 24:1 26:1 27:1 28:1 29:1 30:1 39:1 49:1 62:1 63:1 64:1 66:1 68:1 69:1 73:1 75:1 78:1 79:1 81:1 82:1 171:1 176:1 182:1 188:1 189:1 195:1 216:1 248:1 273:1 277:1 284:1 316:1 323:1 325:1 327:1 342:1 347:1 354:1 365:1 382:1 383:1 409:1 417:1 427:1 436:1 438:1 444:1 446:1 448:1 450:1 452:1 455:1 457:1 462:1 517:1 526:1 530:1 533:1 552:1 561:1 565:1 585:1 589:1 592:1 627:1 629:1 658:1 688:1 697:1 701:1 707:1 712:1 725:1 737:1 748:1 758:1 764:1 772:1 781:1 795:1 811:1 817:1 848:1 985:1 1035:1 1116:1 1138:1 1156:1 1214:1 1229:1 1262:1 1292:1 1353:1 1390:1 1431:1 1455:1 1505:1 1509:1 1523:1 2096:1 2226:1 2354:1 2376:1 2504:1 2705:1 3057:1 3067:1 3247:1 3324:1 3411:1 3864:1 4002:1 4018:1 4042:1 4081:1 4100:1 4250:1 4322:1 4403:1 4559:1 4751:1 4753:1 5058:1 5182:1 5346:1 5512:1 5561:1 5610:1 5664:1 5706:1 5757:1 5813:1 5857:1 5861:1 5976:1 6690:1 6749:1 6792:1 7151:1 7207:1 7482:1 7548:1 8058:1 8094:1 8510:1 8910:1 8991:1 8993:1 9114:1 9212:1 9577:1 9746:1 9924:1 10058:1 10186:1 10187:1 10626:1 10734:1 10984:1 11986:1 12304:1 12994:1 13163:1 13266:1 13781:1 13888:1 14160:1 14408:1 14930:1 15193:1 15506:1 15729:1 16118:1 16181:1 16287:1 18015:1 18714:1 19526:1 19672:1 20580:1 21548:1 22813:1 22908:1 24034:1 24461:1 26540:1 27443:1 27849:1 28275:1 28828:1 29134:1 29475:1 29959:1 30762:1 32009:1 32652:1 34331:1 34469:1 34778:1 35114:1 35339:1 35597:1 35949:1 36195:1 36878:1 39404:1 39615:1 41436:1 41681:1 42934:1 45227:1 45362:1 47430:1 49183:1 49677:1 49700:1 50296:1 50872:1 52731:1 53622:1 55661:1 55680:1 62178:1 63289:1 
0.024362296706634874 9:1 10:1 11:1 12:1 13:1 14:1 15:1 16:1 17:1 20:1 21:1 22:1 23:1 26:1 27:1 28:1 29:1 30:1 31:1 49:1 50:1 61:1 64:1 65:1 66:1 69:1 74:1 75:1 78:1 79:1 81:1 82:1 83:1 171:1 187:1 194:1 208:1 248:1 268:1 273:1 277:1 303:1 311:1 315:1 321:1 326:1 368:1 369:1 382:1 392:1 403:1 413:1 415:1 417:1 423:1 428:1 438:1 448:1 450:1 461:1 462:1 463:1 522:1 536:1 540:1 541:1 552:1 592:1 597:1 602:1 603:1 608:1 618:1 620:1 625:1 631:1 635:1 636:1 641:1 688:1 696:1 699:1 701:1 725:1 729:1 731:1 733:1 740:1 749:1 758:1 772:1 782:1 812:1 843:1 866:1 872:1 1027:1 1060:1 1097:1 1160:1 1199:1 1232:1 1297:1 1372:1 1373:1 1383:1 1388:1 1433:1 1467:1 1506:1 1521:1 1533:1 1538:1 2332:1 2336:1 2470:1 3044:1 3057:1 3068:1 3247:1 3305:1 3725:1 3825:1 3965:1 3975:1 4054:1 4592:1 4746:1 4870:1 4872:1 5116:1 5147:1 5174:1 5292:1 5391:1 5651:1 5665:1 5694:1 5932:1 5959:1 5982:1 6604:1 6860:1 6901:1 6926:1 7532:1 7644:1 7665:1 7736:1 7745:1 7753:1 7836:1 7844:1 7957:1 8022:1 8138:1 8212:1 8221:1 8322:1 8866:1 8958:1 8989:1 9446:1 9474:1 9505:1 9620:1 9788:1 10067:1 10195:1 10200:1 10657:1 10666:1 10959:1 11095:1 11122:1 12205:1 12529:1 12797:1 13310:1 13673:1 13912:1 14452:1 15102:1 15107:1 15113:1 15160:1 15178:1 15524:1 15858:1 16143:1 16276:1 16354:1 16364:1 19370:1 19397:1 20359:1 22806:1 22950:1 25663:1 26186:1 27216:1 27340:1 27969:1 30056:1 30735:1 31353:1 31359:1 32325:1 32482:1 32581:1 33232:1 33776:1 34969:1 35122:1 36604:1 36757:1 38910:1 40240:1 43679:1 43975:1 44047:1 44455:1 44504:1 44932:1 45534:1 45900:1 46576:1 49466:1 49659:1 52021:1 52153:1 52165:1 52174:1 52327:1 52988:1 53912:1 55099:1 55771:1 57887:1 57999:1 59261:1 59737:1 62963:1 
0.1075835183393406 9:1 11:1 12:1 13:1 15:1 16:1 17:1 19:1 20:1 21:1 22:1 23:1 26:1 27:1 28:1 32:1 61:1 64:1 65:1 67:1 68:1 72:1 171:1 248:1 250:1 281:1 303:1 312:1 320:1 325:1 327:1 331:1 383:1 391:1 413:1 422:1 428:1 438:1 446:1 457:1 494:1 536:1 552:1 593:1 595:1 626:1 697:1 701:1 711:1 731:1 758:1 772:1 781:1 899:1 1084:1 1164:1 1209:1 1252:1 1264:1 1342:1 3062:1 3068:1 3101:1 3373:1 3748:1 3925:1 4041:1 4081:1 4171:1 4753:1 4858:1 5121:1 5256:1 5382:1 5610:1 5867:1 6301:1 6851:1 7570:1 7619:1 8046:1 8907:1 8998:1 9177:1 9474:1 10058:1 10183:1 11299:1 13364:1 13765:1 14062:1 14188:1 14817:1 22852:1 22941:1 23120:1 24266:1 27814:1 28640:1 31265:1 32381:1 33036:1 33717:1 34779:1 36283:1 37950:1 40189:1 43079:1 43401:1 45185:1 49146:1 49748:1 50683:1 52169:1 55645:1 60220:1 
0.094932316816146764 9:1 13:1 14:1 17:1 20:1 24:1 26:1 27:1 28:1 29:1 31:1 49:1 61:1 65:1 81:1 83:1 89:1 187:1 193:1 325:1 338:1 438:1 462:1 540:1 665:1 672:1 688:1 712:1 725:1 772:1 804:1 858:1 1034:1 1097:1 1203:1 1499:1 1528:1 1609:1 2336:1 2449:1 4018:1 5954:1 6901:1 8603:1 8655:1 9212:1 10058:1 10506:1 11038:1 12291:1 12797:1 13684:1 16082:1 16314:1 16760:1 19397:1 20229:1 47787:1 48017:1 50872:1 59454:1 63246:1 
0.013231470878196315 9:1 10:1 11:1 12:1 13:1 14:1 15:1 16:1 17:1 20:1 21:1 22:1 23:1 26:1 27:1 28:1 29:1 31:1 49:1 50:1 61:1 62:1 65:1 67:1 68:1 69:1 73:1 79:1 81:1 83:1 171:1 189:1 216:1 248:1 268:1 315:1 319:1 321:1 325:1 327:1 338:1 347:1 382:1 388:1 392:1 403:1 409:1 413:1 417:1 429:1 437:1 438:1 448:1 449:1 456:1 462:1 533:1 541:1 552:1 565:1 585:1 589:1 592:1 593:1 618:1 620:1 637:1 688:1 697:1 711:1 731:1 733:1 758:1 812:1 872:1 1023:1 1056:1 1099:1 1116:1 1203:1 1243:1 1249:1 1253:1 1262:1 1264:1 1273:1 1278:1 1291:1 1297:1 1354:1 1449:1 1506:1 1538:1 2370:1 2697:1 3044:1 3053:1 3057:1 3819:1 3909:1 3957:1 4018:1 4027:1 4041:1 4081:1 4309:1 4752:1 4829:1 4872:1 5058:1 5119:1 5121:1 5174:1 5175:1 5415:1 5524:1 5660:1 5676:1 5832:1 5959:1 6814:1 6926:1 7196:1 7482:1 7532:1 7582:1 7955:1 8255:1 8914:1 9177:1 9474:1 9505:1 10657:1 11122:1 11134:1 12175:1 12495:1 12820:1 12986:1 13702:1 13986:1 14040:1 14072:1 14160:1 14188:1 14253:1 14397:1 14452:1 14939:1 15670:1 16143:1 16364:1 16375:1 21444:1 22762:1 22806:1 22807:1 26814:1 27117:1 27603:1 27814:1 30770:1 31127:1 31359:1 32006:1 32352:1 32381:1 32587:1 32595:1 33925:1 34385:1 35071:1 35193:1 36757:1 40059:1 43174:1 44923:1 46149:1 49231:1 50683:1 52153:1 52165:1 52322:1 57887:1 59832:1 62883:1 63919:1 
0.067710144643606293 9:1 10:1 12:1 13:1 14:1 15:1 16:1 17:1 20:1 22:1 23:1 26:1 27:1 28:1 30:1 31:1 50:1 64:1 67:1 68:1 69:1 78:1 79:1 82:1 83:1 176:1 194:1 238:1 290:1 314:1 315:1 319:1 325:1 346:1 347:1 383:1 426:1 437:1 438:1 448:1 457:1 458:1 463:1 517:1 530:1 585:1 637:1 688:1 694:1 697:1 725:1 733:1 758:1 782:1 838:1 858:1 1052:1 1062:1 1173:1 1244:1 1277:1 1292:1 1431:1 1451:1 1518:1 1528:1 2105:1 2464:1 2982:1 3473:1 3803:1 3835:1 3894:1 3906:1 4024:1 4295:1 4314:1 4768:1 4772:1 5318:1 5530:1 5658:1 5857:1 5899:1 6005:1 6744:1 8247:1 8854:1 8901:1 9505:1 9515:1 10195:1 10923:1 11024:1 12440:1 12577:1 13447:1 14004:1 14300:1 14408:1 15498:1 15688:1 16246:1 16302:1 18067:1 20321:1 22517:1 26068:1 26260:1 26764:1 27561:1 28981:1 29103:1 30859:1 30889:1 34408:1 35048:1 36472:1 37058:1 48839:1 49085:1 52333:1 52429:1 59105:1 59380:1 63745:1 
0.0036357036139713014 9:1 11:1 14:1 15:1 16:1 17:1 19:1 20:1 22:1 23:1 24:1 26:1 27:1 28:1 29:1 31:1 67:1 69:1 72:1 81:1 181:1 189:1 191:1 198:1 248:1 359:1 369:1 392:1 403:1 409:1 438:1 454:1 461:1 462:1 463:1 486:1 522:1 530:1 595:1 635:1 671:1 712:1 729:1 731:1 737:1 744:1 747:1 772:1 782:1 817:1 866:1 1253:1 1297:1 1335:1 1509:1 2211:1 2379:1 2418:1 2556:1 3044:1 3049:1 4494:1 4876:1 5051:1 5781:1 5946:1 5959:1 5996:1 6606:1 6768:1 7607:1 8202:1 8639:1 9222:1 9443:1 9450:1 9474:1 9572:1 9691:1 9716:1 10071:1 10200:1 10213:1 10753:1 11095:1 14074:1 14452:1 14757:1 16198:1 18632:1 19705:1 19962:1 20941:1 22707:1 29792:1 31394:1 31947:1 36708:1 36757:1 37009:1 38930:1 39805:1 45830:1 47911:1 50933:1 51995:1 52056:1 52153:1 52157:1 53298:1 53423:1 53429:1 55128:1 55771:1 55854:1 58513:1 59743:1 
0.2120339087414346 9:1 10:1 12:1 13:1 14:1 16:1 17:1 20:1 21:1 22:1 26:1 28:1 29:1 34:1 68:1 69:1 73:1 74:1 80:1 81:1 86:1 189:1 216:1 268:1 277:1 309:1 316:1 319:1 320:1 325:1 346:1 413:1 455:1 456:1 463:1 517:1 522:1 525:1 527:1 533:1 552:1 561:1 565:1 569:1 592:1 593:1 688:1 768:1 783:1 811:1 812:1 957:1 1264:1 1291:1 1354:1 1370:1 1478:1 1506:1 1580:1 2376:1 2697:1 3324:1 3693:1 3859:1 3901:1 3903:1 3909:1 3939:1 4018:1 4295:1 5115:1 5803:1 5832:1 6006:1 6606:1 6648:1 6702:1 6796:1 7159:1 7213:1 7242:1 7532:1 7567:1 9992:1 9994:1 10230:1 10626:1 10657:1 11761:1 14184:1 14397:1 14953:1 15066:1 15947:1 16143:1 16632:1 19660:1 21438:1 24034:1 25482:1 26448:1 26703:1 26740:1 26799:1 27040:1 28985:1 32314:1 37083:1 38928:1 39162:1 39467:1 39944:1 41488:1 41738:1 41840:1 43060:1 54682:1 54711:1 55940:1 57887:1 61499:1 
0.0077730063799463702 9:1 10:1 11:1 12:1 13:1 14:1 15:1 16:1 17:1 21:1 22:1 23:1 26:1 27:1 28:1 30:1 50:1 61:1 62:1 64:1 67:1 68:1 73:1 78:1 79:1 82:1 90:1 171:1 178:1 193:1 194:1 216:1 248:1 273:1 303:1 313:1 315:1 321:1 326:1 327:1 357:1 392:1 403:1 413:1 428:1 438:1 444:1 446:1 448:1 452:1 458:1 565:1 585:1 637:1 641:1 688:1 693:1 701:1 725:1 733:1 737:1 747:1 768:1 772:1 843:1 1061:1 1084:1 1116:1 1156:1 1253:1 1264:1 1354:1 1433:1 1451:1 1455:1 1521:1 1623:1 2144:1 2426:1 2476:1 2692:1 3044:1 3068:1 3266:1 3786:1 3819:1 3954:1 4071:1 4093:1 4442:1 4872:1 5116:1 5378:1 5577:1 5610:1 5643:1 5755:1 5899:1 7197:1 8247:1 8314:1 8811:1 8993:1 9505:1 9516:1 9579:1 9588:1 9713:1 9724:1 10002:1 10058:1 10959:1 12555:1 12981:1 13284:1 14072:1 14185:1 14940:1 15528:1 15698:1 15731:1 16276:1 16801:1 18334:1 20383:1 21382:1 22937:1 23759:1 25943:1 28091:1 28226:1 29581:1 31359:1 32319:1 33695:1 34578:1 34758:1 35587:1 36472:1 41619:1 48481:1 49698:1 52322:1 52460:1 52743:1 52860:1 53495:1 54819:1 59254:1 
0.24283968052964505 9:1 11:1 14:1 16:1 17:1 20:1 22:1 23:1 24:1 27:1 28:1 29:1 61:1 68:1 69:1 76:1 187:1 189:1 248:1 360:1 409:1 428:1 438:1 540:1 585:1 620:1 663:1 731:1 743:1 758:1 817:1 1097:1 1262:1 1278:1 1411:1 2336:1 2370:1 3068:1 4518:1 5058:1 5371:1 6914:1 8567:1 9474:1 9653:1 10739:1 12797:1 14160:1 15355:1 19406:1 22932:1 29860:1 32006:1 40465:1 47645:1 52174:1 58404:1 
0.0095021739585150929 9:1 11:1 12:1 13:1 15:1 16:1 17:1 20:1 21:1 22:1 26:1 27:1 28:1 29:1 31:1 50:1 64:1 65:1 67:1 68:1 171:1 187:1 188:1 248:1 273:1 302:1 325:1 327:1 396:1 403:1 413:1 446:1 540:1 557:1 589:1 602:1 688:1 725:1 758:1 772:1 812:1 876:1 1062:1 1156:1 1184:1 1203:1 1257:1 1264:1 2336:1 2348:1 3044:1 3262:1 3643:1 4018:1 4081:1 4948:1 5121:1 5610:1 6901:1 7099:1 7482:1 7721:1 10063:1 10666:1 11166:1 12583:1 13280:1 13558:1 13684:1 14103:1 14188:1 19397:1 19484:1 23709:1 25298:1 31677:1 32381:1 34758:1 41182:1 43881:1 55070:1 57992:1 59914:1 64281:1 
0.040821098166782255 9:1 11:1 12:1 13:1 14:1 16:1 17:1 18:1 19:1 20:1 21:1 22:1 23:1 26:1 27:1 28:1 29:1 31:1 61:1 64:1 70:1 73:1 79:1 81:1 83:1 178:1 188:1 196:1 248:1 290:1 303:1 325:1 326:1 338:1 353:1 403:1 417:1 428:1 446:1 457:1 463:1 476:1 507:1 536:1 552:1 557:1 561:1 585:1 620:1 635:1 688:1 700:1 703:1 729:1 733:1 737:1 743:1 747:1 758:1 768:1 795:1 804:1 866:1 1106:1 1173:1 1305:1 1350:1 1455:1 1461:1 1499:1 1533:1 2144:1 2346:1 2514:1 3044:1 3068:1 3473:1 4030:1 4033:1 4071:1 4396:1 5182:1 5371:1 5610:1 5857:1 5992:1 6165:1 6433:1 6847:1 7090:1 7159:1 8208:1 8969:1 9035:1 9441:1 9494:1 9577:1 9667:1 9720:1 10000:1 10506:1 10519:1 11097:1 12901:1 13447:1 14531:1 14895:1 15729:1 15787:1 16082:1 16094:1 16356:1 18334:1 22932:1 27647:1 27703:1 28088:1 29464:1 32650:1 34758:1 36972:1 37547:1 38459:1 41105:1 41498:1 45871:1 49538:1 49911:1 51965:1 52731:1 53177:1 53445:1 54780:1 57260:1 59758:1 
0.18954101970804077 11:1 12:1 13:1 15:1 16:1 17:1 21:1 26:1 27:1 28:1 29:1 68:1 79:1 81:1 248:1 277:1 315:1 320:1 325:1 327:1 392:1 403:1 413:1 446:1 552:1 563:1 688:1 696:1 733:1 737:1 747:1 768:1 783:1 811:1 817:1 1264:1 1455:1 1505:1 1509:1 3044:1 3320:1 3819:1 3925:1 4018:1 4026:1 4102:1 4872:1 5121:1 5610:1 7188:1 8873:1 9505:1 9515:1 9577:1 9720:1 10000:1 10230:1 10635:1 10753:1 14188:1 15729:1 16126:1 16198:1 23988:1 27573:1 28307:1 31359:1 32392:1 34758:1 41599:1 48921:1 52322:1 52431:1 52731:1 53462:1 54769:1 55943:1 57765:1 58517:1 
0.026731871176962674 9:1 10:1 11:1 12:1 13:1 14:1 15:1 16:1 17:1 20:1 21:1 22:1 23:1 24:1 26:1 27:1 28:1 29:1 31:1 50:1 61:1 65:1 67:1 69:1 73:1 79:1 80:1 81:1 171:1 187:1 188:1 216:1 248:1 268:1 319:1 325:1 346:1 359:1 396:1 403:1 446:1 456:1 457:1 463:1 523:1 526:1 533:1 541:1 561:1 565:1 569:1 572:1 589:1 592:1 620:1 639:1 663:1 688:1 711:1 733:1 737:1 743:1 748:1 757:1 758:1 764:1 778:1 794:1 812:1 858:1 1052:1 1067:1 1097:1 1203:1 1257:1 1291:1 1292:1 1354:1 1451:1 1455:1 1461:1 1466:1 1492:1 1506:1 2329:1 2337:1 2360:1 2703:1 3044:1 3899:1 4018:1 4041:1 4300:1 4475:1 4942:1 5610:1 5844:1 5861:1 5982:1 6621:1 6688:1 6800:1 6926:1 7159:1 7213:1 7242:1 7299:1 7482:1 7532:1 8297:1 8566:1 9200:1 9509:1 9577:1 9653:1 9746:1 9760:1 9895:1 9938:1 10156:1 10380:1 10657:1 11034:1 12439:1 12451:1 12617:1 12793:1 13684:1 13702:1 14098:1 14402:1 14410:1 14953:1 15691:1 15729:1 15775:1 15835:1 15841:1 16064:1 16143:1 19338:1 19410:1 19574:1 21486:1 26686:1 27837:1 29023:1 31643:1 34758:1 36125:1 36195:1 39055:1 39362:1 39975:1 41488:1 41723:1 41840:1 42056:1 46419:1 47634:1 50808:1 52364:1 52731:1 53633:1 53747:1 54257:1 54410:1 55513:1 56603:1 57887:1 59423:1 63740:1 63787:1 64347:1 64354:1 
0.00031754755076389987 9:1 10:1 11:1 12:1 13:1 14:1 15:1 16:1 17:1 19:1 20:1 21:1 22:1 23:1 26:1 27:1 28:1 29:1 49:1 50:1 61:1 64:1 66:1 67:1 69:1 79:1 184:1 188:1 196:1 238:1 248:1 273:1 290:1 321:1 325:1 352:1 369:1 383:1 386:1 403:1 413:1 446:1 450:1 457:1 494:1 526:1 542:1 552:1 569:1 585:1 599:1 608:1 631:1 688:1 730:1 747:1 748:1 756:1 758:1 764:1 778:1 782:1 783:1 802:1 817:1 1037:1 1053:1 1094:1 1173:1 1221:1 1247:1 1292:1 1466:1 1473:1 2274:1 2357:1 2519:1 2983:1 3053:1 3262:1 3473:1 3967:1 3975:1 4018:1 4390:1 4762:1 4798:1 5119:1 5610:1 5694:1 5857:1 6299:1 6685:1 6971:1 7238:1 7681:1 7844:1 8132:1 9469:1 9717:1 9746:1 9760:1 9882:1 9945:1 10149:1 10216:1 10224:1 10465:1 10753:1 12336:1 12463:1 12762:1 13447:1 13831:1 14016:1 14408:1 15835:1 15904:1 19027:1 19539:1 20719:1 22520:1 22762:1 23713:1 27234:1 27340:1 29432:1 30815:1 30967:1 32346:1 34766:1 37931:1 39350:1 40735:1 43746:1 44511:1 52143:1 53438:1 53639:1 53741:1 54211:1 54490:1 55448:1 55875:1 56953:1 58514:1 63381:1 63846:1 
0.19731369544274044 9:1 10:1 12:1 13:1 15:1 17:1 20:1 21:1 22:1 23:1 24:1 26:1 28:1 29:1 50:1 64:1 67:1 76:1 78:1 90:1 171:1 189:1 216:1 273:1 281:1 303:1 325:1 394:1 438:1 458:1 526:1 557:1 585:1 592:1 635:1 643:1 665:1 671:1 688:1 713:1 776:1 781:1 812:1 818:1 1048:1 1156:1 1255:1 1413:1 1417:1 1437:1 1616:1 2370:1 2703:1 3247:1 3370:1 4018:1 4929:1 5903:1 6668:1 7101:1 7545:1 8198:1 8386:1 8601:1 8639:1 9246:1 10122:1 10178:1 10657:1 10775:1 12386:1 13266:1 14095:1 15378:1 15403:1 15568:1 16773:1 21486:1 31619:1 36509:1 41193:1 42909:1 45784:1 46993:1 47775:1 47910:1 51093:1 55359:1 57896:1 58636:1 63521:1 
0.006282410335608289 9:1 10:1 11:1 12:1 13:1 14:1 15:1 16:1 17:1 20:1 21:1 22:1 23:1 26:1 27:1 28:1 29:1 31:1 33:1 39:1 50:1 61:1 62:1 64:1 66:1 67:1 68:1 69:1 79:1 80:1 83:1 177:1 179:1 187:1 188:1 196:1 213:1 214:1 216:1 218:1 239:1 248:1 268:1 273:1 290:1 315:1 319:1 325:1 327:1 368:1 369:1 386:1 392:1 403:1 413:1 422:1 438:1 450:1 462:1 526:1 530:1 533:1 540:1 575:1 608:1 641:1 688:1 716:1 725:1 731:1 737:1 748:1 758:1 772:1 778:1 791:1 818:1 862:1 905:1 993:1 1060:1 1087:1 1089:1 1097:1 1106:1 1114:1 1153:1 1173:1 1232:1 1253:1 1264:1 1297:1 1466:1 1490:1 1531:1 2117:1 2119:1 2155:1 2336:1 2362:1 2533:1 2661:1 2672:1 2703:1 2729:1 3044:1 3262:1 3473:1 3832:1 3909:1 4018:1 4081:1 4592:1 4798:1 4876:1 5121:1 5271:1 5694:1 5959:1 6679:1 6744:1 6804:1 6901:1 7321:1 7824:1 8314:1 8338:1 9279:1 9474:1 9572:1 9760:1 10067:1 10157:1 10346:1 10777:1 11066:1 12089:1 12529:1 12666:1 12668:1 12692:1 12797:1 12915:1 12970:1 13447:1 13912:1 14074:1 14188:1 14452:1 15841:1 16044:1 16333:1 18139:1 18158:1 18379:1 19397:1 19585:1 20850:1 21284:1 21486:1 21628:1 23716:1 26244:1 26805:1 30056:1 30964:1 31394:1 32381:1 33114:1 36757:1 39298:1 39994:1 46724:1 52153:1 53748:1 55099:1 55521:1 55543:1 56484:1 58655:1 59569:1 62682:1 
0.006787669029446641 9:1 10:1 12:1 13:1 14:1 15:1 16:1 17:1 21:1 22:1 24:1 26:1 27:1 28:1 29:1 30:1 31:1 50:1 62:1 64:1 65:1 68:1 73:1 76:1 78:1 80:1 83:1 171:1 182:1 183:1 193:1 197:1 229:1 268:1 277:1 290:1 313:1 325:1 328:1 342:1 347:1 369:1 409:1 421:1 463:1 557:1 565:1 592:1 676:1 688:1 693:1 697:1 711:1 712:1 725:1 749:1 758:1 781:1 795:1 812:1 816:1 819:1 835:1 882:1 1060:1 1125:1 1153:1 1160:1 1173:1 1206:1 1262:1 1354:1 1422:1 1430:1 1483:1 1546:1 2217:1 2257:1 2449:1 2543:1 2861:1 3324:1 3473:1 3780:1 4018:1 4041:1 4042:1 4112:1 4237:1 4311:1 5062:1 5236:1 5982:1 7107:1 7213:1 7541:1 8737:1 8806:1 8815:1 8816:1 8900:1 9173:1 9201:1 9221:1 9788:1 10179:1 10183:1 10657:1 10708:1 10800:1 10907:1 11223:1 12529:1 13078:1 13326:1 13447:1 13733:1 14162:1 14953:1 15446:1 15478:1 16001:1 16429:1 18908:1 20222:1 20891:1 22212:1 24034:1 24054:1 25909:1 27810:1 27855:1 29077:1 32048:1 32930:1 41279:1 41723:1 42880:1 48307:1 48515:1 48537:1 49070:1 50922:1 53905:1 55618:1 55642:1 57892:1 58163:1 58765:1 59056:1 60091:1 
0.030375969986380948 9:1 11:1 13:1 14:1 15:1 16:1 17:1 20:1 21:1 22:1 23:1 26:1 27:1 28:1 29:1 30:1 31:1 39:1 50:1 61:1 66:1 69:1 73:1 80:1 82:1 83:1 171:1 195:1 248:1 325:1 346:1 369:1 383:1 403:1 420:1 428:1 438:1 446:1 450:1 457:1 458:1 463:1 530:1 550:1 557:1 585:1 607:1 637:1 688:1 693:1 704:1 712:1 748:1 755:1 764:1 772:1 782:1 784:1 818:1 835:1 866:1 882:1 976:1 1060:1 1084:1 1218:1 1292:1 1350:1 1475:1 1516:1 1533:1 1546:1 2505:1 3044:1 3060:1 3068:1 4034:1 4042:1 4300:1 4753:1 5218:1 5382:1 5610:1 5694:1 5706:1 5879:1 5899:1 6007:1 6751:1 7064:1 7086:1 7815:1 8247:1 8806:1 9060:1 9212:1 9754:1 9853:1 9944:1 10067:1 10075:1 10080:1 10222:1 10269:1 10772:1 10907:1 11085:1 11223:1 11882:1 12529:1 12531:1 13802:1 14425:1 14893:1 15932:1 16236:1 16345:1 16429:1 20607:1 22834:1 22941:1 27725:1 27849:1 29042:1 32821:1 33723:1 34758:1 34779:1 35339:1 36386:1 36472:1 37111:1 39649:1 41031:1 44336:1 50034:1 50876:1 53710:1 54123:1 54480:1 55099:1 55105:1 55182:1 55216:1 55903:1 56167:1 58626:1 59048:1 59655:1 60091:1 61847:1 64045:1 
0.057628406095987655 9:1 11:1 12:1 13:1 14:1 16:1 17:1 20:1 21:1 22:1 24:1 27:1 28:1 29:1 50:1 64:1 72:1 79:1 81:1 90:1 171:1 183:1 248:1 268:1 277:1 302:1 303:1 320:1 327:1 338:1 347:1 354:1 409:1 417:1 429:1 438:1 449:1 457:1 542:1 552:1 572:1 592:1 593:1 658:1 725:1 731:1 758:1 782:1 804:1 811:1 812:1 1061:1 1062:1 1160:1 1184:1 1343:1 1449:1 1499:1 1506:1 1623:1 2264:1 3049:1 3057:1 3305:1 3326:1 3643:1 3925:1 4081:1 4309:1 4404:1 5043:1 5168:1 5175:1 5182:1 5415:1 5676:1 5864:1 6966:1 7295:1 7532:1 7541:1 7578:1 8502:1 9474:1 10200:1 10520:1 10643:1 10657:1 12555:1 12588:1 13310:1 13558:1 14845:1 15670:1 16095:1 16143:1 16801:1 18979:1 22700:1 22801:1 22807:1 22813:1 24086:1 25300:1 29481:1 32595:1 32654:1 33925:1 35193:1 36226:1 40702:1 42029:1 42882:1 43147:1 47357:1 52157:1 52165:1 55771:1 57264:1 57808:1 57887:1 64293:1 
0.026360511067725328 9:1 11:1 12:1 13:1 15:1 16:1 17:1 19:1 20:1 22:1 24:1 26:1 27:1 28:1 29:1 67:1 69:1 79:1 81:1 189:1 248:1 250:1 268:1 310:1 314:1 321:1 325:1 379:1 392:1 403:1 420:1 426:1 428:1 438:1 446:1 462:1 490:1 530:1 592:1 593:1 609:1 673:1 697:1 710:1 725:1 731:1 737:1 744:1 747:1 758:1 812:1 817:1 1253:1 1297:1 1449:1 1455:1 1506:1 2377:1 3044:1 3060:1 3066:1 3068:1 3097:1 3714:1 3716:1 3799:1 3960:1 4040:1 4685:1 4876:1 5218:1 5325:1 5371:1 5610:1 5954:1 5959:1 6262:1 6751:1 7532:1 7582:1 7868:1 8669:1 8897:1 8901:1 9155:1 9474:1 9572:1 9577:1 9591:1 9692:1 9731:1 10672:1 10753:1 14074:1 14452:1 15670:1 15740:1 16158:1 19697:1 22834:1 22898:1 22932:1 23097:1 25608:1 25625:1 26029:1 27145:1 27794:1 30437:1 31394:1 31397:1 32821:1 33402:1 34758:1 34779:1 36757:1 37772:1 39649:1 43191:1 44635:1 48067:1 49037:1 49038:1 49082:1 50588:1 52153:1 52172:1 52731:1 52869:1 53306:1 53541:1 58043:1 58525:1 
0.020420111663413062 9:1 11:1 12:1 13:1 14:1 15:1 16:1 17:1 20:1 21:1 22:1 26:1 27:1 28:1 29:1 31:1 39:1 49:1 50:1 63:1 65:1 66:1 67:1 73:1 78:1 81:1 83:1 89:1 171:1 189:1 193:1 248:1 268:1 325:1 347:1 354:1 359:1 368:1 375:1 392:1 417:1 435:1 455:1 457:1 463:1 517:1 522:1 533:1 565:1 585:1 589:1 592:1 595:1 688:1 706:1 713:1 731:1 740:1 747:1 758:1 812:1 817:1 866:1 979:1 1026:1 1060:1 1138:1 1203:1 1232:1 1253:1 1354:1 1437:1 1506:1 1533:1 1604:1 2376:1 2443:1 3057:1 3075:1 4018:1 4322:1 4403:1 4475:1 4592:1 4637:1 4870:1 5182:1 5483:1 5815:1 5861:1 5982:1 6606:1 6792:1 7213:1 7482:1 7532:1 7611:1 9081:1 9250:1 9474:1 9620:1 9727:1 10657:1 10660:1 10753:1 11092:1 11907:1 12191:1 12529:1 13163:1 13684:1 13912:1 14071:1 14953:1 15571:1 16143:1 16146:1 16351:1 16737:1 19660:1 20170:1 22813:1 23016:1 29134:1 29475:1 30056:1 30202:1 31353:1 32652:1 34178:1 35970:1 36195:1 38928:1 41723:1 43359:1 51130:1 52180:1 52990:1 53509:1 57887:1 57930:1 58521:1 59715:1 61921:1 62929:1 
0.044843321650013701 9:1 10:1 11:1 13:1 14:1 15:1 16:1 17:1 19:1 22:1 23:1 24:1 26:1 27:1 28:1 29:1 61:1 67:1 69:1 71:1 79:1 81:1 177:1 216:1 230:1 248:1 325:1 338:1 391:1 392:1 403:1 438:1 457:1 462:1 504:1 585:1 639:1 663:1 688:1 713:1 731:1 735:1 737:1 758:1 799:1 817:1 1087:1 1253:1 1297:1 1326:1 1455:1 1509:1 2117:1 2130:1 2703:1 2868:1 3044:1 4018:1 4861:1 4876:1 5857:1 5959:1 6403:1 8297:1 8549:1 9234:1 9474:1 9550:1 9572:1 9587:1 10405:1 10743:1 12666:1 14074:1 14452:1 14675:1 15737:1 16190:1 18139:1 18239:1 21486:1 31286:1 31394:1 36757:1 38320:1 46407:1 51007:1 52153:1 52613:1 52838:1 56649:1 58447:1 
0.054811241863323139 10:1 11:1 12:1 13:1 16:1 17:1 20:1 22:1 26:1 27:1 28:1 29:1 62:1 64:1 65:1 74:1 78:1 220:1 248:1 293:1 310:1 326:1 403:1 428:1 438:1 455:1 462:1 530:1 533:1 597:1 697:1 725:1 731:1 782:1 795:1 1119:1 1176:1 1204:1 1372:1 1431:1 2765:1 3044:1 3068:1 3543:1 3714:1 4051:1 5391:1 5815:1 5959:1 6744:1 6804:1 7658:1 8897:1 9474:1 10195:1 13023:1 13494:1 13708:1 15096:1 15494:1 21788:1 22950:1 25615:1 33776:1 35978:1 36757:1 39994:1 43629:1 49037:1 52153:1 
0.011428054848214148 9:1 12:1 13:1 14:1 15:1 16:1 17:1 18:1 19:1 20:1 22:1 23:1 26:1 27:1 28:1 29:1 30:1 31:1 34:1 39:1 64:1 66:1 67:1 68:1 69:1 70:1 71:1 79:1 82:1 83:1 86:1 171:1 195:1 268:1 277:1 303:1 314:1 316:1 325:1 326:1 327:1 355:1 369:1 375:1 381:1 383:1 392:1 393:1 413:1 422:1 438:1 448:1 450:1 451:1 476:1 494:1 528:1 530:1 589:1 592:1 620:1 635:1 641:1 688:1 693:1 701:1 704:1 733:1 748:1 755:1 758:1 768:1 781:1 789:1 816:1 843:1 872:1 942:1 956:1 957:1 987:1 1153:1 1224:1 1253:1 1264:1 1287:1 1305:1 1316:1 1466:1 1521:1 1538:1 1580:1 2493:1 3324:1 3803:1 3845:1 4031:1 4079:1 4081:1 4107:1 4421:1 4619:1 4731:1 4760:1 4872:1 4895:1 5121:1 5253:1 5643:1 5699:1 5704:1 5738:1 6166:1 6295:1 6716:1 6755:1 7482:1 7541:1 8200:1 8327:1 8828:1 8991:1 9049:1 9517:1 9762:1 9862:1 9990:1 10179:1 10307:1 10320:1 10707:1 10959:1 11122:1 11566:1 11729:1 11764:1 12016:1 13846:1 14072:1 14188:1 14357:1 14532:1 14611:1 15842:1 16276:1 16364:1 16635:1 20491:1 24045:1 26064:1 27667:1 28158:1 28343:1 28352:1 29515:1 30670:1 30796:1 31367:1 32381:1 33005:1 35279:1 35330:1 35519:1 37556:1 37889:1 39690:1 42880:1 45806:1 46617:1 48662:1 49673:1 49990:1 52474:1 53757:1 54160:1 54657:1 55627:1 56307:1 56368:1 59266:1 60893:1 61520:1 62320:1 
0.008041425339024506 9:1 10:1 11:1 12:1 13:1 14:1 15:1 16:1 17:1 19:1 20:1 21:1 22:1 23:1 24:1 26:1 27:1 28:1 29:1 30:1 32:1 34:1 50:1 62:1 64:1 67:1 79:1 81:1 82:1 171:1 187:1 189:1 216:1 229:1 248:1 268:1 273:1 277:1 293:1 303:1 314:1 316:1 319:1 320:1 323:1 325:1 327:1 331:1 333:1 338:1 368:1 369:1 375:1 379:1 380:1 403:1 409:1 413:1 420:1 446:1 447:1 448:1 504:1 517:1 523:1 526:1 533:1 541:1 552:1 592:1 608:1 613:1 619:1 637:1 675:1 688:1 700:1 711:1 731:1 733:1 737:1 748:1 758:1 764:1 768:1 774:1 803:1 804:1 805:1 812:1 816:1 835:1 900:1 942:1 957:1 1048:1 1054:1 1116:1 1156:1 1176:1 1240:1 1241:1 1451:1 1455:1 1499:1 1506:1 1516:1 2337:1 2401:1 2703:1 2709:1 2860:1 3044:1 3053:1 3247:1 3326:1 3561:1 3796:1 3851:1 3899:1 3909:1 3925:1 4012:1 4018:1 4030:1 4041:1 4081:1 4172:1 4205:1 4588:1 4635:1 4679:1 4711:1 5056:1 5112:1 5206:1 5610:1 5625:1 5643:1 6401:1 6630:1 6684:1 6800:1 6930:1 7532:1 7832:1 7902:1 7971:1 8275:1 8697:1 8966:1 9177:1 9474:1 9509:1 9521:1 9577:1 9579:1 9756:1 9924:1 10000:1 10100:1 10495:1 10506:1 10531:1 10657:1 10671:1 10707:1 10907:1 11306:1 11564:1 11756:1 12386:1 12477:1 12998:1 13266:1 13508:1 13947:1 13974:1 15691:1 15703:1 15729:1 15731:1 16082:1 16143:1 16157:1 16236:1 19412:1 19904:1 21486:1 21578:1 22198:1 22756:1 24086:1 25043:1 26002:1 26359:1 26691:1 26801:1 27486:1 27645:1 27814:1 28644:1 28722:1 30049:1 30190:1 30366:1 30605:1 31989:1 32269:1 34758:1 34852:1 38313:1 39091:1 39327:1 39973:1 40511:1 44423:1 44728:1 44966:1 46297:1 49515:1 50683:1 52161:1 52364:1 52490:1 52731:1 52743:1 53717:1 54789:1 55279:1 57089:1 57887:1 58029:1 59044:1 60226:1 60863:1 61483:1 63521:1 63870:1 
