svm_type c_svc
kernel_type linear
nr_class 2
total_sv 2883
rho 0.64679555392499033
label 1 0
probA -1.1109856617508955
probB 0.26949077452853565
nr_sv 1302 1581
SV
0.23650027899242282 1:1 2:1 3:1 4:1 5:1 7:1 8:1 9:1 12:1 13:1 14:1 15:1 18:1 19:1 21:1 29:1 47:1 48:1 51:1 53:1 62:1 95:1 106:1 139:1 147:1 177:1 184:1 238:1 239:1 250:1 256:1 271:1 285:1 287:1 304:1 309:1 313:1 317:1 323:1 403:1 413:1 453:1 479:1 544:1 573:1 579:1 641:1 762:1 989:1 992:1 1046:1 1054:1 1059:1 1096:1 1100:1 1232:1 1615:1 2020:1 2034:1 2036:1 2082:1 2415:1 3019:1 3154:1 3226:1 3480:1 3517:1 3750:1 3817:1 3890:1 3989:1 4673:1 5079:1 6013:1 6384:1 6454:1 7035:1 7963:1 9189:1 9214:1 9579:1 9664:1 9717:1 9961:1 9992:1 10809:1 12581:1 14027:1 14060:1 17515:1 18078:1 18342:1 19336:1 20181:1 21167:1 23018:1 27218:1 28447:1 28460:1 28767:1 33460:1 
0.39438303621835363 1:1 3:1 5:1 6:1 7:1 8:1 9:1 12:1 13:1 14:1 15:1 18:1 19:1 20:1 39:1 45:1 50:1 51:1 53:1 57:1 62:1 84:1 93:1 95:1 139:1 177:1 191:1 236:1 251:1 276:1 289:1 304:1 322:1 396:1 414:1 446:1 451:1 479:1 535:1 544:1 571:1 585:1 605:1 901:1 961:1 1043:1 1055:1 1099:1 1147:1 1231:1 1453:1 1581:1 1613:1 2025:1 2038:1 2544:1 2999:1 3161:1 3376:1 3537:1 3969:1 4599:1 4742:1 4751:1 5059:1 6008:1 6356:1 6508:1 8680:1 8954:1 9564:1 9671:1 9988:1 10295:1 10796:1 11956:1 11967:1 12426:1 12576:1 13935:1 14079:1 17452:1 18102:1 21099:1 22829:1 23167:1 23195:1 24132:1 28351:1 
0.61697169335458224 3:1 4:1 5:1 8:1 9:1 14:1 15:1 16:1 19:1 20:1 23:1 26:1 36:1 49:1 53:1 58:1 60:1 62:1 66:1 139:1 142:1 177:1 201:1 271:1 292:1 313:1 323:1 329:1 475:1 479:1 519:1 573:1 575:1 605:1 686:1 688:1 705:1 723:1 847:1 1007:1 1100:1 1175:1 1207:1 1232:1 1297:1 2020:1 2041:1 2724:1 3589:1 3837:1 3989:1 4066:1 5323:1 5784:1 6384:1 6412:1 7453:1 7470:1 7687:1 8325:1 9992:1 10496:1 10661:1 10809:1 11249:1 14129:1 16695:1 19683:1 20636:1 21167:1 24953:1 26456:1 28447:1 28466:1 28631:1 31992:1 
0.55473579336987788 2:1 3:1 5:1 7:1 8:1 14:1 15:1 18:1 19:1 20:1 51:1 111:1 139:1 191:1 195:1 243:1 289:1 446:1 493:1 496:1 537:1 573:1 620:1 1048:1 1816:1 2038:1 2544:1 2628:1 3055:1 3551:1 5518:1 5539:1 5899:1 6384:1 6848:1 9602:1 13327:1 14093:1 16368:1 17695:1 19490:1 25554:1 25647:1 26735:1 28464:1 30017:1 
0.013953030929979838 1:1 3:1 4:1 7:1 8:1 9:1 13:1 14:1 18:1 19:1 20:1 21:1 29:1 48:1 52:1 57:1 58:1 64:1 84:1 99:1 139:1 142:1 143:1 251:1 289:1 295:1 308:1 322:1 324:1 414:1 422:1 450:1 455:1 535:1 570:1 605:1 612:1 652:1 743:1 756:1 991:1 1078:1 1150:1 1167:1 1277:1 1453:1 1676:1 2038:1 2067:1 3161:1 3537:1 3604:1 3610:1 3726:1 3960:1 4016:1 4742:1 4831:1 4833:1 5020:1 5109:1 6761:1 7193:1 7884:1 9210:1 9859:1 9865:1 10328:1 10434:1 11095:1 11967:1 14079:1 14254:1 18102:1 19758:1 21291:1 23167:1 23453:1 23466:1 24340:1 29729:1 31066:1 33148:1 
0.39009196670665347 1:1 3:1 4:1 5:1 7:1 8:1 9:1 11:1 12:1 14:1 15:1 16:1 18:1 19:1 20:1 22:1 26:1 36:1 48:1 51:1 55:1 65:1 74:1 81:1 82:1 95:1 99:1 139:1 147:1 177:1 194:1 239:1 246:1 272:1 289:1 307:1 309:1 316:1 361:1 379:1 387:1 469:1 479:1 507:1 517:1 535:1 570:1 588:1 605:1 672:1 675:1 710:1 857:1 992:1 1046:1 1051:1 1123:1 1286:1 1287:1 1382:1 1407:1 1629:1 1689:1 2038:1 2082:1 2593:1 3019:1 3102:1 3340:1 3537:1 3725:1 3758:1 3874:1 4269:1 4392:1 4488:1 5266:1 5665:1 5758:1 6548:1 7373:1 7377:1 7387:1 7587:1 8409:1 9214:1 9579:1 9635:1 10123:1 11170:1 11174:1 11181:1 11584:1 12667:1 12890:1 14079:1 17520:1 17914:1 18626:1 20096:1 20223:1 20767:1 21885:1 22203:1 22500:1 24803:1 26352:1 31706:1 31716:1 34355:1 
0.40478869815428808 8:1 13:1 57:1 283:1 413:1 421:1 1149:1 3461:1 4820:1 10315:1 23404:1 
0.020910781113633422 1:1 4:1 12:1 13:1 19:1 48:1 82:1 93:1 94:1 143:1 396:1 414:1 570:1 991:1 1418:1 1581:1 1591:1 2064:1 4591:1 4740:1 9207:1 11723:1 12422:1 12465:1 14236:1 23160:1 
0.11104466379519577 1:1 5:1 7:1 8:1 9:1 12:1 14:1 18:1 19:1 20:1 23:1 39:1 45:1 51:1 53:1 66:1 82:1 93:1 100:1 194:1 196:1 246:1 302:1 318:1 324:1 396:1 446:1 535:1 536:1 570:1 605:1 610:1 627:1 685:1 686:1 901:1 961:1 1051:1 1097:1 1296:1 1424:1 1581:1 1701:1 2593:1 2652:1 3113:1 3686:1 3910:1 4029:1 4591:1 5877:1 6738:1 6938:1 7441:1 7462:1 8681:1 8954:1 9646:1 9970:1 11244:1 11802:1 12422:1 12934:1 17952:1 19967:1 21368:1 26610:1 29659:1 30372:1 31941:1 32041:1 34914:1 
0.18115735765859836 1:1 3:1 4:1 5:1 6:1 8:1 9:1 12:1 14:1 15:1 18:1 19:1 20:1 23:1 26:1 39:1 45:1 48:1 59:1 62:1 67:1 82:1 93:1 100:1 139:1 142:1 143:1 147:1 177:1 181:1 191:1 194:1 195:1 214:1 276:1 309:1 329:1 382:1 383:1 451:1 484:1 490:1 535:1 570:1 573:1 585:1 610:1 699:1 714:1 726:1 902:1 961:1 992:1 1183:1 1238:1 1324:1 1424:1 1568:1 1701:1 2025:1 2056:1 2095:1 2351:1 2548:1 2593:1 2625:1 2838:1 3380:1 3758:1 4071:1 4414:1 4448:1 5046:1 5384:1 5444:1 6384:1 6514:1 6721:1 7558:1 7632:1 7719:1 8700:1 8947:1 9227:1 10527:1 10852:1 11396:1 11802:1 12365:1 12924:1 13938:1 14223:1 14356:1 15868:1 17050:1 18788:1 20223:1 21466:1 22269:1 22399:1 25116:1 25246:1 28451:1 28949:1 32312:1 32493:1 32719:1 34981:1 
0.1582380634248953 1:1 5:1 6:1 7:1 9:1 11:1 12:1 14:1 15:1 18:1 20:1 26:1 50:1 53:1 82:1 88:1 93:1 104:1 177:1 189:1 194:1 206:1 243:1 318:1 319:1 355:1 379:1 383:1 389:1 447:1 465:1 492:1 535:1 549:1 610:1 714:1 1029:1 1097:1 1413:1 1418:1 1501:1 1568:1 1574:1 1762:1 2495:1 2593:1 2607:1 2746:1 3054:1 3927:1 3940:1 4224:1 4379:1 4431:1 4518:1 4993:1 5010:1 5223:1 5481:1 6087:1 6736:1 7640:1 9471:1 9980:1 11677:1 11715:1 12098:1 12356:1 12393:1 13125:1 15611:1 16205:1 16750:1 17672:1 20988:1 21019:1 21754:1 22137:1 22636:1 23860:1 23938:1 24674:1 25384:1 27502:1 29636:1 32530:1 
0.22625905119912232 1:1 2:1 3:1 4:1 5:1 8:1 15:1 18:1 20:1 23:1 46:1 66:1 84:1 111:1 139:1 147:1 177:1 196:1 289:1 493:1 496:1 536:1 539:1 605:1 610:1 622:1 688:1 973:1 1297:1 1453:1 1821:1 2038:1 2082:1 2652:1 2663:1 3541:1 5518:1 5541:1 5879:1 5918:1 6738:1 6860:1 7480:1 9077:1 11256:1 11967:1 13387:1 14083:1 16511:1 19431:1 25556:1 25655:1 26621:1 26817:1 29659:1 30057:1 32090:1 
0.057204980055203407 3:1 4:1 5:1 6:1 7:1 8:1 9:1 12:1 13:1 14:1 15:1 18:1 19:1 20:1 21:1 29:1 47:1 48:1 51:1 57:1 62:1 64:1 139:1 142:1 147:1 162:1 177:1 181:1 210:1 211:1 250:1 285:1 318:1 324:1 393:1 422:1 450:1 464:1 479:1 484:1 493:1 535:1 570:1 575:1 579:1 596:1 605:1 652:1 655:1 658:1 757:1 989:1 992:1 1054:1 1150:1 1230:1 1235:1 1244:1 1277:1 2034:1 2082:1 2086:1 2237:1 2364:1 2762:1 2786:1 3151:1 3493:1 3913:1 4010:1 4560:1 4833:1 5020:1 5201:1 5383:1 5504:1 6391:1 6458:1 6641:1 7193:1 7230:1 7308:1 7905:1 9188:1 9214:1 9218:1 9662:1 10328:1 10836:1 10889:1 11095:1 14036:1 14298:1 14753:1 15063:1 16900:1 18059:1 19215:1 20888:1 22735:1 23461:1 24601:1 25104:1 28800:1 29320:1 31066:1 31530:1 33226:1 
0.084733359362876071 3:1 4:1 5:1 6:1 7:1 8:1 9:1 11:1 12:1 13:1 14:1 15:1 16:1 18:1 19:1 20:1 21:1 29:1 36:1 48:1 53:1 55:1 62:1 139:1 142:1 147:1 151:1 166:1 177:1 190:1 225:1 238:1 289:1 300:1 304:1 313:1 316:1 318:1 366:1 378:1 413:1 450:1 451:1 453:1 479:1 492:1 493:1 508:1 535:1 550:1 573:1 579:1 585:1 614:1 652:1 759:1 857:1 992:1 993:1 998:1 1086:1 1126:1 1232:1 1235:1 1238:1 2038:1 2049:1 2094:1 2124:1 2263:1 2524:1 2939:1 3545:1 3664:1 3827:1 3865:1 3913:1 4301:1 5020:1 5046:1 5079:1 5485:1 5516:1 5697:1 6117:1 6384:1 6458:1 6508:1 6789:1 7196:1 7916:1 8407:1 9226:1 9235:1 9304:1 10144:1 10809:1 10836:1 10846:1 14087:1 14188:1 14343:1 14810:1 17312:1 19457:1 19912:1 20539:1 20888:1 21985:1 25404:1 25541:1 26174:1 27618:1 28464:1 28473:1 28800:1 29834:1 31088:1 34353:1 
0.13791871289808288 1:1 3:1 4:1 5:1 6:1 7:1 8:1 9:1 10:1 12:1 14:1 15:1 18:1 19:1 20:1 21:1 22:1 23:1 29:1 39:1 47:1 48:1 49:1 51:1 52:1 58:1 62:1 64:1 65:1 81:1 95:1 139:1 142:1 166:1 177:1 184:1 191:1 194:1 196:1 205:1 238:1 243:1 262:1 272:1 280:1 282:1 287:1 304:1 309:1 313:1 319:1 324:1 339:1 379:1 383:1 446:1 450:1 455:1 466:1 479:1 492:1 493:1 501:1 535:1 544:1 554:1 573:1 579:1 585:1 617:1 623:1 625:1 637:1 645:1 652:1 655:1 675:1 687:1 743:1 750:1 903:1 989:1 990:1 998:1 1019:1 1062:1 1073:1 1170:1 1235:1 1238:1 1272:1 1277:1 1287:1 1612:1 2021:1 2031:1 2036:1 2254:1 2415:1 2544:1 2612:1 2666:1 3037:1 3290:1 3339:1 3432:1 3447:1 3517:1 3750:1 3760:1 3817:1 3941:1 4019:1 4133:1 4389:1 4447:1 5020:1 5118:1 5249:1 5480:1 5516:1 5629:1 6013:1 6199:1 6384:1 6454:1 6523:1 6815:1 6875:1 6926:1 7019:1 7084:1 7193:1 7198:1 7230:1 7387:1 7469:1 7819:1 8715:1 9183:1 9189:1 9297:1 9405:1 9744:1 9827:1 10464:1 10833:1 10861:1 11051:1 11095:1 11181:1 12549:1 13903:1 13998:1 14060:1 16291:1 16544:1 18536:1 19026:1 19055:1 19336:1 20181:1 20255:1 21026:1 21312:1 21576:1 22184:1 22396:1 24391:1 24767:1 25537:1 25993:1 27218:1 27888:1 28457:1 28767:1 28987:1 29928:1 30155:1 30317:1 30548:1 31066:1 31105:1 32056:1 32904:1 35015:1 
0.023259560942699518 1:1 2:1 3:1 4:1 5:1 7:1 8:1 9:1 10:1 13:1 14:1 18:1 19:1 20:1 21:1 29:1 36:1 45:1 47:1 48:1 51:1 52:1 53:1 54:1 58:1 62:1 83:1 111:1 139:1 142:1 147:1 151:1 177:1 184:1 191:1 194:1 247:1 251:1 255:1 271:1 295:1 300:1 304:1 307:1 308:1 309:1 311:1 318:1 342:1 436:1 446:1 450:1 451:1 455:1 465:1 535:1 540:1 544:1 554:1 579:1 605:1 610:1 643:1 752:1 757:1 856:1 953:1 989:1 993:1 1055:1 1078:1 1097:1 1111:1 1167:1 1235:1 1434:1 1819:1 2020:1 2049:1 2082:1 2124:1 2429:1 2544:1 2593:1 2598:1 2612:1 3117:1 3166:1 3204:1 3611:1 3663:1 3725:1 3726:1 3744:1 3758:1 3793:1 3927:1 4151:1 4935:1 5020:1 5059:1 5110:1 5219:1 5223:1 5937:1 6013:1 6173:1 6447:1 6450:1 6453:1 6727:1 7053:1 7847:1 7895:1 8397:1 8883:1 9196:1 9235:1 9676:1 9866:1 9980:1 10048:1 10435:1 10827:1 10829:1 10832:1 11860:1 13343:1 14187:1 15352:1 16096:1 16269:1 17959:1 18121:1 18236:1 19763:1 19907:1 20085:1 20227:1 20237:1 20380:1 20986:1 20988:1 21603:1 23716:1 24132:1 24344:1 24670:1 27223:1 28750:1 28762:1 29564:1 30611:1 33026:1 33169:1 34317:1 
0.19815198815964918 1:1 2:1 3:1 5:1 6:1 7:1 8:1 9:1 12:1 14:1 15:1 18:1 19:1 20:1 21:1 23:1 29:1 45:1 46:1 51:1 66:1 83:1 111:1 128:1 139:1 177:1 182:1 183:1 194:1 195:1 196:1 210:1 245:1 257:1 258:1 262:1 289:1 304:1 309:1 311:1 318:1 387:1 455:1 479:1 493:1 547:1 573:1 605:1 614:1 644:1 685:1 688:1 743:1 766:1 953:1 973:1 1050:1 1060:1 1297:1 1450:1 1809:1 1960:1 2038:1 2387:1 2398:1 2605:1 2628:1 2652:1 2777:1 3096:1 3249:1 3257:1 3299:1 3545:1 3744:1 3803:1 3918:1 4499:1 5110:1 5504:1 6057:1 6384:1 6782:1 6788:1 7079:1 7433:1 7480:1 7987:1 8897:1 9066:1 9629:1 9724:1 11256:1 11940:1 13262:1 13791:1 14087:1 15146:1 15198:1 16185:1 16368:1 16867:1 17906:1 18421:1 18441:1 18566:1 19456:1 20446:1 20941:1 22579:1 24344:1 27416:1 28464:1 29826:1 30719:1 31898:1 32084:1 
0.009437511195829645 1:1 3:1 4:1 5:1 6:1 7:1 8:1 9:1 12:1 13:1 14:1 15:1 18:1 19:1 23:1 29:1 45:1 47:1 48:1 51:1 56:1 57:1 62:1 66:1 81:1 82:1 93:1 99:1 139:1 142:1 159:1 181:1 183:1 191:1 194:1 205:1 238:1 247:1 276:1 280:1 282:1 285:1 304:1 307:1 309:1 387:1 393:1 396:1 418:1 446:1 453:1 460:1 479:1 493:1 497:1 535:1 536:1 540:1 570:1 573:1 579:1 585:1 693:1 757:1 759:1 766:1 961:1 966:1 989:1 995:1 1052:1 1137:1 1148:1 1230:1 1232:1 1235:1 1300:1 1407:1 1581:1 1688:1 2025:1 2029:1 2031:1 2034:1 2188:1 2351:1 2395:1 2550:1 2593:1 3118:1 3391:1 3420:1 3450:1 3480:1 3725:1 3749:1 3757:1 4485:1 4567:1 4599:1 4788:1 5079:1 5157:1 5519:1 5564:1 5877:1 5941:1 6384:1 6450:1 6508:1 7508:1 7514:1 7903:1 7921:1 7997:1 8954:1 9017:1 9186:1 9267:1 9648:1 10227:1 10309:1 10809:1 10829:1 11277:1 11282:1 12426:1 12887:1 13948:1 13974:1 14000:1 14027:1 14626:1 15884:1 17964:1 18882:1 18950:1 19069:1 20088:1 20175:1 20214:1 22769:1 22829:1 23329:1 25574:1 26598:1 26874:1 28455:1 28460:1 28750:1 32176:1 32205:1 33217:1 33294:1 33580:1 
0.44677328123242049 1:1 3:1 4:1 5:1 6:1 7:1 8:1 9:1 12:1 13:1 14:1 18:1 19:1 20:1 23:1 29:1 36:1 39:1 48:1 49:1 51:1 52:1 53:1 58:1 62:1 66:1 82:1 98:1 100:1 139:1 142:1 177:1 191:1 195:1 196:1 206:1 244:1 245:1 256:1 260:1 262:1 271:1 276:1 289:1 300:1 307:1 317:1 318:1 387:1 413:1 446:1 447:1 460:1 464:1 535:1 547:1 570:1 573:1 575:1 579:1 588:1 605:1 610:1 637:1 693:1 699:1 743:1 759:1 766:1 850:1 901:1 902:1 990:1 1022:1 1049:1 1050:1 1061:1 1071:1 1082:1 1096:1 1165:1 1230:1 1235:1 1300:1 1422:1 1652:1 1723:1 2020:1 2038:1 2560:1 2625:1 2652:1 2739:1 3060:1 3096:1 3220:1 3278:1 3299:1 3393:1 3541:1 3657:1 3725:1 3890:1 3922:1 4488:1 5008:1 5157:1 5197:1 6057:1 6384:1 6391:1 6458:1 6553:1 6733:1 7017:1 7514:1 7558:1 7916:1 7987:1 7997:1 8345:1 8689:1 8705:1 9440:1 9605:1 9629:1 9739:1 9813:1 9888:1 9961:1 10418:1 10836:1 11282:1 11764:1 13006:1 14083:1 15929:1 16733:1 17724:1 17906:1 18308:1 18516:1 18566:1 18905:1 19427:1 19882:1 20085:1 20964:1 22500:1 23933:1 27410:1 28464:1 28805:1 29073:1 29617:1 30543:1 32205:1 32315:1 33575:1 34194:1 34951:1 34994:1 
1 4:1 5:1 7:1 8:1 9:1 14:1 15:1 18:1 21:1 30:1 49:1 51:1 52:1 58:1 64:1 142:1 186:1 194:1 238:1 263:1 276:1 311:1 446:1 450:1 461:1 479:1 535:1 549:1 652:1 782:1 787:1 1021:1 1063:1 1071:1 1169:1 1277:1 2458:1 2593:1 3304:1 3385:1 3786:1 5020:1 5168:1 6086:1 7193:1 8078:1 8110:1 9420:1 9757:1 9807:1 10446:1 11095:1 15470:1 18578:1 18827:1 31066:1 33745:1 33815:1 
0.064028863444188275 1:1 2:1 3:1 4:1 5:1 6:1 7:1 8:1 9:1 10:1 11:1 13:1 14:1 15:1 18:1 20:1 21:1 26:1 36:1 39:1 48:1 51:1 52:1 54:1 58:1 59:1 63:1 64:1 67:1 81:1 82:1 89:1 111:1 139:1 147:1 177:1 190:1 191:1 194:1 196:1 205:1 246:1 272:1 276:1 300:1 318:1 342:1 355:1 418:1 446:1 451:1 457:1 477:1 480:1 535:1 536:1 544:1 605:1 610:1 622:1 624:1 645:1 655:1 658:1 705:1 846:1 865:1 903:1 907:1 992:1 1051:1 1071:1 1111:1 1177:1 1180:1 1258:1 1272:1 1308:1 1407:1 1524:1 1803:1 2025:1 2095:1 2528:1 2544:1 2548:1 2593:1 2665:1 3102:1 3340:1 3389:1 3393:1 3668:1 3919:1 4159:1 4217:1 4788:1 5046:1 5132:1 5346:1 5354:1 5884:1 6020:1 6732:1 6862:1 6900:1 7084:1 7231:1 7308:1 8324:1 8463:1 8708:1 8747:1 9227:1 9635:1 9813:1 10054:1 10514:1 10517:1 10988:1 11051:1 12177:1 13946:1 14356:1 15787:1 15868:1 16536:1 17914:1 18626:1 18864:1 18914:1 19925:1 20953:1 21619:1 23329:1 24425:1 25009:1 25023:1 26640:1 27287:1 29603:1 30087:1 30237:1 31207:1 31531:1 34154:1 34456:1 35111:1 
0.12198548160086518 1:1 3:1 4:1 5:1 7:1 8:1 9:1 12:1 14:1 16:1 18:1 19:1 20:1 21:1 22:1 29:1 49:1 51:1 52:1 61:1 62:1 64:1 81:1 82:1 98:1 100:1 139:1 142:1 180:1 189:1 194:1 246:1 272:1 282:1 286:1 295:1 304:1 313:1 326:1 379:1 387:1 450:1 505:1 540:1 553:1 554:1 570:1 573:1 579:1 605:1 614:1 623:1 652:1 667:1 761:1 1009:1 1021:1 1051:1 1078:1 1219:1 1235:1 1277:1 1407:1 1422:1 1670:1 1705:1 2031:1 2035:1 2349:1 2495:1 2611:1 3102:1 3340:1 3450:1 3500:1 3615:1 3835:1 4050:1 4393:1 4485:1 5020:1 5647:1 5948:1 6154:1 6189:1 6384:1 6447:1 6789:1 6872:1 7193:1 7953:1 9353:1 9434:1 9635:1 9869:1 10720:1 10827:1 11095:1 11781:1 12838:1 12944:1 14000:1 14043:1 14998:1 15620:1 16251:1 17914:1 18626:1 19069:1 19253:1 19791:1 20627:1 22205:1 26032:1 26953:1 27732:1 27852:1 28461:1 29839:1 31066:1 
1 1:1 4:1 5:1 9:1 11:1 14:1 20:1 22:1 45:1 48:1 53:1 58:1 92:1 142:1 151:1 177:1 304:1 308:1 309:1 313:1 318:1 326:1 368:1 446:1 455:1 614:1 667:1 960:1 993:1 1086:1 1097:1 1167:1 1559:1 2129:1 3726:1 3744:1 3835:1 3910:1 4050:1 4320:1 5109:1 6789:1 8940:1 9238:1 9970:1 10434:1 12316:1 14467:1 20627:1 22016:1 24340:1 29839:1 
0.024493761782084702 1:1 2:1 3:1 4:1 5:1 7:1 8:1 9:1 12:1 14:1 18:1 19:1 26:1 39:1 45:1 48:1 49:1 51:1 53:1 56:1 62:1 82:1 83:1 95:1 99:1 111:1 115:1 139:1 143:1 177:1 179:1 194:1 239:1 256:1 271:1 280:1 302:1 304:1 309:1 313:1 323:1 387:1 469:1 535:1 570:1 573:1 579:1 705:1 888:1 907:1 953:1 991:1 1007:1 1046:1 1059:1 1100:1 1136:1 1232:1 1420:1 1434:1 1629:1 1676:1 1819:1 1848:1 2020:1 2029:1 2051:1 2067:1 2335:1 2593:1 3010:1 3226:1 3415:1 3690:1 3745:1 3817:1 3989:1 4490:1 5263:1 6384:1 6454:1 8569:1 8735:1 8883:1 9210:1 9572:1 9717:1 9992:1 10206:1 10809:1 11753:1 11860:1 12664:1 13343:1 13969:1 14208:1 14254:1 14946:1 17484:1 18342:1 19987:1 20160:1 21167:1 22508:1 28447:1 28475:1 28767:1 34662:1 35044:1 
0.47797616744513372 1:1 4:1 5:1 7:1 8:1 10:1 14:1 18:1 20:1 21:1 23:1 26:1 29:1 51:1 52:1 54:1 82:1 98:1 147:1 191:1 194:1 238:1 243:1 290:1 337:1 450:1 469:1 470:1 535:1 554:1 628:1 639:1 652:1 693:1 712:1 726:1 757:1 762:1 1048:1 1077:1 1106:1 1422:1 1652:1 2098:1 2565:1 2612:1 3051:1 3580:1 4103:1 5025:1 5268:1 5298:1 6193:1 6951:1 7193:1 7508:1 7613:1 7716:1 7907:1 7962:1 9598:1 9855:1 10013:1 11764:1 14392:1 15982:1 16286:1 17660:1 19632:1 21519:1 23987:1 24817:1 24909:1 27874:1 30404:1 31069:1 32179:1 32710:1 33244:1 
0.044673726137724107 1:1 3:1 6:1 7:1 8:1 9:1 10:1 12:1 15:1 16:1 18:1 19:1 20:1 39:1 51:1 52:1 53:1 54:1 60:1 81:1 82:1 100:1 139:1 236:1 244:1 246:1 271:1 272:1 280:1 304:1 307:1 319:1 323:1 337:1 378:1 493:1 498:1 505:1 544:1 573:1 614:1 622:1 897:1 907:1 1049:1 1051:1 1070:1 1088:1 1106:1 1198:1 1407:1 1710:1 2020:1 2029:1 3003:1 3072:1 3102:1 3339:1 3340:1 3415:1 3725:1 3941:1 3989:1 4103:1 5520:1 5591:1 5659:1 6021:1 6384:1 6797:1 6862:1 8637:1 8742:1 9616:1 9635:1 9784:1 9915:1 10013:1 10593:1 12963:1 13969:1 17465:1 17778:1 17914:1 18626:1 20085:1 21029:1 21167:1 21518:1 25595:1 25869:1 26068:1 27293:1 28455:1 29877:1 30088:1 35076:1 
0.13012339834290632 1:1 2:1 3:1 4:1 5:1 8:1 9:1 12:1 13:1 14:1 15:1 18:1 19:1 21:1 22:1 23:1 26:1 29:1 30:1 46:1 47:1 49:1 52:1 53:1 64:1 65:1 66:1 95:1 115:1 139:1 142:1 190:1 271:1 282:1 285:1 290:1 295:1 296:1 304:1 307:1 318:1 379:1 396:1 413:1 446:1 450:1 479:1 493:1 496:1 535:1 543:1 558:1 570:1 573:1 655:1 656:1 658:1 675:1 693:1 705:1 752:1 755:1 782:1 787:1 975:1 989:1 1018:1 1078:1 1088:1 1279:1 1287:1 1300:1 1612:1 1859:1 2020:1 2031:1 2034:1 2039:1 2524:1 3447:1 3493:1 3584:1 3608:1 3631:1 3725:1 3910:1 4389:1 4594:1 5020:1 5504:1 5545:1 6003:1 6234:1 6384:1 7250:1 7251:1 7308:1 7397:1 7506:1 7834:1 7874:1 8067:1 8110:1 9094:1 9188:1 9190:1 9397:1 9863:1 9915:1 11117:1 11189:1 11275:1 12549:1 13513:1 13998:1 14036:1 14124:1 19055:1 19215:1 19663:1 19740:1 19844:1 20085:1 22184:1 22821:1 25695:1 27185:1 28457:1 31282:1 31546:1 31773:1 32164:1 33102:1 33806:1 
0.18549995971888 1:1 2:1 3:1 5:1 7:1 8:1 9:1 12:1 13:1 18:1 19:1 20:1 26:1 36:1 39:1 45:1 51:1 57:1 77:1 93:1 111:1 139:1 194:1 238:1 247:1 255:1 289:1 311:1 324:1 383:1 390:1 422:1 535:1 558:1 566:1 573:1 605:1 610:1 735:1 859:1 865:1 887:1 892:1 907:1 961:1 1058:1 1150:1 1396:1 1575:1 1819:1 2038:1 2593:1 2616:1 3120:1 3213:1 3541:1 3786:1 4010:1 4447:1 4530:1 4833:1 6255:1 6319:1 6384:1 6736:1 7769:1 8426:1 8472:1 8563:1 8612:1 8739:1 8951:1 9710:1 10328:1 11611:1 12397:1 13365:1 14083:1 16330:1 17968:1 18279:1 19429:1 22379:1 22671:1 23461:1 28086:1 28245:1 28464:1 29623:1 32808:1 34390:1 34493:1 34650:1 34778:1 35068:1 
1 5:1 13:1 14:1 15:1 22:1 65:1 177:1 191:1 418:1 451:1 491:1 675:1 1287:1 2548:1 4786:1 5046:1 5466:1 7394:1 11186:1 15868:1 23320:1 25345:1 31750:1 
1 1:1 4:1 19:1 48:1 99:1 143:1 570:1 588:1 991:1 1689:1 2067:1 6548:1 9210:1 12890:1 14259:1 
0.021483196350110097 8:1 9:1 13:1 26:1 57:1 67:1 283:1 304:1 413:1 421:1 714:1 1149:1 1314:1 3461:1 4820:1 7628:1 10315:1 11343:1 23404:1 
1 4:1 5:1 14:1 21:1 48:1 64:1 142:1 147:1 177:1 450:1 652:1 992:1 1277:1 2082:1 5020:1 7193:1 9214:1 11095:1 31066:1 
0.20978156224356193 1:1 2:1 3:1 4:1 5:1 6:1 7:1 8:1 9:1 12:1 13:1 18:1 19:1 20:1 21:1 23:1 46:1 48:1 50:1 51:1 53:1 56:1 57:1 62:1 93:1 111:1 115:1 139:1 147:1 177:1 182:1 194:1 196:1 199:1 206:1 256:1 271:1 289:1 304:1 307:1 313:1 322:1 323:1 378:1 383:1 390:1 422:1 535:1 544:1 570:1 573:1 575:1 579:1 588:1 589:1 605:1 610:1 623:1 656:1 689:1 973:1 975:1 992:1 1029:1 1059:1 1088:1 1100:1 1135:1 1150:1 1230:1 1234:1 1575:1 1824:1 1848:1 2020:1 2038:1 2082:1 2387:1 2593:1 2602:1 2664:1 2704:1 2746:1 3226:1 3541:1 3725:1 3817:1 3960:1 3989:1 4449:1 4526:1 4831:1 6008:1 6384:1 6395:1 6454:1 6566:1 6577:1 6736:1 6875:1 7268:1 7492:1 9080:1 9084:1 9214:1 9471:1 9717:1 9915:1 9992:1 10201:1 10326:1 10813:1 12396:1 13402:1 14083:1 15136:1 16149:1 16523:1 16640:1 16751:1 18342:1 19429:1 20085:1 21167:1 22409:1 23453:1 28447:1 28464:1 28509:1 28767:1 29136:1 29632:1 30155:1 31386:1 32125:1 
0.030531029816316727 1:1 3:1 4:1 5:1 7:1 8:1 9:1 10:1 14:1 16:1 18:1 19:1 20:1 21:1 23:1 26:1 29:1 36:1 41:1 48:1 53:1 54:1 58:1 62:1 66:1 99:1 139:1 143:1 177:1 194:1 201:1 238:1 243:1 271:1 286:1 307:1 338:1 466:1 529:1 535:1 570:1 573:1 596:1 610:1 639:1 693:1 705:1 750:1 867:1 935:1 937:1 991:1 1088:1 1107:1 1170:1 1232:1 1244:1 1300:1 1676:1 2020:1 2035:1 2067:1 2593:1 2712:1 3037:1 3512:1 3725:1 4130:1 5241:1 5862:1 6384:1 6636:1 6736:1 7503:1 7818:1 7819:1 8491:1 8493:1 8841:1 8844:1 9210:1 9915:1 10032:1 10460:1 10809:1 10885:1 11273:1 14055:1 14254:1 19311:1 20085:1 21570:1 26579:1 28461:1 29296:1 29623:1 32141:1 32904:1 34544:1 34547:1 35250:1 35261:1 
0.29690067137782783 3:1 5:1 8:1 9:1 12:1 13:1 19:1 20:1 21:1 57:1 139:1 189:1 290:1 324:1 378:1 396:1 422:1 573:1 610:1 644:1 1150:1 2039:1 2494:1 2512:1 3573:1 4014:1 4594:1 4833:1 6384:1 6731:1 7074:1 10328:1 14114:1 15718:1 19602:1 21278:1 22821:1 23465:1 28465:1 29595:1 30676:1 
0.32873983017088515 1:1 2:1 5:1 8:1 10:1 12:1 13:1 14:1 15:1 18:1 22:1 52:1 54:1 65:1 82:1 93:1 98:1 111:1 177:1 191:1 272:1 337:1 380:1 418:1 451:1 491:1 535:1 675:1 1070:1 1106:1 1287:1 1422:1 1565:1 1652:1 1803:1 2548:1 3349:1 4103:1 4402:1 4786:1 5046:1 5466:1 7394:1 9793:1 10013:1 11186:1 11764:1 12341:1 15868:1 18677:1 21519:1 22234:1 23320:1 25345:1 31750:1 
0.063852807653654017 1:1 3:1 4:1 5:1 6:1 8:1 9:1 12:1 13:1 14:1 15:1 18:1 19:1 20:1 21:1 23:1 26:1 29:1 31:1 45:1 47:1 48:1 50:1 56:1 57:1 59:1 62:1 64:1 67:1 81:1 82:1 93:1 98:1 99:1 139:1 142:1 143:1 147:1 177:1 191:1 194:1 229:1 271:1 272:1 289:1 307:1 309:1 396:1 403:1 418:1 450:1 464:1 482:1 535:1 549:1 570:1 573:1 579:1 631:1 652:1 684:1 726:1 752:1 759:1 790:1 961:1 989:1 991:1 1038:1 1139:1 1148:1 1182:1 1235:1 1277:1 1324:1 1422:1 1581:1 1652:1 1676:1 2020:1 2021:1 2038:1 2067:1 2082:1 2098:1 2547:1 2593:1 2962:1 3339:1 3562:1 3725:1 3744:1 4591:1 4665:1 4774:1 5020:1 5025:1 5200:1 5368:1 6095:1 6384:1 6450:1 6976:1 7193:1 7417:1 7711:1 7838:1 7928:1 8119:1 8954:1 9183:1 9210:1 9538:1 10248:1 10300:1 10523:1 10829:1 11095:1 11388:1 11764:1 12422:1 13903:1 14104:1 14254:1 14373:1 15854:1 17375:1 19562:1 20085:1 22987:1 23976:1 24600:1 25070:1 27536:1 28464:1 28750:1 30463:1 31066:1 31828:1 32686:1 32962:1 33352:1 33832:1 
0.297204936576354 3:1 4:1 5:1 8:1 9:1 11:1 15:1 18:1 19:1 20:1 21:1 22:1 29:1 37:1 47:1 48:1 64:1 65:1 139:1 147:1 151:1 177:1 280:1 301:1 304:1 322:1 368:1 479:1 560:1 570:1 605:1 656:1 658:1 675:1 754:1 870:1 989:1 992:1 993:1 1280:1 1287:1 2029:1 2050:1 2082:1 2139:1 3415:1 3670:1 3983:1 4317:1 6263:1 7251:1 7309:1 7387:1 7862:1 8496:1 9197:1 9214:1 9245:1 11144:1 11181:1 13969:1 14193:1 14521:1 19936:1 21151:1 28112:1 31547:1 33061:1 34553:1 
1 4:1 5:1 9:1 13:1 18:1 23:1 53:1 66:1 147:1 194:1 308:1 317:1 418:1 426:1 535:1 686:1 1096:1 1296:1 2098:1 2593:1 3728:1 3900:1 4788:1 4851:1 7449:1 9966:1 11233:1 14373:1 20114:1 20849:1 23329:1 23513:1 31965:1 
0.062858223651985748 1:1 2:1 3:1 4:1 6:1 7:1 8:1 9:1 12:1 14:1 15:1 18:1 19:1 20:1 21:1 22:1 29:1 39:1 45:1 48:1 64:1 65:1 82:1 83:1 88:1 100:1 123:1 139:1 151:1 166:1 205:1 238:1 247:1 289:1 304:1 311:1 396:1 450:1 490:1 536:1 568:1 573:1 614:1 622:1 629:1 645:1 675:1 743:1 757:1 902:1 952:1 953:1 998:1 1272:1 1287:1 1413:1 1424:1 1445:1 1496:1 1710:1 1920:1 2038:1 2131:1 2254:1 3114:1 3545:1 3560:1 3786:1 3793:1 4594:1 5029:1 5454:1 5877:1 6342:1 6384:1 6788:1 6860:1 6961:1 7084:1 7393:1 7895:1 8700:1 8875:1 8893:1 9297:1 11051:1 11185:1 11672:1 11808:1 11919:1 12961:1 13715:1 14087:1 14102:1 14480:1 19456:1 19551:1 20378:1 22821:1 24006:1 25312:1 26603:1 28303:1 28464:1 29819:1 30055:1 30427:1 31744:1 33172:1 34981:1 
0.59965617861301956 1:1 3:1 4:1 5:1 7:1 8:1 9:1 15:1 18:1 19:1 20:1 22:1 23:1 29:1 48:1 49:1 65:1 66:1 99:1 139:1 142:1 143:1 195:1 256:1 280:1 289:1 307:1 479:1 493:1 496:1 535:1 542:1 570:1 573:1 585:1 605:1 675:1 693:1 759:1 766:1 990:1 991:1 1022:1 1287:1 1300:1 1676:1 2029:1 2038:1 2067:1 2639:1 3220:1 3418:1 3537:1 3725:1 5518:1 5544:1 5991:1 6384:1 6508:1 7396:1 7514:1 7916:1 7997:1 9210:1 9444:1 11188:1 11282:1 13972:1 14079:1 14254:1 16406:1 18308:1 18946:1 20096:1 25559:1 25689:1 27142:1 28455:1 31763:1 32205:1 33575:1 
0.077563113468805386 1:1 2:1 3:1 4:1 5:1 7:1 8:1 9:1 12:1 14:1 15:1 18:1 19:1 20:1 21:1 23:1 36:1 45:1 48:1 51:1 62:1 63:1 66:1 83:1 99:1 111:1 139:1 143:1 177:1 194:1 256:1 292:1 304:1 383:1 465:1 479:1 493:1 535:1 570:1 573:1 585:1 605:1 635:1 650:1 686:1 689:1 856:1 865:1 953:1 991:1 1059:1 1238:1 1265:1 1296:1 1434:1 1676:1 1819:1 2041:1 2067:1 2593:1 3220:1 3591:1 4431:1 5219:1 5504:1 6384:1 6517:1 6999:1 7156:1 7446:1 7488:1 8403:1 8470:1 8883:1 9210:1 9715:1 10855:1 11032:1 11230:1 11860:1 13343:1 14131:1 14254:1 18308:1 19694:1 28466:1 28966:1 30502:1 30960:1 32116:1 34338:1 34479:1 
0.088721743410486303 1:1 3:1 4:1 5:1 7:1 8:1 9:1 14:1 16:1 18:1 19:1 20:1 21:1 23:1 26:1 29:1 36:1 51:1 52:1 60:1 62:1 63:1 64:1 67:1 81:1 82:1 100:1 139:1 142:1 177:1 194:1 246:1 256:1 272:1 289:1 295:1 304:1 313:1 318:1 450:1 451:1 505:1 540:1 579:1 610:1 614:1 635:1 652:1 693:1 726:1 752:1 757:1 846:1 1051:1 1059:1 1078:1 1198:1 1235:1 1265:1 1277:1 1324:1 1407:1 1424:1 1705:1 2038:1 2598:1 3102:1 3226:1 3340:1 3541:1 3611:1 3817:1 3914:1 5020:1 5046:1 5647:1 5937:1 6447:1 6454:1 6736:1 6794:1 6989:1 7193:1 7504:1 7716:1 7834:1 7895:1 8324:1 9635:1 9717:1 9866:1 10583:1 10827:1 11025:1 11095:1 11393:1 11804:1 12946:1 14083:1 16096:1 17914:1 18342:1 18626:1 19429:1 19763:1 20900:1 26033:1 28767:1 29628:1 29863:1 30481:1 31066:1 32146:1 32707:1 33169:1 34158:1 
0.55911156886630942 1:1 3:1 4:1 5:1 6:1 8:1 9:1 13:1 14:1 15:1 18:1 19:1 21:1 45:1 49:1 53:1 57:1 64:1 95:1 101:1 139:1 142:1 191:1 194:1 195:1 210:1 271:1 323:1 418:1 447:1 450:1 479:1 535:1 573:1 585:1 639:1 645:1 968:1 1022:1 1100:1 1148:1 1272:1 1612:1 1724:1 2020:1 2545:1 2593:1 2639:1 2774:1 3989:1 4788:1 5004:1 5020:1 6384:1 6508:1 7089:1 9027:1 9444:1 9992:1 10309:1 11055:1 12549:1 15843:1 16406:1 16842:1 21167:1 23329:1 23906:1 28447:1 30763:1 
0.23810044386151474 1:1 2:1 4:1 5:1 14:1 18:1 19:1 29:1 36:1 45:1 58:1 62:1 83:1 106:1 111:1 142:1 194:1 475:1 535:1 596:1 745:1 766:1 847:1 865:1 953:1 1175:1 1244:1 1434:1 1819:1 2593:1 5330:1 6648:1 7789:1 7988:1 8325:1 8464:1 8883:1 10501:1 10893:1 11860:1 13343:1 24976:1 29335:1 33525:1 34457:1 
0.15666375249722239 2:1 3:1 4:1 5:1 8:1 9:1 12:1 13:1 14:1 15:1 18:1 19:1 20:1 23:1 46:1 48:1 53:1 58:1 66:1 115:1 139:1 142:1 147:1 177:1 190:1 194:1 271:1 304:1 307:1 308:1 309:1 316:1 323:1 387:1 428:1 455:1 480:1 493:1 496:1 539:1 554:1 579:1 605:1 688:1 975:1 992:1 1088:1 1167:1 1297:1 1848:1 1857:1 2020:1 2082:1 2094:1 2534:1 2612:1 3725:1 3726:1 3758:1 3874:1 3993:1 4503:1 4868:1 5109:1 5355:1 5518:1 5541:1 5918:1 6173:1 6452:1 7480:1 9084:1 9226:1 9915:1 10434:1 11256:1 13505:1 14348:1 15806:1 16269:1 20085:1 20237:1 20775:1 21198:1 22596:1 23549:1 24340:1 25035:1 25556:1 25655:1 26817:1 28758:1 32090:1 
0.0030555529269589887 1:1 2:1 3:1 4:1 5:1 6:1 7:1 8:1 9:1 12:1 13:1 14:1 15:1 16:1 18:1 19:1 20:1 21:1 23:1 26:1 29:1 30:1 36:1 45:1 48:1 50:1 51:1 52:1 53:1 58:1 60:1 62:1 66:1 93:1 95:1 98:1 125:1 139:1 142:1 151:1 177:1 182:1 184:1 194:1 206:1 222:1 238:1 245:1 250:1 251:1 256:1 271:1 272:1 276:1 288:1 289:1 295:1 304:1 307:1 309:1 313:1 318:1 323:1 387:1 397:1 403:1 418:1 436:1 446:1 450:1 455:1 458:1 465:1 469:1 479:1 493:1 510:1 536:1 538:1 548:1 553:1 573:1 575:1 579:1 585:1 601:1 605:1 614:1 623:1 630:1 641:1 686:1 688:1 733:1 752:1 757:1 762:1 782:1 856:1 859:1 865:1 965:1 993:1 1029:1 1035:1 1050:1 1055:1 1059:1 1070:1 1078:1 1094:1 1167:1 1201:1 1232:1 1234:1 1238:1 1296:1 1297:1 1582:1 1609:1 1629:1 1664:1 1933:1 2020:1 2037:1 2038:1 2124:1 2129:1 2372:1 2415:1 2611:1 2746:1 2887:1 3085:1 3154:1 3166:1 3226:1 3351:1 3391:1 3526:1 3545:1 3561:1 3611:1 3725:1 3744:1 3817:1 3819:1 3927:1 3989:1 4488:1 4620:1 4673:1 4778:1 4935:1 5020:1 5110:1 5148:1 5219:1 5279:1 5504:1 5706:1 5889:1 5914:1 6070:1 6172:1 6384:1 6397:1 6454:1 6462:1 6517:1 6678:1 6782:1 6875:1 6972:1 7045:1 7450:1 7470:1 7754:1 7847:1 7895:1 7963:1 8070:1 8400:1 8428:1 8470:1 9009:1 9235:1 9238:1 9471:1 9515:1 9622:1 9676:1 9717:1 9795:1 9866:1 9940:1 10435:1 10614:1 10809:1 10814:1 10855:1 11234:1 11249:1 12436:1 12673:1 12810:1 14068:1 14087:1 14103:1 14467:1 16268:1 16754:1 17170:1 17838:1 18078:1 18121:1 18342:1 18696:1 18895:1 19365:1 19451:1 19559:1 19763:1 20085:1 20484:1 20986:1 21167:1 22500:1 22881:1 23018:1 23268:1 23716:1 24344:1 24473:1 24863:1 26199:1 26686:1 26804:1 27458:1 27773:1 28447:1 28464:1 28520:1 28767:1 28815:1 28966:1 29392:1 30155:1 30457:1 30596:1 31968:1 32781:1 33026:1 33169:1 33464:1 33716:1 34329:1 34398:1 34477:1 
0.061166602151219954 1:1 3:1 5:1 7:1 8:1 9:1 12:1 13:1 14:1 15:1 18:1 19:1 21:1 29:1 47:1 51:1 53:1 57:1 58:1 62:1 95:1 139:1 189:1 194:1 262:1 271:1 272:1 290:1 307:1 317:1 318:1 378:1 418:1 426:1 436:1 446:1 461:1 464:1 479:1 535:1 573:1 644:1 743:1 752:1 766:1 989:1 1062:1 1088:1 1096:1 1155:1 1169:1 1232:1 1609:1 2020:1 2021:1 2039:1 2494:1 2593:1 3299:1 3351:1 3573:1 3725:1 3900:1 3926:1 4788:1 4851:1 4935:1 5168:1 5200:1 6384:1 7074:1 7847:1 7987:1 9183:1 9752:1 9915:1 9966:1 10361:1 10446:1 10809:1 13913:1 14114:1 18566:1 18696:1 19602:1 20085:1 20849:1 20979:1 23329:1 23513:1 23716:1 24600:1 28447:1 28465:1 30676:1 33025:1 
0.040835349349924902 1:1 3:1 4:1 5:1 7:1 8:1 9:1 10:1 14:1 15:1 16:1 18:1 19:1 20:1 21:1 26:1 29:1 48:1 51:1 60:1 61:1 62:1 64:1 95:1 139:1 142:1 151:1 177:1 195:1 239:1 289:1 304:1 309:1 314:1 318:1 338:1 450:1 469:1 498:1 518:1 550:1 560:1 570:1 573:1 579:1 589:1 605:1 610:1 622:1 656:1 658:1 714:1 752:1 761:1 993:1 1046:1 1206:1 1223:1 1235:1 1279:1 1280:1 1629:1 2038:1 2129:1 2628:1 3019:1 3537:1 3744:1 3840:1 3913:1 4113:1 5020:1 5270:1 5587:1 5771:1 6121:1 6262:1 6269:1 6384:1 6458:1 6588:1 6721:1 6737:1 6865:1 7251:1 7269:1 7309:1 7628:1 7843:1 7954:1 9238:1 9579:1 10651:1 10764:1 10836:1 11117:1 11144:1 12669:1 14079:1 14467:1 16368:1 17520:1 20648:1 20888:1 24826:1 25856:1 26420:1 27641:1 28106:1 28129:1 28464:1 28800:1 29190:1 29650:1 30120:1 31393:1 31563:1 32989:1 33430:1 
0.58979139829916472 9:1 14:1 29:1 58:1 304:1 470:1 743:1 752:1 1171:1 5282:1 5289:1 7834:1 10467:1 10473:1 24881:1 
1 1:1 2:1 4:1 5:1 9:1 14:1 15:1 18:1 19:1 21:1 45:1 46:1 48:1 53:1 62:1 101:1 115:1 147:1 177:1 194:1 304:1 446:1 450:1 492:1 549:1 585:1 639:1 968:1 975:1 992:1 1086:1 1238:1 1724:1 1848:1 2082:1 2098:1 2607:1 5025:1 5484:1 6086:1 6516:1 9027:1 9084:1 9214:1 10854:1 14387:1 16204:1 23987:1 25397:1 28962:1 
0.1063280461847565 1:1 3:1 7:1 8:1 9:1 12:1 13:1 15:1 19:1 20:1 29:1 51:1 62:1 93:1 139:1 256:1 285:1 324:1 378:1 414:1 491:1 573:1 596:1 605:1 752:1 1059:1 1232:1 1563:1 2034:1 3241:1 3491:1 4010:1 4749:1 5464:1 6384:1 6637:1 7851:1 9720:1 10809:1 14034:1 18403:1 19201:1 23185:1 25336:1 28460:1 29305:1 33038:1 
0.1325322844498035 1:1 4:1 5:1 7:1 8:1 9:1 12:1 14:1 20:1 29:1 51:1 52:1 58:1 93:1 142:1 177:1 246:1 272:1 295:1 308:1 397:1 450:1 455:1 610:1 757:1 1051:1 1078:1 1167:1 1582:1 3102:1 3349:1 3611:1 3726:1 4610:1 5020:1 5109:1 6721:1 7895:1 9635:1 9866:1 10434:1 12431:1 17917:1 18685:1 19763:1 22851:1 24340:1 33169:1 
0.081417921108844507 3:1 4:1 5:1 7:1 8:1 9:1 10:1 12:1 14:1 19:1 20:1 21:1 26:1 29:1 47:1 48:1 51:1 53:1 54:1 139:1 142:1 184:1 189:1 201:1 243:1 257:1 262:1 276:1 290:1 304:1 323:1 338:1 378:1 387:1 453:1 573:1 605:1 644:1 705:1 757:1 766:1 989:1 990:1 1062:1 1086:1 1107:1 2025:1 2039:1 2419:1 2494:1 2503:1 2712:1 3049:1 3246:1 3299:1 3383:1 3573:1 3989:1 4130:1 4503:1 5095:1 6384:1 7074:1 7898:1 7996:1 9184:1 9752:1 10032:1 13941:1 14114:1 15286:1 15674:1 17631:1 18570:1 18811:1 19602:1 21167:1 21570:1 22593:1 24308:1 28465:1 30676:1 33197:1 33571:1 
1 1:1 2:1 4:1 9:1 10:1 14:1 21:1 46:1 54:1 64:1 81:1 82:1 115:1 142:1 304:1 313:1 337:1 450:1 652:1 975:1 1106:1 1277:1 1407:1 1855:1 3817:1 4103:1 5020:1 7193:1 9090:1 10013:1 11095:1 13489:1 21518:1 31066:1 
0.18502960359308776 1:1 3:1 4:1 5:1 6:1 7:1 8:1 9:1 11:1 12:1 13:1 14:1 15:1 16:1 18:1 19:1 20:1 21:1 26:1 39:1 45:1 48:1 55:1 56:1 57:1 60:1 62:1 64:1 82:1 92:1 93:1 139:1 142:1 147:1 177:1 183:1 191:1 194:1 223:1 255:1 280:1 289:1 305:1 307:1 324:1 364:1 368:1 378:1 383:1 390:1 392:1 411:1 422:1 450:1 451:1 465:1 492:1 502:1 507:1 517:1 518:1 535:1 555:1 570:1 573:1 577:1 585:1 605:1 606:1 610:1 644:1 652:1 654:1 656:1 714:1 903:1 907:1 961:1 992:1 1125:1 1145:1 1150:1 1206:1 1232:1 1238:1 1277:1 1279:1 1418:1 1559:1 1568:1 1575:1 1577:1 2029:1 2038:1 2095:1 2098:1 2406:1 2548:1 2593:1 2905:1 3207:1 3418:1 3541:1 3698:1 3725:1 4010:1 4291:1 4317:1 4431:1 4526:1 4553:1 4734:1 4833:1 5020:1 5046:1 5220:1 5498:1 5635:1 5665:1 5758:1 5772:1 6203:1 6211:1 6384:1 6433:1 6524:1 6701:1 6721:1 7069:1 7193:1 7224:1 7251:1 7629:1 8708:1 8747:1 8951:1 8952:1 9227:1 9229:1 10135:1 10285:1 10328:1 10652:1 10809:1 10862:1 11095:1 11117:1 11715:1 12313:1 12356:1 12396:1 12409:1 13972:1 14083:1 14356:1 14373:1 15233:1 15868:1 17236:1 18257:1 18946:1 19416:1 20006:1 20096:1 21947:1 22719:1 23150:1 23461:1 24658:1 25472:1 26005:1 26352:1 26423:1 27898:1 27939:1 28455:1 28706:1 28991:1 29453:1 30653:1 31066:1 31180:1 32479:1 35111:1 
0.69551411196464907 1:1 4:1 5:1 7:1 8:1 10:1 13:1 18:1 20:1 21:1 29:1 48:1 51:1 52:1 54:1 81:1 82:1 91:1 143:1 194:1 196:1 258:1 295:1 337:1 418:1 535:1 605:1 644:1 756:1 991:1 1060:1 1078:1 1106:1 1407:1 1548:1 2056:1 2593:1 2652:1 3257:1 3610:1 4102:1 4106:1 4788:1 7079:1 7881:1 9201:1 9724:1 9865:1 10012:1 10015:1 12288:1 14215:1 18441:1 19757:1 21524:1 23329:1 30719:1 33135:1 
0.11821724863337363 1:1 3:1 4:1 5:1 8:1 9:1 12:1 13:1 14:1 15:1 16:1 18:1 19:1 20:1 23:1 26:1 36:1 53:1 57:1 58:1 61:1 62:1 66:1 84:1 139:1 142:1 164:1 181:1 189:1 194:1 201:1 276:1 286:1 304:1 309:1 313:1 318:1 323:1 378:1 390:1 418:1 447:1 450:1 479:1 507:1 529:1 535:1 540:1 570:1 573:1 579:1 610:1 686:1 688:1 714:1 860:1 865:1 1100:1 1148:1 1165:1 1219:1 1232:1 1235:1 1297:1 1453:1 2025:1 2035:1 2244:1 2366:1 2506:1 2593:1 2718:1 3391:1 3501:1 3512:1 3755:1 3817:1 3913:1 3986:1 4526:1 4788:1 4995:1 5020:1 5682:1 5861:1 5941:1 6384:1 6458:1 6736:1 7453:1 7470:1 7632:1 8434:1 8473:1 9991:1 10309:1 10409:1 10713:1 10809:1 10836:1 11249:1 11956:1 13948:1 14044:1 14055:1 14773:1 15066:1 15685:1 16680:1 18882:1 19264:1 19310:1 20198:1 20888:1 23329:1 23871:1 26131:1 26578:1 26885:1 28461:1 28800:1 29623:1 31980:1 32491:1 34410:1 34501:1 
0.098802064671213968 1:1 3:1 4:1 5:1 6:1 7:1 8:1 9:1 11:1 12:1 14:1 16:1 18:1 19:1 20:1 23:1 48:1 52:1 58:1 62:1 66:1 82:1 92:1 93:1 95:1 98:1 139:1 142:1 147:1 177:1 194:1 223:1 255:1 280:1 289:1 307:1 308:1 310:1 318:1 324:1 368:1 383:1 387:1 446:1 453:1 455:1 505:1 535:1 544:1 573:1 586:1 605:1 606:1 617:1 684:1 992:1 1073:1 1167:1 1232:1 1294:1 1422:1 1559:1 1572:1 1615:1 1652:1 2038:1 2082:1 2593:1 2911:1 3204:1 3432:1 3538:1 3725:1 3726:1 3779:1 3910:1 4019:1 4317:1 4447:1 4499:1 5093:1 5108:1 5109:1 5653:1 6014:1 6384:1 6525:1 6702:1 6704:1 6815:1 7417:1 9214:1 9827:1 10433:1 10434:1 10809:1 11204:1 11764:1 12313:1 12385:1 12591:1 14080:1 17246:1 18237:1 19026:1 19402:1 19404:1 20096:1 20326:1 21312:1 22379:1 22574:1 24289:1 24339:1 24340:1 26043:1 27232:1 28464:1 28994:1 29457:1 29466:1 29928:1 31828:1 
0.10151090706427245 1:1 3:1 4:1 5:1 6:1 8:1 9:1 13:1 15:1 19:1 23:1 26:1 39:1 47:1 48:1 53:1 67:1 82:1 99:1 139:1 151:1 177:1 183:1 206:1 271:1 276:1 285:1 309:1 317:1 323:1 413:1 479:1 493:1 573:1 575:1 699:1 726:1 902:1 989:1 993:1 1096:1 1100:1 1324:1 1423:1 1680:1 2020:1 2025:1 2034:1 2129:1 2396:1 2739:1 3382:1 3493:1 3744:1 3890:1 3989:1 5504:1 6384:1 6391:1 7558:1 7719:1 8700:1 9188:1 9238:1 9961:1 9992:1 11396:1 11789:1 12858:1 13940:1 14036:1 14467:1 15182:1 16734:1 18804:1 19215:1 21167:1 28447:1 28451:1 32312:1 32719:1 34981:1 
0.20473436550968363 1:1 2:1 5:1 7:1 9:1 12:1 13:1 14:1 18:1 19:1 26:1 49:1 51:1 57:1 82:1 83:1 95:1 118:1 177:1 194:1 239:1 304:1 323:1 387:1 422:1 469:1 536:1 575:1 710:1 1007:1 1046:1 1150:1 1408:1 1440:1 1629:1 1875:1 2594:1 3019:1 3990:1 4485:1 4832:1 5266:1 5877:1 6406:1 7587:1 9579:1 10327:1 11637:1 11898:1 12667:1 13566:1 16050:1 17520:1 21179:1 23459:1 24803:1 26599:1 28584:1 
0.43760140896623517 1:1 3:1 5:1 8:1 9:1 10:1 11:1 18:1 19:1 23:1 29:1 54:1 55:1 62:1 66:1 81:1 139:1 194:1 276:1 307:1 337:1 372:1 535:1 570:1 579:1 693:1 759:1 760:1 766:1 1106:1 1129:1 1230:1 1235:1 1300:1 2025:1 2593:1 3391:1 3725:1 4102:1 4358:1 6450:1 7514:1 7916:1 7938:1 7997:1 10012:1 10165:1 10829:1 11282:1 13948:1 18882:1 20088:1 22104:1 28750:1 32205:1 33575:1 
1 3:1 4:1 5:1 8:1 9:1 14:1 15:1 18:1 19:1 23:1 48:1 49:1 53:1 66:1 139:1 159:1 194:1 271:1 318:1 323:1 446:1 492:1 535:1 544:1 573:1 688:1 995:1 1021:1 1100:1 1297:1 2020:1 2191:1 2593:1 3910:1 3989:1 5480:1 6020:1 6384:1 7479:1 9270:1 9420:1 9992:1 11255:1 14645:1 21167:1 27281:1 28447:1 32077:1 
0.4135874399269347 7:1 9:1 12:1 15:1 19:1 23:1 51:1 66:1 256:1 304:1 313:1 378:1 490:1 493:1 579:1 688:1 1059:1 1297:1 3226:1 3817:1 5441:1 5514:1 6454:1 7480:1 9717:1 11256:1 18342:1 25521:1 28767:1 32088:1 
0.04411827811631789 1:1 4:1 5:1 6:1 7:1 9:1 11:1 12:1 13:1 14:1 21:1 26:1 29:1 39:1 48:1 50:1 51:1 53:1 57:1 64:1 95:1 142:1 166:1 177:1 236:1 239:1 304:1 317:1 355:1 383:1 413:1 422:1 450:1 457:1 469:1 652:1 710:1 757:1 897:1 907:1 998:1 1043:1 1046:1 1086:1 1150:1 1277:1 1629:1 2261:1 3003:1 3019:1 3890:1 4217:1 4431:1 4829:1 5020:1 5132:1 5266:1 7193:1 7587:1 7901:1 8640:1 8742:1 9303:1 9566:1 9579:1 10324:1 11095:1 12667:1 14804:1 17465:1 17520:1 23442:1 24425:1 24803:1 31066:1 33206:1 34815:1 35077:1 
0.64977711593304632 3:1 5:1 8:1 9:1 12:1 13:1 15:1 18:1 19:1 20:1 26:1 47:1 49:1 62:1 67:1 139:1 177:1 182:1 194:1 282:1 285:1 304:1 313:1 317:1 324:1 387:1 422:1 479:1 493:1 535:1 573:1 575:1 605:1 714:1 989:1 1007:1 1232:1 1234:1 1314:1 2031:1 2034:1 2387:1 2593:1 3450:1 3493:1 3833:1 3897:1 4010:1 4498:1 4821:1 5504:1 6384:1 6395:1 7635:1 9188:1 10809:1 10813:1 11348:1 14000:1 14036:1 15136:1 19075:1 19215:1 20609:1 20835:1 22570:1 28457:1 28509:1 32516:1 
0.69185607767108859 3:1 4:1 5:1 8:1 9:1 14:1 15:1 16:1 18:1 19:1 23:1 48:1 49:1 53:1 66:1 139:1 147:1 177:1 180:1 193:1 195:1 285:1 309:1 318:1 319:1 446:1 451:1 479:1 492:1 493:1 518:1 540:1 579:1 585:1 588:1 686:1 992:1 1022:1 1097:1 1296:1 2034:1 2097:1 2349:1 2588:1 2639:1 2642:1 3493:1 3744:1 3914:1 3940:1 5046:1 5049:1 5480:1 5504:1 5769:1 5953:1 6459:1 6508:1 6557:1 7450:1 9228:1 9444:1 9972:1 11234:1 14036:1 14372:1 15000:1 16031:1 16406:1 16427:1 19215:1 20900:1 20902:1 21018:1 24078:1 26393:1 27001:1 28808:1 29104:1 31968:1 
0.11041822199959833 1:1 2:1 3:1 4:1 5:1 7:1 8:1 9:1 12:1 13:1 14:1 15:1 18:1 20:1 21:1 22:1 23:1 29:1 36:1 48:1 51:1 52:1 53:1 56:1 57:1 64:1 65:1 66:1 83:1 111:1 139:1 142:1 147:1 177:1 182:1 191:1 194:1 196:1 255:1 276:1 295:1 304:1 409:1 418:1 450:1 451:1 479:1 496:1 535:1 536:1 543:1 605:1 610:1 652:1 675:1 688:1 759:1 761:1 846:1 992:1 1058:1 1078:1 1086:1 1143:1 1148:1 1277:1 1287:1 1297:1 1434:1 1803:1 2025:1 2087:1 2095:1 2389:1 2548:1 2593:1 2655:1 3202:1 3391:1 3613:1 3615:1 4703:1 4788:1 5020:1 5046:1 5545:1 5878:1 6002:1 6721:1 7193:1 7397:1 7470:1 7916:1 7953:1 8324:1 9219:1 9227:1 9699:1 9869:1 10267:1 10309:1 11095:1 11189:1 11249:1 11848:1 13948:1 14305:1 14356:1 15166:1 15868:1 16474:1 18215:1 18882:1 19773:1 19791:1 23077:1 23329:1 25694:1 26615:1 27180:1 31066:1 31773:1 34154:1 
0.4027608006143395 5:1 6:1 9:1 11:1 18:1 21:1 53:1 55:1 177:1 194:1 210:1 322:1 369:1 540:1 645:1 1099:1 1127:1 2598:1 2776:1 3965:1 4332:1 5937:1 7089:1 9986:1 10149:1 16096:1 16857:1 21078:1 22040:1 30765:1 
0.25861779465213036 1:1 4:1 5:1 7:1 9:1 12:1 13:1 14:1 18:1 19:1 29:1 36:1 48:1 51:1 57:1 58:1 62:1 82:1 98:1 99:1 142:1 143:1 177:1 239:1 250:1 304:1 403:1 418:1 475:1 535:1 570:1 575:1 579:1 760:1 847:1 991:1 1046:1 1054:1 1148:1 1175:1 1235:1 1422:1 1652:1 1676:1 2067:1 3010:1 3154:1 4671:1 4774:1 5323:1 6391:1 6447:1 7943:1 8325:1 9210:1 9572:1 9664:1 10300:1 10496:1 10827:1 11764:1 14254:1 17485:1 18077:1 23012:1 24953:1 33400:1 
0.046687431368331291 1:1 2:1 4:1 5:1 7:1 14:1 18:1 20:1 21:1 23:1 26:1 36:1 39:1 51:1 64:1 67:1 77:1 82:1 98:1 111:1 142:1 177:1 194:1 268:1 450:1 535:1 610:1 652:1 684:1 726:1 860:1 865:1 887:1 1066:1 1277:1 1324:1 1396:1 1422:1 1652:1 1819:1 2593:1 3327:1 5020:1 6721:1 7193:1 7417:1 7711:1 8434:1 8473:1 8563:1 9773:1 11095:1 11388:1 11611:1 11764:1 13343:1 18609:1 31066:1 31828:1 32686:1 34407:1 34501:1 34650:1 
0.049147187429780435 1:1 2:1 4:1 5:1 6:1 9:1 11:1 13:1 18:1 20:1 29:1 48:1 50:1 53:1 57:1 82:1 83:1 98:1 123:1 130:1 147:1 177:1 194:1 206:1 304:1 315:1 324:1 352:1 422:1 535:1 537:1 544:1 606:1 610:1 752:1 992:1 1029:1 1086:1 1150:1 1422:1 1445:1 1654:1 1911:1 1975:1 2082:1 2593:1 2740:1 3848:1 4011:1 4014:1 4833:1 5907:1 6017:1 6693:1 6736:1 7851:1 9214:1 9467:1 10328:1 11766:1 11916:1 12746:1 13671:1 13818:1 16738:1 21262:1 21281:1 23462:1 26778:1 27261:1 29422:1 29623:1 33040:1 
0.025306342226040324 1:1 2:1 3:1 4:1 5:1 7:1 8:1 9:1 12:1 13:1 14:1 15:1 18:1 19:1 20:1 21:1 22:1 29:1 45:1 48:1 51:1 52:1 53:1 61:1 62:1 64:1 65:1 81:1 82:1 83:1 93:1 94:1 95:1 111:1 139:1 142:1 147:1 177:1 184:1 196:1 243:1 246:1 271:1 272:1 295:1 323:1 396:1 413:1 450:1 451:1 453:1 493:1 496:1 497:1 549:1 550:1 570:1 573:1 588:1 605:1 651:1 652:1 675:1 743:1 953:1 962:1 992:1 1051:1 1070:1 1078:1 1100:1 1221:1 1230:1 1276:1 1277:1 1287:1 1407:1 1434:1 1581:1 1590:1 1615:1 1810:1 2020:1 2082:1 2422:1 2652:1 3056:1 3102:1 3340:1 3349:1 3351:1 3604:1 3989:1 4591:1 5020:1 5046:1 5082:1 5518:1 5550:1 5578:1 6090:1 6120:1 6384:1 6548:1 7168:1 7193:1 7396:1 8883:1 8960:1 9214:1 9635:1 9793:1 9859:1 9992:1 10744:1 11075:1 11095:1 11188:1 11853:1 12422:1 12583:1 13275:1 15313:1 17702:1 17914:1 17919:1 18626:1 18684:1 18700:1 21167:1 24235:1 25564:1 25722:1 25824:1 27507:1 27638:1 28447:1 31066:1 31763:1 
0.068183246441311046 1:1 3:1 4:1 5:1 7:1 8:1 9:1 12:1 13:1 14:1 15:1 18:1 19:1 20:1 21:1 23:1 30:1 48:1 49:1 53:1 56:1 57:1 64:1 70:1 88:1 99:1 139:1 142:1 157:1 177:1 190:1 191:1 243:1 271:1 289:1 323:1 324:1 379:1 413:1 422:1 446:1 450:1 479:1 493:1 535:1 573:1 605:1 627:1 652:1 684:1 782:1 787:1 994:1 1007:1 1018:1 1100:1 1134:1 1150:1 1277:1 1357:1 1501:1 1679:1 2020:1 2038:1 2177:1 2524:1 2544:1 3051:1 3558:1 3989:1 4010:1 4392:1 4833:1 5020:1 5504:1 6384:1 6937:1 7193:1 7420:1 8067:1 8110:1 9261:1 9397:1 9992:1 10190:1 10328:1 11095:1 11530:1 12096:1 12857:1 14100:1 14599:1 17646:1 19538:1 21167:1 22200:1 23461:1 28447:1 28464:1 30364:1 31066:1 31835:1 33806:1 
0.19098303334508565 3:1 5:1 8:1 9:1 13:1 16:1 18:1 19:1 20:1 30:1 49:1 57:1 60:1 139:1 190:1 194:1 276:1 324:1 413:1 422:1 518:1 535:1 561:1 573:1 605:1 623:1 784:1 1018:1 1150:1 1206:1 2025:1 2524:1 2593:1 3391:1 4010:1 4833:1 5774:1 6279:1 6384:1 6875:1 8096:1 9397:1 10328:1 10654:1 13948:1 18882:1 23461:1 26435:1 28159:1 28451:1 30155:1 33786:1 
0.1179638992817738 3:1 5:1 8:1 9:1 11:1 14:1 16:1 18:1 19:1 20:1 21:1 22:1 49:1 62:1 65:1 139:1 177:1 191:1 194:1 286:1 318:1 368:1 446:1 451:1 460:1 511:1 535:1 555:1 573:1 610:1 649:1 670:1 1019:1 1232:1 1285:1 2035:1 2544:1 2593:1 2613:1 3503:1 3922:1 4319:1 5061:1 5160:1 5720:1 6207:1 6384:1 6721:1 7151:1 7364:1 9405:1 10809:1 11164:1 14046:1 16294:1 19270:1 20966:1 22011:1 24147:1 24496:1 26242:1 27918:1 28461:1 30949:1 31681:1 
0.12376612326060543 3:1 4:1 5:1 6:1 7:1 8:1 9:1 10:1 13:1 14:1 15:1 18:1 19:1 20:1 23:1 26:1 29:1 30:1 48:1 49:1 54:1 57:1 62:1 66:1 139:1 157:1 177:1 182:1 183:1 194:1 201:1 230:1 256:1 271:1 289:1 307:1 311:1 323:1 338:1 418:1 453:1 481:1 535:1 570:1 575:1 614:1 686:1 693:1 705:1 752:1 780:1 994:1 1007:1 1012:1 1107:1 1148:1 1234:1 1296:1 1300:1 2020:1 2038:1 2168:1 2387:1 2410:1 2593:1 2712:1 2970:1 3217:1 3545:1 3725:1 3802:1 3986:1 4130:1 4788:1 5094:1 5364:1 6395:1 6788:1 7448:1 7504:1 7850:1 8059:1 9253:1 9372:1 10032:1 10309:1 10813:1 11232:1 11274:1 14087:1 14582:1 15136:1 15253:1 17395:1 19456:1 20096:1 20420:1 21570:1 23329:1 24291:1 25049:1 28509:1 29825:1 31964:1 32156:1 33032:1 33697:1 
0.08426147771789573 1:1 4:1 5:1 7:1 9:1 12:1 13:1 14:1 18:1 20:1 23:1 48:1 49:1 53:1 56:1 66:1 82:1 88:1 95:1 147:1 151:1 177:1 190:1 194:1 243:1 255:1 304:1 309:1 311:1 379:1 422:1 465:1 535:1 536:1 610:1 686:1 992:1 993:1 1018:1 1086:1 1134:1 1296:1 1413:1 1501:1 1625:1 2082:1 2129:1 2530:1 2593:1 3054:1 3202:1 3744:1 3801:1 4379:1 4825:1 5223:1 5889:1 6721:1 7450:1 9214:1 9238:1 9400:1 10182:1 11234:1 11677:1 12098:1 12647:1 14467:1 15793:1 17672:1 18220:1 20411:1 22137:1 23421:1 24666:1 26685:1 31968:1 
0.22150473113896213 1:1 2:1 3:1 5:1 8:1 9:1 14:1 18:1 49:1 58:1 82:1 84:1 111:1 139:1 177:1 194:1 273:1 304:1 447:1 544:1 1007:1 1165:1 1409:1 1453:1 1819:1 2022:1 2602:1 3362:1 4993:1 6008:1 10408:1 11643:1 11954:1 13352:1 13921:1 16149:1 18752:1 23853:1 
0.24010085100210746 2:1 3:1 4:1 5:1 6:1 7:1 8:1 9:1 14:1 15:1 18:1 19:1 26:1 29:1 39:1 47:1 48:1 49:1 50:1 51:1 58:1 61:1 62:1 67:1 69:1 111:1 139:1 142:1 147:1 177:1 179:1 184:1 194:1 205:1 236:1 238:1 256:1 285:1 287:1 304:1 308:1 309:1 310:1 313:1 455:1 479:1 540:1 544:1 573:1 579:1 705:1 743:1 890:1 989:1 992:1 1008:1 1043:1 1059:1 1167:1 1220:1 1232:1 1308:1 1335:1 1803:1 2034:1 2036:1 2082:1 2334:1 2415:1 2598:1 2994:1 3226:1 3480:1 3517:1 3726:1 3750:1 3765:1 3817:1 3822:1 5109:1 5937:1 6013:1 6016:1 6384:1 6454:1 8592:1 9189:1 9214:1 9351:1 9559:1 9717:1 10434:1 10731:1 10809:1 14027:1 14060:1 14935:1 16096:1 17433:1 18342:1 19336:1 20181:1 20496:1 24340:1 27218:1 27249:1 28460:1 28767:1 34712:1 
0.3008347638334159 1:1 2:1 3:1 4:1 5:1 7:1 8:1 9:1 12:1 14:1 19:1 21:1 23:1 29:1 46:1 48:1 51:1 53:1 62:1 66:1 95:1 115:1 139:1 142:1 177:1 189:1 239:1 243:1 271:1 290:1 304:1 307:1 318:1 378:1 446:1 453:1 573:1 644:1 693:1 757:1 975:1 990:1 1046:1 1086:1 1088:1 1232:1 1300:1 1615:1 1859:1 2020:1 2039:1 2494:1 3019:1 3037:1 3573:1 3725:1 3910:1 5082:1 6384:1 7074:1 7508:1 7893:1 9094:1 9579:1 9915:1 10809:1 11277:1 12583:1 13513:1 14114:1 17515:1 19602:1 20085:1 24222:1 28465:1 30676:1 32171:1 
0.033933496018964372 1:1 2:1 3:1 4:1 5:1 7:1 8:1 9:1 10:1 11:1 12:1 13:1 14:1 15:1 16:1 18:1 19:1 20:1 21:1 22:1 29:1 39:1 48:1 51:1 52:1 53:1 54:1 55:1 57:1 62:1 63:1 64:1 65:1 81:1 82:1 99:1 101:1 118:1 139:1 143:1 162:1 166:1 177:1 191:1 194:1 196:1 250:1 258:1 271:1 272:1 276:1 282:1 289:1 295:1 304:1 307:1 313:1 317:1 322:1 323:1 337:1 364:1 379:1 387:1 413:1 422:1 429:1 433:1 446:1 453:1 455:1 479:1 491:1 492:1 516:1 520:1 535:1 540:1 544:1 554:1 570:1 573:1 579:1 596:1 605:1 614:1 623:1 637:1 641:1 644:1 652:1 654:1 655:1 675:1 743:1 746:1 756:1 761:1 903:1 991:1 997:1 998:1 1060:1 1070:1 1078:1 1096:1 1100:1 1106:1 1125:1 1150:1 1235:1 1267:1 1277:1 1287:1 1407:1 1676:1 1725:1 1736:1 1875:1 2020:1 2025:1 2031:1 2038:1 2067:1 2234:1 2254:1 2260:1 2544:1 2602:1 2657:1 3147:1 3257:1 3357:1 3376:1 3391:1 3450:1 3537:1 3615:1 3725:1 3831:1 3903:1 3960:1 3979:1 3989:1 4103:1 4290:1 4394:1 4488:1 4831:1 4887:1 4920:1 5088:1 5113:1 5120:1 5474:1 5489:1 5749:1 5805:1 5950:1 6008:1 6173:1 6384:1 6450:1 6635:1 6782:1 6875:1 6895:1 7019:1 7041:1 7079:1 7196:1 7198:1 7226:1 7235:1 7387:1 7800:1 7877:1 7953:1 8715:1 9210:1 9293:1 9297:1 9302:1 9724:1 9798:1 9869:1 9968:1 9992:1 10013:1 10134:1 10326:1 10829:1 11044:1 11098:1 11181:1 13012:1 13055:1 13569:1 13935:1 13948:1 14000:1 14079:1 14254:1 14742:1 14799:1 16149:1 16489:1 18032:1 18441:1 18740:1 18889:1 19070:1 19791:1 20085:1 20088:1 20590:1 20864:1 21133:1 21167:1 21518:1 21939:1 22212:1 22500:1 23453:1 23627:1 23681:1 24268:1 24368:1 24397:1 25375:1 25431:1 26328:1 26492:1 26967:1 28447:1 28451:1 28464:1 28750:1 29295:1 30155:1 30215:1 30548:1 30589:1 30723:1 31094:1 31106:1 31194:1 31226:1 32862:1 35015:1 
0.0058561071014340957 1:1 2:1 3:1 4:1 5:1 7:1 8:1 9:1 14:1 18:1 19:1 20:1 22:1 29:1 45:1 46:1 48:1 51:1 52:1 53:1 58:1 61:1 65:1 81:1 82:1 83:1 95:1 98:1 99:1 111:1 115:1 139:1 143:1 147:1 177:1 194:1 239:1 271:1 272:1 289:1 304:1 307:1 309:1 450:1 455:1 535:1 553:1 560:1 570:1 573:1 605:1 606:1 670:1 746:1 953:1 975:1 991:1 1046:1 1070:1 1088:1 1167:1 1223:1 1285:1 1422:1 1434:1 1612:1 1652:1 1676:1 1819:1 1848:1 2020:1 2038:1 2067:1 2082:1 2593:1 2611:1 3010:1 3339:1 3537:1 3538:1 3725:1 3744:1 5025:1 5110:1 6154:1 6259:1 6384:1 6704:1 7364:1 7800:1 8883:1 9084:1 9210:1 9572:1 9784:1 9915:1 10435:1 10762:1 11164:1 11764:1 11860:1 12553:1 13343:1 14079:1 14080:1 14254:1 16251:1 17485:1 19404:1 20085:1 23976:1 24344:1 27732:1 28092:1 28464:1 29465:1 31679:1 32866:1 
1 5:1 19:1 49:1 195:1 570:1 1022:1 2625:1 9440:1 
0.00013949809881185263 1:1 3:1 4:1 5:1 6:1 7:1 8:1 9:1 12:1 13:1 14:1 15:1 18:1 19:1 20:1 21:1 22:1 23:1 29:1 30:1 36:1 41:1 45:1 47:1 49:1 50:1 51:1 53:1 58:1 59:1 62:1 64:1 65:1 66:1 82:1 93:1 98:1 139:1 147:1 182:1 184:1 190:1 194:1 195:1 196:1 205:1 229:1 238:1 239:1 256:1 271:1 285:1 287:1 304:1 309:1 313:1 323:1 378:1 413:1 475:1 479:1 482:1 485:1 491:1 535:1 540:1 544:1 570:1 573:1 575:1 579:1 585:1 605:1 645:1 675:1 694:1 755:1 782:1 867:1 924:1 937:1 961:1 989:1 1018:1 1022:1 1038:1 1059:1 1100:1 1175:1 1182:1 1232:1 1234:1 1238:1 1272:1 1287:1 1301:1 1422:1 1563:1 1652:1 2020:1 2034:1 2036:1 2098:1 2387:1 2415:1 2524:1 2593:1 2625:1 2652:1 2960:1 3010:1 3226:1 3480:1 3517:1 3750:1 3817:1 3989:1 5331:1 5368:1 5398:1 5463:1 5954:1 6013:1 6384:1 6395:1 6454:1 6512:1 7084:1 7394:1 7522:1 7864:1 8072:1 8480:1 8493:1 8808:1 8844:1 8943:1 9189:1 9397:1 9440:1 9536:1 9717:1 9992:1 10502:1 10523:1 10809:1 10813:1 10850:1 11051:1 11186:1 11289:1 11764:1 14027:1 14060:1 14373:1 15136:1 17359:1 17485:1 18342:1 19336:1 20181:1 21167:1 24981:1 25070:1 25136:1 27005:1 27218:1 28447:1 28460:1 28509:1 28767:1 28945:1 31749:1 32221:1 33726:1 34511:1 34547:1 35205:1 35255:1 
0.52059597323149909 1:1 4:1 5:1 7:1 8:1 13:1 14:1 15:1 18:1 19:1 21:1 29:1 45:1 48:1 51:1 52:1 57:1 61:1 64:1 82:1 94:1 99:1 142:1 177:1 182:1 194:1 243:1 255:1 256:1 295:1 413:1 418:1 426:1 428:1 450:1 496:1 535:1 536:1 540:1 542:1 575:1 652:1 756:1 962:1 990:1 1058:1 1059:1 1078:1 1152:1 1219:1 1277:1 1423:1 1590:1 1680:1 2372:1 2593:1 3037:1 3202:1 3222:1 3610:1 4788:1 4851:1 4875:1 5020:1 5544:1 5877:1 5942:1 5980:1 6391:1 6395:1 7193:1 7886:1 8960:1 9699:1 9716:1 9865:1 10338:1 10714:1 11095:1 11789:1 12858:1 18214:1 18314:1 19759:1 23329:1 23513:1 23578:1 25682:1 26609:1 26887:1 27085:1 28502:1 31066:1 33152:1 
1 1:1 3:1 4:1 7:1 8:1 9:1 18:1 19:1 20:1 36:1 48:1 51:1 53:1 74:1 99:1 139:1 143:1 256:1 271:1 289:1 304:1 307:1 313:1 323:1 544:1 570:1 573:1 579:1 622:1 859:1 865:1 991:1 1059:1 1100:1 1386:1 1676:1 2020:1 2038:1 2067:1 3226:1 3553:1 3725:1 3817:1 3819:1 3989:1 6016:1 6384:1 6454:1 6862:1 8426:1 8472:1 9210:1 9717:1 9992:1 11590:1 14095:1 14254:1 18342:1 19498:1 20085:1 20484:1 21167:1 27246:1 28447:1 28464:1 28767:1 30085:1 34390:1 34493:1 
0.010810474239942372 1:1 2:1 3:1 4:1 5:1 7:1 8:1 9:1 13:1 14:1 18:1 19:1 20:1 21:1 26:1 29:1 45:1 46:1 48:1 53:1 57:1 62:1 64:1 95:1 99:1 100:1 115:1 130:1 139:1 143:1 147:1 177:1 184:1 186:1 191:1 194:1 246:1 271:1 276:1 289:1 304:1 307:1 318:1 324:1 329:1 418:1 422:1 446:1 450:1 451:1 549:1 570:1 573:1 605:1 606:1 651:1 710:1 752:1 963:1 975:1 981:1 991:1 992:1 1086:1 1088:1 1150:1 1232:1 1276:1 1612:1 1676:1 1697:1 1859:1 1975:1 2020:1 2038:1 2067:1 2082:1 2098:1 2422:1 2468:1 2544:1 2607:1 3103:1 3385:1 3538:1 3725:1 3910:1 4010:1 4069:1 4780:1 4833:1 5025:1 5046:1 6090:1 6384:1 6708:1 7173:1 7601:1 7852:1 8976:1 9094:1 9148:1 9210:1 9214:1 9915:1 10328:1 10809:1 11079:1 12553:1 13513:1 13819:1 14080:1 14254:1 14387:1 15314:1 15531:1 16207:1 17923:1 18832:1 19407:1 20085:1 21461:1 23288:1 23461:1 23987:1 27507:1 28464:1 29489:1 31005:1 32411:1 33048:1 
1 1:1 3:1 4:1 5:1 6:1 7:1 8:1 9:1 13:1 14:1 15:1 19:1 20:1 45:1 48:1 49:1 52:1 53:1 57:1 81:1 82:1 88:1 95:1 99:1 139:1 143:1 177:1 195:1 196:1 206:1 243:1 244:1 271:1 276:1 323:1 418:1 453:1 479:1 493:1 570:1 573:1 585:1 605:1 952:1 966:1 991:1 1022:1 1071:1 1100:1 1148:1 1413:1 1502:1 1615:1 1676:1 1688:1 2020:1 2055:1 2067:1 2639:1 2652:1 2748:1 3037:1 3060:1 3393:1 3989:1 4774:1 5082:1 5504:1 6384:1 6508:1 6517:1 8865:1 9017:1 9200:1 9210:1 9444:1 9813:1 9992:1 10300:1 11678:1 12102:1 12583:1 12887:1 14254:1 16409:1 16760:1 17728:1 18905:1 21167:1 24222:1 28447:1 28966:1 
0.52326132065085251 1:1 3:1 4:1 5:1 7:1 8:1 9:1 13:1 14:1 16:1 18:1 19:1 20:1 21:1 36:1 48:1 51:1 58:1 62:1 74:1 82:1 98:1 139:1 159:1 177:1 194:1 239:1 271:1 307:1 309:1 313:1 413:1 455:1 507:1 517:1 535:1 554:1 555:1 579:1 605:1 651:1 857:1 995:1 1046:1 1167:1 1235:1 1382:1 1422:1 1652:1 2020:1 2194:1 2612:1 3010:1 3725:1 3744:1 3819:1 5110:1 5678:1 5758:1 6173:1 6209:1 6454:1 7168:1 8409:1 9273:1 9572:1 10435:1 10833:1 11584:1 11764:1 14660:1 16269:1 17485:1 20085:1 20484:1 24344:1 26123:1 26358:1 27922:1 28769:1 34355:1 
0.10445084232396304 1:1 2:1 3:1 4:1 5:1 6:1 7:1 8:1 9:1 14:1 15:1 18:1 19:1 23:1 29:1 36:1 39:1 45:1 50:1 53:1 58:1 62:1 69:1 74:1 83:1 84:1 111:1 139:1 164:1 177:1 191:1 194:1 206:1 236:1 243:1 271:1 309:1 310:1 322:1 323:1 450:1 461:1 479:1 535:1 542:1 570:1 573:1 686:1 752:1 852:1 901:1 953:1 1043:1 1099:1 1100:1 1169:1 1230:1 1341:1 1379:1 1434:1 1453:1 1819:1 2020:1 2244:1 2547:1 2593:1 2741:1 2999:1 3051:1 3744:1 3766:1 3967:1 3986:1 3989:1 5040:1 5168:1 5980:1 6384:1 7450:1 7839:1 8362:1 8680:1 8883:1 9564:1 9987:1 9992:1 10446:1 11448:1 11578:1 11860:1 11952:1 13343:1 14772:1 15863:1 16740:1 17452:1 17649:1 20273:1 21091:1 21167:1 24059:1 27092:1 28447:1 31968:1 32971:1 34242:1 
0.044016704955212711 1:1 3:1 4:1 5:1 8:1 9:1 12:1 13:1 14:1 15:1 18:1 19:1 20:1 53:1 56:1 57:1 58:1 61:1 62:1 81:1 82:1 139:1 142:1 147:1 177:1 181:1 271:1 307:1 308:1 313:1 322:1 324:1 379:1 422:1 455:1 479:1 493:1 535:1 540:1 585:1 605:1 1088:1 1134:1 1150:1 1167:1 1219:1 1238:1 1407:1 2020:1 2082:1 2355:1 3725:1 3726:1 3831:1 3960:1 4010:1 4379:1 4826:1 4833:1 5109:1 5504:1 5941:1 6517:1 9915:1 10182:1 10321:1 10328:1 10434:1 10713:1 10855:1 15017:1 20085:1 20575:1 22133:1 23430:1 23461:1 24340:1 26877:1 28966:1 
0.13087942601777983 1:1 4:1 5:1 6:1 9:1 11:1 12:1 13:1 15:1 16:1 18:1 19:1 29:1 55:1 62:1 69:1 94:1 147:1 181:1 194:1 217:1 309:1 353:1 387:1 429:1 479:1 508:1 535:1 585:1 743:1 1119:1 1238:1 1335:1 1601:1 2098:1 2355:1 2593:1 2847:1 3747:1 4202:1 4490:1 4883:1 5690:1 6508:1 10090:1 10846:1 12514:1 14373:1 15025:1 17076:1 20168:1 21699:1 22510:1 23615:1 26154:1 
0.093549780716346898 1:1 3:1 4:1 5:1 6:1 7:1 8:1 9:1 12:1 14:1 18:1 19:1 20:1 21:1 23:1 29:1 45:1 48:1 49:1 51:1 64:1 66:1 82:1 87:1 93:1 98:1 139:1 142:1 151:1 166:1 177:1 181:1 189:1 194:1 196:1 205:1 224:1 243:1 256:1 272:1 309:1 311:1 313:1 322:1 383:1 396:1 397:1 450:1 539:1 540:1 547:1 554:1 570:1 573:1 575:1 577:1 605:1 610:1 645:1 652:1 656:1 686:1 759:1 952:1 993:1 998:1 1021:1 1059:1 1272:1 1277:1 1279:1 1296:1 1422:1 1488:1 1582:1 1670:1 2021:1 2129:1 2131:1 2263:1 2356:1 2512:1 2605:1 2652:1 2917:1 3056:1 3220:1 3222:1 3344:1 3349:1 3744:1 3789:1 3831:1 3964:1 4434:1 4594:1 4610:1 5020:1 5915:1 5937:1 6056:1 6173:1 6384:1 6402:1 6434:1 6738:1 7084:1 7193:1 7251:1 7258:1 7453:1 7921:1 8873:1 9238:1 9304:1 9429:1 9716:1 11051:1 11095:1 11117:1 11123:1 11236:1 11781:1 12059:1 12431:1 12830:1 13908:1 13911:1 14467:1 14479:1 14813:1 15032:1 15718:1 16184:1 17702:1 18308:1 18318:1 18654:1 18685:1 20362:1 20578:1 21074:1 22312:1 22821:1 22859:1 27400:1 28448:1 28560:1 28709:1 29659:1 31066:1 31333:1 31988:1 33291:1 
0.16646212363496615 1:1 2:1 4:1 7:1 9:1 14:1 18:1 19:1 20:1 21:1 26:1 29:1 46:1 48:1 51:1 53:1 64:1 81:1 115:1 143:1 255:1 256:1 304:1 313:1 318:1 446:1 469:1 560:1 577:1 579:1 605:1 656:1 658:1 723:1 757:1 975:1 991:1 1059:1 1086:1 1280:1 1859:1 2055:1 3209:1 3226:1 3817:1 3910:1 5274:1 6266:1 6433:1 6454:1 7258:1 7309:1 7687:1 7907:1 9094:1 9200:1 9717:1 11144:1 13513:1 18266:1 18342:1 24842:1 28123:1 28707:1 28767:1 31332:1 31553:1 33250:1 
0.098642042716979822 1:1 4:1 9:1 12:1 14:1 15:1 19:1 20:1 29:1 62:1 82:1 95:1 100:1 143:1 324:1 382:1 455:1 490:1 571:1 585:1 588:1 605:1 623:1 629:1 761:1 766:1 1231:1 1424:1 1617:1 1697:1 2056:1 4031:1 4414:1 5121:1 5444:1 6364:1 6514:1 6563:1 6889:1 6966:1 7958:1 7999:1 10804:1 11799:1 12608:1 14223:1 21380:1 22269:1 24410:1 25246:1 28386:1 28949:1 29127:1 30204:1 30451:1 33451:1 33604:1 
0.12784560271299311 1:1 2:1 4:1 5:1 7:1 8:1 9:1 14:1 15:1 18:1 19:1 20:1 21:1 23:1 29:1 39:1 48:1 51:1 52:1 58:1 62:1 64:1 66:1 82:1 98:1 99:1 125:1 142:1 143:1 177:1 179:1 239:1 256:1 276:1 295:1 302:1 304:1 324:1 450:1 461:1 479:1 485:1 535:1 540:1 570:1 585:1 596:1 605:1 652:1 686:1 752:1 759:1 903:1 991:1 1059:1 1071:1 1078:1 1084:1 1169:1 1238:1 1277:1 1296:1 1422:1 1652:1 1676:1 1933:1 2067:1 2341:1 3010:1 3241:1 3378:1 3613:1 3688:1 4010:1 5020:1 5168:1 5398:1 5937:1 6512:1 6637:1 7193:1 7446:1 7851:1 7921:1 8708:1 9210:1 9720:1 9801:1 9867:1 9908:1 10446:1 10850:1 11095:1 11230:1 11764:1 14254:1 14973:1 17485:1 18403:1 18783:1 19776:1 19977:1 25136:1 28945:1 29305:1 31066:1 33038:1 33291:1 
1 15:1 23:1 66:1 479:1 688:1 1297:1 7470:1 11249:1 
0.02614789500831935 1:1 3:1 4:1 5:1 8:1 9:1 13:1 14:1 15:1 19:1 20:1 21:1 23:1 29:1 48:1 49:1 52:1 53:1 62:1 66:1 95:1 139:1 142:1 151:1 177:1 199:1 271:1 295:1 307:1 309:1 414:1 446:1 450:1 460:1 465:1 492:1 583:1 588:1 590:1 605:1 656:1 686:1 688:1 693:1 757:1 766:1 993:1 1026:1 1078:1 1088:1 1242:1 1296:1 1297:1 1621:1 2020:1 2129:1 2705:1 3611:1 3725:1 3744:1 4751:1 5020:1 5157:1 5219:1 5480:1 6496:1 6561:1 6606:1 7268:1 7450:1 7479:1 7514:1 7893:1 7895:1 7906:1 7996:1 9238:1 9458:1 9866:1 9915:1 10878:1 11234:1 11255:1 12627:1 14467:1 16648:1 19762:1 19763:1 20085:1 23199:1 28905:1 29121:1 29234:1 31382:1 31968:1 32077:1 32204:1 33169:1 33229:1 33574:1 
0.12093675818148951 3:1 4:1 5:1 8:1 9:1 12:1 14:1 15:1 19:1 20:1 22:1 23:1 29:1 53:1 65:1 66:1 139:1 154:1 195:1 271:1 289:1 307:1 323:1 387:1 450:1 479:1 573:1 629:1 670:1 688:1 757:1 1100:1 1285:1 1297:1 2020:1 2038:1 2155:1 2628:1 3560:1 3725:1 3989:1 4488:1 5031:1 6384:1 6961:1 7365:1 7470:1 7895:1 9992:1 11165:1 11249:1 14102:1 14559:1 16368:1 19551:1 20085:1 21167:1 22500:1 24019:1 28447:1 28464:1 30427:1 31691:1 33173:1 
1 1:1 4:1 5:1 9:1 14:1 15:1 18:1 19:1 20:1 21:1 22:1 45:1 53:1 62:1 64:1 99:1 142:1 182:1 191:1 194:1 313:1 318:1 326:1 450:1 464:1 465:1 479:1 535:1 575:1 579:1 585:1 610:1 652:1 667:1 966:1 1097:1 1234:1 1277:1 1688:1 2387:1 2560:1 2593:1 3835:1 3927:1 4050:1 5020:1 5205:1 5223:1 6395:1 6454:1 6508:1 6733:1 7193:1 9017:1 9980:1 10813:1 11095:1 12887:1 15136:1 15933:1 20627:1 20988:1 24615:1 24673:1 28509:1 28780:1 29617:1 31066:1 
0.14709281355378975 1:1 3:1 4:1 5:1 8:1 9:1 11:1 12:1 15:1 18:1 19:1 20:1 23:1 36:1 39:1 48:1 63:1 74:1 92:1 99:1 139:1 143:1 151:1 174:1 177:1 180:1 186:1 271:1 276:1 285:1 289:1 304:1 307:1 313:1 355:1 393:1 497:1 501:1 544:1 570:1 573:1 582:1 622:1 623:1 684:1 859:1 865:1 903:1 991:1 993:1 1005:1 1259:1 1386:1 1553:1 1676:1 2020:1 2025:1 2034:1 2038:1 2067:1 2124:1 2316:1 2349:1 2451:1 3376:1 3379:1 3496:1 3553:1 3725:1 3819:1 4222:1 4574:1 5574:1 5627:1 6016:1 6384:1 6488:1 6862:1 6875:1 7422:1 8426:1 8472:1 8715:1 9210:1 9235:1 9347:1 10996:1 11590:1 12301:1 13935:1 13937:1 14039:1 14095:1 14254:1 14903:1 15000:1 18787:1 19239:1 19498:1 20085:1 20484:1 21747:1 22792:1 25816:1 25984:1 27246:1 28451:1 28464:1 28890:1 30085:1 30155:1 31850:1 34390:1 34493:1 35015:1 
0.022349475909452868 1:1 2:1 3:1 5:1 6:1 7:1 8:1 9:1 12:1 13:1 15:1 18:1 19:1 20:1 21:1 45:1 46:1 49:1 51:1 53:1 62:1 63:1 82:1 88:1 94:1 99:1 115:1 139:1 189:1 194:1 214:1 238:1 256:1 271:1 304:1 313:1 317:1 323:1 384:1 413:1 418:1 479:1 535:1 570:1 573:1 579:1 585:1 590:1 606:1 651:1 962:1 966:1 975:1 1017:1 1059:1 1096:1 1100:1 1242:1 1253:1 1413:1 1496:1 1590:1 1688:1 1862:1 2020:1 2500:1 2593:1 2824:1 3226:1 3817:1 3890:1 3986:1 3989:1 4457:1 4788:1 6384:1 6454:1 6508:1 6602:1 6693:1 7173:1 8960:1 9017:1 9097:1 9392:1 9717:1 9961:1 9992:1 10874:1 10930:1 11672:1 12887:1 13522:1 15652:1 18342:1 21167:1 22435:1 23329:1 28447:1 28767:1 29217:1 29418:1 31010:1 
0.01406384162107654 1:1 4:1 5:1 9:1 11:1 13:1 14:1 15:1 16:1 18:1 19:1 20:1 26:1 29:1 48:1 55:1 57:1 62:1 67:1 95:1 97:1 147:1 177:1 182:1 194:1 196:1 304:1 313:1 324:1 364:1 418:1 422:1 429:1 455:1 479:1 491:1 505:1 507:1 517:1 540:1 550:1 571:1 605:1 610:1 728:1 756:1 992:1 1125:1 1150:1 1231:1 1325:1 1617:1 1646:1 2087:1 2389:1 2598:1 2608:1 2652:1 3817:1 4014:1 4290:1 4774:1 4833:1 4881:1 5113:1 5472:1 5655:1 5678:1 5758:1 5937:1 6104:1 6366:1 6736:1 7732:1 7881:1 9219:1 10134:1 10328:1 10805:1 11402:1 12603:1 12712:1 14305:1 15164:1 16096:1 16216:1 21281:1 21938:1 23465:1 23599:1 24360:1 25371:1 26049:1 26120:1 26358:1 28395:1 29628:1 32740:1 33125:1 
0.13358831941934901 1:1 2:1 3:1 4:1 5:1 7:1 8:1 9:1 14:1 15:1 18:1 19:1 20:1 21:1 23:1 29:1 45:1 48:1 49:1 51:1 52:1 53:1 62:1 63:1 64:1 66:1 81:1 111:1 139:1 142:1 166:1 177:1 191:1 194:1 256:1 271:1 285:1 289:1 295:1 304:1 307:1 313:1 323:1 446:1 450:1 479:1 492:1 493:1 496:1 498:1 535:1 537:1 540:1 573:1 579:1 605:1 620:1 652:1 688:1 752:1 759:1 951:1 998:1 1021:1 1059:1 1078:1 1100:1 1235:1 1257:1 1277:1 1297:1 1803:1 2020:1 2034:1 2038:1 2263:1 2544:1 2593:1 3220:1 3226:1 3493:1 3551:1 3608:1 3725:1 3817:1 3989:1 5020:1 5480:1 5504:1 5520:1 5539:1 5584:1 5899:1 5950:1 6384:1 6447:1 6454:1 6848:1 6850:1 7193:1 7479:1 7836:1 7921:1 9304:1 9420:1 9715:1 9717:1 9863:1 9992:1 10827:1 10979:1 11095:1 11255:1 14036:1 14093:1 14813:1 18308:1 18342:1 19215:1 19492:1 19742:1 20094:1 21167:1 25589:1 25647:1 26729:1 26967:1 28447:1 28464:1 28767:1 30019:1 30027:1 31066:1 32077:1 32955:1 33296:1 
0.011078936550825546 1:1 2:1 3:1 4:1 5:1 7:1 8:1 9:1 14:1 15:1 16:1 18:1 19:1 20:1 21:1 26:1 29:1 45:1 48:1 51:1 52:1 53:1 58:1 60:1 62:1 64:1 95:1 111:1 139:1 147:1 151:1 166:1 177:1 182:1 194:1 195:1 239:1 256:1 271:1 289:1 295:1 304:1 309:1 446:1 450:1 460:1 461:1 469:1 479:1 521:1 540:1 553:1 570:1 573:1 575:1 577:1 605:1 625:1 641:1 655:1 656:1 658:1 705:1 757:1 761:1 963:1 993:1 998:1 1046:1 1078:1 1086:1 1169:1 1208:1 1230:1 1280:1 1612:1 1629:1 1803:1 2020:1 2038:1 2098:1 2129:1 2261:1 2372:1 2611:1 2628:1 3019:1 3222:1 3556:1 3615:1 3744:1 5025:1 5157:1 5168:1 5263:1 5823:1 5953:1 6154:1 6384:1 6395:1 6434:1 6917:1 7039:1 7235:1 7258:1 7308:1 7309:1 7903:1 7953:1 8976:1 9238:1 9303:1 9579:1 9869:1 10446:1 10674:1 11144:1 12553:1 12664:1 14098:1 14391:1 14467:1 14805:1 16251:1 16368:1 17520:1 18314:1 19524:1 19791:1 23987:1 26522:1 26996:1 27732:1 28447:1 28464:1 28502:1 28710:1 30290:1 30581:1 31228:1 31333:1 31534:1 31553:1 33217:1 
0.038898642644168535 1:1 3:1 4:1 5:1 6:1 7:1 8:1 9:1 11:1 12:1 13:1 16:1 18:1 19:1 29:1 36:1 48:1 49:1 51:1 62:1 74:1 93:1 99:1 139:1 143:1 172:1 177:1 188:1 190:1 211:1 214:1 243:1 256:1 287:1 288:1 304:1 307:1 313:1 323:1 361:1 378:1 387:1 414:1 511:1 517:1 540:1 541:1 570:1 573:1 579:1 596:1 750:1 857:1 858:1 991:1 1003:1 1018:1 1059:1 1232:1 1244:1 1382:1 1563:1 1676:1 2036:1 2037:1 2067:1 2300:1 2483:1 2525:1 2789:1 2824:1 3037:1 3226:1 3516:1 3524:1 3725:1 3817:1 3986:1 4271:1 4488:1 4749:1 5723:1 5759:1 5947:1 5962:1 6384:1 6454:1 6636:1 7819:1 8409:1 8415:1 9210:1 9334:1 9398:1 9717:1 10809:1 10885:1 11584:1 14059:1 14066:1 14254:1 14865:1 15581:1 15768:1 16915:1 18342:1 19332:1 20095:1 21897:1 22500:1 23185:1 26250:1 26364:1 26946:1 27040:1 28462:1 28767:1 29297:1 32904:1 34356:1 34369:1 
0.059222503305826964 1:1 2:1 3:1 5:1 7:1 8:1 9:1 12:1 13:1 14:1 15:1 18:1 20:1 23:1 26:1 29:1 51:1 67:1 82:1 84:1 93:1 115:1 139:1 191:1 194:1 243:1 280:1 304:1 313:1 316:1 324:1 391:1 414:1 428:1 451:1 480:1 536:1 614:1 693:1 726:1 752:1 1048:1 1324:1 1418:1 1453:1 1576:1 1855:1 2029:1 2548:1 2594:1 3051:1 3415:1 3827:1 3878:1 4018:1 4543:1 4547:1 4742:1 4868:1 5061:1 5355:1 5877:1 6782:1 7504:1 7716:1 7851:1 9598:1 11393:1 11721:1 11960:1 12407:1 13494:1 13969:1 15878:1 16050:1 17650:1 20544:1 20791:1 21303:1 22700:1 22709:1 23167:1 23549:1 24148:1 25034:1 26605:1 32157:1 32707:1 33043:1 
0.056915538120992822 1:1 2:1 3:1 4:1 5:1 7:1 8:1 9:1 12:1 13:1 14:1 18:1 19:1 20:1 21:1 29:1 36:1 45:1 46:1 47:1 48:1 52:1 53:1 62:1 64:1 74:1 93:1 94:1 115:1 139:1 142:1 147:1 151:1 177:1 194:1 238:1 282:1 284:1 295:1 304:1 308:1 311:1 313:1 322:1 323:1 397:1 403:1 422:1 450:1 455:1 535:1 540:1 544:1 570:1 573:1 579:1 605:1 610:1 652:1 656:1 752:1 761:1 852:1 961:1 962:1 975:1 989:1 993:1 1078:1 1099:1 1232:1 1235:1 1277:1 1279:1 1379:1 1582:1 1596:1 1848:1 2031:1 2033:1 2098:1 2124:1 2593:1 2602:1 3454:1 3473:1 3615:1 3728:1 3786:1 3820:1 3965:1 3986:1 4610:1 4665:1 4825:1 5020:1 5113:1 5952:1 6008:1 6384:1 6447:1 6721:1 7193:1 7251:1 7837:1 7953:1 8362:1 8955:1 8963:1 9084:1 9186:1 9235:1 9869:1 9986:1 10809:1 10827:1 11095:1 11117:1 11578:1 12431:1 12492:1 14004:1 14020:1 14373:1 14382:1 16149:1 19094:1 19157:1 19791:1 20114:1 20486:1 21086:1 22851:1 22986:1 23417:1 24362:1 26982:1 28459:1 31066:1 32957:1 34242:1 
0.4218849721018515 1:1 4:1 5:1 7:1 9:1 14:1 26:1 48:1 51:1 95:1 151:1 177:1 239:1 304:1 309:1 313:1 469:1 714:1 993:1 1046:1 1629:1 2129:1 3019:1 3744:1 3817:1 5270:1 7635:1 9238:1 9579:1 12669:1 14467:1 17520:1 24830:1 32507:1 
0.0024877160536529814 1:1 4:1 5:1 6:1 7:1 14:1 15:1 18:1 20:1 23:1 36:1 51:1 58:1 66:1 98:1 142:1 147:1 177:1 196:1 222:1 239:1 243:1 244:1 475:1 493:1 496:1 535:1 539:1 566:1 605:1 688:1 847:1 850:1 865:1 1046:1 1049:1 1175:1 1297:1 1652:1 2082:1 2652:1 2897:1 3020:1 3056:1 3065:1 5323:1 5518:1 5541:1 5918:1 6319:1 7480:1 8325:1 8341:1 8467:1 9580:1 9610:1 10496:1 11256:1 17220:1 17521:1 17702:1 17752:1 24953:1 25556:1 25655:1 26817:1 28240:1 32090:1 34188:1 34466:1 
0.072227490893753674 4:1 5:1 7:1 8:1 14:1 15:1 18:1 20:1 21:1 23:1 29:1 49:1 51:1 52:1 64:1 66:1 142:1 194:1 260:1 295:1 446:1 450:1 465:1 492:1 493:1 535:1 605:1 652:1 688:1 761:1 1021:1 1061:1 1078:1 1277:1 1297:1 2593:1 3272:1 3615:1 5020:1 5219:1 5480:1 5498:1 5516:1 7193:1 7479:1 7480:1 7953:1 9420:1 9733:1 9869:1 11095:1 11255:1 18496:1 19791:1 25471:1 25547:1 31066:1 32077:1 32089:1 
1 1:1 3:1 4:1 7:1 8:1 9:1 13:1 14:1 19:1 20:1 21:1 29:1 45:1 48:1 51:1 52:1 53:1 64:1 84:1 99:1 139:1 142:1 143:1 251:1 271:1 289:1 295:1 307:1 414:1 450:1 570:1 605:1 652:1 757:1 966:1 991:1 1055:1 1078:1 1088:1 1277:1 1453:1 1676:1 2020:1 2038:1 2067:1 3161:1 3537:1 3611:1 3725:1 4742:1 5020:1 7193:1 7895:1 9012:1 9210:1 9671:1 9866:1 9915:1 11095:1 11967:1 14079:1 14254:1 18102:1 19763:1 20085:1 23167:1 31066:1 33169:1 
1 1:1 3:1 4:1 8:1 14:1 15:1 19:1 20:1 39:1 48:1 52:1 58:1 62:1 82:1 99:1 100:1 139:1 143:1 289:1 302:1 461:1 479:1 570:1 573:1 605:1 606:1 903:1 991:1 1084:1 1169:1 1232:1 1424:1 1676:1 1697:1 2038:1 2067:1 3538:1 3688:1 5168:1 6384:1 6693:1 8708:1 9210:1 9908:1 10446:1 10809:1 11799:1 14080:1 14254:1 19395:1 19977:1 28464:1 29424:1 
0.1393214881679597 1:1 3:1 4:1 5:1 8:1 9:1 14:1 19:1 20:1 22:1 36:1 48:1 53:1 62:1 65:1 99:1 139:1 142:1 143:1 195:1 271:1 289:1 304:1 323:1 450:1 570:1 573:1 579:1 635:1 670:1 856:1 991:1 1100:1 1235:1 1285:1 1676:1 2020:1 2038:1 2067:1 2628:1 3565:1 3989:1 5020:1 6384:1 6447:1 6993:1 7365:1 8396:1 9210:1 9992:1 10827:1 11165:1 14107:1 14254:1 16368:1 19572:1 21167:1 28447:1 28464:1 30487:1 31691:1 34311:1 
0.073430967418032941 1:1 2:1 3:1 4:1 5:1 6:1 7:1 8:1 9:1 12:1 14:1 18:1 19:1 20:1 21:1 23:1 39:1 46:1 48:1 53:1 58:1 64:1 87:1 95:1 100:1 111:1 115:1 139:1 142:1 147:1 151:1 194:1 199:1 211:1 219:1 238:1 256:1 271:1 289:1 307:1 311:1 316:1 323:1 382:1 387:1 447:1 450:1 455:1 535:1 547:1 572:1 573:1 588:1 606:1 624:1 637:1 656:1 658:1 684:1 901:1 907:1 973:1 990:1 992:1 1100:1 1165:1 1280:1 1481:1 1612:1 1712:1 1824:1 1857:1 2020:1 2038:1 2098:1 2131:1 2593:1 2700:1 2792:1 2864:1 3235:1 3538:1 3725:1 3786:1 3802:1 3869:1 3989:1 4419:1 4488:1 5008:1 5020:1 5112:1 6057:1 6375:1 6384:1 6551:1 6704:1 6914:1 7022:1 7253:1 7309:1 7419:1 8689:1 8745:1 9080:1 9229:1 9992:1 10418:1 11144:1 12036:1 12549:1 12985:1 13398:1 13503:1 14080:1 14373:1 14481:1 16621:1 16929:1 17121:1 18380:1 19404:1 20085:1 20437:1 20737:1 21167:1 22288:1 22500:1 23931:1 24353:1 27410:1 28425:1 28447:1 28464:1 29070:1 29465:1 30286:1 30556:1 31293:1 31548:1 31833:1 34951:1 35099:1 
1 1:1 2:1 4:1 5:1 9:1 14:1 15:1 18:1 19:1 20:1 21:1 23:1 45:1 62:1 64:1 66:1 83:1 111:1 142:1 194:1 313:1 324:1 450:1 479:1 535:1 585:1 610:1 652:1 686:1 953:1 1238:1 1277:1 1296:1 1434:1 1819:1 2593:1 3833:1 4014:1 5020:1 6508:1 6736:1 7193:1 7453:1 8883:1 10846:1 11095:1 11236:1 11860:1 13343:1 20612:1 21281:1 29623:1 31066:1 31990:1 
0.0069103100387214785 1:1 3:1 4:1 5:1 8:1 9:1 10:1 13:1 14:1 15:1 18:1 19:1 20:1 21:1 22:1 23:1 26:1 45:1 48:1 58:1 65:1 66:1 82:1 98:1 139:1 142:1 147:1 151:1 177:1 182:1 187:1 289:1 308:1 309:1 313:1 329:1 342:1 418:1 455:1 479:1 535:1 548:1 573:1 614:1 656:1 675:1 684:1 705:1 965:1 992:1 993:1 1167:1 1287:1 1294:1 1422:1 1652:1 1664:1 2038:1 2082:1 2129:1 2380:1 2476:1 3545:1 3726:1 3744:1 3837:1 4066:1 4157:1 4778:1 5109:1 6070:1 6384:1 6789:1 7254:1 7387:1 7417:1 9009:1 9214:1 9238:1 10434:1 11181:1 11204:1 11764:1 12810:1 14087:1 14467:1 15104:1 15555:1 19457:1 20636:1 21614:1 23273:1 24340:1 27458:1 28464:1 29840:1 31297:1 31828:1 
0.031423856634980492 1:1 4:1 9:1 13:1 14:1 15:1 19:1 21:1 45:1 48:1 57:1 64:1 81:1 82:1 99:1 142:1 143:1 304:1 422:1 450:1 479:1 570:1 585:1 652:1 966:1 991:1 1150:1 1277:1 1407:1 1676:1 1688:1 2056:1 2067:1 4821:1 5020:1 6508:1 7193:1 9017:1 9201:1 9210:1 10316:1 11095:1 12887:1 14215:1 14254:1 31066:1 
0.11871566393444803 1:1 2:1 3:1 4:1 5:1 8:1 9:1 12:1 13:1 16:1 19:1 29:1 48:1 53:1 60:1 69:1 99:1 111:1 139:1 143:1 177:1 271:1 306:1 317:1 323:1 387:1 413:1 513:1 570:1 573:1 752:1 991:1 1100:1 1203:1 1341:1 1676:1 1803:1 2020:1 2067:1 3710:1 3890:1 3989:1 4487:1 5731:1 6384:1 7846:1 9210:1 9992:1 10631:1 11451:1 14254:1 20033:1 21167:1 22494:1 26287:1 28447:1 33006:1 
0.018760838349803223 1:1 2:1 3:1 4:1 5:1 7:1 8:1 9:1 11:1 12:1 13:1 14:1 15:1 18:1 19:1 20:1 21:1 29:1 46:1 51:1 53:1 62:1 100:1 111:1 139:1 166:1 177:1 196:1 256:1 271:1 289:1 304:1 307:1 313:1 315:1 317:1 322:1 369:1 387:1 414:1 451:1 465:1 492:1 493:1 544:1 554:1 573:1 579:1 605:1 614:1 620:1 622:1 625:1 643:1 650:1 757:1 973:1 1059:1 1088:1 1096:1 1232:1 1710:1 1821:1 2020:1 2038:1 2261:1 2661:1 3226:1 3556:1 3725:1 3817:1 3831:1 3861:1 3891:1 3979:1 4334:1 4494:1 4755:1 5046:1 5219:1 5485:1 5516:1 6017:1 6173:1 6181:1 6384:1 6454:1 6782:1 6848:1 6862:1 6918:1 7062:1 7158:1 7906:1 9077:1 9717:1 9915:1 9962:1 10809:1 12963:1 13386:1 14098:1 14806:1 16509:1 18342:1 19525:1 20085:1 20590:1 20719:1 20821:1 21133:1 21135:1 22043:1 22548:1 23223:1 25404:1 25541:1 27269:1 27817:1 28464:1 28767:1 30016:1 30086:1 30292:1 30638:1 30969:1 33229:1 
1 1:1 4:1 19:1 48:1 99:1 143:1 570:1 991:1 1676:1 2067:1 9210:1 14254:1 
0.12966611791613855 1:1 3:1 4:1 5:1 8:1 14:1 16:1 18:1 19:1 20:1 21:1 48:1 49:1 60:1 99:1 139:1 143:1 191:1 289:1 446:1 521:1 553:1 570:1 573:1 605:1 655:1 991:1 1019:1 1208:1 1676:1 2038:1 2067:1 2544:1 3537:1 5821:1 6154:1 6384:1 7246:1 9210:1 9405:1 10673:1 14079:1 14254:1 26519:1 27732:1 28464:1 31268:1 
0.0271721761614429 1:1 2:1 3:1 4:1 5:1 6:1 7:1 8:1 9:1 13:1 15:1 18:1 19:1 29:1 46:1 47:1 48:1 51:1 53:1 99:1 123:1 139:1 143:1 166:1 183:1 195:1 205:1 256:1 271:1 287:1 304:1 309:1 313:1 323:1 413:1 491:1 544:1 570:1 573:1 579:1 585:1 743:1 978:1 989:1 991:1 998:1 1059:1 1100:1 1676:1 1911:1 2020:1 2036:1 2067:1 2254:1 2395:1 2639:1 3226:1 3517:1 3749:1 3759:1 3817:1 3989:1 5463:1 6013:1 6384:1 6454:1 6515:1 9127:1 9189:1 9210:1 9297:1 9717:1 9992:1 13667:1 14060:1 14254:1 16407:1 18342:1 19336:1 20175:1 20246:1 21167:1 27217:1 27224:1 28447:1 28767:1 28956:1 
0.028893701144976625 1:1 4:1 5:1 7:1 9:1 13:1 14:1 15:1 16:1 18:1 19:1 20:1 26:1 29:1 36:1 48:1 49:1 51:1 53:1 57:1 58:1 59:1 62:1 67:1 81:1 82:1 142:1 143:1 147:1 172:1 181:1 191:1 194:1 195:1 243:1 256:1 317:1 322:1 323:1 324:1 418:1 422:1 426:1 446:1 450:1 470:1 482:1 492:1 511:1 517:1 535:1 542:1 549:1 570:1 585:1 596:1 605:1 714:1 752:1 756:1 857:1 991:1 1022:1 1059:1 1099:1 1150:1 1171:1 1182:1 1238:1 1314:1 1407:1 2056:1 2098:1 2299:1 2351:1 2547:1 2593:1 2607:1 2625:1 3051:1 3241:1 3900:1 3960:1 3967:1 3986:1 4010:1 4777:1 4788:1 4831:1 4851:1 5025:1 5044:1 5292:1 5368:1 5484:1 5723:1 5759:1 5980:1 6086:1 6516:1 6637:1 7638:1 7851:1 7881:1 8409:1 9201:1 9440:1 9720:1 9987:1 10326:1 10474:1 10523:1 10854:1 11349:1 14215:1 14373:1 14387:1 14864:1 15867:1 16204:1 17649:1 18403:1 20849:1 21091:1 23264:1 23329:1 23453:1 23513:1 23987:1 24072:1 24889:1 25070:1 25397:1 26250:1 26364:1 27092:1 28962:1 29305:1 32524:1 33038:1 33128:1 34356:1 
0.93233431992164817 4:1 5:1 7:1 9:1 12:1 19:1 29:1 48:1 51:1 62:1 142:1 166:1 181:1 262:1 304:1 383:1 579:1 743:1 755:1 998:1 1062:1 1235:1 2254:1 2351:1 3292:1 4434:1 6447:1 7869:1 9297:1 9746:1 10827:1 18542:1 22310:1 33081:1 
0.0079383008554453245 1:1 2:1 3:1 4:1 5:1 7:1 8:1 9:1 12:1 13:1 14:1 15:1 18:1 19:1 20:1 21:1 23:1 26:1 29:1 36:1 39:1 45:1 48:1 52:1 57:1 62:1 66:1 77:1 82:1 84:1 93:1 111:1 139:1 151:1 177:1 189:1 191:1 194:1 195:1 243:1 276:1 285:1 295:1 302:1 304:1 309:1 311:1 324:1 403:1 409:1 414:1 418:1 426:1 433:1 446:1 479:1 493:1 535:1 538:1 570:1 573:1 614:1 644:1 686:1 710:1 752:1 756:1 846:1 887:1 905:1 952:1 993:1 1078:1 1147:1 1148:1 1154:1 1232:1 1296:1 1396:1 1418:1 1453:1 1586:1 1819:1 2025:1 2034:1 2051:1 2129:1 2521:1 2544:1 2593:1 2596:1 2625:1 3051:1 3376:1 3391:1 3493:1 3610:1 3689:1 3744:1 3789:1 4018:1 4665:1 4703:1 4742:1 4788:1 4851:1 4915:1 5504:1 5914:1 6384:1 6788:1 7078:1 7446:1 7599:1 7851:1 7886:1 8324:1 8563:1 8723:1 8869:1 9238:1 9865:1 10288:1 10309:1 10346:1 10809:1 11230:1 11611:1 11728:1 11956:1 12456:1 13346:1 13935:1 13948:1 14036:1 14207:1 14467:1 15759:1 16081:1 17646:1 18882:1 19215:1 19759:1 19983:1 20358:1 21305:1 22993:1 23077:1 23167:1 23329:1 23513:1 23667:1 26801:1 28475:1 29820:1 30713:1 32409:1 33043:1 33152:1 34154:1 34650:1 35028:1 
0.28245232603090864 1:1 3:1 4:1 5:1 8:1 12:1 13:1 14:1 18:1 20:1 23:1 29:1 36:1 47:1 48:1 56:1 57:1 66:1 69:1 82:1 93:1 139:1 147:1 166:1 177:1 182:1 194:1 300:1 378:1 383:1 414:1 465:1 535:1 539:1 540:1 605:1 693:1 743:1 759:1 766:1 856:1 989:1 998:1 1135:1 1147:1 1300:1 1335:1 1418:1 1563:1 2049:1 2082:1 2254:1 2387:1 2593:1 2598:1 3663:1 4435:1 4740:1 5219:1 5918:1 5952:1 7514:1 7920:1 7997:1 8403:1 9196:1 9297:1 10195:1 10287:1 11282:1 11710:1 14187:1 15140:1 16108:1 19911:1 22322:1 23160:1 26817:1 26982:1 32205:1 33285:1 33579:1 34338:1 
0.092539367701776676 1:1 3:1 5:1 8:1 9:1 10:1 12:1 14:1 15:1 19:1 23:1 45:1 53:1 54:1 66:1 81:1 93:1 139:1 191:1 271:1 307:1 309:1 313:1 337:1 396:1 446:1 479:1 585:1 686:1 961:1 1094:1 1106:1 1296:1 1581:1 2020:1 2544:1 3725:1 3757:1 3819:1 4102:1 4599:1 6508:1 7450:1 8954:1 9940:1 10012:1 11234:1 12426:1 20085:1 20210:1 20484:1 22829:1 31971:1 
0.18628438233622605 1:1 3:1 4:1 5:1 7:1 8:1 9:1 12:1 14:1 19:1 23:1 29:1 45:1 48:1 49:1 53:1 93:1 99:1 139:1 143:1 191:1 238:1 271:1 323:1 390:1 400:1 446:1 570:1 573:1 693:1 750:1 961:1 991:1 1019:1 1100:1 1575:1 1676:1 2020:1 2067:1 2544:1 3989:1 4539:1 4648:1 6384:1 7503:1 7818:1 8951:1 9210:1 9405:1 9992:1 12403:1 14254:1 21167:1 22693:1 22948:1 28447:1 32140:1 
0.15449952446386123 1:1 2:1 4:1 5:1 7:1 9:1 11:1 12:1 13:1 14:1 15:1 16:1 18:1 19:1 20:1 21:1 23:1 26:1 29:1 39:1 45:1 48:1 51:1 53:1 55:1 58:1 62:1 64:1 67:1 82:1 88:1 93:1 94:1 97:1 111:1 142:1 159:1 177:1 181:1 182:1 193:1 194:1 238:1 243:1 251:1 304:1 313:1 318:1 322:1 323:1 324:1 353:1 379:1 396:1 413:1 415:1 436:1 450:1 451:1 465:1 477:1 479:1 507:1 520:1 535:1 544:1 547:1 549:1 560:1 570:1 575:1 577:1 579:1 585:1 588:1 610:1 622:1 624:1 629:1 652:1 693:1 726:1 752:1 756:1 760:1 761:1 766:1 899:1 907:1 961:1 962:1 990:1 1055:1 1086:1 1094:1 1099:1 1119:1 1177:1 1234:1 1235:1 1277:1 1324:1 1413:1 1421:1 1501:1 1581:1 1590:1 1639:1 1819:1 2191:1 2361:1 2372:1 2589:1 2593:1 2605:1 3037:1 3166:1 3817:1 3832:1 3833:1 3913:1 3974:1 4001:1 4014:1 4024:1 4196:1 4379:1 4599:1 4759:1 4942:1 5020:1 5046:1 5050:1 5223:1 5346:1 5669:1 5810:1 6016:1 6055:1 6090:1 6269:1 6405:1 6421:1 6454:1 6458:1 6508:1 6548:1 6555:1 6721:1 6736:1 6865:1 6900:1 6960:1 7207:1 7504:1 7716:1 7851:1 7879:1 7951:1 7959:1 7998:1 8663:1 8744:1 8954:1 8960:1 9676:1 9952:1 9989:1 10084:1 10514:1 10820:1 10833:1 10836:1 11107:1 11393:1 11677:1 11758:1 12087:1 12426:1 12692:1 13343:1 14642:1 15047:1 16042:1 16183:1 18125:1 20605:1 20617:1 20888:1 21123:1 21229:1 21273:1 21330:1 21676:1 22137:1 22829:1 23238:1 23750:1 24082:1 24674:1 25007:1 26085:1 26499:1 27257:1 27389:1 27507:1 28130:1 28582:1 28767:1 28800:1 29090:1 29634:1 30120:1 30232:1 30424:1 31137:1 32157:1 32707:1 33040:1 33123:1 33419:1 33454:1 33599:1 34869:1 35086:1 
0.30340402047567488 1:1 4:1 7:1 8:1 16:1 19:1 20:1 21:1 48:1 52:1 82:1 88:1 101:1 142:1 238:1 272:1 520:1 571:1 588:1 625:1 654:1 656:1 658:1 990:1 1070:1 1413:1 1496:1 1736:1 3357:1 5807:1 6354:1 6549:1 6932:1 7226:1 7268:1 7309:1 9798:1 11672:1 13055:1 18740:1 26496:1 28336:1 29055:1 30348:1 31196:1 31376:1 31562:1 
0.058210505548651974 1:1 2:1 3:1 4:1 5:1 7:1 8:1 9:1 14:1 15:1 19:1 20:1 21:1 23:1 48:1 49:1 53:1 64:1 66:1 99:1 111:1 139:1 142:1 143:1 179:1 195:1 238:1 271:1 289:1 307:1 311:1 323:1 450:1 479:1 493:1 570:1 573:1 585:1 614:1 652:1 686:1 991:1 1008:1 1100:1 1277:1 1296:1 1676:1 1820:1 2020:1 2038:1 2067:1 2334:1 2639:1 3545:1 3725:1 3786:1 3989:1 5020:1 5504:1 6384:1 6517:1 6788:1 7193:1 7448:1 9210:1 9351:1 9992:1 11095:1 11232:1 13378:1 14087:1 14254:1 14942:1 16409:1 19456:1 20096:1 21167:1 28447:1 28966:1 29819:1 31066:1 31964:1 
0.044024701148895493 1:1 2:1 3:1 4:1 5:1 7:1 8:1 9:1 12:1 13:1 14:1 16:1 18:1 19:1 20:1 39:1 45:1 48:1 49:1 58:1 77:1 93:1 94:1 99:1 123:1 139:1 143:1 177:1 184:1 191:1 243:1 247:1 271:1 280:1 304:1 311:1 320:1 323:1 397:1 418:1 446:1 447:1 464:1 520:1 544:1 570:1 573:1 610:1 614:1 887:1 961:1 991:1 1019:1 1165:1 1396:1 1582:1 1593:1 1679:1 1911:1 2020:1 2029:1 2067:1 2423:1 2544:1 2560:1 3051:1 3127:1 3415:1 3789:1 3955:1 3989:1 4610:1 4774:1 5003:1 5197:1 5799:1 6015:1 6384:1 6727:1 6797:1 8566:1 8955:1 9210:1 9405:1 10414:1 11613:1 12431:1 12474:1 12857:1 13669:1 13969:1 14255:1 15328:1 15929:1 17656:1 17992:1 20358:1 21060:1 21167:1 22853:1 23901:1 26482:1 27237:1 28447:1 28455:1 29562:1 29877:1 34656:1 
0.23291895621821232 6:1 7:1 8:1 9:1 14:1 15:1 18:1 19:1 51:1 52:1 211:1 219:1 238:1 255:1 285:1 304:1 311:1 455:1 484:1 493:1 497:1 550:1 579:1 588:1 1058:1 1076:1 2792:1 2864:1 3205:1 3485:1 3786:1 5112:1 5383:1 5519:1 5578:1 6117:1 6447:1 6557:1 9702:1 9836:1 16929:1 17121:1 18248:1 19181:1 24353:1 25107:1 25584:1 25829:1 27621:1 29095:1 
1 1:1 5:1 9:1 10:1 15:1 16:1 19:1 36:1 49:1 54:1 74:1 81:1 82:1 195:1 323:1 337:1 479:1 493:1 511:1 517:1 570:1 585:1 857:1 1022:1 1106:1 1382:1 1407:1 2639:1 3986:1 4103:1 5504:1 5723:1 5759:1 6517:1 8409:1 9444:1 10013:1 11584:1 16409:1 21518:1 26250:1 26364:1 28966:1 34356:1 
0.021013835162804268 1:1 3:1 5:1 8:1 9:1 12:1 13:1 14:1 15:1 16:1 18:1 19:1 23:1 26:1 29:1 45:1 53:1 66:1 67:1 93:1 139:1 191:1 193:1 195:1 271:1 276:1 323:1 383:1 418:1 446:1 481:1 492:1 518:1 550:1 570:1 573:1 688:1 728:1 756:1 961:1 1100:1 1297:1 1325:1 1568:1 2020:1 2025:1 2544:1 2588:1 2625:1 3389:1 3989:1 4448:1 4787:1 5364:1 5480:1 5771:1 6106:1 6384:1 7479:1 7732:1 7881:1 8947:1 9992:1 11255:1 11402:1 12365:1 13946:1 16033:1 18864:1 21167:1 22399:1 23327:1 25054:1 26408:1 27561:1 28447:1 32077:1 32740:1 33134:1 
1 4:1 9:1 14:1 15:1 21:1 23:1 53:1 64:1 66:1 142:1 304:1 313:1 446:1 450:1 492:1 652:1 688:1 1094:1 1277:1 1297:1 3817:1 5020:1 5480:1 7193:1 7479:1 9938:1 11095:1 11255:1 31066:1 32077:1 
0.10519208952772563 1:1 5:1 6:1 8:1 9:1 11:1 12:1 13:1 14:1 18:1 19:1 52:1 82:1 95:1 188:1 194:1 223:1 280:1 315:1 316:1 353:1 355:1 384:1 418:1 455:1 535:1 583:1 1073:1 1420:1 1617:1 2479:1 2593:1 2909:1 3425:1 3851:1 3871:1 4196:1 4226:1 4461:1 4783:1 5114:1 6497:1 9821:1 11744:1 12604:1 15559:1 17241:1 18987:1 20687:1 20757:1 21675:1 21767:1 22446:1 23303:1 24373:1 28910:1 
1 1:1 10:1 54:1 81:1 82:1 337:1 1106:1 1407:1 4102:1 4103:1 10012:1 10013:1 21518:1 
0.29087535524365621 2:1 3:1 4:1 5:1 7:1 8:1 9:1 14:1 21:1 46:1 48:1 53:1 126:1 139:1 147:1 177:1 180:1 184:1 191:1 238:1 245:1 276:1 304:1 451:1 644:1 980:1 992:1 1086:1 1946:1 2025:1 2082:1 2349:1 2421:1 2548:1 3074:1 3389:1 5053:1 7067:1 9138:1 9214:1 13754:1 13946:1 14994:1 15299:1 15872:1 18866:1 24103:1 30643:1 
0.050316207263615291 1:1 3:1 5:1 7:1 8:1 9:1 13:1 14:1 15:1 18:1 20:1 21:1 22:1 26:1 29:1 47:1 53:1 58:1 61:1 65:1 82:1 84:1 139:1 184:1 201:1 238:1 247:1 285:1 287:1 289:1 307:1 317:1 318:1 413:1 436:1 446:1 447:1 465:1 479:1 491:1 493:1 540:1 544:1 605:1 610:1 646:1 658:1 675:1 724:1 757:1 989:1 1097:1 1165:1 1219:1 1287:1 1409:1 1453:1 2034:1 2036:1 2038:1 2423:1 2725:1 3124:1 3493:1 3517:1 3541:1 3725:1 3908:1 3910:1 4937:1 4993:1 5219:1 5463:1 5504:1 5944:1 6011:1 6742:1 7106:1 7301:1 7394:1 7705:1 7906:1 9188:1 9970:1 10408:1 10716:1 11186:1 11643:1 11965:1 14036:1 14060:1 14083:1 15325:1 16700:1 17984:1 19215:1 19335:1 19434:1 20096:1 20875:1 23731:1 23853:1 26911:1 27206:1 29680:1 31495:1 31749:1 32677:1 33229:1 
0.070395789673687301 1:1 4:1 5:1 7:1 9:1 12:1 13:1 14:1 15:1 18:1 19:1 20:1 21:1 23:1 39:1 45:1 48:1 49:1 51:1 58:1 66:1 82:1 93:1 98:1 99:1 100:1 143:1 147:1 162:1 177:1 182:1 184:1 194:1 243:1 252:1 255:1 304:1 387:1 396:1 418:1 447:1 451:1 479:1 493:1 496:1 497:1 535:1 539:1 544:1 547:1 548:1 550:1 570:1 579:1 585:1 588:1 637:1 655:1 688:1 901:1 907:1 961:1 965:1 991:1 997:1 1007:1 1058:1 1165:1 1297:1 1423:1 1581:1 1664:1 1676:1 1723:1 2056:1 2082:1 2234:1 2377:1 2419:1 2427:1 2602:1 3044:1 3171:1 3205:1 4485:1 4599:1 4778:1 5008:1 5061:1 5518:1 5519:1 5541:1 5578:1 5918:1 6008:1 6057:1 6070:1 6117:1 6447:1 6508:1 6557:1 7022:1 7230:1 7480:1 8689:1 8745:1 8954:1 9009:1 9201:1 9293:1 9702:1 10418:1 11256:1 11785:1 12426:1 12810:1 13007:1 14222:1 14740:1 15093:1 15282:1 15342:1 16149:1 17605:1 18140:1 18248:1 22829:1 23271:1 23933:1 24154:1 25556:1 25584:1 25655:1 25829:1 26817:1 27408:1 27458:1 27621:1 29095:1 30556:1 32090:1 34951:1 35099:1 
0.1934296942461193 1:1 3:1 4:1 5:1 7:1 8:1 9:1 10:1 12:1 18:1 20:1 21:1 48:1 51:1 52:1 53:1 54:1 61:1 81:1 101:1 139:1 147:1 177:1 182:1 194:1 196:1 250:1 271:1 272:1 276:1 307:1 337:1 383:1 536:1 554:1 605:1 642:1 992:1 1054:1 1070:1 1088:1 1106:1 1218:1 1726:1 2020:1 2025:1 2100:1 2387:1 2612:1 2652:1 3148:1 3339:1 3376:1 3725:1 4102:1 4435:1 5894:1 6173:1 7049:1 9231:1 9660:1 9784:1 9915:1 10012:1 10708:1 13017:1 13935:1 14414:1 15151:1 16269:1 18036:1 20085:1 22322:1 26711:1 30603:1 
1 1:1 2:1 3:1 4:1 5:1 8:1 10:1 14:1 15:1 18:1 45:1 47:1 48:1 54:1 58:1 81:1 83:1 111:1 139:1 157:1 194:1 271:1 337:1 461:1 479:1 493:1 535:1 953:1 989:1 994:1 1106:1 1169:1 1434:1 1819:1 2020:1 2177:1 2593:1 4102:1 5179:1 5504:1 8883:1 9182:1 9261:1 10012:1 10455:1 11860:1 13343:1 14599:1 24550:1 
0.11547645233911442 1:1 3:1 4:1 5:1 7:1 8:1 9:1 12:1 13:1 14:1 15:1 18:1 19:1 20:1 23:1 39:1 49:1 53:1 57:1 58:1 61:1 66:1 81:1 82:1 139:1 147:1 177:1 191:1 194:1 195:1 238:1 271:1 289:1 307:1 309:1 311:1 318:1 323:1 379:1 422:1 451:1 455:1 464:1 465:1 493:1 496:1 535:1 539:1 544:1 570:1 573:1 575:1 588:1 614:1 617:1 688:1 699:1 902:1 1019:1 1021:1 1100:1 1150:1 1167:1 1220:1 1297:1 1306:1 1407:1 2020:1 2038:1 2082:1 2560:1 2561:1 2593:1 2625:1 3545:1 3725:1 3744:1 3786:1 3914:1 3989:1 4379:1 4830:1 5062:1 5110:1 5197:1 5228:1 5518:1 5541:1 5918:1 6011:1 6384:1 6404:1 6553:1 6788:1 6814:1 7480:1 7558:1 8705:1 9413:1 9420:1 9992:1 10325:1 10435:1 10728:1 11256:1 11317:1 14087:1 15929:1 15950:1 19456:1 20096:1 20913:1 21167:1 22133:1 23447:1 24169:1 24344:1 24701:1 25556:1 25655:1 26817:1 27206:1 28447:1 28575:1 29082:1 29819:1 29919:1 32090:1 32315:1 34994:1 
0.37542333756567531 1:1 5:1 7:1 8:1 9:1 14:1 18:1 19:1 26:1 49:1 51:1 52:1 62:1 95:1 177:1 186:1 194:1 238:1 239:1 276:1 311:1 318:1 446:1 469:1 535:1 579:1 710:1 1021:1 1046:1 1071:1 1235:1 1629:1 2458:1 2593:1 3019:1 3385:1 3786:1 3910:1 5266:1 6458:1 7587:1 9420:1 9579:1 9807:1 10836:1 12667:1 15470:1 17520:1 18827:1 24803:1 28799:1 
0.21403379757001262 1:1 4:1 5:1 6:1 7:1 9:1 10:1 12:1 13:1 14:1 18:1 19:1 20:1 21:1 50:1 54:1 62:1 63:1 64:1 82:1 88:1 93:1 95:1 147:1 177:1 181:1 189:1 205:1 206:1 238:1 243:1 317:1 322:1 338:1 378:1 379:1 390:1 422:1 426:1 453:1 535:1 579:1 606:1 645:1 1029:1 1107:1 1235:1 1253:1 1272:1 1413:1 1501:1 1575:1 1615:1 2082:1 2355:1 2495:1 2746:1 3049:1 3900:1 3960:1 4116:1 4389:1 4526:1 4831:1 4854:1 5079:1 6457:1 6693:1 7084:1 9471:1 10022:1 10835:1 10930:1 11051:1 11677:1 12094:1 12396:1 12581:1 15017:1 15617:1 16751:1 17627:1 20850:1 21536:1 22185:1 23453:1 23522:1 28794:1 29418:1 
0.078974815675128471 2:1 3:1 4:1 8:1 9:1 11:1 13:1 14:1 15:1 16:1 18:1 19:1 20:1 21:1 23:1 29:1 46:1 48:1 52:1 53:1 55:1 57:1 62:1 115:1 139:1 166:1 289:1 292:1 295:1 313:1 317:1 318:1 322:1 323:1 364:1 422:1 429:1 433:1 446:1 455:1 491:1 492:1 516:1 535:1 554:1 573:1 605:1 652:1 693:1 743:1 759:1 761:1 766:1 975:1 998:1 1078:1 1096:1 1125:1 1150:1 1232:1 1859:1 2038:1 2041:1 2254:1 3537:1 3592:1 3615:1 3831:1 3903:1 3910:1 3960:1 3979:1 3989:1 4290:1 4831:1 4887:1 4920:1 5113:1 5120:1 5474:1 5489:1 5749:1 6173:1 6384:1 7198:1 7514:1 7916:1 7953:1 7997:1 9094:1 9297:1 9869:1 9968:1 10134:1 10326:1 10809:1 13513:1 14079:1 14132:1 19704:1 19791:1 20590:1 20864:1 21133:1 21167:1 21939:1 23453:1 23627:1 23681:1 24368:1 24397:1 25375:1 25431:1 26328:1 28464:1 28466:1 31106:1 32205:1 33575:1 
0.045686187588472496 1:1 3:1 4:1 5:1 7:1 8:1 9:1 12:1 19:1 48:1 51:1 53:1 56:1 99:1 139:1 142:1 143:1 181:1 256:1 271:1 304:1 309:1 313:1 323:1 387:1 570:1 573:1 579:1 991:1 1059:1 1100:1 1136:1 1676:1 2020:1 2067:1 2351:1 3226:1 3747:1 3817:1 3989:1 4490:1 6384:1 6454:1 9210:1 9717:1 9992:1 10206:1 14254:1 18342:1 20166:1 21167:1 22510:1 28447:1 28767:1 
1 4:1 5:1 9:1 14:1 15:1 18:1 19:1 23:1 62:1 66:1 142:1 147:1 177:1 318:1 450:1 493:1 496:1 539:1 579:1 688:1 1235:1 1297:1 2082:1 3913:1 5020:1 5518:1 5541:1 5918:1 6458:1 7480:1 10836:1 11256:1 20888:1 25556:1 25655:1 26817:1 28800:1 32090:1 
0.12982903459521844 1:1 3:1 4:1 5:1 7:1 8:1 9:1 10:1 12:1 14:1 18:1 19:1 20:1 21:1 23:1 29:1 39:1 45:1 48:1 52:1 54:1 64:1 69:1 82:1 95:1 103:1 139:1 142:1 177:1 194:1 243:1 280:1 282:1 311:1 313:1 323:1 324:1 338:1 379:1 383:1 450:1 554:1 570:1 573:1 579:1 617:1 623:1 624:1 637:1 639:1 656:1 686:1 762:1 903:1 907:1 952:1 990:1 1073:1 1107:1 1279:1 1347:1 1427:1 1612:1 1750:1 2031:1 2612:1 3037:1 3432:1 3447:1 3789:1 3832:1 3993:1 4026:1 4113:1 4389:1 4447:1 5020:1 6199:1 6384:1 6453:1 6815:1 6875:1 6905:1 7022:1 7251:1 7453:1 7962:1 8715:1 8747:1 8877:1 9827:1 10021:1 11117:1 11501:1 11826:1 12549:1 13097:1 13998:1 16291:1 19028:1 19055:1 20352:1 20602:1 21199:1 21349:1 22184:1 22396:1 27889:1 28457:1 28760:1 29928:1 30155:1 30262:1 30558:1 31989:1 35015:1 35116:1 
0.38742252563320945 1:1 2:1 4:1 5:1 7:1 9:1 11:1 12:1 13:1 14:1 15:1 16:1 18:1 20:1 26:1 48:1 51:1 53:1 60:1 82:1 95:1 100:1 118:1 151:1 177:1 190:1 239:1 304:1 309:1 313:1 315:1 352:1 383:1 414:1 469:1 480:1 518:1 550:1 614:1 714:1 993:1 1046:1 1094:1 1206:1 1424:1 1629:1 1705:1 1874:1 2129:1 2525:1 3019:1 3744:1 3817:1 3848:1 4443:1 4740:1 5270:1 5356:1 5771:1 6105:1 6791:1 7628:1 9238:1 9579:1 9938:1 10651:1 11804:1 12669:1 12945:1 13563:1 14467:1 15765:1 17520:1 22357:1 23164:1 24826:1 25037:1 26407:1 27558:1 29842:1 
0.10302913561587577 1:1 2:1 3:1 6:1 8:1 9:1 12:1 13:1 14:1 15:1 18:1 19:1 20:1 22:1 29:1 39:1 62:1 63:1 65:1 93:1 137:1 139:1 205:1 284:1 306:1 378:1 413:1 447:1 470:1 491:1 544:1 573:1 622:1 675:1 749:1 766:1 899:1 1232:1 1258:1 1287:1 1563:1 2013:1 2033:1 3476:1 3723:1 5002:1 5299:1 5463:1 6010:1 6384:1 6862:1 7394:1 7811:1 7991:1 8660:1 10809:1 10988:1 11186:1 13891:1 14023:1 19169:1 20080:1 23890:1 24914:1 27205:1 28459:1 30081:1 31749:1 33535:1 34858:1 
0.054169690111359171 1:1 2:1 3:1 4:1 5:1 6:1 8:1 9:1 12:1 14:1 15:1 18:1 19:1 21:1 23:1 26:1 39:1 45:1 48:1 50:1 53:1 62:1 64:1 66:1 77:1 83:1 99:1 111:1 139:1 142:1 143:1 181:1 194:1 201:1 236:1 271:1 304:1 307:1 323:1 387:1 446:1 451:1 492:1 535:1 553:1 570:1 573:1 575:1 579:1 585:1 588:1 652:1 699:1 716:1 901:1 902:1 953:1 991:1 1043:1 1100:1 1235:1 1238:1 1277:1 1306:1 1401:1 1434:1 1689:1 1819:1 2020:1 2067:1 2351:1 2593:1 2611:1 2719:1 2999:1 3725:1 3989:1 4488:1 5061:1 5480:1 6156:1 6384:1 6394:1 6412:1 6447:1 6516:1 6548:1 6553:1 7194:1 7558:1 7654:1 8680:1 8699:1 8705:1 8883:1 9210:1 9564:1 9992:1 10827:1 10854:1 11096:1 11317:1 11620:1 11860:1 12890:1 13343:1 14259:1 16253:1 16688:1 17452:1 20085:1 21167:1 22500:1 24160:1 27740:1 28447:1 28498:1 28630:1 28959:1 29076:1 31081:1 32315:1 32572:1 34994:1 
0.10728713867873847 3:1 4:1 5:1 7:1 8:1 9:1 12:1 14:1 19:1 20:1 21:1 51:1 64:1 139:1 142:1 189:1 238:1 250:1 288:1 289:1 307:1 311:1 313:1 387:1 450:1 573:1 610:1 652:1 1054:1 1277:1 2037:1 2038:1 2503:1 3149:1 3526:1 3541:1 3725:1 3786:1 3819:1 4492:1 4494:1 5020:1 6384:1 6731:1 7193:1 9661:1 11095:1 14068:1 14083:1 15668:1 18051:1 19365:1 19425:1 20095:1 20484:1 22525:1 22539:1 28464:1 29590:1 31066:1 
0.17619731972706043 3:1 4:1 5:1 6:1 8:1 9:1 13:1 14:1 15:1 18:1 19:1 20:1 23:1 26:1 29:1 36:1 48:1 49:1 52:1 53:1 59:1 66:1 139:1 151:1 172:1 190:1 191:1 194:1 195:1 214:1 271:1 295:1 304:1 309:1 318:1 322:1 324:1 329:1 413:1 446:1 460:1 479:1 484:1 493:1 535:1 540:1 573:1 585:1 623:1 693:1 714:1 757:1 759:1 852:1 993:1 1003:1 1022:1 1078:1 1097:1 1099:1 1183:1 1300:1 2020:1 2124:1 2295:1 2524:1 2544:1 2593:1 2639:1 2838:1 3613:1 3758:1 3910:1 3965:1 4025:1 4071:1 5157:1 5384:1 5504:1 5949:1 5950:1 6384:1 6517:1 6875:1 7508:1 7632:1 7903:1 7921:1 8363:1 9235:1 9330:1 9444:1 9867:1 9970:1 9986:1 10527:1 11277:1 14858:1 16409:1 17050:1 19776:1 20223:1 21084:1 21335:1 21466:1 25116:1 26961:1 26967:1 28447:1 28966:1 30155:1 32176:1 32493:1 33217:1 33296:1 34252:1 
0.43126436546670399 1:1 3:1 4:1 5:1 8:1 9:1 15:1 16:1 18:1 19:1 20:1 21:1 23:1 48:1 49:1 53:1 60:1 66:1 99:1 139:1 143:1 147:1 177:1 195:1 271:1 323:1 479:1 493:1 496:1 499:1 516:1 539:1 570:1 573:1 585:1 605:1 657:1 688:1 991:1 1022:1 1100:1 1204:1 1297:1 1676:1 2020:1 2067:1 2082:1 2639:1 3989:1 5504:1 5518:1 5541:1 5619:1 5754:1 5918:1 6384:1 6517:1 7277:1 7480:1 9210:1 9444:1 9992:1 10645:1 11256:1 14254:1 16409:1 21167:1 25556:1 25655:1 25967:1 26347:1 26817:1 28447:1 28966:1 32090:1 
1 1:1 3:1 5:1 7:1 8:1 9:1 12:1 13:1 14:1 20:1 21:1 51:1 57:1 84:1 101:1 139:1 177:1 191:1 243:1 250:1 271:1 276:1 307:1 313:1 324:1 387:1 414:1 422:1 447:1 618:1 639:1 1048:1 1054:1 1150:1 1453:1 1724:1 2020:1 2025:1 2545:1 3051:1 3149:1 3376:1 3725:1 3819:1 4020:1 4494:1 4742:1 4833:1 5009:1 6823:1 9598:1 9661:1 10328:1 11956:1 13935:1 15847:1 17647:1 18051:1 20085:1 20484:1 21315:1 22539:1 23167:1 23469:1 23934:1 29945:1 
1 3:1 4:1 6:1 8:1 12:1 15:1 20:1 21:1 23:1 26:1 29:1 47:1 48:1 64:1 66:1 67:1 139:1 142:1 205:1 285:1 397:1 479:1 493:1 605:1 645:1 693:1 705:1 755:1 989:1 990:1 1272:1 1300:1 1308:1 2034:1 3493:1 4606:1 5504:1 7084:1 7506:1 7875:1 9188:1 11051:1 11275:1 14036:1 19215:1 32165:1 33104:1 
0.056194675000366595 1:1 4:1 5:1 7:1 9:1 12:1 13:1 14:1 16:1 18:1 19:1 20:1 21:1 26:1 36:1 48:1 51:1 53:1 56:1 95:1 142:1 147:1 177:1 191:1 194:1 239:1 255:1 317:1 323:1 379:1 398:1 413:1 429:1 446:1 450:1 469:1 504:1 535:1 566:1 588:1 589:1 605:1 610:1 651:1 710:1 859:1 865:1 992:1 1046:1 1058:1 1096:1 1100:1 1134:1 1138:1 1612:1 1629:1 2098:1 2544:1 2593:1 3019:1 3213:1 3890:1 4002:1 4389:1 4633:1 4880:1 5020:1 5266:1 6319:1 6566:1 6577:1 6580:1 6721:1 7182:1 7601:1 8430:1 8472:1 9229:1 9579:1 9710:1 9961:1 10000:1 10189:1 10236:1 12549:1 12667:1 14373:1 17520:1 18279:1 21241:1 22184:1 22912:1 24810:1 28245:1 29137:1 29168:1 31040:1 32411:1 34404:1 34497:1 
0.24634733165885181 4:1 5:1 7:1 8:1 9:1 12:1 14:1 20:1 29:1 51:1 52:1 142:1 177:1 250:1 295:1 324:1 387:1 450:1 610:1 624:1 757:1 1054:1 1078:1 3149:1 3611:1 4026:1 4504:1 5020:1 6721:1 6900:1 7895:1 9661:1 9866:1 18055:1 19763:1 21346:1 22606:1 30232:1 33169:1 
0.63366051357845299 3:1 5:1 8:1 9:1 12:1 14:1 15:1 16:1 18:1 19:1 20:1 29:1 36:1 49:1 62:1 69:1 139:1 180:1 194:1 282:1 286:1 304:1 313:1 318:1 387:1 455:1 479:1 493:1 529:1 535:1 573:1 579:1 585:1 610:1 743:1 860:1 865:1 1009:1 1232:1 1235:1 1238:1 1335:1 2031:1 2035:1 2349:1 2593:1 3450:1 3512:1 3829:1 3918:1 4485:1 5106:1 5504:1 5861:1 6384:1 6454:1 6517:1 6736:1 8434:1 8473:1 9353:1 10809:1 10833:1 10855:1 14000:1 14055:1 14998:1 19069:1 19310:1 20560:1 20938:1 26578:1 28461:1 28776:1 28966:1 29623:1 34410:1 34501:1 
0.27340990415316063 4:1 5:1 7:1 9:1 12:1 13:1 14:1 15:1 18:1 19:1 23:1 29:1 59:1 62:1 66:1 69:1 147:1 182:1 189:1 191:1 194:1 238:1 311:1 378:1 418:1 455:1 482:1 535:1 575:1 685:1 756:1 1182:1 1234:1 1295:1 1343:1 2098:1 2387:1 2494:1 2552:1 2593:1 3786:1 4784:1 5112:1 5368:1 6395:1 7440:1 7881:1 10523:1 10813:1 11224:1 11464:1 14373:1 15136:1 15898:1 23305:1 24353:1 25070:1 28509:1 31936:1 33131:1 
0.030786879408373095 3:1 5:1 7:1 8:1 9:1 18:1 19:1 22:1 36:1 61:1 62:1 65:1 139:1 177:1 194:1 255:1 271:1 307:1 313:1 323:1 540:1 542:1 544:1 566:1 570:1 575:1 579:1 588:1 670:1 859:1 865:1 1220:1 1235:1 1285:1 2020:1 2598:1 2600:1 3213:1 3725:1 3819:1 3832:1 3986:1 5937:1 5990:1 6016:1 6319:1 6406:1 6454:1 6553:1 7364:1 8430:1 8472:1 10731:1 10833:1 11164:1 16096:1 16134:1 18279:1 20085:1 20484:1 20596:1 27141:1 27246:1 28245:1 28587:1 28778:1 29084:1 31669:1 34401:1 34497:1 
1 1:1 3:1 7:1 8:1 9:1 12:1 14:1 52:1 53:1 56:1 81:1 95:1 139:1 238:1 271:1 272:1 307:1 379:1 446:1 453:1 1070:1 1088:1 1134:1 1609:1 1615:1 2020:1 3339:1 3351:1 3725:1 4389:1 5079:1 9784:1 9795:1 9915:1 10189:1 12581:1 18696:1 20085:1 22185:1 
0.098018565550051284 1:1 2:1 4:1 5:1 7:1 8:1 9:1 12:1 14:1 16:1 18:1 19:1 20:1 21:1 22:1 29:1 49:1 51:1 52:1 60:1 62:1 64:1 65:1 82:1 98:1 125:1 142:1 177:1 182:1 194:1 195:1 196:1 250:1 258:1 295:1 304:1 316:1 387:1 403:1 450:1 505:1 535:1 570:1 575:1 605:1 644:1 652:1 672:1 745:1 757:1 1007:1 1022:1 1054:1 1060:1 1078:1 1198:1 1234:1 1277:1 1286:1 1422:1 1652:1 1933:1 2387:1 2593:1 2625:1 2652:1 3154:1 3257:1 3611:1 3874:1 4485:1 4661:1 5020:1 5647:1 6395:1 7079:1 7193:1 7377:1 7799:1 7895:1 9440:1 9664:1 9724:1 9866:1 10583:1 10813:1 11095:1 11174:1 11764:1 15136:1 18070:1 18441:1 19763:1 20764:1 22977:1 26032:1 28509:1 30719:1 31066:1 31716:1 32856:1 33169:1 
0.39378085730050044 1:1 2:1 3:1 4:1 5:1 6:1 7:1 8:1 9:1 10:1 11:1 14:1 18:1 19:1 26:1 46:1 48:1 50:1 51:1 53:1 54:1 81:1 82:1 95:1 99:1 111:1 139:1 143:1 147:1 177:1 188:1 222:1 256:1 271:1 304:1 313:1 323:1 337:1 352:1 469:1 536:1 570:1 573:1 579:1 705:1 973:1 991:1 992:1 1035:1 1059:1 1100:1 1106:1 1407:1 1423:1 1629:1 1676:1 1813:1 2020:1 2056:1 2082:1 2478:1 2887:1 3226:1 3817:1 3989:1 4103:1 5263:1 5889:1 6384:1 6454:1 9070:1 9201:1 9214:1 9515:1 9717:1 9992:1 10013:1 11785:1 12664:1 13300:1 14222:1 17170:1 18342:1 21167:1 21518:1 26686:1 28447:1 28767:1 
0.2131754057245302 1:1 2:1 3:1 4:1 5:1 8:1 10:1 12:1 14:1 18:1 19:1 20:1 21:1 29:1 30:1 36:1 39:1 52:1 54:1 58:1 62:1 70:1 77:1 81:1 111:1 125:1 139:1 142:1 194:1 196:1 271:1 276:1 337:1 403:1 475:1 547:1 553:1 570:1 573:1 590:1 605:1 656:1 745:1 782:1 787:1 847:1 887:1 1071:1 1106:1 1175:1 1242:1 1357:1 1396:1 1819:1 1933:1 2020:1 2605:1 2652:1 3393:1 4102:1 4661:1 5323:1 6061:1 6151:1 6384:1 6606:1 7254:1 7799:1 8081:1 8110:1 8325:1 8563:1 9813:1 10012:1 10496:1 10878:1 11530:1 11611:1 13354:1 16188:1 18905:1 22977:1 24953:1 27429:1 28447:1 29233:1 31297:1 32856:1 33752:1 33816:1 34650:1 
1 1:1 4:1 5:1 9:1 12:1 14:1 18:1 20:1 23:1 39:1 58:1 66:1 100:1 147:1 181:1 194:1 304:1 387:1 447:1 535:1 547:1 637:1 685:1 901:1 907:1 1165:1 1295:1 1723:1 2098:1 2355:1 2593:1 4485:1 5008:1 6057:1 7022:1 7432:1 8689:1 8745:1 10418:1 11216:1 13007:1 14373:1 15025:1 23933:1 27408:1 30556:1 31889:1 34951:1 35099:1 
0.045468999567015236 1:1 2:1 4:1 5:1 7:1 9:1 12:1 13:1 14:1 18:1 19:1 20:1 21:1 29:1 56:1 64:1 83:1 94:1 125:1 142:1 182:1 194:1 238:1 311:1 316:1 383:1 387:1 432:1 450:1 536:1 571:1 623:1 629:1 652:1 752:1 1135:1 1277:1 1447:1 1604:1 1941:1 2387:1 2594:1 3786:1 3874:1 4435:1 4492:1 4910:1 5020:1 5888:1 6355:1 6873:1 6958:1 7193:1 7845:1 10195:1 11095:1 11935:1 12526:1 13749:1 15137:1 16057:1 20770:1 22322:1 22525:1 23660:1 26674:1 28350:1 30143:1 30419:1 31066:1 32999:1 
1 1:1 3:1 5:1 7:1 8:1 9:1 12:1 13:1 15:1 18:1 19:1 22:1 45:1 47:1 49:1 62:1 65:1 93:1 139:1 184:1 190:1 238:1 285:1 287:1 309:1 396:1 413:1 479:1 496:1 535:1 544:1 573:1 585:1 675:1 961:1 989:1 1018:1 1232:1 1287:1 1581:1 2034:1 2036:1 2415:1 2524:1 3480:1 3517:1 3750:1 4599:1 5537:1 6013:1 6384:1 6508:1 7397:1 8954:1 9189:1 9397:1 10809:1 11189:1 12426:1 14027:1 14060:1 19336:1 20181:1 22829:1 27218:1 28460:1 31765:1 
0.12468698434986278 3:1 5:1 7:1 8:1 9:1 13:1 18:1 19:1 20:1 36:1 39:1 49:1 51:1 53:1 57:1 62:1 74:1 139:1 182:1 194:1 196:1 238:1 256:1 269:1 271:1 304:1 311:1 313:1 317:1 323:1 324:1 418:1 422:1 426:1 535:1 570:1 573:1 575:1 579:1 605:1 614:1 852:1 890:1 1021:1 1059:1 1067:1 1096:1 1100:1 1150:1 1234:1 1379:1 2020:1 2387:1 2593:1 2657:1 3226:1 3330:1 3786:1 3817:1 3900:1 3986:1 3989:1 4010:1 4788:1 4833:1 4851:1 6384:1 6395:1 6454:1 6788:1 8362:1 8594:1 9420:1 9717:1 9776:1 9966:1 9992:1 10328:1 10813:1 11578:1 15136:1 16491:1 18342:1 18614:1 20849:1 21167:1 23329:1 23461:1 23513:1 28447:1 28509:1 28767:1 29819:1 34242:1 34725:1 
0.032842115821050191 1:1 2:1 3:1 4:1 5:1 8:1 9:1 11:1 12:1 13:1 14:1 15:1 16:1 18:1 20:1 26:1 29:1 36:1 39:1 46:1 57:1 60:1 67:1 82:1 95:1 100:1 137:1 139:1 154:1 180:1 194:1 272:1 284:1 307:1 315:1 355:1 383:1 418:1 451:1 455:1 475:1 492:1 505:1 535:1 539:1 550:1 622:1 728:1 752:1 858:1 865:1 901:1 907:1 987:1 1148:1 1198:1 1325:1 1420:1 1617:1 1710:1 2015:1 2021:1 2033:1 2154:1 2349:1 2593:1 3340:1 3472:1 3725:1 3851:1 4226:1 4447:1 4776:1 5061:1 5114:1 5330:1 5503:1 5659:1 5922:1 6116:1 6863:1 7729:1 7836:1 8411:1 8471:1 8683:1 8745:1 9179:1 10301:1 10593:1 11400:1 11744:1 12604:1 12964:1 13897:1 13904:1 14019:1 14556:1 14993:1 18632:1 19152:1 20093:1 20687:1 21767:1 22379:1 23263:1 24147:1 24373:1 24978:1 25486:1 26068:1 26836:1 27607:1 30096:1 32730:1 32955:1 34480:1 34921:1 35094:1 
0.012938031850205598 1:1 2:1 3:1 4:1 5:1 6:1 7:1 8:1 9:1 12:1 13:1 14:1 15:1 16:1 18:1 19:1 20:1 21:1 23:1 29:1 46:1 47:1 48:1 51:1 53:1 57:1 62:1 64:1 66:1 69:1 94:1 115:1 139:1 142:1 147:1 177:1 189:1 191:1 194:1 195:1 196:1 210:1 256:1 258:1 271:1 287:1 290:1 304:1 313:1 318:1 324:1 378:1 429:1 433:1 446:1 450:1 479:1 508:1 535:1 536:1 573:1 579:1 585:1 605:1 610:1 644:1 652:1 686:1 743:1 975:1 989:1 992:1 1059:1 1060:1 1086:1 1154:1 1232:1 1235:1 1238:1 1277:1 1296:1 1335:1 1601:1 1859:1 2020:1 2036:1 2039:1 2082:1 2494:1 2544:1 2593:1 2628:1 2652:1 2774:1 3226:1 3257:1 3515:1 3573:1 3817:1 3833:1 3910:1 4014:1 4883:1 4915:1 5020:1 5686:1 5888:1 6384:1 6454:1 6508:1 6736:1 7074:1 7078:1 7079:1 7193:1 7453:1 9094:1 9189:1 9214:1 9717:1 9724:1 10346:1 10809:1 10833:1 10846:1 11095:1 11236:1 12514:1 13513:1 14058:1 14114:1 16368:1 16841:1 18342:1 18441:1 19323:1 19602:1 20612:1 21281:1 23612:1 23667:1 26142:1 26672:1 28447:1 28465:1 28767:1 29623:1 30676:1 30715:1 30719:1 31066:1 31990:1 
1 3:1 4:1 8:1 9:1 12:1 14:1 18:1 21:1 22:1 39:1 47:1 48:1 64:1 65:1 139:1 142:1 159:1 271:1 280:1 307:1 316:1 318:1 387:1 450:1 568:1 652:1 672:1 886:1 907:1 989:1 995:1 1277:1 1286:1 2020:1 2029:1 2202:1 3427:1 3725:1 3874:1 3913:1 4488:1 5020:1 6345:1 7193:1 7377:1 8733:1 9185:1 9281:1 11095:1 11174:1 13981:1 14693:1 18997:1 20085:1 20767:1 20888:1 22500:1 28312:1 31066:1 31716:1 
1 3:1 4:1 5:1 8:1 9:1 12:1 13:1 14:1 18:1 20:1 21:1 22:1 23:1 57:1 64:1 65:1 66:1 139:1 142:1 177:1 194:1 289:1 307:1 309:1 316:1 387:1 418:1 450:1 535:1 605:1 652:1 672:1 686:1 1148:1 1277:1 1286:1 1296:1 2038:1 2593:1 3537:1 3725:1 3744:1 3874:1 4488:1 4788:1 5020:1 7193:1 7377:1 7450:1 10309:1 11095:1 11174:1 11234:1 14079:1 20096:1 20767:1 22500:1 23329:1 31066:1 31716:1 31968:1 
