svm_type c_svc
kernel_type rbf
gamma 2.739951228868126e-05
nr_class 2
total_sv 1434
rho -0.96234129887775832
label 0 1
probA -324.67790679712203
probB 321.59319418294905
nr_sv 803 631
SV
0.37093815106125683 1:1 4:1 5:1 6:1 8:1 9:1 12:1 13:1 14:1 17:1 18:1 19:1 20:1 25:1 27:1 33:1 34:1 35:1 37:1 38:1 49:1 55:1 71:1 118:1 143:1 148:1 162:1 165:1 176:1 255:1 259:1 264:1 271:1 277:1 332:1 361:1 380:1 384:1 468:1 492:1 497:1 540:1 564:1 654:1 658:1 685:1 776:1 791:1 800:1 840:1 843:1 1012:1 1080:1 1290:1 1961:1 2211:1 2265:1 2412:1 3246:1 3336:1 3472:1 3591:1 4096:1 4429:1 4614:1 5553:1 5980:1 6441:1 6745:1 7480:1 7552:1 7684:1 8514:1 8605:1 8679:1 9047:1 10281:1 10727:1 11740:1 14286:1 15715:1 16441:1 19799:1 20820:1 21288:1 22817:1 23897:1 29686:1 32503:1 35229:1 35575:1 
1 1:1 3:1 4:1 5:1 6:1 7:1 8:1 9:1 11:1 13:1 14:1 15:1 17:1 23:1 25:1 28:1 33:1 36:1 37:1 40:1 42:1 43:1 44:1 58:1 114:1 118:1 127:1 148:1 165:1 184:1 206:1 232:1 255:1 259:1 264:1 282:1 320:1 357:1 384:1 408:1 415:1 463:1 614:1 649:1 654:1 701:1 770:1 815:1 840:1 884:1 898:1 920:1 926:1 1706:1 1820:1 2260:1 2508:1 2687:1 2968:1 3242:1 3336:1 3351:1 3673:1 3959:1 4370:1 4614:1 4929:1 4981:1 7198:1 7417:1 7482:1 8446:1 8786:1 9044:1 9340:1 9474:1 9659:1 9684:1 13328:1 13904:1 16777:1 17305:1 19761:1 20211:1 21618:1 22342:1 25773:1 34094:1 34903:1 
0.54413486113908949 1:1 3:1 4:1 5:1 6:1 8:1 9:1 11:1 12:1 14:1 16:1 17:1 18:1 20:1 22:1 25:1 33:1 38:1 40:1 43:1 45:1 49:1 51:1 76:1 114:1 118:1 119:1 123:1 127:1 148:1 153:1 157:1 160:1 165:1 166:1 180:1 231:1 259:1 263:1 273:1 277:1 302:1 318:1 327:1 332:1 380:1 384:1 389:1 458:1 469:1 475:1 492:1 495:1 564:1 594:1 656:1 663:1 768:1 769:1 770:1 859:1 875:1 883:1 914:1 956:1 1012:1 1029:1 1370:1 1705:1 1753:1 1772:1 1781:1 1815:1 2060:1 2119:1 2133:1 2169:1 2266:1 2289:1 2438:1 3319:1 3508:1 3589:1 3822:1 3947:1 4020:1 4091:1 4614:1 4708:1 5474:1 5581:1 5672:1 5957:1 6745:1 7006:1 7009:1 7516:1 7599:1 8416:1 8421:1 8443:1 9172:1 9279:1 9334:1 9597:1 9867:1 10281:1 10423:1 13665:1 13750:1 14635:1 15039:1 15184:1 15734:1 16524:1 21275:1 21961:1 22320:1 22545:1 24876:1 27481:1 27992:1 28407:1 29529:1 32503:1 33449:1 33462:1 35097:1 35387:1 
1 1:1 3:1 4:1 5:1 7:1 8:1 9:1 10:1 12:1 13:1 14:1 18:1 19:1 20:1 33:1 34:1 36:1 39:1 49:1 58:1 59:1 72:1 76:1 114:1 119:1 148:1 151:1 157:1 162:1 166:1 204:1 208:1 210:1 231:1 242:1 259:1 266:1 268:1 289:1 328:1 332:1 352:1 387:1 399:1 492:1 495:1 534:1 563:1 768:1 781:1 787:1 794:1 818:1 865:1 1011:1 1100:1 1116:1 1309:1 1370:1 1705:1 1716:1 1740:1 2021:1 2126:1 2229:1 2292:1 2674:1 2692:1 2706:1 2727:1 3083:1 3383:1 3413:1 3705:1 3706:1 4037:1 4100:1 4679:1 4840:1 5957:1 6380:1 6719:1 8406:1 8541:1 8580:1 8648:1 8816:1 9194:1 9195:1 10261:1 10942:1 11834:1 13431:1 13624:1 14457:1 14464:1 14992:1 15560:1 15986:1 17257:1 17418:1 17559:1 19016:1 20361:1 21682:1 22582:1 22849:1 24743:1 25326:1 29529:1 31231:1 
1 1:1 2:1 3:1 4:1 5:1 6:1 7:1 8:1 9:1 11:1 12:1 13:1 14:1 15:1 16:1 17:1 18:1 19:1 22:1 23:1 25:1 31:1 33:1 36:1 38:1 40:1 44:1 47:1 48:1 51:1 52:1 72:1 93:1 109:1 114:1 143:1 148:1 150:1 153:1 160:1 162:1 165:1 166:1 167:1 180:1 203:1 210:1 212:1 221:1 231:1 240:1 246:1 249:1 259:1 264:1 268:1 272:1 273:1 277:1 302:1 310:1 323:1 329:1 352:1 357:1 380:1 385:1 391:1 394:1 405:1 421:1 423:1 440:1 463:1 470:1 492:1 495:1 497:1 501:1 510:1 522:1 523:1 527:1 597:1 601:1 605:1 640:1 643:1 647:1 656:1 657:1 754:1 776:1 827:1 855:1 856:1 859:1 879:1 934:1 972:1 993:1 1031:1 1034:1 1037:1 1316:1 1556:1 1679:1 1705:1 1714:1 1720:1 1723:1 1951:1 1964:1 2018:1 2062:1 2165:1 2211:1 2260:1 2292:1 2305:1 2319:1 2443:1 2735:1 2776:1 2868:1 3054:1 3133:1 3169:1 3352:1 3413:1 3488:1 3493:1 3508:1 3586:1 3589:1 3818:1 3878:1 4058:1 4382:1 4643:1 4737:1 4766:1 4897:1 5047:1 5095:1 5293:1 5595:1 5957:1 5965:1 6031:1 6127:1 6264:1 6300:1 7054:1 7083:1 7374:1 7402:1 7513:1 7531:1 8306:1 8506:1 8516:1 8904:1 9135:1 9144:1 9172:1 9305:1 9711:1 9996:1 10126:1 10459:1 10482:1 11888:1 12891:1 13268:1 13404:1 13473:1 13508:1 14304:1 14449:1 14660:1 15986:1 16048:1 16115:1 16566:1 17604:1 17803:1 18194:1 18888:1 19227:1 20238:1 20892:1 21275:1 21933:1 22138:1 22715:1 23743:1 24576:1 24990:1 25064:1 25517:1 25955:1 26163:1 26935:1 29529:1 29537:1 29543:1 29902:1 30255:1 30712:1 30892:1 33648:1 33741:1 34537:1 34612:1 35063:1 35166:1 
0.6678436881473877 1:1 3:1 4:1 5:1 7:1 8:1 9:1 10:1 11:1 12:1 14:1 16:1 18:1 19:1 23:1 25:1 33:1 34:1 38:1 39:1 40:1 47:1 65:1 70:1 74:1 114:1 123:1 148:1 151:1 153:1 162:1 171:1 203:1 231:1 232:1 236:1 249:1 277:1 278:1 290:1 295:1 305:1 332:1 333:1 385:1 389:1 444:1 493:1 495:1 523:1 527:1 605:1 654:1 663:1 769:1 781:1 860:1 866:1 876:1 971:1 1189:1 1265:1 1266:1 1336:1 1705:1 1710:1 1723:1 1777:1 2021:1 2057:1 2215:1 2374:1 2983:1 3006:1 3174:1 3589:1 3612:1 3735:1 3774:1 3834:1 4109:1 4118:1 4641:1 4720:1 5352:1 5932:1 5957:1 6262:1 6285:1 7487:1 7597:1 8426:1 8541:1 9181:1 9217:1 9280:1 9985:1 11610:1 11614:1 11978:1 13360:1 13513:1 13721:1 14457:1 14619:1 15459:1 18594:1 19391:1 21275:1 21390:1 21739:1 21822:1 21988:1 22910:1 22949:1 24946:1 27134:1 29419:1 29533:1 29546:1 30693:1 30694:1 34943:1 35373:1 
1 1:1 4:1 5:1 7:1 8:1 9:1 11:1 12:1 13:1 14:1 18:1 19:1 23:1 25:1 33:1 37:1 40:1 42:1 43:1 52:1 59:1 70:1 71:1 76:1 118:1 119:1 148:1 208:1 255:1 263:1 266:1 268:1 278:1 320:1 332:1 353:1 357:1 389:1 399:1 492:1 522:1 614:1 654:1 658:1 768:1 840:1 884:1 898:1 914:1 1043:1 1111:1 1112:1 1265:1 1285:1 1370:1 1740:1 1753:1 2692:1 3246:1 3319:1 3383:1 3431:1 3611:1 3962:1 4098:1 4335:1 4370:1 4708:1 4831:1 7201:1 7493:1 7546:1 8406:1 8416:1 9047:1 9342:1 9474:1 9597:1 10538:1 10872:1 10886:1 11604:1 11704:1 13621:1 13665:1 19796:1 20354:1 20640:1 22355:1 22838:1 23549:1 24876:1 34117:1 34969:1 
0.26091184477002927 1:1 2:1 3:1 4:1 5:1 6:1 7:1 8:1 9:1 10:1 11:1 12:1 13:1 14:1 15:1 17:1 18:1 19:1 20:1 21:1 25:1 28:1 31:1 32:1 33:1 35:1 37:1 38:1 39:1 41:1 42:1 43:1 47:1 49:1 50:1 58:1 61:1 72:1 75:1 112:1 114:1 118:1 123:1 127:1 133:1 143:1 148:1 155:1 165:1 192:1 203:1 204:1 208:1 210:1 231:1 247:1 249:1 255:1 264:1 266:1 277:1 289:1 311:1 338:1 353:1 380:1 381:1 384:1 387:1 391:1 409:1 420:1 424:1 427:1 464:1 466:1 470:1 472:1 478:1 495:1 499:1 522:1 547:1 564:1 584:1 640:1 654:1 658:1 663:1 716:1 763:1 765:1 769:1 771:1 776:1 806:1 840:1 859:1 865:1 890:1 897:1 912:1 972:1 1012:1 1022:1 1146:1 1309:1 1313:1 1359:1 1701:1 1705:1 1721:1 1723:1 1772:1 1822:1 1874:1 1961:1 1968:1 2086:1 2263:1 2556:1 2674:1 2692:1 2709:1 2727:1 3146:1 3193:1 3246:1 3343:1 3379:1 3589:1 3705:1 3880:1 4177:1 4348:1 4585:1 4614:1 4623:1 4679:1 4744:1 5036:1 5111:1 5126:1 5174:1 5508:1 5530:1 5598:1 5629:1 5723:1 5957:1 6001:1 6538:1 6745:1 6968:1 7480:1 7482:1 7546:1 7587:1 7966:1 8387:1 8398:1 8421:1 8472:1 8514:1 8519:1 8724:1 9047:1 9172:1 9194:1 9410:1 9469:1 9569:1 9996:1 10281:1 10392:1 11117:1 11834:1 11874:1 12110:1 13317:1 13485:1 13532:1 13915:1 14051:1 14286:1 14308:1 15701:1 16910:1 17257:1 17438:1 17559:1 19303:1 19538:1 19796:1 20165:1 21275:1 23128:1 23605:1 24337:1 24497:1 24743:1 25012:1 25914:1 26323:1 26583:1 27609:1 27732:1 28055:1 28192:1 28608:1 29529:1 29546:1 29792:1 31807:1 32503:1 33300:1 34906:1 36259:1 
0.57477932448247793 1:1 2:1 3:1 4:1 5:1 6:1 7:1 8:1 9:1 11:1 12:1 13:1 14:1 15:1 17:1 18:1 19:1 20:1 21:1 22:1 23:1 25:1 27:1 34:1 35:1 36:1 42:1 47:1 48:1 50:1 55:1 62:1 72:1 78:1 84:1 89:1 114:1 118:1 148:1 151:1 159:1 161:1 162:1 165:1 166:1 199:1 203:1 204:1 210:1 212:1 215:1 220:1 221:1 231:1 236:1 249:1 259:1 266:1 268:1 273:1 278:1 311:1 324:1 352:1 357:1 361:1 380:1 385:1 389:1 403:1 422:1 423:1 427:1 464:1 482:1 488:1 492:1 495:1 499:1 501:1 522:1 537:1 539:1 544:1 553:1 554:1 584:1 598:1 629:1 647:1 656:1 657:1 663:1 678:1 781:1 790:1 791:1 794:1 809:1 822:1 826:1 827:1 900:1 970:1 997:1 1022:1 1077:1 1147:1 1311:1 1417:1 1517:1 1705:1 1710:1 1723:1 2021:1 2156:1 2191:1 2211:1 2215:1 2279:1 2292:1 2636:1 2674:1 2727:1 2767:1 2795:1 2847:1 2868:1 3017:1 3191:1 3379:1 3413:1 3426:1 3516:1 3611:1 3889:1 3997:1 4382:1 4434:1 4641:1 4704:1 4712:1 4891:1 5067:1 5107:1 5174:1 5499:1 5788:1 5803:1 5887:1 5957:1 6001:1 6031:1 6418:1 6437:1 6514:1 6589:1 6602:1 6966:1 7065:1 7313:1 7403:1 7522:1 7531:1 7593:1 7633:1 8541:1 8596:1 8605:1 8648:1 8749:1 8855:1 8890:1 8904:1 9501:1 10176:1 10390:1 10716:1 11856:1 12337:1 12732:1 13369:1 13530:1 14457:1 15133:1 15459:1 15903:1 15986:1 17141:1 17258:1 17559:1 17771:1 17849:1 18055:1 18194:1 18748:1 19525:1 20588:1 21016:1 22171:1 22473:1 23746:1 23920:1 24908:1 25502:1 26051:1 26217:1 26583:1 27543:1 28917:1 29248:1 29529:1 29546:1 29792:1 29902:1 31363:1 31472:1 31760:1 31975:1 33289:1 33705:1 34399:1 34624:1 35129:1 35166:1 35342:1 35450:1 
0.81195959829823394 5:1 7:1 9:1 10:1 18:1 19:1 22:1 36:1 39:1 51:1 148:1 157:1 221:1 264:1 278:1 290:1 497:1 522:1 595:1 827:1 866:1 1030:1 2136:1 2864:1 3336:1 3611:1 3717:1 5973:1 7025:1 8903:1 9205:1 10439:1 15065:1 18165:1 29634:1 33537:1 
1 1:1 2:1 3:1 4:1 5:1 6:1 7:1 8:1 9:1 12:1 14:1 15:1 17:1 18:1 19:1 20:1 23:1 25:1 30:1 31:1 33:1 36:1 37:1 41:1 47:1 61:1 72:1 81:1 85:1 93:1 114:1 118:1 123:1 148:1 150:1 153:1 156:1 165:1 181:1 194:1 203:1 206:1 231:1 249:1 250:1 253:1 255:1 259:1 274:1 324:1 380:1 384:1 423:1 424:1 482:1 495:1 497:1 522:1 523:1 557:1 564:1 610:1 612:1 614:1 658:1 659:1 733:1 754:1 769:1 815:1 840:1 887:1 972:1 974:1 1146:1 1306:1 1457:1 1475:1 1546:1 1705:1 1723:1 1727:1 1729:1 1772:1 1789:1 2008:1 2045:1 2115:1 2279:1 2464:1 2582:1 2687:1 3170:1 3208:1 3224:1 3225:1 3246:1 3247:1 3542:1 3992:1 4614:1 4619:1 5084:1 5123:1 5789:1 5957:1 5969:1 6255:1 6270:1 6643:1 6745:1 7156:1 7175:1 7207:1 7546:1 7562:1 8091:1 8297:1 8421:1 8786:1 9047:1 9365:1 9996:1 10002:1 11117:1 11136:1 11794:1 12478:1 12511:1 13509:1 13560:1 13561:1 13579:1 13821:1 14389:1 14556:1 14938:1 15892:1 16648:1 17310:1 19380:1 19600:1 19700:1 19701:1 19796:1 19804:1 21116:1 22441:1 24475:1 26279:1 28845:1 29546:1 29587:1 30659:1 30754:1 32169:1 32506:1 33965:1 34138:1 35270:1 
0.30745216555706861 2:1 3:1 4:1 5:1 8:1 9:1 12:1 13:1 14:1 15:1 17:1 18:1 19:1 20:1 21:1 22:1 25:1 27:1 33:1 37:1 38:1 42:1 43:1 47:1 49:1 50:1 84:1 114:1 118:1 143:1 148:1 165:1 231:1 249:1 252:1 255:1 259:1 262:1 271:1 337:1 361:1 380:1 384:1 385:1 394:1 409:1 424:1 463:1 495:1 507:1 517:1 522:1 527:1 564:1 582:1 603:1 642:1 654:1 658:1 663:1 693:1 767:1 776:1 840:1 843:1 900:1 911:1 972:1 979:1 987:1 1012:1 1021:1 1705:1 1723:1 1726:1 1961:1 2260:1 3174:1 3222:1 3246:1 3317:1 3477:1 4162:1 4422:1 4614:1 4641:1 4763:1 5111:1 5957:1 6093:1 6224:1 6300:1 6745:1 6949:1 7106:1 7360:1 7490:1 7546:1 7588:1 7762:1 8514:1 9047:1 9490:1 9996:1 10049:1 10094:1 10281:1 10376:1 13513:1 13558:1 14290:1 19404:1 19695:1 19796:1 20056:1 20848:1 23069:1 23855:1 29546:1 29548:1 30134:1 30572:1 30892:1 32503:1 33256:1 33848:1 34955:1 35324:1 35750:1 
1 1:1 4:1 5:1 8:1 9:1 13:1 14:1 17:1 20:1 33:1 37:1 42:1 49:1 58:1 59:1 118:1 119:1 123:1 148:1 157:1 165:1 236:1 259:1 357:1 384:1 463:1 564:1 768:1 769:1 834:1 898:1 1012:1 1100:1 1740:1 1772:1 2119:1 2260:1 3015:1 4385:1 4614:1 6745:1 8406:1 8421:1 8982:1 9483:1 10281:1 13617:1 18730:1 23759:1 32503:1 
1 1:1 4:1 5:1 8:1 9:1 10:1 11:1 12:1 13:1 14:1 15:1 17:1 18:1 19:1 21:1 22:1 25:1 27:1 30:1 33:1 34:1 37:1 39:1 42:1 48:1 50:1 51:1 55:1 58:1 59:1 75:1 76:1 119:1 165:1 167:1 255:1 271:1 277:1 289:1 315:1 323:1 357:1 391:1 409:1 463:1 482:1 485:1 492:1 507:1 522:1 527:1 547:1 584:1 593:1 595:1 654:1 658:1 685:1 746:1 768:1 793:1 840:1 865:1 898:1 1001:1 1022:1 1028:1 1030:1 1080:1 1100:1 1115:1 1363:1 1370:1 1383:1 1740:1 2260:1 2282:1 2315:1 3246:1 3463:1 3586:1 3706:1 3918:1 4385:1 4747:1 5792:1 5838:1 6082:1 6302:1 6538:1 6959:1 6987:1 6999:1 7031:1 7488:1 7546:1 7684:1 8225:1 8406:1 8642:1 9047:1 9195:1 9483:1 10205:1 10384:1 10414:1 10443:1 10727:1 10937:1 12127:1 12192:1 13617:1 15928:1 19796:1 21682:1 23759:1 25019:1 28867:1 29071:1 30928:1 31809:1 33362:1 33422:1 33567:1 34952:1 35573:1 
1 1:1 4:1 5:1 7:1 8:1 9:1 10:1 12:1 13:1 14:1 15:1 17:1 18:1 19:1 21:1 23:1 25:1 30:1 36:1 37:1 39:1 42:1 43:1 44:1 47:1 52:1 72:1 118:1 148:1 167:1 227:1 255:1 271:1 278:1 293:1 323:1 332:1 357:1 361:1 384:1 385:1 398:1 409:1 423:1 424:1 430:1 463:1 492:1 507:1 522:1 547:1 582:1 614:1 640:1 656:1 658:1 663:1 743:1 830:1 840:1 869:1 898:1 900:1 913:1 934:1 979:1 1043:1 1319:1 2315:1 2946:1 3246:1 3463:1 3472:1 3611:1 3634:1 3745:1 4110:1 4370:1 4429:1 4614:1 4658:1 4808:1 5088:1 5111:1 5235:1 6093:1 6099:1 6543:1 6949:1 7211:1 7506:1 7546:1 7587:1 7599:1 8189:1 8939:1 9047:1 9222:1 9474:1 9496:1 9594:1 9708:1 10049:1 10054:1 10546:1 11902:1 18452:1 19796:1 20828:1 21518:1 22926:1 23897:1 24682:1 26113:1 26801:1 30134:1 30157:1 31835:1 33249:1 34151:1 35377:1 
1 1:1 3:1 4:1 5:1 7:1 8:1 9:1 10:1 12:1 13:1 14:1 15:1 16:1 17:1 18:1 19:1 22:1 23:1 25:1 28:1 33:1 34:1 36:1 38:1 39:1 42:1 43:1 44:1 45:1 47:1 48:1 52:1 54:1 58:1 59:1 65:1 70:1 77:1 114:1 118:1 119:1 123:1 127:1 148:1 152:1 162:1 165:1 166:1 203:1 221:1 231:1 240:1 249:1 259:1 266:1 268:1 272:1 273:1 277:1 278:1 290:1 323:1 332:1 353:1 361:1 380:1 381:1 384:1 398:1 413:1 421:1 449:1 463:1 475:1 492:1 495:1 501:1 517:1 523:1 527:1 531:1 541:1 550:1 601:1 627:1 649:1 654:1 663:1 716:1 722:1 768:1 779:1 827:1 859:1 866:1 900:1 912:1 924:1 949:1 976:1 987:1 993:1 1053:1 1075:1 1100:1 1106:1 1111:1 1189:1 1256:1 1406:1 1705:1 1714:1 1723:1 1740:1 1772:1 1789:1 1790:1 1822:1 2028:1 2228:1 2260:1 2292:1 2868:1 3049:1 3174:1 3379:1 3413:1 3489:1 3508:1 3511:1 3589:1 3629:1 3720:1 4091:1 4110:1 4335:1 4431:1 4599:1 4614:1 4619:1 4623:1 4808:1 4962:1 5050:1 5376:1 5672:1 5957:1 6031:1 6035:1 6218:1 6253:1 6297:1 6359:1 6473:1 6486:1 6579:1 7084:1 7296:1 7429:1 7430:1 7482:1 7594:1 7969:1 8034:1 8406:1 8904:1 9172:1 9207:1 9498:1 9579:1 9678:1 9817:1 10027:1 10091:1 10119:1 10594:1 10710:1 10823:1 10863:1 12313:1 13399:1 13513:1 13617:1 13802:1 13830:1 13915:1 14484:1 15540:1 15986:1 18194:1 19402:1 20879:1 20961:1 20965:1 21275:1 21482:1 21702:1 22924:1 23549:1 23904:1 24407:1 24476:1 24497:1 25716:1 25979:1 27213:1 28407:1 29529:1 29537:1 29546:1 29902:1 29941:1 30554:1 30643:1 30884:1 31172:1 31615:1 31654:1 31923:1 33754:1 34351:1 34708:1 34717:1 34906:1 35353:1 36276:1 36461:1 
0.23457397638364927 1:1 3:1 4:1 5:1 7:1 8:1 9:1 14:1 15:1 17:1 20:1 25:1 33:1 36:1 37:1 43:1 49:1 58:1 59:1 114:1 118:1 127:1 133:1 157:1 203:1 211:1 231:1 232:1 236:1 245:1 255:1 259:1 384:1 387:1 405:1 409:1 412:1 424:1 463:1 564:1 654:1 656:1 663:1 767:1 770:1 771:1 819:1 834:1 838:1 840:1 918:1 1012:1 1100:1 1705:1 1815:1 1862:1 2119:1 2752:1 2969:1 3015:1 3121:1 3242:1 4614:1 4675:1 4911:1 4958:1 5113:1 6745:1 7485:1 7506:1 7599:1 8443:1 8461:1 8831:1 8982:1 9018:1 9044:1 9648:1 10281:1 17704:1 18492:1 18730:1 19168:1 19763:1 25567:1 25685:1 26228:1 32503:1 34922:1 35377:1 
0.53103568927411815 1:1 2:1 3:1 4:1 5:1 7:1 8:1 9:1 13:1 14:1 15:1 17:1 18:1 19:1 20:1 22:1 23:1 30:1 32:1 33:1 43:1 47:1 52:1 58:1 59:1 60:1 89:1 114:1 118:1 119:1 148:1 165:1 168:1 203:1 208:1 245:1 252:1 266:1 273:1 352:1 367:1 384:1 389:1 395:1 409:1 422:1 423:1 426:1 463:1 468:1 470:1 495:1 501:1 527:1 569:1 595:1 618:1 620:1 732:1 765:1 767:1 768:1 916:1 972:1 976:1 1045:1 1047:1 1100:1 1127:1 1517:1 1719:1 1726:1 1740:1 2260:1 2265:1 2355:1 2692:1 2709:1 3108:1 3218:1 3379:1 3383:1 3511:1 4481:1 4614:1 4711:1 4788:1 5064:1 5093:1 5150:1 5553:1 5572:1 5598:1 5957:1 6035:1 6300:1 6838:1 7027:1 7232:1 7242:1 8075:1 8397:1 8406:1 9619:1 9996:1 10027:1 10553:1 10561:1 11020:1 12715:1 13453:1 13554:1 13617:1 15715:1 15729:1 16246:1 17440:1 19665:1 20363:1 20961:1 24052:1 24891:1 25141:1 26154:1 26444:1 27964:1 28044:1 29548:1 29941:1 30897:1 32921:1 33546:1 34204:1 34222:1 
1 1:1 2:1 3:1 5:1 7:1 8:1 9:1 10:1 12:1 13:1 14:1 15:1 16:1 17:1 18:1 23:1 25:1 28:1 34:1 36:1 38:1 39:1 42:1 43:1 45:1 47:1 52:1 58:1 59:1 70:1 75:1 89:1 114:1 148:1 150:1 165:1 221:1 231:1 245:1 259:1 268:1 277:1 289:1 323:1 353:1 357:1 405:1 409:1 437:1 463:1 472:1 495:1 501:1 631:1 643:1 663:1 716:1 780:1 827:1 859:1 865:1 897:1 898:1 918:1 943:1 972:1 1056:1 1100:1 1111:1 1115:1 1256:1 1345:1 1501:1 1705:1 1719:1 2009:1 2260:1 2868:1 3108:1 3413:1 3589:1 3705:1 3706:1 4335:1 4385:1 4911:1 5269:1 5624:1 5957:1 6031:1 7341:1 7374:1 7589:1 7967:1 8539:1 8904:1 9172:1 9194:1 9195:1 9459:1 9483:1 9648:1 9758:1 9996:1 10624:1 10863:1 10920:1 13453:1 14395:1 18194:1 21275:1 21682:1 23549:1 23759:1 25562:1 26869:1 29529:1 29542:1 29902:1 34467:1 34525:1 35330:1 36263:1 
0.17073102064154441 1:1 2:1 3:1 4:1 5:1 6:1 7:1 8:1 9:1 11:1 12:1 13:1 14:1 15:1 17:1 18:1 19:1 20:1 25:1 28:1 31:1 32:1 33:1 36:1 38:1 41:1 42:1 46:1 47:1 49:1 58:1 59:1 89:1 96:1 101:1 114:1 118:1 123:1 127:1 148:1 151:1 159:1 162:1 165:1 167:1 180:1 181:1 220:1 221:1 222:1 231:1 236:1 250:1 259:1 268:1 272:1 273:1 277:1 299:1 338:1 348:1 353:1 357:1 361:1 365:1 384:1 387:1 409:1 427:1 435:1 463:1 472:1 478:1 483:1 495:1 501:1 507:1 510:1 522:1 556:1 564:1 643:1 663:1 706:1 753:1 755:1 757:1 765:1 769:1 826:1 827:1 855:1 859:1 890:1 897:1 900:1 966:1 979:1 1012:1 1100:1 1511:1 1579:1 1608:1 1705:1 1710:1 1724:1 1772:1 1791:1 1815:1 2021:1 2149:1 2214:1 2260:1 2315:1 2440:1 2453:1 2850:1 2868:1 2886:1 3006:1 3201:1 3413:1 3499:1 3514:1 3589:1 4185:1 4299:1 4335:1 4385:1 4421:1 4453:1 4614:1 4623:1 4692:1 5182:1 5262:1 5637:1 5730:1 5825:1 5957:1 6023:1 6031:1 6082:1 6131:1 6620:1 6745:1 7374:1 7589:1 7873:1 8284:1 8321:1 8339:1 8399:1 8421:1 8439:1 8893:1 8904:1 9140:1 9172:1 9416:1 9459:1 9489:1 9947:1 10039:1 10281:1 12667:1 12994:1 13090:1 13360:1 13539:1 13844:1 14460:1 15439:1 16538:1 16603:1 18097:1 18194:1 19570:1 20917:1 21010:1 21275:1 23163:1 23449:1 23544:1 23759:1 23979:1 24490:1 24836:1 26614:1 26856:1 28266:1 28671:1 29007:1 29529:1 29902:1 30284:1 32025:1 32503:1 32509:1 34525:1 35330:1 36029:1 
1 1:1 2:1 4:1 5:1 7:1 9:1 14:1 15:1 17:1 18:1 20:1 25:1 30:1 33:1 34:1 36:1 47:1 54:1 58:1 89:1 127:1 148:1 165:1 203:1 221:1 259:1 268:1 273:1 380:1 385:1 387:1 394:1 423:1 472:1 483:1 501:1 507:1 564:1 642:1 656:1 730:1 770:1 779:1 827:1 979:1 1061:1 1071:1 1501:1 1815:1 2280:1 2868:1 3413:1 3520:1 4656:1 4675:1 4766:1 5084:1 5637:1 5825:1 6031:1 6092:1 6748:1 7363:1 7514:1 8443:1 8904:1 10048:1 10630:1 10684:1 15919:1 18194:1 21046:1 24668:1 25071:1 28270:1 29010:1 29902:1 30126:1 32527:1 34496:1 35080:1 
1 1:1 3:1 4:1 5:1 7:1 8:1 9:1 10:1 13:1 14:1 15:1 17:1 18:1 20:1 32:1 34:1 36:1 38:1 39:1 43:1 47:1 49:1 58:1 61:1 114:1 118:1 155:1 161:1 203:1 221:1 231:1 247:1 259:1 264:1 268:1 277:1 289:1 352:1 381:1 384:1 409:1 424:1 472:1 495:1 501:1 507:1 564:1 765:1 790:1 827:1 859:1 865:1 912:1 979:1 1012:1 1146:1 1705:1 1721:1 2086:1 2191:1 2868:1 3146:1 3343:1 3413:1 3589:1 3705:1 4585:1 4614:1 5111:1 5629:1 5957:1 6031:1 6093:1 6745:1 8398:1 8596:1 8904:1 9172:1 9194:1 9569:1 10049:1 10281:1 11117:1 13485:1 18194:1 19303:1 20165:1 21275:1 24337:1 28192:1 29529:1 29902:1 30134:1 32503:1 
1 1:1 2:1 3:1 5:1 7:1 8:1 9:1 10:1 12:1 14:1 15:1 16:1 17:1 18:1 19:1 22:1 23:1 25:1 27:1 30:1 38:1 39:1 47:1 51:1 52:1 55:1 58:1 60:1 84:1 89:1 114:1 148:1 162:1 165:1 171:1 208:1 231:1 262:1 266:1 271:1 273:1 277:1 289:1 290:1 323:1 380:1 385:1 409:1 424:1 431:1 444:1 450:1 463:1 492:1 507:1 517:1 522:1 595:1 624:1 629:1 642:1 649:1 691:1 732:1 845:1 856:1 865:1 866:1 979:1 987:1 1030:1 1054:1 1084:1 1127:1 1517:1 1705:1 2211:1 2260:1 2387:1 2692:1 3317:1 3383:1 3463:1 3512:1 3586:1 3599:1 3705:1 3735:1 4654:1 5111:1 5239:1 5351:1 5389:1 6093:1 6100:1 6211:1 7031:1 7036:1 7264:1 7307:1 7360:1 7423:1 7739:1 8075:1 9083:1 9146:1 9194:1 9217:1 10055:1 10084:1 10443:1 10599:1 10738:1 11020:1 12715:1 16371:1 20056:1 20354:1 20985:1 21333:1 21742:1 24635:1 26809:1 27129:1 27271:1 30134:1 30158:1 30525:1 33567:1 33606:1 34378:1 34678:1 35702:1 
0.42903917359566268 1:1 3:1 4:1 5:1 7:1 8:1 9:1 10:1 14:1 15:1 17:1 18:1 21:1 23:1 25:1 28:1 33:1 36:1 38:1 39:1 44:1 50:1 54:1 58:1 72:1 114:1 118:1 123:1 133:1 148:1 165:1 203:1 204:1 208:1 210:1 227:1 231:1 264:1 277:1 289:1 384:1 387:1 409:1 414:1 423:1 435:1 463:1 486:1 495:1 582:1 612:1 647:1 656:1 701:1 769:1 771:1 818:1 830:1 859:1 865:1 921:1 934:1 942:1 1021:1 1071:1 1309:1 1705:1 1772:1 1866:1 2283:1 2674:1 2692:1 2727:1 2936:1 3351:1 3589:1 3705:1 4614:1 4679:1 4970:1 5088:1 5259:1 5852:1 5957:1 6945:1 7177:1 7399:1 7506:1 8421:1 8465:1 8816:1 8930:1 9172:1 9194:1 9708:1 9752:1 10372:1 10678:1 11834:1 14032:1 15941:1 17257:1 17559:1 18412:1 20229:1 21275:1 24743:1 26113:1 29132:1 29529:1 33242:1 34049:1 
1 1:1 3:1 4:1 5:1 6:1 8:1 9:1 12:1 13:1 14:1 15:1 16:1 17:1 18:1 19:1 20:1 22:1 23:1 25:1 28:1 32:1 33:1 34:1 35:1 37:1 42:1 45:1 49:1 51:1 52:1 54:1 72:1 76:1 114:1 118:1 123:1 143:1 148:1 165:1 166:1 187:1 232:1 240:1 245:1 249:1 255:1 259:1 264:1 276:1 278:1 328:1 351:1 361:1 379:1 380:1 384:1 399:1 409:1 424:1 437:1 463:1 468:1 492:1 501:1 510:1 511:1 527:1 531:1 534:1 541:1 551:1 564:1 593:1 601:1 625:1 654:1 659:1 663:1 703:1 705:1 765:1 769:1 776:1 793:1 804:1 836:1 900:1 910:1 943:1 1012:1 1028:1 1034:1 1051:1 1073:1 1303:1 1370:1 1384:1 1706:1 1719:1 1723:1 1729:1 1789:1 1961:1 2260:1 2265:1 2306:1 2523:1 2981:1 3066:1 3121:1 3174:1 3250:1 3351:1 3561:1 3629:1 4051:1 4322:1 4432:1 4573:1 4614:1 4838:1 5111:1 5281:1 5553:1 6028:1 6131:1 6154:1 6285:1 6342:1 6380:1 6476:1 6745:1 6999:1 7088:1 7273:1 7480:1 7493:1 7557:1 7597:1 7838:1 7865:1 8392:1 8397:1 8401:1 8437:1 8514:1 8623:1 8714:1 9003:1 9499:1 9558:1 9767:1 10281:1 10414:1 10486:1 10574:1 10700:1 12203:1 13338:1 13462:1 13513:1 13582:1 13802:1 14286:1 15715:1 16065:1 16835:1 18577:1 18968:1 19166:1 19391:1 19818:1 20215:1 21485:1 22664:1 23506:1 23913:1 24293:1 25308:1 26908:1 29888:1 30287:1 30376:1 31234:1 31621:1 32503:1 33422:1 33773:1 34973:1 35375:1 35935:1 36006:1 
1 1:1 3:1 4:1 5:1 6:1 8:1 9:1 10:1 11:1 12:1 13:1 14:1 16:1 17:1 18:1 19:1 23:1 25:1 33:1 34:1 37:1 39:1 40:1 42:1 45:1 47:1 61:1 72:1 114:1 118:1 127:1 148:1 159:1 160:1 162:1 167:1 171:1 180:1 184:1 231:1 255:1 264:1 265:1 268:1 273:1 278:1 290:1 302:1 313:1 320:1 323:1 353:1 361:1 381:1 384:1 385:1 441:1 464:1 501:1 522:1 527:1 624:1 640:1 654:1 770:1 779:1 840:1 866:1 881:1 884:1 897:1 900:1 945:1 976:1 1146:1 1306:1 1307:1 1705:1 1820:1 2151:1 2165:1 2212:1 2319:1 2387:1 2444:1 2498:1 3242:1 3336:1 3362:1 3419:1 3511:1 3615:1 3735:1 3818:1 3897:1 3956:1 4346:1 4434:1 4595:1 4614:1 4641:1 5316:1 5498:1 6035:1 6294:1 6297:1 7264:1 7482:1 8446:1 9044:1 9217:1 9318:1 9337:1 9467:1 9501:1 9784:1 10027:1 11117:1 11794:1 11816:1 13904:1 15106:1 15429:1 16111:1 16371:1 16573:1 16738:1 19761:1 20283:1 20523:1 20961:1 21406:1 21742:1 21933:1 22189:1 23589:1 23924:1 24378:1 27009:1 27542:1 29941:1 30840:1 30876:1 34903:1 
0.51978124810117143 2:1 3:1 4:1 5:1 6:1 7:1 8:1 9:1 12:1 14:1 15:1 17:1 18:1 19:1 22:1 23:1 25:1 27:1 32:1 33:1 36:1 37:1 38:1 44:1 47:1 52:1 55:1 89:1 114:1 118:1 133:1 148:1 155:1 165:1 180:1 181:1 211:1 215:1 220:1 245:1 252:1 255:1 259:1 268:1 273:1 282:1 329:1 338:1 384:1 385:1 394:1 403:1 409:1 421:1 423:1 424:1 463:1 488:1 495:1 501:1 522:1 595:1 605:1 610:1 654:1 658:1 678:1 765:1 767:1 771:1 819:1 826:1 840:1 856:1 934:1 972:1 976:1 1037:1 1077:1 1517:1 1719:1 1726:1 1874:1 2096:1 2260:1 2428:1 2453:1 2755:1 2799:1 2855:1 3118:1 3121:1 3218:1 3242:1 3246:1 3435:1 3520:1 3670:1 4059:1 4177:1 4614:1 4648:1 4766:1 4880:1 5047:1 5088:1 5111:1 5881:1 5957:1 6023:1 7028:1 7148:1 7164:1 7482:1 7496:1 7546:1 7633:1 8397:1 8472:1 8834:1 8897:1 9044:1 9047:1 9153:1 9708:1 9996:1 10017:1 10716:1 12715:1 13462:1 13554:1 14051:1 14844:1 16597:1 17726:1 17882:1 18115:1 19145:1 19166:1 19666:1 19761:1 19796:1 20673:1 21046:1 21610:1 22719:1 23119:1 24605:1 25066:1 25443:1 25956:1 26113:1 29227:1 29548:1 33562:1 34006:1 34903:1 34988:1 35450:1 
1 1:1 3:1 4:1 5:1 8:1 9:1 14:1 18:1 19:1 28:1 33:1 47:1 58:1 59:1 114:1 118:1 119:1 127:1 146:1 148:1 236:1 259:1 273:1 384:1 495:1 501:1 540:1 718:1 768:1 770:1 778:1 976:1 1100:1 1710:1 1740:1 1815:1 1990:1 3006:1 3511:1 4614:1 5957:1 6035:1 6444:1 7999:1 8406:1 8443:1 8536:1 10027:1 13360:1 13617:1 14359:1 20961:1 29533:1 29941:1 31496:1 36362:1 
0.84845625750550369 3:1 4:1 5:1 6:1 7:1 8:1 9:1 12:1 14:1 15:1 17:1 18:1 19:1 21:1 23:1 25:1 28:1 35:1 47:1 50:1 114:1 135:1 151:1 152:1 180:1 198:1 202:1 203:1 248:1 249:1 259:1 268:1 271:1 277:1 328:1 389:1 409:1 424:1 472:1 497:1 499:1 507:1 510:1 517:1 522:1 582:1 629:1 643:1 654:1 706:1 812:1 979:1 987:1 1021:1 1722:1 1723:1 1888:1 2021:1 2034:1 2431:1 2627:1 2655:1 3157:1 3169:1 3430:1 3468:1 3602:1 4037:1 4704:1 5111:1 5633:1 5968:1 5996:1 6093:1 6129:1 6212:1 6949:1 7311:1 7374:1 7487:1 7872:1 7884:1 8765:1 10049:1 10085:1 10376:1 13496:1 13508:1 14106:1 14469:1 14519:1 16496:1 17109:1 17188:1 17194:1 19333:1 20636:1 20789:1 21348:1 22582:1 28238:1 29585:1 30134:1 30275:1 30530:1 33251:1 34393:1 34536:1 34937:1 36020:1 36061:1 
1 1:1 3:1 4:1 5:1 6:1 7:1 8:1 9:1 14:1 17:1 18:1 20:1 22:1 33:1 34:1 37:1 49:1 51:1 61:1 114:1 118:1 123:1 148:1 157:1 162:1 165:1 166:1 176:1 208:1 231:1 236:1 265:1 266:1 384:1 389:1 463:1 495:1 564:1 594:1 769:1 787:1 834:1 1012:1 1029:1 1146:1 1705:1 1772:1 2125:1 2219:1 2260:1 2292:1 2406:1 2709:1 3024:1 3359:1 3383:1 4614:1 4711:1 5957:1 6745:1 7013:1 8421:1 8579:1 8988:1 10281:1 10427:1 11117:1 14987:1 15497:1 15986:1 16422:1 17435:1 18824:1 20267:1 20363:1 24892:1 29529:1 32503:1 33493:1 
1 1:1 3:1 4:1 5:1 7:1 8:1 9:1 11:1 12:1 13:1 14:1 15:1 16:1 17:1 18:1 19:1 22:1 33:1 34:1 36:1 37:1 42:1 43:1 45:1 51:1 59:1 67:1 70:1 75:1 76:1 114:1 118:1 119:1 133:1 136:1 159:1 161:1 162:1 165:1 204:1 221:1 231:1 236:1 249:1 263:1 276:1 278:1 299:1 323:1 352:1 353:1 357:1 361:1 384:1 389:1 412:1 437:1 452:1 463:1 492:1 493:1 495:1 497:1 510:1 522:1 527:1 594:1 768:1 771:1 790:1 814:1 827:1 834:1 898:1 900:1 914:1 943:1 952:1 1029:1 1115:1 1235:1 1256:1 1345:1 1370:1 1384:1 1705:1 1723:1 1753:1 1864:1 1896:1 2149:1 2191:1 2192:1 2214:1 2260:1 2665:1 2860:1 3019:1 3020:1 3174:1 3319:1 3561:1 3611:1 4344:1 4385:1 4432:1 4614:1 4632:1 4708:1 4958:1 5281:1 5410:1 5933:1 5957:1 5978:1 6127:1 6294:1 7012:1 8416:1 8463:1 8597:1 8773:1 8901:1 8985:1 8986:1 9483:1 9499:1 9597:1 9767:1 9837:1 10426:1 10920:1 11480:1 12201:1 13513:1 13665:1 14030:1 15338:1 15439:1 15451:1 17224:1 18142:1 18767:1 18781:1 19399:1 23578:1 23759:1 23913:1 24534:1 24876:1 25685:1 26908:1 27359:1 29432:1 29546:1 29668:1 30266:1 30839:1 33485:1 
1 1:1 3:1 4:1 5:1 6:1 7:1 8:1 9:1 12:1 13:1 14:1 15:1 17:1 18:1 19:1 20:1 23:1 28:1 33:1 34:1 36:1 37:1 42:1 44:1 47:1 48:1 49:1 58:1 59:1 70:1 114:1 118:1 119:1 123:1 135:1 148:1 151:1 157:1 162:1 165:1 167:1 180:1 181:1 184:1 208:1 231:1 236:1 240:1 259:1 264:1 268:1 277:1 278:1 282:1 323:1 353:1 361:1 380:1 384:1 385:1 415:1 463:1 464:1 478:1 492:1 495:1 497:1 522:1 539:1 540:1 550:1 551:1 564:1 614:1 718:1 722:1 768:1 769:1 772:1 787:1 816:1 834:1 836:1 897:1 900:1 926:1 974:1 998:1 1003:1 1004:1 1012:1 1100:1 1111:1 1256:1 1705:1 1710:1 1740:1 1772:1 1884:1 2021:1 2135:1 2211:1 2215:1 2260:1 2261:1 2315:1 2428:1 2453:1 2508:1 2706:1 3020:1 3025:1 3057:1 3351:1 3413:1 3586:1 3611:1 3673:1 4335:1 4434:1 4614:1 4656:1 4979:1 4981:1 5496:1 5718:1 5957:1 5967:1 6433:1 6444:1 6579:1 6745:1 7198:1 7999:1 8036:1 8406:1 8421:1 8478:1 8586:1 8799:1 8989:1 8996:1 9459:1 9501:1 9684:1 10000:1 10183:1 10230:1 10281:1 10863:1 13372:1 13617:1 14457:1 15057:1 15472:1 15673:1 16597:1 16777:1 17410:1 18779:1 18826:1 18898:1 20211:1 21618:1 23549:1 23920:1 24653:1 25757:1 25773:1 27525:1 28582:1 29533:1 29580:1 31435:1 31496:1 31925:1 32503:1 34094:1 36362:1 36480:1 
1 1:1 2:1 3:1 4:1 5:1 7:1 8:1 9:1 13:1 14:1 15:1 17:1 18:1 19:1 23:1 25:1 28:1 33:1 34:1 36:1 37:1 42:1 43:1 72:1 76:1 89:1 114:1 118:1 119:1 157:1 165:1 166:1 204:1 236:1 245:1 255:1 259:1 263:1 278:1 357:1 361:1 389:1 403:1 409:1 424:1 463:1 466:1 492:1 507:1 550:1 605:1 640:1 702:1 768:1 794:1 814:1 834:1 840:1 898:1 900:1 914:1 1324:1 1370:1 1517:1 1719:1 1753:1 2119:1 2260:1 2263:1 2302:1 2674:1 3015:1 3121:1 3231:1 3319:1 3636:1 4385:1 4434:1 4708:1 4876:1 5111:1 5530:1 6093:1 6563:1 7832:1 8416:1 8650:1 8780:1 8982:1 9036:1 9483:1 9501:1 9597:1 11931:1 12718:1 13462:1 13665:1 15701:1 16032:1 17262:1 18730:1 19166:1 21522:1 23759:1 23941:1 24876:1 27730:1 30134:1 31875:1 35919:1 
0.67393147047778501 2:1 3:1 4:1 5:1 8:1 9:1 13:1 14:1 15:1 17:1 18:1 19:1 21:1 25:1 28:1 34:1 37:1 38:1 44:1 47:1 50:1 56:1 89:1 114:1 123:1 148:1 157:1 161:1 162:1 165:1 166:1 231:1 236:1 248:1 249:1 259:1 264:1 273:1 277:1 357:1 365:1 380:1 389:1 409:1 411:1 413:1 463:1 468:1 492:1 495:1 497:1 507:1 517:1 537:1 582:1 643:1 717:1 787:1 794:1 834:1 843:1 922:1 924:1 972:1 987:1 1021:1 1096:1 1501:1 1514:1 1705:1 1722:1 1723:1 1789:1 2133:1 2199:1 2211:1 2260:1 2265:1 2302:1 3019:1 3153:1 3184:1 3351:1 3516:1 3589:1 4385:1 4453:1 4720:1 4947:1 4962:1 5553:1 5957:1 5980:1 6082:1 6212:1 6406:1 6945:1 7374:1 7983:1 8585:1 8650:1 8985:1 9670:1 9678:1 9996:1 10085:1 10372:1 10768:1 12697:1 13492:1 13523:1 13802:1 15046:1 15381:1 15715:1 16029:1 18773:1 19463:1 20211:1 21026:1 21275:1 23759:1 23979:1 24946:1 25655:1 25659:1 25716:1 29529:1 29546:1 29686:1 30530:1 31299:1 33242:1 34536:1 36314:1 
1 1:1 2:1 3:1 4:1 5:1 7:1 8:1 9:1 10:1 12:1 14:1 17:1 18:1 19:1 20:1 21:1 22:1 23:1 25:1 34:1 36:1 38:1 39:1 47:1 50:1 51:1 52:1 54:1 58:1 76:1 89:1 114:1 118:1 148:1 150:1 162:1 165:1 221:1 227:1 231:1 259:1 262:1 264:1 268:1 271:1 277:1 278:1 289:1 323:1 327:1 332:1 392:1 468:1 492:1 495:1 501:1 517:1 522:1 551:1 582:1 593:1 614:1 625:1 642:1 649:1 652:1 780:1 827:1 830:1 859:1 865:1 987:1 1021:1 1028:1 1043:1 1051:1 1066:1 1370:1 1501:1 1517:1 1705:1 2009:1 2222:1 2265:1 2868:1 2938:1 3317:1 3350:1 3413:1 3431:1 3463:1 3589:1 3611:1 3705:1 4017:1 4094:1 4754:1 5553:1 5957:1 6031:1 6211:1 6949:1 6999:1 7201:1 7273:1 7363:1 7421:1 7453:1 8539:1 8904:1 8932:1 9172:1 9194:1 10084:1 10376:1 10414:1 10538:1 10574:1 10644:1 12720:1 14395:1 15514:1 15715:1 18194:1 18420:1 20056:1 20204:1 20640:1 21275:1 22810:1 25041:1 29529:1 29902:1 30526:1 33249:1 33422:1 34117:1 34505:1 34665:1 34784:1 
0.47015645649867444 1:1 3:1 5:1 7:1 8:1 9:1 12:1 13:1 14:1 15:1 16:1 17:1 18:1 19:1 20:1 22:1 23:1 25:1 34:1 36:1 45:1 48:1 49:1 51:1 52:1 75:1 76:1 114:1 148:1 157:1 161:1 204:1 210:1 231:1 240:1 262:1 264:1 271:1 323:1 352:1 367:1 385:1 399:1 423:1 444:1 477:1 481:1 492:1 495:1 517:1 522:1 527:1 563:1 568:1 593:1 625:1 656:1 790:1 818:1 947:1 994:1 1015:1 1028:1 1051:1 1362:1 1389:1 1705:1 1714:1 2131:1 2191:1 2201:1 2676:1 2727:1 3052:1 3317:1 3349:1 3463:1 4479:1 4641:1 4831:1 5103:1 5342:1 5699:1 5768:1 5957:1 6220:1 6293:1 6719:1 6809:1 6998:1 7280:1 7518:1 8596:1 8816:1 9798:1 10136:1 10309:1 10413:1 10580:1 12122:1 12226:1 13402:1 15021:1 15391:1 17278:1 17561:1 18873:1 20056:1 20196:1 24042:1 26204:1 27092:1 28516:1 28790:1 29537:1 30561:1 30832:1 33418:1 34299:1 35107:1 
0.41217545834318164 1:1 3:1 4:1 5:1 7:1 8:1 9:1 10:1 12:1 13:1 14:1 15:1 17:1 18:1 19:1 22:1 23:1 25:1 33:1 36:1 37:1 38:1 39:1 41:1 42:1 43:1 44:1 51:1 52:1 58:1 72:1 114:1 118:1 123:1 148:1 152:1 165:1 208:1 212:1 218:1 231:1 255:1 259:1 262:1 264:1 277:1 278:1 289:1 324:1 361:1 385:1 387:1 395:1 409:1 412:1 413:1 428:1 463:1 470:1 480:1 492:1 510:1 522:1 541:1 595:1 601:1 614:1 649:1 656:1 769:1 820:1 840:1 845:1 865:1 887:1 900:1 913:1 916:1 924:1 1030:1 1034:1 1043:1 1309:1 1705:1 1772:1 1789:1 2024:1 2260:1 2692:1 2777:1 2838:1 3244:1 3317:1 3351:1 3602:1 3611:1 3705:1 3992:1 4424:1 4645:1 4679:1 4777:1 4780:1 4958:1 4962:1 5203:1 5606:1 5753:1 6122:1 6466:1 7021:1 7084:1 7211:1 7433:1 7520:1 8421:1 8850:1 9045:1 9083:1 9194:1 9365:1 9492:1 9586:1 9610:1 9612:1 9678:1 10435:1 10483:1 10546:1 11834:1 13802:1 17810:1 18035:1 19784:1 20056:1 20211:1 21341:1 22442:1 23866:1 24578:1 24743:1 25114:1 25685:1 25716:1 26688:1 28100:1 28754:1 33756:1 34151:1 34739:1 35119:1 
0.21805627346487544 1:1 2:1 3:1 4:1 5:1 6:1 7:1 8:1 9:1 12:1 13:1 14:1 15:1 17:1 18:1 19:1 20:1 27:1 28:1 31:1 32:1 33:1 36:1 37:1 42:1 49:1 58:1 59:1 67:1 72:1 101:1 114:1 118:1 123:1 133:1 148:1 152:1 157:1 165:1 167:1 194:1 203:1 221:1 231:1 232:1 236:1 242:1 266:1 278:1 350:1 357:1 384:1 412:1 463:1 483:1 492:1 493:1 522:1 523:1 556:1 557:1 570:1 700:1 717:1 757:1 765:1 767:1 769:1 771:1 827:1 833:1 834:1 898:1 1016:1 1100:1 1235:1 1306:1 1610:1 1705:1 1716:1 1772:1 1789:1 1864:1 2028:1 2126:1 2260:1 2315:1 2583:1 2860:1 2981:1 3015:1 3025:1 3088:1 3379:1 3611:1 4320:1 4385:1 4614:1 4958:1 5818:1 5933:1 6253:1 6621:1 6654:1 6856:1 7830:1 7980:1 8341:1 8395:1 8421:1 8437:1 8463:1 8901:1 8969:1 8982:1 8989:1 9483:1 10332:1 11480:1 11794:1 13109:1 13436:1 13802:1 14030:1 14494:1 14991:1 17000:1 18142:1 18579:1 18735:1 18826:1 19052:1 23504:1 23759:1 25685:1 28970:1 29432:1 30638:1 32027:1 32224:1 32988:1 35910:1 
1 1:1 2:1 5:1 7:1 9:1 15:1 17:1 18:1 19:1 22:1 25:1 30:1 34:1 36:1 51:1 54:1 60:1 89:1 148:1 157:1 165:1 166:1 208:1 264:1 278:1 409:1 424:1 463:1 492:1 507:1 522:1 595:1 642:1 732:1 794:1 816:1 1030:1 1061:1 1127:1 1501:1 1517:1 2136:1 2260:1 2289:1 2302:1 2701:1 3352:1 3611:1 5111:1 6093:1 7025:1 7363:1 8075:1 8650:1 8795:1 10439:1 10630:1 11020:1 12715:1 15065:1 16032:1 17378:1 20231:1 30134:1 33542:1 34496:1 
1 1:1 2:1 3:1 4:1 5:1 7:1 8:1 9:1 12:1 14:1 15:1 17:1 18:1 19:1 20:1 23:1 25:1 28:1 30:1 33:1 34:1 37:1 41:1 43:1 47:1 49:1 56:1 58:1 59:1 75:1 89:1 114:1 118:1 123:1 127:1 143:1 148:1 162:1 165:1 203:1 208:1 245:1 255:1 266:1 343:1 380:1 381:1 384:1 385:1 387:1 403:1 409:1 424:1 463:1 466:1 486:1 492:1 507:1 522:1 540:1 564:1 624:1 631:1 654:1 658:1 702:1 714:1 731:1 769:1 776:1 791:1 793:1 840:1 891:1 912:1 979:1 1012:1 1090:1 1115:1 1367:1 1517:1 1719:1 1772:1 1822:1 1961:1 2211:1 2215:1 2232:1 2260:1 2263:1 2706:1 3121:1 3246:1 3379:1 4252:1 4582:1 4614:1 4623:1 4654:1 4679:1 4893:1 5111:1 5530:1 5862:1 6093:1 6441:1 6745:1 6748:1 7264:1 7339:1 7480:1 7546:1 7552:1 7832:1 7941:1 8065:1 8421:1 8514:1 8605:1 8623:1 9047:1 9421:1 9567:1 10049:1 10281:1 10753:1 10940:1 12146:1 12718:1 13462:1 13915:1 14286:1 15470:1 15589:1 15701:1 17410:1 19166:1 19796:1 19799:1 23310:1 24497:1 24646:1 24753:1 25513:1 27730:1 29162:1 30134:1 32503:1 32529:1 34461:1 35229:1 35919:1 36174:1 
0.28694548563185196 1:1 3:1 4:1 5:1 7:1 8:1 9:1 13:1 14:1 17:1 18:1 19:1 22:1 23:1 25:1 33:1 37:1 38:1 42:1 47:1 58:1 59:1 114:1 119:1 123:1 143:1 148:1 165:1 167:1 220:1 231:1 249:1 252:1 255:1 259:1 262:1 266:1 268:1 273:1 282:1 357:1 380:1 385:1 394:1 463:1 472:1 481:1 495:1 501:1 522:1 527:1 595:1 605:1 654:1 658:1 768:1 769:1 776:1 840:1 843:1 851:1 856:1 898:1 976:1 1100:1 1705:1 1723:1 1726:1 1740:1 1789:1 1961:1 2260:1 2278:1 2315:1 2849:1 3174:1 3218:1 3246:1 3317:1 3395:1 3420:1 3435:1 3512:1 3666:1 4370:1 4656:1 4763:1 5627:1 5768:1 5957:1 6026:1 6302:1 7028:1 7490:1 7546:1 8406:1 8437:1 8514:1 9047:1 9113:1 9146:1 9474:1 10019:1 13513:1 13554:1 13617:1 13802:1 14290:1 15871:1 18079:1 19406:1 19666:1 19796:1 20056:1 20068:1 20423:1 20544:1 20670:1 20987:1 24666:1 28178:1 28790:1 29548:1 29879:1 30928:1 33562:1 34955:1 
0.1318162115351045 1:1 3:1 4:1 5:1 7:1 8:1 9:1 13:1 14:1 16:1 17:1 18:1 19:1 20:1 22:1 28:1 33:1 34:1 36:1 37:1 42:1 43:1 45:1 51:1 61:1 75:1 114:1 123:1 148:1 153:1 157:1 165:1 166:1 167:1 221:1 231:1 236:1 268:1 277:1 278:1 372:1 379:1 381:1 437:1 463:1 472:1 492:1 497:1 522:1 527:1 554:1 556:1 598:1 705:1 769:1 779:1 783:1 793:1 827:1 834:1 905:1 910:1 912:1 943:1 1032:1 1146:1 1354:1 1705:1 1710:1 1789:1 2060:1 2136:1 2260:1 2289:1 2315:1 2319:1 2864:1 3006:1 3025:1 3430:1 3586:1 3611:1 4523:1 4573:1 4585:1 5280:1 5633:1 5973:1 6300:1 6602:1 6632:1 7065:1 7865:1 8437:1 8553:1 8623:1 8903:1 8989:1 9521:1 9558:1 9569:1 9766:1 10469:1 11117:1 12078:1 13360:1 13802:1 14630:1 15065:1 16115:1 18165:1 18826:1 20627:1 24151:1 24293:1 24337:1 26901:1 28238:1 29634:1 30892:1 31975:1 32112:1 33705:1 35998:1 
0.87394810103420462 1:1 2:1 3:1 4:1 5:1 6:1 7:1 8:1 9:1 11:1 12:1 13:1 14:1 15:1 17:1 18:1 19:1 20:1 21:1 22:1 23:1 25:1 33:1 35:1 42:1 43:1 47:1 50:1 52:1 60:1 72:1 106:1 114:1 118:1 127:1 148:1 165:1 167:1 187:1 203:1 204:1 249:1 262:1 264:1 271:1 272:1 273:1 300:1 332:1 343:1 357:1 361:1 384:1 385:1 395:1 403:1 409:1 423:1 463:1 474:1 501:1 522:1 527:1 558:1 582:1 594:1 601:1 612:1 627:1 654:1 770:1 804:1 900:1 916:1 976:1 1021:1 1053:1 1143:1 1317:1 1658:1 1723:1 1820:1 2260:1 2271:1 2319:1 2520:1 2666:1 3169:1 3317:1 3336:1 3472:1 3493:1 3511:1 3795:1 4094:1 4104:1 4248:1 4387:1 4429:1 4614:1 4641:1 4777:1 4788:1 4881:1 5089:1 5654:1 6035:1 6300:1 6660:1 6949:1 7014:1 7088:1 7175:1 7296:1 7496:1 8446:1 8711:1 9496:1 9610:1 10027:1 10376:1 10594:1 11106:1 11898:1 13225:1 13508:1 13904:1 15789:1 16115:1 16821:1 17232:1 20068:1 20818:1 20824:1 20896:1 20961:1 21878:1 22810:1 22882:1 23295:1 23786:1 23897:1 25140:1 25456:1 26124:1 28335:1 29941:1 30892:1 32248:1 33253:1 33506:1 33782:1 34354:1 34989:1 
0.14111646422484717 1:1 3:1 4:1 5:1 7:1 8:1 9:1 10:1 12:1 13:1 14:1 17:1 18:1 19:1 22:1 23:1 28:1 30:1 33:1 34:1 36:1 39:1 43:1 47:1 51:1 61:1 65:1 70:1 72:1 76:1 77:1 114:1 119:1 131:1 135:1 148:1 153:1 161:1 162:1 204:1 207:1 231:1 236:1 259:1 289:1 341:1 353:1 357:1 380:1 381:1 384:1 385:1 403:1 466:1 472:1 492:1 493:1 495:1 550:1 594:1 605:1 716:1 741:1 743:1 768:1 779:1 791:1 814:1 865:1 912:1 971:1 1029:1 1146:1 1193:1 1274:1 1306:1 1324:1 1373:1 1414:1 1705:1 1710:1 1753:1 1853:1 1888:1 2057:1 2195:1 2211:1 2215:1 2674:1 2690:1 3011:1 3708:1 4205:1 4349:1 4370:1 4599:1 4631:1 4641:1 4876:1 5530:1 5624:1 5929:1 5957:1 6574:1 7012:1 7962:1 8154:1 8178:1 8416:1 8605:1 8780:1 9196:1 9579:1 9982:1 10426:1 11117:1 11266:1 11651:1 11809:1 11931:1 12156:1 12334:1 13364:1 13666:1 14014:1 14099:1 14619:1 15353:1 15459:1 17262:1 17315:1 18701:1 21685:1 23609:1 24410:1 24532:1 27722:1 29415:1 29529:1 29533:1 31903:1 33486:1 36237:1 
1 1:1 2:1 3:1 4:1 5:1 6:1 8:1 9:1 10:1 13:1 14:1 18:1 19:1 30:1 31:1 33:1 34:1 37:1 39:1 42:1 43:1 58:1 60:1 61:1 89:1 102:1 114:1 118:1 123:1 148:1 157:1 166:1 167:1 176:1 236:1 244:1 249:1 263:1 265:1 272:1 278:1 289:1 357:1 371:1 389:1 495:1 522:1 527:1 531:1 732:1 753:1 769:1 779:1 787:1 834:1 865:1 898:1 914:1 1139:1 1146:1 1518:1 1618:1 1718:1 1723:1 1772:1 2125:1 2292:1 2315:1 2406:1 3025:1 3102:1 3169:1 3178:1 3319:1 3359:1 3504:1 3611:1 3705:1 4370:1 4513:1 4708:1 4721:1 5957:1 6285:1 6354:1 8086:1 8290:1 8421:1 8579:1 8989:1 9194:1 9474:1 9597:1 11084:1 11132:1 12743:1 13140:1 13447:1 13508:1 13517:1 14987:1 15986:1 16422:1 18826:1 19109:1 19436:1 20267:1 20941:1 24131:1 24876:1 24955:1 29541:1 29546:1 31149:1 
1 1:1 2:1 3:1 5:1 7:1 8:1 9:1 10:1 12:1 13:1 14:1 15:1 17:1 18:1 19:1 20:1 22:1 25:1 30:1 31:1 32:1 34:1 36:1 38:1 39:1 43:1 51:1 58:1 70:1 75:1 93:1 114:1 148:1 153:1 155:1 160:1 166:1 203:1 212:1 221:1 231:1 247:1 262:1 264:1 278:1 289:1 323:1 341:1 357:1 398:1 400:1 409:1 472:1 476:1 492:1 497:1 507:1 522:1 527:1 541:1 551:1 594:1 601:1 654:1 741:1 745:1 754:1 765:1 794:1 820:1 827:1 845:1 865:1 917:1 1029:1 1034:1 1274:1 1357:1 1561:1 1705:1 1721:1 2044:1 2086:1 2165:1 2289:1 2777:1 2864:1 3146:1 3317:1 3343:1 3611:1 3629:1 3705:1 4214:1 4374:1 4808:1 4853:1 5629:1 5682:1 5969:1 6082:1 6285:1 6469:1 7011:1 7088:1 7492:1 8154:1 8211:1 8311:1 8398:1 8646:1 8850:1 8903:1 9083:1 9194:1 9625:1 10425:1 10486:1 11656:1 12098:1 12917:1 13485:1 17810:1 18162:1 19303:1 20056:1 20165:1 21481:1 23211:1 23680:1 28192:1 28458:1 29586:1 31585:1 33476:1 33780:1 34964:1 
1 1:1 2:1 3:1 4:1 5:1 7:1 8:1 9:1 12:1 14:1 15:1 17:1 18:1 19:1 21:1 32:1 33:1 36:1 38:1 50:1 59:1 75:1 77:1 89:1 114:1 123:1 148:1 157:1 162:1 165:1 221:1 231:1 245:1 259:1 268:1 277:1 278:1 328:1 381:1 421:1 463:1 465:1 495:1 501:1 527:1 541:1 578:1 765:1 769:1 827:1 859:1 1019:1 1115:1 1347:1 1406:1 1510:1 1705:1 1719:1 1772:1 2136:1 2212:1 2260:1 2868:1 3118:1 3413:1 3589:1 3615:1 4048:1 4583:1 5046:1 5519:1 5957:1 6031:1 6300:1 6469:1 6916:1 8397:1 8421:1 8904:1 9172:1 10348:1 10922:1 12025:1 12303:1 12664:1 13459:1 15067:1 15421:1 18194:1 19144:1 21275:1 21407:1 22649:1 24329:1 25950:1 27667:1 29529:1 29902:1 30892:1 31592:1 33147:1 
1 1:1 3:1 8:1 9:1 12:1 15:1 18:1 19:1 21:1 30:1 50:1 70:1 114:1 231:1 249:1 262:1 271:1 332:1 341:1 409:1 424:1 507:1 522:1 582:1 741:1 1021:1 1274:1 1705:1 1723:1 3169:1 3317:1 3472:1 4094:1 4214:1 5111:1 6093:1 6949:1 8154:1 10376:1 11656:1 13508:1 20056:1 20068:1 20818:1 22810:1 23212:1 30134:1 33253:1 
1 3:1 4:1 5:1 6:1 8:1 9:1 12:1 13:1 15:1 17:1 18:1 19:1 25:1 28:1 33:1 37:1 41:1 42:1 44:1 54:1 114:1 127:1 148:1 166:1 167:1 180:1 181:1 236:1 255:1 262:1 264:1 268:1 329:1 332:1 361:1 435:1 463:1 497:1 510:1 522:1 652:1 656:1 663:1 701:1 770:1 834:1 840:1 889:1 900:1 942:1 1075:1 1710:1 1820:1 2305:1 2315:1 2428:1 2453:1 3006:1 3025:1 3240:1 3317:1 3336:1 3352:1 3416:1 4059:1 4100:1 4424:1 5259:1 5965:1 6127:1 7455:1 7506:1 7599:1 8446:1 8989:1 9042:1 9391:1 9492:1 9752:1 10713:1 13360:1 13904:1 16048:1 16597:1 18826:1 19748:1 20060:1 20238:1 20503:1 22719:1 22851:1 23867:1 30255:1 34800:1 35377:1 
1 1:1 3:1 4:1 5:1 6:1 8:1 9:1 11:1 12:1 15:1 18:1 19:1 33:1 34:1 37:1 40:1 41:1 61:1 114:1 123:1 148:1 151:1 157:1 166:1 176:1 231:1 236:1 249:1 264:1 265:1 302:1 332:1 409:1 495:1 507:1 522:1 769:1 787:1 794:1 834:1 875:1 889:1 1146:1 1705:1 1723:1 1772:1 2021:1 2125:1 2292:1 2302:1 2406:1 3024:1 3169:1 3339:1 3359:1 3810:1 4096:1 5957:1 6082:1 8421:1 8579:1 8650:1 8988:1 9274:1 9388:1 11117:1 13508:1 14469:1 14987:1 15986:1 16029:1 16422:1 18824:1 20147:1 20267:1 22819:1 29529:1 
0.18162513198530361 1:1 2:1 4:1 5:1 7:1 8:1 14:1 17:1 18:1 19:1 25:1 28:1 31:1 33:1 34:1 36:1 37:1 43:1 58:1 59:1 101:1 123:1 143:1 152:1 162:1 165:1 211:1 232:1 255:1 380:1 381:1 463:1 491:1 492:1 522:1 540:1 640:1 658:1 663:1 705:1 757:1 776:1 791:1 819:1 840:1 912:1 1100:1 1614:1 1789:1 1968:1 2028:1 2211:1 2260:1 2752:1 2969:1 3246:1 4582:1 5910:1 6441:1 7546:1 7552:1 7587:1 7854:1 8345:1 8519:1 8605:1 8831:1 9047:1 9567:1 13127:1 13802:1 14308:1 14494:1 17704:1 18492:1 19796:1 19799:1 29324:1 35229:1 35961:1 
0.73090958611283241 3:1 4:1 5:1 7:1 8:1 9:1 11:1 12:1 13:1 14:1 15:1 17:1 18:1 19:1 25:1 33:1 34:1 36:1 42:1 44:1 47:1 114:1 118:1 123:1 127:1 148:1 153:1 162:1 166:1 167:1 210:1 212:1 221:1 231:1 245:1 259:1 268:1 273:1 308:1 332:1 376:1 380:1 384:1 385:1 389:1 394:1 416:1 423:1 474:1 495:1 501:1 522:1 656:1 769:1 770:1 779:1 794:1 827:1 907:1 934:1 972:1 1705:1 1719:1 1772:1 1777:1 1786:1 1828:1 2062:1 2211:1 2292:1 2315:1 2735:1 2760:1 2868:1 3114:1 3413:1 3520:1 3867:1 4091:1 4555:1 4614:1 4641:1 4704:1 4766:1 4996:1 5088:1 5093:1 5658:1 5957:1 6031:1 7515:1 8421:1 8426:1 8435:1 8453:1 8648:1 8904:1 9542:1 9708:1 9710:1 9996:1 13457:1 13725:1 13780:1 13949:1 14658:1 15986:1 17594:1 18194:1 19134:1 21046:1 22105:1 24240:1 25063:1 25809:1 26113:1 26149:1 28356:1 29529:1 29542:1 29902:1 35089:1 
1 1:1 2:1 3:1 4:1 5:1 7:1 8:1 9:1 14:1 15:1 16:1 17:1 18:1 19:1 20:1 23:1 25:1 28:1 32:1 33:1 36:1 47:1 48:1 56:1 58:1 59:1 72:1 76:1 89:1 114:1 118:1 119:1 123:1 127:1 148:1 165:1 204:1 245:1 249:1 255:1 259:1 403:1 409:1 424:1 440:1 450:1 463:1 464:1 471:1 483:1 492:1 495:1 510:1 539:1 566:1 614:1 656:1 663:1 702:1 765:1 767:1 768:1 769:1 770:1 814:1 972:1 998:1 1090:1 1100:1 1116:1 1324:1 1384:1 1517:1 1719:1 1723:1 1740:1 1789:1 1815:1 2260:1 2268:1 2674:1 3121:1 3186:1 3250:1 4883:1 5111:1 5289:1 5388:1 5496:1 5621:1 5826:1 5957:1 6122:1 6430:1 6434:1 6780:1 7193:1 7506:1 7599:1 7832:1 8397:1 8406:1 8437:1 8443:1 8780:1 9996:1 10184:1 10753:1 10952:1 11936:1 12197:1 12715:1 13462:1 13525:1 13617:1 13810:1 15765:1 17262:1 19166:1 19482:1 19819:1 25465:1 27254:1 27529:1 28157:1 29017:1 29546:1 31392:1 31456:1 32638:1 35377:1 35919:1 
0.29374223726184667 1:1 2:1 3:1 4:1 5:1 6:1 7:1 8:1 9:1 13:1 14:1 16:1 17:1 18:1 19:1 25:1 30:1 31:1 34:1 36:1 37:1 42:1 43:1 60:1 74:1 85:1 89:1 114:1 118:1 161:1 162:1 165:1 184:1 221:1 231:1 255:1 259:1 262:1 264:1 278:1 357:1 361:1 380:1 384:1 389:1 441:1 463:1 517:1 522:1 649:1 654:1 658:1 732:1 752:1 791:1 827:1 840:1 900:1 914:1 1127:1 1333:1 1482:1 1517:1 1705:1 2195:1 2211:1 2260:1 2492:1 2883:1 3242:1 3246:1 3317:1 3349:1 3351:1 3611:1 4385:1 4422:1 4424:1 4614:1 4709:1 5316:1 6214:1 7434:1 7482:1 7546:1 8075:1 8268:1 8605:1 8908:1 9044:1 9047:1 9490:1 9492:1 9598:1 11020:1 11968:1 12541:1 12715:1 15362:1 18266:1 19761:1 19796:1 20056:1 20193:1 20211:1 23759:1 23855:1 23866:1 24885:1 27006:1 30541:1 34741:1 34903:1 
1 1:1 3:1 5:1 6:1 7:1 8:1 12:1 14:1 16:1 17:1 22:1 25:1 28:1 34:1 36:1 43:1 45:1 51:1 61:1 70:1 75:1 114:1 148:1 153:1 160:1 180:1 181:1 203:1 215:1 231:1 323:1 328:1 351:1 381:1 437:1 464:1 601:1 647:1 663:1 706:1 779:1 822:1 912:1 943:1 1034:1 1146:1 1261:1 1346:1 1705:1 2055:1 2165:1 2428:1 2453:1 2805:1 4039:1 4325:1 4585:1 5280:1 5506:1 7094:1 7399:1 7593:1 7873:1 8862:1 9569:1 9766:1 10491:1 11117:1 11578:1 12016:1 14599:1 16597:1 17916:1 22596:1 23515:1 24337:1 26897:1 27584:1 33813:1 35339:1 36029:1 
1 1:1 2:1 3:1 4:1 5:1 6:1 7:1 8:1 9:1 12:1 13:1 14:1 15:1 17:1 18:1 19:1 20:1 22:1 23:1 25:1 27:1 30:1 31:1 33:1 34:1 36:1 37:1 38:1 43:1 44:1 47:1 48:1 52:1 55:1 59:1 60:1 72:1 76:1 81:1 85:1 89:1 114:1 118:1 123:1 127:1 133:1 148:1 153:1 155:1 160:1 162:1 165:1 166:1 180:1 181:1 203:1 208:1 240:1 249:1 252:1 255:1 259:1 264:1 266:1 268:1 272:1 273:1 282:1 323:1 332:1 352:1 380:1 384:1 385:1 389:1 399:1 409:1 426:1 427:1 463:1 477:1 481:1 482:1 488:1 493:1 495:1 497:1 501:1 527:1 534:1 539:1 540:1 541:1 551:1 595:1 605:1 625:1 654:1 658:1 682:1 732:1 743:1 752:1 769:1 770:1 771:1 793:1 816:1 840:1 843:1 855:1 856:1 914:1 937:1 938:1 976:1 998:1 1037:1 1051:1 1078:1 1116:1 1127:1 1306:1 1374:1 1452:1 1473:1 1517:1 1714:1 1723:1 1726:1 1789:1 1820:1 1862:1 2050:1 2090:1 2165:1 2229:1 2260:1 2274:1 2278:1 2290:1 2440:1 2453:1 2697:1 2710:1 3057:1 3187:1 3218:1 3242:1 3336:1 3379:1 3426:1 3488:1 3508:1 3511:1 3516:1 3666:1 4098:1 4614:1 4619:1 4641:1 4709:1 4711:1 4840:1 5161:1 5171:1 5699:1 5768:1 5792:1 5885:1 5945:1 5957:1 5976:1 6023:1 6035:1 6285:1 6381:1 6437:1 6444:1 6469:1 7041:1 7273:1 7482:1 7553:1 7653:1 8075:1 8178:1 8260:1 8437:1 8446:1 8461:1 8640:1 8791:1 9044:1 9135:1 9144:1 9598:1 9733:1 9735:1 10017:1 10027:1 10185:1 10574:1 10721:1 10946:1 11020:1 11799:1 12160:1 12507:1 12715:1 13407:1 13526:1 13554:1 13802:1 13816:1 13904:1 14578:1 14798:1 15560:1 15824:1 15871:1 15981:1 16544:1 16603:1 17345:1 17459:1 18906:1 19493:1 19673:1 19761:1 20588:1 20961:1 21020:1 22836:1 24475:1 24880:1 24891:1 25327:1 26520:1 26568:1 28516:1 28790:1 28854:1 29238:1 29483:1 29537:1 29546:1 29548:1 29645:1 29941:1 31242:1 31470:1 31496:1 31585:1 33626:1 34903:1 35240:1 35489:1 
1 1:1 3:1 4:1 5:1 6:1 7:1 8:1 9:1 12:1 13:1 14:1 15:1 17:1 18:1 19:1 22:1 28:1 30:1 32:1 33:1 34:1 36:1 37:1 42:1 44:1 47:1 51:1 58:1 59:1 64:1 67:1 70:1 72:1 114:1 118:1 123:1 133:1 135:1 148:1 161:1 162:1 165:1 166:1 167:1 180:1 181:1 204:1 221:1 231:1 232:1 236:1 245:1 259:1 264:1 268:1 273:1 277:1 278:1 342:1 353:1 357:1 361:1 365:1 381:1 384:1 385:1 389:1 394:1 409:1 414:1 435:1 463:1 464:1 492:1 493:1 495:1 497:1 510:1 522:1 537:1 540:1 594:1 706:1 718:1 738:1 741:1 765:1 769:1 771:1 772:1 794:1 814:1 827:1 834:1 897:1 898:1 900:1 942:1 972:1 1029:1 1100:1 1174:1 1230:1 1235:1 1275:1 1304:1 1316:1 1705:1 1706:1 1710:1 1719:1 1772:1 1866:1 1885:1 2199:1 2214:1 2224:1 2260:1 2289:1 2305:1 2315:1 2428:1 2453:1 2665:1 2860:1 2973:1 3020:1 3025:1 3130:1 3352:1 3413:1 3516:1 3589:1 3611:1 4236:1 4335:1 4385:1 4424:1 4427:1 4453:1 4595:1 4614:1 4641:1 4720:1 4766:1 4970:1 5262:1 5267:1 5508:1 5933:1 5957:1 5965:1 6127:1 6405:1 6441:1 7012:1 7873:1 7998:1 8130:1 8155:1 8393:1 8397:1 8421:1 8465:1 8479:1 8646:1 8773:1 8901:1 8986:1 8989:1 9459:1 9483:1 9492:1 9494:1 9756:1 9996:1 10426:1 11212:1 11456:1 11480:1 11667:1 11786:1 11888:1 13333:1 13372:1 13470:1 14032:1 14086:1 15381:1 15439:1 15519:1 16048:1 16597:1 17218:1 18142:1 18524:1 18781:1 18788:1 18826:1 19216:1 20238:1 21026:1 21275:1 23268:1 23544:1 23759:1 23867:1 23877:1 23979:1 24382:1 24946:1 25063:1 26856:1 26864:1 27604:1 29432:1 29529:1 29530:1 30255:1 33487:1 36029:1 36361:1 
1 1:1 3:1 4:1 5:1 6:1 7:1 8:1 9:1 12:1 14:1 18:1 19:1 22:1 23:1 25:1 28:1 33:1 36:1 43:1 47:1 52:1 58:1 59:1 76:1 77:1 114:1 118:1 119:1 127:1 148:1 154:1 199:1 221:1 231:1 236:1 259:1 262:1 264:1 268:1 273:1 323:1 332:1 335:1 381:1 384:1 492:1 495:1 501:1 550:1 604:1 627:1 652:1 712:1 717:1 722:1 768:1 770:1 827:1 912:1 976:1 1053:1 1100:1 1370:1 1414:1 1705:1 1710:1 1740:1 1753:1 1820:1 2083:1 2632:1 2868:1 3012:1 3317:1 3336:1 3413:1 3511:1 4094:1 4131:1 4599:1 4614:1 5957:1 6031:1 6035:1 6579:1 7120:1 7298:1 7458:1 7920:1 7981:1 8030:1 8406:1 8416:1 8446:1 8904:1 9579:1 10027:1 10596:1 12335:1 13365:1 13617:1 13665:1 13904:1 14755:1 17124:1 18194:1 18714:1 20056:1 20961:1 22810:1 24410:1 29533:1 29902:1 29941:1 31921:1 33888:1 34365:1 34807:1 36128:1 36308:1 36438:1 
1 1:1 2:1 3:1 4:1 5:1 7:1 8:1 10:1 12:1 14:1 15:1 17:1 18:1 19:1 25:1 27:1 28:1 30:1 33:1 34:1 39:1 41:1 44:1 54:1 72:1 89:1 114:1 118:1 123:1 135:1 148:1 153:1 162:1 165:1 166:1 167:1 208:1 231:1 249:1 293:1 297:1 328:1 380:1 384:1 387:1 423:1 424:1 426:1 463:1 468:1 481:1 491:1 495:1 522:1 540:1 642:1 689:1 701:1 722:1 743:1 769:1 772:1 783:1 791:1 794:1 869:1 872:1 888:1 934:1 1061:1 1306:1 1501:1 1705:1 1723:1 1772:1 1786:1 1789:1 1895:1 2060:1 2211:1 2260:1 2265:1 2278:1 2292:1 2331:1 2709:1 3169:1 3752:1 3779:1 4053:1 4614:1 4619:1 4679:1 5088:1 5125:1 5143:1 5553:1 5768:1 5925:1 5957:1 6444:1 7363:1 7724:1 8021:1 8178:1 8421:1 8435:1 8489:1 8553:1 8605:1 8648:1 9229:1 9252:1 9382:1 9708:1 10630:1 11799:1 13508:1 13780:1 13807:1 14159:1 14644:1 15715:1 15871:1 15986:1 16160:1 17435:1 21770:1 21827:1 22697:1 24475:1 24754:1 26113:1 26297:1 28790:1 29382:1 29529:1 29546:1 31496:1 34496:1 35662:1 
0.46652365011864516 1:1 3:1 4:1 5:1 7:1 8:1 9:1 10:1 12:1 14:1 15:1 17:1 18:1 19:1 20:1 22:1 25:1 28:1 30:1 33:1 36:1 37:1 39:1 43:1 46:1 47:1 58:1 76:1 77:1 80:1 114:1 119:1 123:1 148:1 203:1 210:1 227:1 249:1 255:1 259:1 262:1 266:1 289:1 294:1 323:1 332:1 381:1 387:1 421:1 472:1 492:1 522:1 531:1 550:1 564:1 597:1 640:1 658:1 663:1 712:1 730:1 768:1 769:1 818:1 840:1 865:1 870:1 912:1 963:1 970:1 1370:1 1414:1 1446:1 1723:1 1753:1 1772:1 2748:1 2946:1 3178:1 3246:1 3317:1 3379:1 3716:1 3762:1 4091:1 4599:1 4675:1 5042:1 5627:1 6349:1 6570:1 6748:1 7054:1 7546:1 7587:1 7920:1 8416:1 8421:1 8827:1 9047:1 9204:1 9238:1 9579:1 9914:1 12333:1 12448:1 13517:1 13665:1 17698:1 18452:1 19431:1 19796:1 20068:1 21697:1 21791:1 24410:1 28178:1 31104:1 31890:1 32527:1 33646:1 36127:1 
1 4:1 5:1 8:1 9:1 12:1 13:1 14:1 15:1 17:1 18:1 19:1 20:1 22:1 25:1 28:1 33:1 34:1 37:1 42:1 47:1 49:1 51:1 118:1 127:1 148:1 160:1 162:1 165:1 166:1 255:1 264:1 278:1 341:1 379:1 380:1 384:1 385:1 409:1 463:1 497:1 507:1 510:1 517:1 527:1 564:1 595:1 654:1 657:1 705:1 770:1 789:1 840:1 910:1 979:1 1012:1 1030:1 1820:1 2183:1 2215:1 2260:1 2294:1 3242:1 3350:1 3615:1 4220:1 4573:1 4614:1 4641:1 5965:1 5980:1 6082:1 6127:1 6221:1 6300:1 6745:1 7037:1 7480:1 7542:1 7865:1 8446:1 8593:1 9044:1 9558:1 10039:1 10281:1 10449:1 13909:1 15295:1 15459:1 15988:1 19760:1 20201:1 21407:1 23225:1 24293:1 29682:1 30268:1 30566:1 30892:1 32503:1 33610:1 35195:1 36002:1 
1 1:1 2:1 3:1 4:1 5:1 7:1 8:1 9:1 10:1 11:1 12:1 14:1 15:1 17:1 18:1 25:1 28:1 30:1 31:1 32:1 33:1 34:1 36:1 37:1 38:1 39:1 40:1 47:1 58:1 59:1 70:1 72:1 101:1 114:1 118:1 123:1 135:1 148:1 152:1 157:1 165:1 211:1 221:1 231:1 232:1 240:1 259:1 262:1 268:1 273:1 289:1 320:1 341:1 380:1 384:1 409:1 463:1 468:1 491:1 501:1 507:1 649:1 705:1 741:1 757:1 765:1 772:1 779:1 819:1 827:1 833:1 845:1 865:1 884:1 976:1 1100:1 1274:1 1303:1 1614:1 1705:1 1714:1 1789:1 1887:1 2028:1 2119:1 2260:1 2752:1 2868:1 2969:1 2981:1 3061:1 3317:1 3413:1 3508:1 3511:1 3706:1 3959:1 4214:1 4614:1 5562:1 5910:1 6031:1 6035:1 6082:1 7430:1 7854:1 8154:1 8345:1 8394:1 8481:1 8831:1 8904:1 8969:1 9083:1 9195:1 9340:1 10027:1 11656:1 13127:1 13411:1 13802:1 14093:1 14494:1 17704:1 18194:1 18492:1 18577:1 18934:1 20056:1 20961:1 21682:1 22344:1 23211:1 27865:1 29324:1 29902:1 29941:1 34717:1 35961:1 
1 1:1 5:1 8:1 10:1 12:1 13:1 14:1 15:1 17:1 18:1 25:1 30:1 37:1 39:1 42:1 70:1 165:1 255:1 295:1 341:1 357:1 380:1 409:1 463:1 507:1 640:1 654:1 741:1 840:1 871:1 898:1 1274:1 2260:1 3242:1 3768:1 4214:1 4385:1 6082:1 7480:1 8154:1 9044:1 9242:1 9483:1 11656:1 19760:1 23211:1 23759:1 
1 1:1 2:1 3:1 4:1 5:1 6:1 7:1 8:1 9:1 10:1 12:1 13:1 14:1 18:1 22:1 30:1 33:1 34:1 35:1 36:1 38:1 39:1 51:1 58:1 59:1 61:1 71:1 72:1 76:1 85:1 114:1 118:1 119:1 148:1 157:1 166:1 176:1 187:1 204:1 208:1 210:1 231:1 259:1 264:1 265:1 277:1 289:1 332:1 352:1 384:1 387:1 492:1 494:1 495:1 510:1 595:1 742:1 768:1 787:1 804:1 818:1 859:1 865:1 1030:1 1100:1 1146:1 1284:1 1306:1 1309:1 1370:1 1481:1 1705:1 1753:1 2125:1 2305:1 2406:1 2518:1 2674:1 2692:1 2727:1 3352:1 3359:1 3589:1 3706:1 4096:1 4614:1 4679:1 5946:1 5957:1 6124:1 7021:1 8160:1 8416:1 8579:1 8709:1 8816:1 9172:1 9195:1 10435:1 11117:1 11794:1 11834:1 12537:1 13665:1 14987:1 16046:1 16422:1 16807:1 17257:1 17559:1 20238:1 20267:1 21275:1 21682:1 22828:1 24743:1 29490:1 29529:1 30244:1 
0.40404501832416972 1:1 2:1 3:1 4:1 5:1 6:1 7:1 8:1 9:1 12:1 13:1 14:1 15:1 17:1 18:1 19:1 20:1 21:1 22:1 25:1 28:1 30:1 32:1 33:1 34:1 35:1 36:1 37:1 38:1 42:1 43:1 44:1 49:1 50:1 51:1 58:1 59:1 60:1 61:1 67:1 70:1 71:1 72:1 77:1 84:1 93:1 114:1 119:1 123:1 148:1 151:1 165:1 175:1 176:1 199:1 203:1 204:1 215:1 221:1 231:1 232:1 242:1 245:1 259:1 264:1 265:1 266:1 268:1 277:1 278:1 323:1 332:1 338:1 352:1 357:1 389:1 409:1 426:1 435:1 463:1 470:1 482:1 495:1 501:1 522:1 527:1 541:1 557:1 578:1 597:1 652:1 702:1 731:1 738:1 741:1 742:1 765:1 768:1 769:1 781:1 809:1 822:1 827:1 833:1 859:1 898:1 914:1 937:1 1007:1 1019:1 1031:1 1100:1 1101:1 1131:1 1146:1 1217:1 1222:1 1256:1 1284:1 1311:1 1406:1 1552:1 1705:1 1716:1 1719:1 1740:1 1772:1 2021:1 2260:1 2279:1 2406:1 2632:1 2674:1 2799:1 2868:1 2976:1 3083:1 3108:1 3351:1 3359:1 3379:1 3413:1 3431:1 3589:1 3594:1 3611:1 4091:1 4185:1 4370:1 4712:1 4720:1 5150:1 5260:1 5596:1 5788:1 5957:1 6028:1 6031:1 6300:1 6469:1 6637:1 6916:1 7045:1 7449:1 7831:1 8052:1 8125:1 8143:1 8160:1 8397:1 8406:1 8421:1 8541:1 8746:1 8858:1 8904:1 8964:1 9172:1 9474:1 9600:1 9728:1 10235:1 10348:1 10454:1 10784:1 11049:1 11117:1 11398:1 11861:1 12303:1 12858:1 13431:1 13453:1 13617:1 14457:1 14464:1 15891:1 16422:1 17119:1 17258:1 17885:1 18194:1 18534:1 19012:1 20226:1 20267:1 20640:1 21275:1 21310:1 23162:1 24912:1 24949:1 26443:1 26849:1 28038:1 29529:1 29888:1 29902:1 30892:1 31592:1 33147:1 
1 1:1 2:1 3:1 5:1 8:1 12:1 15:1 17:1 18:1 20:1 30:1 47:1 60:1 70:1 89:1 114:1 165:1 231:1 341:1 409:1 424:1 463:1 495:1 507:1 512:1 568:1 732:1 741:1 983:1 1127:1 1274:1 1517:1 1705:1 2260:1 4214:1 5111:1 5957:1 6093:1 6181:1 6812:1 8075:1 8154:1 10077:1 11020:1 11656:1 12715:1 23212:1 29529:1 30134:1 30450:1 32775:1 
1 1:1 2:1 3:1 4:1 5:1 8:1 9:1 10:1 12:1 13:1 14:1 15:1 17:1 18:1 19:1 22:1 25:1 27:1 30:1 32:1 37:1 39:1 42:1 47:1 51:1 55:1 60:1 70:1 89:1 114:1 123:1 148:1 152:1 157:1 160:1 165:1 166:1 236:1 240:1 257:1 259:1 264:1 290:1 323:1 332:1 376:1 385:1 394:1 409:1 463:1 464:1 492:1 501:1 527:1 541:1 597:1 658:1 678:1 689:1 732:1 765:1 834:1 836:1 866:1 907:1 976:1 1031:1 1077:1 1127:1 1256:1 1517:1 1731:1 1790:1 2028:1 2119:1 2174:1 2260:1 2261:1 2289:1 3015:1 3054:1 3264:1 3336:1 3720:1 4091:1 4557:1 4641:1 4766:1 5506:1 6023:1 6295:1 6469:1 7045:1 7553:1 7633:1 7728:1 8075:1 8402:1 8982:1 8994:1 9207:1 9544:1 10017:1 10454:1 10716:1 11020:1 12715:1 12716:1 13591:1 13827:1 14495:1 15225:1 15680:1 18730:1 18880:1 19864:1 21702:1 24247:1 25063:1 27582:1 30853:1 31589:1 35240:1 35450:1 35674:1 
0.24564927196464792 1:1 3:1 4:1 5:1 6:1 7:1 8:1 9:1 11:1 12:1 13:1 14:1 15:1 17:1 18:1 19:1 20:1 21:1 22:1 23:1 25:1 27:1 28:1 33:1 34:1 35:1 36:1 40:1 42:1 44:1 47:1 48:1 49:1 50:1 51:1 59:1 62:1 64:1 71:1 72:1 76:1 114:1 119:1 123:1 133:1 136:1 148:1 156:1 157:1 165:1 166:1 167:1 194:1 195:1 204:1 212:1 223:1 225:1 231:1 232:1 236:1 245:1 257:1 259:1 271:1 272:1 277:1 278:1 300:1 337:1 357:1 379:1 380:1 385:1 403:1 409:1 412:1 429:1 464:1 482:1 492:1 495:1 497:1 501:1 507:1 510:1 522:1 527:1 540:1 542:1 551:1 556:1 567:1 584:1 601:1 603:1 605:1 654:1 689:1 693:1 699:1 705:1 768:1 769:1 771:1 787:1 808:1 814:1 820:1 828:1 829:1 874:1 910:1 940:1 972:1 976:1 979:1 994:1 1000:1 1004:1 1022:1 1034:1 1103:1 1159:1 1183:1 1287:1 1324:1 1370:1 1705:1 1706:1 1719:1 1731:1 1753:1 1780:1 1864:1 1898:1 2110:1 2131:1 2132:1 2135:1 2261:1 2305:1 2315:1 2331:1 2582:1 2607:1 2674:1 2777:1 2900:1 2924:1 2973:1 3015:1 3108:1 3271:1 3477:1 3493:1 3586:1 3611:1 3628:1 3794:1 4162:1 4370:1 4385:1 4573:1 4641:1 4876:1 4958:1 5210:1 5496:1 5788:1 5957:1 5965:1 6023:1 6082:1 6122:1 6127:1 6293:1 6441:1 6492:1 6632:1 6804:1 6959:1 7088:1 7106:1 7480:1 7720:1 7766:1 7817:1 7865:1 8416:1 8429:1 8463:1 8586:1 8739:1 8780:1 8850:1 8910:1 8925:1 9266:1 9558:1 9741:1 9996:1 10017:1 10039:1 10136:1 10192:1 10384:1 10486:1 10801:1 11181:1 11243:1 11727:1 11931:1 13333:1 13453:1 13598:1 13665:1 13742:1 14030:1 14162:1 14918:1 15026:1 15034:1 15057:1 15673:1 16048:1 16158:1 17071:1 17262:1 17810:1 17814:1 18303:1 18388:1 18527:1 18737:1 19894:1 20848:1 20889:1 21465:1 21868:1 23069:1 23760:1 24293:1 25685:1 27521:1 29530:1 29542:1 29552:1 30255:1 30832:1 31672:1 32108:1 32118:1 32741:1 33773:1 33849:1 35762:1 35865:1 36005:1 
1 1:1 3:1 4:1 5:1 7:1 8:1 9:1 12:1 13:1 17:1 18:1 19:1 20:1 21:1 22:1 23:1 25:1 27:1 33:1 34:1 36:1 42:1 50:1 51:1 52:1 77:1 114:1 123:1 143:1 148:1 152:1 160:1 165:1 166:1 167:1 210:1 221:1 231:1 259:1 268:1 271:1 323:1 342:1 372:1 463:1 495:1 501:1 527:1 541:1 556:1 578:1 594:1 595:1 603:1 627:1 640:1 663:1 685:1 769:1 776:1 789:1 794:1 818:1 905:1 1019:1 1029:1 1030:1 1053:1 1406:1 1705:1 1772:1 1789:1 1968:1 2028:1 2184:1 2260:1 2292:1 2319:1 2743:1 2868:1 3413:1 3463:1 4226:1 4523:1 5957:1 6031:1 6300:1 6469:1 6632:1 6916:1 7005:1 7031:1 7100:1 7297:1 7587:1 7669:1 8421:1 8519:1 8594:1 8648:1 8824:1 9521:1 10348:1 10419:1 10443:1 10595:1 12303:1 13802:1 14308:1 14494:1 15299:1 15986:1 16115:1 17650:1 18194:1 23243:1 24151:1 29529:1 29902:1 30892:1 31592:1 32112:1 33147:1 33439:1 33567:1 33822:1 34361:1 
1 1:1 2:1 3:1 4:1 5:1 6:1 7:1 8:1 9:1 12:1 13:1 14:1 15:1 17:1 18:1 19:1 20:1 21:1 22:1 23:1 27:1 28:1 30:1 33:1 35:1 36:1 37:1 42:1 47:1 49:1 50:1 51:1 52:1 55:1 59:1 65:1 76:1 77:1 78:1 84:1 114:1 118:1 119:1 127:1 148:1 157:1 162:1 165:1 167:1 175:1 192:1 215:1 216:1 240:1 249:1 264:1 272:1 273:1 351:1 352:1 353:1 357:1 380:1 384:1 429:1 478:1 486:1 492:1 495:1 522:1 527:1 531:1 541:1 551:1 557:1 568:1 570:1 580:1 593:1 605:1 630:1 678:1 695:1 718:1 722:1 731:1 748:1 768:1 770:1 806:1 823:1 836:1 897:1 972:1 1007:1 1020:1 1028:1 1037:1 1077:1 1106:1 1199:1 1370:1 1406:1 1433:1 1723:1 1753:1 1820:1 2133:1 2211:1 2283:1 2315:1 2559:1 2805:1 2807:1 3054:1 3178:1 3336:1 3488:1 3511:1 4333:1 4350:1 4378:1 4614:1 5210:1 5732:1 5866:1 5957:1 6297:1 6302:1 6354:1 6469:1 6637:1 6809:1 6867:1 6934:1 6999:1 7331:1 7631:1 7778:1 7993:1 8036:1 8057:1 8249:1 8416:1 8446:1 8727:1 8864:1 8994:1 9471:1 9996:1 10235:1 10364:1 10414:1 10715:1 10833:1 11319:1 12303:1 12417:1 13517:1 13665:1 13904:1 15041:1 15949:1 16940:1 17921:1 17930:1 18880:1 19436:1 20961:1 23543:1 23623:1 23718:1 28683:1 29178:1 29546:1 30875:1 30928:1 31144:1 31591:1 33044:1 33213:1 33422:1 34434:1 36352:1 36476:1 
0.43351552599260623 1:1 2:1 3:1 4:1 5:1 8:1 9:1 13:1 14:1 15:1 17:1 18:1 19:1 23:1 25:1 30:1 31:1 33:1 34:1 42:1 43:1 44:1 54:1 60:1 89:1 93:1 102:1 114:1 123:1 148:1 157:1 165:1 171:1 236:1 273:1 277:1 357:1 385:1 405:1 413:1 463:1 492:1 497:1 522:1 624:1 642:1 643:1 732:1 754:1 769:1 787:1 898:1 918:1 924:1 1061:1 1139:1 1501:1 1560:1 1619:1 1710:1 1772:1 1789:1 2133:1 2260:1 2387:1 3023:1 3512:1 3586:1 4370:1 4641:1 4897:1 4962:1 5986:1 7264:1 7363:1 7374:1 8086:1 8310:1 8421:1 8585:1 9474:1 9636:1 9678:1 10630:1 11085:1 12908:1 13144:1 13375:1 13802:1 15042:1 16371:1 18799:1 20974:1 25517:1 25716:1 29737:1 34496:1 34528:1 
1 1:1 2:1 4:1 5:1 6:1 7:1 8:1 9:1 10:1 12:1 13:1 14:1 16:1 17:1 19:1 20:1 23:1 25:1 31:1 33:1 37:1 39:1 42:1 45:1 49:1 58:1 59:1 72:1 96:1 118:1 123:1 148:1 161:1 165:1 187:1 203:1 204:1 255:1 278:1 289:1 324:1 343:1 357:1 359:1 361:1 384:1 387:1 403:1 441:1 463:1 522:1 556:1 563:1 564:1 610:1 640:1 755:1 769:1 840:1 865:1 900:1 945:1 1011:1 1012:1 1100:1 1309:1 1324:1 1578:1 1789:1 2195:1 2260:1 2516:1 2674:1 3231:1 3611:1 3706:1 3992:1 4246:1 4370:1 4404:1 4434:1 4614:1 4675:1 4880:1 5317:1 6628:1 6726:1 6745:1 7148:1 8320:1 8437:1 9036:1 9195:1 9501:1 9785:1 10267:1 10281:1 11832:1 11934:1 12986:1 13802:1 15353:1 16792:1 17257:1 21682:1 22446:1 23290:1 23828:1 23920:1 25443:1 27012:1 32080:1 32441:1 32503:1 
0.35560047952998258 1:1 3:1 4:1 5:1 6:1 7:1 8:1 9:1 13:1 14:1 15:1 17:1 18:1 19:1 21:1 22:1 25:1 27:1 33:1 34:1 35:1 36:1 38:1 47:1 48:1 50:1 51:1 59:1 76:1 77:1 114:1 123:1 143:1 145:1 148:1 149:1 153:1 162:1 165:1 166:1 176:1 221:1 231:1 236:1 249:1 259:1 264:1 268:1 273:1 352:1 380:1 385:1 409:1 424:1 426:1 463:1 481:1 482:1 492:1 495:1 497:1 501:1 507:1 522:1 523:1 527:1 530:1 547:1 584:1 594:1 595:1 649:1 653:1 692:1 769:1 776:1 777:1 794:1 800:1 827:1 843:1 856:1 970:1 972:1 976:1 995:1 1022:1 1029:1 1030:1 1117:1 1373:1 1391:1 1394:1 1705:1 1723:1 1789:1 1960:1 1979:1 1994:1 2044:1 2211:1 2260:1 2292:1 2302:1 2415:1 2864:1 3007:1 3169:1 3170:1 3193:1 3336:1 3413:1 3508:1 3512:1 4641:1 5111:1 5125:1 5160:1 5768:1 5788:1 5957:1 5969:1 6031:1 6093:1 6268:1 6300:1 6335:1 6534:1 6968:1 7013:1 7025:1 7430:1 7464:1 7758:1 8437:1 8513:1 8527:1 8648:1 8650:1 8682:1 8903:1 9144:1 9996:1 10024:1 10146:1 10392:1 10427:1 10439:1 10957:1 12156:1 12248:1 13508:1 13509:1 13532:1 13802:1 14284:1 14330:1 14368:1 15986:1 16032:1 16456:1 18162:1 18674:1 19378:1 19534:1 20974:1 26313:1 26514:1 28790:1 29529:1 29546:1 29586:1 29902:1 30134:1 30736:1 30892:1 31036:1 31799:1 33303:1 33489:1 33537:1 34720:1 35741:1 
1 1:1 2:1 3:1 4:1 5:1 7:1 8:1 9:1 12:1 13:1 14:1 15:1 17:1 18:1 19:1 26:1 30:1 31:1 33:1 34:1 36:1 42:1 43:1 59:1 60:1 70:1 72:1 89:1 114:1 118:1 123:1 148:1 153:1 162:1 165:1 166:1 167:1 208:1 212:1 221:1 231:1 259:1 268:1 277:1 323:1 357:1 381:1 384:1 385:1 395:1 409:1 463:1 464:1 495:1 501:1 518:1 522:1 665:1 676:1 732:1 753:1 769:1 794:1 816:1 820:1 827:1 898:1 916:1 1111:1 1127:1 1256:1 1306:1 1514:1 1517:1 1705:1 1772:1 1777:1 2044:1 2062:1 2212:1 2215:1 2260:1 2261:1 2292:1 2315:1 2706:1 2776:1 2868:1 3413:1 3610:1 4374:1 4595:1 4614:1 4654:1 4656:1 4777:1 5496:1 5957:1 6031:1 6226:1 7626:1 8075:1 8287:1 8421:1 8426:1 8648:1 8799:1 8849:1 8904:1 9477:1 9610:1 10863:1 11020:1 11794:1 12700:1 12715:1 13725:1 14658:1 15429:1 15470:1 15472:1 15673:1 15986:1 17410:1 17809:1 18194:1 21384:1 23680:1 24378:1 24636:1 24653:1 27525:1 29529:1 29902:1 30578:1 
1 1:1 2:1 3:1 4:1 5:1 7:1 8:1 9:1 12:1 13:1 14:1 15:1 16:1 17:1 18:1 19:1 20:1 22:1 25:1 28:1 31:1 33:1 34:1 36:1 37:1 42:1 49:1 51:1 58:1 59:1 112:1 114:1 118:1 123:1 127:1 136:1 143:1 148:1 157:1 165:1 166:1 167:1 208:1 216:1 221:1 236:1 259:1 262:1 263:1 264:1 268:1 273:1 332:1 353:1 357:1 384:1 399:1 409:1 451:1 468:1 470:1 475:1 501:1 508:1 522:1 564:1 597:1 654:1 716:1 763:1 769:1 770:1 779:1 823:1 827:1 834:1 897:1 1012:1 1031:1 1100:1 1701:1 1710:1 1772:1 1820:1 1907:1 1961:1 2133:1 2272:1 2297:1 2315:1 2709:1 2807:1 2868:1 3006:1 3025:1 3317:1 3333:1 3336:1 3413:1 3511:1 4094:1 4335:1 4378:1 4614:1 4632:1 4831:1 5399:1 5570:1 5598:1 5672:1 6027:1 6031:1 6109:1 6745:1 7045:1 7493:1 7966:1 8387:1 8421:1 8446:1 8864:1 8904:1 8989:1 9459:1 10281:1 10454:1 13317:1 13360:1 13904:1 14177:1 14292:1 15041:1 15805:1 16011:1 17446:1 17930:1 18194:1 18826:1 20060:1 20130:1 20971:1 22810:1 23544:1 23718:1 24544:1 27302:1 27945:1 28055:1 28408:1 29884:1 29902:1 30197:1 32503:1 34969:1 36259:1 
1 1:1 3:1 4:1 5:1 8:1 9:1 12:1 14:1 15:1 16:1 17:1 18:1 20:1 27:1 33:1 37:1 38:1 43:1 45:1 47:1 49:1 58:1 61:1 114:1 118:1 119:1 127:1 148:1 157:1 165:1 236:1 259:1 262:1 263:1 276:1 332:1 384:1 389:1 392:1 409:1 424:1 440:1 463:1 468:1 481:1 493:1 507:1 519:1 564:1 689:1 699:1 768:1 770:1 834:1 858:1 914:1 944:1 971:1 979:1 1012:1 1146:1 1710:1 1739:1 1815:1 2119:1 2260:1 2278:1 3006:1 3015:1 3317:1 3319:1 3566:1 4094:1 4614:1 4708:1 4754:1 5111:1 5303:1 5569:1 5786:1 5929:1 6093:1 6239:1 6745:1 7727:1 7817:1 8405:1 8443:1 8982:1 9164:1 9597:1 9778:1 9982:1 10049:1 10281:1 11121:1 13360:1 15889:1 18730:1 20060:1 21186:1 22810:1 24876:1 25041:1 26973:1 27929:1 28840:1 29415:1 30134:1 30609:1 32503:1 35672:1 35868:1 
0.56904001889218403 1:1 2:1 3:1 4:1 5:1 7:1 8:1 9:1 12:1 13:1 14:1 17:1 18:1 19:1 20:1 25:1 27:1 32:1 33:1 34:1 36:1 37:1 38:1 46:1 47:1 49:1 54:1 59:1 70:1 76:1 93:1 114:1 118:1 119:1 143:1 148:1 160:1 161:1 211:1 221:1 231:1 240:1 250:1 255:1 259:1 268:1 271:1 273:1 276:1 277:1 278:1 323:1 325:1 328:1 332:1 353:1 380:1 384:1 399:1 472:1 490:1 492:1 495:1 497:1 501:1 504:1 510:1 522:1 540:1 556:1 564:1 649:1 654:1 658:1 693:1 765:1 768:1 776:1 790:1 819:1 827:1 840:1 859:1 968:1 972:1 1012:1 1066:1 1111:1 1261:1 1370:1 1546:1 1705:1 1714:1 1724:1 1753:1 1961:1 2165:1 2192:1 2757:1 2868:1 3057:1 3059:1 3201:1 3238:1 3246:1 3413:1 3426:1 3431:1 3465:1 3525:1 3570:1 3589:1 3602:1 3628:1 4006:1 4035:1 4108:1 4335:1 4614:1 4845:1 5633:1 5903:1 5957:1 5965:1 6031:1 6064:1 6127:1 6134:1 6441:1 6444:1 6627:1 6745:1 7417:1 7433:1 7480:1 7546:1 7766:1 8394:1 8416:1 8514:1 8597:1 8836:1 8904:1 9047:1 9172:1 9969:1 9996:1 10281:1 10641:1 10868:1 11576:1 13407:1 13409:1 13539:1 13665:1 14286:1 15335:1 17735:1 18194:1 18906:1 18918:1 19571:1 19743:1 19796:1 20595:1 20650:1 20777:1 21077:1 21203:1 21275:1 21346:1 21468:1 22506:1 22906:1 23549:1 25343:1 28239:1 29301:1 29529:1 29537:1 29547:1 29902:1 30040:1 30255:1 30305:1 31496:1 32058:1 32503:1 34739:1 35766:1 
1 1:1 4:1 5:1 9:1 10:1 12:1 14:1 15:1 18:1 19:1 20:1 21:1 33:1 34:1 38:1 39:1 43:1 48:1 50:1 58:1 59:1 118:1 119:1 148:1 153:1 157:1 160:1 166:1 259:1 290:1 323:1 385:1 409:1 507:1 542:1 556:1 580:1 767:1 768:1 794:1 843:1 866:1 913:1 1000:1 1020:1 1100:1 1740:1 2055:1 2119:1 2165:1 2302:1 3717:1 4650:1 6082:1 6492:1 6618:1 6924:1 8406:1 8650:1 9205:1 9589:1 10192:1 10354:1 13617:1 14599:1 16029:1 24614:1 31664:1 33162:1 
1 1:1 3:1 4:1 5:1 6:1 7:1 8:1 9:1 14:1 15:1 17:1 18:1 33:1 34:1 36:1 38:1 44:1 47:1 58:1 59:1 114:1 118:1 119:1 123:1 154:1 165:1 175:1 181:1 221:1 231:1 236:1 259:1 277:1 384:1 423:1 463:1 495:1 501:1 768:1 769:1 793:1 827:1 859:1 934:1 972:1 1100:1 1705:1 1710:1 1740:1 1789:1 2072:1 2260:1 2449:1 2868:1 3012:1 3589:1 4614:1 5088:1 5957:1 6023:1 8406:1 8437:1 8623:1 8904:1 9172:1 9708:1 9996:1 13365:1 13617:1 13802:1 14703:1 18191:1 18710:1 21275:1 26113:1 29529:1 29533:1 
1 1:1 2:1 3:1 4:1 5:1 7:1 8:1 9:1 10:1 12:1 13:1 14:1 15:1 17:1 18:1 19:1 20:1 25:1 30:1 31:1 33:1 36:1 37:1 38:1 39:1 41:1 43:1 46:1 47:1 49:1 58:1 59:1 60:1 72:1 75:1 89:1 93:1 114:1 118:1 123:1 148:1 165:1 212:1 215:1 220:1 231:1 232:1 245:1 249:1 259:1 262:1 263:1 268:1 289:1 324:1 332:1 352:1 384:1 385:1 387:1 389:1 409:1 424:1 427:1 463:1 476:1 478:1 488:1 492:1 495:1 510:1 522:1 564:1 643:1 731:1 732:1 754:1 769:1 822:1 826:1 833:1 845:1 851:1 865:1 887:1 914:1 967:1 972:1 1012:1 1115:1 1127:1 1307:1 1309:1 1357:1 1517:1 1546:1 1705:1 1719:1 1723:1 1772:1 2260:1 2760:1 2797:1 2850:1 2968:1 2981:1 3108:1 3169:1 3317:1 3319:1 3413:1 3416:1 3705:1 3992:1 4100:1 4614:1 4641:1 4683:1 4708:1 5126:1 5182:1 5679:1 5727:1 5872:1 5957:1 6122:1 6745:1 7374:1 8065:1 8075:1 8297:1 8421:1 8857:1 8893:1 8957:1 8969:1 9083:1 9109:1 9194:1 9365:1 9597:1 9954:1 9996:1 10281:1 10932:1 11020:1 11816:1 11837:1 12095:1 12715:1 13453:1 13508:1 17869:1 18095:1 18580:1 20056:1 20503:1 22442:1 22849:1 24784:1 24876:1 26329:1 26607:1 28653:1 29188:1 29542:1 32503:1 34537:1 
0.5111894709718221 1:1 2:1 3:1 4:1 5:1 6:1 7:1 8:1 9:1 11:1 12:1 14:1 15:1 17:1 18:1 19:1 20:1 25:1 28:1 31:1 33:1 34:1 35:1 36:1 37:1 40:1 44:1 59:1 67:1 76:1 101:1 114:1 118:1 119:1 127:1 148:1 151:1 162:1 202:1 210:1 221:1 227:1 231:1 236:1 240:1 259:1 264:1 278:1 300:1 327:1 384:1 423:1 463:1 483:1 492:1 493:1 522:1 554:1 570:1 652:1 716:1 757:1 768:1 770:1 781:1 812:1 818:1 830:1 834:1 874:1 934:1 1116:1 1217:1 1235:1 1370:1 1610:1 1705:1 1714:1 1740:1 1820:1 2021:1 2214:1 2659:1 2743:1 2860:1 2938:1 3020:1 3049:1 3336:1 3611:1 3792:1 4017:1 4614:1 5088:1 5830:1 5933:1 6602:1 6853:1 7453:1 7960:1 8341:1 8406:1 8446:1 8541:1 8769:1 8824:1 8932:1 8986:1 9264:1 9708:1 10942:1 11480:1 13114:1 13399:1 13624:1 13904:1 14457:1 15439:1 17202:1 17644:1 18142:1 18420:1 18781:1 21858:1 26113:1 29041:1 29432:1 31977:1 32964:1 34784:1 
0.37974316075019898 1:1 3:1 4:1 5:1 6:1 7:1 8:1 9:1 10:1 15:1 17:1 18:1 19:1 20:1 33:1 34:1 35:1 36:1 38:1 39:1 47:1 58:1 59:1 76:1 114:1 119:1 123:1 127:1 148:1 168:1 195:1 221:1 231:1 245:1 249:1 259:1 268:1 277:1 289:1 409:1 482:1 495:1 501:1 522:1 527:1 531:1 567:1 569:1 768:1 769:1 770:1 796:1 808:1 827:1 859:1 865:1 972:1 1100:1 1373:1 1705:1 1719:1 1723:1 1753:1 1772:1 1815:1 2355:1 2607:1 2868:1 3108:1 3174:1 3413:1 3589:1 3706:1 5788:1 5957:1 6031:1 6285:1 6359:1 6804:1 6841:1 8416:1 8421:1 8443:1 8663:1 8739:1 8904:1 9172:1 9195:1 9996:1 12156:1 13453:1 13513:1 13666:1 16247:1 17071:1 18194:1 19391:1 21275:1 21682:1 29529:1 29542:1 29546:1 29902:1 31172:1 32741:1 32935:1 
1 1:1 2:1 3:1 4:1 5:1 7:1 8:1 9:1 12:1 13:1 14:1 16:1 17:1 18:1 19:1 20:1 21:1 27:1 33:1 34:1 36:1 37:1 42:1 50:1 55:1 58:1 59:1 93:1 114:1 123:1 148:1 165:1 204:1 221:1 240:1 249:1 250:1 259:1 262:1 266:1 268:1 271:1 332:1 353:1 384:1 440:1 450:1 465:1 482:1 501:1 522:1 564:1 582:1 691:1 769:1 779:1 827:1 836:1 839:1 897:1 1021:1 1084:1 1100:1 1553:1 1723:1 1789:1 2262:1 2279:1 2665:1 2868:1 3057:1 3169:1 3208:1 3317:1 3380:1 3413:1 3420:1 3472:1 4094:1 4335:1 4619:1 5289:1 5388:1 5520:1 5788:1 6031:1 6745:1 6949:1 7739:1 8437:1 8904:1 8996:1 9032:1 9459:1 10376:1 10738:1 12866:1 13508:1 13804:1 13821:1 15692:1 15891:1 17218:1 18194:1 18903:1 19600:1 20068:1 20345:1 20533:1 20818:1 22810:1 23544:1 24475:1 27254:1 27679:1 29902:1 32506:1 33253:1 35701:1 
0.52000837619225493 1:1 2:1 3:1 4:1 5:1 6:1 7:1 8:1 9:1 12:1 13:1 14:1 15:1 17:1 18:1 19:1 20:1 21:1 22:1 23:1 25:1 27:1 30:1 33:1 34:1 35:1 36:1 37:1 41:1 47:1 49:1 50:1 51:1 52:1 58:1 59:1 60:1 61:1 72:1 76:1 89:1 114:1 119:1 123:1 127:1 148:1 153:1 156:1 157:1 162:1 166:1 167:1 175:1 176:1 195:1 203:1 210:1 221:1 231:1 236:1 259:1 262:1 264:1 265:1 272:1 279:1 324:1 352:1 357:1 380:1 387:1 399:1 409:1 482:1 492:1 495:1 497:1 501:1 517:1 522:1 523:1 544:1 551:1 554:1 557:1 567:1 584:1 595:1 598:1 603:1 605:1 647:1 689:1 699:1 732:1 768:1 769:1 770:1 787:1 791:1 794:1 800:1 808:1 827:1 834:1 887:1 976:1 987:1 1007:1 1022:1 1030:1 1032:1 1037:1 1100:1 1116:1 1127:1 1146:1 1309:1 1370:1 1373:1 1519:1 1705:1 1710:1 1740:1 1753:1 1772:1 1780:1 1820:1 2044:1 2110:1 2119:1 2125:1 2132:1 2211:1 2229:1 2292:1 2316:1 2406:1 2415:1 2607:1 2743:1 2859:1 2864:1 3015:1 3020:1 3317:1 3336:1 3359:1 3488:1 3493:1 3637:1 3992:1 4370:1 4675:1 4831:1 4848:1 5788:1 5957:1 5969:1 6023:1 6026:1 6213:1 6253:1 6516:1 6602:1 6637:1 6804:1 6959:1 7038:1 7065:1 7110:1 7402:1 7730:1 7817:1 8075:1 8406:1 8416:1 8421:1 8429:1 8446:1 8579:1 8615:1 8648:1 8682:1 8739:1 8903:1 8982:1 9365:1 10017:1 10019:1 10086:1 10235:1 10384:1 10450:1 10469:1 10942:1 11022:1 11117:1 11832:1 12156:1 12755:1 13372:1 13624:1 13665:1 13742:1 13904:1 14918:1 14987:1 15031:1 15034:1 15566:1 15986:1 16092:1 16422:1 16456:1 17071:1 17643:1 18162:1 18730:1 18737:1 18779:1 20056:1 20267:1 20889:1 22442:1 25362:1 29529:1 29586:1 29879:1 30533:1 30638:1 31767:1 31975:1 32741:1 33617:1 33705:1 33864:1 34618:1 35681:1 35870:1 
1 1:1 3:1 4:1 5:1 6:1 7:1 8:1 9:1 10:1 11:1 12:1 13:1 14:1 15:1 17:1 18:1 19:1 25:1 28:1 33:1 34:1 35:1 36:1 37:1 39:1 40:1 42:1 43:1 56:1 59:1 75:1 76:1 114:1 118:1 119:1 143:1 148:1 152:1 165:1 166:1 202:1 204:1 231:1 240:1 255:1 278:1 293:1 320:1 328:1 357:1 384:1 385:1 399:1 409:1 463:1 492:1 495:1 522:1 534:1 541:1 640:1 654:1 658:1 663:1 716:1 717:1 722:1 768:1 776:1 779:1 794:1 812:1 814:1 836:1 840:1 869:1 884:1 898:1 913:1 1097:1 1115:1 1116:1 1345:1 1370:1 1705:1 1740:1 1753:1 1951:1 1968:1 2024:1 2260:1 2292:1 2659:1 2665:1 3066:1 3242:1 3246:1 3629:1 3745:1 3962:1 4051:1 4370:1 4385:1 4614:1 4645:1 4831:1 5957:1 6380:1 6476:1 7482:1 7493:1 7546:1 7587:1 7960:1 7980:1 8035:1 8406:1 8416:1 8506:1 8519:1 8648:1 8769:1 8773:1 9003:1 9044:1 9047:1 9222:1 9342:1 9474:1 9483:1 9586:1 10777:1 10920:1 10942:1 13624:1 13665:1 14308:1 15986:1 17202:1 17224:1 18968:1 19761:1 19796:1 21485:1 22355:1 22664:1 23759:1 24578:1 29529:1 31234:1 31621:1 34903:1 34969:1 36468:1 
0.8294154316722967 2:1 3:1 4:1 5:1 7:1 8:1 9:1 12:1 13:1 14:1 15:1 16:1 17:1 18:1 19:1 21:1 25:1 27:1 32:1 33:1 34:1 36:1 37:1 41:1 42:1 43:1 44:1 46:1 47:1 50:1 55:1 84:1 114:1 123:1 127:1 143:1 148:1 151:1 152:1 153:1 157:1 160:1 165:1 166:1 167:1 220:1 231:1 236:1 245:1 255:1 257:1 259:1 264:1 277:1 278:1 328:1 361:1 385:1 394:1 409:1 413:1 444:1 450:1 463:1 468:1 492:1 495:1 507:1 522:1 580:1 640:1 658:1 678:1 689:1 691:1 765:1 769:1 770:1 776:1 794:1 826:1 834:1 840:1 888:1 900:1 913:1 924:1 961:1 972:1 1020:1 1077:1 1084:1 1705:1 1719:1 1731:1 1772:1 1789:1 1820:1 1951:1 2021:1 2028:1 2060:1 2119:1 2170:1 2260:1 2265:1 2302:1 2315:1 2848:1 3015:1 3108:1 3246:1 3264:1 3336:1 3586:1 3611:1 4037:1 4039:1 4434:1 4641:1 4766:1 4962:1 5351:1 5389:1 5557:1 5569:1 5571:1 5957:1 6082:1 6930:1 7546:1 7631:1 7728:1 7739:1 8402:1 8421:1 8446:1 8506:1 8650:1 8891:1 8982:1 9047:1 9374:1 9501:1 9583:1 9678:1 9896:1 9996:1 10360:1 10715:1 10738:1 13453:1 13591:1 13802:1 13904:1 14457:1 14484:1 14634:1 15188:1 15726:1 16029:1 18077:1 18730:1 19796:1 19864:1 22582:1 22599:1 23920:1 25063:1 25716:1 27129:1 27271:1 27813:1 27929:1 27953:1 29542:1 33179:1 35674:1 35702:1 
1 1:1 3:1 4:1 5:1 6:1 7:1 8:1 9:1 12:1 13:1 14:1 15:1 17:1 18:1 19:1 20:1 22:1 25:1 33:1 34:1 36:1 37:1 38:1 43:1 51:1 58:1 114:1 123:1 143:1 148:1 151:1 161:1 162:1 165:1 166:1 195:1 203:1 209:1 231:1 232:1 255:1 262:1 264:1 273:1 341:1 367:1 380:1 384:1 389:1 395:1 409:1 421:1 424:1 477:1 492:1 507:1 522:1 564:1 595:1 601:1 640:1 647:1 658:1 663:1 769:1 776:1 781:1 791:1 794:1 817:1 833:1 840:1 845:1 914:1 1030:1 1034:1 1705:1 1772:1 1789:1 1951:1 2021:1 2201:1 2211:1 2274:1 2302:1 2606:1 2722:1 2968:1 3246:1 3317:1 3349:1 3508:1 4205:1 4480:1 4619:1 4709:1 4789:1 5055:1 5111:1 5121:1 5704:1 6093:1 6745:1 7033:1 7094:1 7399:1 7546:1 7593:1 8421:1 8437:1 8506:1 8541:1 8605:1 8650:1 8812:1 8957:1 9047:1 9083:1 9598:1 10445:1 10491:1 13816:1 14457:1 15392:1 15827:1 16032:1 17063:1 17530:1 19796:1 20056:1 20196:1 24045:1 24464:1 24885:1 25144:1 26007:1 26269:1 28545:1 30134:1 32506:1 33581:1 33813:1 35339:1 
0.92352303351021425 1:1 2:1 3:1 4:1 5:1 8:1 9:1 10:1 12:1 13:1 14:1 15:1 17:1 18:1 19:1 20:1 21:1 22:1 25:1 27:1 31:1 33:1 34:1 37:1 42:1 43:1 47:1 50:1 51:1 54:1 55:1 59:1 67:1 76:1 84:1 101:1 114:1 118:1 119:1 148:1 151:1 152:1 161:1 162:1 165:1 166:1 231:1 249:1 255:1 259:1 269:1 271:1 277:1 290:1 323:1 328:1 353:1 357:1 367:1 380:1 384:1 385:1 395:1 409:1 421:1 463:1 475:1 483:1 492:1 495:1 497:1 501:1 510:1 522:1 554:1 570:1 582:1 593:1 603:1 654:1 656:1 663:1 678:1 693:1 757:1 768:1 790:1 791:1 794:1 840:1 898:1 913:1 916:1 976:1 1021:1 1028:1 1035:1 1075:1 1077:1 1116:1 1226:1 1234:1 1370:1 1610:1 1705:1 1723:1 1740:1 2021:1 2024:1 2192:1 2201:1 2211:1 2260:1 2292:1 3169:1 3242:1 3438:1 3468:1 3602:1 3730:1 4037:1 4047:1 4341:1 4385:1 4477:1 4614:1 4645:1 4777:1 5042:1 5671:1 5830:1 5957:1 5965:1 6023:1 6122:1 6127:1 6602:1 6853:1 6949:1 6993:1 6999:1 7106:1 7482:1 7516:1 7599:1 7631:1 7766:1 8341:1 8406:1 8602:1 8605:1 8648:1 9044:1 9483:1 9586:1 9610:1 10017:1 10376:1 10409:1 10414:1 10497:1 10713:1 10715:1 10942:1 11417:1 11478:1 13114:1 13508:1 13624:1 14457:1 15337:1 15390:1 15986:1 19761:1 20689:1 20789:1 21341:1 21727:1 22582:1 22641:1 23569:1 23759:1 24025:1 24578:1 28403:1 29041:1 29529:1 30255:1 31982:1 32964:1 33251:1 33386:1 33422:1 33849:1 34903:1 35096:1 35387:1 35764:1 
0.14054440611231384 1:1 5:1 10:1 12:1 15:1 18:1 22:1 30:1 39:1 51:1 58:1 59:1 70:1 148:1 289:1 341:1 409:1 507:1 594:1 741:1 865:1 1029:1 1100:1 1274:1 3706:1 4214:1 6082:1 7003:1 8154:1 9195:1 10417:1 11656:1 21682:1 23211:1 
0.15663487035054194 1:1 2:1 4:1 5:1 7:1 8:1 9:1 12:1 13:1 14:1 15:1 17:1 18:1 19:1 20:1 21:1 25:1 28:1 33:1 37:1 38:1 42:1 43:1 47:1 49:1 50:1 58:1 59:1 66:1 93:1 118:1 119:1 123:1 127:1 148:1 153:1 165:1 166:1 203:1 245:1 255:1 259:1 266:1 271:1 327:1 328:1 357:1 379:1 381:1 384:1 421:1 463:1 492:1 494:1 497:1 522:1 564:1 568:1 570:1 582:1 658:1 705:1 768:1 769:1 840:1 843:1 898:1 910:1 912:1 974:1 1012:1 1016:1 1021:1 1107:1 1214:1 1555:1 1739:1 1789:1 1822:1 2060:1 2260:1 2289:1 2294:1 3118:1 3246:1 3379:1 3467:1 3468:1 4024:1 4035:1 4052:1 4370:1 4573:1 4583:1 4614:1 5046:1 5948:1 5965:1 5969:1 6745:1 6811:1 6867:1 6949:1 7546:1 7865:1 8405:1 8437:1 9047:1 9474:1 9558:1 9568:1 10002:1 10281:1 10339:1 10376:1 10846:1 11363:1 12883:1 13802:1 13915:1 14630:1 15988:1 19144:1 19796:1 20784:1 20798:1 22557:1 22685:1 24293:1 24321:1 25942:1 29503:1 29596:1 32503:1 32772:1 33045:1 33251:1 36002:1 
1 1:1 3:1 4:1 5:1 7:1 8:1 9:1 10:1 11:1 14:1 15:1 17:1 18:1 19:1 20:1 22:1 23:1 27:1 28:1 33:1 38:1 39:1 47:1 49:1 51:1 52:1 55:1 58:1 59:1 114:1 118:1 127:1 148:1 159:1 162:1 167:1 221:1 231:1 236:1 249:1 259:1 262:1 266:1 273:1 276:1 289:1 302:1 380:1 384:1 409:1 463:1 492:1 495:1 497:1 507:1 527:1 531:1 541:1 564:1 595:1 631:1 685:1 707:1 722:1 770:1 856:1 865:1 972:1 974:1 979:1 1012:1 1030:1 1056:1 1080:1 1100:1 1705:1 1710:1 1723:1 1815:1 2151:1 2211:1 2332:1 2859:1 3006:1 3174:1 3317:1 3396:1 3508:1 3561:1 3706:1 3820:1 4614:1 5957:1 5982:1 6082:1 6294:1 6349:1 6473:1 6745:1 7035:1 7342:1 7671:1 7892:1 8027:1 8443:1 9144:1 9195:1 9996:1 10012:1 10039:1 10281:1 10447:1 10625:1 10725:1 13360:1 13513:1 15107:1 16180:1 19399:1 20056:1 20429:1 21682:1 21940:1 29533:1 29546:1 29718:1 30840:1 31111:1 31611:1 32503:1 33589:1 34469:1 35522:1 36087:1 36430:1 
0.3766679449475811 1:1 2:1 3:1 4:1 5:1 7:1 8:1 9:1 11:1 12:1 13:1 14:1 15:1 16:1 17:1 18:1 19:1 21:1 23:1 25:1 27:1 31:1 33:1 34:1 36:1 37:1 38:1 40:1 42:1 43:1 45:1 47:1 50:1 52:1 55:1 58:1 59:1 70:1 72:1 76:1 84:1 85:1 89:1 114:1 119:1 148:1 153:1 160:1 161:1 165:1 166:1 167:1 203:1 210:1 211:1 221:1 231:1 232:1 236:1 255:1 259:1 261:1 262:1 268:1 271:1 273:1 305:1 323:1 332:1 357:1 361:1 371:1 380:1 381:1 385:1 387:1 423:1 443:1 472:1 481:1 492:1 495:1 497:1 507:1 517:1 522:1 534:1 539:1 582:1 605:1 653:1 658:1 678:1 752:1 753:1 768:1 794:1 819:1 827:1 840:1 856:1 876:1 898:1 913:1 946:1 987:1 1021:1 1037:1 1077:1 1100:1 1111:1 1116:1 1256:1 1309:1 1370:1 1374:1 1473:1 1481:1 1501:1 1519:1 1705:1 1710:1 1753:1 2044:1 2165:1 2197:1 2278:1 2292:1 2315:1 2330:1 2726:1 2752:1 2864:1 2969:1 3006:1 3019:1 3023:1 3246:1 3302:1 3317:1 3413:1 3415:1 3463:1 3508:1 3836:1 4094:1 4370:1 4427:1 4516:1 4583:1 4658:1 4681:1 5085:1 5331:1 5633:1 5777:1 5957:1 5969:1 5976:1 6092:1 6217:1 6381:1 6432:1 6949:1 7477:1 7546:1 7631:1 8260:1 8267:1 8291:1 8416:1 8648:1 8831:1 8903:1 9047:1 9144:1 9281:1 9474:1 9594:1 9791:1 10090:1 10376:1 10715:1 10863:1 10946:1 11835:1 12160:1 12507:1 12538:1 12759:1 13360:1 13665:1 15370:1 15880:1 15986:1 16152:1 17704:1 18162:1 18492:1 18771:1 18815:1 19796:1 19995:1 20060:1 20491:1 21999:1 22810:1 23877:1 24140:1 24325:1 24682:1 24764:1 26099:1 27063:1 28224:1 28818:1 29529:1 29586:1 29645:1 30127:1 30553:1 31239:1 31426:1 33249:1 34896:1 
1 1:1 3:1 4:1 5:1 6:1 7:1 8:1 9:1 12:1 13:1 14:1 15:1 17:1 18:1 19:1 21:1 25:1 30:1 33:1 34:1 36:1 37:1 42:1 43:1 47:1 50:1 54:1 58:1 59:1 61:1 72:1 76:1 114:1 118:1 119:1 148:1 160:1 165:1 176:1 211:1 231:1 232:1 249:1 255:1 259:1 263:1 265:1 271:1 273:1 323:1 342:1 353:1 357:1 361:1 384:1 389:1 409:1 468:1 492:1 495:1 507:1 522:1 523:1 527:1 582:1 649:1 654:1 731:1 768:1 789:1 819:1 840:1 897:1 898:1 900:1 914:1 979:1 1021:1 1066:1 1100:1 1116:1 1146:1 1306:1 1370:1 1373:1 1705:1 1723:1 1753:1 2184:1 2265:1 2406:1 2752:1 2969:1 3169:1 3170:1 3242:1 3319:1 3359:1 3463:1 3516:1 4226:1 4336:1 4370:1 4431:1 4614:1 4704:1 4708:1 5553:1 5957:1 6082:1 6264:1 6300:1 6949:1 7422:1 7482:1 8066:1 8416:1 8594:1 8831:1 9044:1 9460:1 9474:1 9498:1 9597:1 10039:1 10376:1 10645:1 10945:1 11117:1 11132:1 11794:1 12156:1 13508:1 13509:1 13665:1 15299:1 15715:1 16422:1 17704:1 18492:1 19375:1 19761:1 20267:1 21016:1 23243:1 23555:1 23907:1 24876:1 29546:1 30707:1 30897:1 33249:1 34671:1 34903:1 
1 1:1 2:1 3:1 4:1 5:1 7:1 8:1 9:1 11:1 12:1 13:1 14:1 15:1 18:1 19:1 20:1 28:1 31:1 33:1 34:1 36:1 38:1 40:1 43:1 49:1 72:1 112:1 114:1 118:1 123:1 127:1 148:1 152:1 153:1 155:1 157:1 160:1 162:1 203:1 221:1 231:1 249:1 259:1 264:1 268:1 272:1 273:1 277:1 311:1 328:1 336:1 352:1 353:1 357:1 380:1 384:1 385:1 394:1 398:1 400:1 421:1 495:1 497:1 501:1 510:1 522:1 563:1 564:1 568:1 705:1 763:1 769:1 779:1 787:1 827:1 855:1 859:1 880:1 917:1 1012:1 1015:1 1316:1 1696:1 1705:1 1723:1 1772:1 1820:1 2029:1 2050:1 2086:1 2133:1 2178:1 2211:1 2228:1 2868:1 3169:1 3350:1 3413:1 3488:1 3512:1 3589:1 3887:1 4039:1 4153:1 4346:1 4382:1 4614:1 4641:1 4763:1 4811:1 4860:1 5046:1 5957:1 5968:1 6031:1 6127:1 6724:1 6745:1 6826:1 7860:1 8382:1 8421:1 8585:1 8904:1 9135:1 9172:1 9310:1 9628:1 10281:1 10325:1 11887:1 13310:1 13508:1 13909:1 14501:1 14577:1 15042:1 15260:1 15542:1 18194:1 20206:1 20974:1 21275:1 22149:1 22594:1 23050:1 23594:1 23743:1 25201:1 25386:1 25943:1 29529:1 29546:1 29583:1 29902:1 30258:1 32434:1 32503:1 32866:1 35979:1 
1 2:1 3:1 4:1 5:1 7:1 8:1 12:1 14:1 15:1 17:1 18:1 19:1 20:1 25:1 36:1 37:1 47:1 49:1 89:1 114:1 118:1 165:1 167:1 206:1 236:1 245:1 255:1 325:1 384:1 412:1 463:1 517:1 522:1 564:1 652:1 654:1 815:1 840:1 987:1 1012:1 1517:1 1710:1 1719:1 2260:1 2315:1 2687:1 3025:1 3110:1 3242:1 4005:1 4614:1 4958:1 6216:1 6745:1 7451:1 7482:1 8786:1 9044:1 10089:1 10281:1 12715:1 13377:1 13455:1 17308:1 18826:1 19126:1 19761:1 22502:1 25690:1 30545:1 32503:1 34780:1 34903:1 
1 1:1 3:1 4:1 5:1 6:1 7:1 8:1 9:1 10:1 11:1 14:1 15:1 17:1 18:1 19:1 22:1 25:1 30:1 32:1 33:1 35:1 36:1 37:1 38:1 39:1 43:1 47:1 51:1 58:1 69:1 114:1 118:1 127:1 136:1 148:1 162:1 165:1 179:1 199:1 203:1 221:1 236:1 239:1 245:1 249:1 259:1 264:1 265:1 266:1 268:1 273:1 289:1 315:1 380:1 384:1 395:1 398:1 409:1 412:1 463:1 482:1 492:1 495:1 501:1 522:1 531:1 594:1 656:1 740:1 765:1 770:1 809:1 827:1 834:1 843:1 865:1 916:1 976:1 1029:1 1252:1 1713:1 1719:1 1723:1 1820:1 1896:1 2211:1 2214:1 2228:1 2260:1 2425:1 2635:1 2868:1 3020:1 3023:1 3044:1 3108:1 3169:1 3336:1 3350:1 3361:1 3379:1 3413:1 3419:1 3511:1 3705:1 3922:1 4614:1 4632:1 4780:1 4811:1 4958:1 5796:1 5957:1 6023:1 6031:1 6035:1 6349:1 6350:1 7013:1 7522:1 8140:1 8397:1 8446:1 8748:1 8904:1 8986:1 9194:1 9612:1 10024:1 10027:1 10427:1 11534:1 13395:1 13453:1 13508:1 13904:1 13909:1 15439:1 15542:1 16486:1 17140:1 18191:1 18781:1 18799:1 18861:1 20206:1 20273:1 20522:1 20961:1 20971:1 22251:1 24534:1 25114:1 25201:1 25693:1 28889:1 29546:1 29902:1 29941:1 31104:1 31117:1 33489:1 35131:1 
0.11992754079792134 1:1 2:1 4:1 5:1 6:1 7:1 8:1 9:1 12:1 13:1 14:1 15:1 17:1 18:1 19:1 20:1 21:1 22:1 25:1 27:1 33:1 36:1 37:1 42:1 43:1 47:1 49:1 51:1 59:1 75:1 93:1 118:1 123:1 148:1 150:1 154:1 165:1 190:1 204:1 221:1 222:1 255:1 259:1 264:1 268:1 273:1 278:1 330:1 361:1 384:1 389:1 407:1 409:1 421:1 463:1 501:1 522:1 543:1 564:1 580:1 597:1 640:1 654:1 680:1 769:1 814:1 827:1 840:1 900:1 914:1 919:1 976:1 1012:1 1031:1 1115:1 1345:1 1553:1 1774:1 2010:1 2077:1 2260:1 2537:1 2665:1 2868:1 2886:1 3231:1 3242:1 3336:1 3351:1 3413:1 3511:1 3631:1 4081:1 4424:1 4434:1 4614:1 4709:1 4918:1 5048:1 6031:1 6035:1 6507:1 6745:1 6925:1 7045:1 7482:1 7640:1 8423:1 8773:1 8904:1 9036:1 9044:1 9492:1 9501:1 9598:1 9652:1 10027:1 10281:1 10454:1 10920:1 12866:1 13706:1 14409:1 14725:1 16860:1 17224:1 18194:1 19761:1 20211:1 20961:1 21505:1 22778:1 23866:1 23937:1 24880:1 25575:1 25966:1 29902:1 29941:1 31729:1 32503:1 33165:1 34903:1 
1 1:1 2:1 3:1 4:1 5:1 7:1 8:1 9:1 10:1 13:1 14:1 15:1 16:1 17:1 18:1 19:1 23:1 28:1 31:1 33:1 36:1 37:1 39:1 43:1 47:1 52:1 58:1 76:1 112:1 114:1 118:1 135:1 157:1 220:1 221:1 231:1 236:1 259:1 268:1 275:1 289:1 352:1 365:1 408:1 427:1 437:1 472:1 478:1 492:1 501:1 510:1 511:1 522:1 605:1 703:1 713:1 763:1 767:1 772:1 826:1 827:1 834:1 865:1 920:1 976:1 1037:1 1384:1 1695:1 1705:1 1888:1 2119:1 2850:1 2868:1 3015:1 3413:1 3428:1 3546:1 3705:1 4449:1 4933:1 5182:1 5281:1 5633:1 5730:1 6023:1 6031:1 6122:1 6140:1 6149:1 7838:1 7933:1 8381:1 8482:1 8893:1 8904:1 8982:1 9194:1 9661:1 10017:1 12211:1 13307:1 14106:1 18097:1 18194:1 18730:1 20599:1 21126:1 25616:1 26607:1 26908:1 28236:1 28671:1 29902:1 30326:1 35928:1 36155:1 
0.95302409159548418 1:1 3:1 4:1 5:1 8:1 9:1 13:1 14:1 15:1 17:1 18:1 19:1 20:1 22:1 23:1 33:1 34:1 37:1 38:1 43:1 47:1 49:1 51:1 59:1 71:1 77:1 114:1 118:1 123:1 148:1 161:1 162:1 165:1 166:1 240:1 249:1 264:1 268:1 272:1 273:1 278:1 352:1 357:1 361:1 380:1 381:1 384:1 385:1 403:1 409:1 426:1 463:1 482:1 492:1 495:1 507:1 522:1 523:1 527:1 564:1 595:1 597:1 614:1 769:1 791:1 836:1 855:1 856:1 912:1 970:1 972:1 979:1 1012:1 1030:1 1031:1 1117:1 1287:1 1394:1 1723:1 1790:1 2197:1 2211:1 2232:1 2260:1 2289:1 3054:1 3170:1 3336:1 3349:1 3431:1 3488:1 3512:1 3611:1 3615:1 4382:1 4434:1 4594:1 4614:1 4641:1 4883:1 5161:1 5788:1 5957:1 6082:1 6253:1 6300:1 6301:1 6745:1 7028:1 7058:1 7198:1 8438:1 8616:1 8994:1 9135:1 9146:1 9575:1 9996:1 10039:1 10281:1 10441:1 10463:1 10957:1 11725:1 12249:1 13509:1 13827:1 15376:1 15587:1 18885:1 19366:1 20194:1 20643:1 20974:1 21407:1 23743:1 23920:1 24372:1 25467:1 26518:1 29546:1 30649:1 30892:1 30918:1 32503:1 33560:1 33686:1 34087:1 
1 1:1 3:1 4:1 5:1 6:1 8:1 9:1 15:1 16:1 17:1 18:1 19:1 23:1 25:1 28:1 33:1 34:1 47:1 48:1 54:1 61:1 114:1 127:1 135:1 148:1 157:1 171:1 176:1 231:1 246:1 264:1 265:1 409:1 424:1 426:1 449:1 463:1 482:1 495:1 507:1 522:1 550:1 610:1 657:1 705:1 770:1 772:1 787:1 799:1 972:1 1003:1 1072:1 1146:1 1705:1 1720:1 1820:1 1884:1 2125:1 2378:1 2406:1 3136:1 3336:1 3359:1 5111:1 5161:1 5381:1 5788:1 5957:1 6093:1 6566:1 7148:1 7539:1 7851:1 8446:1 8478:1 8579:1 8669:1 9996:1 10222:1 10697:1 11117:1 13476:1 13904:1 14987:1 16329:1 16422:1 19251:1 20267:1 26518:1 27235:1 29543:1 30134:1 31878:1 35189:1 
1 3:1 7:1 8:1 9:1 12:1 17:1 18:1 19:1 21:1 22:1 25:1 36:1 38:1 50:1 51:1 54:1 114:1 221:1 231:1 249:1 259:1 262:1 268:1 271:1 277:1 323:1 332:1 463:1 495:1 501:1 522:1 582:1 595:1 640:1 656:1 663:1 827:1 859:1 1021:1 1030:1 1059:1 1075:1 1705:1 1723:1 2868:1 3169:1 3317:1 3413:1 3463:1 3472:1 3589:1 4094:1 5957:1 6031:1 6949:1 7031:1 7506:1 7599:1 8904:1 9172:1 10376:1 10443:1 10713:1 13508:1 18194:1 20068:1 20818:1 21275:1 22810:1 29529:1 29902:1 33253:1 33567:1 35377:1 
1 1:1 3:1 4:1 5:1 7:1 8:1 9:1 12:1 14:1 15:1 17:1 18:1 19:1 25:1 28:1 30:1 33:1 36:1 37:1 43:1 44:1 47:1 62:1 70:1 76:1 114:1 118:1 119:1 143:1 146:1 151:1 203:1 231:1 255:1 273:1 328:1 341:1 381:1 384:1 409:1 423:1 475:1 492:1 501:1 507:1 522:1 640:1 658:1 663:1 716:1 722:1 741:1 768:1 776:1 813:1 840:1 912:1 934:1 976:1 1164:1 1274:1 1370:1 1705:1 1753:1 1968:1 1991:1 2021:1 3246:1 3511:1 4037:1 4214:1 4586:1 4614:1 5088:1 5671:1 6035:1 6082:1 7546:1 7587:1 7969:1 8034:1 8154:1 8416:1 8519:1 9047:1 9570:1 9708:1 10027:1 11188:1 11656:1 13665:1 14308:1 14362:1 14457:1 19796:1 20961:1 22582:1 23211:1 24341:1 26113:1 28398:1 29941:1 36275:1 36461:1 
0.86956473529419642 2:1 3:1 4:1 5:1 7:1 8:1 9:1 14:1 17:1 18:1 19:1 23:1 25:1 36:1 37:1 47:1 52:1 54:1 89:1 114:1 118:1 148:1 157:1 165:1 211:1 231:1 236:1 255:1 259:1 277:1 384:1 481:1 492:1 495:1 497:1 501:1 510:1 522:1 610:1 642:1 654:1 658:1 819:1 840:1 970:1 976:1 1039:1 1061:1 1501:1 1705:1 2135:1 2278:1 2753:1 3015:1 3242:1 3246:1 3602:1 4614:1 5768:1 5957:1 5965:1 6023:1 6127:1 7164:1 7363:1 7482:1 7546:1 8832:1 9044:1 9047:1 10017:1 10525:1 10630:1 15063:1 15871:1 17714:1 18740:1 19761:1 19796:1 21346:1 28790:1 29529:1 30255:1 34018:1 34496:1 34903:1 
1 1:1 3:1 4:1 5:1 8:1 10:1 13:1 15:1 17:1 18:1 25:1 33:1 37:1 39:1 47:1 58:1 59:1 114:1 119:1 165:1 245:1 255:1 289:1 357:1 365:1 409:1 463:1 495:1 653:1 768:1 840:1 865:1 972:1 1100:1 1719:1 1739:1 2260:1 3108:1 3241:1 3706:1 4385:1 4453:1 5957:1 7473:1 8405:1 9043:1 9195:1 9996:1 13453:1 19757:1 21682:1 23759:1 23979:1 29542:1 34882:1 
1 1:1 2:1 3:1 4:1 5:1 6:1 7:1 8:1 9:1 11:1 12:1 13:1 14:1 15:1 16:1 17:1 18:1 19:1 21:1 23:1 27:1 31:1 33:1 34:1 35:1 36:1 38:1 40:1 41:1 42:1 43:1 47:1 50:1 59:1 70:1 76:1 77:1 81:1 93:1 114:1 119:1 123:1 135:1 148:1 153:1 157:1 161:1 165:1 192:1 221:1 231:1 246:1 249:1 259:1 268:1 271:1 273:1 274:1 277:1 278:1 308:1 323:1 324:1 328:1 340:1 361:1 380:1 381:1 409:1 423:1 460:1 463:1 464:1 468:1 472:1 481:1 492:1 495:1 501:1 510:1 522:1 527:1 541:1 584:1 614:1 694:1 699:1 754:1 768:1 769:1 772:1 783:1 790:1 806:1 827:1 859:1 878:1 888:1 900:1 912:1 972:1 1022:1 1111:1 1117:1 1273:1 1370:1 1384:1 1391:1 1457:1 1560:1 1705:1 1720:1 1723:1 1753:1 1772:1 1888:1 2060:1 2119:1 2197:1 2260:1 2265:1 2269:1 2278:1 2557:1 2868:1 3141:1 3174:1 3413:1 3426:1 3463:1 3508:1 3541:1 3586:1 3589:1 3629:1 3865:1 3995:1 4039:1 4200:1 4427:1 4429:1 4583:1 4602:1 5085:1 5483:1 5496:1 5562:1 5569:1 5624:1 5642:1 5768:1 5957:1 6031:1 6122:1 6285:1 6300:1 6469:1 6959:1 7207:1 7771:1 7821:1 8310:1 8416:1 8421:1 8482:1 8553:1 8599:1 8725:1 8904:1 9172:1 9296:1 9374:1 9494:1 9581:1 9996:1 10384:1 10877:1 10955:1 11648:1 12197:1 12478:1 12908:1 13481:1 13513:1 13665:1 14111:1 14634:1 14644:1 15372:1 15726:1 15768:1 15871:1 16916:1 18194:1 19278:1 19391:1 20582:1 21108:1 21275:1 21481:1 22092:1 22464:1 22599:1 23183:1 23882:1 23892:1 24325:1 24419:1 26099:1 27497:1 27530:1 27865:1 27929:1 28302:1 28790:1 29529:1 29543:1 29546:1 29902:1 30901:1 31585:1 34137:1 35775:1 35898:1 
1 1:1 3:1 4:1 5:1 7:1 8:1 12:1 13:1 14:1 15:1 17:1 18:1 19:1 21:1 22:1 23:1 25:1 34:1 37:1 44:1 47:1 48:1 50:1 51:1 52:1 72:1 114:1 118:1 123:1 148:1 151:1 152:1 153:1 160:1 165:1 208:1 215:1 231:1 232:1 236:1 255:1 323:1 328:1 331:1 336:1 352:1 380:1 384:1 409:1 416:1 422:1 423:1 424:1 463:1 470:1 507:1 530:1 580:1 594:1 620:1 652:1 781:1 833:1 934:1 979:1 995:1 1020:1 1029:1 1047:1 1303:1 1705:1 1789:1 2021:1 2028:1 2046:1 2165:1 2173:1 2260:1 2267:1 2692:1 2796:1 2981:1 3018:1 3240:1 4039:1 4088:1 4152:1 4614:1 4994:1 5064:1 5088:1 5111:1 5603:1 6093:1 6335:1 6934:1 7005:1 7011:1 7240:1 7242:1 7459:1 8541:1 8969:1 9708:1 10049:1 10146:1 10364:1 10419:1 10425:1 10559:1 10561:1 13802:1 14457:1 14494:1 14564:1 15223:1 15750:1 17853:1 18577:1 18750:1 19751:1 22591:1 22792:1 25797:1 26113:1 28088:1 30134:1 31044:1 33199:1 33439:1 33479:1 34214:1 34222:1 34815:1 
0.50679471106880825 1:1 3:1 4:1 5:1 6:1 8:1 9:1 14:1 15:1 16:1 17:1 18:1 20:1 25:1 27:1 33:1 37:1 38:1 44:1 49:1 54:1 55:1 58:1 59:1 114:1 118:1 119:1 148:1 189:1 231:1 240:1 264:1 277:1 384:1 385:1 429:1 440:1 450:1 463:1 495:1 551:1 557:1 564:1 656:1 691:1 768:1 836:1 859:1 940:1 1007:1 1012:1 1071:1 1084:1 1100:1 1705:1 1740:1 2531:1 3054:1 3336:1 3589:1 4614:1 4641:1 5210:1 5289:1 5388:1 5957:1 6650:1 6745:1 7506:1 7739:1 8406:1 8994:1 9172:1 9741:1 10246:1 10281:1 10678:1 10738:1 13617:1 16851:1 18880:1 21275:1 27254:1 29529:1 32204:1 32503:1 35701:1 
0.057638354969347549 1:1 3:1 4:1 5:1 8:1 9:1 10:1 12:1 13:1 14:1 15:1 16:1 17:1 18:1 20:1 21:1 23:1 25:1 27:1 32:1 33:1 37:1 38:1 39:1 47:1 50:1 58:1 59:1 72:1 74:1 114:1 118:1 123:1 148:1 165:1 255:1 257:1 259:1 271:1 289:1 324:1 346:1 352:1 384:1 385:1 398:1 422:1 437:1 463:1 501:1 512:1 562:1 582:1 584:1 610:1 654:1 689:1 765:1 769:1 840:1 843:1 865:1 976:1 1021:1 1022:1 1113:1 1319:1 1331:1 1731:1 1789:1 2260:1 3242:1 3264:1 3464:1 3713:1 3981:1 4273:1 4614:1 4641:1 4826:1 5064:1 5269:1 6023:1 6176:1 6717:1 6949:1 6966:1 7164:1 7482:1 7723:1 8402:1 8437:1 9044:1 9201:1 10017:1 10376:1 10390:1 10904:1 11910:1 11953:1 13591:1 13802:1 19761:1 19860:1 20769:1 21692:1 23364:1 25258:1 26867:1 30429:1 32411:1 33250:1 33288:1 34006:1 34903:1 35655:1 
1 1:1 3:1 4:1 5:1 7:1 8:1 9:1 11:1 12:1 15:1 17:1 18:1 19:1 25:1 30:1 34:1 36:1 37:1 47:1 59:1 67:1 70:1 77:1 114:1 119:1 151:1 221:1 231:1 249:1 255:1 259:1 270:1 315:1 327:1 341:1 421:1 464:1 492:1 495:1 507:1 522:1 531:1 539:1 541:1 658:1 741:1 781:1 827:1 840:1 979:1 1117:1 1227:1 1274:1 1391:1 1705:1 1723:1 1740:1 2021:1 2862:1 3186:1 3246:1 3459:1 3918:1 4018:1 4205:1 5045:1 5504:1 5957:1 6090:1 6342:1 6430:1 6473:1 7553:1 8154:1 8541:1 8902:1 9047:1 10046:1 10955:1 11422:1 11651:1 13525:1 13625:1 14457:1 18155:1 19482:1 19800:1 20754:1 22535:1 25937:1 27573:1 29546:1 30115:1 31397:1 31607:1 35241:1 
1 1:1 2:1 3:1 4:1 5:1 7:1 8:1 9:1 13:1 14:1 15:1 16:1 17:1 18:1 19:1 28:1 30:1 32:1 33:1 34:1 37:1 42:1 43:1 44:1 47:1 58:1 59:1 60:1 61:1 89:1 114:1 118:1 119:1 123:1 148:1 153:1 155:1 161:1 162:1 165:1 167:1 203:1 231:1 236:1 246:1 247:1 259:1 264:1 276:1 352:1 357:1 361:1 381:1 384:1 435:1 440:1 463:1 472:1 495:1 501:1 527:1 701:1 732:1 765:1 768:1 769:1 790:1 834:1 898:1 900:1 912:1 942:1 972:1 976:1 1100:1 1127:1 1146:1 1517:1 1705:1 1720:1 1721:1 1740:1 1772:1 2062:1 2086:1 2191:1 2214:1 2260:1 2319:1 3019:1 3020:1 3133:1 3146:1 3343:1 3561:1 4385:1 4432:1 4585:1 4614:1 5259:1 5293:1 5629:1 5957:1 6023:1 6300:1 8075:1 8398:1 8406:1 8421:1 8596:1 8985:1 8986:1 9483:1 9499:1 9569:1 9752:1 9996:1 10017:1 11020:1 11117:1 12715:1 13473:1 13485:1 13617:1 14660:1 15439:1 16115:1 18767:1 18781:1 19227:1 19303:1 20165:1 23759:1 23913:1 24337:1 26935:1 28192:1 29543:1 30892:1 
1 1:1 4:1 5:1 7:1 8:1 9:1 10:1 11:1 12:1 13:1 14:1 17:1 18:1 19:1 23:1 25:1 28:1 33:1 34:1 36:1 37:1 38:1 39:1 42:1 43:1 58:1 59:1 76:1 119:1 148:1 157:1 165:1 166:1 221:1 236:1 259:1 278:1 282:1 289:1 308:1 348:1 357:1 379:1 405:1 463:1 468:1 474:1 492:1 497:1 522:1 605:1 648:1 656:1 663:1 705:1 768:1 793:1 827:1 834:1 863:1 865:1 898:1 910:1 918:1 1116:1 1370:1 1740:1 2119:1 2136:1 2260:1 2271:1 2289:1 2864:1 3015:1 3023:1 3611:1 3666:1 3705:1 3870:1 4299:1 4385:1 4573:1 4901:1 4911:1 5553:1 5658:1 5973:1 7413:1 7506:1 7511:1 7599:1 7865:1 8406:1 8623:1 8633:1 8903:1 8982:1 9189:1 9194:1 9483:1 9558:1 9640:1 9648:1 10942:1 13624:1 15065:1 15793:1 18165:1 18730:1 18799:1 22123:1 23455:1 23759:1 24293:1 25524:1 25567:1 28357:1 29634:1 34644:1 35041:1 35377:1 35382:1 35998:1 
0.036621118373034778 1:1 3:1 4:1 5:1 7:1 8:1 9:1 12:1 13:1 14:1 15:1 17:1 18:1 19:1 22:1 23:1 25:1 28:1 32:1 33:1 34:1 36:1 38:1 41:1 51:1 52:1 72:1 114:1 118:1 127:1 133:1 155:1 161:1 167:1 203:1 221:1 231:1 247:1 259:1 264:1 268:1 277:1 324:1 352:1 384:1 412:1 468:1 472:1 495:1 501:1 522:1 601:1 605:1 631:1 656:1 716:1 765:1 767:1 771:1 790:1 827:1 859:1 887:1 1034:1 1037:1 1056:1 1306:1 1705:1 1721:1 1815:1 1864:1 2086:1 2191:1 2315:1 2868:1 3146:1 3343:1 3413:1 3589:1 3992:1 4623:1 4958:1 5571:1 5624:1 5629:1 5957:1 6031:1 7089:1 7341:1 7511:1 7967:1 8398:1 8463:1 8596:1 8904:1 9172:1 9365:1 10487:1 10624:1 11803:1 13485:1 14030:1 18194:1 19303:1 20165:1 21275:1 22441:1 24490:1 25685:1 27953:1 28192:1 29529:1 29902:1 33787:1 34467:1 35052:1 36263:1 
1 1:1 3:1 4:1 7:1 8:1 9:1 10:1 12:1 17:1 18:1 19:1 25:1 32:1 33:1 36:1 37:1 38:1 39:1 47:1 54:1 58:1 59:1 76:1 114:1 119:1 210:1 221:1 227:1 231:1 247:1 249:1 255:1 259:1 262:1 268:1 277:1 289:1 332:1 472:1 492:1 495:1 501:1 522:1 534:1 640:1 658:1 765:1 768:1 818:1 827:1 840:1 859:1 865:1 970:1 1059:1 1100:1 1370:1 1705:1 1721:1 1723:1 1753:1 2748:1 2868:1 2933:1 3146:1 3181:1 3246:1 3317:1 3413:1 3589:1 3705:1 3706:1 4094:1 5641:1 5957:1 6031:1 6381:1 7546:1 8398:1 8416:1 8827:1 8904:1 9047:1 9172:1 9194:1 9195:1 13485:1 13520:1 13665:1 17693:1 18194:1 19308:1 19453:1 19796:1 20056:1 21275:1 21682:1 22810:1 28283:1 29529:1 29546:1 29902:1 31239:1 
0.30554968050257214 1:1 2:1 3:1 4:1 5:1 7:1 8:1 9:1 12:1 14:1 15:1 17:1 18:1 19:1 20:1 21:1 22:1 23:1 25:1 30:1 33:1 34:1 36:1 38:1 47:1 48:1 50:1 51:1 59:1 61:1 67:1 72:1 76:1 84:1 89:1 114:1 119:1 123:1 127:1 135:1 148:1 150:1 153:1 157:1 162:1 165:1 166:1 167:1 171:1 208:1 221:1 231:1 240:1 249:1 259:1 261:1 262:1 264:1 266:1 268:1 271:1 273:1 277:1 323:1 345:1 380:1 384:1 387:1 403:1 421:1 463:1 468:1 472:1 488:1 492:1 493:1 495:1 497:1 523:1 527:1 539:1 542:1 564:1 582:1 593:1 595:1 597:1 614:1 627:1 654:1 731:1 768:1 772:1 779:1 791:1 794:1 827:1 856:1 971:1 972:1 974:1 993:1 1021:1 1030:1 1031:1 1116:1 1146:1 1228:1 1324:1 1373:1 1519:1 1705:1 1714:1 1723:1 1753:1 1774:1 1815:1 1887:1 2009:1 2044:1 2060:1 2119:1 2211:1 2214:1 2260:1 2265:1 2289:1 2292:1 2330:1 2389:1 2706:1 2862:1 2864:1 3052:1 3174:1 3186:1 3189:1 3300:1 3317:1 3351:1 3396:1 3415:1 3430:1 3463:1 3484:1 3508:1 3586:1 4265:1 4619:1 4623:1 4679:1 4883:1 5042:1 5562:1 5575:1 5633:1 5881:1 5929:1 5957:1 5969:1 6260:1 6285:1 6432:1 6437:1 6499:1 6745:1 6945:1 6997:1 7028:1 7031:1 7054:1 7200:1 7291:1 7485:1 8066:1 8416:1 8481:1 8605:1 8646:1 8648:1 8903:1 9144:1 9982:1 9996:1 10002:1 10124:1 10372:1 10443:1 10459:1 10945:1 11117:1 11434:1 11936:1 12156:1 12759:1 13402:1 13513:1 13525:1 13528:1 13666:1 13705:1 14093:1 14403:1 14630:1 15444:1 15732:1 15986:1 16152:1 16378:1 17409:1 18155:1 18162:1 18873:1 19391:1 19488:1 19516:1 20068:1 20215:1 20432:1 20489:1 20627:1 20871:1 23348:1 24465:1 24490:1 24753:1 25468:1 27865:1 27976:1 28224:1 29222:1 29415:1 29529:1 29537:1 29546:1 29586:1 29596:1 30681:1 31426:1 31467:1 31685:1 32506:1 33242:1 33410:1 33559:1 33567:1 33646:1 34105:1 34329:1 34924:1 
1 1:1 2:1 3:1 4:1 5:1 6:1 7:1 8:1 9:1 11:1 12:1 14:1 15:1 16:1 17:1 18:1 19:1 23:1 27:1 31:1 32:1 33:1 34:1 35:1 36:1 37:1 45:1 47:1 72:1 89:1 114:1 118:1 133:1 148:1 160:1 162:1 166:1 171:1 192:1 212:1 221:1 231:1 245:1 257:1 259:1 262:1 264:1 268:1 313:1 324:1 330:1 380:1 384:1 391:1 409:1 412:1 421:1 424:1 452:1 464:1 472:1 495:1 497:1 501:1 507:1 522:1 624:1 689:1 753:1 765:1 771:1 791:1 794:1 806:1 827:1 838:1 952:1 979:1 1306:1 1313:1 1512:1 1705:1 1731:1 1864:1 2172:1 2211:1 2292:1 2387:1 2556:1 2765:1 2868:1 3118:1 3264:1 3317:1 3336:1 3413:1 3416:1 3899:1 3992:1 4075:1 4614:1 4745:1 4958:1 5043:1 5111:1 5411:1 5508:1 5633:1 5957:1 5986:1 6031:1 6093:1 7264:1 7722:1 8285:1 8402:1 8463:1 8605:1 8648:1 8724:1 8904:1 9016:1 9838:1 10049:1 11794:1 11875:1 12683:1 13591:1 14030:1 15216:1 15986:1 16371:1 16910:1 17762:1 18194:1 19142:1 19859:1 20056:1 20503:1 22206:1 22441:1 22768:1 25015:1 25685:1 25932:1 27363:1 27609:1 28225:1 29529:1 29737:1 29902:1 30134:1 35651:1 
0.76286977199691719 1:1 3:1 4:1 5:1 7:1 8:1 9:1 10:1 11:1 12:1 13:1 14:1 17:1 18:1 19:1 25:1 28:1 30:1 33:1 36:1 38:1 39:1 40:1 43:1 54:1 58:1 61:1 70:1 71:1 72:1 114:1 118:1 119:1 123:1 146:1 148:1 165:1 221:1 231:1 242:1 259:1 268:1 273:1 277:1 289:1 313:1 324:1 341:1 353:1 380:1 381:1 384:1 463:1 468:1 472:1 492:1 495:1 497:1 501:1 540:1 649:1 718:1 743:1 768:1 769:1 778:1 827:1 856:1 859:1 865:1 881:1 912:1 1066:1 1146:1 1274:1 1285:1 1306:1 1705:1 1716:1 1750:1 1789:1 1990:1 2260:1 2265:1 2868:1 3080:1 3413:1 3430:1 3508:1 3589:1 3591:1 3705:1 3899:1 3992:1 4205:1 4344:1 4585:1 4614:1 4619:1 5553:1 5633:1 5957:1 5965:1 6031:1 6444:1 7417:1 7999:1 8178:1 8413:1 8437:1 8536:1 8904:1 9144:1 9172:1 9194:1 9320:1 9569:1 10641:1 11117:1 11651:1 11709:1 11794:1 11799:1 13429:1 13648:1 13802:1 13807:1 14359:1 15715:1 18194:1 18997:1 20631:1 21275:1 21277:1 22206:1 22441:1 23582:1 24337:1 24475:1 28238:1 29529:1 29539:1 29902:1 31496:1 36362:1 
1 1:1 3:1 4:1 8:1 9:1 14:1 17:1 18:1 19:1 20:1 25:1 37:1 43:1 47:1 49:1 61:1 114:1 118:1 255:1 273:1 381:1 384:1 463:1 501:1 522:1 564:1 656:1 658:1 840:1 912:1 976:1 1012:1 1146:1 1729:1 3244:1 3246:1 3511:1 4585:1 4614:1 6035:1 6745:1 7506:1 7546:1 9047:1 9569:1 10027:1 10281:1 11137:1 13577:1 19773:1 19796:1 20961:1 24337:1 29941:1 32503:1 
