svm_type c_svc
kernel_type linear
nr_class 2
total_sv 2852
rho -1.6576098875486243
label 0 1
probA -1.1904621340471171
probB -0.56108063478019532
nr_sv 1736 1116
SV
0.010122871146187295 11:1 12:1 13:1 14:1 15:1 16:1 17:1 19:1 20:1 22:1 23:1 26:1 27:1 28:1 29:1 33:1 64:1 67:1 68:1 74:1 79:1 81:1 248:1 250:1 268:1 303:1 327:1 338:1 391:1 403:1 413:1 446:1 452:1 463:1 512:1 533:1 541:1 597:1 635:1 707:1 737:1 758:1 768:1 804:1 905:1 1153:1 1252:1 1264:1 1372:1 1455:1 1499:1 3044:1 3118:1 4081:1 4859:1 5121:1 5610:1 5612:1 5771:1 5992:1 6513:1 6814:1 6926:1 7649:1 8205:1 9120:1 9577:1 9583:1 9981:1 10506:1 14063:1 14188:1 15090:1 15729:1 15733:1 16082:1 23220:1 31275:1 32381:1 34758:1 34802:1 35712:1 36958:1 40059:1 43563:1 45860:1 50358:1 52731:1 52800:1 
0.019521614934104779 9:1 10:1 11:1 12:1 13:1 14:1 15:1 17:1 19:1 21:1 22:1 23:1 24:1 26:1 27:1 28:1 29:1 30:1 50:1 61:1 63:1 66:1 67:1 69:1 73:1 75:1 76:1 81:1 177:1 193:1 196:1 216:1 253:1 268:1 303:1 325:1 368:1 383:1 448:1 456:1 458:1 461:1 462:1 463:1 509:1 565:1 572:1 585:1 592:1 625:1 636:1 637:1 645:1 662:1 673:1 676:1 688:1 697:1 703:1 707:1 710:1 737:1 747:1 758:1 764:1 768:1 795:1 812:1 817:1 818:1 838:1 1060:1 1087:1 1106:1 1142:1 1232:1 1244:1 1291:1 1354:1 1388:1 1410:1 1506:1 2117:1 2447:1 2514:1 2683:1 2703:1 3140:1 4018:1 4027:1 4033:1 4592:1 4772:1 5664:1 5847:1 5899:1 5928:1 5965:1 5982:1 5988:1 6495:1 7211:1 7213:1 7304:1 7307:1 7532:1 8026:1 8237:1 8247:1 8422:1 8541:1 8672:1 8736:1 8893:1 9037:1 9130:1 9155:1 9579:1 9588:1 9724:1 9942:1 10000:1 10657:1 10753:1 10768:1 10932:1 12529:1 12666:1 12901:1 13196:1 13912:1 14004:1 14404:1 14951:1 14953:1 15180:1 15344:1 16143:1 18139:1 20200:1 21486:1 23290:1 27587:1 27705:1 30056:1 30885:1 35102:1 36155:1 36472:1 36802:1 36942:1 38659:1 41703:1 41723:1 42090:1 42099:1 45090:1 46049:1 47195:1 47531:1 48110:1 48298:1 49938:1 50480:1 50583:1 52753:1 52860:1 53495:1 54455:1 54769:1 57887:1 58519:1 58610:1 59154:1 
0.041212345916881533 6:1 9:1 10:1 11:1 12:1 13:1 14:1 15:1 16:1 17:1 19:1 21:1 22:1 23:1 26:1 27:1 28:1 29:1 31:1 34:1 39:1 49:1 62:1 63:1 64:1 65:1 67:1 68:1 69:1 73:1 79:1 81:1 83:1 161:1 181:1 189:1 194:1 228:1 248:1 268:1 273:1 303:1 310:1 325:1 326:1 327:1 359:1 375:1 383:1 391:1 399:1 403:1 413:1 426:1 429:1 438:1 452:1 457:1 461:1 462:1 463:1 486:1 565:1 577:1 592:1 595:1 599:1 608:1 613:1 641:1 642:1 688:1 693:1 701:1 707:1 712:1 718:1 725:1 731:1 737:1 741:1 747:1 758:1 762:1 768:1 786:1 795:1 803:1 812:1 866:1 872:1 881:1 934:1 970:1 1038:1 1124:1 1138:1 1156:1 1204:1 1236:1 1244:1 1252:1 1264:1 1278:1 1296:1 1297:1 1354:1 1455:1 1506:1 1533:1 1545:1 2211:1 2383:1 2391:1 2396:1 2458:1 2836:1 3044:1 3053:1 3066:1 3069:1 3266:1 3714:1 4018:1 4051:1 4081:1 4084:1 4089:1 4475:1 4635:1 4772:1 4859:1 4972:1 5099:1 5121:1 5321:1 5406:1 5750:1 5867:1 5951:1 5959:1 5982:1 7211:1 7368:1 7532:1 7634:1 7675:1 7847:1 7896:1 8334:1 8359:1 8814:1 8822:1 8998:1 9127:1 9208:1 9316:1 9474:1 9572:1 9639:1 9728:1 9918:1 10000:1 10002:1 10283:1 10488:1 10501:1 10657:1 11091:1 11136:1 11214:1 12339:1 13064:1 13168:1 13170:1 13284:1 13708:1 13929:1 14004:1 14063:1 14188:1 14448:1 14452:1 14951:1 15726:1 16143:1 16350:1 16424:1 18622:1 19753:1 19844:1 19863:1 22086:1 22743:1 22897:1 22965:1 23751:1 25603:1 28167:1 28202:1 30188:1 30189:1 30883:1 31279:1 32381:1 33380:1 33383:1 33878:1 36295:1 36724:1 36757:1 41709:1 42238:1 43502:1 44531:1 46684:1 46850:1 48511:1 48612:1 49748:1 50441:1 50851:1 52153:1 53086:1 53519:1 54769:1 54814:1 56229:1 57031:1 57145:1 57887:1 59692:1 59851:1 60064:1 
0.063524425327279144 9:1 11:1 12:1 13:1 14:1 16:1 17:1 18:1 20:1 21:1 22:1 23:1 24:1 26:1 27:1 28:1 29:1 30:1 33:1 34:1 61:1 64:1 65:1 66:1 69:1 75:1 76:1 81:1 82:1 86:1 188:1 195:1 248:1 277:1 303:1 313:1 320:1 352:1 403:1 462:1 475:1 542:1 552:1 570:1 593:1 636:1 641:1 666:1 673:1 712:1 716:1 725:1 731:1 747:1 758:1 803:1 817:1 843:1 923:1 957:1 1098:1 1160:1 1198:1 1221:1 1297:1 1401:1 1419:1 1509:1 1521:1 1580:1 2346:1 2485:1 3044:1 3305:1 3782:1 3940:1 4390:1 5959:1 6144:1 6971:1 7264:1 7564:1 8221:1 8334:1 8609:1 8676:1 9201:1 9287:1 9474:1 9713:1 10491:1 10739:1 10753:1 10954:1 11421:1 11754:1 12802:1 13310:1 13651:1 13831:1 14452:1 15284:1 15423:1 16186:1 16272:1 16627:1 25928:1 27049:1 29432:1 36757:1 37502:1 40735:1 41900:1 46679:1 47819:1 48118:1 51292:1 52153:1 57048:1 58404:1 58511:1 59235:1 60410:1 61467:1 
0.21276827217437069 9:1 11:1 12:1 13:1 15:1 16:1 17:1 18:1 19:1 20:1 22:1 23:1 24:1 26:1 27:1 28:1 29:1 34:1 64:1 67:1 68:1 76:1 79:1 81:1 86:1 194:1 248:1 268:1 273:1 284:1 311:1 318:1 319:1 321:1 325:1 327:1 392:1 403:1 413:1 417:1 438:1 446:1 448:1 476:1 508:1 517:1 530:1 592:1 608:1 633:1 673:1 707:1 711:1 725:1 731:1 733:1 737:1 758:1 768:1 789:1 812:1 946:1 956:1 1156:1 1253:1 1264:1 1419:1 1455:1 1506:1 1569:1 2458:1 3044:1 3057:1 3266:1 3412:1 3734:1 3888:1 3894:1 3960:1 4041:1 4107:1 4872:1 5116:1 5168:1 5174:1 5610:1 5651:1 5658:1 6161:1 6454:1 6751:1 7532:1 7832:1 8175:1 8672:1 9118:1 9177:1 9474:1 9517:1 9577:1 10000:1 10320:1 10671:1 11622:1 11729:1 13284:1 14072:1 14185:1 15421:1 15729:1 16157:1 16548:1 22801:1 22806:1 23751:1 24464:1 25721:1 26638:1 27145:1 27814:1 28352:1 31367:1 32322:1 32581:1 34758:1 34770:1 34974:1 35037:1 37528:1 39649:1 44423:1 45709:1 48102:1 50344:1 50683:1 52165:1 52474:1 52731:1 54789:1 56368:1 58029:1 61043:1 
0.013222187158067238 9:1 10:1 11:1 12:1 13:1 14:1 15:1 16:1 17:1 20:1 21:1 22:1 23:1 26:1 27:1 28:1 29:1 30:1 31:1 39:1 49:1 50:1 61:1 62:1 63:1 65:1 66:1 73:1 79:1 82:1 90:1 187:1 189:1 193:1 195:1 196:1 216:1 248:1 268:1 277:1 303:1 311:1 325:1 330:1 357:1 359:1 369:1 403:1 420:1 428:1 436:1 438:1 450:1 462:1 540:1 547:1 557:1 561:1 593:1 602:1 627:1 629:1 636:1 688:1 693:1 697:1 701:1 712:1 725:1 731:1 743:1 768:1 772:1 778:1 786:1 803:1 818:1 843:1 858:1 862:1 976:1 1032:1 1048:1 1097:1 1106:1 1116:1 1138:1 1185:1 1226:1 1350:1 1449:1 1461:1 1521:1 1616:1 2336:1 2386:1 2434:1 2496:1 2520:1 2533:1 2703:1 2708:1 3044:1 3060:1 3068:1 3076:1 3305:1 3722:1 4018:1 4031:1 4042:1 4148:1 4442:1 4497:1 5232:1 5378:1 5509:1 5694:1 5959:1 6901:1 7022:1 7101:1 7105:1 7147:1 7564:1 7724:1 8058:1 8106:1 8224:1 8829:1 8893:1 8982:1 9212:1 9474:1 9661:1 10000:1 10067:1 10079:1 10153:1 10279:1 10483:1 10777:1 10946:1 11038:1 11070:1 11882:1 12261:1 12386:1 12797:1 12915:1 12997:1 13173:1 13857:1 14906:1 15670:1 15781:1 16264:1 16773:1 19397:1 19782:1 20065:1 20536:1 20725:1 20850:1 21486:1 21564:1 22838:1 22937:1 23037:1 27658:1 27849:1 28552:1 29590:1 29804:1 32892:1 33693:1 34306:1 36757:1 40887:1 41203:1 41258:1 41393:1 43911:1 45215:1 45415:1 45956:1 48681:1 50876:1 52153:1 52167:1 53157:1 54781:1 55099:1 55202:1 55480:1 56205:1 58651:1 59194:1 59446:1 59608:1 61852:1 63150:1 63521:1 
1 9:1 10:1 11:1 13:1 16:1 17:1 19:1 20:1 21:1 22:1 26:1 27:1 28:1 29:1 31:1 49:1 61:1 62:1 73:1 79:1 188:1 193:1 216:1 248:1 303:1 312:1 330:1 403:1 422:1 463:1 508:1 532:1 552:1 565:1 593:1 695:1 731:1 748:1 758:1 764:1 783:1 786:1 801:1 876:1 881:1 1031:1 1098:1 1116:1 1354:1 1449:1 1466:1 2346:1 2432:1 2708:1 3044:1 3062:1 3748:1 4158:1 5256:1 5982:1 6006:1 6454:1 6787:1 7213:1 7570:1 8858:1 9474:1 9746:1 9942:1 10246:1 10284:1 10454:1 11161:1 11208:1 12251:1 12802:1 12997:1 14953:1 15670:1 15835:1 20046:1 21569:1 22852:1 28591:1 33036:1 37095:1 39907:1 41723:1 41738:1 43079:1 48854:1 52169:1 53636:1 54445:1 56035:1 56230:1 56899:1 59895:1 60041:1 63124:1 
0.00022630564550258592 9:1 10:1 11:1 12:1 13:1 14:1 15:1 16:1 17:1 20:1 21:1 22:1 23:1 24:1 26:1 27:1 28:1 29:1 30:1 39:1 49:1 61:1 62:1 64:1 65:1 66:1 69:1 75:1 80:1 82:1 171:1 178:1 187:1 189:1 193:1 194:1 195:1 216:1 220:1 241:1 248:1 273:1 281:1 301:1 309:1 316:1 319:1 325:1 342:1 375:1 379:1 392:1 403:1 415:1 444:1 446:1 448:1 450:1 456:1 457:1 462:1 517:1 540:1 552:1 592:1 597:1 607:1 641:1 665:1 699:1 701:1 706:1 712:1 725:1 731:1 737:1 744:1 748:1 758:1 784:1 791:1 795:1 816:1 848:1 987:1 1037:1 1097:1 1116:1 1156:1 1183:1 1195:1 1214:1 1291:1 1292:1 1297:1 1401:1 1486:1 1523:1 2140:1 2144:1 2336:1 2381:1 2449:1 2477:1 2485:1 2703:1 2750:1 2995:1 3044:1 3055:1 3247:1 3372:1 3377:1 3632:1 3695:1 3854:1 3894:1 4031:1 4242:1 4635:1 4638:1 4674:1 4866:1 5145:1 5563:1 5577:1 5579:1 5610:1 5658:1 5699:1 5715:1 5832:1 5864:1 5959:1 5965:1 6901:1 7545:1 7664:1 7811:1 8322:1 8593:1 8943:1 8987:1 9098:1 9201:1 9474:1 9575:1 9688:1 9770:1 10267:1 10342:1 10720:1 10984:1 12016:1 12329:1 12797:1 12992:1 13266:1 13548:1 13622:1 13775:1 14397:1 14412:1 14452:1 15280:1 16023:1 16287:1 18300:1 18324:1 19397:1 19746:1 20222:1 20425:1 21498:1 21690:1 22782:1 24250:1 24291:1 25263:1 25496:1 26397:1 27663:1 28786:1 30184:1 30218:1 30328:1 32466:1 34484:1 34594:1 34609:1 34758:1 35037:1 35289:1 35389:1 36230:1 36757:1 36799:1 42911:1 42915:1 43670:1 44309:1 46567:1 47733:1 49380:1 49627:1 50219:1 52153:1 52717:1 53282:1 53822:1 56142:1 56449:1 58276:1 62322:1 
0.0023465850701573422 9:1 10:1 11:1 12:1 13:1 14:1 15:1 16:1 17:1 19:1 20:1 21:1 22:1 23:1 24:1 26:1 27:1 28:1 29:1 30:1 39:1 65:1 66:1 67:1 68:1 69:1 75:1 78:1 81:1 82:1 171:1 195:1 196:1 231:1 248:1 268:1 291:1 316:1 319:1 321:1 323:1 325:1 327:1 360:1 387:1 403:1 409:1 413:1 420:1 438:1 446:1 457:1 458:1 462:1 465:1 508:1 517:1 530:1 533:1 560:1 561:1 589:1 592:1 599:1 608:1 625:1 637:1 673:1 675:1 688:1 697:1 718:1 731:1 733:1 747:1 748:1 755:1 758:1 764:1 768:1 772:1 782:1 811:1 812:1 814:1 816:1 838:1 848:1 976:1 992:1 1203:1 1228:1 1248:1 1262:1 1264:1 1297:1 1388:1 1431:1 1506:1 1523:1 2496:1 2529:1 2894:1 3044:1 3060:1 3510:1 3861:1 3909:1 3975:1 4010:1 4018:1 4081:1 4516:1 4810:1 5065:1 5121:1 5218:1 5610:1 5864:1 5899:1 5959:1 6047:1 6462:1 6751:1 6792:1 7139:1 7151:1 7482:1 7532:1 7693:1 7828:1 8036:1 8251:1 8677:1 8715:1 8910:1 9333:1 9474:1 9511:1 9734:1 9750:1 9853:1 9944:1 9994:1 10075:1 10082:1 10222:1 10632:1 10657:1 10663:1 10703:1 10707:1 10918:1 10992:1 11882:1 12071:1 13684:1 13878:1 14027:1 14165:1 14188:1 14452:1 15187:1 15506:1 16143:1 16292:1 20539:1 20818:1 22296:1 22834:1 24895:1 26492:1 26797:1 27324:1 27480:1 29850:1 31048:1 32085:1 32381:1 32821:1 34758:1 36221:1 36474:1 36757:1 37244:1 38549:1 39649:1 41376:1 41434:1 43804:1 44403:1 45133:1 46087:1 48129:1 48237:1 49189:1 51490:1 52153:1 52409:1 53560:1 53663:1 54123:1 54476:1 54711:1 55182:1 55231:1 55903:1 57737:1 57887:1 57979:1 58149:1 59345:1 61847:1 62622:1 
0.021348008462209325 9:1 10:1 11:1 12:1 13:1 14:1 15:1 16:1 17:1 19:1 20:1 21:1 22:1 23:1 24:1 26:1 27:1 28:1 29:1 30:1 31:1 49:1 50:1 61:1 62:1 63:1 65:1 66:1 69:1 71:1 72:1 75:1 76:1 79:1 80:1 81:1 83:1 187:1 189:1 193:1 223:1 238:1 248:1 268:1 277:1 281:1 293:1 303:1 311:1 315:1 319:1 320:1 321:1 325:1 327:1 350:1 379:1 403:1 422:1 426:1 429:1 438:1 446:1 447:1 448:1 450:1 451:1 457:1 462:1 465:1 516:1 526:1 530:1 533:1 540:1 549:1 552:1 561:1 569:1 585:1 592:1 593:1 607:1 608:1 620:1 625:1 632:1 641:1 658:1 671:1 673:1 688:1 693:1 697:1 701:1 707:1 712:1 725:1 733:1 737:1 744:1 758:1 768:1 777:1 779:1 781:1 803:1 811:1 812:1 828:1 838:1 872:1 1036:1 1057:1 1062:1 1097:1 1131:1 1138:1 1199:1 1220:1 1278:1 1287:1 1292:1 1334:1 1346:1 1395:1 1408:1 1451:1 1455:1 1483:1 1505:1 1506:1 1538:1 2336:1 2390:1 2449:1 2790:1 2990:1 3044:1 3069:1 3311:1 3390:1 3550:1 3722:1 3835:1 3909:1 3925:1 3954:1 3974:1 4018:1 4027:1 4081:1 4367:1 4670:1 5256:1 5318:1 5329:1 5415:1 5610:1 5637:1 5643:1 5702:1 5738:1 5741:1 5864:1 5880:1 5954:1 6041:1 6047:1 6565:1 6684:1 6744:1 6804:1 6901:1 7048:1 7159:1 7242:1 7532:1 7541:1 7545:1 7564:1 7582:1 7804:1 7811:1 7832:1 8029:1 8170:1 8334:1 8508:1 8644:1 8672:1 8822:1 8914:1 8982:1 9110:1 9217:1 9219:1 9505:1 9577:1 9579:1 9581:1 9594:1 9691:1 9996:1 10002:1 10132:1 10174:1 10179:1 10495:1 10626:1 10657:1 10922:1 11122:1 12323:1 12504:1 12581:1 12797:1 13131:1 13170:1 13659:1 13818:1 14357:1 14360:1 14412:1 14426:1 14741:1 14877:1 15219:1 15324:1 15688:1 15729:1 15731:1 15999:1 16118:1 16143:1 16364:1 19397:1 19826:1 20232:1 21858:1 22550:1 22972:1 23923:1 24389:1 25001:1 26260:1 26805:1 27305:1 27603:1 29317:1 33032:1 33429:1 33925:1 34758:1 34909:1 35299:1 35521:1 35533:1 36226:1 36230:1 36396:1 37246:1 38788:1 39327:1 39994:1 40980:1 41493:1 41840:1 42870:1 42926:1 43174:1 44279:1 44311:1 44422:1 45110:1 45683:1 46693:1 47411:1 47952:1 48097:1 48616:1 49231:1 50266:1 50904:1 50920:1 52333:1 52731:1 52743:1 52767:1 52898:1 53301:1 54751:1 54813:1 55402:1 55603:1 55624:1 57089:1 57887:1 59101:1 63343:1 63936:1 64276:1 
0.024595907222442155 9:1 11:1 12:1 13:1 16:1 17:1 21:1 26:1 31:1 39:1 61:1 64:1 69:1 78:1 83:1 88:1 193:1 248:1 268:1 277:1 281:1 303:1 311:1 325:1 413:1 438:1 446:1 456:1 561:1 569:1 688:1 696:1 701:1 705:1 862:1 991:1 1103:1 1164:1 1291:1 1433:1 1531:1 1598:1 2442:1 3053:1 3311:1 3370:1 3722:1 4018:1 4026:1 5099:1 5119:1 5610:1 5844:1 7142:1 7159:1 7242:1 8873:1 8987:1 9064:1 11070:1 12057:1 12861:1 13362:1 14402:1 15523:1 16336:1 16716:1 20157:1 22743:1 22762:1 23923:1 27573:1 32346:1 34766:1 36125:1 41488:1 41840:1 48914:1 49627:1 50056:1 50068:1 59597:1 62546:1 
0.015582329914780412 9:1 11:1 12:1 13:1 15:1 16:1 17:1 18:1 19:1 21:1 22:1 23:1 24:1 26:1 27:1 28:1 30:1 31:1 49:1 64:1 65:1 67:1 78:1 79:1 83:1 182:1 248:1 281:1 285:1 303:1 311:1 318:1 320:1 325:1 326:1 327:1 369:1 382:1 392:1 396:1 403:1 413:1 426:1 438:1 448:1 450:1 465:1 484:1 508:1 552:1 561:1 585:1 639:1 658:1 662:1 697:1 701:1 706:1 707:1 711:1 731:1 737:1 738:1 744:1 748:1 758:1 768:1 772:1 781:1 783:1 835:1 862:1 1028:1 1164:1 1198:1 1204:1 1253:1 1257:1 1431:1 1462:1 1531:1 2226:1 3044:1 3375:1 3422:1 3735:1 3888:1 3925:1 4036:1 4041:1 4056:1 4063:1 4072:1 4081:1 4100:1 4102:1 4741:1 4876:1 4943:1 5121:1 5329:1 5643:1 5665:1 5694:1 6044:1 6229:1 6462:1 7161:1 8296:1 8501:1 8535:1 8541:1 8914:1 8991:1 9081:1 9124:1 9189:1 9474:1 9572:1 9604:1 9683:1 9685:1 9750:1 10000:1 10058:1 10082:1 10187:1 10234:1 10895:1 11060:1 11071:1 12215:1 13366:1 13643:1 13710:1 14074:1 14099:1 15510:1 15802:1 16337:1 18710:1 24271:1 24279:1 24506:1 25725:1 26641:1 27737:1 27826:1 27981:1 28041:1 28108:1 28275:1 28310:1 30717:1 31394:1 31649:1 32392:1 33434:1 35127:1 37235:1 37679:1 38553:1 41525:1 46406:1 47350:1 47485:1 47538:1 49238:1 49672:1 50406:1 50748:1 52153:1 52918:1 53249:1 53264:1 53667:1 54785:1 55228:1 55688:1 55961:1 59506:1 59620:1 62998:1 
0.37929735528674779 9:1 10:1 11:1 13:1 16:1 17:1 19:1 20:1 26:1 27:1 28:1 30:1 31:1 50:1 61:1 69:1 82:1 83:1 90:1 177:1 216:1 248:1 303:1 325:1 427:1 428:1 438:1 445:1 446:1 455:1 462:1 501:1 530:1 533:1 688:1 701:1 703:1 712:1 725:1 731:1 758:1 781:1 838:1 882:1 1048:1 1060:1 1087:1 1297:1 1518:1 1546:1 1616:1 2117:1 2683:1 2703:1 3067:1 3068:1 4018:1 4042:1 5346:1 5371:1 5586:1 5610:1 5815:1 5959:1 6365:1 6744:1 6751:1 6804:1 8986:1 9029:1 9221:1 9474:1 10186:1 10927:1 11223:1 12386:1 12540:1 12666:1 14452:1 16250:1 16429:1 16773:1 18139:1 21486:1 21508:1 22908:1 22932:1 27855:1 34650:1 34779:1 35978:1 36757:1 38150:1 39649:1 39997:1 49612:1 49885:1 50924:1 52173:1 55655:1 59128:1 60096:1 63521:1 64095:1 
0.028236980756089696 9:1 10:1 11:1 13:1 15:1 16:1 17:1 20:1 21:1 22:1 23:1 26:1 27:1 28:1 30:1 31:1 34:1 61:1 67:1 69:1 73:1 79:1 82:1 86:1 177:1 194:1 216:1 230:1 248:1 309:1 319:1 325:1 326:1 327:1 383:1 391:1 392:1 396:1 426:1 428:1 446:1 448:1 457:1 463:1 517:1 557:1 607:1 620:1 642:1 688:1 701:1 707:1 725:1 731:1 733:1 743:1 747:1 758:1 782:1 789:1 838:1 866:1 934:1 944:1 1087:1 1104:1 1244:1 1253:1 1257:1 1292:1 1350:1 1449:1 1461:1 1518:1 1567:1 2117:1 2458:1 2703:1 2868:1 3066:1 3068:1 3703:1 3894:1 4018:1 4051:1 4107:1 4772:1 4859:1 4872:1 4944:1 5329:1 5371:1 5610:1 5649:1 5658:1 5879:1 6005:1 7104:1 7792:1 8359:1 8989:1 9127:1 9474:1 9516:1 9517:1 9653:1 9720:1 10195:1 10301:1 10923:1 11085:1 11598:1 12666:1 12874:1 14004:1 14072:1 14100:1 14425:1 14908:1 15670:1 15775:1 16246:1 16533:1 18139:1 21486:1 22900:1 22932:1 25549:1 28340:1 30889:1 31279:1 31367:1 31658:1 33432:1 34779:1 34957:1 35037:1 36371:1 37058:1 41234:1 46843:1 49647:1 50441:1 52172:1 52452:1 52474:1 53463:1 59105:1 59655:1 60973:1 
0.03617206601559976 9:1 10:1 11:1 12:1 13:1 14:1 16:1 17:1 19:1 20:1 21:1 22:1 23:1 24:1 26:1 27:1 28:1 29:1 30:1 31:1 34:1 49:1 50:1 65:1 66:1 68:1 69:1 73:1 76:1 79:1 82:1 86:1 90:1 189:1 194:1 196:1 216:1 232:1 248:1 277:1 303:1 316:1 321:1 325:1 327:1 342:1 355:1 357:1 413:1 428:1 429:1 436:1 451:1 455:1 457:1 458:1 494:1 526:1 530:1 533:1 552:1 565:1 568:1 569:1 585:1 592:1 593:1 599:1 608:1 620:1 637:1 641:1 642:1 671:1 693:1 700:1 705:1 711:1 712:1 731:1 748:1 749:1 758:1 764:1 768:1 772:1 778:1 800:1 811:1 812:1 818:1 835:1 843:1 862:1 959:1 1028:1 1048:1 1203:1 1214:1 1224:1 1226:1 1264:1 1292:1 1354:1 1417:1 1467:1 1521:1 1582:1 1616:1 2383:1 2477:1 2533:1 2703:1 2903:1 3069:1 3324:1 3855:1 3975:1 4030:1 4041:1 4042:1 4081:1 4254:1 4426:1 4442:1 5121:1 5378:1 5414:1 5415:1 5505:1 5744:1 5815:1 5857:1 5899:1 6286:1 6690:1 6763:1 6804:1 7207:1 7231:1 7247:1 7541:1 7564:1 7681:1 7836:1 8255:1 8328:1 8360:1 8645:1 8822:1 8980:1 9061:1 9177:1 9201:1 9474:1 9742:1 9746:1 9777:1 9945:1 9981:1 10075:1 10141:1 10444:1 10640:1 10657:1 10777:1 10905:1 10943:1 11065:1 11778:1 12216:1 12386:1 13702:1 13784:1 13851:1 13857:1 14188:1 14408:1 14948:1 15409:1 15849:1 16261:1 16645:1 16773:1 19757:1 20405:1 20850:1 21497:1 22338:1 22971:1 24055:1 26424:1 27332:1 27656:1 27814:1 27838:1 28858:1 29542:1 29586:1 32381:1 33680:1 33917:1 33925:1 34292:1 35548:1 35978:1 36475:1 39404:1 39765:1 40006:1 41682:1 41791:1 41856:1 42880:1 43736:1 44461:1 46137:1 46620:1 46865:1 47963:1 48612:1 49578:1 50683:1 52175:1 53639:1 53860:1 54498:1 55182:1 56880:1 57795:1 57892:1 58643:1 59031:1 59547:1 61566:1 63005:1 63521:1 
0.024529118380054914 9:1 11:1 12:1 13:1 14:1 15:1 16:1 17:1 20:1 21:1 22:1 23:1 24:1 26:1 27:1 28:1 29:1 30:1 31:1 39:1 49:1 61:1 64:1 67:1 69:1 81:1 82:1 83:1 171:1 187:1 196:1 248:1 268:1 273:1 281:1 290:1 301:1 321:1 325:1 338:1 379:1 391:1 393:1 394:1 403:1 409:1 417:1 421:1 451:1 452:1 455:1 461:1 462:1 463:1 525:1 540:1 547:1 552:1 592:1 595:1 600:1 618:1 641:1 662:1 688:1 699:1 712:1 718:1 723:1 725:1 731:1 747:1 748:1 758:1 768:1 804:1 805:1 812:1 817:1 843:1 866:1 977:1 987:1 1033:1 1034:1 1037:1 1097:1 1106:1 1156:1 1173:1 1183:1 1252:1 1287:1 1288:1 1296:1 1297:1 1499:1 1506:1 1521:1 1533:1 2336:1 2522:1 3044:1 3049:1 3057:1 3247:1 3387:1 3491:1 3632:1 3983:1 4018:1 4042:1 4685:1 4864:1 4895:1 4928:1 5043:1 5180:1 5235:1 5737:1 5770:1 5771:1 5808:1 5935:1 5959:1 5975:1 5992:1 6642:1 6901:1 7023:1 7532:1 7629:1 7708:1 7963:1 8314:1 8541:1 8946:1 9201:1 9330:1 9352:1 9474:1 9718:1 9742:1 10000:1 10506:1 10549:1 10657:1 10754:1 10959:1 11091:1 11888:1 12019:1 12279:1 12288:1 12329:1 12797:1 12907:1 13266:1 13464:1 13548:1 14068:1 14356:1 14379:1 14440:1 14452:1 16082:1 16143:1 16276:1 16350:1 19397:1 20763:1 22700:1 22811:1 24354:1 24799:1 25263:1 27395:1 27838:1 30451:1 31316:1 31615:1 32634:1 35516:1 35704:1 35712:1 35894:1 36629:1 36757:1 36860:1 36972:1 40891:1 43472:1 43854:1 44951:1 47539:1 49398:1 51476:1 51565:1 52153:1 52157:1 52165:1 53439:1 54769:1 57449:1 57887:1 58533:1 59254:1 59705:1 61877:1 62351:1 63199:1 63232:1 
0.015011330697159027 3:1 10:1 11:1 12:1 13:1 14:1 15:1 16:1 17:1 20:1 21:1 22:1 23:1 26:1 27:1 28:1 29:1 30:1 31:1 50:1 64:1 73:1 81:1 82:1 83:1 113:1 216:1 248:1 268:1 269:1 277:1 303:1 310:1 313:1 320:1 321:1 325:1 326:1 346:1 383:1 422:1 448:1 536:1 561:1 584:1 592:1 593:1 603:1 630:1 635:1 688:1 694:1 697:1 733:1 747:1 768:1 817:1 835:1 866:1 1051:1 1154:1 1160:1 1366:1 1509:1 1516:1 1533:1 1816:1 2704:1 3062:1 3223:1 3305:1 3321:1 3714:1 3779:1 3932:1 3960:1 3961:1 4018:1 4024:1 4027:1 4071:1 4297:1 4760:1 5266:1 5643:1 5659:1 6855:1 7159:1 7450:1 7532:1 7541:1 7564:1 7755:1 8118:1 8208:1 8837:1 8893:1 9503:1 9515:1 9720:1 9986:1 10741:1 10907:1 11087:1 12424:1 12425:1 13256:1 13324:1 15031:1 16188:1 16236:1 16347:1 17430:1 21531:1 22856:1 23579:1 24008:1 25610:1 25903:1 27003:1 27145:1 27150:1 27172:1 27549:1 27587:1 28088:1 29009:1 30796:1 33097:1 35065:1 40214:1 41488:1 42455:1 42456:1 42865:1 44072:1 45467:1 45874:1 48749:1 52300:1 52432:1 53462:1 54632:1 58414:1 59038:1 59672:1 63663:1 63671:1 
0.11047819568957486 9:1 11:1 12:1 13:1 15:1 16:1 17:1 20:1 21:1 22:1 23:1 26:1 27:1 28:1 34:1 39:1 50:1 61:1 64:1 65:1 78:1 188:1 248:1 287:1 316:1 319:1 369:1 399:1 402:1 428:1 438:1 450:1 457:1 535:1 552:1 597:1 602:1 607:1 613:1 637:1 718:1 725:1 731:1 747:1 772:1 942:1 980:1 1061:1 1098:1 1170:1 1195:1 1441:1 2346:1 3068:1 3451:1 3861:1 3911:1 4979:1 5018:1 5382:1 5694:1 5885:1 6842:1 7644:1 7735:1 7798:1 7902:1 8264:1 9323:1 9474:1 9713:1 10067:1 11561:1 11933:1 11935:1 12571:1 12802:1 13428:1 13626:1 15583:1 22941:1 24621:1 26507:1 26835:1 31757:1 31874:1 33723:1 36426:1 40164:1 43966:1 44228:1 44726:1 46218:1 51443:1 52174:1 55099:1 60832:1 62014:1 62025:1 64235:1 
0.0012536691491071051 9:1 10:1 11:1 12:1 13:1 14:1 15:1 16:1 17:1 19:1 20:1 21:1 22:1 23:1 26:1 27:1 28:1 29:1 30:1 34:1 39:1 49:1 50:1 64:1 65:1 66:1 67:1 68:1 72:1 81:1 82:1 86:1 177:1 187:1 193:1 228:1 250:1 268:1 277:1 303:1 319:1 325:1 342:1 368:1 369:1 375:1 382:1 413:1 421:1 436:1 446:1 450:1 486:1 490:1 526:1 530:1 533:1 536:1 561:1 608:1 615:1 620:1 634:1 696:1 697:1 701:1 706:1 710:1 711:1 712:1 748:1 758:1 768:1 795:1 812:1 843:1 946:1 957:1 981:1 1035:1 1060:1 1160:1 1185:1 1214:1 1232:1 1243:1 1264:1 1342:1 1506:1 1521:1 1569:1 1580:1 2128:1 2322:1 2447:1 2836:1 3093:1 3305:1 3909:1 4036:1 4041:1 4241:1 4592:1 4637:1 4751:1 5119:1 5238:1 5512:1 5612:1 5694:1 5699:1 6260:1 6668:1 6755:1 6804:1 6858:1 7142:1 7832:1 7934:1 8180:1 8866:1 8893:1 8987:1 9104:1 9155:1 9192:1 9201:1 9750:1 9994:1 10000:1 10671:1 10943:1 11624:1 11747:1 11948:1 12314:1 12534:1 13310:1 13774:1 13912:1 13985:1 14186:1 14824:1 16157:1 16261:1 16550:1 16622:1 18219:1 19263:1 20200:1 22079:1 26805:1 27759:1 27829:1 28783:1 30059:1 30204:1 30762:1 32364:1 32933:1 34337:1 34789:1 35288:1 37745:1 39685:1 40000:1 40236:1 44423:1 44863:1 45718:1 49629:1 50242:1 50583:1 50765:1 53663:1 54711:1 54785:1 58029:1 61054:1 62061:1 63321:1 64053:1 
0.023664931632409774 9:1 10:1 11:1 12:1 13:1 14:1 15:1 16:1 20:1 21:1 22:1 23:1 24:1 26:1 27:1 28:1 29:1 31:1 34:1 39:1 49:1 61:1 62:1 63:1 66:1 67:1 68:1 79:1 83:1 171:1 189:1 190:1 193:1 196:1 212:1 216:1 241:1 248:1 284:1 303:1 315:1 325:1 327:1 355:1 358:1 386:1 409:1 410:1 413:1 421:1 423:1 526:1 582:1 592:1 620:1 639:1 641:1 663:1 682:1 688:1 695:1 712:1 717:1 731:1 744:1 758:1 768:1 783:1 795:1 872:1 942:1 991:1 1037:1 1084:1 1106:1 1116:1 1134:1 1138:1 1224:1 1247:1 1264:1 1462:1 1538:1 2376:1 2402:1 2449:1 2514:1 2649:1 2694:1 3005:1 3050:1 3061:1 3063:1 3411:1 3821:1 4018:1 4081:1 4089:1 4102:1 4426:1 4456:1 4798:1 5058:1 5071:1 5121:1 5247:1 5296:1 6690:1 7428:1 7548:1 8297:1 8318:1 8565:1 8768:1 8858:1 9208:1 9297:1 9474:1 9696:1 9981:1 10000:1 10230:1 11122:1 11550:1 12066:1 12331:1 12901:1 12983:1 13140:1 13166:1 13851:1 14016:1 14188:1 15813:1 16364:1 19672:1 20225:1 21221:1 21400:1 22587:1 22723:1 22847:1 22877:1 24461:1 26164:1 28202:1 28307:1 29538:1 29672:1 30970:1 32009:1 32106:1 32381:1 32386:1 32992:1 33266:1 39404:1 39413:1 42401:1 42934:1 46418:1 46515:1 47630:1 48365:1 48857:1 50836:1 51312:1 52168:1 53334:1 54769:1 55933:1 62605:1 63370:1 
0.027253823906860705 9:1 10:1 11:1 12:1 13:1 14:1 15:1 16:1 17:1 19:1 20:1 22:1 23:1 26:1 27:1 28:1 30:1 50:1 62:1 64:1 65:1 66:1 67:1 72:1 74:1 79:1 82:1 189:1 195:1 216:1 220:1 248:1 277:1 303:1 325:1 326:1 338:1 357:1 369:1 392:1 403:1 423:1 426:1 438:1 450:1 454:1 457:1 462:1 501:1 522:1 536:1 585:1 592:1 597:1 629:1 643:1 688:1 701:1 724:1 730:1 731:1 737:1 748:1 758:1 768:1 831:1 1054:1 1116:1 1160:1 1204:1 1226:1 1253:1 1335:1 1372:1 1455:1 1514:1 2376:1 2493:1 2704:1 2765:1 3044:1 3063:1 3305:1 3325:1 4018:1 4055:1 4056:1 4072:1 4451:1 4876:1 5287:1 5329:1 5694:1 5791:1 5857:1 5959:1 6366:1 6606:1 6867:1 7541:1 7657:1 8089:1 8368:1 8991:1 9368:1 9458:1 9474:1 9572:1 9587:1 9750:1 9981:1 10000:1 10888:1 12481:1 12993:1 13310:1 13710:1 13865:1 14074:1 14757:1 15095:1 15737:1 16227:1 19666:1 20497:1 21532:1 21788:1 22868:1 24064:1 27975:1 27981:1 28108:1 29660:1 31394:1 33189:1 33434:1 35817:1 36757:1 38171:1 38928:1 40299:1 42881:1 43624:1 49672:1 51636:1 52100:1 52153:1 52170:1 52838:1 53652:1 54769:1 58986:1 63889:1 
0.13756664306570404 9:1 10:1 11:1 12:1 13:1 15:1 16:1 17:1 26:1 27:1 62:1 63:1 64:1 67:1 171:1 194:1 216:1 248:1 273:1 281:1 315:1 325:1 326:1 392:1 403:1 409:1 438:1 688:1 733:1 737:1 747:1 1116:1 1138:1 1156:1 1164:1 1253:1 2476:1 2704:1 3049:1 3266:1 3370:1 3819:1 4018:1 4071:1 4872:1 5043:1 9505:1 9515:1 9572:1 9720:1 9724:1 12993:1 13161:1 13284:1 13362:1 14072:1 20392:1 21531:1 22700:1 23759:1 28088:1 31359:1 52322:1 52426:1 53462:1 53483:1 
0.025179164205805089 9:1 10:1 11:1 13:1 14:1 15:1 16:1 17:1 19:1 20:1 21:1 22:1 23:1 24:1 26:1 27:1 28:1 29:1 30:1 31:1 34:1 39:1 49:1 50:1 62:1 65:1 71:1 74:1 76:1 79:1 81:1 82:1 86:1 177:1 216:1 248:1 250:1 253:1 303:1 310:1 314:1 316:1 321:1 325:1 329:1 338:1 369:1 392:1 413:1 446:1 450:1 462:1 494:1 498:1 504:1 532:1 552:1 585:1 608:1 613:1 619:1 620:1 636:1 641:1 649:1 673:1 697:1 701:1 707:1 710:1 711:1 725:1 729:1 731:1 733:1 747:1 751:1 758:1 804:1 843:1 854:1 866:1 934:1 944:1 962:1 987:1 1031:1 1058:1 1116:1 1199:1 1203:1 1326:1 1384:1 1419:1 1451:1 1469:1 1499:1 1521:1 1559:1 2117:1 2689:1 2707:1 3053:1 3105:1 3140:1 3716:1 3794:1 3850:1 3954:1 4031:1 4040:1 4144:1 4868:1 5099:1 5610:1 5694:1 5715:1 5975:1 6301:1 6338:1 6404:1 6780:1 7824:1 7904:1 7977:1 8221:1 8333:1 8474:1 8672:1 8903:1 8991:1 9134:1 9155:1 9173:1 9432:1 9477:1 9504:1 9718:1 9809:1 10506:1 10943:1 11013:1 11096:1 11585:1 11814:1 12026:1 12251:1 12524:1 12996:1 13659:1 13701:1 14676:1 15170:1 15421:1 15687:1 15873:1 16082:1 16261:1 18129:1 21361:1 21562:1 22743:1 23142:1 23283:1 25628:1 26354:1 27667:1 27794:1 28535:1 31337:1 34766:1 35391:1 36860:1 37944:1 38047:1 38335:1 39867:1 44738:1 44989:1 46670:1 47307:1 48111:1 49111:1 49683:1 50500:1 50589:1 51871:1 52190:1 52307:1 53440:1 54010:1 59366:1 59752:1 61673:1 62402:1 63120:1 64021:1 
0.085251207754909908 9:1 11:1 12:1 13:1 15:1 16:1 17:1 19:1 21:1 22:1 23:1 26:1 27:1 28:1 29:1 31:1 39:1 61:1 67:1 68:1 69:1 79:1 83:1 171:1 188:1 196:1 248:1 250:1 277:1 310:1 325:1 392:1 409:1 428:1 435:1 438:1 447:1 450:1 452:1 494:1 508:1 565:1 576:1 597:1 637:1 688:1 731:1 758:1 768:1 807:1 866:1 872:1 986:1 1106:1 1253:1 1262:1 1278:1 1288:1 1449:1 1533:1 1538:1 2354:1 2524:1 3068:1 3075:1 3101:1 3114:1 3324:1 3716:1 4018:1 4870:1 5043:1 5057:1 5378:1 5488:1 5625:1 5715:1 5759:1 6301:1 6454:1 7196:1 7342:1 7644:1 8259:1 9474:1 9986:1 10568:1 11086:1 11134:1 12009:1 12908:1 14071:1 14146:1 14159:1 14371:1 15670:1 16346:1 16375:1 19519:1 20766:1 22937:1 23021:1 23120:1 23195:1 24034:1 25627:1 25635:1 31353:1 31998:1 33684:1 34207:1 34850:1 35393:1 35620:1 37936:1 46181:1 52174:1 52180:1 54633:1 59658:1 59834:1 62285:1 
0.017526730299903353 12:1 13:1 15:1 16:1 17:1 21:1 23:1 24:1 26:1 27:1 28:1 29:1 34:1 39:1 64:1 73:1 76:1 80:1 277:1 293:1 303:1 315:1 325:1 327:1 369:1 426:1 438:1 561:1 649:1 673:1 697:1 701:1 707:1 725:1 747:1 758:1 791:1 816:1 962:1 980:1 992:1 1160:1 1176:1 1353:1 1419:1 1490:1 3305:1 3561:1 3835:1 4031:1 4081:1 5325:1 7150:1 8474:1 8672:1 8912:1 8914:1 8982:1 9134:1 9713:1 10337:1 10712:1 11817:1 11912:1 12077:1 13310:1 13508:1 14929:1 15421:1 16039:1 25048:1 26266:1 27658:1 33411:1 41426:1 47309:1 48111:1 49200:1 49231:1 50500:1 56423:1 58211:1 61681:1 62641:1 
0.13378091627380778 4:1 9:1 11:1 12:1 13:1 14:1 15:1 16:1 17:1 21:1 22:1 23:1 24:1 25:1 27:1 28:1 29:1 31:1 64:1 65:1 68:1 69:1 73:1 77:1 79:1 81:1 83:1 126:1 173:1 189:1 194:1 248:1 253:1 268:1 277:1 320:1 326:1 327:1 338:1 369:1 403:1 413:1 428:1 446:1 448:1 450:1 457:1 462:1 463:1 552:1 565:1 572:1 592:1 595:1 608:1 620:1 636:1 676:1 687:1 725:1 731:1 737:1 743:1 758:1 764:1 772:1 782:1 799:1 804:1 812:1 818:1 858:1 866:1 1160:1 1204:1 1264:1 1297:1 1354:1 1428:1 1455:1 1461:1 1499:1 1506:1 1528:1 1533:1 1897:1 2069:1 2391:1 2458:1 3044:1 3068:1 3140:1 3320:1 3925:1 4051:1 4068:1 4101:1 5121:1 5382:1 5610:1 5665:1 5694:1 5867:1 5959:1 5982:1 7213:1 7307:1 7532:1 7607:1 7828:1 8237:1 8736:1 8781:1 9474:1 9577:1 9653:1 9925:1 10067:1 10074:1 10195:1 10414:1 10506:1 10657:1 10772:1 11039:1 11085:1 11087:1 13323:1 13708:1 14188:1 14452:1 14953:1 15466:1 15729:1 15775:1 16082:1 16143:1 16315:1 16345:1 16347:1 17625:1 17952:1 19834:1 22941:1 23290:1 23988:1 28064:1 28281:1 32391:1 33723:1 34758:1 34779:1 35130:1 36274:1 36757:1 41723:1 42099:1 44388:1 46049:1 48300:1 48394:1 52153:1 52731:1 54308:1 55099:1 55169:1 56736:1 57887:1 58625:1 59457:1 59655:1 59675:1 
0.0049613026740833368 9:1 10:1 11:1 12:1 13:1 15:1 16:1 17:1 19:1 20:1 21:1 22:1 23:1 24:1 26:1 27:1 28:1 29:1 34:1 49:1 62:1 64:1 65:1 67:1 68:1 73:1 79:1 81:1 86:1 196:1 216:1 248:1 268:1 277:1 314:1 316:1 318:1 319:1 320:1 321:1 325:1 369:1 379:1 392:1 409:1 413:1 438:1 450:1 462:1 494:1 517:1 530:1 533:1 541:1 571:1 572:1 585:1 592:1 602:1 635:1 682:1 688:1 701:1 731:1 748:1 768:1 772:1 795:1 812:1 816:1 957:1 1035:1 1116:1 1160:1 1196:1 1198:1 1253:1 1264:1 1357:1 1449:1 1506:1 1580:1 2514:1 2693:1 3049:1 3321:1 3799:1 3864:1 3879:1 3894:1 3909:1 3942:1 3970:1 4031:1 4681:1 4887:1 5065:1 5114:1 5694:1 5976:1 6297:1 6744:1 6804:1 6814:1 6938:1 7283:1 7309:1 7532:1 7718:1 8192:1 8766:1 8991:1 9474:1 9750:1 9994:1 10000:1 10058:1 10657:1 10707:1 11764:1 12304:1 12982:1 13324:1 13631:1 13653:1 14079:1 14183:1 14967:1 15670:1 16143:1 16635:1 21389:1 22720:1 24013:1 26025:1 26540:1 26610:1 26805:1 26814:1 27071:1 27251:1 27667:1 30391:1 31458:1 32074:1 32297:1 36880:1 37900:1 39994:1 40063:1 40556:1 41950:1 42101:1 48361:1 49672:1 52157:1 53663:1 53667:1 54711:1 54781:1 57887:1 61520:1 63289:1 
0.14368826623359196 9:1 10:1 11:1 13:1 16:1 17:1 22:1 26:1 27:1 29:1 31:1 34:1 49:1 50:1 61:1 65:1 69:1 74:1 86:1 177:1 216:1 248:1 315:1 325:1 326:1 403:1 413:1 436:1 462:1 609:1 688:1 725:1 731:1 816:1 882:1 959:1 1023:1 1061:1 1087:1 1204:1 1297:1 1378:1 1582:1 2117:1 2703:1 3044:1 3053:1 3843:1 4018:1 4051:1 5111:1 5502:1 5959:1 7867:1 9474:1 10707:1 11224:1 11785:1 12175:1 12558:1 12666:1 13708:1 14452:1 15139:1 16652:1 18139:1 21486:1 22755:1 26313:1 32264:1 34276:1 36757:1 44622:1 52153:1 52161:1 60102:1 61610:1 62881:1 64186:1 
0.0055374268003503561 9:1 10:1 11:1 12:1 13:1 14:1 15:1 16:1 17:1 20:1 21:1 22:1 23:1 24:1 26:1 27:1 28:1 29:1 30:1 31:1 50:1 61:1 62:1 64:1 73:1 75:1 79:1 81:1 82:1 183:1 194:1 216:1 238:1 248:1 277:1 281:1 290:1 313:1 314:1 320:1 321:1 326:1 327:1 350:1 362:1 375:1 392:1 403:1 429:1 445:1 446:1 450:1 457:1 463:1 517:1 526:1 552:1 565:1 585:1 592:1 608:1 639:1 672:1 676:1 701:1 725:1 737:1 748:1 758:1 768:1 772:1 804:1 810:1 817:1 835:1 862:1 1056:1 1104:1 1116:1 1173:1 1354:1 1400:1 1455:1 1466:1 1499:1 1516:1 2264:1 2458:1 2692:1 2985:1 3044:1 3326:1 3377:1 3481:1 3781:1 3796:1 3925:1 3960:1 3975:1 4072:1 4081:1 4367:1 4527:1 4630:1 4866:1 5418:1 5603:1 5610:1 5715:1 5857:1 5864:1 5982:1 6685:1 7213:1 7541:1 7545:1 7832:1 8304:1 8662:1 8730:1 8998:1 9577:1 9750:1 9754:1 9990:1 9995:1 10062:1 10527:1 10606:1 10734:1 10908:1 11068:1 12485:1 12874:1 12981:1 13455:1 14953:1 15273:1 15729:1 15836:1 16102:1 16237:1 18981:1 21379:1 22525:1 24086:1 24291:1 24754:1 25922:1 25997:1 27154:1 27328:1 28112:1 29317:1 29886:1 30150:1 33948:1 34739:1 34758:1 35389:1 36226:1 39353:1 41723:1 42882:1 42915:1 44421:1 46459:1 48041:1 48268:1 49743:1 52731:1 53659:1 53696:1 54654:1 54720:1 55068:1 57318:1 57625:1 59069:1 59581:1 
0.330665673866609 11:1 12:1 13:1 15:1 16:1 17:1 20:1 21:1 22:1 23:1 26:1 27:1 28:1 29:1 31:1 64:1 65:1 72:1 74:1 78:1 81:1 83:1 248:1 277:1 303:1 314:1 316:1 321:1 369:1 379:1 393:1 403:1 428:1 446:1 448:1 450:1 455:1 530:1 540:1 542:1 561:1 585:1 597:1 608:1 637:1 701:1 743:1 758:1 772:1 775:1 803:1 811:1 866:1 1160:1 1195:1 1343:1 1372:1 1433:1 1505:1 1533:1 3044:1 3068:1 3305:1 3812:1 3854:1 3975:1 4685:1 4895:1 5382:1 5610:1 5643:1 5694:1 5702:1 5822:1 6751:1 6914:1 6961:1 7142:1 7651:1 7838:1 8247:1 8987:1 9669:1 10067:1 10112:1 10492:1 10633:1 11092:1 13310:1 13622:1 14840:1 15092:1 15523:1 16124:1 16351:1 22941:1 26119:1 26398:1 27334:1 30447:1 33723:1 34758:1 34779:1 35308:1 36032:1 39649:1 40467:1 40665:1 43577:1 44471:1 49627:1 53188:1 55099:1 55330:1 57066:1 57738:1 59717:1 
0.0042049374729999462 9:1 11:1 12:1 13:1 16:1 17:1 19:1 20:1 21:1 22:1 24:1 26:1 27:1 28:1 29:1 39:1 61:1 65:1 72:1 73:1 74:1 76:1 78:1 79:1 81:1 171:1 183:1 196:1 248:1 250:1 268:1 310:1 325:1 328:1 403:1 428:1 457:1 463:1 507:1 508:1 530:1 547:1 565:1 585:1 589:1 592:1 593:1 599:1 668:1 688:1 697:1 725:1 737:1 758:1 782:1 795:1 799:1 812:1 987:1 1093:1 1106:1 1189:1 1203:1 1339:1 1354:1 1370:1 1415:1 1431:1 1455:1 1506:1 2244:1 2514:1 3068:1 3114:1 3714:1 3716:1 4018:1 4114:1 5391:1 5861:1 5871:1 5982:1 6431:1 6454:1 6762:1 7028:1 7213:1 7482:1 7532:1 7585:1 7692:1 8621:1 8897:1 9587:1 10195:1 10402:1 10657:1 12013:1 12736:1 12901:1 13577:1 13684:1 14803:1 14953:1 15082:1 15392:1 15494:1 15737:1 16143:1 22950:1 23195:1 25615:1 25635:1 28379:1 33776:1 36195:1 36324:1 39755:1 40908:1 41723:1 43236:1 43789:1 47868:1 49037:1 52839:1 57887:1 
0.12944071124368786 9:1 11:1 12:1 13:1 15:1 16:1 17:1 20:1 22:1 26:1 27:1 28:1 31:1 39:1 61:1 63:1 64:1 67:1 69:1 83:1 187:1 189:1 248:1 277:1 281:1 303:1 314:1 325:1 369:1 392:1 403:1 409:1 426:1 438:1 448:1 462:1 541:1 592:1 593:1 697:1 701:1 731:1 748:1 764:1 772:1 880:1 987:1 1099:1 1138:1 1160:1 1253:1 1297:1 1544:1 2337:1 2376:1 2377:1 3044:1 3049:1 3066:1 3305:1 3370:1 3794:1 4027:1 4887:1 5056:1 5329:1 5654:1 5959:1 6938:1 7541:1 7545:1 7582:1 8893:1 8989:1 9474:1 9746:1 9939:1 10058:1 11192:1 12016:1 12825:1 13161:1 13168:1 13310:1 14079:1 14452:1 16410:1 19418:1 19666:1 19697:1 22712:1 22900:1 27587:1 31457:1 31989:1 33432:1 34998:1 36757:1 40556:1 42865:1 42909:1 43180:1 49651:1 52153:1 53634:1 54416:1 59982:1 62322:1 
0.0050555470797660146 9:1 13:1 16:1 17:1 21:1 26:1 27:1 28:1 29:1 31:1 32:1 61:1 65:1 68:1 83:1 193:1 303:1 316:1 320:1 327:1 331:1 413:1 438:1 448:1 462:1 565:1 577:1 697:1 705:1 747:1 748:1 758:1 781:1 803:1 866:1 899:1 1103:1 1209:1 1264:1 1533:1 2442:1 3864:1 3935:1 4081:1 4171:1 5112:1 5643:1 5975:1 7196:1 7368:1 8907:1 9075:1 9734:1 9742:1 10183:1 10501:1 11087:1 11299:1 12861:1 13765:1 14181:1 16347:1 20166:1 26539:1 27014:1 28640:1 32277:1 36873:1 42238:1 49152:1 50116:1 53556:1 55645:1 57142:1 59663:1 60220:1 
0.03126868605286455 4:1 9:1 10:1 11:1 12:1 13:1 14:1 15:1 16:1 17:1 19:1 20:1 21:1 22:1 23:1 24:1 26:1 27:1 28:1 29:1 34:1 49:1 50:1 62:1 64:1 65:1 66:1 67:1 68:1 69:1 71:1 73:1 79:1 80:1 81:1 124:1 171:1 181:1 182:1 187:1 196:1 201:1 216:1 248:1 268:1 273:1 277:1 316:1 321:1 325:1 326:1 327:1 347:1 359:1 368:1 379:1 392:1 409:1 413:1 450:1 457:1 490:1 504:1 530:1 540:1 571:1 585:1 592:1 608:1 637:1 641:1 642:1 671:1 682:1 688:1 693:1 697:1 704:1 710:1 725:1 727:1 731:1 739:1 744:1 758:1 764:1 768:1 795:1 812:1 942:1 1037:1 1060:1 1116:1 1156:1 1203:1 1232:1 1253:1 1264:1 1292:1 1326:1 1357:1 1462:1 1475:1 1506:1 1880:1 2200:1 2223:1 2336:1 2514:1 2596:1 2703:1 3049:1 3247:1 3321:1 3854:1 3975:1 4018:1 4023:1 4034:1 4052:1 4069:1 4081:1 4327:1 4475:1 4592:1 4688:1 4689:1 4870:1 5051:1 5121:1 5702:1 5857:1 6268:1 6404:1 6762:1 6901:1 7289:1 7532:1 7541:1 7824:1 8254:1 8332:1 8352:1 8641:1 8768:1 8820:1 8913:1 9049:1 9155:1 9408:1 9474:1 9607:1 9691:1 9696:1 9933:1 10000:1 10657:1 11559:1 12331:1 12529:1 12992:1 13266:1 13684:1 13912:1 14071:1 14188:1 14408:1 14676:1 14972:1 15813:1 15923:1 16143:1 17585:1 18563:1 18693:1 19397:1 21021:1 21500:1 22707:1 24017:1 26398:1 27322:1 27535:1 27715:1 27951:1 28073:1 29153:1 30056:1 30464:1 30489:1 31353:1 31943:1 32381:1 35309:1 37832:1 38334:1 39747:1 42009:1 42878:1 46120:1 46660:1 46811:1 47928:1 48365:1 48582:1 49222:1 49993:1 50595:1 51813:1 52157:1 52928:1 53299:1 53334:1 54346:1 54769:1 57887:1 60813:1 63370:1 
0.020169253097297356 9:1 11:1 12:1 13:1 15:1 16:1 17:1 20:1 21:1 22:1 23:1 27:1 28:1 29:1 30:1 34:1 39:1 42:1 50:1 63:1 67:1 69:1 74:1 79:1 81:1 82:1 86:1 178:1 183:1 196:1 248:1 264:1 268:1 303:1 314:1 326:1 386:1 394:1 403:1 409:1 413:1 438:1 462:1 522:1 530:1 541:1 552:1 561:1 565:1 569:1 592:1 619:1 620:1 725:1 731:1 733:1 747:1 757:1 775:1 803:1 805:1 811:1 812:1 843:1 957:1 962:1 985:1 1006:1 1051:1 1057:1 1138:1 1247:1 1297:1 1384:1 1474:1 1506:1 1521:1 1580:1 1585:1 2152:1 2244:1 2522:1 3049:1 3053:1 3197:1 3805:1 4051:1 4071:1 4797:1 4924:1 5065:1 5120:1 5959:1 6597:1 6601:1 6744:1 6940:1 7142:1 7196:1 7245:1 7532:1 7976:1 9474:1 9494:1 9720:1 9888:1 10112:1 10492:1 10549:1 10626:1 10640:1 10657:1 10943:1 11754:1 11761:1 11812:1 11990:1 12428:1 12502:1 13161:1 14015:1 14452:1 15169:1 15910:1 16143:1 16261:1 16627:1 16632:1 16667:1 18370:1 20763:1 22720:1 22763:1 26075:1 28088:1 30944:1 30947:1 31586:1 32079:1 32372:1 36757:1 38852:1 38890:1 40576:1 41847:1 44976:1 52161:1 53445:1 54240:1 55327:1 57061:1 57447:1 57793:1 57887:1 61468:1 61499:1 61666:1 62207:1 63693:1 63928:1 
0.0041762859070129041 9:1 10:1 12:1 13:1 15:1 17:1 19:1 20:1 21:1 22:1 23:1 26:1 27:1 28:1 29:1 62:1 67:1 69:1 75:1 79:1 171:1 179:1 189:1 216:1 268:1 284:1 311:1 325:1 328:1 391:1 392:1 393:1 448:1 450:1 456:1 508:1 522:1 530:1 552:1 592:1 593:1 625:1 688:1 693:1 697:1 704:1 706:1 713:1 725:1 737:1 747:1 748:1 781:1 782:1 784:1 809:1 816:1 817:1 1116:1 1252:1 1286:1 1291:1 1388:1 1466:1 2153:1 2376:1 2703:1 3412:1 3734:1 4018:1 4034:1 4036:1 4130:1 4856:1 4886:1 4905:1 5651:1 5715:1 5716:1 5832:1 6471:1 6606:1 6755:1 7532:1 7582:1 8026:1 8806:1 8812:1 8915:1 9044:1 9088:1 9243:1 9579:1 9734:1 9762:1 10183:1 10190:1 10195:1 10267:1 10598:1 10708:1 10745:1 12992:1 14060:1 14341:1 14397:1 15180:1 15842:1 19660:1 21500:1 21502:1 24467:1 25721:1 27712:1 27744:1 28469:1 31226:1 31454:1 31525:1 34974:1 35408:1 35424:1 38582:1 38928:1 39699:1 43174:1 45095:1 48483:1 49254:1 49962:1 50174:1 51072:1 52746:1 53565:1 53758:1 53763:1 55650:1 55706:1 56131:1 57591:1 58163:1 58462:1 
0.013482063521593248 9:1 10:1 11:1 12:1 13:1 16:1 17:1 18:1 20:1 21:1 22:1 23:1 24:1 26:1 27:1 28:1 29:1 49:1 64:1 68:1 70:1 72:1 73:1 79:1 81:1 89:1 171:1 177:1 178:1 189:1 216:1 248:1 268:1 277:1 301:1 315:1 321:1 325:1 327:1 403:1 417:1 426:1 428:1 438:1 444:1 446:1 457:1 462:1 478:1 530:1 557:1 561:1 589:1 592:1 608:1 631:1 662:1 665:1 688:1 693:1 697:1 701:1 725:1 737:1 744:1 749:1 758:1 768:1 799:1 812:1 817:1 819:1 1034:1 1037:1 1183:1 1267:1 1307:1 1339:1 1350:1 1353:1 1455:1 1462:1 1467:1 1506:1 1511:1 1609:1 2117:1 2144:1 2373:1 2376:1 2703:1 3044:1 3068:1 3326:1 3632:1 3835:1 3960:1 4018:1 4023:1 4031:1 4081:1 5182:1 5318:1 5325:1 5371:1 5562:1 5610:1 5880:1 5954:1 6185:1 6749:1 7086:1 7150:1 7497:1 7532:1 7541:1 7832:1 8145:1 8538:1 8603:1 8822:1 8912:1 8982:1 9577:1 9685:1 9776:1 10000:1 10406:1 10657:1 10734:1 10801:1 12290:1 12329:1 13548:1 14207:1 14545:1 14791:1 14893:1 14929:1 15729:1 15803:1 15848:1 16143:1 16215:1 16759:1 18139:1 18334:1 19639:1 19660:1 21486:1 22932:1 24086:1 25263:1 26266:1 27150:1 27537:1 27658:1 32663:1 33411:1 34472:1 34758:1 36396:1 37591:1 39616:1 41426:1 42643:1 42882:1 44423:1 45596:1 47509:1 47787:1 48604:1 49200:1 52731:1 53266:1 53853:1 54773:1 56651:1 57887:1 58777:1 63244:1 
0.07922631352352151 10:1 11:1 13:1 14:1 15:1 16:1 17:1 19:1 20:1 21:1 22:1 26:1 27:1 28:1 29:1 31:1 39:1 49:1 71:1 73:1 79:1 80:1 83:1 216:1 248:1 303:1 312:1 314:1 316:1 325:1 359:1 369:1 379:1 392:1 413:1 422:1 446:1 450:1 452:1 455:1 457:1 462:1 463:1 506:1 530:1 544:1 565:1 593:1 602:1 608:1 688:1 704:1 718:1 725:1 731:1 748:1 749:1 758:1 768:1 772:1 793:1 812:1 866:1 979:1 1022:1 1327:1 1354:1 1449:1 1467:1 1478:1 1533:1 2703:1 3053:1 3062:1 3756:1 3811:1 3859:1 4018:1 4034:1 4485:1 4670:1 4887:1 5099:1 5256:1 5610:1 5694:1 5702:1 5770:1 5826:1 5880:1 5954:1 5982:1 6428:1 6751:1 6985:1 7213:1 7570:1 7736:1 7832:1 7836:1 9049:1 9322:1 9474:1 9771:1 9788:1 9992:1 10000:1 10067:1 10353:1 10666:1 11091:1 11094:1 11907:1 12170:1 14686:1 14953:1 15670:1 15858:1 15947:1 16353:1 21486:1 22743:1 22852:1 25802:1 26115:1 26465:1 27715:1 29755:1 31468:1 33036:1 34766:1 35299:1 35689:1 36053:1 36396:1 38438:1 39649:1 40798:1 41723:1 43085:1 43975:1 44423:1 44455:1 49987:1 51427:1 52169:1 53827:1 53912:1 54682:1 54783:1 55099:1 55102:1 56498:1 57999:1 59704:1 59731:1 61923:1 62873:1 
0.024431304275491523 3:1 6:1 9:1 12:1 13:1 15:1 16:1 17:1 19:1 20:1 21:1 22:1 23:1 24:1 26:1 27:1 28:1 29:1 31:1 34:1 64:1 65:1 68:1 71:1 83:1 86:1 106:1 161:1 196:1 269:1 281:1 303:1 321:1 325:1 327:1 328:1 369:1 413:1 448:1 450:1 457:1 501:1 504:1 522:1 572:1 577:1 585:1 597:1 603:1 636:1 637:1 642:1 671:1 688:1 700:1 701:1 712:1 729:1 733:1 737:1 758:1 768:1 798:1 816:1 817:1 818:1 862:1 866:1 957:1 1154:1 1164:1 1203:1 1206:1 1264:1 1323:1 1326:1 1531:1 1533:1 1580:1 1754:1 2531:1 2533:1 3216:1 3383:1 3954:1 4018:1 4030:1 4042:1 4081:1 4089:1 4130:1 5116:1 5121:1 5664:1 5666:1 5694:1 5875:1 6363:1 6400:1 6612:1 7303:1 7379:1 7651:1 7761:1 8237:1 8259:1 8344:1 8641:1 8968:1 8989:1 9201:1 9448:1 9494:1 9581:1 10000:1 10400:1 10716:1 10741:1 10745:1 10762:1 11070:1 11087:1 11749:1 13249:1 13374:1 13684:1 13742:1 14188:1 14644:1 14672:1 16336:1 16347:1 16623:1 17255:1 20824:1 20842:1 23526:1 24327:1 27646:1 27838:1 28202:1 28467:1 32319:1 32381:1 35095:1 35114:1 35140:1 36361:1 38134:1 38292:1 39010:1 42085:1 42287:1 43586:1 44113:1 46046:1 46185:1 46766:1 47930:1 49528:1 49658:1 52046:1 52760:1 54780:1 58240:1 58410:1 58464:1 59593:1 59676:1 61440:1 
0.0080539670764465943 9:1 11:1 12:1 13:1 14:1 16:1 17:1 20:1 22:1 23:1 26:1 27:1 28:1 29:1 30:1 34:1 39:1 50:1 64:1 65:1 69:1 74:1 79:1 80:1 82:1 86:1 178:1 194:1 248:1 268:1 277:1 281:1 303:1 316:1 325:1 327:1 342:1 403:1 420:1 438:1 449:1 461:1 526:1 589:1 641:1 688:1 696:1 731:1 755:1 789:1 794:1 803:1 843:1 942:1 957:1 970:1 1060:1 1067:1 1153:1 1164:1 1195:1 1278:1 1367:1 1449:1 1492:1 1521:1 1580:1 2144:1 2482:1 3044:1 3060:1 3324:1 3386:1 3853:1 4018:1 4107:1 4242:1 5214:1 5672:1 5928:1 6690:1 7500:1 8319:1 8873:1 9474:1 9848:1 10307:1 10380:1 10483:1 10959:1 11550:1 11754:1 12529:1 12623:1 13377:1 13621:1 15056:1 15670:1 16064:1 16276:1 16627:1 18316:1 20448:1 22833:1 24034:1 24345:1 26384:1 28343:1 28786:1 32803:1 35174:1 39415:1 42685:1 46522:1 48925:1 52167:1 56295:1 56604:1 59258:1 61462:1 64383:1 
0.027881487228826239 4:1 9:1 10:1 11:1 12:1 13:1 15:1 16:1 17:1 20:1 21:1 22:1 23:1 24:1 26:1 27:1 28:1 29:1 30:1 31:1 34:1 39:1 58:1 61:1 64:1 65:1 73:1 74:1 79:1 81:1 82:1 86:1 122:1 187:1 189:1 193:1 212:1 216:1 248:1 268:1 277:1 287:1 316:1 325:1 326:1 328:1 333:1 376:1 403:1 431:1 438:1 448:1 452:1 457:1 463:1 469:1 526:1 530:1 533:1 540:1 565:1 590:1 592:1 595:1 603:1 607:1 620:1 626:1 639:1 641:1 680:1 688:1 696:1 701:1 704:1 707:1 712:1 725:1 731:1 737:1 743:1 758:1 795:1 812:1 816:1 835:1 862:1 866:1 934:1 957:1 959:1 978:1 1075:1 1097:1 1099:1 1153:1 1170:1 1195:1 1354:1 1373:1 1449:1 1455:1 1506:1 1516:1 1580:1 1582:1 2329:1 2336:1 2376:1 2426:1 2649:1 2709:1 3044:1 3071:1 3324:1 3327:1 3441:1 3845:1 3861:1 4018:1 4031:1 4034:1 4042:1 4051:1 4129:1 4207:1 4646:1 5433:1 5664:1 5774:1 5864:1 5867:1 5879:1 5982:1 6081:1 6689:1 6753:1 6800:1 6901:1 6914:1 7213:1 7511:1 7532:1 7541:1 7612:1 7760:1 7792:1 8044:1 8310:1 8319:1 8750:1 8873:1 8982:1 9049:1 9124:1 9201:1 9474:1 9587:1 9653:1 10655:1 10657:1 10721:1 10907:1 11065:1 11091:1 11094:1 11747:1 11778:1 11779:1 11897:1 12793:1 12797:1 12824:1 13419:1 13626:1 14953:1 15119:1 15670:1 15737:1 16141:1 16143:1 16236:1 16622:1 16645:1 19338:1 19397:1 19406:1 19666:1 21205:1 21579:1 22987:1 24045:1 24101:1 24571:1 26502:1 27658:1 27715:1 27838:1 28458:1 28727:1 30265:1 34020:1 35114:1 35737:1 36221:1 36277:1 36371:1 39386:1 39672:1 39976:1 40465:1 41723:1 42754:1 42880:1 43363:1 44102:1 45151:1 46474:1 46522:1 48323:1 48928:1 49988:1 50415:1 52177:1 52840:1 57879:1 57887:1 58283:1 59048:1 59537:1 59706:1 59726:1 61566:1 61580:1 61897:1 
0.012506563544325286 9:1 10:1 11:1 12:1 13:1 14:1 15:1 16:1 17:1 22:1 23:1 26:1 27:1 28:1 50:1 62:1 64:1 67:1 68:1 74:1 79:1 171:1 216:1 248:1 273:1 303:1 312:1 314:1 325:1 350:1 375:1 379:1 383:1 417:1 422:1 437:1 450:1 457:1 463:1 593:1 595:1 603:1 620:1 688:1 699:1 725:1 731:1 782:1 1052:1 1067:1 1116:1 1156:1 1244:1 1267:1 1277:1 1373:1 1449:1 2703:1 3062:1 3247:1 3748:1 3796:1 4018:1 4029:1 4362:1 4619:1 4679:1 4688:1 4772:1 5182:1 5256:1 5533:1 5702:1 5867:1 6005:1 7570:1 7615:1 7745:1 8943:1 9474:1 10195:1 12443:1 12617:1 12992:1 13266:1 14004:1 14207:1 14302:1 15107:1 15670:1 21496:1 22852:1 25991:1 27622:1 29284:1 30366:1 30462:1 30889:1 32656:1 33036:1 34423:1 35309:1 36279:1 37058:1 43079:1 43376:1 49373:1 52169:1 63766:1 64350:1 
0.050180938894283912 9:1 11:1 12:1 13:1 14:1 15:1 16:1 17:1 20:1 21:1 22:1 24:1 26:1 27:1 28:1 29:1 31:1 34:1 50:1 61:1 67:1 73:1 74:1 79:1 80:1 81:1 86:1 181:1 188:1 196:1 248:1 268:1 316:1 320:1 325:1 359:1 369:1 379:1 396:1 403:1 409:1 428:1 450:1 455:1 457:1 462:1 463:1 517:1 552:1 561:1 565:1 585:1 592:1 597:1 602:1 609:1 665:1 672:1 688:1 700:1 731:1 749:1 758:1 768:1 772:1 783:1 786:1 794:1 801:1 805:1 811:1 812:1 816:1 866:1 876:1 946:1 957:1 1059:1 1098:1 1106:1 1257:1 1354:1 1378:1 1467:1 1478:1 1492:1 1506:1 1569:1 1580:1 2211:1 2346:1 2522:1 3044:1 3068:1 3859:1 3861:1 3932:1 4030:1 4475:1 4684:1 4944:1 5051:1 5382:1 5694:1 5803:1 5857:1 5959:1 6006:1 7151:1 7213:1 7532:1 7653:1 7728:1 7867:1 8595:1 8655:1 8966:1 9474:1 9788:1 9992:1 10000:1 10067:1 10230:1 10246:1 10284:1 10375:1 10454:1 10537:1 10626:1 10657:1 10666:1 10707:1 11097:1 11161:1 11634:1 11761:1 12528:1 12802:1 12907:1 14100:1 14953:1 15139:1 15858:1 15947:1 16059:1 16143:1 16558:1 16632:1 18622:1 20757:1 22941:1 26448:1 26489:1 26997:1 27645:1 30426:1 31667:1 31947:1 33723:1 36757:1 37083:1 37095:1 41434:1 41738:1 43594:1 43938:1 44622:1 47740:1 48014:1 49514:1 52174:1 53912:1 54682:1 54780:1 55099:1 55943:1 56035:1 56230:1 56577:1 56899:1 57370:1 57887:1 57995:1 59763:1 59895:1 61109:1 61499:1 64041:1 
0.040077290957496702 9:1 10:1 11:1 12:1 13:1 14:1 16:1 17:1 20:1 21:1 22:1 26:1 27:1 28:1 29:1 34:1 50:1 61:1 62:1 64:1 69:1 79:1 80:1 81:1 178:1 187:1 193:1 194:1 216:1 248:1 268:1 281:1 302:1 303:1 312:1 316:1 319:1 325:1 327:1 333:1 342:1 413:1 422:1 438:1 446:1 456:1 523:1 530:1 540:1 552:1 562:1 592:1 593:1 701:1 712:1 724:1 725:1 731:1 737:1 747:1 748:1 758:1 764:1 768:1 781:1 782:1 811:1 812:1 942:1 1048:1 1062:1 1097:1 1103:1 1116:1 1164:1 1184:1 1291:1 1455:1 1466:1 1483:1 1505:1 1506:1 2144:1 2336:1 2449:1 2476:1 2691:1 2697:1 2709:1 3053:1 3062:1 3370:1 3643:1 3764:1 3850:1 3899:1 3906:1 4031:1 4089:1 4192:1 4254:1 5099:1 5114:1 5256:1 5610:1 5832:1 6621:1 6744:1 6901:1 7168:1 7532:1 7584:1 8982:1 9208:1 9362:1 9474:1 9572:1 9734:1 9742:1 9746:1 9929:1 9981:1 10194:1 10200:1 10634:1 10657:1 11559:1 12386:1 12588:1 12797:1 12867:1 12998:1 13362:1 13558:1 14397:1 15726:1 15835:1 16008:1 16125:1 16143:1 18322:1 19397:1 20225:1 20400:1 21375:1 21441:1 21573:1 22743:1 22758:1 22852:1 25300:1 25854:1 26354:1 26686:1 26764:1 27658:1 28192:1 28677:1 28857:1 32289:1 33047:1 34774:1 39047:1 41557:1 43220:1 50836:1 51596:1 52161:1 53556:1 53625:1 54326:1 55736:1 55771:1 57749:1 57887:1 60811:1 63519:1 64293:1 
0.13099696799972588 11:1 12:1 13:1 16:1 17:1 19:1 20:1 23:1 26:1 27:1 28:1 31:1 34:1 64:1 68:1 79:1 86:1 248:1 277:1 303:1 310:1 316:1 325:1 327:1 330:1 413:1 420:1 428:1 438:1 448:1 452:1 462:1 463:1 494:1 526:1 532:1 635:1 701:1 715:1 725:1 731:1 768:1 782:1 866:1 872:1 946:1 1160:1 1264:1 1449:1 1569:1 3060:1 3068:1 3310:1 3714:1 3852:1 4031:1 4045:1 4101:1 4151:1 5121:1 5214:1 5378:1 5664:1 5770:1 5771:1 5954:1 5992:1 6286:1 6680:1 6780:1 8204:1 8982:1 9272:1 9474:1 10000:1 10005:1 10195:1 11091:1 11132:1 11626:1 13313:1 14188:1 15670:1 16552:1 22833:1 22937:1 23920:1 25615:1 26379:1 27658:1 27894:1 28281:1 28561:1 32391:1 32797:1 33693:1 35117:1 35689:1 35712:1 36975:1 39306:1 39861:1 45837:1 51247:1 52167:1 54781:1 54843:1 59704:1 59825:1 61071:1 
0.036202545529969772 9:1 10:1 11:1 12:1 13:1 15:1 16:1 17:1 19:1 20:1 21:1 22:1 26:1 27:1 28:1 29:1 30:1 34:1 39:1 50:1 62:1 64:1 67:1 69:1 79:1 81:1 82:1 171:1 189:1 195:1 213:1 229:1 236:1 238:1 248:1 250:1 268:1 273:1 303:1 316:1 319:1 325:1 379:1 392:1 403:1 413:1 417:1 421:1 438:1 445:1 448:1 457:1 462:1 494:1 517:1 546:1 561:1 592:1 593:1 597:1 688:1 699:1 725:1 731:1 737:1 768:1 812:1 831:1 942:1 976:1 1060:1 1129:1 1131:1 1156:1 1253:1 1297:1 1449:1 1506:1 1514:1 2381:1 2493:1 2667:1 2845:1 2948:1 2988:1 3044:1 3053:1 3057:1 3061:1 3101:1 3263:1 3849:1 3894:1 3921:1 4018:1 4688:1 4876:1 5112:1 5182:1 5238:1 5585:1 5658:1 5865:1 5959:1 6301:1 7005:1 7153:1 7532:1 7564:1 7651:1 8946:1 9474:1 9572:1 10000:1 10657:1 10871:1 10888:1 11565:1 11883:1 12537:1 13101:1 13129:1 13281:1 14074:1 14452:1 15670:1 16143:1 16218:1 16227:1 19738:1 20497:1 21306:1 22424:1 22537:1 22756:1 22813:1 22842:1 23120:1 23724:1 26343:1 26938:1 30462:1 31394:1 32267:1 32655:1 32939:1 34648:1 35037:1 36244:1 36757:1 37936:1 40843:1 41459:1 43583:1 49399:1 52153:1 52161:1 52165:1 52168:1 54769:1 57887:1 58986:1 60864:1 61859:1 64078:1 
0.13718913142244279 9:1 11:1 12:1 13:1 14:1 15:1 16:1 17:1 20:1 22:1 24:1 26:1 27:1 28:1 29:1 64:1 66:1 72:1 79:1 81:1 178:1 248:1 268:1 277:1 303:1 325:1 360:1 393:1 424:1 428:1 438:1 457:1 522:1 592:1 595:1 673:1 701:1 711:1 712:1 725:1 731:1 737:1 758:1 768:1 812:1 816:1 817:1 1160:1 1228:1 1335:1 1449:1 1506:1 1509:1 2144:1 3064:1 3068:1 3305:1 4041:1 4517:1 4895:1 5311:1 5378:1 5867:1 6597:1 7532:1 7629:1 8670:1 8998:1 9182:1 9201:1 9474:1 9572:1 10000:1 10657:1 10726:1 10734:1 13310:1 13879:1 14749:1 15670:1 16143:1 16181:1 18334:1 22890:1 22937:1 27819:1 29855:1 33357:1 33693:1 36292:1 38848:1 43472:1 48088:1 49748:1 50711:1 52171:1 54789:1 57887:1 58315:1 
0.096355646357186561 4:1 6:1 9:1 10:1 11:1 12:1 13:1 14:1 15:1 16:1 17:1 19:1 20:1 21:1 22:1 23:1 26:1 27:1 28:1 29:1 30:1 34:1 39:1 60:1 61:1 62:1 64:1 65:1 66:1 67:1 69:1 71:1 72:1 78:1 82:1 132:1 161:1 187:1 194:1 195:1 196:1 220:1 248:1 268:1 273:1 277:1 303:1 316:1 318:1 321:1 325:1 357:1 379:1 392:1 403:1 438:1 450:1 456:1 457:1 462:1 494:1 504:1 517:1 533:1 547:1 552:1 570:1 585:1 593:1 595:1 613:1 626:1 641:1 688:1 693:1 696:1 697:1 725:1 727:1 729:1 731:1 737:1 747:1 789:1 795:1 843:1 934:1 946:1 987:1 1083:1 1097:1 1119:1 1156:1 1160:1 1195:1 1199:1 1226:1 1253:1 1291:1 1297:1 1316:1 1326:1 1345:1 1431:1 1521:1 1943:1 2329:1 2458:1 2511:1 2514:1 2761:1 3044:1 3266:1 3305:1 3845:1 3861:1 3885:1 3954:1 4018:1 4442:1 4670:1 4688:1 4876:1 5702:1 5832:1 5845:1 5885:1 5957:1 5959:1 5975:1 6295:1 6391:1 6404:1 6792:1 7028:1 7264:1 7564:1 7615:1 7906:1 8044:1 8314:1 8319:1 8829:1 8866:1 8905:1 9414:1 9447:1 9474:1 9572:1 9714:1 10301:1 10959:1 11624:1 12019:1 12793:1 13019:1 13284:1 13310:1 13626:1 13659:1 13857:1 14074:1 14397:1 14452:1 14463:1 14611:1 14663:1 14866:1 15501:1 16276:1 17719:1 19332:1 20644:1 21755:1 23751:1 26507:1 26631:1 29590:1 30462:1 31394:1 35299:1 36138:1 36428:1 36749:1 36757:1 36856:1 37889:1 38253:1 38328:1 40910:1 41900:1 43383:1 44756:1 45151:1 46517:1 48676:1 49132:1 51832:1 52036:1 52153:1 53407:1 59254:1 61056:1 62343:1 
0.80546092930058877 9:1 10:1 11:1 12:1 13:1 16:1 17:1 20:1 21:1 22:1 23:1 24:1 26:1 27:1 28:1 29:1 31:1 34:1 61:1 62:1 64:1 73:1 76:1 78:1 83:1 187:1 189:1 193:1 196:1 216:1 248:1 268:1 277:1 303:1 316:1 325:1 327:1 333:1 422:1 438:1 446:1 522:1 540:1 557:1 593:1 643:1 668:1 696:1 707:1 711:1 725:1 758:1 772:1 795:1 862:1 942:1 1097:1 1106:1 1116:1 1160:1 1350:1 1415:1 1434:1 1531:1 2336:1 2377:1 2448:1 2514:1 2709:1 3062:1 3305:1 3850:1 4026:1 4081:1 4192:1 5256:1 5610:1 6606:1 6901:1 7103:1 7584:1 8378:1 8615:1 8866:1 9128:1 9173:1 10058:1 11070:1 11559:1 12797:1 12901:1 12998:1 13310:1 14907:1 15387:1 15549:1 16336:1 19397:1 19699:1 20210:1 21573:1 22852:1 26354:1 27568:1 28677:1 33047:1 34774:1 38929:1 41229:1 43217:1 46959:1 47827:1 50453:1 59597:1 60811:1 
0.034991182705090287 3:1 9:1 11:1 12:1 13:1 14:1 15:1 16:1 17:1 20:1 21:1 22:1 23:1 26:1 27:1 28:1 29:1 30:1 31:1 32:1 64:1 66:1 72:1 79:1 81:1 82:1 83:1 94:1 178:1 193:1 199:1 248:1 268:1 269:1 281:1 303:1 326:1 346:1 379:1 413:1 428:1 448:1 450:1 462:1 522:1 542:1 552:1 592:1 641:1 688:1 701:1 725:1 731:1 737:1 758:1 784:1 811:1 812:1 817:1 843:1 858:1 899:1 1154:1 1164:1 1218:1 1335:1 1343:1 1455:1 1506:1 1521:1 1528:1 1639:1 2144:1 2438:1 2573:1 3053:1 3068:1 3204:1 3387:1 4056:1 4301:1 4670:1 5099:1 5371:1 5643:1 5702:1 5954:1 6597:1 6971:1 7532:1 8314:1 8989:1 9474:1 9581:1 10263:1 10626:1 10657:1 10739:1 10959:1 11043:1 11301:1 13237:1 13378:1 13803:1 14749:1 14849:1 15732:1 16143:1 16276:1 16319:1 16859:1 18322:1 20115:1 20976:1 22743:1 22932:1 23428:1 24352:1 27981:1 29048:1 35299:1 38848:1 40730:1 49644:1 52174:1 52767:1 56107:1 57887:1 58404:1 59254:1 59477:1 60222:1 
0.14796535017636309 9:1 10:1 11:1 12:1 13:1 14:1 15:1 16:1 17:1 20:1 21:1 22:1 23:1 26:1 27:1 28:1 29:1 30:1 50:1 61:1 64:1 65:1 66:1 74:1 79:1 82:1 188:1 196:1 216:1 220:1 248:1 268:1 277:1 281:1 303:1 308:1 309:1 311:1 316:1 320:1 321:1 355:1 369:1 379:1 413:1 438:1 446:1 448:1 450:1 455:1 464:1 525:1 530:1 552:1 576:1 593:1 608:1 620:1 641:1 694:1 712:1 737:1 748:1 758:1 765:1 768:1 775:1 784:1 794:1 795:1 802:1 811:1 843:1 1060:1 1106:1 1160:1 1164:1 1195:1 1198:1 1224:1 1370:1 1455:1 1466:1 1521:1 2363:1 2514:1 2687:1 2690:1 2760:1 3053:1 3305:1 3375:1 3377:1 3389:1 3679:1 3693:1 3722:1 3854:1 3925:1 3975:1 4426:1 4685:1 5099:1 5610:1 5660:1 5694:1 5702:1 5808:1 6030:1 6652:1 6751:1 7347:1 7567:1 7824:1 7838:1 8334:1 8837:1 9205:1 9572:1 9765:1 9772:1 9955:1 9981:1 10112:1 10255:1 10376:1 10471:1 10626:1 10943:1 12532:1 12901:1 13310:1 13366:1 13622:1 13643:1 13851:1 15066:1 15726:1 15843:1 15847:1 16261:1 19598:1 21341:1 21362:1 21741:1 22743:1 24277:1 24283:1 24384:1 25409:1 25478:1 26398:1 27322:1 27334:1 29546:1 30447:1 34766:1 35081:1 35308:1 35902:1 37196:1 39177:1 39649:1 42181:1 43060:1 44471:1 46682:1 48737:1 50831:1 53782:1 53846:1 54536:1 55330:1 56068:1 56581:1 56988:1 64050:1 
0.36567352648685231 4:1 9:1 11:1 12:1 13:1 15:1 16:1 17:1 18:1 20:1 21:1 26:1 27:1 61:1 64:1 67:1 69:1 70:1 79:1 124:1 187:1 193:1 248:1 281:1 303:1 311:1 312:1 315:1 325:1 392:1 403:1 420:1 438:1 448:1 456:1 462:1 476:1 530:1 540:1 561:1 569:1 688:1 705:1 725:1 727:1 731:1 733:1 1097:1 1164:1 1253:1 1297:1 1305:1 1449:1 1877:1 2336:1 2442:1 3044:1 3060:1 3370:1 3375:1 3732:1 3748:1 3819:1 4018:1 4872:1 5218:1 5643:1 5844:1 5955:1 5959:1 6155:1 6761:1 6901:1 7148:1 7159:1 7242:1 9064:1 9408:1 9474:1 9505:1 12797:1 13366:1 14072:1 14450:1 14452:1 14521:1 15670:1 17582:1 19397:1 20157:1 22834:1 24271:1 25703:1 31359:1 32826:1 36125:1 36731:1 36757:1 37517:1 39741:1 41400:1 41488:1 41840:1 50059:1 51812:1 52153:1 52167:1 52322:1 
0.011547791166335345 9:1 10:1 11:1 12:1 13:1 14:1 15:1 16:1 17:1 20:1 21:1 22:1 23:1 26:1 27:1 28:1 29:1 34:1 49:1 61:1 62:1 64:1 65:1 67:1 75:1 78:1 79:1 80:1 81:1 86:1 171:1 188:1 189:1 196:1 216:1 220:1 248:1 268:1 273:1 277:1 303:1 312:1 314:1 316:1 319:1 321:1 325:1 326:1 346:1 369:1 379:1 383:1 417:1 422:1 438:1 450:1 452:1 455:1 457:1 462:1 463:1 517:1 535:1 552:1 585:1 592:1 593:1 594:1 597:1 602:1 608:1 613:1 627:1 688:1 700:1 711:1 725:1 731:1 733:1 748:1 749:1 768:1 772:1 782:1 793:1 795:1 811:1 812:1 942:1 957:1 1022:1 1098:1 1099:1 1106:1 1119:1 1156:1 1195:1 1240:1 1244:1 1390:1 1432:1 1449:1 1467:1 1478:1 1506:1 1580:1 2346:1 2370:1 2514:1 2703:1 2765:1 3062:1 3247:1 3324:1 3748:1 3756:1 3799:1 3859:1 3861:1 3911:1 3962:1 4018:1 4041:1 4072:1 4300:1 4685:1 4689:1 4772:1 5178:1 5256:1 5694:1 5750:1 5803:1 5885:1 5954:1 6005:1 6842:1 7532:1 7570:1 7593:1 7644:1 7736:1 7836:1 7902:1 8058:1 8969:1 9179:1 9474:1 9502:1 9771:1 9788:1 9992:1 10067:1 10195:1 10353:1 10626:1 10657:1 10666:1 11561:1 11761:1 12170:1 12802:1 12820:1 12901:1 13023:1 13266:1 13626:1 13953:1 14004:1 15193:1 15519:1 15670:1 15858:1 15947:1 16143:1 16632:1 21486:1 21786:1 22852:1 24034:1 25801:1 26031:1 26448:1 26507:1 26835:1 27192:1 27816:1 28129:1 29041:1 30439:1 30499:1 30889:1 32613:1 33036:1 36426:1 37058:1 40164:1 43085:1 43290:1 43975:1 44455:1 44726:1 45227:1 49536:1 50690:1 52169:1 52282:1 53827:1 53912:1 54682:1 55099:1 56498:1 57887:1 57999:1 60832:1 61499:1 62873:1 
0.1395305863722151 9:1 10:1 11:1 12:1 13:1 15:1 16:1 17:1 22:1 23:1 26:1 27:1 28:1 29:1 31:1 34:1 49:1 61:1 63:1 67:1 80:1 86:1 177:1 194:1 196:1 229:1 248:1 287:1 303:1 311:1 315:1 327:1 379:1 383:1 403:1 409:1 413:1 422:1 438:1 450:1 593:1 597:1 626:1 641:1 697:1 707:1 725:1 731:1 758:1 781:1 783:1 795:1 881:1 959:1 1036:1 1087:1 1106:1 1138:1 1240:1 1483:1 1582:1 2129:1 2458:1 2514:1 2849:1 3049:1 3053:1 3062:1 3453:1 3737:1 3819:1 4102:1 4680:1 4753:1 5063:1 5107:1 5256:1 5260:1 5706:1 7584:1 7653:1 8044:1 8320:1 8893:1 9111:1 9474:1 10187:1 10224:1 11212:1 11784:1 12321:1 12678:1 12901:1 13161:1 13948:1 16003:1 16651:1 18229:1 22156:1 22718:1 22751:1 22852:1 22853:1 24635:1 25731:1 28301:1 30374:1 32053:1 32220:1 33047:1 33068:1 35339:1 43227:1 43602:1 45166:1 46539:1 50274:1 52161:1 52169:1 55677:1 60058:1 61607:1 63335:1 
0.060208747919467648 9:1 12:1 13:1 14:1 15:1 16:1 17:1 20:1 23:1 26:1 27:1 28:1 29:1 30:1 34:1 50:1 65:1 66:1 69:1 79:1 82:1 182:1 183:1 187:1 193:1 277:1 303:1 308:1 327:1 368:1 369:1 379:1 420:1 438:1 447:1 450:1 522:1 530:1 635:1 641:1 688:1 693:1 713:1 733:1 743:1 747:1 789:1 817:1 843:1 946:1 1060:1 1185:1 1232:1 1283:1 1461:1 1521:1 2217:1 2256:1 2326:1 2430:1 3308:1 3678:1 4107:1 4592:1 4670:1 5210:1 5625:1 5702:1 6600:1 6609:1 6744:1 8194:1 8335:1 8816:1 9250:1 9517:1 9667:1 9720:1 10311:1 10753:1 10959:1 11624:1 12529:1 13912:1 14317:1 15787:1 16276:1 18885:1 19300:1 20017:1 23907:1 25398:1 28345:1 30056:1 32773:1 34837:1 35299:1 38873:1 38952:1 45762:1 46711:1 48536:1 51130:1 52474:1 53170:1 53464:1 56330:1 58517:1 59274:1 61056:1 
0.016243434511511865 9:1 10:1 11:1 12:1 13:1 14:1 15:1 16:1 17:1 20:1 22:1 27:1 28:1 29:1 65:1 66:1 72:1 79:1 187:1 212:1 248:1 268:1 281:1 303:1 311:1 314:1 321:1 326:1 360:1 369:1 379:1 394:1 429:1 448:1 450:1 517:1 525:1 533:1 542:1 595:1 608:1 730:1 731:1 737:1 782:1 803:1 810:1 812:1 1199:1 1228:1 1343:1 1455:1 2329:1 2644:1 3069:1 3377:1 3722:1 3799:1 3975:1 4055:1 4508:1 4676:1 4925:1 5413:1 5643:1 5717:1 6652:1 6792:1 6961:1 7607:1 7844:1 9455:1 9474:1 9579:1 10200:1 10492:1 10500:1 10605:1 10660:1 13673:1 13871:1 14840:1 15731:1 19332:1 21179:1 22970:1 24293:1 26020:1 27340:1 27973:1 29825:1 30340:1 31592:1 33906:1 35433:1 39177:1 40665:1 44504:1 52074:1 52175:1 52743:1 55771:1 57056:1 57132:1 57615:1 57929:1 
0.13309906536207441 9:1 11:1 12:1 13:1 14:1 16:1 17:1 21:1 26:1 27:1 28:1 29:1 39:1 64:1 66:1 69:1 81:1 193:1 248:1 281:1 326:1 346:1 428:1 438:1 557:1 582:1 705:1 731:1 758:1 811:1 970:1 1164:1 1218:1 1278:1 1505:1 2442:1 3068:1 3370:1 4056:1 4301:1 5371:1 7103:1 7414:1 9078:1 9474:1 10629:1 13362:1 13803:1 16120:1 20168:1 22932:1 27981:1 29048:1 41225:1 50124:1 52174:1 57719:1 
1 9:1 13:1 15:1 17:1 20:1 21:1 26:1 27:1 28:1 31:1 61:1 65:1 69:1 83:1 187:1 314:1 325:1 326:1 369:1 456:1 462:1 526:1 533:1 561:1 569:1 688:1 725:1 747:1 748:1 758:1 862:1 1097:1 1203:1 1291:1 1297:1 1531:1 2329:1 3794:1 4018:1 4051:1 5844:1 5975:1 6689:1 6800:1 7159:1 7242:1 9734:1 9742:1 11063:1 12793:1 13684:1 14402:1 14463:1 16330:1 19338:1 36125:1 36873:1 39386:1 39976:1 41488:1 41840:1 53556:1 59515:1 
0.064674543050117897 9:1 10:1 11:1 12:1 13:1 14:1 15:1 16:1 17:1 20:1 21:1 22:1 23:1 26:1 27:1 28:1 34:1 39:1 49:1 50:1 61:1 62:1 65:1 66:1 67:1 69:1 73:1 74:1 79:1 183:1 187:1 188:1 193:1 212:1 216:1 248:1 268:1 303:1 316:1 319:1 325:1 368:1 379:1 387:1 392:1 403:1 410:1 421:1 438:1 444:1 446:1 450:1 462:1 522:1 530:1 533:1 552:1 571:1 576:1 582:1 589:1 593:1 608:1 618:1 641:1 649:1 688:1 697:1 699:1 706:1 710:1 725:1 731:1 737:1 742:1 743:1 748:1 758:1 768:1 772:1 946:1 987:1 1024:1 1060:1 1098:1 1116:1 1185:1 1203:1 1232:1 1253:1 1297:1 1364:1 1383:1 1445:1 1461:1 1466:1 2257:1 2318:1 2346:1 2363:1 2426:1 2649:1 2703:1 3044:1 3050:1 3850:1 3909:1 4018:1 4036:1 4040:1 4592:1 4670:1 4812:1 4876:1 4881:1 5071:1 5235:1 5572:1 5610:1 5710:1 5715:1 5959:1 6605:1 6755:1 6804:1 7288:1 7342:1 7426:1 7491:1 7582:1 7836:1 7956:1 8322:1 8466:1 8903:1 8946:1 9088:1 9155:1 9474:1 9572:1 9643:1 9679:1 9750:1 9994:1 10067:1 11618:1 12026:1 12177:1 12529:1 12802:1 12992:1 13701:1 13912:1 14074:1 14452:1 15015:1 15159:1 15798:1 15836:1 18907:1 19218:1 19593:1 21205:1 21502:1 22723:1 26354:1 26805:1 27744:1 27794:1 30056:1 31061:1 31394:1 31425:1 32106:1 34532:1 34764:1 35365:1 35403:1 36757:1 38921:1 39699:1 40000:1 41993:1 42392:1 42577:1 43174:1 44455:1 44924:1 46568:1 47289:1 49111:1 49388:1 50174:1 50589:1 52153:1 53101:1 53241:1 53663:1 54711:1 55107:1 61027:1 62406:1 
0.0023972586136392 9:1 11:1 12:1 13:1 14:1 15:1 16:1 17:1 20:1 22:1 23:1 26:1 27:1 28:1 29:1 31:1 34:1 67:1 68:1 79:1 81:1 83:1 181:1 193:1 194:1 248:1 268:1 281:1 303:1 322:1 327:1 350:1 359:1 379:1 383:1 391:1 392:1 393:1 409:1 413:1 417:1 428:1 444:1 446:1 448:1 457:1 458:1 461:1 536:1 585:1 592:1 595:1 630:1 635:1 637:1 649:1 693:1 712:1 731:1 735:1 736:1 743:1 748:1 758:1 778:1 782:1 784:1 802:1 812:1 858:1 866:1 946:1 1240:1 1264:1 1461:1 1466:1 1506:1 1528:1 1533:1 2203:1 2211:1 2449:1 2466:1 3049:1 3057:1 3068:1 3372:1 3991:1 4081:1 4360:1 4494:1 4686:1 4760:1 4856:1 4870:1 4903:1 5051:1 5121:1 5172:1 5182:1 5371:1 5577:1 5610:1 5643:1 5867:1 5897:1 5946:1 6855:1 7532:1 7629:1 8118:1 8123:1 8208:1 8247:1 8466:1 8814:1 9201:1 9222:1 9474:1 9551:1 9562:1 9679:1 9765:1 10154:1 10200:1 10204:1 10255:1 10471:1 10657:1 11039:1 11095:1 11631:1 13954:1 14188:1 15798:1 15843:1 16143:1 16315:1 16354:1 18572:1 18632:1 20222:1 20331:1 22707:1 22804:1 22932:1 24261:1 27409:1 29267:1 29785:1 30454:1 30796:1 31228:1 31353:1 31521:1 31947:1 32381:1 32571:1 32656:1 34594:1 34779:1 36292:1 36469:1 36708:1 40214:1 43476:1 45467:1 45486:1 45874:1 47292:1 48505:1 50933:1 52157:1 52165:1 52619:1 52682:1 53241:1 53782:1 55490:1 55771:1 55803:1 56068:1 56982:1 57887:1 59461:1 59743:1 61096:1 
0.0242043922829633 9:1 11:1 12:1 13:1 15:1 16:1 17:1 18:1 20:1 21:1 22:1 23:1 24:1 26:1 27:1 28:1 29:1 50:1 69:1 70:1 72:1 74:1 76:1 80:1 90:1 183:1 189:1 248:1 268:1 277:1 293:1 303:1 311:1 325:1 326:1 379:1 383:1 426:1 428:1 438:1 444:1 450:1 456:1 457:1 458:1 463:1 475:1 476:1 522:1 552:1 585:1 592:1 593:1 597:1 602:1 608:1 637:1 642:1 673:1 688:1 701:1 707:1 725:1 731:1 737:1 740:1 758:1 772:1 784:1 794:1 812:1 818:1 1061:1 1067:1 1291:1 1292:1 1304:1 1305:1 1335:1 1372:1 1419:1 1492:1 1623:1 2261:1 2376:1 2377:1 3068:1 3325:1 3558:1 3729:1 4018:1 4031:1 4051:1 4688:1 4753:1 5318:1 5382:1 5574:1 5702:1 5706:1 5832:1 5865:1 5874:1 5899:1 6007:1 6134:1 6155:1 6606:1 7532:1 7556:1 7564:1 7582:1 7653:1 7724:1 7824:1 8247:1 8345:1 8672:1 8985:1 8998:1 9127:1 9474:1 9581:1 9620:1 10075:1 10080:1 10269:1 10380:1 10671:1 10772:1 12564:1 12566:1 12624:1 14397:1 14413:1 14504:1 14521:1 14757:1 15093:1 15421:1 16064:1 16809:1 18946:1 19660:1 19679:1 19697:1 22941:1 24062:1 25039:1 25693:1 27661:1 27674:1 30472:1 33730:1 34562:1 35309:1 35339:1 36260:1 36337:1 36472:1 37111:1 37474:1 37516:1 38928:1 43009:1 43174:1 43184:1 43598:1 43911:1 46768:1 48108:1 49603:1 49752:1 50432:1 52174:1 52770:1 52990:1 55182:1 55216:1 56167:1 56605:1 58027:1 58626:1 64213:1 64221:1 64408:1 
0.12867834335685427 9:1 10:1 11:1 13:1 15:1 16:1 17:1 19:1 20:1 22:1 26:1 27:1 28:1 31:1 50:1 62:1 69:1 72:1 83:1 90:1 189:1 216:1 248:1 309:1 318:1 321:1 325:1 369:1 403:1 426:1 438:1 450:1 451:1 452:1 462:1 490:1 526:1 597:1 602:1 607:1 608:1 688:1 701:1 725:1 731:1 751:1 758:1 862:1 866:1 1048:1 1116:1 1287:1 1297:1 1336:1 1531:1 1616:1 2386:1 2696:1 2699:1 2703:1 3044:1 3693:1 3878:1 3965:1 3974:1 4018:1 5329:1 5694:1 5741:1 5770:1 5954:1 5959:1 6262:1 6673:1 7653:1 7736:1 7818:1 7824:1 8982:1 9474:1 9809:1 11068:1 11091:1 12386:1 12985:1 14360:1 14452:1 14769:1 16335:1 16773:1 19789:1 21423:1 21475:1 21486:1 25484:1 26604:1 27220:1 27319:1 33429:1 35533:1 35689:1 36757:1 37776:1 39255:1 43594:1 43971:1 44364:1 52153:1 54006:1 59584:1 59704:1 63521:1 
0.029374307643968665 9:1 10:1 11:1 12:1 13:1 15:1 16:1 17:1 21:1 22:1 24:1 26:1 27:1 28:1 29:1 50:1 61:1 64:1 69:1 79:1 81:1 90:1 182:1 193:1 196:1 212:1 216:1 248:1 268:1 281:1 303:1 325:1 369:1 403:1 424:1 448:1 456:1 462:1 552:1 592:1 683:1 688:1 693:1 694:1 731:1 764:1 795:1 812:1 818:1 1048:1 1060:1 1106:1 1164:1 1291:1 1297:1 1449:1 1506:1 1616:1 2217:1 2426:1 2514:1 2533:1 2649:1 2703:1 3044:1 3064:1 3375:1 4023:1 5316:1 5643:1 5832:1 5959:1 7532:1 8774:1 8829:1 8836:1 9474:1 9933:1 10657:1 10765:1 12386:1 12532:1 12915:1 13366:1 14397:1 14452:1 15670:1 16143:1 16773:1 20844:1 21205:1 21490:1 22895:1 24271:1 27542:1 33370:1 36757:1 48379:1 48676:1 48734:1 52153:1 52171:1 54344:1 57887:1 58591:1 63521:1 64049:1 
0.049071803501412443 3:1 9:1 10:1 11:1 12:1 13:1 14:1 15:1 16:1 22:1 23:1 26:1 27:1 28:1 29:1 34:1 61:1 64:1 67:1 79:1 86:1 114:1 171:1 177:1 216:1 248:1 268:1 269:1 277:1 321:1 325:1 327:1 355:1 380:1 428:1 592:1 641:1 688:1 696:1 697:1 711:1 729:1 731:1 733:1 758:1 817:1 942:1 1087:1 1154:1 1241:1 1451:1 1565:1 1834:1 2117:1 2703:1 3068:1 3224:1 3324:1 3960:1 4018:1 4027:1 4041:1 4081:1 4426:1 4704:1 5371:1 7532:1 8319:1 8873:1 8914:1 9177:1 9428:1 9474:1 9511:1 10737:1 11565:1 12666:1 13257:1 13967:1 15693:1 16516:1 17475:1 18139:1 21486:1 22932:1 23594:1 24041:1 27145:1 27603:1 27814:1 29539:1 30571:1 46522:1 48925:1 49231:1 50683:1 52174:1 52400:1 58381:1 60881:1 
0.019717135626321259 9:1 12:1 13:1 15:1 17:1 20:1 21:1 22:1 23:1 26:1 27:1 30:1 31:1 34:1 64:1 74:1 78:1 82:1 83:1 86:1 182:1 187:1 268:1 277:1 303:1 316:1 325:1 379:1 438:1 461:1 462:1 526:1 557:1 603:1 620:1 630:1 641:1 642:1 696:1 705:1 707:1 715:1 725:1 747:1 843:1 858:1 862:1 866:1 952:1 959:1 1160:1 1373:1 1434:1 1521:1 1528:1 1533:1 1575:1 1582:1 2223:1 2322:1 3305:1 3845:1 4045:1 4670:1 5932:1 5954:1 6688:1 7099:1 7760:1 8114:1 8328:1 8359:1 8866:1 9062:1 9127:1 9269:1 9713:1 10943:1 11030:1 11065:1 11095:1 11096:1 11686:1 11778:1 13310:1 15119:1 15548:1 16261:1 16307:1 16354:1 16592:1 16645:1 18680:1 19273:1 27891:1 36604:1 39382:1 41174:1 44106:1 45434:1 46621:1 46839:1 50046:1 50441:1 51239:1 59393:1 59537:1 59737:1 59744:1 61264:1 61566:1 
0.1033575976224321 9:1 11:1 12:1 13:1 14:1 16:1 17:1 18:1 20:1 22:1 23:1 26:1 27:1 28:1 29:1 34:1 50:1 61:1 64:1 66:1 69:1 70:1 79:1 171:1 187:1 248:1 268:1 293:1 327:1 357:1 358:1 403:1 420:1 438:1 452:1 476:1 536:1 541:1 592:1 629:1 724:1 731:1 758:1 764:1 789:1 795:1 956:1 1058:1 1097:1 1176:1 1226:1 1288:1 1305:1 1449:1 2337:1 3044:1 3060:1 3543:1 4107:1 4451:1 4456:1 5223:1 5750:1 6166:1 6854:1 6930:1 7532:1 8105:1 9372:1 9474:1 9924:1 10320:1 11729:1 12513:1 12798:1 13494:1 13865:1 14365:1 14532:1 15670:1 19412:1 22835:1 28352:1 29661:1 29672:1 32846:1 37556:1 40206:1 40511:1 45402:1 51650:1 52153:1 52167:1 56368:1 63958:1 
0.034875782291422998 9:1 10:1 11:1 12:1 13:1 14:1 15:1 16:1 17:1 19:1 20:1 21:1 22:1 23:1 24:1 26:1 27:1 28:1 29:1 31:1 34:1 39:1 49:1 50:1 61:1 62:1 64:1 66:1 67:1 68:1 69:1 74:1 76:1 79:1 81:1 83:1 177:1 178:1 180:1 187:1 193:1 196:1 216:1 226:1 228:1 245:1 248:1 268:1 277:1 303:1 309:1 311:1 315:1 321:1 325:1 338:1 342:1 358:1 360:1 368:1 392:1 393:1 409:1 413:1 422:1 435:1 448:1 454:1 456:1 458:1 463:1 486:1 508:1 517:1 524:1 530:1 533:1 552:1 592:1 597:1 599:1 603:1 615:1 618:1 620:1 634:1 635:1 637:1 638:1 641:1 643:1 663:1 665:1 671:1 688:1 699:1 712:1 713:1 717:1 733:1 743:1 744:1 748:1 758:1 764:1 769:1 772:1 786:1 795:1 804:1 812:1 817:1 858:1 872:1 942:1 975:1 987:1 1024:1 1034:1 1060:1 1087:1 1106:1 1124:1 1160:1 1214:1 1228:1 1232:1 1253:1 1262:1 1275:1 1291:1 1373:1 1382:1 1383:1 1417:1 1462:1 1499:1 1506:1 1538:1 2117:1 2143:1 2186:1 2315:1 2329:1 2454:1 2514:1 2690:1 2703:1 2821:1 2840:1 3027:1 3062:1 3305:1 3699:1 3722:1 3825:1 3960:1 4018:1 4042:1 4242:1 4249:1 4457:1 4516:1 4592:1 4882:1 4895:1 5050:1 5099:1 5277:1 5489:1 5664:1 5781:1 5832:1 5899:1 5988:1 5996:1 6462:1 6637:1 6768:1 6798:1 7532:1 7651:1 7693:1 7762:1 7929:1 7956:1 7963:1 8179:1 8202:1 8259:1 8285:1 8322:1 8375:1 8549:1 8604:1 8639:1 8959:1 9201:1 9250:1 9297:1 9505:1 9672:1 9688:1 9767:1 9937:1 10009:1 10071:1 10075:1 10279:1 10506:1 10524:1 10657:1 10663:1 10754:1 11038:1 11122:1 11550:1 11870:1 12016:1 12177:1 12289:1 12529:1 12666:1 12901:1 13068:1 13310:1 13775:1 13878:1 13912:1 14076:1 14152:1 14272:1 14397:1 15121:1 15148:1 15159:1 15403:1 15806:1 16082:1 16099:1 16143:1 16364:1 18139:1 18312:1 18511:1 19336:1 20270:1 21362:1 21486:1 21982:1 22115:1 22645:1 22860:1 25523:1 26178:1 27145:1 27838:1 28785:1 28822:1 29675:1 29850:1 30056:1 31429:1 31939:1 33156:1 34212:1 35114:1 36477:1 36938:1 37009:1 38549:1 39118:1 39805:1 39956:1 43586:1 43804:1 44123:1 44841:1 44924:1 44952:1 45830:1 46185:1 46335:1 46577:1 46938:1 47795:1 47911:1 49472:1 51131:1 51312:1 52327:1 53214:1 53289:1 53798:1 54385:1 54855:1 55128:1 55182:1 56205:1 57282:1 57887:1 57979:1 58544:1 59456:1 61790:1 62316:1 63233:1 
0.0096162068480355033 9:1 10:1 11:1 12:1 13:1 15:1 16:1 17:1 19:1 20:1 22:1 26:1 27:1 28:1 30:1 31:1 64:1 65:1 67:1 68:1 71:1 79:1 82:1 171:1 189:1 216:1 248:1 273:1 277:1 290:1 311:1 316:1 319:1 321:1 325:1 327:1 379:1 413:1 431:1 438:1 490:1 494:1 523:1 592:1 599:1 688:1 693:1 711:1 731:1 733:1 758:1 835:1 862:1 1173:1 1203:1 1240:1 1264:1 1316:1 1451:1 1516:1 2383:1 2703:1 3071:1 3263:1 3326:1 3474:1 3725:1 3845:1 3899:1 3960:1 4018:1 4041:1 4081:1 4676:1 5121:1 5432:1 6246:1 6295:1 6621:1 7541:1 7678:1 8806:1 9177:1 9474:1 9509:1 10907:1 11068:1 13448:1 13684:1 13944:1 14188:1 14611:1 15691:1 16236:1 19754:1 21486:1 22986:1 23725:1 24086:1 24703:1 25671:1 26686:1 27150:1 27814:1 30341:1 32381:1 34011:1 37889:1 39055:1 42882:1 43716:1 50683:1 52177:1 52364:1 59055:1 59581:1 
0.012668876904334873 10:1 11:1 12:1 13:1 14:1 15:1 16:1 17:1 20:1 26:1 27:1 28:1 29:1 50:1 62:1 64:1 66:1 79:1 216:1 231:1 248:1 268:1 281:1 303:1 311:1 316:1 319:1 368:1 393:1 403:1 420:1 446:1 447:1 450:1 526:1 697:1 737:1 758:1 816:1 819:1 1054:1 1116:1 1126:1 1153:1 1232:1 1455:1 2697:1 2900:1 3044:1 3377:1 3722:1 3851:1 3902:1 4588:1 4895:1 5214:1 5610:1 5629:1 5716:1 6675:1 6680:1 8893:1 9577:1 10712:1 10800:1 12477:1 12986:1 13095:1 13909:1 15729:1 21437:1 22334:1 24292:1 26362:1 26726:1 30049:1 32794:1 34758:1 34866:1 35417:1 39266:1 39305:1 52731:1 58197:1 58767:1 63874:1 
0.020383435725536362 9:1 11:1 13:1 15:1 16:1 17:1 19:1 20:1 21:1 22:1 26:1 27:1 28:1 29:1 31:1 50:1 68:1 69:1 72:1 189:1 250:1 325:1 393:1 396:1 429:1 450:1 452:1 455:1 456:1 486:1 522:1 526:1 530:1 552:1 595:1 607:1 688:1 724:1 746:1 758:1 812:1 866:1 1049:1 1273:1 1291:1 1335:1 1339:1 2379:1 3093:1 4018:1 4895:1 4944:1 5415:1 5716:1 5764:1 5809:1 5832:1 6606:1 6688:1 6755:1 7632:1 7813:1 9363:1 9712:1 10670:1 11091:1 12395:1 14253:1 14397:1 14757:1 14797:1 19726:1 31661:1 33931:1 35417:1 35646:1 35924:1 38930:1 39362:1 39700:1 43497:1 44319:1 51599:1 53401:1 58022:1 59700:1 63549:1 
0.011750244366144242 9:1 10:1 11:1 12:1 13:1 14:1 15:1 16:1 17:1 19:1 20:1 21:1 22:1 23:1 24:1 26:1 27:1 28:1 29:1 34:1 39:1 50:1 65:1 66:1 67:1 73:1 75:1 79:1 80:1 81:1 178:1 189:1 193:1 212:1 248:1 268:1 277:1 316:1 319:1 321:1 325:1 338:1 359:1 360:1 382:1 413:1 422:1 424:1 428:1 435:1 437:1 438:1 457:1 462:1 494:1 517:1 561:1 585:1 590:1 592:1 597:1 599:1 602:1 607:1 608:1 613:1 627:1 631:1 637:1 671:1 688:1 695:1 701:1 711:1 713:1 718:1 725:1 729:1 731:1 758:1 764:1 768:1 781:1 783:1 791:1 795:1 804:1 812:1 816:1 957:1 970:1 993:1 1052:1 1067:1 1195:1 1203:1 1228:1 1243:1 1353:1 1390:1 1394:1 1449:1 1483:1 1499:1 1506:1 1508:1 2144:1 2370:1 2438:1 2649:1 3053:1 3064:1 3068:1 3075:1 3324:1 3861:1 3864:1 3894:1 3970:1 3974:1 4018:1 4025:1 4475:1 4517:1 4752:1 5116:1 5260:1 5310:1 5378:1 5477:1 5533:1 5885:1 5959:1 6297:1 7151:1 7508:1 7532:1 7644:1 7681:1 7722:1 7792:1 7828:1 7917:1 8058:1 8143:1 8270:1 8641:1 8858:1 8982:1 9175:1 9246:1 9334:1 9433:1 9474:1 9939:1 9996:1 10192:1 10248:1 10329:1 10506:1 10657:1 10663:1 10725:1 10727:1 11747:1 12094:1 12451:1 12617:1 13626:1 13687:1 13879:1 13986:1 14930:1 15193:1 15216:1 15670:1 16006:1 16082:1 16143:1 16178:1 18339:1 20111:1 21214:1 22760:1 22889:1 22937:1 23011:1 24034:1 26507:1 26527:1 27255:1 27295:1 27564:1 29856:1 30773:1 32327:1 33064:1 33353:1 33692:1 34423:1 36433:1 36757:1 37900:1 41436:1 42733:1 43744:1 43904:1 44399:1 44799:1 45227:1 45580:1 46272:1 47934:1 48859:1 50667:1 51098:1 51502:1 51887:1 52171:1 52174:1 54413:1 54751:1 55726:1 56039:1 57887:1 57972:1 58304:1 58334:1 62718:1 63787:1 64354:1 
0.090121113915020909 3:1 9:1 13:1 15:1 16:1 22:1 26:1 27:1 28:1 34:1 50:1 65:1 67:1 68:1 86:1 107:1 194:1 303:1 325:1 327:1 382:1 409:1 413:1 619:1 688:1 725:1 733:1 747:1 748:1 758:1 782:1 935:1 1061:1 1203:1 1243:1 1264:1 1560:1 1765:1 2476:1 4018:1 4101:1 4739:1 5063:1 5121:1 7980:1 9494:1 9720:1 9734:1 9742:1 10195:1 11486:1 12571:1 13684:1 13976:1 14188:1 16469:1 17287:1 20400:1 28281:1 30702:1 32059:1 32391:1 44997:1 53445:1 53556:1 60590:1 64239:1 
0.032775454882757127 9:1 11:1 12:1 13:1 14:1 15:1 16:1 17:1 20:1 22:1 23:1 24:1 26:1 27:1 28:1 29:1 31:1 34:1 39:1 61:1 64:1 65:1 66:1 68:1 69:1 78:1 79:1 80:1 81:1 83:1 88:1 189:1 191:1 193:1 248:1 268:1 277:1 281:1 303:1 321:1 325:1 326:1 346:1 355:1 357:1 375:1 393:1 403:1 413:1 417:1 438:1 448:1 455:1 463:1 517:1 528:1 592:1 593:1 595:1 620:1 635:1 673:1 688:1 701:1 712:1 713:1 718:1 731:1 733:1 747:1 748:1 758:1 764:1 768:1 777:1 781:1 783:1 789:1 804:1 806:1 872:1 934:1 987:1 993:1 1101:1 1160:1 1204:1 1224:1 1226:1 1264:1 1278:1 1437:1 1449:1 1483:1 1499:1 1538:1 1597:1 2376:1 2420:1 2449:1 3044:1 3057:1 3305:1 3370:1 3963:1 4018:1 4056:1 4071:1 4072:1 4281:1 4421:1 4445:1 4637:1 4895:1 5116:1 5120:1 5174:1 5665:1 5803:1 6012:1 6729:1 7532:1 7545:1 7582:1 7611:1 8200:1 8670:1 8996:1 9004:1 9217:1 9241:1 9334:1 9474:1 9515:1 9720:1 9746:1 9939:1 9981:1 10132:1 10192:1 10230:1 10301:1 10512:1 10558:1 11122:1 12016:1 12094:1 12850:1 13310:1 13710:1 13846:1 13860:1 14185:1 15565:1 15670:1 16006:1 16087:1 16364:1 16702:1 19660:1 19980:1 20232:1 22806:1 27196:1 27981:1 28088:1 28106:1 29515:1 29620:1 30205:1 32324:1 32380:1 32590:1 35132:1 37129:1 39568:1 42909:1 43174:1 43359:1 45815:1 48086:1 49723:1 49806:1 50904:1 51062:1 51502:1 52153:1 52165:1 52426:1 53462:1 53634:1 54416:1 55402:1 55726:1 55933:1 57199:1 57474:1 62322:1 62711:1 
0.0555703165565972 9:1 11:1 12:1 13:1 14:1 16:1 17:1 18:1 20:1 22:1 23:1 26:1 27:1 28:1 29:1 34:1 50:1 61:1 64:1 66:1 69:1 70:1 79:1 187:1 248:1 268:1 293:1 303:1 327:1 357:1 358:1 403:1 420:1 451:1 476:1 536:1 541:1 592:1 629:1 724:1 731:1 758:1 768:1 789:1 795:1 956:1 1058:1 1097:1 1176:1 1226:1 1287:1 1305:1 1449:1 2337:1 3044:1 3060:1 3543:1 4107:1 4451:1 4456:1 5223:1 5724:1 6166:1 6854:1 6934:1 7532:1 8105:1 9372:1 9474:1 9981:1 10320:1 11729:1 12513:1 12798:1 13494:1 13865:1 14344:1 14532:1 15670:1 19415:1 22835:1 28352:1 29661:1 29672:1 32846:1 37556:1 40206:1 40532:1 45402:1 51650:1 52153:1 52167:1 56368:1 63958:1 
0.035739493385222566 9:1 10:1 11:1 12:1 13:1 15:1 16:1 17:1 19:1 20:1 21:1 22:1 23:1 24:1 26:1 27:1 28:1 29:1 30:1 34:1 39:1 50:1 61:1 64:1 65:1 69:1 74:1 82:1 177:1 189:1 193:1 196:1 229:1 248:1 277:1 290:1 293:1 303:1 321:1 369:1 403:1 412:1 429:1 450:1 456:1 462:1 486:1 507:1 532:1 565:1 569:1 592:1 607:1 608:1 613:1 619:1 635:1 658:1 688:1 703:1 724:1 729:1 731:1 748:1 764:1 772:1 782:1 789:1 803:1 816:1 818:1 843:1 944:1 953:1 962:1 981:1 1051:1 1058:1 1106:1 1160:1 1176:1 1185:1 1199:1 1297:1 1384:1 1521:1 2129:1 2376:1 2440:1 2520:1 2860:1 3044:1 3069:1 3305:1 3493:1 3561:1 3974:1 3975:1 3984:1 5094:1 5419:1 5694:1 5844:1 5959:1 6433:1 6786:1 7203:1 7245:1 7541:1 7798:1 7844:1 7904:1 7922:1 7977:1 8204:1 8508:1 9019:1 9365:1 9432:1 9474:1 9746:1 9754:1 9939:1 10073:1 10216:1 10317:1 10497:1 10707:1 10785:1 10953:1 11585:1 11697:1 11809:1 11940:1 12425:1 12524:1 12905:1 13310:1 13508:1 13673:1 14452:1 15170:1 16271:1 18236:1 19666:1 20131:1 20733:1 22197:1 22976:1 24813:1 25043:1 27299:1 27340:1 27399:1 32178:1 33971:1 36126:1 36757:1 38456:1 39892:1 41656:1 41850:1 42865:1 44228:1 44511:1 44738:1 44823:1 44989:1 45841:1 47403:1 51611:1 51880:1 52153:1 52175:1 53634:1 53705:1 54416:1 55157:1 55872:1 56358:1 57106:1 58703:1 59226:1 61304:1 61650:1 62033:1 63680:1 64021:1 64028:1 
0.024757262950629595 9:1 11:1 12:1 13:1 14:1 15:1 16:1 17:1 18:1 21:1 23:1 24:1 26:1 27:1 28:1 29:1 31:1 34:1 64:1 70:1 73:1 75:1 79:1 83:1 86:1 193:1 248:1 277:1 281:1 293:1 303:1 311:1 326:1 338:1 379:1 403:1 448:1 463:1 476:1 571:1 629:1 641:1 658:1 699:1 710:1 711:1 725:1 731:1 744:1 758:1 795:1 866:1 946:1 1164:1 1176:1 1305:1 1357:1 1392:1 1462:1 1533:1 1569:1 2447:1 3044:1 3305:1 3375:1 3543:1 3729:1 4051:1 4670:1 5643:1 5665:1 5982:1 6155:1 7288:1 8089:1 8322:1 8508:1 8946:1 9165:1 9177:1 9474:1 9683:1 11087:1 11635:1 13366:1 13494:1 14521:1 14971:1 15201:1 15802:1 16347:1 16559:1 20204:1 24271:1 25683:1 35120:1 37516:1 41993:1 46568:1 47409:1 49388:1 50630:1 50683:1 52153:1 53253:1 59675:1 61116:1 
0.08614274325412799 9:1 11:1 12:1 13:1 14:1 15:1 16:1 17:1 21:1 23:1 26:1 27:1 28:1 29:1 31:1 49:1 61:1 64:1 66:1 67:1 68:1 83:1 194:1 196:1 248:1 293:1 303:1 325:1 326:1 327:1 367:1 379:1 391:1 403:1 413:1 438:1 577:1 642:1 688:1 707:1 725:1 731:1 737:1 741:1 747:1 768:1 783:1 795:1 803:1 805:1 858:1 1035:1 1106:1 1176:1 1231:1 1252:1 1264:1 1528:1 2458:1 2522:1 3044:1 3543:1 4018:1 4056:1 4102:1 4579:1 4670:1 4859:1 5120:1 7368:1 8359:1 9127:1 9474:1 9572:1 9639:1 9724:1 9728:1 10000:1 10230:1 10501:1 10537:1 11039:1 12294:1 12907:1 13494:1 13901:1 14063:1 14187:1 16315:1 20757:1 27981:1 28307:1 30007:1 31279:1 32374:1 42238:1 46847:1 46850:1 50441:1 52153:1 53086:1 53483:1 53519:1 54769:1 55943:1 57156:1 57364:1 59457:1 
0.042656919914663263 9:1 12:1 13:1 16:1 17:1 19:1 20:1 21:1 22:1 26:1 28:1 29:1 30:1 31:1 61:1 69:1 73:1 80:1 81:1 82:1 83:1 196:1 268:1 303:1 320:1 321:1 325:1 413:1 452:1 456:1 457:1 463:1 508:1 530:1 561:1 565:1 569:1 592:1 593:1 599:1 688:1 697:1 704:1 758:1 768:1 771:1 795:1 812:1 835:1 866:1 1106:1 1291:1 1354:1 1480:1 1506:1 1516:1 1533:1 2514:1 3932:1 3961:1 4018:1 4027:1 4034:1 5115:1 5771:1 5844:1 5871:1 5982:1 5992:1 6454:1 6762:1 7155:1 7159:1 7213:1 7242:1 7532:1 7564:1 7693:1 8893:1 9049:1 10000:1 10042:1 10657:1 10907:1 11091:1 12901:1 14402:1 14953:1 15960:1 16143:1 16236:1 16350:1 27001:1 27172:1 27587:1 27715:1 32311:1 35712:1 36125:1 36325:1 36972:1 39755:1 41469:1 41488:1 41723:1 41840:1 43798:1 49993:1 54777:1 54989:1 57887:1 59048:1 59705:1 
0.0031347796297605886 9:1 11:1 12:1 13:1 14:1 15:1 16:1 17:1 19:1 20:1 21:1 22:1 23:1 24:1 26:1 27:1 28:1 30:1 39:1 61:1 64:1 65:1 71:1 73:1 78:1 79:1 80:1 82:1 187:1 189:1 248:1 277:1 290:1 303:1 320:1 322:1 325:1 327:1 342:1 369:1 393:1 413:1 422:1 423:1 447:1 452:1 456:1 463:1 501:1 537:1 547:1 552:1 565:1 572:1 585:1 595:1 597:1 620:1 641:1 663:1 664:1 688:1 697:1 706:1 710:1 731:1 737:1 758:1 771:1 778:1 843:1 987:1 1097:1 1160:1 1173:1 1198:1 1323:1 1354:1 1431:1 1449:1 1455:1 1480:1 1521:1 2333:1 2379:1 3053:1 3062:1 3305:1 3324:1 3473:1 3942:1 3985:1 4018:1 4040:1 4098:1 4251:1 4895:1 5117:1 5119:1 5260:1 5297:1 5625:1 5756:1 5832:1 5982:1 6369:1 6879:1 7028:1 7213:1 7299:1 7607:1 7629:1 7655:1 8329:1 8550:1 8581:1 8912:1 8914:1 9081:1 9155:1 9474:1 9586:1 10042:1 10141:1 10943:1 12019:1 12796:1 13310:1 13447:1 13653:1 14649:1 14953:1 15510:1 15670:1 15736:1 15960:1 16261:1 19382:1 19723:1 22762:1 22853:1 24034:1 27066:1 27794:1 28259:1 28832:1 32334:1 32363:1 33070:1 33283:1 34850:1 35590:1 38183:1 40360:1 40910:1 41723:1 42046:1 43472:1 43616:1 46633:1 47577:1 47699:1 49193:1 49236:1 50594:1 52161:1 52169:1 52827:1 54991:1 62340:1 
0.0061144774794876901 9:1 10:1 11:1 12:1 13:1 15:1 16:1 17:1 21:1 22:1 26:1 27:1 28:1 29:1 49:1 64:1 67:1 68:1 73:1 79:1 189:1 193:1 231:1 248:1 277:1 301:1 303:1 325:1 327:1 379:1 391:1 403:1 413:1 417:1 444:1 445:1 446:1 450:1 557:1 585:1 688:1 701:1 731:1 758:1 795:1 1029:1 1160:1 1183:1 1252:1 1264:1 1350:1 1449:1 2370:1 2438:1 2881:1 3044:1 3057:1 3324:1 3626:1 4018:1 4081:1 4670:1 4858:1 5121:1 5172:1 5574:1 5597:1 5610:1 5702:1 7103:1 8985:1 8986:1 9474:1 12225:1 13326:1 13544:1 14062:1 14188:1 14907:1 15670:1 20112:1 22804:1 24034:1 25242:1 31257:1 32381:1 32571:1 34558:1 34715:1 34758:1 35299:1 41222:1 49603:1 49619:1 52165:1 63043:1 
0.051326810795520435 9:1 10:1 11:1 12:1 13:1 14:1 15:1 16:1 17:1 19:1 20:1 21:1 22:1 23:1 26:1 27:1 28:1 29:1 31:1 39:1 49:1 50:1 61:1 62:1 64:1 66:1 67:1 68:1 69:1 71:1 74:1 75:1 79:1 81:1 178:1 187:1 193:1 216:1 248:1 277:1 284:1 303:1 325:1 327:1 352:1 357:1 375:1 396:1 403:1 413:1 420:1 428:1 446:1 456:1 457:1 461:1 462:1 504:1 508:1 530:1 540:1 547:1 561:1 569:1 577:1 585:1 592:1 595:1 597:1 607:1 618:1 625:1 636:1 688:1 693:1 698:1 703:1 706:1 724:1 725:1 731:1 741:1 749:1 758:1 768:1 781:1 812:1 817:1 866:1 976:1 1029:1 1058:1 1097:1 1116:1 1160:1 1226:1 1257:1 1264:1 1292:1 1326:1 1383:1 1388:1 1467:1 1506:1 2144:1 2336:1 2443:1 2703:1 2705:1 3044:1 3053:1 3060:1 3068:1 3305:1 3412:1 4018:1 4028:1 4081:1 4100:1 4391:1 4451:1 4637:1 4944:1 5119:1 5121:1 5218:1 5371:1 5378:1 5610:1 5839:1 5857:1 5938:1 5969:1 6400:1 6454:1 6751:1 6901:1 7022:1 7142:1 7255:1 7377:1 7379:1 7548:1 7611:1 7664:1 7798:1 7959:1 8026:1 8234:1 8811:1 8930:1 9036:1 9081:1 9372:1 9474:1 9639:1 9788:1 10002:1 10179:1 10660:1 10662:1 10670:1 10734:1 11095:1 11882:1 12231:1 12513:1 12797:1 12994:1 13310:1 13865:1 14100:1 14188:1 14408:1 14672:1 15162:1 15180:1 15858:1 16146:1 18334:1 19397:1 20170:1 21495:1 21548:1 22762:1 22834:1 22932:1 22937:1 24464:1 27611:1 28271:1 29436:1 29661:1 30202:1 31665:1 32346:1 32381:1 32821:1 33695:1 34758:1 34766:1 36098:1 36655:1 36830:1 38290:1 39649:1 40887:1 41883:1 42266:1 42279:1 42935:1 43359:1 43672:1 44228:1 44940:1 45095:1 46021:1 48481:1 49325:1 49919:1 51650:1 52174:1 53088:1 53914:1 54813:1 55614:1 57930:1 57965:1 58019:1 59740:1 61847:1 63062:1 63962:1 
0.041682363291371968 9:1 12:1 13:1 15:1 17:1 21:1 22:1 26:1 27:1 28:1 29:1 61:1 65:1 67:1 73:1 79:1 196:1 268:1 325:1 392:1 438:1 457:1 461:1 565:1 592:1 608:1 688:1 711:1 737:1 748:1 758:1 784:1 795:1 812:1 1106:1 1203:1 1253:1 1354:1 1455:1 2514:1 4041:1 4876:1 5864:1 5928:1 7211:1 7532:1 7824:1 9192:1 9572:1 9587:1 9765:1 10264:1 10671:1 12901:1 13702:1 14074:1 14951:1 15737:1 27829:1 31394:1 36221:1 41703:1 50774:1 52840:1 53790:1 56124:1 58027:1 
0.19489567426738727 10:1 13:1 15:1 16:1 17:1 18:1 21:1 24:1 26:1 27:1 28:1 34:1 50:1 62:1 65:1 67:1 68:1 70:1 220:1 320:1 325:1 327:1 392:1 413:1 462:1 476:1 561:1 569:1 683:1 688:1 712:1 725:1 744:1 758:1 782:1 789:1 956:1 1060:1 1119:1 1198:1 1203:1 1253:1 1264:1 1305:1 2765:1 3939:1 4018:1 4101:1 4107:1 4883:1 5121:1 5954:1 6166:1 7159:1 7242:1 8774:1 9201:1 9697:1 10195:1 10320:1 11729:1 12549:1 13023:1 13650:1 13684:1 14077:1 14188:1 14532:1 21786:1 27040:1 28281:1 28352:1 31440:1 32391:1 37556:1 41488:1 41840:1 48383:1 53339:1 56368:1 64134:1 
1 11:1 13:1 15:1 16:1 17:1 26:1 27:1 65:1 67:1 69:1 248:1 315:1 325:1 379:1 392:1 403:1 438:1 462:1 688:1 731:1 737:1 1203:1 1240:1 1253:1 1297:1 3044:1 3819:1 4018:1 4680:1 4876:1 5959:1 9474:1 9572:1 13684:1 13948:1 14074:1 14452:1 30374:1 31394:1 36757:1 52153:1 
0.14766660899054407 9:1 12:1 13:1 14:1 15:1 17:1 21:1 22:1 23:1 24:1 26:1 27:1 28:1 30:1 49:1 50:1 65:1 67:1 69:1 74:1 76:1 82:1 194:1 268:1 277:1 303:1 313:1 325:1 350:1 402:1 438:1 448:1 457:1 572:1 597:1 618:1 641:1 654:1 658:1 688:1 696:1 712:1 737:1 747:1 758:1 768:1 843:1 1024:1 1057:1 1203:1 1261:1 1278:1 1383:1 1408:1 1521:1 2476:1 3313:1 3781:1 4018:1 4042:1 4367:1 5015:1 5664:1 5869:1 7294:1 7651:1 7956:1 8319:1 8509:1 8873:1 9201:1 9208:1 9579:1 9724:1 9981:1 10959:1 12177:1 12506:1 13684:1 14139:1 15159:1 15325:1 16276:1 20392:1 23938:1 25922:1 27838:1 27845:1 29320:1 31860:1 35114:1 36304:1 43586:1 44924:1 46522:1 47419:1 48915:1 50836:1 52753:1 53488:1 59258:1 63942:1 
0.046630312545201419 9:1 10:1 11:1 12:1 13:1 14:1 15:1 16:1 17:1 20:1 21:1 22:1 23:1 25:1 26:1 27:1 28:1 29:1 49:1 64:1 65:1 67:1 68:1 74:1 77:1 79:1 80:1 194:1 216:1 248:1 273:1 277:1 303:1 309:1 319:1 325:1 327:1 346:1 380:1 413:1 428:1 463:1 517:1 561:1 618:1 620:1 687:1 688:1 700:1 731:1 733:1 743:1 747:1 758:1 768:1 782:1 783:1 793:1 807:1 1032:1 1035:1 1156:1 1160:1 1203:1 1241:1 1264:1 1383:1 1428:1 1461:1 1491:1 2476:1 2697:1 3068:1 3266:1 3305:1 3693:1 3894:1 4018:1 4081:1 4102:1 4302:1 4701:1 5105:1 5121:1 5371:1 6005:1 7142:1 7961:1 8783:1 8968:1 9474:1 9515:1 9653:1 9720:1 10002:1 10200:1 10230:1 10362:1 10584:1 12261:1 12303:1 13284:1 13310:1 13684:1 13964:1 14188:1 15163:1 15468:1 15775:1 16051:1 20388:1 21431:1 22932:1 23759:1 25482:1 28307:1 29057:1 30550:1 32204:1 32381:1 37062:1 44947:1 48417:1 49523:1 52174:1 52426:1 53462:1 54813:1 55771:1 55945:1 56523:1 57550:1 63149:1 63287:1 
0.14815633108914866 9:1 10:1 11:1 12:1 13:1 15:1 16:1 17:1 20:1 21:1 23:1 26:1 27:1 28:1 31:1 50:1 62:1 67:1 69:1 79:1 80:1 83:1 171:1 216:1 220:1 248:1 268:1 273:1 325:1 379:1 389:1 403:1 450:1 455:1 456:1 462:1 523:1 525:1 530:1 533:1 561:1 569:1 635:1 641:1 688:1 696:1 697:1 731:1 737:1 794:1 872:1 1060:1 1067:1 1119:1 1250:1 1291:1 1297:1 1455:1 1492:1 1538:1 2703:1 2760:1 3044:1 3247:1 4018:1 4688:1 4839:1 5702:1 5806:1 5815:1 5844:1 5959:1 6621:1 6642:1 6755:1 6804:1 7159:1 7242:1 8197:1 8319:1 8869:1 8912:1 9474:1 9585:1 10380:1 11136:1 12535:1 12623:1 13018:1 14049:1 14402:1 14452:1 15735:1 16064:1 16377:1 21486:1 21746:1 30462:1 31162:1 35309:1 35888:1 35978:1 36125:1 36757:1 39055:1 39688:1 40000:1 41488:1 41840:1 45771:1 46519:1 48893:1 49193:1 52153:1 52817:1 56604:1 59843:1 64066:1 64387:1 
1 11:1 12:1 13:1 16:1 17:1 18:1 22:1 23:1 26:1 27:1 31:1 64:1 69:1 70:1 79:1 83:1 248:1 277:1 303:1 325:1 403:1 462:1 478:1 585:1 603:1 637:1 646:1 688:1 731:1 742:1 855:1 862:1 1160:1 1297:1 1307:1 1460:1 1531:1 3044:1 3305:1 4018:1 5959:1 6190:1 7765:1 8247:1 8426:1 9474:1 9648:1 11070:1 13310:1 14452:1 14549:1 15773:1 16336:1 36757:1 37598:1 44147:1 52153:1 53130:1 59593:1 
0.0042477113778602226 9:1 10:1 11:1 12:1 13:1 14:1 15:1 16:1 17:1 19:1 20:1 21:1 22:1 23:1 24:1 26:1 27:1 28:1 29:1 30:1 31:1 34:1 39:1 49:1 61:1 62:1 64:1 65:1 72:1 76:1 82:1 83:1 196:1 216:1 229:1 248:1 268:1 277:1 303:1 310:1 311:1 313:1 318:1 321:1 325:1 327:1 333:1 338:1 346:1 347:1 365:1 379:1 428:1 448:1 450:1 461:1 507:1 508:1 530:1 552:1 583:1 585:1 592:1 613:1 629:1 636:1 663:1 703:1 705:1 713:1 733:1 748:1 758:1 768:1 778:1 789:1 795:1 803:1 807:1 843:1 866:1 934:1 956:1 957:1 979:1 1033:1 1106:1 1116:1 1125:1 1153:1 1160:1 1192:1 1199:1 1339:1 1411:1 1521:1 1533:1 2514:1 2703:1 2850:1 3068:1 3305:1 3331:1 3714:1 3722:1 3780:1 3888:1 3954:1 3960:1 4035:1 4043:1 4107:1 4205:1 4294:1 4300:1 4309:1 4314:1 4554:1 4685:1 5371:1 5650:1 5702:1 5938:1 6448:1 6454:1 6753:1 7443:1 7541:1 7896:1 8094:1 8221:1 8571:1 9035:1 9079:1 9242:1 9517:1 9760:1 9987:1 10147:1 10320:1 10483:1 10574:1 10954:1 11095:1 11734:1 11754:1 11902:1 12285:1 12901:1 12992:1 13074:1 13332:1 13596:1 13659:1 14795:1 15357:1 16272:1 16354:1 21509:1 22164:1 22932:1 24118:1 25615:1 25910:1 26638:1 27150:1 27735:1 27873:1 28352:1 28721:1 28980:1 29036:1 29102:1 29107:1 29945:1 30437:1 34965:1 35308:1 36654:1 38502:1 39663:1 42434:1 42865:1 45351:1 47654:1 49918:1 50131:1 51068:1 52474:1 53740:1 54635:1 55444:1 56370:1 57512:1 59235:1 59740:1 61391:1 61462:1 61905:1 63223:1 
0.035048592164911727 11:1 12:1 13:1 16:1 17:1 22:1 26:1 27:1 28:1 29:1 31:1 65:1 69:1 79:1 80:1 81:1 83:1 248:1 268:1 303:1 315:1 316:1 326:1 327:1 403:1 426:1 446:1 448:1 592:1 697:1 725:1 731:1 758:1 784:1 803:1 812:1 862:1 1204:1 1282:1 1449:1 1486:1 1506:1 1531:1 3044:1 3066:1 3819:1 3852:1 4051:1 4081:1 5325:1 5610:1 5643:1 7532:1 8903:1 9474:1 10256:1 10501:1 10657:1 11064:1 13708:1 14314:1 15670:1 16016:1 16143:1 16331:1 22898:1 26372:1 33406:1 34758:1 49113:1 52172:1 56076:1 57142:1 57887:1 59531:1 
0.038500902541518008 9:1 10:1 11:1 12:1 13:1 14:1 15:1 16:1 17:1 20:1 21:1 22:1 23:1 26:1 27:1 28:1 29:1 30:1 34:1 39:1 61:1 67:1 72:1 78:1 81:1 82:1 86:1 177:1 194:1 196:1 208:1 217:1 228:1 248:1 268:1 303:1 365:1 379:1 391:1 413:1 422:1 463:1 522:1 552:1 592:1 597:1 636:1 693:1 718:1 731:1 733:1 747:1 758:1 783:1 800:1 811:1 812:1 843:1 957:1 976:1 980:1 1087:1 1252:1 1335:1 1430:1 1506:1 1521:1 1580:1 2118:1 2464:1 2476:1 2517:1 2720:1 2842:1 3053:1 3062:1 4555:1 4670:1 4856:1 5099:1 5260:1 6006:1 6612:1 7532:1 7665:1 8221:1 8827:1 9319:1 9474:1 9494:1 9718:1 10224:1 10425:1 10440:1 10626:1 10657:1 10954:1 11761:1 11882:1 11917:1 12667:1 14060:1 14763:1 15486:1 16143:1 16272:1 16632:1 18151:1 20311:1 20386:1 20692:1 20706:1 21604:1 22120:1 22743:1 22853:1 29948:1 31236:1 33077:1 37080:1 38999:1 43690:1 48648:1 48653:1 51415:1 52169:1 53439:1 56867:1 57887:1 59235:1 61499:1 61845:1 61937:1 
0.012884794684787032 9:1 10:1 11:1 12:1 13:1 14:1 15:1 16:1 17:1 20:1 21:1 22:1 23:1 24:1 26:1 27:1 28:1 29:1 30:1 39:1 50:1 61:1 62:1 64:1 65:1 67:1 73:1 76:1 82:1 90:1 171:1 188:1 216:1 248:1 268:1 273:1 277:1 313:1 316:1 320:1 321:1 325:1 350:1 359:1 379:1 392:1 403:1 435:1 446:1 450:1 457:1 463:1 530:1 552:1 561:1 565:1 592:1 608:1 636:1 671:1 688:1 725:1 731:1 758:1 775:1 795:1 816:1 848:1 979:1 1061:1 1098:1 1116:1 1156:1 1160:1 1195:1 1199:1 1253:1 1354:1 1417:1 1523:1 1623:1 2346:1 2692:1 3044:1 3075:1 3247:1 3320:1 3781:1 3854:1 3925:1 3932:1 3960:1 3975:1 4018:1 4367:1 4475:1 4685:1 4870:1 5483:1 5610:1 5702:1 5864:1 5982:1 6751:1 7159:1 7213:1 7532:1 7541:1 7838:1 8221:1 8640:1 9474:1 10112:1 10707:1 10984:1 10992:1 11907:1 12555:1 12802:1 12981:1 13266:1 13323:1 13622:1 13663:1 14071:1 14953:1 15404:1 16287:1 16292:1 16801:1 21379:1 23016:1 23988:1 23990:1 25922:1 26398:1 27003:1 27145:1 27334:1 29317:1 30447:1 31353:1 34178:1 34758:1 35308:1 36226:1 39649:1 41488:1 41723:1 42877:1 44471:1 47922:1 52180:1 55330:1 59345:1 61921:1 
0.0063792126772333193 9:1 10:1 11:1 12:1 13:1 15:1 16:1 17:1 19:1 20:1 21:1 22:1 23:1 26:1 27:1 28:1 29:1 30:1 33:1 49:1 64:1 67:1 68:1 69:1 71:1 73:1 82:1 171:1 231:1 248:1 250:1 277:1 303:1 310:1 325:1 383:1 391:1 401:1 403:1 413:1 417:1 423:1 447:1 448:1 457:1 462:1 463:1 486:1 509:1 536:1 565:1 580:1 585:1 592:1 630:1 635:1 693:1 694:1 701:1 731:1 758:1 771:1 772:1 783:1 801:1 812:1 835:1 926:1 1037:1 1160:1 1252:1 1260:1 1264:1 1283:1 1297:1 1329:1 1354:1 1363:1 1516:1 2895:1 3044:1 3053:1 3057:1 3093:1 3115:1 3305:1 3714:1 4023:1 4024:1 4760:1 4858:1 5007:1 5099:1 5119:1 5186:1 5292:1 5625:1 5643:1 5650:1 5857:1 5959:1 5982:1 6482:1 6855:1 7213:1 7400:1 7541:1 8118:1 8208:1 8806:1 8849:1 8989:1 9474:1 10048:1 10074:1 10234:1 10456:1 10657:1 10907:1 11450:1 12336:1 13310:1 14062:1 14134:1 14186:1 14317:1 14452:1 14695:1 14953:1 15006:1 16236:1 22298:1 22743:1 22816:1 23205:1 25606:1 27524:1 27557:1 30796:1 31259:1 31840:1 32348:1 32692:1 33228:1 34834:1 34965:1 36757:1 38599:1 40214:1 41723:1 42336:1 42865:1 45467:1 45874:1 48825:1 49648:1 52153:1 52161:1 55018:1 55162:1 55971:1 56921:1 56937:1 57892:1 59038:1 60472:1 63383:1 
0.44636585269376233 11:1 12:1 13:1 14:1 15:1 16:1 17:1 20:1 21:1 22:1 23:1 24:1 26:1 27:1 28:1 29:1 30:1 63:1 64:1 67:1 69:1 78:1 81:1 82:1 248:1 268:1 277:1 303:1 359:1 392:1 403:1 420:1 438:1 462:1 528:1 530:1 533:1 552:1 592:1 635:1 639:1 663:1 713:1 731:1 737:1 748:1 758:1 778:1 811:1 812:1 843:1 1138:1 1160:1 1253:1 1297:1 1437:1 1506:1 1521:1 3044:1 3060:1 3305:1 4475:1 4876:1 4887:1 5218:1 5959:1 6728:1 6744:1 6802:1 7532:1 8205:1 8297:1 8566:1 9245:1 9474:1 9572:1 9760:1 10156:1 10626:1 10657:1 10953:1 13164:1 13310:1 14074:1 14452:1 15567:1 16143:1 16271:1 22834:1 31394:1 31463:1 32816:1 36757:1 39567:1 39989:1 45852:1 46419:1 47634:1 51076:1 52153:1 53747:1 55513:1 57887:1 59227:1 
0.038983439462411763 9:1 10:1 11:1 12:1 13:1 14:1 16:1 17:1 19:1 20:1 21:1 22:1 23:1 26:1 31:1 39:1 50:1 61:1 66:1 69:1 75:1 83:1 177:1 188:1 216:1 248:1 277:1 284:1 303:1 311:1 313:1 325:1 357:1 365:1 403:1 446:1 448:1 456:1 494:1 525:1 530:1 532:1 552:1 561:1 569:1 592:1 625:1 635:1 688:1 724:1 866:1 872:1 985:1 1058:1 1087:1 1098:1 1226:1 1291:1 1388:1 1533:1 1538:1 2117:1 2346:1 2683:1 2703:1 3044:1 3324:1 3412:1 3729:1 3791:1 4018:1 4451:1 4559:1 5610:1 5651:1 5844:1 6292:1 6648:1 6751:1 6780:1 7159:1 7242:1 7548:1 8026:1 8204:1 9372:1 11087:1 11132:1 11981:1 12513:1 12666:1 12802:1 13865:1 14402:1 15180:1 16347:1 16373:1 18139:1 21486:1 24034:1 24464:1 25692:1 25976:1 29661:1 29958:1 34758:1 34971:1 36125:1 37878:1 39162:1 39649:1 39862:1 41488:1 41840:1 42935:1 45090:1 45837:1 51650:1 59667:1 59825:1 62159:1 63962:1 
0.050260315898070645 9:1 10:1 11:1 12:1 13:1 14:1 16:1 19:1 20:1 22:1 26:1 27:1 28:1 29:1 31:1 34:1 49:1 61:1 62:1 63:1 65:1 74:1 78:1 81:1 83:1 186:1 187:1 189:1 193:1 216:1 248:1 268:1 277:1 284:1 303:1 309:1 313:1 315:1 325:1 327:1 342:1 409:1 436:1 503:1 526:1 533:1 540:1 589:1 592:1 593:1 613:1 694:1 696:1 713:1 725:1 758:1 812:1 862:1 949:1 1033:1 1096:1 1116:1 1138:1 1188:1 1367:1 1437:1 1506:1 1531:1 2303:1 2329:1 2376:1 2431:1 2683:1 2692:1 2694:1 3076:1 3305:1 3411:1 3693:1 3776:1 3821:1 4026:1 4081:1 4249:1 5058:1 5510:1 6381:1 6668:1 6690:1 6813:1 6901:1 7499:1 7532:1 7548:1 7564:1 7909:1 8837:1 8873:1 9246:1 10657:1 10676:1 11070:1 11654:1 12272:1 12772:1 12983:1 13173:1 13571:1 15055:1 15568:1 16143:1 16336:1 19144:1 19349:1 19672:1 20032:1 21377:1 21400:1 23038:1 24461:1 25479:1 25889:1 26164:1 27573:1 28822:1 32009:1 34312:1 38216:1 39404:1 40048:1 42662:1 42934:1 44767:1 48736:1 48911:1 51104:1 57887:1 58059:1 59597:1 61171:1 63169:1 
0.01921363520160304 9:1 10:1 12:1 13:1 14:1 16:1 17:1 19:1 20:1 21:1 22:1 23:1 26:1 27:1 28:1 29:1 30:1 34:1 39:1 50:1 64:1 68:1 69:1 71:1 72:1 74:1 78:1 79:1 81:1 82:1 184:1 187:1 189:1 201:1 208:1 216:1 220:1 268:1 277:1 293:1 303:1 311:1 315:1 316:1 318:1 321:1 325:1 326:1 357:1 409:1 413:1 437:1 438:1 444:1 447:1 454:1 455:1 457:1 461:1 463:1 486:1 494:1 508:1 517:1 523:1 526:1 533:1 547:1 552:1 570:1 585:1 589:1 592:1 593:1 597:1 608:1 613:1 620:1 625:1 636:1 688:1 697:1 700:1 701:1 707:1 711:1 713:1 725:1 733:1 743:1 747:1 748:1 758:1 768:1 772:1 781:1 811:1 812:1 816:1 817:1 838:1 843:1 942:1 943:1 975:1 1062:1 1160:1 1176:1 1264:1 1277:1 1292:1 1316:1 1336:1 1345:1 1367:1 1431:1 1451:1 1461:1 1506:1 1509:1 1518:1 1521:1 2287:1 2319:1 2377:1 2596:1 2690:1 2747:1 3305:1 3315:1 3561:1 3722:1 3821:1 3825:1 3865:1 3888:1 3965:1 3975:1 4018:1 4030:1 4071:1 4445:1 5056:1 5069:1 5112:1 5113:1 5530:1 5574:1 5625:1 5781:1 5815:1 5857:1 5942:1 5982:1 5992:1 6299:1 6462:1 6618:1 6680:1 6792:1 7021:1 7264:1 7492:1 7532:1 7564:1 7582:1 7647:1 7843:1 7903:1 8027:1 8235:1 8902:1 8913:1 8966:1 8988:1 9110:1 9192:1 9245:1 9506:1 9515:1 9653:1 9713:1 9720:1 9762:1 10000:1 10071:1 10183:1 10190:1 10626:1 10657:1 10676:1 10725:1 10753:1 10927:1 10943:1 10954:1 11563:1 11580:1 11870:1 12577:1 13310:1 13508:1 14182:1 14300:1 14408:1 14614:1 14776:1 14860:1 15050:1 15499:1 15689:1 15775:1 16143:1 16161:1 16198:1 16250:1 16261:1 16272:1 19077:1 19226:1 19697:1 21024:1 21362:1 23951:1 25055:1 26167:1 26183:1 26543:1 26548:1 26641:1 27217:1 27339:1 27645:1 28083:1 29610:1 31978:1 32098:1 32278:1 32285:1 34408:1 34562:1 34843:1 35970:1 36677:1 36972:1 37927:1 38547:1 39314:1 40881:1 41900:1 42592:1 43174:1 43554:1 44500:1 44737:1 45097:1 46027:1 49096:1 49224:1 49515:1 49635:1 50265:1 50772:1 51076:1 52352:1 52435:1 53462:1 53758:1 54769:1 55128:1 55648:1 55708:1 57887:1 58057:1 58311:1 58517:1 59128:1 59238:1 60857:1 60934:1 61790:1 
0.0053049211211148332 9:1 10:1 12:1 13:1 14:1 15:1 16:1 17:1 19:1 20:1 21:1 22:1 23:1 24:1 26:1 27:1 28:1 29:1 30:1 34:1 62:1 71:1 79:1 81:1 82:1 86:1 187:1 193:1 220:1 228:1 268:1 303:1 315:1 319:1 351:1 369:1 409:1 420:1 426:1 438:1 448:1 450:1 457:1 462:1 464:1 490:1 500:1 504:1 517:1 522:1 530:1 541:1 546:1 552:1 564:1 592:1 631:1 634:1 635:1 639:1 663:1 665:1 688:1 707:1 712:1 733:1 737:1 744:1 768:1 772:1 811:1 812:1 838:1 946:1 957:1 1119:1 1124:1 1315:1 1326:1 1451:1 1455:1 1506:1 1518:1 1580:1 2337:1 2342:1 2449:1 2765:1 2838:1 3835:1 3894:1 3906:1 4380:1 5056:1 5210:1 5318:1 5658:1 5694:1 5864:1 5972:1 6030:1 6260:1 6358:1 6396:1 6399:1 6403:1 6609:1 6744:1 6938:1 7008:1 7192:1 7532:1 8141:1 8183:1 8202:1 8297:1 8558:1 8593:1 9119:1 9208:1 9505:1 9587:1 9688:1 9981:1 10067:1 10626:1 10636:1 10657:1 10923:1 11636:1 11761:1 13023:1 13066:1 14596:1 14675:1 15688:1 15737:1 16143:1 16246:1 16632:1 19418:1 19460:1 20225:1 21795:1 22097:1 26260:1 26764:1 29363:1 31989:1 32778:1 35037:1 35048:1 36221:1 36848:1 37200:1 37755:1 38113:1 38267:1 38279:1 38320:1 38968:1 40562:1 40857:1 41607:1 45550:1 45728:1 45819:1 46415:1 47608:1 47733:1 50348:1 50836:1 52333:1 52840:1 53282:1 55099:1 57768:1 57887:1 59105:1 61136:1 61499:1 
1 9:1 12:1 13:1 14:1 16:1 17:1 18:1 20:1 21:1 22:1 23:1 26:1 27:1 28:1 31:1 34:1 50:1 64:1 70:1 73:1 79:1 80:1 83:1 86:1 183:1 189:1 277:1 311:1 313:1 320:1 368:1 420:1 438:1 463:1 476:1 541:1 552:1 565:1 613:1 620:1 688:1 737:1 758:1 764:1 872:1 938:1 956:1 1060:1 1160:1 1305:1 1354:1 1455:1 1475:1 1538:1 1561:1 2256:1 2396:1 3313:1 3320:1 3729:1 3793:1 3925:1 4592:1 5227:1 5982:1 6155:1 6926:1 7213:1 7916:1 9572:1 9939:1 11122:1 11517:1 11729:1 12529:1 13316:1 14521:1 14953:1 15726:1 15928:1 16364:1 16486:1 18900:1 19881:1 23944:1 23988:1 25690:1 25989:1 30056:1 32864:1 37516:1 41723:1 44791:1 54427:1 60678:1 
0.0083814382736016862 9:1 10:1 11:1 12:1 13:1 14:1 15:1 16:1 17:1 19:1 20:1 21:1 22:1 23:1 24:1 26:1 27:1 28:1 29:1 31:1 34:1 49:1 50:1 61:1 62:1 64:1 65:1 66:1 76:1 79:1 81:1 83:1 171:1 187:1 193:1 194:1 216:1 248:1 268:1 273:1 277:1 318:1 320:1 325:1 327:1 342:1 368:1 375:1 403:1 420:1 438:1 446:1 448:1 501:1 522:1 530:1 540:1 549:1 572:1 592:1 620:1 630:1 668:1 682:1 688:1 696:1 701:1 707:1 712:1 725:1 731:1 737:1 743:1 747:1 758:1 781:1 789:1 812:1 862:1 882:1 949:1 1035:1 1037:1 1054:1 1060:1 1097:1 1116:1 1156:1 1160:1 1198:1 1203:1 1214:1 1232:1 1415:1 1455:1 1461:1 1506:1 1531:1 1546:1 2336:1 2438:1 2458:1 2476:1 2705:1 3044:1 3247:1 3266:1 3318:1 3883:1 3942:1 4018:1 4026:1 4042:1 4100:1 4249:1 4588:1 4619:1 5218:1 5610:1 5664:1 6363:1 6609:1 6744:1 6751:1 6901:1 6904:1 7049:1 7309:1 7532:1 8113:1 8622:1 8766:1 8869:1 8989:1 9115:1 9201:1 9474:1 9577:1 9653:1 9713:1 10187:1 10313:1 10657:1 11070:1 11223:1 11656:1 12314:1 12337:1 12477:1 12529:1 12797:1 12994:1 13284:1 13321:1 13653:1 13684:1 13780:1 13909:1 15393:1 15729:1 15775:1 16143:1 16336:1 16429:1 19397:1 19400:1 20115:1 20383:1 21548:1 23751:1 23759:1 23968:1 26619:1 27071:1 27570:1 27838:1 28275:1 28823:1 30049:1 32816:1 34758:1 35114:1 38131:1 38960:1 39649:1 40431:1 40988:1 42101:1 45427:1 47874:1 48363:1 48893:1 49658:1 50309:1 52153:1 52731:1 55681:1 56345:1 57887:1 59597:1 60091:1 61185:1 63321:1 63392:1 63876:1 
0.062426502085849857 9:1 10:1 11:1 13:1 14:1 15:1 16:1 17:1 20:1 21:1 22:1 23:1 26:1 27:1 28:1 29:1 39:1 61:1 62:1 63:1 66:1 67:1 69:1 74:1 81:1 171:1 188:1 189:1 216:1 248:1 258:1 303:1 321:1 350:1 365:1 380:1 388:1 394:1 403:1 450:1 455:1 462:1 517:1 552:1 589:1 595:1 597:1 602:1 603:1 608:1 626:1 688:1 725:1 731:1 758:1 800:1 816:1 817:1 987:1 1084:1 1098:1 1116:1 1146:1 1220:1 1241:1 1297:1 1373:1 1509:1 2346:1 2386:1 2683:1 2699:1 3044:1 3175:1 3957:1 4362:1 4365:1 4561:1 4709:1 4822:1 4927:1 5717:1 5803:1 5954:1 5959:1 7497:1 7624:1 7664:1 7736:1 7749:1 7824:1 8044:1 9474:1 10429:1 10707:1 10734:1 12019:1 12802:1 12988:1 13218:1 13813:1 13816:1 13972:1 14452:1 15110:1 16181:1 19789:1 21464:1 23376:1 27126:1 29290:1 29304:1 29967:1 30592:1 31108:1 31599:1 35434:1 36757:1 42647:1 43433:1 43663:1 43971:1 44029:1 45151:1 52153:1 56813:1 62348:1 
