svm_type c_svc
kernel_type linear
nr_class 2
total_sv 1215
rho -1.2413516243028024
label 0 1
probA -2.9822062778118097
probB -0.12658310103953704
nr_sv 769 446
SV
0.0088247776480316377 9:1 11:1 13:1 14:1 16:1 17:1 18:1 20:1 21:1 23:1 26:1 27:1 28:1 30:1 31:1 34:1 69:1 70:1 72:1 73:1 82:1 181:1 193:1 248:1 303:1 320:1 330:1 346:1 403:1 420:1 446:1 455:1 462:1 476:1 522:1 536:1 540:1 552:1 571:1 641:1 642:1 649:1 697:1 712:1 725:1 731:1 733:1 758:1 843:1 866:1 938:1 1282:1 1297:1 1305:1 1342:1 1357:1 1521:1 2199:1 2449:1 3044:1 3060:1 3925:1 4151:1 4281:1 5210:1 5610:1 5822:1 5959:1 6168:1 6599:1 6866:1 6901:1 7293:1 8320:1 8347:1 8464:1 8907:1 9201:1 9474:1 9494:1 10959:1 11092:1 11523:1 14314:1 14452:1 14533:1 14829:1 14976:1 16276:1 18544:1 20222:1 22832:1 28562:1 32772:1 34758:1 36025:1 36757:1 37560:1 38864:1 40287:1 42025:1 46545:1 46771:1 47282:1 49146:1 52167:1 59259:1 59717:1 60702:1 
0.015232631870523863 9:1 11:1 12:1 13:1 14:1 15:1 16:1 17:1 21:1 22:1 23:1 26:1 27:1 28:1 29:1 30:1 50:1 64:1 67:1 69:1 73:1 74:1 78:1 79:1 81:1 171:1 179:1 181:1 194:1 248:1 268:1 273:1 287:1 315:1 325:1 338:1 345:1 389:1 391:1 403:1 423:1 426:1 428:1 456:1 463:1 561:1 569:1 593:1 597:1 620:1 626:1 631:1 688:1 693:1 714:1 724:1 725:1 731:1 733:1 758:1 804:1 817:1 819:1 831:1 1047:1 1156:1 1170:1 1250:1 1252:1 1291:1 1353:1 1370:1 1372:1 1444:1 1449:1 1451:1 1499:1 1511:1 2153:1 2194:1 2458:1 3044:1 3063:1 3266:1 3441:1 3835:1 4018:1 4044:1 4274:1 4838:1 4856:1 5279:1 5318:1 5371:1 5844:1 5982:1 7159:1 7242:1 7582:1 7665:1 8044:1 8147:1 8812:1 9257:1 9361:1 9474:1 9505:1 10511:1 10734:1 10801:1 10871:1 12375:1 13284:1 13419:1 14048:1 14060:1 14402:1 14934:1 15079:1 15102:1 15601:1 15670:1 15688:1 16086:1 16215:1 22862:1 23751:1 24571:1 26260:1 27883:1 31159:1 31226:1 36125:1 41488:1 41840:1 43195:1 43679:1 45151:1 45618:1 48483:1 51165:1 51587:1 52170:1 52333:1 57195:1 58777:1 63455:1 
0.0053153794684636197 11:1 12:1 13:1 14:1 15:1 17:1 18:1 19:1 20:1 21:1 22:1 26:1 27:1 28:1 29:1 31:1 64:1 66:1 70:1 73:1 79:1 250:1 268:1 281:1 290:1 303:1 316:1 325:1 327:1 330:1 346:1 379:1 448:1 450:1 452:1 455:1 457:1 462:1 476:1 508:1 530:1 561:1 592:1 688:1 713:1 737:1 748:1 758:1 767:1 768:1 783:1 801:1 866:1 1164:1 1218:1 1305:1 1353:1 1455:1 3114:1 3375:1 3487:1 3864:1 4018:1 4102:1 4151:1 4302:1 4670:1 5643:1 5702:1 5764:1 5813:1 5864:1 5976:1 6168:1 6454:1 6755:1 7151:1 7532:1 9236:1 9587:1 9750:1 9975:1 10000:1 10229:1 10456:1 11091:1 13366:1 13804:1 14533:1 14930:1 15737:1 23195:1 24271:1 24782:1 26540:1 28306:1 28561:1 29057:1 35299:1 35648:1 35955:1 36221:1 36880:1 37560:1 39688:1 41436:1 51025:1 52840:1 53667:1 54598:1 54769:1 55931:1 56936:1 59700:1 
0.006050773693497569 9:1 10:1 12:1 13:1 15:1 16:1 17:1 22:1 23:1 24:1 26:1 27:1 28:1 29:1 30:1 34:1 39:1 49:1 61:1 64:1 68:1 79:1 81:1 82:1 189:1 220:1 268:1 277:1 281:1 303:1 315:1 325:1 333:1 369:1 379:1 426:1 435:1 450:1 457:1 592:1 593:1 597:1 637:1 673:1 688:1 694:1 712:1 723:1 733:1 737:1 743:1 744:1 758:1 803:1 812:1 835:1 957:1 991:1 1024:1 1099:1 1160:1 1275:1 1451:1 1455:1 1461:1 1462:1 1506:1 1516:1 2377:1 2762:1 3331:1 3377:1 3835:1 4024:1 4205:1 4670:1 5318:1 5492:1 5694:1 5702:1 5864:1 7532:1 7545:1 7564:1 7653:1 8259:1 8679:1 8841:1 9201:1 9345:1 9505:1 9587:1 9669:1 9692:1 10483:1 10657:1 10907:1 11754:1 12063:1 12177:1 12825:1 13332:1 14273:1 15688:1 15737:1 15789:1 15810:1 16143:1 16236:1 19685:1 21759:1 24118:1 24286:1 26260:1 27551:1 28721:1 34239:1 35299:1 36221:1 36230:1 42915:1 43594:1 46187:1 48136:1 48772:1 51525:1 52333:1 52840:1 53196:1 53312:1 57887:1 59038:1 61462:1 62581:1 
0.00022223556774709995 9:1 10:1 11:1 12:1 13:1 15:1 16:1 17:1 19:1 20:1 21:1 22:1 23:1 24:1 26:1 27:1 28:1 29:1 31:1 34:1 39:1 50:1 64:1 65:1 71:1 73:1 78:1 79:1 80:1 83:1 171:1 177:1 183:1 187:1 193:1 194:1 196:1 212:1 223:1 235:1 248:1 268:1 293:1 303:1 318:1 319:1 321:1 323:1 325:1 392:1 409:1 413:1 417:1 420:1 421:1 426:1 444:1 448:1 454:1 457:1 486:1 506:1 508:1 516:1 522:1 526:1 533:1 534:1 540:1 557:1 558:1 565:1 585:1 589:1 599:1 607:1 620:1 631:1 646:1 658:1 683:1 688:1 696:1 697:1 701:1 707:1 718:1 731:1 736:1 737:1 743:1 744:1 748:1 764:1 781:1 784:1 800:1 805:1 811:1 812:1 862:1 880:1 957:1 987:1 992:1 1047:1 1176:1 1197:1 1334:1 1354:1 1431:1 1455:1 1461:1 1462:1 1486:1 1544:1 2134:1 2250:1 2256:1 2330:1 2434:1 2438:1 2462:1 2517:1 2630:1 2790:1 2938:1 3057:1 3061:1 3066:1 3558:1 3888:1 3902:1 3909:1 3954:1 4002:1 4018:1 4026:1 4875:1 5065:1 5119:1 5182:1 5226:1 5236:1 5343:1 5577:1 5643:1 5796:1 5861:1 6424:1 6468:1 6560:1 6601:1 6682:1 6688:1 6796:1 6823:1 6904:1 7104:1 7116:1 7206:1 7482:1 7675:1 7815:1 8136:1 8432:1 8508:1 8769:1 8866:1 8908:1 8910:1 8985:1 9116:1 9131:1 9330:1 9474:1 9558:1 9579:1 9653:1 9697:1 9746:1 9928:1 10187:1 10263:1 10426:1 10547:1 10630:1 10670:1 11066:1 11194:1 11756:1 12021:1 12070:1 12377:1 12378:1 13506:1 13635:1 14736:1 14947:1 15506:1 15731:1 15775:1 15814:1 16021:1 16412:1 18278:1 18843:1 18899:1 19357:1 20075:1 20112:1 20307:1 20693:1 21860:1 22408:1 22813:1 22841:1 22905:1 25038:1 26644:1 26727:1 26799:1 27441:1 27568:1 31385:1 32075:1 32351:1 32652:1 32860:1 32928:1 33523:1 34583:1 35843:1 36195:1 38425:1 38569:1 38779:1 38891:1 39320:1 39362:1 39941:1 40109:1 40431:1 41236:1 41321:1 41675:1 44330:1 45528:1 47224:1 47402:1 48368:1 49161:1 49183:1 49605:1 50325:1 50486:1 51477:1 52165:1 52168:1 52172:1 52661:1 52743:1 53335:1 53624:1 54324:1 55682:1 56109:1 56794:1 57430:1 57728:1 58023:1 59569:1 60005:1 61490:1 62362:1 62618:1 63474:1 63486:1 
0.0079620616200427041 9:1 10:1 11:1 12:1 13:1 15:1 16:1 17:1 19:1 20:1 21:1 22:1 23:1 24:1 26:1 27:1 28:1 29:1 31:1 34:1 62:1 64:1 67:1 71:1 73:1 75:1 79:1 81:1 86:1 171:1 183:1 196:1 216:1 248:1 250:1 268:1 277:1 281:1 310:1 311:1 325:1 369:1 391:1 420:1 423:1 428:1 446:1 450:1 457:1 462:1 463:1 490:1 503:1 508:1 517:1 565:1 592:1 596:1 603:1 627:1 638:1 641:1 642:1 658:1 688:1 693:1 706:1 729:1 737:1 744:1 747:1 748:1 758:1 768:1 812:1 821:1 866:1 959:1 1116:1 1153:1 1164:1 1252:1 1315:1 1325:1 1354:1 1390:1 1455:1 1466:1 1506:1 1582:1 2256:1 2536:1 2690:1 3068:1 3114:1 3310:1 3324:1 3373:1 3716:1 3729:1 4018:1 4036:1 4856:1 5206:1 5295:1 5371:1 5610:1 5694:1 5864:1 5975:1 5982:1 6256:1 6383:1 6454:1 7213:1 7532:1 7639:1 7761:1 8058:1 8290:1 8314:1 8357:1 8494:1 8829:1 9091:1 9428:1 9587:1 9683:1 9716:1 9750:1 10000:1 10657:1 10817:1 11089:1 11096:1 11779:1 12979:1 13364:1 14060:1 14592:1 14656:1 14953:1 15193:1 15737:1 15836:1 16143:1 16646:1 18883:1 20863:1 21365:1 22932:1 23195:1 23921:1 24034:1 24266:1 25635:1 25684:1 27747:1 31238:1 33263:1 34779:1 36221:1 36858:1 37729:1 38233:1 41723:1 43534:1 44115:1 45227:1 46362:1 46833:1 48693:1 50186:1 52840:1 53246:1 53410:1 53667:1 54785:1 57887:1 58840:1 59680:1 59752:1 61577:1 
0.065008268665413191 9:1 11:1 12:1 13:1 15:1 16:1 17:1 19:1 20:1 21:1 22:1 26:1 27:1 28:1 29:1 50:1 64:1 67:1 69:1 78:1 81:1 187:1 248:1 268:1 281:1 327:1 369:1 387:1 403:1 428:1 446:1 450:1 452:1 454:1 461:1 462:1 490:1 517:1 530:1 584:1 592:1 701:1 713:1 731:1 748:1 772:1 775:1 812:1 817:1 1051:1 1164:1 1248:1 1297:1 1437:1 1506:1 2315:1 3044:1 3068:1 3379:1 4095:1 4816:1 5382:1 5610:1 5694:1 5769:1 5783:1 5937:1 5959:1 6260:1 6751:1 7450:1 7532:1 8987:1 9250:1 9474:1 9754:1 10067:1 10071:1 10112:1 10657:1 10754:1 12429:1 13370:1 14032:1 14452:1 15571:1 16143:1 22941:1 24302:1 28247:1 31074:1 33723:1 34758:1 34779:1 35680:1 35781:1 36640:1 36757:1 37742:1 39649:1 42458:1 49627:1 51131:1 52153:1 53703:1 55099:1 55129:1 55330:1 57887:1 58538:1 63702:1 
0.010336511862516893 3:1 9:1 10:1 11:1 12:1 13:1 15:1 16:1 17:1 20:1 21:1 22:1 23:1 26:1 27:1 28:1 29:1 30:1 31:1 34:1 39:1 61:1 62:1 64:1 65:1 67:1 68:1 73:1 79:1 86:1 95:1 102:1 177:1 194:1 195:1 216:1 248:1 269:1 273:1 281:1 303:1 310:1 314:1 315:1 316:1 321:1 325:1 326:1 327:1 386:1 391:1 413:1 417:1 426:1 448:1 457:1 458:1 463:1 526:1 561:1 585:1 602:1 603:1 637:1 642:1 645:1 688:1 700:1 707:1 712:1 715:1 725:1 733:1 737:1 741:1 747:1 748:1 758:1 768:1 772:1 784:1 802:1 831:1 880:1 935:1 991:1 1087:1 1116:1 1154:1 1156:1 1185:1 1199:1 1252:1 1264:1 1353:1 1451:1 1455:1 1466:1 1560:1 1646:1 1722:1 2117:1 2476:1 2496:1 2693:1 2703:1 2704:1 3053:1 3212:1 3266:1 3375:1 3714:1 3805:1 3835:1 3865:1 3954:1 4018:1 4030:1 4066:1 4081:1 4798:1 4859:1 5119:1 5121:1 5174:1 5341:1 5643:1 5666:1 5874:1 5899:1 5992:1 6680:1 7150:1 7159:1 7161:1 7732:1 7764:1 8247:1 8359:1 8420:1 8969:1 9127:1 9201:1 9276:1 9494:1 9500:1 9579:1 9635:1 9713:1 9720:1 9765:1 9981:1 10075:1 10255:1 10471:1 10888:1 11193:1 11474:1 12063:1 12666:1 12993:1 13245:1 13284:1 13659:1 14063:1 14188:1 14929:1 14936:1 15683:1 15731:1 15843:1 16457:1 16883:1 17141:1 18139:1 20383:1 20534:1 21392:1 21486:1 21527:1 22762:1 23500:1 23759:1 24271:1 25603:1 26076:1 26280:1 26548:1 27647:1 28055:1 30965:1 31279:1 32355:1 32381:1 32591:1 33506:1 35137:1 36342:1 36472:1 36958:1 39314:1 41426:1 41488:1 41525:1 43958:1 44143:1 46843:1 47180:1 49533:1 50441:1 51262:1 52267:1 52743:1 53069:1 53445:1 53782:1 55182:1 56068:1 56983:1 58987:1 60002:1 60505:1 62581:1 
0.015513440213321184 9:1 11:1 12:1 13:1 14:1 15:1 16:1 17:1 22:1 23:1 26:1 27:1 28:1 50:1 64:1 65:1 66:1 67:1 69:1 74:1 79:1 171:1 178:1 181:1 182:1 189:1 248:1 273:1 277:1 303:1 321:1 325:1 338:1 349:1 357:1 369:1 392:1 403:1 409:1 423:1 462:1 585:1 589:1 592:1 593:1 629:1 688:1 724:1 729:1 731:1 748:1 764:1 1051:1 1156:1 1160:1 1199:1 1226:1 1253:1 1297:1 1367:1 1447:1 1449:1 2144:1 2202:1 2217:1 2376:1 3044:1 3049:1 3247:1 3305:1 3954:1 3961:1 4018:1 4349:1 4451:1 4887:1 5051:1 5287:1 5959:1 7486:1 7541:1 7582:1 8089:1 9365:1 9436:1 9474:1 9746:1 9939:1 12425:1 13266:1 13310:1 13659:1 13865:1 14079:1 14452:1 15045:1 15643:1 15670:1 18316:1 18568:1 19666:1 22707:1 27185:1 29241:1 29659:1 31457:1 31944:1 33189:1 36757:1 42536:1 42865:1 43174:1 51611:1 51904:1 52153:1 52157:1 53634:1 54416:1 63672:1 
0.0081610110794573566 9:1 10:1 11:1 12:1 13:1 15:1 16:1 17:1 20:1 21:1 22:1 23:1 24:1 26:1 27:1 28:1 29:1 30:1 31:1 64:1 67:1 73:1 78:1 79:1 81:1 82:1 83:1 189:1 216:1 248:1 268:1 277:1 281:1 293:1 303:1 321:1 323:1 325:1 396:1 403:1 420:1 428:1 446:1 448:1 455:1 457:1 461:1 463:1 517:1 526:1 533:1 561:1 565:1 589:1 592:1 593:1 625:1 672:1 674:1 688:1 697:1 707:1 731:1 758:1 795:1 811:1 812:1 838:1 866:1 1164:1 1176:1 1257:1 1354:1 1434:1 1449:1 1505:1 1506:1 1518:1 1533:1 2376:1 2683:1 3044:1 3060:1 3068:1 3324:1 3383:1 3386:1 3543:1 3957:1 4009:1 4018:1 4027:1 4944:1 5214:1 5371:1 5610:1 5643:1 5815:1 5865:1 5928:1 5982:1 6687:1 6792:1 7155:1 7213:1 7497:1 7532:1 7541:1 7582:1 8026:1 8660:1 8683:1 8893:1 9110:1 9474:1 10633:1 10657:1 10927:1 11085:1 11087:1 13374:1 13377:1 13494:1 14100:1 14953:1 15536:1 15670:1 16124:1 16143:1 16250:1 16347:1 19660:1 22833:1 22932:1 24034:1 24321:1 24345:1 27126:1 27473:1 27587:1 31658:1 32800:1 34779:1 35970:1 36260:1 39360:1 41467:1 41723:1 42643:1 42880:1 43180:1 45090:1 48032:1 48150:1 50264:1 52153:1 52167:1 57744:1 57892:1 59128:1 59655:1 59663:1 
0.00082778645375748499 9:1 10:1 11:1 12:1 13:1 14:1 15:1 16:1 17:1 20:1 21:1 22:1 23:1 24:1 26:1 27:1 28:1 29:1 30:1 39:1 49:1 61:1 62:1 64:1 65:1 66:1 69:1 75:1 80:1 82:1 171:1 178:1 187:1 189:1 193:1 194:1 195:1 216:1 220:1 241:1 248:1 273:1 281:1 301:1 309:1 316:1 319:1 325:1 342:1 375:1 379:1 392:1 403:1 415:1 444:1 446:1 448:1 450:1 456:1 457:1 462:1 517:1 540:1 552:1 592:1 597:1 607:1 641:1 665:1 699:1 701:1 706:1 712:1 725:1 731:1 737:1 744:1 748:1 758:1 784:1 791:1 795:1 816:1 848:1 987:1 1037:1 1097:1 1116:1 1156:1 1183:1 1195:1 1214:1 1291:1 1292:1 1297:1 1401:1 1486:1 1523:1 2140:1 2144:1 2336:1 2381:1 2449:1 2477:1 2485:1 2703:1 2750:1 2995:1 3044:1 3055:1 3247:1 3372:1 3377:1 3632:1 3695:1 3854:1 3894:1 4031:1 4242:1 4635:1 4638:1 4674:1 4866:1 5145:1 5563:1 5577:1 5579:1 5610:1 5658:1 5699:1 5715:1 5832:1 5864:1 5959:1 5965:1 6901:1 7545:1 7664:1 7811:1 8322:1 8593:1 8943:1 8987:1 9098:1 9201:1 9474:1 9575:1 9688:1 9770:1 10267:1 10342:1 10720:1 10984:1 12016:1 12329:1 12797:1 12992:1 13266:1 13548:1 13622:1 13775:1 14397:1 14412:1 14452:1 15280:1 16023:1 16287:1 18300:1 18324:1 19397:1 19746:1 20222:1 20425:1 21498:1 21690:1 22782:1 24250:1 24291:1 25263:1 25496:1 26397:1 27663:1 28786:1 30184:1 30218:1 30328:1 32466:1 34484:1 34594:1 34609:1 34758:1 35037:1 35289:1 35389:1 36230:1 36757:1 36799:1 42911:1 42915:1 43670:1 44309:1 46567:1 47733:1 49380:1 49627:1 50219:1 52153:1 52717:1 53282:1 53822:1 56142:1 56449:1 58276:1 62322:1 
0.096564190699715738 9:1 10:1 11:1 13:1 14:1 16:1 17:1 20:1 21:1 27:1 28:1 29:1 31:1 69:1 79:1 80:1 177:1 188:1 231:1 248:1 316:1 352:1 403:1 431:1 449:1 456:1 462:1 522:1 526:1 552:1 731:1 740:1 764:1 795:1 866:1 1291:1 1297:1 1449:1 1475:1 2131:1 2346:1 2881:1 3044:1 3071:1 3864:1 4385:1 5433:1 5681:1 5832:1 5959:1 5968:1 6605:1 6680:1 9474:1 9620:1 9928:1 11088:1 14397:1 14452:1 14458:1 15670:1 15919:1 18246:1 22987:1 26527:1 29388:1 34018:1 35220:1 36757:1 36822:1 38913:1 39313:1 52153:1 52177:1 52989:1 54323:1 59678:1 
0.014942254390916161 9:1 10:1 11:1 13:1 15:1 16:1 17:1 20:1 21:1 22:1 23:1 26:1 27:1 28:1 30:1 31:1 34:1 61:1 67:1 69:1 73:1 79:1 82:1 86:1 177:1 194:1 216:1 230:1 248:1 309:1 319:1 325:1 326:1 327:1 383:1 391:1 392:1 396:1 426:1 428:1 446:1 448:1 457:1 463:1 517:1 557:1 607:1 620:1 642:1 688:1 701:1 707:1 725:1 731:1 733:1 743:1 747:1 758:1 782:1 789:1 838:1 866:1 934:1 944:1 1087:1 1104:1 1244:1 1253:1 1257:1 1292:1 1350:1 1449:1 1461:1 1518:1 1567:1 2117:1 2458:1 2703:1 2868:1 3066:1 3068:1 3703:1 3894:1 4018:1 4051:1 4107:1 4772:1 4859:1 4872:1 4944:1 5329:1 5371:1 5610:1 5649:1 5658:1 5879:1 6005:1 7104:1 7792:1 8359:1 8989:1 9127:1 9474:1 9516:1 9517:1 9653:1 9720:1 10195:1 10301:1 10923:1 11085:1 11598:1 12666:1 12874:1 14004:1 14072:1 14100:1 14425:1 14908:1 15670:1 15775:1 16246:1 16533:1 18139:1 21486:1 22900:1 22932:1 25549:1 28340:1 30889:1 31279:1 31367:1 31658:1 33432:1 34779:1 34957:1 35037:1 36371:1 37058:1 41234:1 46843:1 49647:1 50441:1 52172:1 52452:1 52474:1 53463:1 59105:1 59655:1 60973:1 
0.0015284897648450433 9:1 11:1 12:1 13:1 14:1 15:1 16:1 17:1 18:1 19:1 22:1 23:1 26:1 27:1 29:1 31:1 39:1 64:1 69:1 70:1 71:1 75:1 83:1 171:1 196:1 248:1 250:1 273:1 277:1 290:1 325:1 357:1 380:1 383:1 403:1 438:1 446:1 447:1 450:1 454:1 462:1 481:1 494:1 498:1 595:1 632:1 688:1 693:1 701:1 718:1 731:1 737:1 795:1 812:1 866:1 976:1 1156:1 1173:1 1297:1 1308:1 1320:1 1395:1 1533:1 2514:1 3044:1 3101:1 3105:1 3247:1 3324:1 3491:1 4018:1 4031:1 4442:1 4706:1 4753:1 5612:1 5625:1 5706:1 5789:1 5959:1 5965:1 6212:1 6301:1 6332:1 6335:1 6338:1 7616:1 8170:1 8829:1 8995:1 9319:1 9474:1 9572:1 10660:1 11086:1 11883:1 13266:1 13464:1 14452:1 14565:1 14628:1 15219:1 16346:1 23120:1 23142:1 24034:1 24795:1 27671:1 29590:1 30574:1 34792:1 34850:1 35339:1 35801:1 36757:1 36798:1 37646:1 37944:1 38037:1 38051:1 43388:1 45686:1 48676:1 49716:1 51416:1 52153:1 57933:1 59658:1 61860:1 
0.018519464253699235 9:1 10:1 11:1 12:1 13:1 15:1 16:1 17:1 26:1 27:1 62:1 63:1 64:1 67:1 171:1 194:1 216:1 248:1 273:1 281:1 315:1 325:1 326:1 392:1 403:1 409:1 438:1 688:1 733:1 737:1 747:1 1116:1 1138:1 1156:1 1164:1 1253:1 2476:1 2704:1 3049:1 3266:1 3370:1 3819:1 4018:1 4071:1 4872:1 5043:1 9505:1 9515:1 9572:1 9720:1 9724:1 12993:1 13161:1 13284:1 13362:1 14072:1 20392:1 21531:1 22700:1 23759:1 28088:1 31359:1 52322:1 52426:1 53462:1 53483:1 
0.0021571780662118841 9:1 10:1 11:1 12:1 13:1 14:1 15:1 16:1 17:1 18:1 19:1 20:1 21:1 22:1 23:1 24:1 26:1 27:1 28:1 29:1 30:1 31:1 39:1 62:1 64:1 67:1 68:1 69:1 78:1 79:1 82:1 83:1 194:1 220:1 231:1 248:1 250:1 273:1 293:1 303:1 316:1 319:1 325:1 327:1 338:1 392:1 403:1 413:1 426:1 438:1 446:1 448:1 456:1 462:1 463:1 476:1 494:1 514:1 517:1 527:1 530:1 552:1 599:1 626:1 635:1 643:1 668:1 672:1 702:1 707:1 711:1 725:1 731:1 733:1 737:1 758:1 774:1 801:1 812:1 819:1 835:1 866:1 872:1 989:1 1119:1 1126:1 1156:1 1176:1 1253:1 1264:1 1282:1 1291:1 1297:1 1434:1 1445:1 1455:1 1516:1 1533:1 1538:1 2458:1 2747:1 2900:1 3044:1 3066:1 3101:1 3266:1 3558:1 3865:1 3894:1 4032:1 4041:1 4081:1 4872:1 5119:1 5121:1 5335:1 5610:1 5643:1 5832:1 5959:1 5982:1 6151:1 6286:1 6297:1 6542:1 6697:1 6744:1 7681:1 8046:1 8199:1 8380:1 8617:1 8656:1 9014:1 9111:1 9128:1 9177:1 9474:1 9506:1 9586:1 10104:1 10454:1 10663:1 10790:1 10907:1 11087:1 11132:1 12037:1 13007:1 13095:1 13284:1 13506:1 14072:1 14186:1 14188:1 14314:1 14397:1 14452:1 15549:1 15736:1 16236:1 16347:1 16373:1 22333:1 22902:1 23113:1 23751:1 25034:1 26543:1 27686:1 27814:1 31360:1 32357:1 32381:1 33455:1 34758:1 36757:1 37900:1 38740:1 43744:1 45185:1 45796:1 46976:1 47845:1 48020:1 49833:1 50275:1 50455:1 50683:1 52153:1 52172:1 52352:1 52827:1 55293:1 56899:1 57972:1 58716:1 59055:1 59663:1 59824:1 62446:1 
0.018543493314247907 4:1 9:1 11:1 12:1 13:1 14:1 15:1 16:1 17:1 21:1 22:1 23:1 24:1 25:1 27:1 28:1 29:1 31:1 64:1 65:1 68:1 69:1 73:1 77:1 79:1 81:1 83:1 126:1 173:1 189:1 194:1 248:1 253:1 268:1 277:1 320:1 326:1 327:1 338:1 369:1 403:1 413:1 428:1 446:1 448:1 450:1 457:1 462:1 463:1 552:1 565:1 572:1 592:1 595:1 608:1 620:1 636:1 676:1 687:1 725:1 731:1 737:1 743:1 758:1 764:1 772:1 782:1 799:1 804:1 812:1 818:1 858:1 866:1 1160:1 1204:1 1264:1 1297:1 1354:1 1428:1 1455:1 1461:1 1499:1 1506:1 1528:1 1533:1 1897:1 2069:1 2391:1 2458:1 3044:1 3068:1 3140:1 3320:1 3925:1 4051:1 4068:1 4101:1 5121:1 5382:1 5610:1 5665:1 5694:1 5867:1 5959:1 5982:1 7213:1 7307:1 7532:1 7607:1 7828:1 8237:1 8736:1 8781:1 9474:1 9577:1 9653:1 9925:1 10067:1 10074:1 10195:1 10414:1 10506:1 10657:1 10772:1 11039:1 11085:1 11087:1 13323:1 13708:1 14188:1 14452:1 14953:1 15466:1 15729:1 15775:1 16082:1 16143:1 16315:1 16345:1 16347:1 17625:1 17952:1 19834:1 22941:1 23290:1 23988:1 28064:1 28281:1 32391:1 33723:1 34758:1 34779:1 35130:1 36274:1 36757:1 41723:1 42099:1 44388:1 46049:1 48300:1 48394:1 52153:1 52731:1 54308:1 55099:1 55169:1 56736:1 57887:1 58625:1 59457:1 59655:1 59675:1 
0.015668329025053031 9:1 10:1 11:1 12:1 13:1 14:1 15:1 16:1 17:1 21:1 23:1 26:1 27:1 28:1 31:1 34:1 61:1 62:1 64:1 69:1 79:1 83:1 86:1 178:1 181:1 220:1 226:1 248:1 281:1 303:1 314:1 325:1 359:1 379:1 403:1 409:1 421:1 423:1 431:1 438:1 448:1 451:1 462:1 552:1 620:1 643:1 688:1 731:1 733:1 758:1 782:1 862:1 866:1 955:1 1088:1 1119:1 1123:1 1164:1 1287:1 1297:1 1449:1 1533:1 1578:1 2144:1 2211:1 2747:1 2825:1 3044:1 3049:1 3063:1 3071:1 3375:1 3799:1 4018:1 4475:1 4670:1 5051:1 5235:1 5279:1 5432:1 5643:1 5737:1 5959:1 8387:1 9474:1 9504:1 10200:1 11070:1 11087:1 11720:1 12687:1 13007:1 13057:1 13366:1 14356:1 14452:1 15670:1 16347:1 16610:1 18330:1 18622:1 22011:1 22707:1 22862:1 22986:1 24271:1 26017:1 31947:1 34012:1 35516:1 36757:1 47002:1 52153:1 52157:1 52177:1 52311:1 55771:1 59593:1 59663:1 61356:1 
0.0028328790210009223 9:1 10:1 11:1 12:1 13:1 14:1 15:1 16:1 17:1 18:1 20:1 21:1 22:1 23:1 26:1 27:1 28:1 29:1 31:1 32:1 34:1 49:1 62:1 64:1 65:1 66:1 67:1 68:1 69:1 70:1 73:1 74:1 79:1 80:1 81:1 83:1 171:1 178:1 181:1 182:1 184:1 189:1 193:1 194:1 212:1 223:1 248:1 268:1 273:1 291:1 309:1 311:1 320:1 325:1 326:1 328:1 331:1 347:1 357:1 359:1 369:1 375:1 403:1 409:1 426:1 438:1 448:1 457:1 462:1 463:1 473:1 476:1 478:1 530:1 552:1 557:1 565:1 577:1 592:1 597:1 609:1 613:1 631:1 688:1 693:1 697:1 701:1 712:1 725:1 731:1 733:1 747:1 758:1 764:1 781:1 799:1 802:1 812:1 816:1 858:1 899:1 938:1 1036:1 1121:1 1156:1 1174:1 1204:1 1209:1 1226:1 1236:1 1262:1 1278:1 1297:1 1305:1 1307:1 1350:1 1354:1 1361:1 1378:1 1449:1 1451:1 1475:1 1483:1 1506:1 1528:1 2144:1 2200:1 2217:1 2284:1 2396:1 2449:1 2458:1 2476:1 2630:1 2791:1 3044:1 3049:1 3247:1 3266:1 3494:1 3690:1 3725:1 3925:1 4023:1 4031:1 4051:1 4117:1 4171:1 4327:1 4444:1 4475:1 4635:1 5043:1 5051:1 5062:1 5318:1 5649:1 5664:1 5869:1 5959:1 5982:1 6124:1 6155:1 6185:1 6753:1 7086:1 7090:1 7213:1 7365:1 7532:1 7651:1 7867:1 7898:1 8145:1 8806:1 8817:1 8907:1 8915:1 9012:1 9201:1 9474:1 9515:1 9713:1 9933:1 10179:1 10183:1 10418:1 10462:1 10657:1 10707:1 11039:1 11299:1 11510:1 12318:1 13033:1 13284:1 13467:1 13708:1 13765:1 13859:1 13929:1 14162:1 14452:1 14521:1 14545:1 14893:1 14895:1 14953:1 14985:1 15139:1 15670:1 15697:1 15923:1 15999:1 16143:1 16315:1 18318:1 18563:1 19064:1 19865:1 20222:1 20383:1 21868:1 22700:1 22707:1 23751:1 25453:1 25663:1 27524:1 27684:1 28391:1 28640:1 29153:1 29604:1 30189:1 31943:1 32048:1 34947:1 35098:1 36304:1 36757:1 37447:1 37515:1 37591:1 39662:1 41105:1 41723:1 42228:1 43586:1 44622:1 44702:1 45596:1 48551:1 49146:1 49246:1 49829:1 52153:1 52157:1 52436:1 54344:1 55620:1 55645:1 56756:1 57887:1 59457:1 60220:1 
0.042828163472842892 10:1 12:1 13:1 14:1 15:1 17:1 19:1 20:1 22:1 23:1 26:1 27:1 28:1 29:1 39:1 62:1 64:1 65:1 66:1 74:1 78:1 79:1 216:1 268:1 293:1 303:1 309:1 316:1 319:1 325:1 326:1 346:1 399:1 438:1 457:1 494:1 517:1 592:1 599:1 609:1 620:1 643:1 688:1 707:1 711:1 733:1 737:1 743:1 770:1 812:1 816:1 985:1 1116:1 1153:1 1176:1 1188:1 1218:1 1378:1 1434:1 1455:1 2695:1 2704:1 3558:1 3693:1 3845:1 3894:1 4041:1 4068:1 4300:1 4982:1 5864:1 6297:1 7532:1 7681:1 7867:1 8376:1 9128:1 9179:1 9494:1 9587:1 9653:1 10035:1 10663:1 10707:1 11978:1 12984:1 13506:1 13571:1 13802:1 15139:1 15549:1 15737:1 21408:1 21528:1 25034:1 25487:1 27816:1 28064:1 29041:1 31765:1 36221:1 37900:1 43744:1 44622:1 46945:1 50451:1 50687:1 52840:1 54957:1 57972:1 
0.0045441870154372755 9:1 10:1 11:1 12:1 13:1 15:1 16:1 17:1 19:1 20:1 22:1 23:1 24:1 26:1 27:1 28:1 29:1 30:1 50:1 62:1 67:1 71:1 74:1 76:1 81:1 82:1 176:1 178:1 193:1 228:1 250:1 281:1 321:1 325:1 383:1 437:1 438:1 448:1 455:1 462:1 463:1 504:1 508:1 517:1 530:1 533:1 541:1 589:1 592:1 597:1 610:1 639:1 658:1 662:1 676:1 688:1 697:1 700:1 724:1 725:1 748:1 758:1 772:1 782:1 810:1 812:1 835:1 838:1 1056:1 1061:1 1124:1 1244:1 1326:1 1367:1 1408:1 1410:1 1506:1 1518:1 2104:1 2146:1 2426:1 2844:1 3114:1 3370:1 3960:1 3965:1 4027:1 4030:1 4772:1 5524:1 5664:1 5815:1 5954:1 6005:1 6403:1 6462:1 6753:1 6792:1 6814:1 6938:1 7486:1 7545:1 7664:1 7877:1 8308:1 8496:1 8538:1 8730:1 8908:1 8981:1 9375:1 9742:1 10058:1 10195:1 10610:1 10673:1 10907:1 10927:1 12490:1 12572:1 13071:1 14004:1 14675:1 15045:1 15315:1 15342:1 16159:1 16250:1 18050:1 18353:1 22142:1 23199:1 27154:1 27224:1 27599:1 27657:1 30889:1 34383:1 35102:1 35970:1 37058:1 38325:1 38543:1 39672:1 40063:1 40556:1 42537:1 42909:1 43663:1 44657:1 46471:1 47337:1 47512:1 48269:1 49164:1 49585:1 51671:1 57637:1 58046:1 59044:1 59128:1 63909:1 64250:1 
0.0090521517204467522 9:1 10:1 12:1 13:1 15:1 17:1 19:1 20:1 21:1 22:1 23:1 26:1 27:1 28:1 29:1 62:1 67:1 69:1 75:1 79:1 171:1 179:1 189:1 216:1 268:1 284:1 311:1 325:1 328:1 391:1 392:1 393:1 448:1 450:1 456:1 508:1 522:1 530:1 552:1 592:1 593:1 625:1 688:1 693:1 697:1 704:1 706:1 713:1 725:1 737:1 747:1 748:1 781:1 782:1 784:1 809:1 816:1 817:1 1116:1 1252:1 1286:1 1291:1 1388:1 1466:1 2153:1 2376:1 2703:1 3412:1 3734:1 4018:1 4034:1 4036:1 4130:1 4856:1 4886:1 4905:1 5651:1 5715:1 5716:1 5832:1 6471:1 6606:1 6755:1 7532:1 7582:1 8026:1 8806:1 8812:1 8915:1 9044:1 9088:1 9243:1 9579:1 9734:1 9762:1 10183:1 10190:1 10195:1 10267:1 10598:1 10708:1 10745:1 12992:1 14060:1 14341:1 14397:1 15180:1 15842:1 19660:1 21500:1 21502:1 24467:1 25721:1 27712:1 27744:1 28469:1 31226:1 31454:1 31525:1 34974:1 35408:1 35424:1 38582:1 38928:1 39699:1 43174:1 45095:1 48483:1 49254:1 49962:1 50174:1 51072:1 52746:1 53565:1 53758:1 53763:1 55650:1 55706:1 56131:1 57591:1 58163:1 58462:1 
0.008043590471152039 9:1 10:1 11:1 12:1 15:1 16:1 17:1 20:1 24:1 26:1 27:1 28:1 34:1 39:1 62:1 67:1 68:1 69:1 88:1 171:1 193:1 220:1 248:1 268:1 392:1 399:1 403:1 409:1 438:1 446:1 463:1 525:1 530:1 658:1 712:1 744:1 758:1 789:1 949:1 970:1 985:1 1119:1 1253:1 1259:1 1262:1 1282:1 1589:1 2449:1 2766:1 3044:1 4883:1 4982:1 5043:1 5610:1 6012:1 6642:1 6744:1 8508:1 9201:1 9683:1 10313:1 11656:1 11981:1 13024:1 14077:1 14117:1 14146:1 14314:1 20222:1 21808:1 31430:1 31768:1 34758:1 37139:1 47411:1 53253:1 56345:1 61184:1 62157:1 
0.0041899016465067147 9:1 11:1 12:1 13:1 15:1 16:1 17:1 20:1 27:1 28:1 29:1 34:1 50:1 61:1 67:1 68:1 69:1 86:1 179:1 187:1 248:1 268:1 303:1 375:1 386:1 403:1 429:1 446:1 462:1 526:1 541:1 725:1 768:1 817:1 964:1 1053:1 1097:1 1236:1 1273:1 1282:1 1297:1 1587:1 2153:1 2337:1 3044:1 4626:1 4798:1 5418:1 5610:1 5954:1 6668:1 6934:1 9981:1 10734:1 11834:1 12465:1 12798:1 13923:1 14255:1 14314:1 14449:1 16683:1 19415:1 30121:1 30955:1 33948:1 34758:1 40532:1 61732:1 63850:1 
0.0015928230011371528 9:1 10:1 11:1 12:1 13:1 14:1 15:1 16:1 17:1 18:1 20:1 21:1 22:1 24:1 26:1 27:1 28:1 29:1 30:1 34:1 62:1 65:1 69:1 70:1 79:1 82:1 86:1 171:1 196:1 216:1 220:1 248:1 284:1 303:1 309:1 315:1 319:1 321:1 325:1 352:1 379:1 383:1 392:1 403:1 409:1 417:1 421:1 426:1 428:1 438:1 446:1 448:1 450:1 452:1 463:1 481:1 517:1 530:1 552:1 561:1 565:1 592:1 663:1 693:1 701:1 711:1 713:1 731:1 737:1 741:1 744:1 768:1 772:1 783:1 805:1 806:1 811:1 817:1 835:1 934:1 957:1 1116:1 1194:1 1288:1 1308:1 1455:1 1516:1 1559:1 1580:1 2532:1 2703:1 2756:1 3044:1 3049:1 3057:1 3066:1 3068:1 3412:1 3695:1 3831:1 3894:1 3960:1 4023:1 4041:1 4043:1 4386:1 4685:1 4753:1 4762:1 4880:1 4883:1 5043:1 5168:1 5176:1 5238:1 5329:1 5382:1 5610:1 5649:1 5706:1 5715:1 5750:1 6006:1 6208:1 6751:1 7142:1 7213:1 7548:1 8559:1 8829:1 8989:1 9177:1 9241:1 9474:1 9577:1 9636:1 9686:1 9994:1 10067:1 10230:1 10537:1 10559:1 10626:1 10739:1 10907:1 11761:1 12992:1 13608:1 14365:1 14561:1 15729:1 16236:1 16632:1 20831:1 21490:1 21509:1 21716:1 22700:1 22801:1 22900:1 22941:1 24464:1 25499:1 26221:1 27157:1 27542:1 27814:1 27872:1 29398:1 30437:1 30824:1 31420:1 31432:1 32604:1 32933:1 33432:1 33723:1 34758:1 34770:1 34779:1 34951:1 35339:1 35343:1 35402:1 35405:1 37083:1 37636:1 39649:1 41738:1 42935:1 47612:1 48691:1 49647:1 50683:1 51063:1 52157:1 52172:1 52731:1 53075:1 53276:1 54699:1 55105:1 55940:1 57371:1 57476:1 58404:1 59055:1 61499:1 
0.052290236248192248 4:1 9:1 10:1 11:1 13:1 14:1 15:1 16:1 17:1 18:1 19:1 20:1 21:1 22:1 23:1 26:1 27:1 28:1 29:1 34:1 39:1 62:1 63:1 65:1 70:1 81:1 86:1 136:1 193:1 220:1 248:1 253:1 303:1 314:1 316:1 319:1 320:1 326:1 346:1 379:1 385:1 429:1 450:1 457:1 463:1 478:1 494:1 508:1 534:1 552:1 557:1 582:1 587:1 606:1 608:1 620:1 632:1 697:1 703:1 725:1 737:1 747:1 758:1 766:1 768:1 795:1 804:1 812:1 957:1 992:1 1119:1 1138:1 1204:1 1307:1 1499:1 1506:1 1580:1 1960:1 2440:1 2766:1 3069:1 3138:1 3799:1 3865:1 3910:1 3925:1 4051:1 4296:1 4683:1 4787:1 5415:1 5708:1 5859:1 5990:1 5992:1 6178:1 6295:1 6454:1 6835:1 7103:1 7429:1 7473:1 7781:1 7824:1 8168:1 8901:1 9036:1 9581:1 9724:1 9967:1 9981:1 10512:1 10669:1 10671:1 11747:1 12077:1 13024:1 13170:1 13708:1 14539:1 16087:1 16155:1 16622:1 17759:1 20144:1 21802:1 22972:1 23271:1 26027:1 26548:1 26829:1 28997:1 30414:1 30924:1 33932:1 35351:1 36192:1 36955:1 36958:1 37898:1 40144:1 41223:1 42407:1 42501:1 44181:1 45677:1 49082:1 49919:1 52772:1 53489:1 54582:1 57205:1 58014:1 58027:1 62643:1 
0.0068606926532983614 4:1 10:1 11:1 12:1 13:1 15:1 16:1 17:1 22:1 23:1 26:1 27:1 29:1 30:1 31:1 34:1 39:1 62:1 65:1 68:1 69:1 79:1 81:1 82:1 122:1 226:1 231:1 248:1 268:1 299:1 326:1 369:1 399:1 403:1 422:1 423:1 431:1 435:1 450:1 461:1 462:1 592:1 615:1 626:1 627:1 641:1 700:1 701:1 717:1 725:1 731:1 755:1 795:1 812:1 843:1 866:1 955:1 970:1 971:1 975:1 980:1 991:1 1123:1 1204:1 1270:1 1297:1 1449:1 1506:1 1521:1 2812:1 2881:1 3044:1 3062:1 3071:1 3607:1 4051:1 4972:1 5276:1 5284:1 5433:1 5492:1 5694:1 5937:1 5959:1 7532:1 7929:1 8044:1 8072:1 8323:1 8979:1 8991:1 9308:1 9474:1 9856:1 10657:1 10959:1 11095:1 11728:1 11844:1 11878:1 11933:1 12066:1 13045:1 13708:1 14221:1 14452:1 15670:1 16143:1 16276:1 21943:1 22859:1 22987:1 25189:1 33143:1 33179:1 34024:1 34241:1 36643:1 36757:1 44845:1 45166:1 45285:1 46584:1 49575:1 49672:1 51363:1 52153:1 52177:1 54142:1 57887:1 59262:1 59739:1 61382:1 61824:1 62010:1 62609:1 
0.02116471727687257 9:1 12:1 13:1 14:1 15:1 17:1 20:1 22:1 24:1 26:1 28:1 31:1 34:1 67:1 74:1 76:1 78:1 86:1 171:1 179:1 195:1 268:1 316:1 342:1 391:1 438:1 449:1 522:1 593:1 668:1 693:1 697:1 772:1 783:1 862:1 959:1 1252:1 1370:1 1415:1 1431:1 1582:1 2153:1 2506:1 3845:1 3853:1 4237:1 4856:1 5672:1 6611:1 7574:1 8615:1 8812:1 8903:1 10058:1 10234:1 11065:1 11778:1 14060:1 15073:1 15387:1 15500:1 16645:1 20615:1 26384:1 31226:1 35172:1 38993:1 43115:1 47830:1 48483:1 49114:1 55961:1 59537:1 61566:1 
0.0054571610473861196 9:1 11:1 12:1 13:1 15:1 16:1 17:1 20:1 22:1 23:1 26:1 27:1 28:1 30:1 31:1 34:1 63:1 67:1 68:1 82:1 83:1 178:1 248:1 291:1 303:1 311:1 315:1 316:1 392:1 413:1 420:1 422:1 423:1 428:1 438:1 448:1 463:1 530:1 589:1 593:1 641:1 688:1 717:1 725:1 731:1 758:1 768:1 843:1 866:1 934:1 1138:1 1253:1 1264:1 1521:1 1533:1 2144:1 3060:1 3062:1 3063:1 3068:1 3494:1 3740:1 3832:1 3865:1 4870:1 5107:1 5218:1 5253:1 5256:1 5297:1 5378:1 5655:1 5982:1 6744:1 7486:1 7574:1 8314:1 8339:1 9290:1 9474:1 9981:1 10959:1 11087:1 13164:1 13166:1 14071:1 14176:1 16276:1 16347:1 18334:1 22834:1 22852:1 22878:1 22937:1 25744:1 26230:1 26543:1 31353:1 32222:1 32816:1 33008:1 33039:1 33288:1 33680:1 35022:1 42536:1 43128:1 46728:1 52169:1 59254:1 59670:1 
0.0099096215937839512 9:1 11:1 12:1 13:1 14:1 15:1 16:1 17:1 20:1 22:1 23:1 26:1 27:1 28:1 29:1 31:1 34:1 67:1 68:1 79:1 81:1 83:1 181:1 193:1 194:1 248:1 268:1 281:1 303:1 322:1 327:1 350:1 359:1 379:1 383:1 391:1 392:1 393:1 409:1 413:1 417:1 428:1 444:1 446:1 448:1 457:1 458:1 461:1 536:1 585:1 592:1 595:1 630:1 635:1 637:1 649:1 693:1 712:1 731:1 735:1 736:1 743:1 748:1 758:1 778:1 782:1 784:1 802:1 812:1 858:1 866:1 946:1 1240:1 1264:1 1461:1 1466:1 1506:1 1528:1 1533:1 2203:1 2211:1 2449:1 2466:1 3049:1 3057:1 3068:1 3372:1 3991:1 4081:1 4360:1 4494:1 4686:1 4760:1 4856:1 4870:1 4903:1 5051:1 5121:1 5172:1 5182:1 5371:1 5577:1 5610:1 5643:1 5867:1 5897:1 5946:1 6855:1 7532:1 7629:1 8118:1 8123:1 8208:1 8247:1 8466:1 8814:1 9201:1 9222:1 9474:1 9551:1 9562:1 9679:1 9765:1 10154:1 10200:1 10204:1 10255:1 10471:1 10657:1 11039:1 11095:1 11631:1 13954:1 14188:1 15798:1 15843:1 16143:1 16315:1 16354:1 18572:1 18632:1 20222:1 20331:1 22707:1 22804:1 22932:1 24261:1 27409:1 29267:1 29785:1 30454:1 30796:1 31228:1 31353:1 31521:1 31947:1 32381:1 32571:1 32656:1 34594:1 34779:1 36292:1 36469:1 36708:1 40214:1 43476:1 45467:1 45486:1 45874:1 47292:1 48505:1 50933:1 52157:1 52165:1 52619:1 52682:1 53241:1 53782:1 55490:1 55771:1 55803:1 56068:1 56982:1 57887:1 59461:1 59743:1 61096:1 
0.20245741943973114 9:1 11:1 12:1 13:1 16:1 17:1 19:1 22:1 23:1 24:1 26:1 27:1 28:1 31:1 39:1 64:1 68:1 71:1 76:1 78:1 83:1 189:1 194:1 195:1 248:1 277:1 299:1 303:1 325:1 326:1 409:1 428:1 435:1 438:1 447:1 448:1 462:1 463:1 506:1 585:1 597:1 608:1 631:1 673:1 693:1 697:1 701:1 707:1 710:1 712:1 729:1 737:1 747:1 758:1 768:1 772:1 880:1 976:1 987:1 993:1 1160:1 1262:1 1275:1 1327:1 1419:1 1434:1 1544:1 2370:1 2381:1 2476:1 2485:1 3068:1 3305:1 3615:1 4040:1 4042:1 4062:1 5058:1 5063:1 5378:1 5494:1 5641:1 5664:1 5965:1 5996:1 6422:1 7644:1 7824:1 8134:1 8669:1 8828:1 8913:1 9004:1 9116:1 9153:1 9201:1 9442:1 9578:1 9579:1 9716:1 10000:1 10079:1 11185:1 11882:1 12026:1 12082:1 13310:1 14163:1 14275:1 14683:1 15418:1 15540:1 16404:1 19733:1 20384:1 22937:1 25215:1 27793:1 27838:1 28029:1 32013:1 32059:1 33693:1 34251:1 34925:1 35114:1 36802:1 37014:1 38415:1 45517:1 48074:1 48658:1 49218:1 49799:1 50324:1 50580:1 51980:1 52742:1 52753:1 53422:1 54788:1 55205:1 59954:1 61852:1 62402:1 
0.010306359490958327 3:1 9:1 10:1 12:1 13:1 19:1 20:1 21:1 22:1 23:1 24:1 26:1 27:1 28:1 29:1 31:1 61:1 64:1 65:1 76:1 83:1 111:1 177:1 187:1 189:1 216:1 268:1 269:1 303:1 320:1 325:1 327:1 490:1 522:1 526:1 533:1 540:1 542:1 552:1 593:1 602:1 608:1 620:1 635:1 668:1 696:1 703:1 707:1 725:1 758:1 778:1 818:1 862:1 1087:1 1097:1 1154:1 1198:1 1415:1 1531:1 1787:1 2117:1 2336:1 2377:1 2386:1 2703:1 3221:1 3925:1 4026:1 4033:1 4081:1 6262:1 6606:1 6668:1 6800:1 6901:1 6972:1 7584:1 7736:1 7824:1 8205:1 8615:1 8620:1 8866:1 9021:1 9120:1 10141:1 10777:1 11070:1 12666:1 12797:1 13254:1 13643:1 15387:1 15391:1 16336:1 17345:1 18139:1 19397:1 19699:1 19789:1 21499:1 23555:1 27568:1 27691:1 37776:1 38929:1 39961:1 40744:1 43217:1 43971:1 45850:1 47827:1 47865:1 49848:1 50358:1 58643:1 59597:1 
0.083155718791142239 9:1 10:1 11:1 12:1 13:1 15:1 16:1 17:1 22:1 26:1 27:1 28:1 29:1 31:1 64:1 67:1 69:1 80:1 83:1 171:1 216:1 248:1 268:1 281:1 325:1 327:1 369:1 379:1 391:1 392:1 403:1 429:1 438:1 447:1 462:1 590:1 688:1 697:1 699:1 711:1 713:1 731:1 737:1 748:1 764:1 768:1 771:1 781:1 802:1 812:1 866:1 1153:1 1240:1 1252:1 1253:1 1297:1 1480:1 1483:1 1533:1 2703:1 3044:1 3370:1 4018:1 4029:1 4041:1 4085:1 4688:1 4857:1 4876:1 5415:1 5620:1 5959:1 7511:1 8914:1 8941:1 9192:1 9237:1 9474:1 9572:1 9750:1 9924:1 10000:1 10052:1 10190:1 10471:1 10655:1 11086:1 13956:1 14061:1 14074:1 14452:1 15964:1 16004:1 16346:1 21496:1 27620:1 27829:1 28168:1 30481:1 31253:1 31394:1 33924:1 36757:1 42750:1 49232:1 50765:1 51029:1 52153:1 53667:1 54769:1 55031:1 55701:1 56980:1 57879:1 59657:1 
0.011148994099388927 3:1 4:1 9:1 10:1 11:1 12:1 13:1 14:1 15:1 17:1 19:1 20:1 22:1 23:1 26:1 27:1 28:1 29:1 31:1 34:1 49:1 62:1 64:1 65:1 66:1 67:1 86:1 116:1 137:1 178:1 186:1 187:1 196:1 216:1 230:1 245:1 269:1 303:1 305:1 309:1 321:1 325:1 327:1 342:1 350:1 386:1 438:1 444:1 448:1 455:1 462:1 508:1 522:1 526:1 530:1 533:1 585:1 589:1 632:1 688:1 701:1 733:1 758:1 781:1 784:1 804:1 816:1 858:1 872:1 959:1 963:1 1035:1 1116:1 1154:1 1199:1 1220:1 1247:1 1582:1 1586:1 1840:1 1966:1 2143:1 2308:1 2322:1 2329:1 2521:1 2705:1 2868:1 3025:1 3226:1 3659:1 3703:1 3954:1 4018:1 4100:1 4248:1 4365:1 4797:1 5572:1 5649:1 5813:1 5961:1 6471:1 6597:1 6668:1 6749:1 6767:1 6804:1 7502:1 8155:1 8982:1 8989:1 9515:1 10186:1 10267:1 10509:1 10707:1 11034:1 11131:1 11780:1 11826:1 12304:1 12994:1 13259:1 13659:1 13816:1 14015:1 16647:1 16678:1 17496:1 17777:1 18311:1 19175:1 19263:1 19342:1 20738:1 21548:1 22641:1 23598:1 25340:1 25549:1 28274:1 28815:1 29307:1 30944:1 34534:1 34957:1 35949:1 36774:1 38582:1 38847:1 39625:1 39788:1 40008:1 42705:1 49647:1 52426:1 55658:1 56130:1 57183:1 59421:1 59817:1 61586:1 61699:1 63288:1 
0.11181331594271836 11:1 12:1 13:1 15:1 16:1 17:1 19:1 20:1 21:1 22:1 23:1 26:1 27:1 28:1 31:1 39:1 64:1 68:1 73:1 79:1 248:1 281:1 303:1 316:1 325:1 327:1 383:1 403:1 413:1 420:1 428:1 438:1 446:1 448:1 462:1 494:1 526:1 532:1 582:1 595:1 635:1 701:1 715:1 725:1 731:1 768:1 782:1 872:1 987:1 1164:1 1264:1 1364:1 1449:1 3044:1 3060:1 3068:1 3373:1 3852:1 4031:1 4045:1 4101:1 4771:1 5121:1 5214:1 5378:1 5610:1 5664:1 5959:1 6286:1 6680:1 6780:1 7426:1 7619:1 8204:1 8982:1 9272:1 9474:1 10000:1 10195:1 11132:1 12019:1 13364:1 14188:1 15015:1 15670:1 22833:1 22937:1 24266:1 26379:1 27658:1 27894:1 28281:1 30875:1 32391:1 32797:1 33693:1 34779:1 35117:1 36757:1 39306:1 39861:1 42388:1 43409:1 45837:1 51247:1 52153:1 52167:1 54781:1 59825:1 62345:1 
0.038012210285953738 9:1 11:1 13:1 15:1 16:1 17:1 19:1 20:1 21:1 22:1 26:1 27:1 28:1 29:1 31:1 50:1 68:1 69:1 72:1 189:1 250:1 325:1 393:1 396:1 429:1 450:1 452:1 455:1 456:1 486:1 522:1 526:1 530:1 552:1 595:1 607:1 688:1 724:1 746:1 758:1 812:1 866:1 1049:1 1273:1 1291:1 1335:1 1339:1 2379:1 3093:1 4018:1 4895:1 4944:1 5415:1 5716:1 5764:1 5809:1 5832:1 6606:1 6688:1 6755:1 7632:1 7813:1 9363:1 9712:1 10670:1 11091:1 12395:1 14253:1 14397:1 14757:1 14797:1 19726:1 31661:1 33931:1 35417:1 35646:1 35924:1 38930:1 39362:1 39700:1 43497:1 44319:1 51599:1 53401:1 58022:1 59700:1 63549:1 
0.011241868465329657 10:1 11:1 12:1 13:1 14:1 15:1 16:1 17:1 20:1 21:1 22:1 23:1 26:1 27:1 28:1 29:1 30:1 31:1 34:1 39:1 50:1 62:1 63:1 64:1 68:1 69:1 73:1 79:1 83:1 88:1 220:1 248:1 268:1 302:1 319:1 325:1 326:1 327:1 365:1 369:1 413:1 423:1 431:1 438:1 447:1 448:1 450:1 461:1 462:1 469:1 536:1 543:1 584:1 597:1 620:1 637:1 644:1 688:1 696:1 701:1 704:1 731:1 737:1 743:1 747:1 755:1 772:1 804:1 835:1 866:1 872:1 934:1 970:1 991:1 1051:1 1060:1 1119:1 1138:1 1184:1 1264:1 1283:1 1286:1 1366:1 1449:1 1461:1 1533:1 1538:1 1589:1 1598:1 2747:1 3063:1 3071:1 3641:1 3918:1 4031:1 4071:1 4093:1 4549:1 5114:1 5279:1 5433:1 5620:1 5664:1 5694:1 5932:1 5965:1 6081:1 6868:1 6978:1 7450:1 7644:1 8259:1 8403:1 8866:1 8991:1 9052:1 9474:1 9579:1 9653:1 9740:1 9848:1 10079:1 10529:1 10909:1 11082:1 11095:1 11100:1 11134:1 12043:1 12428:1 12541:1 13007:1 13166:1 13556:1 14183:1 14315:1 14331:1 15031:1 15670:1 15775:1 16342:1 16354:1 16375:1 16709:1 22862:1 22987:1 25284:1 26926:1 27667:1 28102:1 28237:1 32305:1 34028:1 35106:1 36604:1 36802:1 40317:1 40772:1 42457:1 46181:1 47088:1 49672:1 50009:1 52177:1 52753:1 53602:1 55205:1 57336:1 59073:1 59737:1 59774:1 59834:1 63693:1 64103:1 
0.021056619643789378 9:1 11:1 13:1 14:1 15:1 16:1 17:1 19:1 20:1 21:1 22:1 23:1 24:1 26:1 27:1 28:1 29:1 30:1 31:1 34:1 39:1 65:1 69:1 71:1 72:1 83:1 86:1 183:1 189:1 193:1 248:1 303:1 316:1 325:1 326:1 327:1 342:1 379:1 392:1 396:1 403:1 426:1 435:1 448:1 450:1 457:1 461:1 462:1 469:1 504:1 522:1 530:1 541:1 543:1 572:1 575:1 595:1 597:1 607:1 613:1 635:1 636:1 668:1 697:1 698:1 700:1 701:1 712:1 715:1 725:1 731:1 743:1 747:1 750:1 768:1 777:1 784:1 811:1 835:1 852:1 858:1 866:1 880:1 942:1 946:1 958:1 980:1 985:1 987:1 1195:1 1204:1 1292:1 1297:1 1326:1 1335:1 1544:1 1565:1 2261:1 2379:1 2449:1 3044:1 3854:1 4028:1 4030:1 4042:1 4045:1 4051:1 4103:1 4246:1 4670:1 4690:1 4866:1 4944:1 5325:1 5487:1 5664:1 5702:1 5715:1 5879:1 5937:1 5959:1 5975:1 6090:1 6400:1 6606:1 6773:1 6942:1 6982:1 7302:1 7338:1 7632:1 7664:1 7810:1 7918:1 8214:1 8237:1 8617:1 8893:1 8925:1 8979:1 8991:1 9208:1 9267:1 9474:1 9667:1 9713:1 9799:1 9981:1 10133:1 10263:1 10645:1 10907:1 11004:1 11038:1 11095:1 11187:1 11565:1 11622:1 11773:1 11917:1 11990:1 12027:1 13622:1 13708:1 14425:1 14452:1 14672:1 14757:1 16406:1 16516:1 18950:1 19726:1 20225:1 26398:1 27607:1 27655:1 27845:1 27889:1 28327:1 28810:1 30512:1 31665:1 33398:1 34200:1 35114:1 35311:1 35389:1 36384:1 36643:1 36757:1 36855:1 37356:1 38292:1 38930:1 39835:1 40581:1 40786:1 42080:1 42166:1 43497:1 43674:1 44304:1 44810:1 45916:1 46045:1 47851:1 49288:1 49573:1 49683:1 50836:1 51217:1 52153:1 53180:1 53963:1 55409:1 56115:1 57832:1 59042:1 59044:1 59355:1 59454:1 59739:1 59961:1 60883:1 61046:1 61546:1 61937:1 62209:1 62424:1 
0.067241740826997423 9:1 10:1 11:1 12:1 13:1 16:1 17:1 20:1 21:1 22:1 24:1 27:1 29:1 34:1 62:1 68:1 69:1 79:1 86:1 178:1 189:1 220:1 248:1 277:1 303:1 319:1 409:1 413:1 448:1 457:1 462:1 517:1 552:1 585:1 592:1 665:1 729:1 744:1 811:1 957:1 1119:1 1262:1 1292:1 1447:1 1580:1 2144:1 2376:1 2765:1 3053:1 3319:1 3894:1 5058:1 5099:1 5658:1 5857:1 5972:1 7541:1 8593:1 9433:1 9688:1 10626:1 11761:1 13023:1 14160:1 14408:1 15640:1 16632:1 18322:1 19666:1 21795:1 22743:1 23972:1 32009:1 35037:1 36848:1 42876:1 47733:1 51887:1 53282:1 61499:1 
0.0035842137235004398 9:1 10:1 11:1 12:1 13:1 15:1 16:1 17:1 20:1 21:1 23:1 26:1 27:1 28:1 31:1 50:1 62:1 67:1 69:1 79:1 80:1 83:1 171:1 216:1 220:1 248:1 268:1 273:1 325:1 379:1 389:1 403:1 450:1 455:1 456:1 462:1 523:1 525:1 530:1 533:1 561:1 569:1 635:1 641:1 688:1 696:1 697:1 731:1 737:1 794:1 872:1 1060:1 1067:1 1119:1 1250:1 1291:1 1297:1 1455:1 1492:1 1538:1 2703:1 2760:1 3044:1 3247:1 4018:1 4688:1 4839:1 5702:1 5806:1 5815:1 5844:1 5959:1 6621:1 6642:1 6755:1 6804:1 7159:1 7242:1 8197:1 8319:1 8869:1 8912:1 9474:1 9585:1 10380:1 11136:1 12535:1 12623:1 13018:1 14049:1 14402:1 14452:1 15735:1 16064:1 16377:1 21486:1 21746:1 30462:1 31162:1 35309:1 35888:1 35978:1 36125:1 36757:1 39055:1 39688:1 40000:1 41488:1 41840:1 45771:1 46519:1 48893:1 49193:1 52153:1 52817:1 56604:1 59843:1 64066:1 64387:1 
0.009862143772251487 10:1 11:1 12:1 13:1 16:1 17:1 19:1 22:1 23:1 26:1 27:1 29:1 30:1 62:1 69:1 81:1 82:1 220:1 248:1 250:1 268:1 303:1 325:1 403:1 426:1 438:1 446:1 494:1 592:1 626:1 707:1 711:1 731:1 812:1 835:1 1119:1 1282:1 1506:1 1516:1 2747:1 3044:1 3066:1 3101:1 4041:1 5335:1 5610:1 6286:1 7532:1 8046:1 9111:1 9177:1 9474:1 10657:1 10907:1 13007:1 14314:1 16143:1 16236:1 22902:1 23113:1 27814:1 33455:1 34758:1 45185:1 50275:1 50683:1 52172:1 57887:1 59055:1 
0.02595097960445784 9:1 10:1 11:1 13:1 14:1 15:1 16:1 17:1 19:1 20:1 22:1 23:1 24:1 26:1 27:1 28:1 31:1 66:1 67:1 69:1 74:1 83:1 187:1 194:1 212:1 248:1 327:1 355:1 386:1 427:1 457:1 462:1 486:1 517:1 536:1 593:1 608:1 625:1 638:1 641:1 643:1 673:1 701:1 703:1 725:1 731:1 758:1 779:1 786:1 858:1 872:1 1224:1 1247:1 1297:1 1370:1 1528:1 2315:1 2458:1 2644:1 3067:1 4105:1 4424:1 4801:1 5346:1 5880:1 5959:1 6850:1 7584:1 7824:1 8024:1 8292:1 8326:1 8385:1 8670:1 8998:1 9019:1 9474:1 10174:1 10283:1 11039:1 11136:1 13849:1 14018:1 14452:1 15081:1 16315:1 21171:1 22908:1 28337:1 29533:1 30987:1 36392:1 36757:1 40180:1 43230:1 45080:1 46382:1 46604:1 46992:1 48088:1 49755:1 52173:1 55601:1 56229:1 59457:1 59847:1 
0.0071292759042142122 9:1 10:1 11:1 12:1 13:1 15:1 16:1 17:1 21:1 22:1 24:1 26:1 27:1 28:1 29:1 34:1 62:1 67:1 68:1 69:1 73:1 79:1 179:1 193:1 216:1 228:1 248:1 277:1 316:1 325:1 327:1 392:1 413:1 417:1 438:1 445:1 452:1 457:1 561:1 565:1 585:1 607:1 658:1 688:1 713:1 717:1 725:1 731:1 744:1 758:1 799:1 956:1 1124:1 1253:1 1264:1 1292:1 1353:1 1354:1 1449:1 2158:1 2454:1 2695:1 2840:1 3057:1 3324:1 3845:1 4018:1 4081:1 4883:1 5121:1 5178:1 5586:1 5754:1 5857:1 5879:1 7159:1 7209:1 7792:1 8508:1 9234:1 9309:1 9474:1 9683:1 10407:1 11729:1 13068:1 14077:1 14188:1 14425:1 14934:1 14950:1 15670:1 18403:1 20274:1 21408:1 22106:1 22810:1 24034:1 31430:1 32381:1 32615:1 34658:1 35577:1 36371:1 41488:1 41687:1 47413:1 51008:1 51364:1 52165:1 53253:1 56653:1 
0.0047347529934899353 9:1 10:1 11:1 12:1 13:1 15:1 16:1 17:1 19:1 20:1 21:1 22:1 23:1 24:1 26:1 27:1 28:1 29:1 30:1 31:1 34:1 39:1 49:1 50:1 61:1 64:1 65:1 67:1 69:1 71:1 73:1 80:1 81:1 82:1 83:1 177:1 188:1 189:1 195:1 216:1 248:1 268:1 281:1 291:1 293:1 302:1 311:1 314:1 316:1 325:1 327:1 369:1 379:1 392:1 403:1 420:1 446:1 450:1 455:1 457:1 462:1 469:1 508:1 515:1 522:1 526:1 530:1 541:1 552:1 561:1 585:1 592:1 604:1 627:1 642:1 662:1 673:1 688:1 704:1 707:1 708:1 711:1 712:1 713:1 714:1 725:1 731:1 733:1 747:1 748:1 755:1 758:1 764:1 768:1 778:1 782:1 789:1 809:1 812:1 816:1 835:1 862:1 934:1 946:1 976:1 1035:1 1062:1 1087:1 1098:1 1174:1 1184:1 1203:1 1240:1 1292:1 1297:1 1333:1 1353:1 1475:1 1506:1 1516:1 1531:1 2117:1 2346:1 2376:1 2505:1 2703:1 3044:1 3060:1 3392:1 3494:1 3555:1 3643:1 3732:1 3794:1 3811:1 3859:1 4018:1 4034:1 4041:1 4043:1 4044:1 4107:1 4679:1 4872:1 5210:1 5218:1 5610:1 5694:1 5823:1 5857:1 5876:1 5959:1 6090:1 6458:1 6558:1 6606:1 6690:1 6751:1 6926:1 7147:1 7532:1 7774:1 8068:1 8359:1 8541:1 8672:1 9047:1 9112:1 9138:1 9192:1 9208:1 9249:1 9259:1 9474:1 9517:1 9713:1 9760:1 9853:1 9944:1 9990:1 9992:1 10158:1 10200:1 10222:1 10301:1 10311:1 10598:1 10657:1 10726:1 10907:1 11063:1 11624:1 11630:1 11882:1 12310:1 12588:1 12666:1 12802:1 13467:1 13558:1 13684:1 13947:1 14408:1 14452:1 14734:1 14926:1 15932:1 16143:1 16236:1 16330:1 18139:1 19660:1 20607:1 21486:1 22832:1 22834:1 24393:1 25018:1 25300:1 25716:1 26109:1 26463:1 27713:1 27829:1 27879:1 27884:1 28340:1 28345:1 30365:1 31367:1 32776:1 32821:1 34758:1 36036:1 36365:1 36757:1 37360:1 38530:1 38775:1 38928:1 39415:1 39649:1 41396:1 44166:1 45274:1 46839:1 47541:1 48099:1 49982:1 50284:1 50517:1 50770:1 50844:1 51117:1 51182:1 52153:1 52167:1 52474:1 53749:1 54123:1 54480:1 54661:1 54682:1 55551:1 55771:1 55903:1 56330:1 57586:1 57887:1 58317:1 59048:1 59055:1 59057:1 59515:1 61051:1 61092:1 61847:1 63307:1 64293:1 
0.0050552604401951154 9:1 10:1 12:1 13:1 14:1 15:1 17:1 20:1 21:1 22:1 23:1 26:1 27:1 28:1 29:1 30:1 31:1 34:1 39:1 62:1 65:1 66:1 67:1 69:1 73:1 81:1 82:1 83:1 86:1 179:1 193:1 223:1 226:1 228:1 230:1 268:1 316:1 325:1 326:1 333:1 357:1 369:1 391:1 445:1 448:1 450:1 457:1 463:1 530:1 552:1 565:1 585:1 592:1 613:1 644:1 693:1 697:1 699:1 701:1 705:1 725:1 758:1 812:1 816:1 838:1 858:1 862:1 880:1 944:1 959:1 987:1 1121:1 1124:1 1204:1 1226:1 1252:1 1292:1 1354:1 1506:1 1518:1 1528:1 1582:1 2153:1 2442:1 2791:1 2826:1 2836:1 2868:1 3852:1 4027:1 4051:1 4207:1 4445:1 4856:1 5593:1 5596:1 5664:1 5670:1 5694:1 5857:1 5982:1 6750:1 7213:1 7532:1 7904:1 8411:1 8812:1 8920:1 8941:1 8986:1 8991:1 9061:1 10657:1 10714:1 10923:1 11038:1 11065:1 11192:1 11585:1 11778:1 11783:1 12027:1 13033:1 13064:1 13708:1 13860:1 14060:1 14408:1 14953:1 16143:1 16246:1 16314:1 16645:1 20154:1 21865:1 22028:1 22082:1 26382:1 27606:1 28730:1 29608:1 31226:1 34693:1 34709:1 35102:1 35170:1 39642:1 41723:1 44738:1 47132:1 48483:1 49279:1 49616:1 49672:1 57887:1 58220:1 59108:1 59450:1 59544:1 59985:1 61566:1 61598:1 62417:1 
0.028022773512239415 4:1 9:1 11:1 12:1 13:1 15:1 16:1 17:1 18:1 20:1 21:1 22:1 24:1 26:1 27:1 28:1 33:1 34:1 39:1 64:1 67:1 69:1 76:1 79:1 86:1 133:1 171:1 188:1 193:1 248:1 281:1 290:1 303:1 315:1 327:1 371:1 383:1 391:1 397:1 426:1 427:1 428:1 438:1 448:1 450:1 457:1 462:1 483:1 522:1 582:1 585:1 608:1 658:1 697:1 701:1 704:1 725:1 735:1 737:1 747:1 755:1 758:1 764:1 925:1 946:1 976:1 977:1 981:1 987:1 1164:1 1252:1 1258:1 1278:1 1297:1 1408:1 1472:1 1569:1 1946:1 2368:1 2441:1 3067:1 3375:1 3481:1 3837:1 4085:1 4607:1 4753:1 4857:1 4958:1 5329:1 5369:1 5371:1 5643:1 5655:1 5706:1 5857:1 5954:1 5975:1 6223:1 6605:1 7426:1 7824:1 8508:1 8914:1 8991:1 9003:1 9044:1 9537:1 9587:1 9722:1 9853:1 9854:1 9924:1 11438:1 11622:1 11882:1 11891:1 11951:1 12026:1 13366:1 14061:1 14111:1 14449:1 15324:1 15888:1 16548:1 17722:1 19622:1 20147:1 22930:1 24271:1 24756:1 26291:1 28168:1 30090:1 31253:1 31705:1 33434:1 33640:1 35026:1 35339:1 36863:1 37671:1 38924:1 42392:1 47404:1 49232:1 49677:1 49788:1 49961:1 52548:1 52838:1 53471:1 54123:1 54125:1 60450:1 61042:1 61851:1 61886:1 62082:1 62402:1 
0.019460641990999061 9:1 11:1 12:1 13:1 14:1 16:1 17:1 20:1 22:1 23:1 26:1 27:1 28:1 29:1 31:1 34:1 64:1 66:1 72:1 79:1 80:1 83:1 171:1 189:1 248:1 277:1 293:1 311:1 325:1 346:1 403:1 428:1 444:1 446:1 452:1 462:1 530:1 589:1 613:1 620:1 693:1 731:1 743:1 758:1 764:1 795:1 866:1 946:1 1176:1 1218:1 1339:1 1461:1 1475:1 1533:1 2373:1 2396:1 3044:1 3068:1 3324:1 3543:1 3729:1 4023:1 4287:1 5371:1 5574:1 5610:1 5755:1 5959:1 6757:1 7482:1 7906:1 8806:1 9474:1 9653:1 9939:1 11083:1 11634:1 13494:1 13796:1 14799:1 15775:1 15928:1 16343:1 19630:1 19872:1 22932:1 24037:1 25692:1 27524:1 28942:1 34559:1 34779:1 35587:1 36757:1 39708:1 44760:1 52153:1 54427:1 59647:1 61109:1 
0.079215536576833528 13:1 14:1 15:1 16:1 17:1 20:1 22:1 23:1 26:1 65:1 67:1 69:1 319:1 321:1 355:1 379:1 380:1 426:1 450:1 517:1 585:1 631:1 688:1 1199:1 1241:1 1286:1 3894:1 3954:1 4418:1 4683:1 4704:1 5318:1 5702:1 8145:1 13659:1 13967:1 14333:1 29508:1 30401:1 30568:1 35306:1 45596:1 
0.016389329439606762 9:1 11:1 12:1 13:1 14:1 16:1 17:1 20:1 21:1 22:1 26:1 27:1 28:1 29:1 39:1 50:1 64:1 65:1 72:1 73:1 78:1 178:1 248:1 299:1 313:1 316:1 325:1 342:1 358:1 403:1 449:1 542:1 561:1 585:1 602:1 688:1 724:1 731:1 758:1 818:1 987:1 1051:1 1181:1 1195:1 1343:1 1353:1 1444:1 2144:1 3044:1 3615:1 3787:1 3853:1 4018:1 4242:1 4456:1 5672:1 6972:1 7159:1 7718:1 9365:1 9474:1 10762:1 12022:1 12419:1 13538:1 13621:1 14850:1 14934:1 15603:1 18316:1 25214:1 25954:1 26384:1 28786:1 29672:1 35174:1 40738:1 41488:1 51606:1 52153:1 62376:1 63618:1 
0.009040665715050503 3:1 9:1 10:1 12:1 13:1 15:1 17:1 19:1 20:1 21:1 22:1 23:1 24:1 25:1 26:1 27:1 28:1 29:1 31:1 32:1 34:1 39:1 61:1 64:1 71:1 72:1 77:1 79:1 83:1 109:1 177:1 189:1 193:1 216:1 269:1 277:1 303:1 316:1 321:1 325:1 331:1 369:1 379:1 383:1 438:1 450:1 463:1 504:1 522:1 526:1 572:1 593:1 597:1 608:1 613:1 636:1 668:1 687:1 688:1 693:1 733:1 758:1 791:1 799:1 880:1 883:1 934:1 980:1 987:1 1087:1 1154:1 1160:1 1326:1 1336:1 1428:1 1451:1 1544:1 1778:1 2117:1 2381:1 2391:1 2430:1 2703:1 3219:1 3305:1 3854:1 3865:1 3980:1 4018:1 4160:1 4670:1 4753:1 5694:1 5706:1 5982:1 6400:1 6606:1 6685:1 6694:1 7302:1 7564:1 7653:1 7850:1 7896:1 8237:1 8615:1 8616:1 8781:1 8822:1 9506:1 10342:1 10417:1 11187:1 11917:1 12017:1 12666:1 13252:1 13310:1 14672:1 14779:1 15466:1 15689:1 16406:1 17315:1 18139:1 19740:1 19846:1 20022:1 21486:1 23548:1 26401:1 26543:1 27364:1 35339:1 38292:1 38931:1 39355:1 39432:1 42079:1 43594:1 44555:1 46045:1 47827:1 47844:1 48396:1 48617:1 52345:1 52352:1 56450:1 56741:1 59961:1 61937:1 62330:1 
0.0084219045737118602 10:1 11:1 12:1 13:1 14:1 15:1 16:1 17:1 20:1 21:1 22:1 23:1 24:1 26:1 27:1 28:1 29:1 30:1 31:1 34:1 39:1 62:1 64:1 67:1 69:1 73:1 79:1 81:1 82:1 83:1 220:1 248:1 268:1 281:1 287:1 293:1 303:1 359:1 369:1 393:1 394:1 403:1 422:1 438:1 446:1 448:1 450:1 451:1 462:1 463:1 517:1 533:1 552:1 565:1 585:1 592:1 620:1 626:1 635:1 639:1 641:1 663:1 699:1 731:1 737:1 743:1 748:1 758:1 778:1 789:1 791:1 795:1 811:1 812:1 818:1 843:1 872:1 946:1 987:1 1119:1 1164:1 1170:1 1176:1 1255:1 1287:1 1354:1 1455:1 1461:1 1466:1 1505:1 1506:1 1521:1 1538:1 2765:1 3044:1 3375:1 3377:1 3441:1 3543:1 4475:1 4895:1 4929:1 5250:1 5610:1 5643:1 5694:1 5738:1 5959:1 5982:1 6792:1 7213:1 7532:1 7545:1 8044:1 8205:1 8297:1 8322:1 8566:1 8959:1 9474:1 9577:1 9672:1 9760:1 9770:1 10156:1 10311:1 10342:1 10626:1 10657:1 10785:1 10953:1 11122:1 11616:1 12016:1 13023:1 13366:1 13419:1 13494:1 14095:1 14357:1 14953:1 15729:1 15792:1 15841:1 15845:1 16118:1 16143:1 16271:1 16364:1 21788:1 24271:1 24283:1 24571:1 31623:1 34758:1 35518:1 36757:1 41723:1 42915:1 45151:1 45844:1 46419:1 46577:1 47634:1 49472:1 52153:1 52731:1 53214:1 53747:1 53822:1 55513:1 56327:1 56449:1 57887:1 58700:1 59227:1 62322:1 
0.010603096636563098 9:1 10:1 11:1 12:1 13:1 14:1 15:1 16:1 17:1 21:1 22:1 23:1 24:1 26:1 27:1 28:1 29:1 31:1 39:1 61:1 62:1 64:1 65:1 68:1 75:1 78:1 79:1 83:1 88:1 181:1 189:1 193:1 196:1 216:1 220:1 229:1 248:1 268:1 281:1 303:1 321:1 323:1 325:1 327:1 342:1 359:1 369:1 394:1 413:1 427:1 438:1 448:1 449:1 462:1 558:1 585:1 592:1 595:1 626:1 637:1 641:1 675:1 688:1 695:1 701:1 712:1 718:1 725:1 733:1 743:1 748:1 758:1 764:1 768:1 791:1 805:1 817:1 872:1 975:1 986:1 987:1 1091:1 1106:1 1119:1 1164:1 1199:1 1264:1 1399:1 1433:1 1441:1 1451:1 1466:1 1538:1 1597:1 2196:1 2379:1 2432:1 2522:1 2703:1 2765:1 2857:1 3053:1 3067:1 3370:1 3375:1 3954:1 4012:1 4018:1 4081:1 4251:1 4475:1 4928:1 5099:1 5121:1 5346:1 5643:1 5687:1 5954:1 7114:1 7532:1 7545:1 7607:1 8044:1 8254:1 8334:1 8721:1 8858:1 8990:1 9208:1 9318:1 9513:1 9672:1 9742:1 9746:1 9942:1 9981:1 10341:1 10549:1 10754:1 11125:1 11876:1 11998:1 12016:1 12709:1 12907:1 13023:1 13366:1 13659:1 14188:1 15250:1 15525:1 15580:1 15695:1 15835:1 16367:1 16702:1 18537:1 19705:1 20046:1 20763:1 21486:1 21786:1 22181:1 22743:1 22908:1 24271:1 27494:1 28832:1 31615:1 32381:1 35241:1 41313:1 42909:1 45171:1 46115:1 46684:1 48251:1 48859:1 49670:1 50836:1 51411:1 52423:1 53216:1 53636:1 54445:1 56443:1 57449:1 58533:1 59802:1 61817:1 62232:1 62322:1 
0.0065488611816274175 9:1 10:1 11:1 12:1 13:1 14:1 16:1 17:1 20:1 21:1 22:1 23:1 26:1 27:1 28:1 31:1 34:1 49:1 50:1 62:1 64:1 66:1 69:1 73:1 79:1 83:1 189:1 194:1 220:1 237:1 248:1 273:1 277:1 303:1 321:1 325:1 357:1 403:1 431:1 447:1 455:1 462:1 469:1 526:1 533:1 540:1 561:1 571:1 585:1 592:1 608:1 620:1 636:1 688:1 724:1 725:1 731:1 743:1 747:1 764:1 866:1 942:1 1031:1 1058:1 1119:1 1130:1 1156:1 1160:1 1226:1 1297:1 1357:1 1449:1 1461:1 1533:1 2370:1 2476:1 2753:1 2971:1 3044:1 3071:1 3266:1 3305:1 3975:1 4018:1 4451:1 5433:1 5625:1 5815:1 5959:1 6086:1 6668:1 6813:1 6901:1 7155:1 7284:1 7541:1 7828:1 8228:1 9372:1 9474:1 9653:1 9713:1 9939:1 11092:1 11100:1 11565:1 12246:1 12513:1 13012:1 13113:1 13284:1 13310:1 13865:1 14452:1 14968:1 15670:1 15775:1 16351:1 20383:1 21695:1 22488:1 22987:1 23759:1 27324:1 29661:1 34028:1 34834:1 35985:1 36757:1 37343:1 40048:1 41475:1 41966:1 42865:1 44399:1 45978:1 51650:1 52153:1 52177:1 54413:1 59715:1 59776:1 60864:1 63102:1 63960:1 
0.00011701048192593352 4:1 9:1 10:1 12:1 13:1 16:1 17:1 19:1 20:1 21:1 22:1 23:1 24:1 26:1 27:1 29:1 30:1 31:1 39:1 61:1 68:1 69:1 76:1 78:1 79:1 81:1 82:1 83:1 131:1 191:1 196:1 223:1 268:1 277:1 303:1 323:1 325:1 417:1 423:1 447:1 454:1 456:1 457:1 459:1 486:1 507:1 530:1 532:1 547:1 561:1 569:1 592:1 635:1 639:1 641:1 654:1 656:1 671:1 676:1 688:1 693:1 696:1 697:1 737:1 746:1 795:1 800:1 810:1 812:1 843:1 872:1 991:1 1106:1 1267:1 1283:1 1291:1 1417:1 1430:1 1455:1 1506:1 1521:1 1538:1 1933:1 2408:1 2514:1 2791:1 3305:1 4013:1 4018:1 5184:1 5296:1 5625:1 5781:1 5844:1 5864:1 5912:1 6446:1 6759:1 6786:1 7030:1 7159:1 7242:1 7532:1 8204:1 8293:1 8308:1 8319:1 8487:1 8643:1 8724:1 8730:1 8824:1 8873:1 8910:1 8912:1 9587:1 9701:1 10436:1 10624:1 10657:1 10953:1 11136:1 12050:1 12901:1 14208:1 14317:1 14402:1 15407:1 15485:1 15737:1 16143:1 16271:1 16377:1 17699:1 21871:1 27495:1 32671:1 33264:1 34834:1 36125:1 36221:1 36519:1 38491:1 39722:1 39901:1 40921:1 41488:1 41840:1 45841:1 46471:1 46522:1 47326:1 47943:1 48256:1 48274:1 48623:1 48911:1 49191:1 49193:1 52840:1 53357:1 56847:1 57703:1 57887:1 59226:1 59843:1 62493:1 
0.040439858463053105 3:1 9:1 10:1 11:1 12:1 13:1 14:1 15:1 16:1 17:1 19:1 21:1 23:1 24:1 26:1 27:1 28:1 29:1 31:1 34:1 39:1 62:1 63:1 64:1 71:1 73:1 83:1 86:1 112:1 172:1 188:1 193:1 231:1 248:1 281:1 293:1 303:1 342:1 369:1 379:1 403:1 417:1 421:1 423:1 427:1 438:1 448:1 450:1 461:1 462:1 490:1 498:1 506:1 571:1 572:1 582:1 620:1 641:1 643:1 663:1 693:1 695:1 701:1 703:1 712:1 717:1 725:1 731:1 772:1 778:1 795:1 801:1 816:1 866:1 942:1 957:1 991:1 1126:1 1138:1 1164:1 1176:1 1315:1 1327:1 1357:1 1533:1 1580:1 1794:1 2065:1 2360:1 2449:1 2885:1 3044:1 3057:1 3061:1 3063:1 3067:1 3375:1 3561:1 4253:1 4670:1 5168:1 5247:1 5279:1 5350:1 5643:1 5694:1 5702:1 5938:1 5959:1 6247:1 6338:1 6420:1 7290:1 7299:1 7428:1 8324:1 8384:1 8550:1 8821:1 8858:1 9003:1 9027:1 9212:1 9297:1 9474:1 10067:1 10157:1 10454:1 10710:1 11095:1 11550:1 11747:1 12066:1 13081:1 13166:1 13366:1 13508:1 14586:1 14681:1 14973:1 16354:1 16622:1 17946:1 19574:1 20229:1 22262:1 22801:1 22847:1 22862:1 22912:1 24271:1 25046:1 28848:1 32992:1 33549:1 35299:1 36652:1 36757:1 37697:1 38047:1 38384:1 42016:1 42046:1 42401:1 46597:1 46988:1 47578:1 48597:1 48854:1 49777:1 49876:1 50876:1 51312:1 52165:1 52168:1 55102:1 55531:1 56913:1 58189:1 59740:1 62605:1 
0.0081852421460686161 9:1 12:1 13:1 15:1 17:1 19:1 20:1 21:1 22:1 23:1 26:1 27:1 28:1 30:1 31:1 34:1 61:1 67:1 74:1 79:1 83:1 182:1 188:1 189:1 268:1 319:1 369:1 375:1 395:1 447:1 450:1 463:1 494:1 532:1 536:1 552:1 565:1 575:1 597:1 613:1 635:1 641:1 642:1 705:1 725:1 729:1 748:1 764:1 772:1 783:1 843:1 872:1 934:1 1098:1 1236:1 1372:1 1447:1 1538:1 2217:1 2346:1 2362:1 2396:1 3912:1 4635:1 4940:1 5620:1 5718:1 6006:1 6297:1 6780:1 6866:1 7213:1 7336:1 7650:1 7896:1 8204:1 8328:1 8342:1 9068:1 9441:1 9754:1 9933:1 10067:1 10226:1 10959:1 11132:1 12802:1 13929:1 15091:1 15648:1 16373:1 19591:1 19863:1 26852:1 30189:1 31638:1 35439:1 37081:1 37912:1 39866:1 40283:1 41738:1 42160:1 43566:1 45837:1 46623:1 50083:1 51976:1 53701:1 54344:1 55114:1 55917:1 59267:1 59825:1 
0.043342889096078849 11:1 12:1 13:1 14:1 15:1 16:1 17:1 20:1 21:1 22:1 26:1 27:1 28:1 29:1 34:1 39:1 65:1 66:1 68:1 79:1 81:1 86:1 88:1 248:1 268:1 277:1 316:1 325:1 327:1 328:1 365:1 383:1 392:1 428:1 435:1 438:1 450:1 455:1 463:1 530:1 582:1 592:1 688:1 718:1 731:1 733:1 758:1 768:1 772:1 789:1 812:1 818:1 956:1 962:1 970:1 977:1 980:1 986:1 991:1 1195:1 1229:1 1275:1 1449:1 1506:1 1585:1 1598:1 3068:1 3324:1 3859:1 3865:1 4048:1 4107:1 4131:1 4553:1 4753:1 4872:1 5378:1 5492:1 5706:1 5813:1 5992:1 6755:1 7419:1 7532:1 9316:1 9474:1 9517:1 9992:1 10003:1 10058:1 10320:1 10657:1 10762:1 11737:1 11813:1 11887:1 11927:1 12012:1 12043:1 13629:1 13886:1 14273:1 15670:1 16143:1 16668:1 16709:1 22937:1 24060:1 26454:1 26548:1 27924:1 28352:1 28477:1 29943:1 31367:1 33696:1 34224:1 35339:1 35955:1 36967:1 39692:1 42366:1 52174:1 52474:1 54682:1 54835:1 56372:1 57887:1 61402:1 61671:1 61872:1 61988:1 62298:1 
0.017822056894606184 11:1 12:1 13:1 15:1 16:1 17:1 20:1 21:1 22:1 24:1 26:1 27:1 28:1 29:1 30:1 31:1 63:1 64:1 67:1 73:1 79:1 81:1 82:1 83:1 248:1 268:1 281:1 293:1 303:1 316:1 323:1 325:1 396:1 403:1 420:1 428:1 446:1 447:1 448:1 455:1 456:1 461:1 463:1 517:1 526:1 533:1 552:1 561:1 565:1 608:1 672:1 674:1 688:1 731:1 758:1 768:1 795:1 811:1 812:1 838:1 866:1 1138:1 1164:1 1176:1 1257:1 1354:1 1449:1 1505:1 1506:1 1518:1 1533:1 3044:1 3060:1 3068:1 3382:1 3386:1 3543:1 3851:1 4009:1 4018:1 4944:1 5214:1 5371:1 5610:1 5620:1 5643:1 5815:1 5832:1 5928:1 5982:1 6680:1 6687:1 6792:1 7142:1 7213:1 7832:1 8660:1 8683:1 9474:1 10000:1 10633:1 10671:1 10927:1 11085:1 11087:1 13164:1 13373:1 13377:1 13494:1 14100:1 14953:1 15670:1 16124:1 16157:1 16250:1 16347:1 22833:1 22932:1 24311:1 24345:1 26356:1 27473:1 31658:1 32797:1 32800:1 34779:1 35970:1 39305:1 39360:1 41723:1 44423:1 48032:1 48150:1 52153:1 52167:1 54769:1 57738:1 58029:1 59128:1 59655:1 59663:1 
0.010812744788178121 9:1 10:1 11:1 12:1 13:1 14:1 15:1 16:1 17:1 20:1 21:1 22:1 23:1 24:1 26:1 27:1 28:1 29:1 30:1 31:1 34:1 49:1 61:1 62:1 64:1 67:1 68:1 69:1 73:1 74:1 79:1 80:1 83:1 86:1 89:1 171:1 177:1 183:1 187:1 188:1 189:1 216:1 220:1 248:1 268:1 277:1 313:1 315:1 316:1 319:1 320:1 325:1 326:1 342:1 346:1 347:1 379:1 383:1 392:1 403:1 421:1 428:1 429:1 446:1 450:1 455:1 456:1 457:1 459:1 462:1 517:1 535:1 540:1 552:1 558:1 561:1 576:1 585:1 589:1 592:1 603:1 607:1 645:1 663:1 665:1 688:1 697:1 725:1 729:1 731:1 735:1 758:1 768:1 772:1 781:1 795:1 811:1 812:1 835:1 866:1 957:1 1034:1 1087:1 1097:1 1099:1 1119:1 1153:1 1244:1 1273:1 1291:1 1292:1 1297:1 1353:1 1373:1 1449:1 1478:1 1483:1 1533:1 1580:1 1609:1 2117:1 2257:1 2336:1 2363:1 2370:1 2703:1 2765:1 3044:1 3068:1 3069:1 3324:1 3780:1 3819:1 3859:1 3894:1 3930:1 4018:1 4054:1 4237:1 4295:1 4311:1 4689:1 4769:1 4866:1 5235:1 5382:1 5400:1 5415:1 5610:1 5715:1 5817:1 5832:1 5879:1 5915:1 5954:1 5959:1 6839:1 6901:1 7114:1 7150:1 7342:1 7491:1 7541:1 7764:1 7802:1 8421:1 8554:1 8603:1 8900:1 9441:1 9474:1 9539:1 9992:1 10067:1 10183:1 10626:1 10657:1 10904:1 11085:1 11761:1 12290:1 12666:1 12797:1 12820:1 13023:1 14001:1 14253:1 14397:1 14425:1 14452:1 14929:1 15123:1 15670:1 15947:1 16001:1 16345:1 16632:1 16759:1 18139:1 18907:1 19397:1 19593:1 21486:1 21786:1 22941:1 22959:1 24034:1 25909:1 26457:1 26979:1 27965:1 28981:1 29077:1 30490:1 30864:1 33723:1 33925:1 34779:1 35389:1 36004:1 36378:1 36528:1 36757:1 40151:1 41313:1 41418:1 42577:1 42880:1 44144:1 44259:1 47184:1 47590:1 47787:1 49070:1 51977:1 52153:1 52175:1 52564:1 54682:1 55111:1 55642:1 57892:1 59023:1 59655:1 61499:1 63244:1 
0.0072957393788630432 9:1 11:1 12:1 13:1 14:1 15:1 16:1 17:1 21:1 22:1 24:1 26:1 27:1 28:1 29:1 31:1 34:1 61:1 67:1 69:1 79:1 193:1 196:1 248:1 277:1 316:1 320:1 325:1 338:1 350:1 379:1 380:1 403:1 428:1 431:1 447:1 457:1 462:1 561:1 572:1 585:1 663:1 688:1 717:1 725:1 731:1 784:1 805:1 811:1 858:1 934:1 1106:1 1241:1 1297:1 1445:1 1449:1 2454:1 2522:1 3044:1 3068:1 3071:1 3324:1 3861:1 3932:1 4018:1 4359:1 4684:1 4702:1 5393:1 5431:1 5625:1 5857:1 5959:1 7151:1 7299:1 8549:1 9290:1 9474:1 10263:1 10537:1 10643:1 11038:1 12907:1 13965:1 14452:1 15670:1 20266:1 20757:1 22952:1 22985:1 24034:1 26489:1 26997:1 29266:1 30426:1 30551:1 33809:1 33999:1 34850:1 36757:1 41434:1 42045:1 52153:1 52174:1 52177:1 56114:1 57370:1 57811:1 59456:1 
0.0051972437673505111 3:1 9:1 11:1 12:1 13:1 14:1 15:1 16:1 17:1 20:1 21:1 22:1 23:1 26:1 27:1 28:1 29:1 30:1 31:1 34:1 57:1 64:1 68:1 69:1 72:1 75:1 79:1 81:1 83:1 86:1 94:1 171:1 179:1 248:1 268:1 277:1 280:1 281:1 303:1 316:1 319:1 325:1 355:1 394:1 403:1 413:1 417:1 438:1 448:1 455:1 457:1 462:1 517:1 526:1 530:1 533:1 536:1 565:1 589:1 592:1 594:1 595:1 627:1 641:1 642:1 645:1 688:1 705:1 712:1 717:1 731:1 733:1 737:1 743:1 747:1 748:1 758:1 772:1 803:1 807:1 812:1 816:1 838:1 866:1 876:1 949:1 957:1 1073:1 1164:1 1264:1 1292:1 1297:1 1339:1 1390:1 1455:1 1461:1 1506:1 1533:1 1541:1 1580:1 1630:1 2160:1 3044:1 3057:1 3324:1 3363:1 3370:1 3864:1 3912:1 4018:1 4042:1 4426:1 4921:1 5112:1 5168:1 5182:1 5643:1 5664:1 5815:1 5861:1 5866:1 5867:1 5959:1 5975:1 5976:1 6668:1 6762:1 6792:1 6866:1 7201:1 7482:1 7532:1 7600:1 7630:1 8058:1 8328:1 8347:1 8422:1 9068:1 9201:1 9303:1 9474:1 9494:1 9572:1 9676:1 9734:1 9742:1 9754:1 10079:1 10495:1 10583:1 10657:1 10731:1 10927:1 11087:1 11167:1 11654:1 11754:1 12630:1 13362:1 14181:1 14414:1 14452:1 14803:1 15193:1 15726:1 15796:1 16143:1 16347:1 16394:1 16627:1 16835:1 18408:1 22801:1 24034:1 24223:1 26539:1 26852:1 27838:1 29542:1 31577:1 32277:1 32652:1 35114:1 35970:1 36195:1 36270:1 36293:1 36757:1 36873:1 36882:1 39753:1 40287:1 41651:1 43315:1 43486:1 45227:1 46623:1 46771:1 47193:1 50078:1 51345:1 52153:1 52165:1 53235:1 53556:1 53709:1 55202:1 57090:1 57545:1 57887:1 58355:1 59128:1 59663:1 59922:1 61171:1 61471:1 
0.090704068114007844 11:1 12:1 13:1 14:1 15:1 16:1 17:1 20:1 23:1 24:1 26:1 27:1 28:1 39:1 67:1 68:1 78:1 79:1 248:1 277:1 311:1 315:1 325:1 355:1 392:1 403:1 413:1 435:1 438:1 530:1 629:1 641:1 643:1 668:1 672:1 688:1 707:1 712:1 725:1 733:1 743:1 758:1 766:1 989:1 1253:1 1264:1 1434:1 1445:1 1461:1 3075:1 3324:1 3729:1 3819:1 4018:1 4426:1 4872:1 5107:1 5491:1 6744:1 8102:1 8334:1 8373:1 8617:1 8656:1 9128:1 9201:1 9505:1 9661:1 9965:1 12037:1 14072:1 14176:1 15549:1 15781:1 23024:1 24034:1 25692:1 29546:1 31359:1 32216:1 34223:1 45392:1 46679:1 46924:1 47845:1 48020:1 50449:1 52322:1 53156:1 54578:1 62446:1 
0.00030188498269738845 9:1 10:1 11:1 12:1 13:1 14:1 15:1 16:1 17:1 19:1 20:1 21:1 22:1 23:1 24:1 26:1 27:1 28:1 29:1 30:1 31:1 61:1 64:1 68:1 69:1 73:1 74:1 79:1 81:1 82:1 83:1 171:1 177:1 189:1 218:1 248:1 268:1 273:1 277:1 281:1 287:1 290:1 291:1 315:1 316:1 321:1 325:1 326:1 338:1 386:1 403:1 413:1 422:1 444:1 457:1 462:1 463:1 509:1 526:1 552:1 561:1 585:1 592:1 593:1 597:1 602:1 608:1 609:1 620:1 634:1 641:1 658:1 688:1 693:1 696:1 704:1 711:1 713:1 725:1 729:1 731:1 737:1 744:1 748:1 758:1 764:1 804:1 811:1 812:1 816:1 835:1 872:1 1087:1 1160:1 1164:1 1170:1 1173:1 1174:1 1264:1 1292:1 1297:1 1353:1 1372:1 1378:1 1455:1 1462:1 1499:1 1506:1 1516:1 1538:1 2119:1 2376:1 2377:1 2381:1 2729:1 3044:1 3247:1 3324:1 3372:1 3438:1 3448:1 3487:1 3494:1 3832:1 3864:1 3954:1 3960:1 3975:1 4018:1 4023:1 4034:1 4041:1 4054:1 4798:1 5116:1 5271:1 5558:1 5574:1 5864:1 5874:1 5959:1 5976:1 5982:1 6491:1 6679:1 6689:1 7151:1 7155:1 7532:1 7537:1 7545:1 7554:1 7582:1 7664:1 7665:1 7718:1 7824:1 7867:1 8189:1 8319:1 8506:1 8806:1 8869:1 9047:1 9192:1 9245:1 9428:1 9474:1 9587:1 9683:1 9746:1 9924:1 9939:1 10506:1 10626:1 10633:1 10657:1 10707:1 10907:1 11136:1 12668:1 13326:1 13363:1 13417:1 13425:1 13460:1 13467:1 14185:1 14412:1 14452:1 14930:1 15102:1 15139:1 15737:1 15802:1 16082:1 16143:1 16236:1 16377:1 18158:1 19662:1 19697:1 19746:1 21628:1 24037:1 24246:1 24259:1 24595:1 24785:1 26244:1 26540:1 27163:1 27322:1 27524:1 27713:1 27829:1 27957:1 30964:1 32319:1 32322:1 33114:1 34562:1 36230:1 36335:1 36757:1 36878:1 38623:1 39298:1 39387:1 41436:1 41475:1 42829:1 42911:1 42972:1 43174:1 43667:1 43679:1 44622:1 45747:1 46519:1 47377:1 48893:1 49981:1 50763:1 51076:1 52153:1 52848:1 53251:1 53622:1 53634:1 54416:1 57744:1 57887:1 59048:1 59055:1 59843:1 
0.009267753051144528 9:1 10:1 13:1 14:1 15:1 16:1 17:1 19:1 20:1 21:1 22:1 23:1 24:1 26:1 27:1 28:1 29:1 30:1 31:1 34:1 39:1 49:1 61:1 68:1 69:1 71:1 75:1 81:1 82:1 86:1 171:1 189:1 195:1 216:1 316:1 318:1 325:1 346:1 355:1 369:1 395:1 413:1 448:1 450:1 454:1 456:1 457:1 458:1 461:1 463:1 465:1 501:1 508:1 509:1 515:1 522:1 528:1 530:1 535:1 552:1 585:1 593:1 594:1 597:1 607:1 608:1 625:1 634:1 635:1 637:1 668:1 688:1 693:1 711:1 713:1 717:1 737:1 739:1 744:1 764:1 772:1 778:1 781:1 782:1 784:1 791:1 811:1 812:1 817:1 819:1 835:1 838:1 848:1 862:1 956:1 959:1 993:1 1031:1 1099:1 1264:1 1291:1 1292:1 1333:1 1396:1 1506:1 1518:1 1523:1 1582:1 2377:1 2390:1 2391:1 2496:1 2703:1 3865:1 3888:1 4018:1 4023:1 4041:1 4047:1 4294:1 4421:1 4939:1 5119:1 5664:1 5718:1 5799:1 5832:1 5866:1 5869:1 5899:1 5947:1 6007:1 6014:1 6044:1 6365:1 6462:1 6466:1 6491:1 6554:1 6606:1 6716:1 6762:1 6838:1 7582:1 7593:1 7600:1 7657:1 7667:1 7811:1 7828:1 8026:1 8188:1 8200:1 8247:1 8615:1 8806:1 8822:1 9182:1 9250:1 9309:1 9581:1 9587:1 9592:1 9610:1 9690:1 9944:1 10075:1 10143:1 10179:1 10208:1 10270:1 10346:1 10626:1 10658:1 10662:1 10745:1 10801:1 10907:1 10923:1 10931:1 10991:1 11065:1 11741:1 11778:1 12093:1 12253:1 12825:1 14186:1 14397:1 14414:1 14730:1 15223:1 16148:1 16254:1 16291:1 16645:1 19697:1 19826:1 19834:1 20534:1 21486:1 26561:1 26641:1 27524:1 27819:1 27917:1 28980:1 29515:1 31635:1 32369:1 35095:1 35438:1 35862:1 36267:1 36270:1 36306:1 36472:1 36717:1 37112:1 37160:1 37239:1 38160:1 38549:1 38562:1 38622:1 38761:1 38937:1 39754:1 43176:1 43287:1 43313:1 43626:1 43698:1 44310:1 44403:1 45095:1 45745:1 45806:1 47827:1 48616:1 50725:1 51126:1 51370:1 52779:1 52842:1 52894:1 52951:1 53292:1 54476:1 55182:1 55428:1 55624:1 55825:1 56177:1 56486:1 57919:1 57968:1 58464:1 58467:1 58787:1 59055:1 59108:1 59149:1 59343:1 59557:1 61415:1 61566:1 62698:1 63132:1 
0.0082553774772766621 11:1 12:1 13:1 14:1 15:1 16:1 17:1 18:1 20:1 22:1 29:1 31:1 34:1 65:1 66:1 70:1 86:1 248:1 277:1 284:1 303:1 316:1 321:1 350:1 379:1 417:1 438:1 446:1 457:1 481:1 530:1 585:1 592:1 805:1 862:1 959:1 1199:1 1220:1 1308:1 1582:1 3057:1 3305:1 3412:1 3845:1 3954:1 3960:1 4367:1 4685:1 5168:1 5610:1 5864:1 6208:1 6751:1 7541:1 7548:1 10537:1 11065:1 11778:1 13659:1 13818:1 14561:1 16645:1 22801:1 24464:1 27157:1 29317:1 30437:1 34770:1 36226:1 37636:1 39649:1 42865:1 42935:1 57371:1 59537:1 61566:1 
0.010956997417474836 3:1 9:1 11:1 13:1 15:1 16:1 20:1 22:1 23:1 26:1 27:1 28:1 29:1 34:1 65:1 72:1 79:1 86:1 100:1 196:1 248:1 303:1 315:1 319:1 325:1 326:1 379:1 413:1 422:1 423:1 517:1 526:1 533:1 593:1 641:1 695:1 712:1 729:1 731:1 758:1 795:1 935:1 1204:1 1336:1 1449:1 1560:1 1695:1 2514:1 3053:1 3062:1 3833:1 3909:1 4042:1 4054:1 4680:1 5099:1 5256:1 5297:1 6688:1 6792:1 7577:1 8318:1 8858:1 9201:1 9448:1 9474:1 11479:1 13709:1 14781:1 15670:1 16462:1 17048:1 22743:1 22852:1 26257:1 26797:1 27838:1 27971:1 30380:1 33041:1 33276:1 39380:1 43141:1 46515:1 48859:1 52037:1 52169:1 60541:1 
0.066292367320794673 9:1 12:1 13:1 16:1 17:1 19:1 20:1 22:1 23:1 26:1 27:1 28:1 29:1 31:1 50:1 64:1 65:1 68:1 71:1 83:1 90:1 196:1 268:1 281:1 303:1 311:1 321:1 325:1 413:1 448:1 457:1 501:1 522:1 585:1 603:1 642:1 688:1 701:1 729:1 733:1 758:1 816:1 818:1 862:1 1061:1 1164:1 1199:1 1264:1 1323:1 1531:1 1623:1 2531:1 2533:1 3383:1 3722:1 3954:1 4018:1 5107:1 5664:1 5875:1 6363:1 6612:1 7761:1 8344:1 8989:1 9448:1 9494:1 10716:1 10762:1 11070:1 12560:1 13374:1 13659:1 14176:1 14644:1 16336:1 16805:1 20824:1 20842:1 24327:1 32214:1 35095:1 36361:1 38134:1 39010:1 44113:1 46766:1 49658:1 52046:1 58240:1 59593:1 64188:1 
0.0056328480975982144 9:1 11:1 12:1 13:1 14:1 15:1 16:1 17:1 19:1 21:1 22:1 23:1 24:1 26:1 27:1 28:1 29:1 30:1 31:1 34:1 61:1 69:1 75:1 79:1 82:1 83:1 86:1 186:1 189:1 248:1 277:1 303:1 320:1 321:1 325:1 359:1 379:1 426:1 431:1 450:1 451:1 456:1 457:1 508:1 552:1 561:1 569:1 572:1 585:1 613:1 627:1 641:1 663:1 688:1 697:1 713:1 731:1 758:1 811:1 843:1 858:1 866:1 934:1 942:1 946:1 1096:1 1287:1 1291:1 1390:1 1449:1 1521:1 1533:1 1565:1 2308:1 2396:1 3066:1 3071:1 3324:1 3925:1 3939:1 3954:1 4018:1 4475:1 4670:1 5325:1 5340:1 5431:1 5702:1 5741:1 5844:1 5885:1 6454:1 7142:1 7159:1 7242:1 7299:1 7896:1 7906:1 8058:1 8320:1 8566:1 8907:1 8908:1 9245:1 9474:1 10643:1 10959:1 11036:1 11094:1 11562:1 11624:1 12776:1 14360:1 14402:1 15193:1 15670:1 16276:1 16353:1 16513:1 19169:1 19863:1 22903:1 22985:1 24034:1 27040:1 33409:1 33499:1 33997:1 35299:1 35532:1 36125:1 36428:1 41488:1 41830:1 41840:1 42056:1 44756:1 45227:1 46545:1 47634:1 49146:1 49161:1 51085:1 52172:1 52177:1 57811:1 59259:1 59439:1 59733:1 60845:1 61056:1 
0.0079794954067749745 4:1 9:1 11:1 12:1 13:1 14:1 16:1 17:1 20:1 21:1 22:1 26:1 27:1 28:1 29:1 61:1 64:1 69:1 73:1 74:1 144:1 178:1 187:1 194:1 248:1 273:1 305:1 315:1 325:1 346:1 403:1 416:1 417:1 428:1 446:1 455:1 462:1 527:1 540:1 561:1 589:1 608:1 609:1 688:1 701:1 710:1 725:1 731:1 758:1 768:1 812:1 816:1 1097:1 1156:1 1297:1 1353:1 1367:1 1378:1 2018:1 2144:1 2336:1 2458:1 3044:1 3056:1 3068:1 3266:1 3665:1 3819:1 4040:1 4282:1 5161:1 5180:1 5371:1 5610:1 5810:1 5959:1 6702:1 6901:1 7150:1 7486:1 7832:1 7867:1 8987:1 9159:1 9474:1 10000:1 10671:1 10707:1 12797:1 13284:1 14452:1 14929:1 15045:1 15139:1 17885:1 18325:1 19397:1 22795:1 22932:1 23751:1 25360:1 27798:1 28931:1 32537:1 32636:1 34779:1 35931:1 36757:1 39460:1 41418:1 42536:1 44423:1 44622:1 49627:1 50604:1 52153:1 54788:1 58029:1 
0.00027034440172783557 9:1 10:1 12:1 13:1 14:1 17:1 19:1 20:1 22:1 23:1 26:1 27:1 28:1 30:1 31:1 34:1 62:1 64:1 65:1 79:1 83:1 171:1 189:1 212:1 216:1 268:1 277:1 281:1 286:1 290:1 316:1 319:1 321:1 325:1 346:1 444:1 447:1 457:1 463:1 490:1 535:1 585:1 589:1 592:1 599:1 608:1 613:1 620:1 706:1 714:1 717:1 737:1 758:1 769:1 843:1 866:1 942:1 946:1 1113:1 1116:1 1160:1 1164:1 1173:1 1195:1 1199:1 1455:1 1533:1 2383:1 2646:1 2695:1 3324:1 3372:1 3430:1 3488:1 3851:1 3861:1 3911:1 3975:1 4036:1 4047:1 4300:1 5558:1 5632:1 5864:1 5885:1 5982:1 6246:1 6838:1 7482:1 7532:1 7678:1 7824:1 7833:1 7902:1 9099:1 9261:1 9301:1 9587:1 10010:1 10943:1 11097:1 11561:1 11635:1 12958:1 12984:1 13326:1 13363:1 13461:1 13626:1 13673:1 15737:1 16356:1 19754:1 21195:1 21410:1 24059:1 24246:1 24532:1 24791:1 26364:1 26507:1 26831:1 27329:1 27754:1 27910:1 29037:1 34881:1 36221:1 36426:1 43716:1 44430:1 44726:1 50223:1 51194:1 51342:1 52840:1 54860:1 59756:1 60832:1 61116:1 
0.038594304679524523 11:1 12:1 13:1 15:1 16:1 17:1 19:1 20:1 21:1 22:1 23:1 24:1 26:1 27:1 28:1 29:1 31:1 39:1 65:1 68:1 73:1 81:1 248:1 250:1 268:1 303:1 321:1 328:1 379:1 413:1 417:1 438:1 446:1 450:1 458:1 461:1 462:1 501:1 530:1 565:1 585:1 592:1 597:1 608:1 637:1 639:1 680:1 688:1 707:1 731:1 786:1 812:1 816:1 866:1 982:1 1199:1 1206:1 1264:1 1354:1 1506:1 3057:1 3107:1 3954:1 3960:1 3975:1 4129:1 4670:1 5116:1 5168:1 5612:1 5702:1 5899:1 5928:1 5959:1 6365:1 6755:1 7211:1 7532:1 7661:1 7847:1 8247:1 8310:1 8752:1 9124:1 9474:1 10282:1 10657:1 10662:1 10721:1 11085:1 11966:1 13659:1 13673:1 13741:1 14185:1 14951:1 16143:1 16148:1 22801:1 23156:1 27145:1 27343:1 28458:1 32322:1 34795:1 35299:1 36472:1 36757:1 38156:1 39688:1 41703:1 43652:1 44530:1 46475:1 48325:1 50415:1 52165:1 56218:1 57887:1 57964:1 58283:1 59656:1 62118:1 
0.0048607577847184979 9:1 15:1 17:1 18:1 21:1 22:1 26:1 27:1 28:1 29:1 61:1 67:1 69:1 70:1 188:1 189:1 193:1 392:1 438:1 456:1 475:1 552:1 576:1 609:1 688:1 737:1 758:1 799:1 1098:1 1253:1 1291:1 1304:1 2363:1 2392:1 2426:1 4876:1 5832:1 6139:1 7342:1 7854:1 9572:1 10417:1 12815:1 14074:1 14397:1 14509:1 19593:1 19849:1 31394:1 37492:1 44568:1 56740:1 
0.0099120337443242713 9:1 11:1 12:1 13:1 14:1 15:1 16:1 17:1 19:1 21:1 22:1 23:1 24:1 26:1 27:1 28:1 29:1 30:1 31:1 34:1 39:1 61:1 65:1 69:1 75:1 79:1 82:1 83:1 86:1 186:1 189:1 248:1 277:1 303:1 320:1 325:1 359:1 379:1 426:1 431:1 450:1 451:1 456:1 457:1 508:1 552:1 561:1 569:1 572:1 613:1 627:1 641:1 663:1 688:1 697:1 713:1 731:1 758:1 811:1 843:1 858:1 866:1 934:1 946:1 962:1 986:1 1096:1 1198:1 1287:1 1291:1 1390:1 1449:1 1521:1 1533:1 1585:1 2308:1 2396:1 3066:1 3071:1 3324:1 3925:1 4018:1 4475:1 4670:1 5325:1 5340:1 5431:1 5702:1 5741:1 5844:1 5885:1 6454:1 7142:1 7159:1 7242:1 7299:1 7896:1 7906:1 8058:1 8314:1 8566:1 8893:1 9245:1 9474:1 10643:1 10959:1 11036:1 11094:1 11624:1 11813:1 12004:1 12776:1 13643:1 14360:1 14402:1 15193:1 15670:1 16276:1 16353:1 16668:1 19169:1 19863:1 22903:1 22985:1 24034:1 33398:1 33499:1 33997:1 35299:1 35532:1 36125:1 36428:1 41488:1 41830:1 41840:1 42056:1 44756:1 45227:1 47634:1 51085:1 52172:1 52177:1 57811:1 59254:1 59439:1 59733:1 61056:1 61669:1 62265:1 
0.029531034447231552 9:1 10:1 12:1 13:1 15:1 17:1 20:1 21:1 23:1 26:1 27:1 29:1 31:1 50:1 61:1 62:1 73:1 79:1 83:1 90:1 193:1 196:1 220:1 277:1 291:1 311:1 325:1 375:1 438:1 448:1 455:1 461:1 525:1 565:1 630:1 688:1 696:1 725:1 743:1 795:1 866:1 1061:1 1067:1 1106:1 1119:1 1354:1 1461:1 1533:1 1624:1 2426:1 2514:1 2747:1 3324:1 3494:1 3729:1 4018:1 4637:1 5651:1 5808:1 5932:1 6648:1 7207:1 8113:1 8885:1 9662:1 11087:1 11095:1 12555:1 12624:1 12901:1 13007:1 14948:1 15782:1 16347:1 16354:1 16820:1 24034:1 25692:1 30195:1 34971:1 35899:1 36611:1 39162:1 41679:1 45432:1 48977:1 53158:1 59667:1 59737:1 64402:1 
0.024024296748957126 9:1 11:1 13:1 14:1 15:1 16:1 17:1 19:1 20:1 21:1 22:1 23:1 26:1 27:1 28:1 29:1 30:1 61:1 65:1 66:1 67:1 69:1 74:1 79:1 171:1 186:1 188:1 193:1 248:1 316:1 319:1 329:1 342:1 392:1 403:1 429:1 438:1 444:1 455:1 457:1 462:1 509:1 530:1 534:1 542:1 552:1 565:1 597:1 603:1 626:1 712:1 731:1 737:1 758:1 795:1 807:1 811:1 831:1 1098:1 1195:1 1197:1 1207:1 1214:1 1253:1 1297:1 1373:1 1449:1 1455:1 2309:1 2346:1 2354:1 2449:1 3044:1 3069:1 3859:1 3910:1 4138:1 4250:1 4876:1 5400:1 5558:1 5577:1 5813:1 5824:1 5869:1 5959:1 6488:1 6749:1 6821:1 6966:1 7207:1 7644:1 7749:1 8044:1 9201:1 9474:1 9572:1 9587:1 10569:1 10626:1 10881:1 12802:1 13624:1 13639:1 13744:1 13781:1 14074:1 14452:1 15110:1 15670:1 15737:1 19183:1 19526:1 20222:1 22959:1 26464:1 26820:1 28504:1 28828:1 31394:1 34594:1 35949:1 36046:1 36300:1 36757:1 38610:1 39614:1 40696:1 41681:1 44029:1 45151:1 52153:1 52175:1 52845:1 57500:1 58943:1 
0.14984879073071466 9:1 11:1 12:1 13:1 15:1 16:1 17:1 19:1 20:1 21:1 22:1 24:1 26:1 27:1 28:1 29:1 34:1 61:1 63:1 64:1 65:1 69:1 79:1 188:1 195:1 196:1 241:1 248:1 281:1 303:1 312:1 318:1 321:1 390:1 403:1 457:1 461:1 462:1 508:1 522:1 552:1 572:1 585:1 595:1 665:1 668:1 697:1 731:1 733:1 748:1 758:1 764:1 789:1 817:1 934:1 1098:1 1134:1 1164:1 1199:1 1297:1 1466:1 2346:1 2360:1 2511:1 2532:1 3003:1 3044:1 3386:1 3748:1 3888:1 3954:1 4852:1 5867:1 5933:1 5959:1 6454:1 6611:1 7301:1 7626:1 8600:1 8615:1 8905:1 9474:1 9502:1 9746:1 9945:1 10301:1 10741:1 12802:1 13138:1 13377:1 13659:1 14452:1 15835:1 19576:1 20644:1 20832:1 22580:1 24346:1 26638:1 31217:1 36289:1 36618:1 36757:1 38996:1 42074:1 43443:1 47769:1 47830:1 49135:1 52153:1 52282:1 53639:1 54497:1 58413:1 
0.0022026152475861137 9:1 10:1 11:1 12:1 13:1 14:1 15:1 16:1 17:1 20:1 21:1 22:1 23:1 26:1 27:1 28:1 29:1 31:1 39:1 50:1 61:1 66:1 67:1 68:1 73:1 79:1 83:1 90:1 187:1 216:1 220:1 248:1 277:1 311:1 325:1 327:1 347:1 354:1 360:1 369:1 386:1 393:1 413:1 423:1 428:1 438:1 448:1 450:1 457:1 517:1 533:1 541:1 547:1 565:1 597:1 620:1 629:1 688:1 695:1 715:1 743:1 758:1 772:1 800:1 816:1 866:1 880:1 985:1 994:1 1048:1 1097:1 1228:1 1247:1 1264:1 1270:1 1354:1 1461:1 1533:1 1616:1 2329:1 2703:1 2756:1 3068:1 3324:1 3729:1 4018:1 4045:1 4081:1 4322:1 4405:1 4517:1 4806:1 4895:1 5121:1 5287:1 5371:1 5651:1 5694:1 5716:1 5869:1 6792:1 6938:1 7033:1 7209:1 7644:1 7653:1 8094:1 8858:1 9276:1 9653:1 10067:1 10433:1 10710:1 11087:1 11190:1 11990:1 12100:1 12386:1 12793:1 13879:1 14023:1 14188:1 14224:1 14950:1 15775:1 16347:1 16773:1 19332:1 21511:1 21707:1 22932:1 24034:1 25692:1 27898:1 29136:1 29486:1 29853:1 31025:1 32381:1 33193:1 34971:1 35417:1 36300:1 40562:1 40940:1 41693:1 43594:1 45362:1 48872:1 51260:1 55112:1 56837:1 58189:1 59667:1 59977:1 62205:1 62739:1 63521:1 
0.0026757311076313554 3:1 9:1 10:1 11:1 12:1 13:1 14:1 15:1 16:1 17:1 20:1 21:1 22:1 23:1 24:1 26:1 27:1 28:1 29:1 31:1 34:1 39:1 49:1 50:1 62:1 64:1 65:1 66:1 67:1 73:1 75:1 76:1 80:1 105:1 181:1 189:1 193:1 216:1 229:1 248:1 268:1 269:1 273:1 295:1 298:1 303:1 310:1 311:1 316:1 319:1 325:1 326:1 328:1 338:1 352:1 359:1 367:1 386:1 387:1 403:1 409:1 417:1 428:1 438:1 448:1 462:1 522:1 524:1 526:1 561:1 584:1 592:1 625:1 627:1 637:1 673:1 688:1 698:1 707:1 712:1 725:1 731:1 733:1 758:1 782:1 791:1 807:1 817:1 862:1 957:1 980:1 1035:1 1051:1 1116:1 1154:1 1206:1 1221:1 1231:1 1248:1 1353:1 1388:1 1399:1 1419:1 1490:1 1738:1 2211:1 2376:1 2435:1 2690:1 2849:1 3044:1 3049:1 3057:1 3068:1 3215:1 3265:1 3576:1 3601:1 3714:1 3725:1 3864:1 3900:1 4042:1 4051:1 4130:1 4385:1 4475:1 4579:1 4798:1 4816:1 5051:1 5168:1 5371:1 5664:1 5959:1 6606:1 6637:1 6674:1 6680:1 7153:1 7450:1 7532:1 7558:1 8034:1 8071:1 8254:1 8672:1 8922:1 9112:1 9201:1 9222:1 9474:1 9494:1 10200:1 10337:1 10573:1 10741:1 11070:1 11758:1 11922:1 12294:1 12428:1 12979:1 13248:1 13742:1 13826:1 13901:1 14032:1 14931:1 15185:1 15250:1 15421:1 16039:1 17184:1 18622:1 19681:1 20080:1 21363:1 22156:1 22707:1 22801:1 22932:1 23513:1 23739:1 25118:1 25174:1 25606:1 25672:1 26527:1 26696:1 27838:1 27856:1 28467:1 29388:1 30007:1 30959:1 31074:1 31947:1 35114:1 36757:1 38928:1 39110:1 39262:1 39313:1 41447:1 42457:1 43018:1 45123:1 45283:1 46115:1 48099:1 50286:1 50933:1 52153:1 52157:1 52174:1 55771:1 56428:1 57508:1 58410:1 59608:1 61495:1 61971:1 63688:1 
0.0046003669318794857 9:1 11:1 12:1 13:1 14:1 15:1 16:1 17:1 19:1 20:1 21:1 22:1 23:1 24:1 26:1 27:1 28:1 29:1 31:1 34:1 50:1 61:1 64:1 67:1 69:1 71:1 78:1 79:1 81:1 86:1 171:1 178:1 193:1 195:1 248:1 268:1 281:1 326:1 342:1 359:1 369:1 396:1 403:1 409:1 426:1 427:1 429:1 444:1 446:1 448:1 450:1 452:1 462:1 501:1 542:1 552:1 572:1 592:1 620:1 646:1 663:1 701:1 705:1 713:1 729:1 731:1 737:1 743:1 748:1 758:1 764:1 783:1 795:1 804:1 811:1 812:1 858:1 866:1 882:1 934:1 959:1 1061:1 1103:1 1164:1 1257:1 1297:1 1323:1 1433:1 1449:1 1461:1 1466:1 1506:1 1559:1 1582:1 2144:1 2442:1 2506:1 3044:1 3049:1 3066:1 3067:1 3069:1 3372:1 4062:1 4068:1 4237:1 4475:1 4942:1 5043:1 5340:1 5348:1 5400:1 5558:1 5610:1 5665:1 5694:1 5755:1 5959:1 6368:1 6962:1 7299:1 7532:1 8434:1 8550:1 8989:1 8993:1 9061:1 9245:1 9428:1 9474:1 9581:1 9653:1 9677:1 9746:1 9944:1 10224:1 10525:1 10643:1 10657:1 11026:1 11087:1 11224:1 11785:1 12558:1 12861:1 13363:1 14098:1 14452:1 14648:1 15524:1 15528:1 15670:1 15797:1 15835:1 16143:1 16652:1 18333:1 20154:1 20608:1 22700:1 22903:1 22910:1 22959:1 24246:1 28031:1 28064:1 31640:1 33499:1 33535:1 34758:1 35126:1 35130:1 35587:1 36757:1 38176:1 40674:1 42046:1 47232:1 47568:1 49659:1 49698:1 51085:1 52153:1 52157:1 52172:1 52175:1 52760:1 53237:1 53638:1 54481:1 57291:1 57811:1 57887:1 59383:1 59675:1 60102:1 61610:1 64186:1 
0.00285243650410747 9:1 11:1 12:1 13:1 14:1 15:1 16:1 17:1 20:1 22:1 23:1 26:1 27:1 28:1 29:1 30:1 31:1 34:1 64:1 67:1 69:1 72:1 79:1 81:1 82:1 86:1 171:1 196:1 248:1 268:1 281:1 287:1 293:1 315:1 316:1 321:1 325:1 364:1 379:1 386:1 392:1 403:1 409:1 417:1 422:1 426:1 428:1 431:1 438:1 444:1 446:1 450:1 451:1 462:1 469:1 530:1 536:1 589:1 592:1 597:1 627:1 631:1 688:1 693:1 697:1 699:1 701:1 731:1 733:1 746:1 758:1 795:1 799:1 804:1 812:1 816:1 835:1 866:1 942:1 957:1 1164:1 1170:1 1240:1 1297:1 1342:1 1449:1 1451:1 1499:1 1506:1 1516:1 1580:1 2514:1 3044:1 3057:1 3062:1 3071:1 3372:1 3442:1 3561:1 3835:1 3850:1 3855:1 3957:1 4029:1 4031:1 4533:1 4685:1 4800:1 4885:1 5043:1 5168:1 5260:1 5318:1 5371:1 5433:1 5558:1 5610:1 5715:1 5726:1 5959:1 6086:1 6751:1 6856:1 7502:1 7532:1 7653:1 8068:1 8147:1 8806:1 8903:1 8952:1 9003:1 9474:1 9505:1 9701:1 10402:1 10528:1 10657:1 10708:1 10907:1 11100:1 11559:1 11565:1 11750:1 13363:1 13420:1 13953:1 14452:1 14822:1 15670:1 15688:1 16103:1 16143:1 16236:1 16624:1 22801:1 22853:1 22987:1 24246:1 24579:1 25044:1 26260:1 26354:1 26412:1 27130:1 27631:1 27678:1 29897:1 30435:1 30974:1 31443:1 33068:1 34028:1 34758:1 34774:1 35407:1 35463:1 36757:1 37343:1 39649:1 40230:1 42701:1 43608:1 45276:1 45618:1 49116:1 49438:1 49777:1 52153:1 52165:1 52177:1 52333:1 53353:1 57322:1 57887:1 58163:1 59043:1 59776:1 60811:1 60873:1 61441:1 
0.00648082599304187 3:1 9:1 10:1 12:1 13:1 14:1 15:1 17:1 20:1 21:1 22:1 23:1 24:1 26:1 27:1 28:1 30:1 31:1 39:1 64:1 65:1 76:1 79:1 83:1 95:1 193:1 220:1 269:1 277:1 287:1 303:1 309:1 316:1 319:1 321:1 325:1 346:1 347:1 369:1 438:1 448:1 449:1 450:1 458:1 462:1 463:1 541:1 552:1 585:1 627:1 641:1 658:1 701:1 705:1 711:1 714:1 725:1 733:1 737:1 758:1 778:1 791:1 835:1 866:1 993:1 1154:1 1160:1 1170:1 1195:1 1199:1 1408:1 1451:1 1533:1 1647:1 2438:1 2747:1 2763:1 3205:1 3305:1 3309:1 3324:1 3442:1 3695:1 3853:1 3854:1 3916:1 3954:1 4041:1 4044:1 4295:1 4314:1 5643:1 5676:1 5694:1 5892:1 5954:1 6014:1 6943:1 8058:1 8328:1 8508:1 9003:1 9061:1 9182:1 9259:1 9506:1 9592:1 10157:1 10346:1 10907:1 11087:1 12082:1 13238:1 13310:1 13420:1 13621:1 13659:1 15324:1 15689:1 16347:1 16898:1 20125:1 21770:1 23436:1 23913:1 24057:1 24575:1 25495:1 26387:1 26396:1 26905:1 27819:1 27884:1 28995:1 29103:1 35196:1 36457:1 37160:1 40585:1 45217:1 45227:1 46620:1 47402:1 49775:1 50725:1 51182:1 52345:1 52894:1 55534:1 56480:1 59055:1 59663:1 
5.9477119406988839e-06 9:1 10:1 11:1 12:1 13:1 14:1 15:1 16:1 17:1 20:1 21:1 22:1 23:1 26:1 27:1 28:1 29:1 50:1 62:1 64:1 65:1 66:1 68:1 69:1 73:1 79:1 80:1 81:1 194:1 220:1 229:1 248:1 268:1 273:1 281:1 293:1 309:1 311:1 325:1 368:1 393:1 403:1 413:1 422:1 438:1 450:1 451:1 462:1 526:1 565:1 585:1 592:1 620:1 688:1 704:1 725:1 731:1 743:1 758:1 784:1 795:1 799:1 812:1 1060:1 1119:1 1156:1 1176:1 1203:1 1232:1 1264:1 1287:1 1354:1 1461:1 1486:1 1506:1 2458:1 2462:1 2765:1 2849:1 3044:1 3266:1 3377:1 3543:1 3702:1 3732:1 4034:1 4592:1 4895:1 5105:1 5250:1 5716:1 5738:1 5959:1 6675:1 7196:1 7532:1 9047:1 9474:1 9653:1 10252:1 10418:1 10657:1 12529:1 13023:1 13284:1 13494:1 13695:1 13912:1 14174:1 14357:1 14939:1 15775:1 16013:1 16143:1 20307:1 21788:1 22156:1 23751:1 24292:1 25539:1 25707:1 27713:1 30056:1 32209:1 35417:1 35518:1 36757:1 39268:1 49973:1 52153:1 56058:1 56752:1 57887:1 
0.001960604104382143 9:1 13:1 14:1 17:1 20:1 24:1 26:1 27:1 28:1 29:1 31:1 49:1 61:1 65:1 81:1 83:1 89:1 187:1 193:1 325:1 338:1 438:1 462:1 540:1 665:1 672:1 688:1 712:1 725:1 772:1 804:1 858:1 1034:1 1097:1 1203:1 1499:1 1528:1 1609:1 2336:1 2449:1 4018:1 5954:1 6901:1 8603:1 8655:1 9212:1 10058:1 10506:1 11038:1 12291:1 12797:1 13684:1 16082:1 16314:1 16760:1 19397:1 20229:1 47787:1 48017:1 50872:1 59454:1 63246:1 
0.025697081891227755 9:1 10:1 12:1 13:1 15:1 16:1 17:1 19:1 20:1 22:1 23:1 26:1 27:1 28:1 29:1 30:1 31:1 61:1 65:1 67:1 69:1 79:1 81:1 82:1 83:1 171:1 189:1 216:1 268:1 277:1 311:1 316:1 318:1 319:1 325:1 383:1 389:1 422:1 438:1 448:1 450:1 451:1 455:1 457:1 508:1 523:1 525:1 526:1 585:1 589:1 592:1 597:1 635:1 637:1 688:1 701:1 707:1 725:1 737:1 781:1 795:1 817:1 848:1 866:1 1099:1 1195:1 1197:1 1250:1 1287:1 1455:1 1509:1 1523:1 1533:1 2376:1 2703:1 3324:1 3729:1 3861:1 3888:1 3902:1 4018:1 4031:1 4753:1 4839:1 5253:1 5651:1 5706:1 5738:1 5806:1 5864:1 5869:1 6468:1 6621:1 6642:1 6682:1 7482:1 7532:1 7541:1 7653:1 8197:1 8247:1 8982:1 9122:1 9585:1 9587:1 10187:1 10734:1 10984:1 11087:1 12824:1 13626:1 13635:1 14049:1 14357:1 15735:1 15737:1 16181:1 16287:1 16347:1 19666:1 21486:1 24034:1 24045:1 25692:1 26497:1 26644:1 26727:1 27658:1 31162:1 33005:1 34971:1 35339:1 35519:1 35888:1 36221:1 36305:1 38569:1 39055:1 39320:1 42880:1 43602:1 45771:1 50378:1 52817:1 52840:1 55686:1 59667:1 
0.008032177903809742 9:1 10:1 11:1 12:1 13:1 15:1 16:1 17:1 22:1 23:1 27:1 28:1 34:1 39:1 62:1 64:1 68:1 79:1 86:1 189:1 216:1 248:1 277:1 281:1 287:1 303:1 316:1 327:1 369:1 379:1 381:1 403:1 413:1 428:1 438:1 447:1 448:1 450:1 592:1 595:1 626:1 731:1 758:1 791:1 938:1 987:1 1116:1 1164:1 1170:1 1264:1 1449:1 1561:1 2379:1 2695:1 3044:1 3068:1 3305:1 3375:1 3377:1 3441:1 3845:1 3851:1 4081:1 4690:1 4720:1 5112:1 5397:1 5625:1 5643:1 5694:1 7545:1 7617:1 8044:1 9474:1 10342:1 11521:1 12016:1 12984:1 13366:1 13419:1 14181:1 15670:1 16488:1 19712:1 21410:1 22956:1 24271:1 24283:1 24571:1 26359:1 30501:1 30633:1 32265:1 33836:1 34834:1 42915:1 43391:1 45151:1 52174:1 56449:1 60692:1 62322:1 
0.0085142119710772783 4:1 9:1 10:1 11:1 12:1 13:1 14:1 15:1 16:1 17:1 21:1 22:1 23:1 24:1 26:1 27:1 28:1 29:1 30:1 39:1 64:1 67:1 69:1 76:1 79:1 81:1 82:1 145:1 178:1 216:1 226:1 248:1 290:1 325:1 338:1 399:1 403:1 428:1 457:1 552:1 585:1 594:1 636:1 641:1 643:1 673:1 688:1 690:1 694:1 718:1 729:1 731:1 758:1 800:1 835:1 843:1 987:1 992:1 1173:1 1259:1 1292:1 1419:1 1447:1 1495:1 1521:1 2023:1 2144:1 2703:1 2825:1 3044:1 3068:1 3473:1 4020:1 4024:1 4984:1 5371:1 5857:1 7591:1 8221:1 8314:1 8368:1 8677:1 8800:1 8844:1 9333:1 9433:1 9474:1 10429:1 10907:1 10954:1 10959:1 12018:1 12070:1 13447:1 14119:1 14408:1 15424:1 15640:1 16067:1 16272:1 16276:1 17893:1 18316:1 21488:1 22005:1 22932:1 27519:1 27553:1 31780:1 48129:1 48440:1 48791:1 51489:1 51887:1 52174:1 56820:1 59038:1 59235:1 59254:1 62337:1 62618:1 
0.012644704314969356 5:1 6:1 9:1 10:1 11:1 12:1 13:1 14:1 15:1 16:1 17:1 18:1 20:1 21:1 22:1 23:1 24:1 26:1 27:1 28:1 29:1 30:1 31:1 33:1 34:1 39:1 43:1 50:1 62:1 64:1 65:1 66:1 67:1 69:1 70:1 76:1 78:1 79:1 81:1 82:1 83:1 86:1 152:1 161:1 179:1 193:1 196:1 231:1 248:1 268:1 277:1 303:1 312:1 316:1 321:1 325:1 326:1 327:1 350:1 365:1 366:1 379:1 388:1 392:1 394:1 403:1 406:1 428:1 438:1 441:1 442:1 446:1 450:1 455:1 461:1 462:1 463:1 481:1 517:1 530:1 533:1 561:1 569:1 575:1 585:1 592:1 593:1 607:1 613:1 619:1 637:1 658:1 688:1 693:1 697:1 701:1 705:1 707:1 712:1 725:1 731:1 734:1 737:1 748:1 749:1 758:1 768:1 772:1 781:1 783:1 784:1 788:1 805:1 810:1 811:1 812:1 817:1 838:1 858:1 862:1 880:1 925:1 959:1 962:1 964:1 981:1 992:1 993:1 1013:1 1058:1 1060:1 1126:1 1160:1 1199:1 1204:1 1229:1 1230:1 1253:1 1297:1 1308:1 1408:1 1433:1 1466:1 1506:1 1518:1 1528:1 1544:1 1582:1 1587:1 2045:1 2158:1 2430:1 2442:1 2449:1 2522:1 2895:1 3044:1 3068:1 3305:1 3325:1 3766:1 3865:1 3954:1 4018:1 4037:1 4051:1 4059:1 4081:1 4369:1 4563:1 4569:1 4670:1 4821:1 4830:1 4876:1 4928:1 5040:1 5371:1 5382:1 5553:1 5556:1 5610:1 5702:1 5711:1 5815:1 5928:1 5959:1 6007:1 6210:1 6747:1 6792:1 7159:1 7242:1 7321:1 7532:1 7541:1 7582:1 7792:1 7922:1 7977:1 8269:1 8508:1 8812:1 8899:1 8982:1 8987:1 9073:1 9122:1 9227:1 9474:1 9528:1 9574:1 9581:1 9742:1 9762:1 9787:1 9981:1 10000:1 10067:1 10183:1 10230:1 10268:1 10299:1 10549:1 10610:1 10640:1 10657:1 10745:1 10754:1 10924:1 10927:1 11038:1 11065:1 11195:1 11445:1 11778:1 11809:1 11837:1 11938:1 12070:1 12094:1 12159:1 12524:1 12539:1 13090:1 13327:1 13659:1 13708:1 13891:1 13894:1 14074:1 14452:1 14563:1 15324:1 15523:1 15842:1 16143:1 16247:1 16250:1 16314:1 16413:1 16645:1 16685:1 17928:1 18390:1 20014:1 20164:1 20239:1 20763:1 22298:1 22932:1 22941:1 24062:1 24067:1 25868:1 26561:1 27772:1 28005:1 29327:1 29976:1 29994:1 31097:1 31132:1 31395:1 31615:1 33723:1 34461:1 34779:1 35299:1 35369:1 35374:1 35970:1 36757:1 37110:1 37640:1 39611:1 41488:1 41840:1 42881:1 43189:1 44823:1 44989:1 46243:1 47396:1 47411:1 48486:1 49065:1 49627:1 50102:1 50391:1 50980:1 52153:1 52174:1 52517:1 52713:1 52774:1 53758:1 53898:1 54769:1 55102:1 55641:1 55943:1 56157:1 56268:1 57449:1 57634:1 57791:1 57887:1 57892:1 58464:1 58533:1 59115:1 59128:1 59450:1 59557:1 60011:1 60464:1 61566:1 61648:1 61745:1 62027:1 62618:1 62711:1 62862:1 64028:1 64083:1 
0.00071163025812024121 10:1 11:1 12:1 13:1 15:1 16:1 17:1 19:1 20:1 26:1 27:1 28:1 29:1 62:1 64:1 65:1 67:1 69:1 71:1 79:1 216:1 230:1 248:1 277:1 303:1 309:1 315:1 318:1 319:1 392:1 403:1 417:1 426:1 438:1 448:1 462:1 508:1 509:1 526:1 530:1 688:1 701:1 725:1 731:1 733:1 737:1 747:1 758:1 781:1 817:1 1116:1 1160:1 1197:1 1253:1 1297:1 1329:1 1451:1 2697:1 2868:1 3044:1 3057:1 3305:1 3703:1 3835:1 3888:1 3902:1 3906:1 4876:1 5168:1 5318:1 5649:1 5959:1 6468:1 6495:1 6682:1 6753:1 9003:1 9474:1 9505:1 9572:1 9713:1 10186:1 10753:1 12986:1 13310:1 13635:1 14074:1 14452:1 14705:1 15688:1 21441:1 22801:1 25549:1 26260:1 26644:1 26727:1 26769:1 31394:1 34957:1 36757:1 38568:1 38659:1 39320:1 39662:1 49777:1 52153:1 52165:1 52333:1 55668:1 58511:1 
0.036138625322410405 9:1 10:1 11:1 12:1 13:1 14:1 15:1 16:1 17:1 20:1 21:1 22:1 23:1 24:1 26:1 27:1 28:1 29:1 31:1 50:1 61:1 65:1 67:1 69:1 73:1 79:1 80:1 81:1 171:1 187:1 188:1 216:1 248:1 268:1 319:1 325:1 346:1 359:1 396:1 403:1 446:1 456:1 457:1 463:1 523:1 526:1 533:1 541:1 561:1 565:1 569:1 572:1 589:1 592:1 620:1 639:1 663:1 688:1 711:1 733:1 737:1 743:1 748:1 757:1 758:1 764:1 778:1 794:1 812:1 858:1 1052:1 1067:1 1097:1 1203:1 1257:1 1291:1 1292:1 1354:1 1451:1 1455:1 1461:1 1466:1 1492:1 1506:1 2329:1 2337:1 2360:1 2703:1 3044:1 3899:1 4018:1 4041:1 4300:1 4475:1 4942:1 5610:1 5844:1 5861:1 5982:1 6621:1 6688:1 6800:1 6926:1 7159:1 7213:1 7242:1 7299:1 7482:1 7532:1 8297:1 8566:1 9200:1 9509:1 9577:1 9653:1 9746:1 9760:1 9895:1 9938:1 10156:1 10380:1 10657:1 11034:1 12439:1 12451:1 12617:1 12793:1 13684:1 13702:1 14098:1 14402:1 14410:1 14953:1 15691:1 15729:1 15775:1 15835:1 15841:1 16064:1 16143:1 19338:1 19410:1 19574:1 21486:1 26686:1 27837:1 29023:1 31643:1 34758:1 36125:1 36195:1 39055:1 39362:1 39975:1 41488:1 41723:1 41840:1 42056:1 46419:1 47634:1 50808:1 52364:1 52731:1 53633:1 53747:1 54257:1 54410:1 55513:1 56603:1 57887:1 59423:1 63740:1 63787:1 64347:1 64354:1 
0.081865838795682447 9:1 11:1 16:1 17:1 18:1 19:1 22:1 23:1 26:1 27:1 28:1 34:1 39:1 69:1 70:1 71:1 79:1 86:1 183:1 189:1 248:1 403:1 426:1 427:1 428:1 438:1 462:1 463:1 475:1 504:1 607:1 608:1 637:1 688:1 731:1 737:1 758:1 764:1 962:1 981:1 1297:1 1304:1 1326:1 1455:1 1585:1 2261:1 2391:1 3067:1 3068:1 5318:1 5355:1 5375:1 5959:1 5982:1 6134:1 6401:1 7798:1 7824:1 8269:1 9474:1 9572:1 9592:1 9939:1 11809:1 11936:1 14452:1 14504:1 14673:1 15741:1 16664:1 18946:1 19832:1 22916:1 22934:1 33575:1 33665:1 36757:1 37474:1 38310:1 44228:1 46247:1 52173:1 52174:1 52879:1 54425:1 61646:1 
0.019988519284299389 9:1 10:1 11:1 12:1 13:1 14:1 15:1 16:1 17:1 20:1 22:1 24:1 26:1 27:1 28:1 29:1 30:1 61:1 64:1 65:1 67:1 68:1 69:1 79:1 81:1 82:1 171:1 177:1 187:1 217:1 248:1 268:1 303:1 316:1 319:1 321:1 325:1 342:1 382:1 403:1 409:1 413:1 422:1 446:1 457:1 459:1 462:1 463:1 517:1 533:1 585:1 592:1 597:1 674:1 701:1 710:1 731:1 733:1 747:1 758:1 812:1 835:1 1087:1 1153:1 1199:1 1243:1 1262:1 1282:1 1292:1 1449:1 1506:1 1516:1 2118:1 2329:1 2713:1 3044:1 3062:1 3865:1 3894:1 3954:1 4040:1 4249:1 4741:1 5043:1 5112:1 5260:1 5610:1 5857:1 5922:1 5975:1 5982:1 6792:1 7532:1 7662:1 8684:1 9003:1 9159:1 9474:1 9494:1 9509:1 9720:1 10657:1 10907:1 12667:1 13659:1 13978:1 14146:1 14314:1 14408:1 15670:1 16143:1 16236:1 18145:1 19332:1 21588:1 22853:1 26543:1 27798:1 28822:1 30711:1 32278:1 33075:1 34758:1 36561:1 36862:1 43658:1 48152:1 49788:1 50612:1 52169:1 52362:1 53445:1 57887:1 59054:1 
0.011274317962813805 9:1 11:1 13:1 16:1 17:1 19:1 20:1 21:1 26:1 27:1 28:1 29:1 30:1 65:1 69:1 73:1 80:1 82:1 171:1 178:1 248:1 316:1 325:1 326:1 403:1 427:1 455:1 456:1 462:1 508:1 517:1 557:1 561:1 569:1 688:1 693:1 713:1 725:1 731:1 748:1 768:1 781:1 784:1 795:1 809:1 816:1 848:1 1204:1 1291:1 1297:1 1350:1 1478:1 1523:1 2144:1 3044:1 3067:1 3859:1 4018:1 4051:1 5364:1 5803:1 5844:1 5959:1 6471:1 7090:1 7159:1 7242:1 8806:1 9243:1 9474:1 9762:1 9992:1 10190:1 10267:1 10598:1 10708:1 10984:1 13708:1 14402:1 14452:1 14895:1 15947:1 16287:1 18333:1 22925:1 26448:1 33617:1 36125:1 36757:1 38582:1 41105:1 41488:1 41840:1 51072:1 52153:1 53763:1 54682:1 55706:1 56131:1 57591:1 58163:1 
0.0053126377033352193 9:1 11:1 12:1 13:1 14:1 16:1 17:1 20:1 21:1 22:1 24:1 27:1 28:1 29:1 50:1 64:1 72:1 79:1 81:1 90:1 171:1 183:1 248:1 268:1 277:1 302:1 303:1 320:1 327:1 338:1 347:1 354:1 409:1 417:1 429:1 438:1 449:1 457:1 542:1 552:1 572:1 592:1 593:1 658:1 725:1 731:1 758:1 782:1 804:1 811:1 812:1 1061:1 1062:1 1160:1 1184:1 1343:1 1449:1 1499:1 1506:1 1623:1 2264:1 3049:1 3057:1 3305:1 3326:1 3643:1 3925:1 4081:1 4309:1 4404:1 5043:1 5168:1 5175:1 5182:1 5415:1 5676:1 5864:1 6966:1 7295:1 7532:1 7541:1 7578:1 8502:1 9474:1 10200:1 10520:1 10643:1 10657:1 12555:1 12588:1 13310:1 13558:1 14845:1 15670:1 16095:1 16143:1 16801:1 18979:1 22700:1 22801:1 22807:1 22813:1 24086:1 25300:1 29481:1 32595:1 32654:1 33925:1 35193:1 36226:1 40702:1 42029:1 42882:1 43147:1 47357:1 52157:1 52165:1 55771:1 57264:1 57808:1 57887:1 64293:1 
0.026193266131904133 9:1 12:1 13:1 14:1 15:1 17:1 20:1 21:1 26:1 27:1 28:1 29:1 31:1 34:1 65:1 67:1 73:1 81:1 86:1 179:1 268:1 316:1 319:1 325:1 327:1 338:1 369:1 391:1 450:1 463:1 527:1 561:1 688:1 693:1 737:1 768:1 784:1 804:1 817:1 862:1 959:1 1197:1 1252:1 1353:1 1499:1 1582:1 2153:1 3865:1 3903:1 4018:1 4089:1 4856:1 5694:1 6007:1 6697:1 7161:1 8812:1 9581:1 10000:1 10268:1 10506:1 10745:1 11065:1 11778:1 13636:1 14060:1 14936:1 16082:1 16645:1 26561:1 26738:1 28202:1 31226:1 37110:1 41529:1 48483:1 52760:1 54769:1 56157:1 58464:1 59557:1 61566:1 
0.018451809239553637 9:1 11:1 12:1 13:1 15:1 16:1 17:1 19:1 20:1 23:1 26:1 27:1 28:1 29:1 34:1 39:1 50:1 64:1 71:1 78:1 79:1 88:1 171:1 182:1 183:1 194:1 248:1 250:1 268:1 273:1 325:1 392:1 393:1 409:1 420:1 438:1 444:1 506:1 513:1 516:1 526:1 620:1 641:1 701:1 712:1 724:1 725:1 731:1 743:1 747:1 758:1 805:1 957:1 992:1 1047:1 1049:1 1153:1 1156:1 1327:1 1334:1 1444:1 1461:1 1599:1 2236:1 2256:1 2476:1 3049:1 3119:1 3266:1 4031:1 4882:1 4895:1 5043:1 5214:1 5567:1 6422:1 6531:1 6560:1 6688:1 8334:1 8982:1 8985:1 9201:1 9363:1 9474:1 9653:1 9672:1 9713:1 10547:1 11756:1 12070:1 12377:1 12395:1 13284:1 14683:1 14736:1 15602:1 15775:1 16721:1 18784:1 18888:1 20383:1 22700:1 23228:1 23759:1 27658:1 31429:1 32801:1 34510:1 38404:1 38719:1 38779:1 39372:1 46679:1 49599:1 51599:1 52157:1 53216:1 57433:1 61490:1 62618:1 63474:1 63566:1 
0.0083193538433807938 9:1 11:1 12:1 13:1 14:1 16:1 17:1 19:1 20:1 22:1 26:1 27:1 28:1 29:1 31:1 39:1 61:1 64:1 66:1 68:1 72:1 79:1 83:1 187:1 193:1 196:1 248:1 277:1 281:1 299:1 303:1 311:1 325:1 327:1 357:1 409:1 413:1 420:1 438:1 448:1 508:1 526:1 541:1 542:1 599:1 688:1 693:1 695:1 731:1 758:1 772:1 795:1 818:1 819:1 866:1 987:1 1097:1 1164:1 1181:1 1226:1 1264:1 1343:1 1449:1 1533:1 2337:1 2432:1 2514:1 3049:1 3060:1 3324:1 3370:1 3615:1 3729:1 4018:1 4081:1 4442:1 5062:1 5107:1 5214:1 5643:1 6454:1 6690:1 6938:1 6973:1 7693:1 8829:1 8858:1 9474:1 10058:1 10762:1 10802:1 11087:1 12021:1 12798:1 13362:1 13538:1 13857:1 14176:1 14851:1 15670:1 16347:1 19418:1 20046:1 22717:1 22833:1 24034:1 25213:1 25692:1 29590:1 32039:1 32216:1 32803:1 39404:1 40556:1 40755:1 43798:1 48676:1 48865:1 52157:1 58798:1 59663:1 62372:1 
0.020511870265958045 9:1 11:1 12:1 13:1 15:1 16:1 17:1 21:1 22:1 27:1 28:1 29:1 39:1 49:1 50:1 61:1 65:1 67:1 74:1 79:1 81:1 88:1 90:1 171:1 179:1 196:1 248:1 268:1 292:1 316:1 321:1 379:1 428:1 438:1 462:1 463:1 552:1 592:1 608:1 618:1 725:1 731:1 737:1 756:1 758:1 764:1 782:1 795:1 811:1 812:1 818:1 992:1 1029:1 1038:1 1061:1 1106:1 1199:1 1240:1 1383:1 1473:1 1505:1 1506:1 1599:1 1623:1 2170:1 2533:1 3068:1 3518:1 3865:1 3975:1 4681:1 5375:1 5954:1 5982:1 7532:1 7844:1 7959:1 9474:1 9572:1 9883:1 9924:1 9930:1 10200:1 10626:1 10657:1 10780:1 12068:1 12235:1 12339:1 12564:1 12915:1 13673:1 13949:1 15162:1 15905:1 16118:1 16143:1 16720:1 16808:1 18458:1 20851:1 22934:1 26543:1 27340:1 30392:1 33655:1 33658:1 44504:1 44941:1 52174:1 54212:1 54332:1 55771:1 57887:1 58669:1 63071:1 64209:1 
0.047210532201235951 3:1 11:1 12:1 13:1 16:1 17:1 19:1 20:1 23:1 26:1 27:1 28:1 31:1 34:1 64:1 68:1 79:1 86:1 112:1 248:1 281:1 303:1 316:1 325:1 327:1 413:1 420:1 428:1 438:1 446:1 448:1 452:1 462:1 463:1 494:1 526:1 532:1 635:1 701:1 715:1 725:1 731:1 759:1 768:1 786:1 866:1 872:1 946:1 1164:1 1264:1 1449:1 1569:1 1794:1 3060:1 3068:1 3373:1 3852:1 4031:1 4045:1 4082:1 5121:1 5214:1 5378:1 5610:1 5664:1 5770:1 5771:1 5954:1 6009:1 6286:1 6680:1 6780:1 8204:1 8982:1 9272:1 9474:1 9897:1 10000:1 10282:1 11091:1 11132:1 11626:1 13364:1 14188:1 15670:1 16552:1 22833:1 22937:1 24266:1 26379:1 27658:1 27894:1 28164:1 32382:1 32797:1 33693:1 34779:1 35117:1 35689:1 35724:1 37120:1 39306:1 39861:1 45837:1 51247:1 52167:1 54262:1 54781:1 56220:1 59704:1 59825:1 61071:1 
0.017751272476925876 9:1 12:1 13:1 15:1 17:1 20:1 22:1 24:1 28:1 29:1 31:1 34:1 67:1 74:1 76:1 86:1 179:1 195:1 268:1 316:1 328:1 375:1 438:1 522:1 593:1 668:1 670:1 772:1 783:1 795:1 862:1 959:1 1236:1 1370:1 1415:1 1416:1 1582:1 2153:1 2506:1 3845:1 4112:1 4626:1 6611:1 7574:1 7585:1 8615:1 8629:1 10058:1 10234:1 11065:1 11778:1 13923:1 15073:1 15387:1 15395:1 16645:1 20615:1 30121:1 38993:1 43115:1 43234:1 47830:1 47882:1 55961:1 59537:1 61566:1 
0.015857352809160563 9:1 11:1 12:1 13:1 14:1 15:1 16:1 17:1 19:1 20:1 21:1 22:1 23:1 24:1 26:1 27:1 28:1 29:1 30:1 31:1 34:1 61:1 64:1 66:1 68:1 71:1 73:1 79:1 82:1 171:1 182:1 187:1 189:1 194:1 248:1 268:1 273:1 277:1 281:1 315:1 321:1 323:1 325:1 360:1 386:1 389:1 409:1 417:1 420:1 421:1 422:1 438:1 444:1 446:1 452:1 457:1 458:1 461:1 462:1 463:1 504:1 508:1 526:1 528:1 530:1 552:1 561:1 565:1 585:1 592:1 599:1 607:1 608:1 613:1 637:1 641:1 675:1 693:1 701:1 706:1 725:1 731:1 737:1 751:1 758:1 771:1 772:1 811:1 812:1 848:1 866:1 942:1 1092:1 1097:1 1099:1 1156:1 1160:1 1164:1 1228:1 1267:1 1326:1 1353:1 1455:1 1523:1 2229:1 2324:1 2370:1 2458:1 3049:1 3057:1 3060:1 3266:1 3324:1 3372:1 3832:1 3974:1 4012:1 4023:1 4516:1 4798:1 4844:1 5043:1 5168:1 5185:1 5218:1 5239:1 5271:1 5558:1 5610:1 5770:1 5864:1 5899:1 5941:1 5954:1 5959:1 5995:1 6401:1 6462:1 6679:1 6726:1 6751:1 7155:1 7212:1 7532:1 7693:1 7798:1 7818:1 7824:1 7902:1 8269:1 8275:1 8324:1 8697:1 8806:1 9004:1 9081:1 9474:1 9587:1 9809:1 10046:1 10075:1 10626:1 10663:1 10990:1 11091:1 11564:1 12726:1 12790:1 12820:1 13284:1 13326:1 13363:1 13878:1 14209:1 14673:1 14933:1 15737:1 16290:1 18727:1 19290:1 22700:1 22801:1 22834:1 23751:1 24037:1 24246:1 26244:1 27299:1 27486:1 27524:1 29850:1 30964:1 31193:1 32684:1 32821:1 32957:1 33114:1 34763:1 35689:1 36221:1 36479:1 36668:1 36757:1 36997:1 38313:1 38549:1 39298:1 39553:1 39649:1 41474:1 41713:1 43804:1 44228:1 44364:1 44728:1 46266:1 46297:1 46598:1 49798:1 52165:1 52167:1 52840:1 54006:1 55009:1 55182:1 57979:1 59340:1 59704:1 60863:1 
0.024787192535967513 9:1 10:1 11:1 13:1 14:1 15:1 16:1 17:1 19:1 20:1 22:1 23:1 26:1 28:1 30:1 31:1 49:1 61:1 62:1 68:1 82:1 83:1 183:1 189:1 226:1 248:1 316:1 321:1 325:1 346:1 369:1 413:1 422:1 436:1 438:1 449:1 450:1 454:1 455:1 486:1 530:1 597:1 620:1 643:1 688:1 695:1 764:1 835:1 838:1 843:1 862:1 1029:1 1093:1 1123:1 1264:1 1516:1 1518:1 1521:1 1531:1 2258:1 2381:1 2825:1 3076:1 3845:1 3965:1 4018:1 4025:1 4300:1 5112:1 5260:1 5506:1 5675:1 5694:1 5781:1 5813:1 6744:1 7653:1 7657:1 8371:1 8858:1 9939:1 10907:1 10927:1 10943:1 11068:1 12224:1 12748:1 13057:1 14181:1 16236:1 16250:1 16261:1 16335:1 18924:1 19741:1 22006:1 23036:1 27220:1 27564:1 29023:1 32265:1 33068:1 34294:1 35188:1 35948:1 43594:1 43619:1 46915:1 48877:1 54419:1 59039:1 59127:1 59584:1 63034:1 
0.014689681706436111 9:1 11:1 12:1 13:1 14:1 15:1 16:1 17:1 19:1 20:1 22:1 23:1 24:1 27:1 28:1 29:1 31:1 34:1 61:1 64:1 65:1 67:1 69:1 79:1 83:1 86:1 176:1 186:1 189:1 191:1 248:1 287:1 310:1 316:1 327:1 359:1 392:1 403:1 427:1 429:1 438:1 450:1 455:1 462:1 463:1 509:1 517:1 533:1 585:1 594:1 620:1 658:1 672:1 725:1 731:1 733:1 737:1 758:1 764:1 784:1 795:1 812:1 817:1 819:1 862:1 866:1 959:1 1099:1 1170:1 1205:1 1253:1 1297:1 1449:1 1533:1 1582:1 2098:1 2309:1 2370:1 2419:1 3044:1 3067:1 3069:1 3438:1 3714:1 3865:1 4085:1 4475:1 4872:1 4876:1 5346:1 5400:1 5715:1 5815:1 5959:1 6007:1 6492:1 6792:1 7602:1 8496:1 8652:1 9474:1 9500:1 9572:1 9581:1 9941:1 10270:1 10659:1 10745:1 10801:1 11065:1 11092:1 11778:1 12820:1 13417:1 13721:1 14074:1 14452:1 15670:1 16351:1 16645:1 18029:1 19185:1 19966:1 22908:1 22959:1 25614:1 26561:1 28177:1 31357:1 31394:1 35395:1 35970:1 36757:1 37112:1 38629:1 43320:1 47336:1 47983:1 52153:1 52175:1 52267:1 52776:1 54438:1 56177:1 57926:1 58464:1 58787:1 59557:1 59715:1 61566:1 
