svm_type c_svc
kernel_type rbf
gamma 1.930688290375519e-05
nr_class 2
total_sv 4730
rho -1.0665743043326283
label 0 1
probA -1220.8920491579308
probB 1218.1323056247747
nr_sv 2571 2159
SV
0.4223985107133264 117:1 171:1 360:1 367:1 640:1 1510:1 2074:1 3071:1 3265:1 3376:1 3517:1 3598:1 3725:1 3728:1 4159:1 6238:1 6771:1 7052:1 7071:1 8811:1 8906:1 9530:1 10164:1 10327:1 11667:1 11838:1 12304:1 13736:1 13822:1 14100:1 15203:1 15259:1 15480:1 15600:1 16585:1 18492:1 18733:1 18966:1 19142:1 19224:1 19891:1 19898:1 21191:1 22126:1 22132:1 22142:1 22240:1 22807:1 22961:1 23344:1 23978:1 25993:1 26464:1 26679:1 27023:1 27988:1 30309:1 30369:1 30548:1 37072:1 38152:1 38562:1 39548:1 39696:1 39822:1 41008:1 41196:1 41525:1 41790:1 42056:1 43035:1 43504:1 43561:1 43823:1 45064:1 45261:1 45303:1 46335:1 46429:1 46468:1 47089:1 47111:1 49530:1 49531:1 49698:1 51074:1 51131:1 
1 537:1 1321:1 1826:1 2597:1 4076:1 8860:1 10185:1 13391:1 17741:1 20007:1 23263:1 24131:1 25936:1 26436:1 30283:1 32469:1 33119:1 39527:1 42802:1 49696:1 
1 126:1 171:1 1033:1 1323:1 1397:1 1446:1 1646:1 1731:1 3111:1 3517:1 3610:1 3933:1 6343:1 6771:1 11657:1 13914:1 14524:1 15135:1 17129:1 17765:1 18395:1 18489:1 18733:1 20996:1 21586:1 22892:1 23674:1 24251:1 24362:1 28289:1 30239:1 30289:1 30696:1 31490:1 32101:1 32357:1 34217:1 37626:1 39696:1 40219:1 40819:1 41196:1 42306:1 42473:1 43823:1 45261:1 46424:1 48224:1 48495:1 49690:1 49696:1 49790:1 51356:1 
0.67850851933848133 56:1 623:1 700:1 1435:1 2431:1 2471:1 2955:1 3044:1 3106:1 3213:1 3507:1 3592:1 3725:1 4606:1 5647:1 7908:1 8579:1 9771:1 10117:1 10199:1 10236:1 10318:1 10895:1 11408:1 13451:1 13453:1 13922:1 15716:1 18348:1 18386:1 18620:1 20111:1 21118:1 22132:1 22140:1 22145:1 22673:1 23055:1 23344:1 23499:1 23848:1 24033:1 24332:1 25272:1 27023:1 28112:1 28786:1 29204:1 29511:1 29978:1 30066:1 31009:1 33471:1 36460:1 37361:1 38789:1 39544:1 39848:1 40141:1 41076:1 42499:1 42556:1 42704:1 43662:1 45198:1 47089:1 48094:1 48425:1 49226:1 
1 275:1 1688:1 1870:1 3176:1 3376:1 3517:1 7439:1 19142:1 22132:1 23693:1 25388:1 31131:1 34773:1 37124:1 40627:1 43039:1 45261:1 49531:1 
1 167:1 436:1 736:1 1286:1 1378:1 1919:1 2389:1 2513:1 3724:1 4019:1 6706:1 7027:1 9115:1 9240:1 9434:1 10117:1 10134:1 11660:1 14772:1 14925:1 17430:1 18263:1 19707:1 22140:1 22673:1 23086:1 23276:1 24346:1 24432:1 24965:1 26551:1 27023:1 29764:1 30167:1 30548:1 31295:1 31996:1 32341:1 32970:1 35979:1 36145:1 42148:1 46911:1 47079:1 48940:1 49754:1 50901:1 
1 821:1 1826:1 1923:1 3147:1 3785:1 24131:1 24972:1 31521:1 39527:1 40504:1 47360:1 
0.32337767776661314 117:1 629:1 1445:1 1893:1 2115:1 2419:1 3106:1 3517:1 3650:1 3751:1 4775:1 5690:1 5696:1 6229:1 6230:1 10117:1 10212:1 10306:1 10944:1 14243:1 14852:1 15223:1 15505:1 16416:1 17834:1 17922:1 18727:1 19847:1 19850:1 20266:1 22430:1 22508:1 22673:1 22791:1 26161:1 27793:1 28261:1 29910:1 33908:1 33921:1 35107:1 35455:1 36359:1 36567:1 37033:1 38250:1 39261:1 39541:1 40141:1 40656:1 42486:1 45261:1 46633:1 47217:1 49226:1 
1 368:1 821:1 1674:1 1691:1 2020:1 2126:1 2267:1 2282:1 2783:1 3106:1 3149:1 3610:1 3926:1 4006:1 5708:1 6674:1 7681:1 7766:1 8922:1 10311:1 10350:1 11281:1 12772:1 15203:1 15645:1 21069:1 21345:1 21782:1 22211:1 23093:1 23461:1 24390:1 24423:1 25533:1 26247:1 27111:1 28610:1 28616:1 31172:1 34180:1 35335:1 35652:1 35855:1 37217:1 38152:1 39549:1 40134:1 40259:1 40272:1 40874:1 41197:1 42187:1 42599:1 42980:1 42988:1 43841:1 45353:1 46067:1 46429:1 48445:1 48873:1 49904:1 
1 748:1 751:1 868:1 1474:1 2327:1 2910:1 3044:1 3498:1 3517:1 3624:1 3721:1 7034:1 10207:1 10306:1 11408:1 11695:1 11719:1 14500:1 14847:1 14961:1 19032:1 20174:1 22153:1 23344:1 23634:1 26734:1 28841:1 29097:1 30017:1 30254:1 30554:1 32464:1 35406:1 35524:1 37638:1 39527:1 39541:1 45118:1 45266:1 46502:1 47029:1 47037:1 
1 171:1 684:1 821:1 1062:1 1154:1 1782:1 2816:1 4147:1 6771:1 6789:1 8885:1 14944:1 14977:1 15265:1 16198:1 23770:1 27918:1 31797:1 35356:1 35660:1 36267:1 36605:1 38611:1 42143:1 42151:1 45495:1 47105:1 50895:1 
1 544:1 701:1 751:1 1268:1 1303:1 1771:1 2784:1 3209:1 3267:1 3517:1 3555:1 3613:1 3621:1 3646:1 3885:1 6345:1 7237:1 10117:1 10346:1 11436:1 11657:1 11725:1 13728:1 15146:1 15889:1 17368:1 17563:1 18471:1 21304:1 22140:1 22743:1 24099:1 29661:1 30289:1 30563:1 31345:1 33617:1 34416:1 35349:1 37765:1 38835:1 40134:1 41004:1 41534:1 41741:1 43724:1 45261:1 45373:1 45838:1 46451:1 46453:1 46489:1 46609:1 48185:1 48605:1 49511:1 49696:1 50236:1 
0.52552124897200003 386:1 479:1 740:1 821:1 909:1 1378:1 1442:1 2047:1 2327:1 3022:1 3306:1 3517:1 3691:1 5091:1 6994:1 8097:1 9070:1 9391:1 9822:1 10330:1 11645:1 12169:1 14976:1 15476:1 16777:1 17652:1 18263:1 18691:1 21204:1 22296:1 23231:1 23770:1 24432:1 25675:1 25963:1 27102:1 29097:1 30681:1 31797:1 31924:1 33533:1 34426:1 36598:1 36760:1 38789:1 38944:1 39353:1 39548:1 40981:1 41539:1 41844:1 42151:1 43991:1 44377:1 45261:1 46844:1 49226:1 49786:1 49879:1 50709:1 
0.67287570310274314 911:1 1348:1 1434:1 1826:1 2897:1 3062:1 3646:1 4069:1 4996:1 7121:1 10315:1 10414:1 11838:1 12574:1 13634:1 17399:1 17977:1 18607:1 18788:1 20402:1 21097:1 21708:1 22132:1 22153:1 22673:1 22775:1 24131:1 27023:1 27658:1 30309:1 30972:1 31053:1 34127:1 35985:1 37001:1 37568:1 39195:1 39527:1 39707:1 40399:1 42485:1 46609:1 49444:1 50678:1 50995:1 
1 289:1 358:1 912:1 1453:1 1782:1 1826:1 2326:1 2327:1 3111:1 3610:1 3738:1 3751:1 8224:1 8784:1 12585:1 13733:1 13736:1 15229:1 18837:1 22208:1 22237:1 23595:1 23924:1 24131:1 24239:1 29094:1 29097:1 31110:1 33896:1 34217:1 35384:1 36285:1 38300:1 38472:1 39527:1 40214:1 40236:1 40250:1 40819:1 40870:1 40872:1 41123:1 42925:1 43083:1 45346:1 46017:1 46430:1 47217:1 49704:1 
1 23:1 821:1 1082:1 1562:1 2792:1 3404:1 3456:1 3533:1 3728:1 3785:1 5404:1 6574:1 10207:1 11660:1 12589:1 12970:1 15005:1 15403:1 17875:1 18353:1 19755:1 20167:1 22146:1 22299:1 22685:1 22961:1 23978:1 24457:1 26163:1 26636:1 27082:1 30289:1 32031:1 35448:1 36367:1 36592:1 36812:1 40116:1 42143:1 43317:1 43599:1 45420:1 46417:1 47111:1 47137:1 47365:1 49776:1 49859:1 51335:1 
1 835:1 1410:1 1562:1 2296:1 3100:1 12165:1 18484:1 19755:1 38568:1 
1 40:1 660:1 1422:1 1782:1 2533:1 3149:1 3721:1 3724:1 4140:1 5513:1 7910:1 8224:1 8860:1 11154:1 15041:1 18533:1 22132:1 22480:1 23082:1 24176:1 28632:1 32298:1 32992:1 33330:1 37001:1 37046:1 40127:1 41134:1 42579:1 42854:1 43030:1 46025:1 47037:1 47079:1 50735:1 
1 40:1 330:1 698:1 909:1 1017:1 1026:1 1595:1 2251:1 3057:1 3297:1 3456:1 3610:1 3646:1 5513:1 6619:1 8111:1 8549:1 8805:1 8860:1 10233:1 11387:1 12970:1 14434:1 14625:1 15086:1 20517:1 20553:1 26377:1 28357:1 29324:1 32215:1 32540:1 37340:1 39641:1 41718:1 46422:1 46609:1 49168:1 50729:1 
1 1782:1 2583:1 3044:1 3100:1 3380:1 3456:1 4000:1 10365:1 12574:1 21424:1 32782:1 38876:1 39551:1 43100:1 43413:1 44389:1 47373:1 48835:1 49918:1 50092:1 
0.21441998025725104 381:1 700:1 740:1 912:1 1440:1 1725:1 1734:1 2327:1 2497:1 2872:1 3044:1 3456:1 3592:1 3721:1 3725:1 7505:1 8860:1 10360:1 11408:1 11645:1 12585:1 12586:1 13066:1 13129:1 13438:1 13653:1 13897:1 15041:1 15101:1 16646:1 18184:1 18680:1 19806:1 20780:1 20869:1 21378:1 22345:1 22398:1 22480:1 22862:1 22906:1 23344:1 24131:1 24461:1 25685:1 27335:1 28597:1 28687:1 29112:1 30561:1 31041:1 31520:1 31873:1 32137:1 33224:1 33651:1 34578:1 36459:1 36498:1 37046:1 37422:1 37732:1 38855:1 39527:1 39551:1 43058:1 43335:1 46727:1 46881:1 47041:1 47089:1 48531:1 49606:1 49709:1 49734:1 49793:1 
1 684:1 1148:1 1286:1 1359:1 1560:1 2198:1 3531:1 3635:1 3924:1 3996:1 5593:1 6637:1 7574:1 9453:1 14179:1 15133:1 15203:1 16157:1 17433:1 17578:1 18136:1 19738:1 20307:1 21711:1 22163:1 22662:1 25119:1 27059:1 27374:1 27610:1 31797:1 32237:1 33092:1 37003:1 37616:1 37957:1 38139:1 41037:1 42085:1 42159:1 45403:1 48428:1 49435:1 50695:1 51427:1 
1 40:1 275:1 366:1 1017:1 1799:1 2327:1 3559:1 3635:1 3686:1 3721:1 5513:1 6294:1 6708:1 7040:1 7908:1 8521:1 8860:1 8870:1 9390:1 11432:1 14997:1 15272:1 17638:1 20406:1 23760:1 23849:1 26363:1 27322:1 29097:1 30254:1 31704:1 33511:1 36759:1 38632:1 39488:1 41006:1 41767:1 42556:1 45772:1 46805:1 47037:1 47331:1 
1 30:1 821:1 1752:1 2057:1 3100:1 3491:1 3631:1 3650:1 5007:1 5327:1 5439:1 7677:1 8018:1 11310:1 13277:1 14679:1 15298:1 16390:1 22493:1 23062:1 24098:1 24176:1 24388:1 24573:1 25789:1 27963:1 31653:1 33911:1 35823:1 36367:1 37173:1 39410:1 40127:1 40272:1 42579:1 42985:1 45063:1 45112:1 46542:1 46632:1 
1 176:1 821:1 1286:1 1915:1 2269:1 2874:1 3234:1 3555:1 3646:1 3689:1 4116:1 5243:1 5708:1 6437:1 6583:1 10306:1 13946:1 17430:1 22132:1 23634:1 24606:1 24951:1 26195:1 28479:1 30548:1 35925:1 36501:1 38567:1 41308:1 42994:1 45713:1 46319:1 46547:1 46609:1 46831:1 50398:1 
1 538:1 823:1 1445:1 1562:1 1580:1 2419:1 3110:1 3517:1 3635:1 3933:1 4083:1 5713:1 7079:1 8749:1 10208:1 10230:1 10339:1 10385:1 10389:1 12091:1 12587:1 12994:1 13223:1 14938:1 18727:1 19755:1 20020:1 20190:1 20476:1 21252:1 21546:1 23468:1 24402:1 26304:1 28684:1 29910:1 31172:1 31513:1 34515:1 36135:1 36247:1 39543:1 39838:1 40201:1 42681:1 44405:1 45261:1 45799:1 48498:1 49269:1 49746:1 
1 690:1 1047:1 1286:1 1450:1 1562:1 2078:1 2484:1 3180:1 10130:1 11312:1 11657:1 13296:1 13736:1 14198:1 14714:1 16694:1 17430:1 18803:1 19643:1 19755:1 22240:1 22425:1 23684:1 24390:1 24461:1 24618:1 26024:1 27498:1 29112:1 31058:1 31403:1 31878:1 32525:1 33951:1 35107:1 36846:1 39535:1 40588:1 40656:1 42605:1 43145:1 43335:1 45724:1 
1 1218:1 1286:1 1391:1 3517:1 3610:1 3803:1 7084:1 10117:1 15086:1 16885:1 17430:1 18348:1 22140:1 26304:1 27023:1 30743:1 33029:1 36309:1 37336:1 45261:1 46422:1 47466:1 51429:1 
1 366:1 821:1 1741:1 1782:1 2020:1 2106:1 3103:1 3219:1 3721:1 4059:1 5792:1 8876:1 9460:1 10136:1 11435:1 11734:1 15111:1 15317:1 19720:1 22071:1 22132:1 22956:1 23450:1 23650:1 23846:1 24194:1 25533:1 26033:1 26142:1 27111:1 28485:1 30254:1 30720:1 36233:1 37122:1 38948:1 40105:1 40234:1 40346:1 40869:1 41196:1 43823:1 45893:1 47037:1 49118:1 49694:1 50574:1 51426:1 
1 229:1 736:1 1303:1 1350:1 1649:1 1652:1 1771:1 2131:1 3209:1 3572:1 5832:1 7034:1 7243:1 7406:1 8923:1 10299:1 12574:1 14880:1 14958:1 15663:1 17563:1 18065:1 20986:1 21625:1 21650:1 26302:1 27661:1 32093:1 34156:1 34299:1 35793:1 36124:1 36369:1 39799:1 39805:1 40399:1 40836:1 41000:1 41026:1 41706:1 43207:1 45461:1 45891:1 50263:1 
0.49402518760691694 40:1 259:1 300:1 350:1 367:1 821:1 1231:1 1562:1 3666:1 3721:1 3738:1 5513:1 6281:1 7084:1 7758:1 7953:1 8327:1 8719:1 8860:1 8893:1 10344:1 11430:1 11666:1 12813:1 13066:1 13917:1 15244:1 15355:1 16850:1 16964:1 19755:1 21280:1 22345:1 22791:1 26551:1 27941:1 29951:1 30743:1 36050:1 36499:1 38419:1 39359:1 39549:1 40796:1 42536:1 43018:1 44637:1 44989:1 46719:1 47041:1 47351:1 49579:1 
0.71058767486140606 40:1 1646:1 1771:1 1971:1 2513:1 2761:1 2840:1 3180:1 3187:1 3328:1 3497:1 3610:1 3650:1 4019:1 5513:1 6680:1 6948:1 7908:1 8372:1 8860:1 13822:1 15200:1 15465:1 16673:1 21586:1 22586:1 23159:1 23410:1 23634:1 23846:1 25140:1 25199:1 26407:1 27053:1 29419:1 30548:1 31996:1 32725:1 34058:1 35124:1 35136:1 35206:1 35739:1 35767:1 38123:1 38218:1 40215:1 40658:1 40708:1 40868:1 42056:1 42143:1 42181:1 42556:1 44086:1 45109:1 46429:1 46647:1 46911:1 47758:1 48940:1 49690:1 50744:1 
1 40:1 1771:1 1826:1 2465:1 2495:1 3100:1 5513:1 8166:1 8860:1 12433:1 16246:1 24131:1 29302:1 30940:1 31497:1 32651:1 34312:1 39527:1 42232:1 45177:1 
1 110:1 658:1 1079:1 1233:1 1906:1 2314:1 3216:1 3552:1 3650:1 3717:1 3728:1 5563:1 7040:1 7757:1 8837:1 9209:1 11125:1 11133:1 11359:1 12858:1 13786:1 14243:1 14977:1 15265:1 15726:1 16972:1 18348:1 18733:1 19383:1 21952:1 22132:1 22843:1 23086:1 23978:1 24346:1 24930:1 25664:1 27023:1 27792:1 28993:1 29183:1 30250:1 30794:1 33389:1 33950:1 35519:1 36402:1 36490:1 36605:1 36840:1 38126:1 38609:1 39026:1 39250:1 39696:1 40687:1 41132:1 42151:1 43012:1 43742:1 45684:1 46635:1 47017:1 47079:1 47111:1 51360:1 
0.57551171615083263 40:1 821:1 1474:1 1562:1 2269:1 2327:1 2871:1 3610:1 3631:1 5513:1 5739:1 8860:1 10722:1 13314:1 15089:1 15298:1 16916:1 19038:1 19755:1 22493:1 23723:1 27046:1 28481:1 29097:1 31376:1 33994:1 36447:1 37362:1 37752:1 46422:1 46538:1 47103:1 
0.88417138536416784 170:1 353:1 921:1 1390:1 1646:1 1653:1 1691:1 3111:1 3517:1 3650:1 6754:1 8741:1 10136:1 12144:1 12630:1 13113:1 15657:1 16397:1 18344:1 18837:1 19720:1 21586:1 21651:1 22208:1 23595:1 26786:1 27725:1 32992:1 33950:1 34217:1 36677:1 36844:1 37706:1 39535:1 40214:1 40819:1 41123:1 42925:1 43145:1 45261:1 46635:1 49690:1 50653:1 
1 821:1 1562:1 2381:1 2761:1 3463:1 16600:1 19755:1 26299:1 35201:1 44607:1 
1 397:1 640:1 821:1 829:1 882:1 1173:1 1192:1 1734:1 1782:1 2303:1 2324:1 2327:1 2419:1 2484:1 2698:1 3105:1 3610:1 3996:1 5696:1 5708:1 7399:1 7721:1 9160:1 10134:1 10300:1 10306:1 12130:1 12420:1 13648:1 14171:1 15097:1 15215:1 16365:1 16693:1 17836:1 17856:1 19693:1 20786:1 20824:1 21000:1 22906:1 23653:1 23789:1 24239:1 28284:1 28800:1 29072:1 29097:1 29336:1 29910:1 30757:1 31403:1 32013:1 32525:1 33267:1 34770:1 36024:1 36245:1 36583:1 37162:1 37398:1 37470:1 38188:1 40117:1 40134:1 40253:1 40863:1 41227:1 44025:1 45563:1 45962:1 46422:1 49717:1 
1 370:1 658:1 882:1 1826:1 2866:1 3044:1 3103:1 3258:1 3555:1 3646:1 6689:1 7497:1 8936:1 10306:1 10350:1 10351:1 10361:1 11125:1 12420:1 12772:1 14501:1 15041:1 15909:1 18824:1 21345:1 21352:1 21394:1 22153:1 22782:1 23114:1 24131:1 24256:1 24717:1 25318:1 27171:1 27241:1 30041:1 36247:1 36393:1 37057:1 37133:1 39527:1 39549:1 39551:1 40105:1 40813:1 41083:1 41443:1 42576:1 45563:1 46067:1 46151:1 46609:1 46740:1 47080:1 48223:1 48238:1 50494:1 
0.312336366937295 457:1 913:1 1082:1 1231:1 1637:1 2690:1 3044:1 3610:1 3646:1 3738:1 3782:1 3985:1 4066:1 5718:1 5999:1 9645:1 10216:1 10282:1 10315:1 10493:1 12596:1 12970:1 14188:1 14519:1 15204:1 15281:1 15283:1 16964:1 17113:1 19321:1 20318:1 21091:1 21449:1 24131:1 25298:1 27433:1 28885:1 31499:1 34343:1 34717:1 35258:1 36050:1 38157:1 38691:1 38706:1 39542:1 39547:1 41239:1 42576:1 44405:1 46429:1 46434:1 46609:1 47351:1 47785:1 48205:1 48373:1 48733:1 49226:1 49573:1 49861:1 
1 349:1 1017:1 1084:1 1280:1 1281:1 2342:1 3044:1 3782:1 10361:1 13640:1 14519:1 15355:1 17400:1 17405:1 20783:1 21394:1 23082:1 23111:1 27993:1 29341:1 29766:1 33450:1 36538:1 39527:1 39551:1 43594:1 47079:1 47080:1 47351:1 49590:1 49776:1 51017:1 
1 356:1 698:1 1005:1 1027:1 1453:1 1557:1 2341:1 3044:1 3517:1 4009:1 8763:1 10094:1 11387:1 13399:1 13914:1 13984:1 14179:1 14188:1 14445:1 14625:1 15041:1 17765:1 18832:1 19448:1 19671:1 24254:1 25274:1 27368:1 27437:1 27930:1 29324:1 29475:1 35735:1 37046:1 39531:1 41037:1 41041:1 42085:1 42155:1 45261:1 48894:1 50663:1 
0.59317839271905615 371:1 535:1 658:1 740:1 1489:1 1646:1 2456:1 3023:1 6881:1 7142:1 8938:1 10087:1 11125:1 11645:1 14554:1 15362:1 15771:1 15927:1 19125:1 19371:1 21586:1 23849:1 25923:1 28843:1 30489:1 30614:1 31178:1 33511:1 39361:1 42556:1 46990:1 49311:1 49690:1 
1 61:1 381:1 431:1 740:1 1730:1 1826:1 3044:1 3721:1 3984:1 5704:1 5996:1 9385:1 10081:1 10236:1 10360:1 11645:1 13391:1 19321:1 21386:1 22890:1 24131:1 34376:1 39527:1 39531:1 39551:1 39685:1 43145:1 46967:1 47037:1 48730:1 
0.4985829142817525 407:1 684:1 1771:1 1826:1 2215:1 2447:1 3635:1 3651:1 3707:1 3724:1 4019:1 6131:1 9244:1 10244:1 10274:1 13560:1 13886:1 13922:1 14269:1 14519:1 14994:1 17101:1 17751:1 18634:1 19696:1 20488:1 20582:1 20806:1 22024:1 22372:1 22567:1 22951:1 23087:1 23923:1 24131:1 24332:1 24356:1 27081:1 27902:1 28048:1 30500:1 32962:1 34142:1 34903:1 35377:1 37025:1 37041:1 39527:1 39544:1 41725:1 41949:1 42275:1 44667:1 46656:1 46931:1 46945:1 47079:1 48940:1 
1 117:1 355:1 658:1 684:1 1646:1 2027:1 2300:1 2513:1 2795:1 3100:1 3172:1 3610:1 3638:1 4024:1 6229:1 6637:1 7339:1 7757:1 8102:1 8756:1 11133:1 11645:1 13080:1 13323:1 15229:1 17024:1 17748:1 18881:1 19843:1 21586:1 21908:1 25588:1 28770:1 30030:1 31996:1 32112:1 32589:1 34663:1 34681:1 35485:1 36055:1 37874:1 38296:1 38908:1 40615:1 43002:1 44407:1 46430:1 46568:1 47359:1 48401:1 48972:1 49047:1 49690:1 49776:1 49791:1 50339:1 
1 368:1 821:1 1771:1 2269:1 2786:1 3468:1 3696:1 5708:1 8922:1 9534:1 10311:1 13772:1 14546:1 15114:1 15648:1 17812:1 21067:1 22078:1 22682:1 22948:1 22957:1 28479:1 30026:1 34600:1 35353:1 37071:1 37524:1 39719:1 42143:1 43035:1 44632:1 46978:1 
1 275:1 640:1 821:1 1479:1 2334:1 2916:1 3044:1 3107:1 3216:1 3274:1 3456:1 3517:1 3610:1 9118:1 10187:1 13634:1 13914:1 15067:1 19055:1 20026:1 20818:1 23336:1 23569:1 24254:1 24534:1 25261:1 26687:1 27190:1 27306:1 29295:1 32476:1 33221:1 34214:1 37234:1 37351:1 37732:1 37815:1 39539:1 40164:1 40784:1 41043:1 41135:1 41575:1 42187:1 43064:1 43854:1 45261:1 46421:1 47347:1 49457:1 50499:1 
1 1440:1 1460:1 1562:1 2169:1 3461:1 3688:1 4094:1 7528:1 10306:1 12140:1 12989:1 18496:1 18677:1 18927:1 19755:1 22339:1 27037:1 32012:1 38813:1 44376:1 44573:1 46824:1 49354:1 
0.71366294744949732 275:1 445:1 499:1 1047:1 1265:1 1453:1 1649:1 2130:1 3434:1 3482:1 3517:1 6789:1 6947:1 9115:1 9513:1 9897:1 11408:1 12875:1 14717:1 17354:1 18831:1 20407:1 20772:1 21627:1 23273:1 23692:1 25534:1 26294:1 26536:1 27129:1 27335:1 27920:1 29411:1 30435:1 31110:1 31905:1 33930:1 36669:1 37259:1 39013:1 41006:1 41773:1 42143:1 42187:1 43603:1 43961:1 44863:1 45261:1 47219:1 50026:1 50046:1 51257:1 51279:1 51469:1 
0.68749602724749392 167:1 381:1 503:1 684:1 736:1 1559:1 1838:1 1972:1 2405:1 2466:1 3044:1 3682:1 6054:1 6262:1 6637:1 6712:1 7214:1 9911:1 10117:1 10236:1 10487:1 11422:1 11696:1 13001:1 13066:1 14519:1 14949:1 15086:1 15089:1 15462:1 17849:1 19696:1 20165:1 22140:1 22345:1 23665:1 24254:1 25154:1 26250:1 26741:1 27023:1 27349:1 29831:1 29984:1 30826:1 30955:1 31862:1 33471:1 36316:1 36773:1 37333:1 37361:1 39544:1 40819:1 41029:1 42007:1 42865:1 46777:1 51067:1 51452:1 
0.58986754196875735 171:1 330:1 332:1 362:1 538:1 1491:1 2405:1 2698:1 3105:1 3709:1 3784:1 3860:1 6262:1 6619:1 6780:1 7127:1 7450:1 7512:1 8549:1 8569:1 8841:1 10208:1 14519:1 14559:1 14625:1 14961:1 19142:1 20165:1 20203:1 22476:1 24219:1 25417:1 27169:1 27839:1 29830:1 30554:1 34773:1 34777:1 36567:1 37249:1 40117:1 40627:1 46961:1 47356:1 48052:1 49531:1 49690:1 51045:1 
0.663046781311877 275:1 684:1 843:1 1771:1 1782:1 1919:1 2020:1 2532:1 2605:1 3180:1 3360:1 3652:1 3728:1 10117:1 10286:1 10311:1 10361:1 12207:1 15566:1 18342:1 20923:1 21054:1 21394:1 22411:1 23111:1 23659:1 23978:1 24131:1 24965:1 25447:1 25534:1 26736:1 27127:1 28189:1 29451:1 30793:1 32297:1 32970:1 33100:1 33295:1 34369:1 35107:1 35163:1 36607:1 39535:1 39548:1 39551:1 40656:1 42836:1 43023:1 46667:1 47080:1 47111:1 47734:1 50263:1 
0.34268696603585025 340:1 821:1 1058:1 1076:1 1782:1 1826:1 2080:1 2171:1 2327:1 2374:1 2469:1 2562:1 2945:1 3301:1 6945:1 8647:1 9732:1 10136:1 15154:1 15203:1 18120:1 19736:1 21128:1 22712:1 23181:1 23648:1 24131:1 24305:1 25463:1 26038:1 27065:1 29097:1 29400:1 29684:1 30997:1 31014:1 32512:1 32923:1 37858:1 38137:1 38504:1 39527:1 39535:1 40996:1 41784:1 42782:1 43145:1 45885:1 46043:1 47188:1 
0.74613094335526342 194:1 397:1 602:1 821:1 1286:1 1399:1 2045:1 2304:1 2698:1 2753:1 3023:1 3106:1 3161:1 6706:1 7050:1 7599:1 9162:1 10242:1 10559:1 10775:1 11391:1 12077:1 13877:1 13887:1 14706:1 16196:1 17430:1 18407:1 20563:1 21317:1 22221:1 23766:1 23933:1 24037:1 24131:1 25654:1 25843:1 27463:1 27678:1 28378:1 28808:1 29061:1 30338:1 30548:1 31834:1 33237:1 33255:1 34328:1 34785:1 35156:1 35503:1 37455:1 37548:1 38218:1 38865:1 39357:1 39544:1 39875:1 40112:1 40134:1 40551:1 42059:1 42406:1 42536:1 45646:1 50003:1 50935:1 
0.58742141488363908 359:1 1407:1 2234:1 2465:1 3100:1 3111:1 3517:1 7163:1 8037:1 8246:1 8797:1 8849:1 10330:1 11145:1 13978:1 14674:1 14691:1 18463:1 21210:1 23674:1 25150:1 28255:1 29504:1 30088:1 30940:1 31345:1 31603:1 31730:1 39548:1 39581:1 40219:1 41274:1 43823:1 45196:1 45261:1 49170:1 49690:1 
0.65827485589631429 993:1 1187:1 1461:1 1534:1 1732:1 1826:1 1985:1 2127:1 2513:1 2567:1 3044:1 3103:1 3638:1 6345:1 7040:1 10212:1 10306:1 11357:1 11408:1 11911:1 12672:1 13745:1 13871:1 14207:1 16664:1 18934:1 18975:1 19383:1 20266:1 20651:1 22132:1 22302:1 22808:1 22902:1 23674:1 24131:1 25270:1 26269:1 27530:1 28261:1 30239:1 30250:1 31996:1 32589:1 32601:1 33904:1 36331:1 39527:1 39541:1 40105:1 42473:1 44516:1 45571:1 46568:1 49226:1 51656:1 
1 464:1 655:1 684:1 740:1 930:1 1017:1 1286:1 1321:1 1454:1 1676:1 1988:1 2037:1 3044:1 3063:1 3107:1 3191:1 3646:1 4001:1 6706:1 6967:1 7112:1 8860:1 9672:1 10339:1 11098:1 11437:1 11593:1 11645:1 12656:1 13263:1 13403:1 13917:1 14772:1 15339:1 16196:1 16656:1 17430:1 17741:1 17826:1 18850:1 19652:1 21255:1 21797:1 22411:1 25295:1 25627:1 30255:1 30280:1 30957:1 32340:1 32525:1 36717:1 39351:1 39549:1 39726:1 40164:1 40736:1 41279:1 44417:1 44455:1 45266:1 45269:1 46609:1 48841:1 50895:1 51140:1 51448:1 51724:1 
1 128:1 868:1 1352:1 1906:1 2075:1 2325:1 3044:1 3149:1 3707:1 3725:1 6359:1 8099:1 10208:1 13854:1 14106:1 15229:1 15726:1 18085:1 19648:1 20200:1 21361:1 23359:1 23499:1 23513:1 24930:1 25999:1 26760:1 27115:1 27424:1 27805:1 29077:1 29204:1 29283:1 29406:1 31037:1 34746:1 36055:1 38296:1 39527:1 39541:1 43002:1 43742:1 45182:1 46430:1 46939:1 47089:1 
1 676:1 1445:1 1520:1 1562:1 1688:1 3517:1 4083:1 10190:1 10207:1 10253:1 10311:1 11232:1 14848:1 18727:1 19755:1 20066:1 20174:1 20670:1 21054:1 22132:1 24131:1 26734:1 34231:1 35408:1 39541:1 39544:1 39548:1 40945:1 45261:1 
0.56101506278392987 275:1 698:1 821:1 1454:1 1631:1 1826:1 2327:1 3515:1 4122:1 6543:1 8739:1 11386:1 11387:1 11593:1 13065:1 13929:1 14612:1 14628:1 18850:1 19652:1 21353:1 22132:1 24131:1 24404:1 25527:1 25685:1 27023:1 29097:1 30114:1 30280:1 31144:1 31255:1 31770:1 33646:1 39527:1 41279:1 41757:1 42653:1 42704:1 45253:1 45269:1 46006:1 46179:1 
1 445:1 640:1 1555:1 1595:1 2296:1 3373:1 7200:1 8134:1 9508:1 10175:1 10199:1 10287:1 10306:1 13243:1 13913:1 13922:1 15555:1 18348:1 19651:1 20111:1 20553:1 20931:1 22144:1 22145:1 24247:1 24332:1 25272:1 27023:1 29797:1 31685:1 32545:1 34065:1 35326:1 35990:1 38274:1 38972:1 39669:1 40675:1 40930:1 41867:1 42761:1 42998:1 44780:1 50335:1 50918:1 
1 171:1 684:1 1231:1 1371:1 1826:1 2348:1 2840:1 2878:1 3062:1 3183:1 3190:1 3369:1 3517:1 3635:1 4179:1 6435:1 6771:1 7026:1 7711:1 9108:1 13634:1 14631:1 14653:1 15212:1 16960:1 18218:1 22488:1 23167:1 23410:1 23589:1 24131:1 25310:1 29025:1 29223:1 29394:1 30129:1 30157:1 31285:1 31454:1 31769:1 33392:1 34053:1 34495:1 34501:1 35326:1 35771:1 35979:1 36544:1 36545:1 39527:1 39707:1 39759:1 40675:1 40730:1 41749:1 42945:1 44128:1 45261:1 45402:1 51564:1 
1 697:1 1082:1 2148:1 2465:1 3106:1 3517:1 7910:1 11370:1 13444:1 14433:1 18261:1 24131:1 24385:1 25761:1 26661:1 29323:1 30201:1 30940:1 33115:1 36039:1 39527:1 40134:1 42527:1 42576:1 45262:1 
0.94153500956023362 684:1 802:1 840:1 930:1 2282:1 3103:1 3378:1 4089:1 6619:1 7766:1 8860:1 11988:1 12185:1 12656:1 14961:1 17842:1 22132:1 28616:1 29983:1 33471:1 36717:1 36773:1 38459:1 38970:1 40105:1 40272:1 40874:1 43082:1 45181:1 49880:1 50895:1 51448:1 
1 20:1 176:1 684:1 855:1 1391:1 1400:1 1562:1 1826:1 2343:1 2484:1 3044:1 3232:1 3646:1 5379:1 5708:1 5911:1 7079:1 10117:1 10211:1 10306:1 10376:1 10657:1 12285:1 16206:1 18353:1 18415:1 19755:1 20254:1 21502:1 22140:1 22961:1 24131:1 24137:1 24234:1 27082:1 28109:1 28479:1 29345:1 30591:1 31403:1 31565:1 32550:1 32808:1 33525:1 37152:1 39527:1 39541:1 39564:1 40814:1 41287:1 41384:1 45389:1 45885:1 46609:1 47126:1 48638:1 
1 194:1 397:1 821:1 1436:1 1952:1 2224:1 2718:1 3057:1 3210:1 3715:1 4019:1 4130:1 8837:1 9160:1 10289:1 11416:1 11429:1 12988:1 13798:1 14923:1 14989:1 15199:1 15226:1 17203:1 17289:1 18640:1 18907:1 20819:1 20948:1 21299:1 22132:1 22799:1 22922:1 23922:1 25053:1 27023:1 28112:1 30254:1 32130:1 32363:1 33461:1 34912:1 35356:1 36121:1 36722:1 37144:1 37361:1 38117:1 38281:1 39641:1 40075:1 40134:1 40564:1 41041:1 42148:1 42796:1 43551:1 44700:1 45266:1 45838:1 46161:1 46921:1 47013:1 48436:1 48940:1 50373:1 50603:1 51397:1 
1 258:1 700:1 821:1 1410:1 1442:1 1445:1 1562:1 1782:1 3321:1 3661:1 3719:1 3926:1 7751:1 10315:1 10390:1 11411:1 13822:1 14898:1 18485:1 18691:1 18727:1 19755:1 21097:1 21552:1 22153:1 22763:1 23082:1 31416:1 35488:1 38398:1 38946:1 39554:1 40684:1 40935:1 41068:1 42056:1 42485:1 44273:1 47029:1 48445:1 49295:1 50728:1 
1 397:1 684:1 825:1 1066:1 1082:1 1422:1 1919:1 1977:1 3103:1 3635:1 3728:1 3746:1 7793:1 7846:1 9160:1 12100:1 13442:1 15025:1 18233:1 18528:1 20595:1 20772:1 22132:1 23846:1 23978:1 24965:1 25196:1 32923:1 32974:1 33158:1 33800:1 35050:1 36459:1 36925:1 37782:1 40105:1 41135:1 41842:1 43062:1 47111:1 47188:1 
0.54775525124129709 172:1 868:1 1239:1 1739:1 1906:1 3044:1 6789:1 10209:1 15726:1 17035:1 17046:1 20220:1 24930:1 27580:1 27906:1 32776:1 39024:1 39527:1 39541:1 43742:1 51332:1 
0.60170825793205462 40:1 431:1 684:1 1437:1 1826:1 3650:1 3684:1 3704:1 5513:1 6622:1 7042:1 8860:1 9386:1 9434:1 10306:1 11203:1 11549:1 13391:1 16882:1 17942:1 18653:1 22153:1 24131:1 26522:1 30269:1 32970:1 34048:1 34221:1 34389:1 35980:1 37815:1 38088:1 39527:1 40105:1 40857:1 43307:1 46646:1 46791:1 46893:1 
0.44817920824010382 1422:1 1559:1 2250:1 3100:1 3103:1 3721:1 4001:1 11408:1 13066:1 13463:1 14519:1 18485:1 18528:1 19696:1 22132:1 22345:1 28343:1 31416:1 40105:1 44437:1 47041:1 48842:1 50543:1 
0.28832845013429015 176:1 436:1 825:1 1771:1 1782:1 2761:1 3022:1 3105:1 3180:1 3375:1 3492:1 6965:1 7717:1 8018:1 9436:1 12102:1 13284:1 16379:1 16479:1 22411:1 23323:1 26370:1 26988:1 29534:1 35107:1 35204:1 36024:1 36444:1 36481:1 39350:1 40117:1 40193:1 40656:1 41075:1 42473:1 43016:1 
1 334:1 821:1 825:1 1079:1 1286:1 1562:1 1826:1 2007:1 2091:1 2699:1 3517:1 3552:1 3601:1 3610:1 3661:1 5707:1 7554:1 7766:1 7871:1 8591:1 10294:1 10537:1 11408:1 12102:1 15031:1 15263:1 17430:1 19755:1 20971:1 21770:1 23600:1 23846:1 24131:1 25441:1 25579:1 26104:1 27121:1 29661:1 30254:1 32564:1 34310:1 34793:1 36481:1 36960:1 37649:1 37824:1 38585:1 39527:1 40175:1 40234:1 40472:1 40869:1 42143:1 42187:1 45261:1 45677:1 45839:1 46360:1 46418:1 46757:1 49550:1 51493:1 
1 839:1 2547:1 3555:1 4083:1 10569:1 12177:1 32372:1 38898:1 50273:1 
0.8783937041479345 880:1 1327:1 1782:1 2327:1 2977:1 3111:1 3177:1 3456:1 3996:1 11408:1 12242:1 12410:1 13123:1 13335:1 14524:1 14564:1 17813:1 18350:1 22352:1 23674:1 24360:1 27038:1 28283:1 29102:1 30239:1 30254:1 34883:1 38980:1 40219:1 40414:1 40640:1 42300:1 45377:1 49694:1 50993:1 
0.57016839966811517 1400:1 1646:1 1647:1 2037:1 2325:1 5708:1 10306:1 10315:1 12624:1 16355:1 18415:1 21091:1 21586:1 21603:1 25627:1 28479:1 29077:1 32546:1 34964:1 36375:1 49690:1 49860:1 50610:1 
0.30444288424718496 368:1 930:1 1193:1 1748:1 2030:1 2495:1 3567:1 3635:1 3728:1 5074:1 8915:1 10117:1 11665:1 11728:1 12653:1 13828:1 14546:1 15570:1 16705:1 18966:1 20694:1 22763:1 22807:1 23017:1 23210:1 23329:1 23978:1 24036:1 24131:1 25609:1 25733:1 27075:1 28283:1 28843:1 30289:1 30298:1 30876:1 31507:1 31522:1 34407:1 34460:1 34581:1 37440:1 39535:1 40414:1 42056:1 43610:1 44665:1 45322:1 45857:1 46747:1 47111:1 47356:1 49696:1 
1 381:1 821:1 1000:1 1390:1 1401:1 1434:1 1562:1 1652:1 1771:1 1782:1 2046:1 3629:1 3684:1 4019:1 6716:1 7246:1 8446:1 10299:1 13365:1 13864:1 15212:1 15459:1 18337:1 18426:1 18600:1 19755:1 20995:1 21650:1 23586:1 24218:1 25664:1 26656:1 27157:1 27382:1 28896:1 29183:1 30100:1 32130:1 33389:1 35857:1 40784:1 41173:1 43588:1 46530:1 46795:1 46813:1 46911:1 46982:1 48425:1 48936:1 48940:1 50263:1 
0.38654350517283509 171:1 241:1 372:1 736:1 932:1 1771:1 3100:1 3209:1 3382:1 3499:1 3517:1 5696:1 6771:1 7599:1 7774:1 8749:1 8815:1 8947:1 10117:1 10132:1 10226:1 12674:1 13228:1 13728:1 14060:1 14138:1 15032:1 15566:1 16051:1 16231:1 19663:1 20421:1 22148:1 26421:1 28931:1 30594:1 38210:1 38970:1 39535:1 40930:1 40999:1 41700:1 43110:1 43145:1 45123:1 45261:1 48185:1 50893:1 51667:1 
1 450:1 629:1 684:1 752:1 1067:1 1233:1 1392:1 3215:1 3219:1 3709:1 3725:1 3785:1 4107:1 4766:1 8868:1 9554:1 10943:1 11428:1 11741:1 14114:1 14603:1 14625:1 14702:1 14961:1 15032:1 15184:1 15472:1 16388:1 16976:1 17775:1 18365:1 23344:1 24254:1 26842:1 27597:1 30254:1 30754:1 31797:1 33342:1 33494:1 36285:1 36598:1 40558:1 40566:1 40930:1 41037:1 41115:1 41196:1 42080:1 42143:1 42822:1 43825:1 46961:1 46963:1 47089:1 47365:1 49717:1 49854:1 50247:1 
0.03496898843230567 361:1 2173:1 2456:1 3356:1 3438:1 3628:1 3724:1 3860:1 6257:1 8828:1 11441:1 15382:1 15771:1 16397:1 17333:1 23082:1 24091:1 27092:1 30614:1 32602:1 38492:1 39912:1 42813:1 43977:1 46523:1 47079:1 48052:1 49552:1 51114:1 51721:1 
1 171:1 381:1 537:1 587:1 840:1 1231:1 1286:1 1493:1 1649:1 1734:1 1764:1 1782:1 2127:1 3100:1 3209:1 3635:1 3650:1 4001:1 4038:1 5200:1 6066:1 6771:1 6928:1 7131:1 8260:1 10187:1 10728:1 12183:1 14029:1 14175:1 14961:1 16960:1 17430:1 17433:1 17842:1 19154:1 20028:1 20826:1 21186:1 21625:1 22908:1 23253:1 23595:1 26003:1 26250:1 26264:1 27335:1 29265:1 29714:1 30694:1 31110:1 32406:1 33940:1 34049:1 35986:1 37538:1 38119:1 38663:1 39425:1 40134:1 40588:1 41007:1 41783:1 43531:1 44453:1 45300:1 45838:1 46646:1 47757:1 48205:1 48844:1 49033:1 49469:1 49711:1 51427:1 
1 1252:1 2718:1 3721:1 11456:1 15049:1 15212:1 15525:1 17224:1 22488:1 23831:1 23851:1 25923:1 30960:1 31178:1 32602:1 33559:1 34904:1 37134:1 41038:1 41426:1 42094:1 42556:1 45353:1 47037:1 47835:1 
1 110:1 272:1 275:1 281:1 407:1 821:1 1058:1 1782:1 2007:1 2106:1 2463:1 2471:1 3044:1 3063:1 3111:1 3235:1 3610:1 3664:1 3721:1 3725:1 7642:1 7989:1 8130:1 9240:1 10359:1 10463:1 10768:1 11408:1 11667:1 13066:1 13736:1 13917:1 15219:1 18966:1 21373:1 22165:1 22189:1 22240:1 22345:1 22807:1 23344:1 23507:1 23569:1 23600:1 25441:1 26142:1 27024:1 29248:1 30254:1 30923:1 31009:1 38218:1 38675:1 39551:1 39726:1 40213:1 41309:1 42049:1 42447:1 43338:1 44722:1 45303:1 46430:1 46714:1 46830:1 47041:1 47089:1 50574:1 
1 381:1 540:1 882:1 1058:1 1557:1 1689:1 2405:1 3044:1 3721:1 3728:1 3749:1 5696:1 10117:1 10236:1 10361:1 12422:1 14300:1 14342:1 14590:1 15041:1 15462:1 15611:1 19679:1 21394:1 22450:1 22480:1 23111:1 23978:1 24176:1 28146:1 28479:1 29831:1 33555:1 36521:1 37046:1 39551:1 40127:1 40819:1 42579:1 45580:1 46447:1 47047:1 47080:1 47111:1 47208:1 51067:1 
1 275:1 684:1 740:1 996:1 1017:1 1225:1 2440:1 3100:1 3217:1 3221:1 3635:1 6972:1 8715:1 8736:1 9115:1 10117:1 11651:1 11657:1 11758:1 12783:1 12852:1 13772:1 14696:1 14708:1 16920:1 17821:1 22140:1 22455:1 22682:1 23276:1 24570:1 26551:1 27023:1 29555:1 30434:1 31845:1 34056:1 36111:1 38205:1 41156:1 41220:1 41910:1 42704:1 43442:1 43955:1 44362:1 51424:1 
1 381:1 397:1 821:1 1167:1 1826:1 1906:1 1985:1 2334:1 2456:1 3334:1 7036:1 7425:1 9117:1 9160:1 11111:1 14339:1 15726:1 15803:1 16296:1 17224:1 19683:1 23312:1 24131:1 24930:1 25263:1 25873:1 26882:1 29295:1 30218:1 30617:1 31171:1 32476:1 39527:1 41008:1 41790:1 42363:1 43742:1 45352:1 
0.77254533484442756 189:1 424:1 821:1 1080:1 1121:1 1562:1 1782:1 2281:1 3610:1 4025:1 6981:1 7558:1 9337:1 10306:1 12989:1 15204:1 15293:1 15898:1 19755:1 23669:1 24376:1 24628:1 26760:1 27197:1 28601:1 29590:1 30876:1 33167:1 33205:1 37729:1 38157:1 38761:1 41239:1 41459:1 43273:1 44405:1 46429:1 46551:1 47100:1 47408:1 48490:1 48954:1 48977:1 50452:1 
0.81781790468091853 189:1 251:1 461:1 821:1 1562:1 1731:1 2304:1 3609:1 3610:1 6976:1 7451:1 7681:1 9659:1 10214:1 10311:1 13914:1 14519:1 14528:1 14730:1 14973:1 15157:1 15478:1 16772:1 19755:1 20290:1 21069:1 22153:1 22476:1 22892:1 24254:1 25173:1 27023:1 28417:1 28810:1 29568:1 30283:1 32004:1 34986:1 36538:1 36599:1 37894:1 39541:1 39774:1 40834:1 41041:1 42143:1 42187:1 42463:1 44937:1 46406:1 46426:1 51613:1 
0.57464821742484284 452:1 537:1 700:1 1734:1 2303:1 3100:1 3111:1 3564:1 3635:1 3686:1 3730:1 3751:1 6647:1 6771:1 6784:1 7047:1 9586:1 10185:1 11415:1 11418:1 11867:1 13648:1 13747:1 13917:1 14961:1 14969:1 15020:1 15032:1 18416:1 19652:1 20009:1 20803:1 20822:1 22311:1 22907:1 23288:1 23595:1 24346:1 26742:1 28548:1 28556:1 28557:1 28800:1 30254:1 30314:1 33896:1 36285:1 36487:1 36900:1 37420:1 39970:1 40214:1 41279:1 42155:1 45266:1 45817:1 46805:1 47132:1 47217:1 
1 40:1 171:1 176:1 1532:1 1646:1 2157:1 2303:1 2322:1 2389:1 2513:1 3044:1 3232:1 3970:1 4952:1 5208:1 5506:1 5764:1 6605:1 6771:1 7339:1 7608:1 8766:1 10117:1 10236:1 10311:1 12683:1 13449:1 15657:1 18319:1 19352:1 20624:1 21054:1 21586:1 23352:1 23846:1 26230:1 26436:1 26786:1 27139:1 27380:1 28452:1 28604:1 28792:1 29056:1 29765:1 30422:1 31349:1 31602:1 31829:1 31996:1 33316:1 33512:1 33720:1 35071:1 38291:1 39535:1 39544:1 39548:1 40431:1 41286:1 42473:1 42965:1 43145:1 45373:1 48665:1 49690:1 49770:1 
0.80894503753704738 95:1 194:1 1286:1 2007:1 2106:1 2267:1 2658:1 2962:1 3044:1 3278:1 5929:1 6056:1 7120:1 9379:1 10081:1 10175:1 11408:1 12900:1 16451:1 17430:1 17705:1 18452:1 19317:1 22742:1 23600:1 24131:1 25441:1 26142:1 28574:1 30254:1 31041:1 31345:1 33327:1 34022:1 34053:1 37738:1 38873:1 39531:1 39539:1 41585:1 42482:1 42910:1 43340:1 50064:1 50582:1 50757:1 
1 513:1 535:1 1017:1 1446:1 1731:1 1782:1 2342:1 2698:1 3105:1 3635:1 6883:1 7156:1 7399:1 7721:1 9959:1 10087:1 13404:1 14698:1 14984:1 16683:1 17843:1 18733:1 19371:1 22375:1 22892:1 23366:1 24332:1 28849:1 28862:1 29340:1 30574:1 31296:1 31773:1 33352:1 34770:1 36024:1 36687:1 39696:1 40122:1 40256:1 41787:1 
0.33660380619707847 546:1 684:1 740:1 2317:1 3315:1 3610:1 3710:1 3721:1 4176:1 5951:1 8905:1 10230:1 10396:1 11645:1 12984:1 14923:1 15462:1 15470:1 16691:1 18170:1 20471:1 21591:1 22469:1 22506:1 23612:1 27588:1 29026:1 30376:1 31285:1 31446:1 32841:1 33248:1 36123:1 39271:1 40756:1 40819:1 40922:1 42006:1 46412:1 46967:1 47037:1 47048:1 49754:1 51547:1 
1 575:1 684:1 1782:1 1826:1 3019:1 3283:1 3610:1 3751:1 3780:1 6458:1 7596:1 8273:1 10239:1 10688:1 11807:1 15188:1 17798:1 20546:1 24091:1 24131:1 24215:1 25703:1 30090:1 31704:1 32464:1 33478:1 33637:1 33896:1 33915:1 34023:1 36285:1 36389:1 37753:1 38057:1 38492:1 39310:1 39527:1 39544:1 40573:1 41010:1 41602:1 41831:1 46429:1 46523:1 47217:1 47335:1 49322:1 50957:1 
1 176:1 275:1 2389:1 2957:1 3232:1 3572:1 13528:1 15212:1 17747:1 19248:1 29766:1 31285:1 31829:1 38808:1 39820:1 40836:1 41286:1 42473:1 45368:1 45891:1 49317:1 49780:1 51609:1 
1 613:1 1017:1 1401:1 2456:1 3221:1 3785:1 4306:1 7599:1 8938:1 10091:1 10207:1 10819:1 14921:1 15355:1 15678:1 15926:1 18426:1 19422:1 20177:1 26778:1 28891:1 30608:1 36285:1 38210:1 38604:1 39541:1 41220:1 41908:1 43301:1 43967:1 46969:1 46999:1 47365:1 49854:1 51525:1 
0.32860119286761014 1437:1 1445:1 1562:1 1826:1 2012:1 3115:1 3155:1 3517:1 3721:1 3730:1 3890:1 4083:1 7420:1 10224:1 10306:1 11408:1 13066:1 16920:1 18652:1 18727:1 19755:1 20388:1 22345:1 24131:1 24305:1 24346:1 25462:1 30037:1 32766:1 33840:1 34053:1 35544:1 36246:1 37787:1 39527:1 39543:1 40254:1 40530:1 42143:1 45261:1 47041:1 47132:1 48238:1 
0.93352017542308607 2367:1 2654:1 3100:1 3219:1 3527:1 3721:1 3725:1 6674:1 7120:1 7871:1 7908:1 10136:1 14909:1 15032:1 17558:1 19730:1 23258:1 23354:1 23849:1 24123:1 26362:1 27393:1 27939:1 29630:1 31039:1 33511:1 33941:1 35949:1 36233:1 36754:1 39404:1 41197:1 42147:1 42517:1 42556:1 43837:1 45061:1 45377:1 47037:1 47089:1 49850:1 
1 1512:1 1647:1 1888:1 2326:1 2327:1 3111:1 3342:1 3517:1 3650:1 3728:1 6006:1 6712:1 8090:1 10081:1 10117:1 10136:1 12651:1 15052:1 17156:1 17836:1 19230:1 19321:1 19720:1 21608:1 22480:1 23595:1 24082:1 24131:1 24251:1 24880:1 26003:1 26701:1 27335:1 27347:1 29095:1 29097:1 30694:1 30757:1 33865:1 35950:1 37151:1 37309:1 38307:1 39531:1 39535:1 39611:1 40214:1 42463:1 43145:1 43151:1 44277:1 45261:1 45300:1 46629:1 47117:1 49911:1 51279:1 51359:1 
1 159:1 821:1 1826:1 2481:1 2798:1 2897:1 2973:1 6603:1 8860:1 10315:1 11391:1 14696:1 21097:1 22153:1 22221:1 22713:1 24131:1 26429:1 35503:1 37001:1 38865:1 38947:1 39527:1 40112:1 41068:1 42479:1 50003:1 50732:1 
1 402:1 1082:1 1504:1 1771:1 2493:1 3323:1 3979:1 8007:1 9194:1 14439:1 14915:1 19200:1 24746:1 29417:1 31476:1 33896:1 34898:1 36046:1 36285:1 38428:1 42106:1 43508:1 44752:1 45571:1 48558:1 48712:1 50543:1 
1 54:1 176:1 2018:1 2327:1 3709:1 3747:1 5620:1 14594:1 22673:1 25505:1 26324:1 27235:1 29097:1 30972:1 33211:1 46958:1 47199:1 
1 171:1 372:1 536:1 542:1 684:1 1231:1 1604:1 1826:1 2236:1 3111:1 3517:1 3635:1 3751:1 3780:1 4147:1 5690:1 6771:1 8104:1 8886:1 8947:1 10117:1 10127:1 10226:1 10274:1 11411:1 11838:1 13274:1 13728:1 13866:1 14902:1 14961:1 15297:1 16051:1 16349:1 16964:1 18189:1 19609:1 20409:1 20543:1 20616:1 20813:1 22132:1 22140:1 22148:1 23606:1 23634:1 24131:1 24258:1 27023:1 28264:1 29360:1 30309:1 30444:1 30554:1 33410:1 33802:1 33896:1 35068:1 35855:1 36055:1 36285:1 37163:1 38776:1 39527:1 40215:1 41098:1 42704:1 44419:1 45261:1 47217:1 47331:1 48185:1 49104:1 49246:1 50895:1 51220:1 
1 178:1 1286:1 1745:1 2644:1 3100:1 3279:1 3321:1 3610:1 4000:1 4006:1 4147:1 6872:1 7212:1 7908:1 8860:1 9662:1 12574:1 13518:1 13822:1 14915:1 14993:1 16551:1 17399:1 17430:1 18634:1 22577:1 22758:1 22993:1 23853:1 26311:1 28709:1 31702:1 31821:1 33636:1 33780:1 34898:1 36039:1 36736:1 37041:1 40985:1 41565:1 41589:1 42056:1 42556:1 44389:1 44978:1 46416:1 48835:1 48873:1 50222:1 50788:1 50895:1 51008:1 
0.31389166247869871 360:1 469:1 1283:1 3103:1 8811:1 9708:1 11666:1 13736:1 14100:1 17423:1 20168:1 22132:1 22240:1 22791:1 26640:1 26679:1 40105:1 45571:1 46141:1 51248:1 
0.59342514697352899 381:1 540:1 930:1 1557:1 1689:1 1705:1 2405:1 3044:1 3149:1 3716:1 3728:1 3749:1 4083:1 10236:1 10361:1 12658:1 14300:1 15041:1 15476:1 15611:1 19679:1 21402:1 22480:1 23978:1 24176:1 27691:1 28146:1 29831:1 33555:1 34462:1 37046:1 37383:1 39551:1 40127:1 40976:1 42579:1 44710:1 46447:1 47111:1 47148:1 47208:1 51067:1 51477:1 
1 658:1 821:1 1154:1 1776:1 1782:1 1826:1 1956:1 3610:1 4113:1 6215:1 6706:1 7082:1 11125:1 13917:1 14996:1 16196:1 17120:1 17518:1 17557:1 18831:1 19652:1 23499:1 24131:1 25060:1 28862:1 29214:1 30728:1 30841:1 36754:1 39527:1 40996:1 42143:1 46417:1 50314:1 51361:1 
0.62408422348890591 1782:1 1826:1 2945:1 3044:1 3531:1 3985:1 7034:1 10361:1 15133:1 20318:1 21398:1 24017:1 24131:1 26302:1 28862:1 31797:1 32237:1 37046:1 37616:1 38504:1 39527:1 39551:1 40364:1 40883:1 42159:1 45403:1 45895:1 47113:1 48733:1 49435:1 
1 332:1 438:1 1337:1 2234:1 2264:1 2269:1 3044:1 3458:1 3517:1 3610:1 3620:1 3635:1 5708:1 7034:1 7084:1 7406:1 8564:1 8795:1 8849:1 9455:1 10117:1 10178:1 10274:1 10306:1 10311:1 13926:1 14546:1 14677:1 15030:1 15219:1 16206:1 16215:1 17134:1 17812:1 17913:1 18727:1 19945:1 20807:1 21054:1 21709:1 22140:1 22153:1 22357:1 22488:1 22622:1 24381:1 25654:1 27023:1 28255:1 28419:1 28479:1 30756:1 31638:1 33110:1 33218:1 34359:1 35483:1 36118:1 36955:1 37024:1 37044:1 37832:1 37920:1 38210:1 39539:1 39546:1 39993:1 42473:1 42704:1 42837:1 44561:1 45261:1 46418:1 46482:1 49170:1 50682:1 
1 367:1 821:1 1000:1 1286:1 1702:1 2795:1 3044:1 3103:1 3456:1 3728:1 8872:1 8893:1 10279:1 10360:1 13881:1 13946:1 14012:1 14209:1 15043:1 15355:1 16806:1 17430:1 20897:1 21382:1 22132:1 22597:1 22961:1 23800:1 23978:1 24902:1 27538:1 28109:1 31090:1 32100:1 33083:1 35476:1 37072:1 37718:1 38851:1 39462:1 39546:1 39551:1 40105:1 40807:1 45888:1 46932:1 47111:1 48206:1 49738:1 
1 360:1 547:1 684:1 1646:1 1826:1 2280:1 2513:1 2884:1 3022:1 3103:1 3610:1 4019:1 6993:1 7156:1 8818:1 10412:1 14173:1 15229:1 15681:1 21586:1 21687:1 22132:1 24131:1 26297:1 27317:1 28577:1 31110:1 31285:1 31996:1 36614:1 38300:1 38472:1 39339:1 39527:1 40105:1 43083:1 43307:1 45346:1 46430:1 46911:1 48940:1 49690:1 50550:1 
1 358:1 821:1 841:1 1286:1 1532:1 1560:1 1739:1 1985:1 3180:1 3456:1 3517:1 3531:1 6789:1 8784:1 13736:1 13752:1 15136:1 17430:1 19363:1 19736:1 22237:1 22411:1 22443:1 25265:1 27916:1 31870:1 35107:1 36618:1 40656:1 42111:1 43024:1 45261:1 45406:1 
1 148:1 651:1 821:1 1562:1 1771:1 1782:1 1803:1 2390:1 2876:1 3044:1 3103:1 3387:1 3434:1 3544:1 3885:1 4147:1 5111:1 6531:1 7004:1 7913:1 8192:1 8563:1 8871:1 10074:1 10236:1 10360:1 11061:1 13781:1 14145:1 15019:1 15257:1 18285:1 18879:1 19459:1 19755:1 21386:1 22132:1 22722:1 22792:1 23808:1 24822:1 25263:1 25684:1 27066:1 29775:1 31620:1 32191:1 33623:1 36106:1 36517:1 36893:1 37235:1 38548:1 39207:1 39531:1 39544:1 39551:1 39822:1 40105:1 42599:1 43433:1 43961:1 44133:1 45508:1 45554:1 46361:1 46967:1 47476:1 48187:1 48984:1 49976:1 50707:1 50895:1 51467:1 51560:1 
1 821:1 1782:1 2431:1 2698:1 3531:1 3620:1 3725:1 7505:1 7599:1 8007:1 14138:1 15203:1 22422:1 23344:1 30072:1 31797:1 34777:1 34785:1 37882:1 38154:1 38218:1 41222:1 42045:1 42163:1 43518:1 43679:1 43975:1 45403:1 45662:1 46479:1 47089:1 48222:1 51681:1 
1 215:1 658:1 821:1 841:1 2359:1 2513:1 2567:1 2698:1 3103:1 3149:1 3210:1 3216:1 3506:1 3728:1 7275:1 7400:1 7757:1 10136:1 10311:1 11133:1 11408:1 13914:1 14173:1 14188:1 15011:1 15117:1 15714:1 18832:1 19728:1 19735:1 21067:1 22140:1 22153:1 23978:1 24027:1 24256:1 25517:1 26687:1 27306:1 27433:1 29280:1 29487:1 29602:1 30605:1 31996:1 32307:1 32601:1 33401:1 34770:1 36032:1 36844:1 37001:1 37258:1 37533:1 37744:1 40105:1 41037:1 41075:1 41135:1 42085:1 42143:1 42473:1 43059:1 44130:1 45192:1 47111:1 47114:1 50349:1 
1 711:1 1076:1 1177:1 1353:1 1407:1 1826:1 2196:1 2341:1 2543:1 3103:1 3709:1 3751:1 4006:1 6077:1 11511:1 14175:1 14625:1 15203:1 15495:1 16426:1 16750:1 17997:1 18096:1 18463:1 20072:1 22132:1 24131:1 24247:1 26252:1 27335:1 27604:1 29324:1 30075:1 32350:1 32992:1 33896:1 36285:1 38139:1 39527:1 40105:1 40930:1 41026:1 41037:1 41147:1 42085:1 43247:1 46961:1 47217:1 48873:1 51302:1 
0.78907567396448675 52:1 381:1 911:1 1534:1 2079:1 3103:1 3180:1 3498:1 3646:1 5603:1 7046:1 9530:1 10117:1 10211:1 11835:1 12574:1 15052:1 15655:1 19383:1 20254:1 22132:1 23298:1 24131:1 26033:1 26746:1 26786:1 28109:1 28839:1 30308:1 35127:1 37151:1 39535:1 39541:1 40105:1 40658:1 45118:1 45885:1 46609:1 
1 67:1 275:1 436:1 1017:1 1439:1 1646:1 1734:1 1782:1 3044:1 3610:1 3645:1 4019:1 5764:1 6647:1 7910:1 8250:1 8550:1 9437:1 10361:1 13922:1 15048:1 15092:1 15446:1 16024:1 18669:1 20786:1 21402:1 21586:1 22411:1 22906:1 23711:1 24196:1 24332:1 24717:1 26388:1 26746:1 26812:1 27354:1 27649:1 31285:1 33224:1 33913:1 34921:1 35107:1 35378:1 36039:1 36583:1 37126:1 37380:1 38483:1 39551:1 40368:1 40656:1 42580:1 45496:1 46422:1 46601:1 46931:1 47150:1 47637:1 48238:1 48940:1 49690:1 
1 350:1 684:1 736:1 1027:1 1233:1 1581:1 1782:1 2916:1 3180:1 3514:1 3599:1 3635:1 3646:1 3926:1 5708:1 6113:1 7486:1 7908:1 8712:1 10175:1 10306:1 10318:1 12745:1 13595:1 14440:1 14741:1 14878:1 15621:1 16691:1 16975:1 18468:1 20036:1 20307:1 21118:1 21987:1 22132:1 22144:1 22153:1 23091:1 23360:1 23600:1 23754:1 23846:1 24404:1 27023:1 27335:1 27433:1 29274:1 29424:1 29612:1 29936:1 30239:1 30485:1 31646:1 32093:1 33224:1 33401:1 33435:1 34978:1 35132:1 35778:1 36566:1 36981:1 37732:1 40105:1 40658:1 42556:1 42701:1 42704:1 44482:1 44524:1 45243:1 46348:1 46612:1 46613:1 48445:1 
0.91416964564886638 1316:1 1453:1 1753:1 2751:1 3044:1 3111:1 3475:1 3517:1 3979:1 3996:1 4019:1 4042:1 6789:1 7644:1 9242:1 10233:1 10277:1 10359:1 12886:1 12928:1 17215:1 17703:1 18727:1 18831:1 20521:1 20873:1 21373:1 22332:1 23068:1 23595:1 23699:1 24131:1 27036:1 27906:1 29430:1 29618:1 31172:1 32245:1 35008:1 35145:1 38423:1 38459:1 38686:1 39527:1 39543:1 39546:1 39551:1 40214:1 41006:1 41773:1 44688:1 44800:1 45185:1 45261:1 46830:1 46911:1 48712:1 48940:1 49044:1 49552:1 49665:1 
0.70388182236437014 397:1 1325:1 1520:1 1742:1 2131:1 2324:1 3044:1 3111:1 3573:1 3721:1 4006:1 7079:1 8114:1 9160:1 10094:1 10236:1 10339:1 11408:1 13066:1 13917:1 14072:1 17780:1 19452:1 21254:1 22137:1 22345:1 22961:1 23595:1 23674:1 26304:1 29067:1 36499:1 39544:1 39549:1 40214:1 41132:1 43018:1 44443:1 44573:1 45915:1 47041:1 48873:1 
0.44553735833936225 198:1 544:1 645:1 736:1 989:1 1646:1 1714:1 1730:1 1731:1 1782:1 1826:1 2522:1 2532:1 2727:1 3610:1 3646:1 3650:1 3730:1 5690:1 6054:1 7040:1 8620:1 8736:1 10206:1 10341:1 11031:1 11415:1 14961:1 14991:1 16925:1 17327:1 18329:1 18727:1 20147:1 20238:1 21268:1 21586:1 22767:1 22890:1 22892:1 24131:1 26250:1 29274:1 30254:1 32215:1 32297:1 33401:1 33877:1 34243:1 34998:1 36109:1 36727:1 39527:1 39541:1 41026:1 44779:1 46416:1 46612:1 46630:1 47130:1 49164:1 49429:1 49690:1 50255:1 
1 407:1 821:1 1555:1 3231:1 9244:1 13913:1 19651:1 22083:1 22958:1 24229:1 27081:1 28862:1 29214:1 41272:1 45165:1 
1 821:1 873:1 1771:1 1906:1 2076:1 2327:1 3044:1 3620:1 4006:1 10361:1 12375:1 14115:1 14171:1 15219:1 15726:1 16690:1 21402:1 22488:1 23578:1 24930:1 26004:1 26853:1 29097:1 29978:1 31353:1 31876:1 38219:1 39551:1 42080:1 43742:1 44463:1 45373:1 46482:1 47148:1 48873:1 
1 1138:1 1205:1 1787:1 2196:1 3027:1 3100:1 3221:1 3517:1 8224:1 11652:1 14961:1 16005:1 16806:1 22476:1 23632:1 27565:1 27604:1 28109:1 30529:1 32612:1 32992:1 35227:1 38686:1 39422:1 41220:1 43968:1 45261:1 45885:1 46017:1 47577:1 51532:1 
1 328:1 479:1 542:1 821:1 1234:1 1289:1 1359:1 1771:1 1972:1 2141:1 3517:1 4000:1 5690:1 6440:1 7214:1 8491:1 8529:1 9402:1 9826:1 10281:1 16982:1 17448:1 18136:1 20903:1 21714:1 22067:1 23736:1 24125:1 25154:1 27160:1 29170:1 29231:1 31527:1 31862:1 34506:1 36990:1 39020:1 39444:1 42864:1 44387:1 45261:1 45594:1 48835:1 49930:1 50706:1 51312:1 51717:1 
1 368:1 821:1 1782:1 1971:1 2020:1 2777:1 3107:1 4019:1 6916:1 7596:1 8922:1 9595:1 12922:1 13935:1 14898:1 15648:1 19094:1 21968:1 22330:1 22821:1 23082:1 23569:1 24173:1 24388:1 24486:1 25138:1 25534:1 25682:1 27123:1 27179:1 28863:1 29214:1 31450:1 33204:1 33603:1 35285:1 37021:1 40091:1 40155:1 40174:1 41573:1 42579:1 43032:1 43551:1 45838:1 46161:1 46911:1 46931:1 48940:1 50465:1 
0.50111790000490664 330:1 335:1 371:1 658:1 684:1 736:1 1017:1 1071:1 1391:1 1826:1 3044:1 3517:1 3719:1 3721:1 3728:1 4001:1 4147:1 6619:1 7757:1 7762:1 8549:1 8609:1 8886:1 8938:1 10117:1 10209:1 10236:1 10315:1 11133:1 13439:1 13487:1 13917:1 15133:1 15297:1 15684:1 15921:1 18189:1 18298:1 18348:1 18810:1 20220:1 20808:1 21097:1 22132:1 22153:1 22725:1 23978:1 24131:1 25272:1 27023:1 27571:1 32238:1 32532:1 35472:1 37046:1 37616:1 37648:1 38776:1 39527:1 39541:1 39544:1 39847:1 40682:1 40838:1 42480:1 43335:1 44439:1 45261:1 46895:1 47029:1 47037:1 47111:1 48842:1 49109:1 49456:1 50895:1 51232:1 
1 170:1 176:1 370:1 1017:1 1040:1 1359:1 2327:1 2669:1 2962:1 3111:1 3517:1 3686:1 3888:1 3996:1 5789:1 6760:1 6774:1 7040:1 8935:1 10361:1 11433:1 11691:1 14570:1 14713:1 15284:1 15902:1 17497:1 18136:1 18880:1 21394:1 21711:1 22411:1 23111:1 23205:1 23569:1 25671:1 27749:1 27805:1 29097:1 30254:1 30724:1 31869:1 34114:1 34252:1 35546:1 35956:1 38711:1 38752:1 38871:1 39551:1 40213:1 41035:1 41143:1 42045:1 42510:1 42996:1 43145:1 44817:1 45261:1 46651:1 46805:1 47080:1 48231:1 48417:1 48865:1 50057:1 50695:1 
1 224:1 821:1 1058:1 2269:1 2341:1 3689:1 3721:1 3725:1 5708:1 7354:1 10306:1 11408:1 13066:1 22345:1 23344:1 28479:1 29324:1 35460:1 37097:1 46831:1 47041:1 47089:1 
1 20:1 909:1 1139:1 1415:1 1446:1 2465:1 2601:1 2840:1 3610:1 3624:1 3650:1 5380:1 5972:1 6690:1 10385:1 11419:1 12994:1 13391:1 15003:1 15041:1 15721:1 16014:1 16913:1 18224:1 18505:1 18741:1 22823:1 23322:1 23618:1 24534:1 24649:1 26636:1 27190:1 27200:1 30940:1 32318:1 32343:1 33205:1 33896:1 35767:1 36299:1 36803:1 37060:1 39848:1 42984:1 43717:1 43854:1 44086:1 46417:1 46501:1 46628:1 46730:1 47593:1 48547:1 49807:1 50998:1 
0.18304083735837773 167:1 176:1 397:1 419:1 658:1 690:1 740:1 832:1 1033:1 1065:1 1234:1 2506:1 3106:1 3518:1 3598:1 3650:1 6281:1 6716:1 7071:1 7757:1 7770:1 9160:1 9302:1 9316:1 10182:1 10324:1 11133:1 11312:1 11645:1 12144:1 12980:1 13296:1 15016:1 15211:1 16694:1 16989:1 17997:1 19109:1 19973:1 20406:1 21159:1 22153:1 22673:1 22700:1 22713:1 23106:1 23352:1 23684:1 24239:1 24390:1 24641:1 24662:1 27064:1 27066:1 27368:1 27374:1 28616:1 29951:1 30548:1 30566:1 31048:1 31058:1 32644:1 32950:1 33991:1 34048:1 36869:1 37083:1 37364:1 37703:1 38088:1 38181:1 40105:1 40141:1 40432:1 40475:1 40857:1 40895:1 41613:1 42611:1 43212:1 45293:1 46335:1 46640:1 46646:1 47089:1 49184:1 50981:1 
0.38864510434992261 176:1 1402:1 3022:1 3232:1 3517:1 3766:1 6965:1 10117:1 10306:1 18431:1 24131:1 26487:1 29087:1 29534:1 31285:1 39350:1 39548:1 41075:1 41286:1 42473:1 44983:1 45261:1 45368:1 47276:1 
1 198:1 1017:1 1162:1 1378:1 1730:1 2126:1 2177:1 2955:1 3103:1 3738:1 4001:1 5178:1 6066:1 7050:1 8363:1 10306:1 11912:1 12095:1 14797:1 15465:1 16257:1 17836:1 18257:1 18626:1 22132:1 22890:1 23698:1 24609:1 25828:1 26250:1 27129:1 30339:1 30444:1 31164:1 32861:1 33904:1 35475:1 36331:1 36389:1 36598:1 37691:1 38789:1 39216:1 40105:1 40275:1 40874:1 44486:1 48847:1 49226:1 
0.023708323598107928 1082:1 1688:1 3044:1 3390:1 3517:1 3705:1 10272:1 13746:1 20780:1 22132:1 36487:1 39546:1 43450:1 44516:1 45261:1 46905:1 
0.24597998681332311 229:1 394:1 655:1 1235:1 1286:1 1688:1 1771:1 3062:1 3110:1 3162:1 3219:1 3517:1 7129:1 7406:1 7621:1 8579:1 8913:1 9131:1 11099:1 11411:1 13634:1 14915:1 15677:1 17001:1 17433:1 17479:1 22132:1 23503:1 25223:1 28605:1 29195:1 29237:1 29345:1 30254:1 30601:1 31105:1 33389:1 33525:1 36032:1 36124:1 37697:1 38424:1 39707:1 40205:1 40560:1 41196:1 43287:1 43823:1 44723:1 45261:1 49694:1 51427:1 
1 167:1 821:1 1138:1 1782:1 2046:1 2106:1 2183:1 2280:1 2283:1 2878:1 3044:1 3110:1 3517:1 3555:1 4140:1 6716:1 7225:1 7449:1 7988:1 10360:1 13037:1 14628:1 14706:1 15204:1 15212:1 16004:1 19937:1 21378:1 21957:1 21973:1 23499:1 24609:1 25664:1 26141:1 27196:1 27368:1 28581:1 28639:1 28839:1 28849:1 29212:1 30968:1 31255:1 31824:1 31953:1 33390:1 34913:1 36535:1 36544:1 38160:1 39551:1 40205:1 41041:1 41279:1 42163:1 42371:1 42437:1 43332:1 44455:1 45261:1 46877:1 47574:1 50567:1 50731:1 
1 381:1 1646:1 2181:1 2310:1 2325:1 2327:1 2522:1 2554:1 3102:1 3720:1 4147:1 5890:1 7034:1 8779:1 8805:1 8868:1 8870:1 11408:1 11429:1 13674:1 14173:1 14741:1 14972:1 15010:1 15212:1 15576:1 18601:1 21299:1 21586:1 22031:1 22224:1 24457:1 26302:1 27173:1 27318:1 28903:1 29077:1 29112:1 30254:1 32093:1 32215:1 32469:1 35872:1 36520:1 36830:1 40095:1 42085:1 42143:1 43314:1 45266:1 47032:1 49168:1 49690:1 50895:1 
0.7306957818439378 40:1 352:1 544:1 640:1 658:1 740:1 785:1 800:1 1082:1 1281:1 1286:1 1562:1 1826:1 1970:1 2322:1 2795:1 2942:1 3105:1 3556:1 3738:1 3890:1 4001:1 5513:1 6704:1 7245:1 7428:1 7599:1 7666:1 7757:1 8734:1 8860:1 10345:1 10346:1 11133:1 11645:1 11909:1 11974:1 12990:1 14012:1 15212:1 15263:1 15534:1 16099:1 16446:1 17407:1 17430:1 19755:1 21285:1 21304:1 21956:1 22132:1 22488:1 23352:1 24131:1 24902:1 25122:1 25990:1 26324:1 27003:1 27023:1 27046:1 27287:1 27320:1 27369:1 29056:1 30049:1 31345:1 32112:1 33083:1 33221:1 35476:1 36285:1 37718:1 38210:1 38467:1 38591:1 39527:1 40117:1 41558:1 43719:1 44515:1 45011:1 45261:1 45373:1 45743:1 46813:1 46828:1 48257:1 48559:1 48849:1 48936:1 50102:1 51117:1 
1 335:1 337:1 389:1 684:1 1033:1 1149:1 1562:1 1782:1 2326:1 2327:1 3456:1 3793:1 3929:1 4147:1 5686:1 7406:1 7692:1 8063:1 8213:1 8604:1 8622:1 8635:1 8795:1 8860:1 9103:1 9356:1 10019:1 12897:1 13922:1 14171:1 14961:1 16159:1 16916:1 19755:1 22476:1 23094:1 23644:1 24246:1 24346:1 24409:1 24424:1 27335:1 29025:1 29094:1 29107:1 30689:1 33709:1 33997:1 35889:1 36118:1 37452:1 39736:1 40928:1 40942:1 41037:1 41196:1 42085:1 42143:1 42738:1 42992:1 43823:1 44116:1 45911:1 47416:1 48462:1 49690:1 50502:1 50895:1 
0.52366226525614046 198:1 886:1 1286:1 1646:1 2278:1 2413:1 2777:1 3472:1 3517:1 3531:1 3571:1 7040:1 7406:1 8915:1 10487:1 11415:1 12459:1 13640:1 14528:1 14972:1 15566:1 17014:1 17430:1 17439:1 20772:1 21586:1 24712:1 27208:1 28545:1 28591:1 29850:1 30254:1 30283:1 31797:1 33206:1 35285:1 36124:1 36520:1 38399:1 38452:1 38598:1 40759:1 40819:1 42143:1 44301:1 44651:1 45093:1 45261:1 45403:1 45883:1 46237:1 46909:1 48183:1 48224:1 49690:1 51525:1 51613:1 
1 37:1 740:1 1555:1 2795:1 3646:1 3780:1 5487:1 8661:1 8810:1 11645:1 11660:1 13913:1 14079:1 19651:1 22673:1 24236:1 26551:1 34683:1 35485:1 37874:1 39646:1 40826:1 46609:1 47331:1 49055:1 50015:1 
1 171:1 353:1 371:1 684:1 1000:1 1580:1 1826:1 2327:1 2795:1 3102:1 3635:1 3738:1 3747:1 6771:1 8739:1 8943:1 8948:1 10175:1 10569:1 11295:1 13009:1 13058:1 13867:1 14247:1 14696:1 15965:1 16060:1 16810:1 20021:1 22042:1 23499:1 23618:1 24131:1 25901:1 27235:1 27283:1 27818:1 28261:1 28817:1 28829:1 29097:1 29210:1 33211:1 34660:1 35485:1 37871:1 39527:1 39897:1 40095:1 47199:1 47415:1 48231:1 49220:1 50498:1 
0.56131101815552176 479:1 684:1 691:1 1318:1 1676:1 2484:1 3044:1 9822:1 10117:1 10226:1 11323:1 13118:1 13519:1 16658:1 17720:1 17836:1 19125:1 20410:1 21797:1 22683:1 30453:1 31403:1 32532:1 36762:1 39543:1 49311:1 49880:1 51140:1 51724:1 
0.07834420573585088 52:1 275:1 821:1 1205:1 1233:1 1434:1 2148:1 2315:1 2866:1 3044:1 3062:1 3456:1 3517:1 3620:1 3661:1 3689:1 3710:1 3728:1 5605:1 5949:1 6689:1 7943:1 9547:1 10184:1 10723:1 12772:1 13417:1 13634:1 15212:1 15753:1 16672:1 16800:1 16978:1 17987:1 18602:1 18776:1 19995:1 22185:1 22411:1 23029:1 23095:1 23549:1 23978:1 24204:1 24432:1 26364:1 26659:1 27168:1 28060:1 29004:1 29624:1 29653:1 32782:1 33856:1 34201:1 35879:1 36393:1 36619:1 37813:1 39539:1 39707:1 40174:1 40210:1 40462:1 40531:1 42897:1 44805:1 44981:1 45261:1 46479:1 46831:1 46982:1 47111:1 
1 40:1 821:1 882:1 1069:1 1795:1 1826:1 2042:1 3373:1 3926:1 4006:1 5513:1 5832:1 6991:1 7780:1 8860:1 12417:1 13634:1 15067:1 15089:1 17987:1 22699:1 23063:1 23098:1 23710:1 24131:1 24494:1 25261:1 25638:1 27064:1 29680:1 30055:1 31272:1 35975:1 37234:1 37364:1 39527:1 41000:1 41706:1 42997:1 43594:1 46421:1 47078:1 48445:1 48873:1 
1 996:1 1076:1 1082:1 1359:1 1489:1 2304:1 3111:1 3463:1 3635:1 3646:1 4000:1 4123:1 7034:1 7603:1 9583:1 10187:1 10311:1 12989:1 13772:1 13914:1 14501:1 14524:1 14961:1 15188:1 16590:1 17809:1 17811:1 18136:1 18668:1 19125:1 20031:1 21054:1 21711:1 22673:1 22682:1 23634:1 23679:1 24253:1 26302:1 28810:1 30044:1 30239:1 30554:1 30968:1 38057:1 38250:1 38467:1 39539:1 40215:1 41020:1 41239:1 41932:1 42476:1 44341:1 44405:1 44604:1 45261:1 46609:1 48834:1 49323:1 50467:1 50695:1 
1 210:1 542:1 658:1 1389:1 1688:1 3567:1 7131:1 7209:1 7757:1 8070:1 10271:1 11133:1 14631:1 15566:1 18327:1 20757:1 22132:1 25337:1 26373:1 28357:1 31123:1 31285:1 31796:1 35986:1 40421:1 42122:1 44187:1 45858:1 50729:1 
1 167:1 170:1 684:1 1206:1 1280:1 1391:1 1691:1 2282:1 2303:1 3456:1 3795:1 3969:1 4042:1 6712:1 6754:1 7766:1 10117:1 10175:1 12392:1 13640:1 13650:1 14961:1 16810:1 17400:1 18353:1 20772:1 20840:1 22140:1 22208:1 22961:1 23846:1 24609:1 25923:1 26760:1 27082:1 27350:1 27725:1 28261:1 28616:1 28800:1 30554:1 32648:1 33523:1 35473:1 37658:1 37920:1 40275:1 40874:1 42556:1 44963:1 47424:1 48659:1 49042:1 49220:1 49612:1 50634:1 51017:1 
1 40:1 442:1 821:1 1149:1 1252:1 1286:1 1450:1 1555:1 1771:1 2465:1 2495:1 2522:1 2777:1 3044:1 3456:1 3473:1 3517:1 5513:1 5686:1 7650:1 8090:1 8860:1 9356:1 9489:1 9530:1 10019:1 10234:1 10261:1 10306:1 10328:1 12897:1 13552:1 14528:1 14973:1 16159:1 16242:1 17049:1 17224:1 17430:1 18803:1 19639:1 20530:1 20723:1 21193:1 22476:1 23851:1 24319:1 24383:1 25923:1 27179:1 30283:1 30940:1 30960:1 31178:1 31497:1 32218:1 32326:1 33204:1 33559:1 33709:1 33951:1 34312:1 35169:1 35285:1 36538:1 36846:1 38495:1 38768:1 39545:1 39548:1 39701:1 40588:1 41859:1 42232:1 42502:1 42556:1 43579:1 44284:1 44656:1 45261:1 45353:1 45778:1 46830:1 49189:1 50607:1 
1 381:1 1535:1 1574:1 1688:1 7349:1 19405:1 19952:1 22132:1 35421:1 
0.40682160728094385 223:1 275:1 684:1 686:1 1771:1 2183:1 2327:1 3105:1 3111:1 3183:1 3216:1 7339:1 9094:1 11287:1 12777:1 12874:1 23595:1 24609:1 27196:1 29097:1 34053:1 35326:1 36394:1 40117:1 40214:1 40675:1 41132:1 43011:1 
1 684:1 840:1 1303:1 1562:1 1745:1 1956:1 3100:1 3103:1 3216:1 3704:1 3738:1 6054:1 7246:1 8860:1 10206:1 12185:1 17563:1 18355:1 18727:1 19755:1 20147:1 22132:1 22767:1 22994:1 23086:1 23648:1 24336:1 25060:1 26250:1 27127:1 30794:1 32127:1 37082:1 38970:1 39541:1 40105:1 41134:1 42009:1 43035:1 46889:1 50895:1 51360:1 
1 469:1 684:1 788:1 1562:1 1826:1 2196:1 3517:1 3651:1 3922:1 9682:1 9708:1 10276:1 10487:1 11928:1 19755:1 20829:1 22388:1 24131:1 27597:1 31495:1 32559:1 34142:1 34297:1 36747:1 37649:1 39527:1 39546:1 41937:1 45261:1 45596:1 46138:1 46656:1 48416:1 
1 1649:1 1939:1 2280:1 2308:1 3102:1 3564:1 3635:1 4147:1 5501:1 7156:1 8880:1 15168:1 15482:1 18598:1 21625:1 22024:1 25020:1 28577:1 28862:1 30743:1 31285:1 35839:1 36599:1 37969:1 39983:1 40095:1 41026:1 45306:1 45821:1 50895:1 
1 1239:1 1555:1 1782:1 3262:1 4059:1 10290:1 13913:1 14145:1 17033:1 17354:1 18750:1 19651:1 20955:1 22770:1 23441:1 24247:1 27073:1 28421:1 38983:1 39913:1 40200:1 40930:1 41497:1 49119:1 49225:1 50026:1 51029:1 51457:1 51645:1 
1 1753:1 3044:1 3262:1 3555:1 3677:1 5707:1 6706:1 10226:1 10287:1 10487:1 13172:1 13301:1 13420:1 16783:1 18020:1 18191:1 20410:1 20930:1 20933:1 22673:1 23074:1 24193:1 24252:1 25788:1 27563:1 30458:1 32559:1 37163:1 39543:1 39646:1 39687:1 40339:1 41006:1 41497:1 41767:1 46757:1 49225:1 
1 275:1 882:1 1082:1 1321:1 1448:1 1479:1 2327:1 3100:1 3274:1 3378:1 6706:1 10146:1 12420:1 13391:1 16196:1 17741:1 18768:1 19059:1 19796:1 24457:1 27422:1 29112:1 31110:1 36234:1 37481:1 38472:1 41575:1 42073:1 43083:1 43314:1 45346:1 45563:1 47373:1 49926:1 50504:1 
1 194:1 821:1 1205:1 1337:1 1782:1 1826:1 2590:1 2767:1 3650:1 3681:1 6031:1 6322:1 7549:1 16184:1 16806:1 17911:1 20438:1 20749:1 22132:1 24131:1 27023:1 28109:1 28362:1 30968:1 32954:1 34090:1 35248:1 37568:1 38591:1 39527:1 43719:1 45885:1 46649:1 46766:1 46825:1 48559:1 50766:1 
1 395:1 438:1 821:1 882:1 1390:1 1562:1 2047:1 2283:1 2327:1 2860:1 7153:1 7778:1 7988:1 9147:1 9460:1 10349:1 12420:1 13634:1 13652:1 16916:1 18170:1 18338:1 19755:1 19937:1 20859:1 21322:1 21973:1 23696:1 23843:1 25570:1 25675:1 26673:1 27588:1 28577:1 28639:1 29097:1 30689:1 31147:1 32841:1 33248:1 33534:1 33994:1 36027:1 36247:1 37124:1 40979:1 41526:1 42371:1 43332:1 45563:1 49543:1 
0.58102968173190872 110:1 538:1 2166:1 2938:1 3103:1 3104:1 3265:1 3321:1 3517:1 3635:1 3689:1 3721:1 7762:1 8260:1 8860:1 9810:1 10208:1 10212:1 10367:1 11828:1 13728:1 14014:1 14057:1 15048:1 15355:1 16397:1 17865:1 18006:1 20201:1 20273:1 21434:1 22109:1 22132:1 22146:1 22248:1 23674:1 23751:1 25901:1 26389:1 26429:1 26640:1 26696:1 27019:1 27128:1 27346:1 28315:1 28862:1 29214:1 31615:1 37128:1 38428:1 39551:1 39734:1 39810:1 40105:1 40114:1 40836:1 41525:1 42048:1 44581:1 44758:1 45261:1 46838:1 47037:1 47461:1 49527:1 49555:1 50131:1 51310:1 
1 40:1 275:1 405:1 684:1 1017:1 1316:1 1580:1 2440:1 3062:1 3232:1 3747:1 4147:1 5513:1 8099:1 8805:1 8812:1 8860:1 9078:1 9225:1 12856:1 12872:1 13634:1 13746:1 14118:1 14226:1 16972:1 17702:1 20021:1 22511:1 23499:1 25286:1 26376:1 26863:1 27240:1 27657:1 28817:1 29210:1 30434:1 30968:1 31312:1 33211:1 36487:1 39707:1 41286:1 45369:1 47199:1 50895:1 
1 821:1 882:1 1062:1 1434:1 2373:1 3103:1 5613:1 12421:1 14944:1 18598:1 22132:1 28180:1 29676:1 35847:1 36267:1 40105:1 45073:1 45565:1 45589:1 46119:1 47291:1 
1 40:1 370:1 407:1 821:1 2792:1 2923:1 3096:1 3677:1 5501:1 5707:1 8936:1 9244:1 10284:1 14390:1 15041:1 15103:1 15909:1 20040:1 20916:1 22008:1 22483:1 22949:1 23683:1 23805:1 24254:1 25318:1 27081:1 27241:1 29025:1 29067:1 31049:1 32149:1 34310:1 35446:1 36526:1 37046:1 37455:1 37824:1 39339:1 40056:1 41041:1 42143:1 42187:1 46740:1 46757:1 50494:1 
0.33438704650818601 288:1 464:1 821:1 1739:1 2131:1 2652:1 2955:1 3517:1 3610:1 3646:1 7040:1 7766:1 8202:1 8781:1 9672:1 10179:1 10324:1 10350:1 11385:1 11438:1 11934:1 13689:1 13863:1 14590:1 14969:1 14981:1 15188:1 15348:1 16014:1 16231:1 18824:1 19949:1 21154:1 21345:1 21702:1 22221:1 22782:1 26302:1 30255:1 33904:1 36335:1 36367:1 36496:1 36520:1 36667:1 38057:1 38789:1 39458:1 39539:1 39549:1 39863:1 40150:1 40813:1 40863:1 43019:1 43160:1 45261:1 46067:1 46415:1 46416:1 46429:1 46609:1 47594:1 49226:1 50642:1 
1 167:1 1445:1 1520:1 1688:1 1726:1 2315:1 3210:1 3686:1 3721:1 6716:1 7107:1 10395:1 10494:1 10569:1 11408:1 13001:1 13009:1 13066:1 18727:1 18832:1 19893:1 21581:1 22132:1 22345:1 22874:1 25310:1 27368:1 29001:1 39554:1 41029:1 42007:1 46808:1 47041:1 49659:1 
1 176:1 289:1 1151:1 1771:1 1978:1 3111:1 3321:1 3610:1 4006:1 6331:1 8111:1 8224:1 10184:1 13839:1 15005:1 15018:1 16184:1 18353:1 19238:1 19987:1 20846:1 22132:1 22791:1 22961:1 23063:1 23427:1 23595:1 25208:1 27082:1 28172:1 28623:1 31710:1 33330:1 36812:1 36884:1 38057:1 39539:1 40214:1 41075:1 42056:1 42486:1 42854:1 46025:1 46417:1 47078:1 48873:1 51382:1 
1 360:1 381:1 822:1 1392:1 1445:1 1731:1 3517:1 3635:1 3751:1 6054:1 6679:1 7096:1 8821:1 10206:1 12086:1 14220:1 15212:1 18361:1 18715:1 18727:1 20147:1 20406:1 20488:1 22488:1 22895:1 26250:1 27046:1 27559:1 27602:1 30828:1 32502:1 32962:1 33896:1 35983:1 36285:1 39328:1 39541:1 45261:1 47217:1 
1 40:1 176:1 695:1 821:1 835:1 1562:1 1966:1 3109:1 3610:1 3650:1 3750:1 5513:1 6784:1 7034:1 8774:1 8860:1 11341:1 11822:1 12165:1 13537:1 13978:1 14188:1 15281:1 19363:1 19755:1 23422:1 25100:1 25142:1 26302:1 27433:1 28145:1 32619:1 33691:1 33878:1 36117:1 38568:1 38691:1 40198:1 46410:1 46434:1 46630:1 47213:1 48205:1 
1 198:1 684:1 736:1 829:1 1453:1 2327:1 2654:1 3044:1 3100:1 3375:1 3417:1 3766:1 4147:1 7040:1 8860:1 10117:1 10344:1 11408:1 12128:1 13917:1 14546:1 14961:1 17552:1 18837:1 20173:1 21284:1 22713:1 26721:1 27066:1 27374:1 27918:1 29097:1 30254:1 32926:1 33941:1 36499:1 36754:1 37117:1 39535:1 39549:1 41115:1 42151:1 42824:1 43018:1 43850:1 45033:1 45060:1 47280:1 49992:1 50895:1 
1 2430:1 3610:1 4083:1 7801:1 10136:1 10219:1 12977:1 15188:1 19720:1 20361:1 29674:1 30055:1 38057:1 39542:1 41214:1 43742:1 43919:1 46078:1 46429:1 50981:1 
1 355:1 397:1 740:1 751:1 885:1 1474:1 2131:1 3057:1 3686:1 3716:1 3728:1 4066:1 4147:1 7040:1 7079:1 8753:1 8860:1 9160:1 10282:1 11424:1 11460:1 11645:1 11725:1 12455:1 12988:1 13296:1 15117:1 16691:1 19041:1 23600:1 23985:1 24099:1 24457:1 26304:1 30239:1 30254:1 30256:1 36351:1 37535:1 38835:1 39641:1 42143:1 43317:1 45737:1 46150:1 46805:1 47111:1 47137:1 49217:1 49511:1 50895:1 
0.33965123776179862 1082:1 1378:1 1442:1 1771:1 2689:1 3684:1 3747:1 5424:1 6716:1 14292:1 15032:1 17997:1 18263:1 18691:1 24432:1 25290:1 27157:1 27240:1 27382:1 28055:1 33211:1 34711:1 38946:1 39810:1 40836:1 44758:1 46795:1 47199:1 50724:1 
1 684:1 1436:1 1445:1 1520:1 1734:1 2410:1 2484:1 3517:1 10222:1 10569:1 11657:1 16469:1 18634:1 18727:1 20369:1 20772:1 22570:1 22906:1 29790:1 29842:1 30289:1 31403:1 32525:1 37041:1 39542:1 45261:1 50273:1 51335:1 
1 1245:1 1799:1 1826:1 3073:1 3100:1 3368:1 3456:1 3515:1 3785:1 4182:1 9838:1 15457:1 15726:1 17199:1 23756:1 24131:1 30148:1 31668:1 39527:1 39848:1 40412:1 42928:1 43413:1 43742:1 44512:1 45256:1 47360:1 50092:1 51583:1 
0.3785000599888948 128:1 464:1 547:1 684:1 1646:1 2327:1 2698:1 3517:1 3562:1 4147:1 5221:1 6358:1 6996:1 7521:1 7599:1 8860:1 8886:1 9672:1 10412:1 11450:1 13779:1 15297:1 15450:1 18680:1 21359:1 21586:1 21687:1 22761:1 26247:1 26298:1 29097:1 29766:1 30255:1 32093:1 33988:1 34778:1 34785:1 36032:1 37333:1 37335:1 38218:1 38572:1 38776:1 38855:1 40721:1 41220:1 42052:1 43966:1 45261:1 45266:1 45784:1 46301:1 46640:1 49101:1 49690:1 49776:1 49790:1 50550:1 50895:1 51196:1 51524:1 
1 411:1 1795:1 2484:1 3044:1 3114:1 3517:1 9266:1 10272:1 13917:1 14961:1 20780:1 23711:1 28044:1 30554:1 31295:1 31403:1 32525:1 36499:1 39546:1 40243:1 44516:1 45261:1 
0.39578292264129339 40:1 275:1 700:1 981:1 1504:1 1560:1 1985:1 2484:1 3555:1 5513:1 8860:1 10201:1 11415:1 13552:1 14961:1 15260:1 19200:1 19741:1 20117:1 25263:1 25664:1 29204:1 31403:1 32537:1 33390:1 38572:1 46628:1 50543:1 
1 450:1 547:1 740:1 958:1 1443:1 1646:1 2779:1 2917:1 7044:1 9554:1 10412:1 11428:1 11645:1 13057:1 14546:1 15184:1 18697:1 21586:1 21691:1 25901:1 28570:1 30254:1 30288:1 31175:1 31285:1 33327:1 33494:1 33577:1 35305:1 37738:1 38985:1 40566:1 49690:1 50577:1 51046:1 
1 387:1 540:1 821:1 1428:1 2491:1 3044:1 3376:1 3517:1 4083:1 9077:1 10211:1 10251:1 10427:1 18568:1 20247:1 20640:1 21790:1 22469:1 23699:1 26778:1 28028:1 31172:1 31463:1 33677:1 33781:1 34031:1 35527:1 37124:1 37924:1 39541:1 39556:1 39838:1 42699:1 43039:1 43353:1 44295:1 45261:1 51673:1 
1 698:1 821:1 1337:1 1434:1 1446:1 1782:1 1826:1 2281:1 2735:1 3019:1 3751:1 3890:1 5009:1 6442:1 7102:1 7419:1 7762:1 10026:1 11385:1 11387:1 14598:1 14625:1 15188:1 15726:1 16206:1 17913:1 18610:1 18741:1 20012:1 23334:1 23767:1 23898:1 24131:1 27144:1 28592:1 30876:1 31037:1 31756:1 33911:1 35062:1 36027:1 36226:1 36367:1 38057:1 39308:1 39527:1 39848:1 40819:1 41643:1 43742:1 47217:1 48255:1 
1 702:1 840:1 1000:1 1350:1 1372:1 1489:1 1777:1 2220:1 3100:1 3111:1 3517:1 3751:1 3763:1 6789:1 10117:1 11460:1 11660:1 12183:1 13210:1 13881:1 14145:1 14719:1 17729:1 18072:1 18221:1 18376:1 19125:1 19363:1 22673:1 22733:1 23512:1 23526:1 23595:1 23800:1 27068:1 27906:1 28080:1 29274:1 29430:1 30289:1 30748:1 31923:1 32100:1 33896:1 35008:1 36285:1 40214:1 43779:1 44277:1 45261:1 45306:1 47217:1 47269:1 48204:1 49113:1 49311:1 51335:1 
1 171:1 179:1 194:1 235:1 368:1 821:1 831:1 1076:1 1225:1 1771:1 2307:1 2327:1 2343:1 2447:1 3215:1 3610:1 3888:1 6771:1 6883:1 7071:1 7538:1 8922:1 10182:1 12138:1 13652:1 13822:1 14673:1 14713:1 15045:1 15102:1 15203:1 15648:1 16919:1 19973:1 20859:1 23157:1 24344:1 24454:1 25146:1 28800:1 28848:1 28871:1 29100:1 29344:1 29536:1 30497:1 30548:1 31403:1 31602:1 31874:1 32525:1 32992:1 33489:1 33540:1 34046:1 37088:1 37178:1 37435:1 37480:1 37581:1 37757:1 38057:1 38137:1 38450:1 39527:1 39539:1 40996:1 41115:1 41135:1 42094:1 42827:1 43043:1 43060:1 43082:1 46423:1 48231:1 
1 148:1 503:1 547:1 684:1 776:1 1771:1 2466:1 2798:1 2878:1 3044:1 3507:1 3635:1 3646:1 5708:1 6531:1 6967:1 7720:1 8605:1 9911:1 10117:1 10309:1 10365:1 10412:1 11391:1 11422:1 11866:1 13066:1 13914:1 14631:1 14696:1 14910:1 15086:1 15102:1 17850:1 21046:1 21419:1 21693:1 22221:1 22345:1 24254:1 26247:1 28479:1 28810:1 30955:1 31285:1 35503:1 35973:1 36544:1 36773:1 37333:1 37436:1 38865:1 39551:1 40112:1 40243:1 41041:1 41894:1 42147:1 45193:1 46609:1 47328:1 49219:1 50003:1 50587:1 51452:1 
1 35:1 367:1 740:1 868:1 1076:1 1873:1 1913:1 2481:1 3922:1 5718:1 8905:1 10487:1 10557:1 11645:1 13008:1 15203:1 15462:1 22388:1 24832:1 25839:1 38139:1 39527:1 39800:1 40836:1 41029:1 42007:1 48416:1 
1 40:1 442:1 684:1 1445:1 1562:1 1826:1 2296:1 2491:1 3738:1 4131:1 5506:1 8764:1 9487:1 10209:1 13431:1 13917:1 18085:1 18727:1 19652:1 19755:1 20226:1 24131:1 27667:1 30968:1 31285:1 31460:1 33561:1 34217:1 34896:1 38473:1 39527:1 39541:1 40819:1 45368:1 50606:1 
1 359:1 658:1 919:1 1106:1 1753:1 1771:1 1826:1 2669:1 3161:1 3256:1 3492:1 3558:1 3635:1 3709:1 3751:1 3983:1 4001:1 7163:1 7761:1 7858:1 8797:1 10175:1 10427:1 11133:1 11138:1 11408:1 12618:1 13978:1 14077:1 14630:1 15534:1 15714:1 15717:1 16359:1 21791:1 22144:1 23070:1 24131:1 24150:1 25150:1 26515:1 26536:1 26841:1 27023:1 31280:1 31345:1 33146:1 33896:1 34243:1 36285:1 37018:1 39527:1 39556:1 39848:1 40546:1 40815:1 41026:1 41422:1 41558:1 43669:1 43719:1 44515:1 45755:1 46961:1 47217:1 47803:1 48559:1 48728:1 48849:1 50102:1 50482:1 51681:1 
0.50098667074308367 40:1 397:1 408:1 572:1 1649:1 1906:1 3044:1 3531:1 5513:1 8860:1 9160:1 9254:1 10236:1 10515:1 10674:1 15133:1 15212:1 15726:1 20307:1 21625:1 22488:1 22494:1 24930:1 25417:1 25418:1 27563:1 31797:1 32237:1 32562:1 33098:1 33711:1 37616:1 39544:1 42159:1 43742:1 45403:1 49435:1 
1 740:1 1435:1 1485:1 1823:1 2698:1 3262:1 3922:1 5096:1 6996:1 7521:1 10304:1 11645:1 12130:1 13665:1 15542:1 17464:1 18627:1 19079:1 20808:1 21014:1 22400:1 22713:1 24237:1 25045:1 26298:1 29766:1 34778:1 36606:1 37051:1 37162:1 37335:1 39922:1 40212:1 40845:1 41497:1 41499:1 47824:1 48416:1 49225:1 49260:1 49456:1 49776:1 
0.36018593126035769 232:1 821:1 1047:1 1560:1 1562:1 1580:1 1731:1 1805:1 2327:1 3426:1 3474:1 3555:1 3892:1 3996:1 7052:1 7474:1 9381:1 13730:1 14244:1 14714:1 15102:1 15838:1 17147:1 18570:1 19734:1 19755:1 20021:1 22892:1 23499:1 24344:1 24403:1 26679:1 27801:1 28829:1 28887:1 29097:1 29100:1 29106:1 29210:1 30367:1 31877:1 34299:1 35889:1 36827:1 37443:1 39357:1 39487:1 42094:1 42694:1 42992:1 43130:1 43905:1 44679:1 48278:1 50738:1 
1 740:1 1017:1 1430:1 1800:1 1826:1 2698:1 2795:1 3149:1 3517:1 3729:1 4026:1 6712:1 7394:1 10385:1 11645:1 14318:1 15118:1 18577:1 23770:1 23815:1 24131:1 24211:1 26700:1 27346:1 29074:1 30591:1 31797:1 32257:1 33380:1 34387:1 34770:1 35477:1 35950:1 37550:1 37741:1 39527:1 39554:1 42159:1 45261:1 47125:1 47476:1 48984:1 49776:1 51560:1 
0.28031684007204949 29:1 227:1 289:1 384:1 393:1 821:1 1192:1 1411:1 1776:1 1826:1 1923:1 1972:1 2234:1 2481:1 2761:1 4006:1 4147:1 5429:1 7214:1 7474:1 8018:1 8227:1 8860:1 8886:1 9065:1 9127:1 10221:1 11460:1 15297:1 16691:1 18494:1 18578:1 20363:1 22037:1 23499:1 23600:1 24131:1 24974:1 25154:1 26370:1 28260:1 28862:1 29214:1 30256:1 31862:1 31950:1 33511:1 35204:1 36828:1 38776:1 39542:1 42864:1 46083:1 48873:1 49109:1 49209:1 50895:1 51232:1 
1 821:1 1171:1 1206:1 1434:1 1771:1 1782:1 2327:1 2481:1 2872:1 3171:1 3283:1 3328:1 3517:1 3650:1 3661:1 3684:1 3711:1 5767:1 6716:1 8088:1 9905:1 10079:1 10361:1 10493:1 11295:1 13001:1 13365:1 13591:1 14520:1 15203:1 15465:1 15495:1 16343:1 16810:1 18612:1 19303:1 20238:1 21394:1 23111:1 24461:1 25298:1 27157:1 27382:1 28261:1 29112:1 30203:1 33921:1 34603:1 36052:1 36455:1 36579:1 38135:1 39551:1 40212:1 40611:1 40868:1 41143:1 41597:1 42181:1 43145:1 43335:1 44266:1 45261:1 46633:1 46795:1 46994:1 47017:1 47080:1 49218:1 50942:1 51333:1 
1 352:1 821:1 1339:1 2018:1 3517:1 3888:1 4132:1 5996:1 8734:1 10346:1 12990:1 14713:1 14977:1 15212:1 16724:1 17204:1 17233:1 17933:1 18184:1 21304:1 22488:1 22630:1 24592:1 25505:1 26324:1 31351:1 31852:1 31872:1 35019:1 36605:1 37045:1 39275:1 42151:1 42758:1 43033:1 44775:1 45261:1 45373:1 45759:1 45984:1 48231:1 50616:1 
1 367:1 702:1 1137:1 1154:1 1446:1 1826:1 1895:1 2880:1 3456:1 5996:1 6706:1 8906:1 10081:1 10117:1 11460:1 13057:1 14187:1 14864:1 15482:1 16002:1 16196:1 18736:1 19321:1 24131:1 24890:1 27424:1 27805:1 34343:1 35585:1 36564:1 39527:1 39531:1 39535:1 39746:1 41041:1 42143:1 42516:1 42576:1 47570:1 
1 1532:1 1688:1 2323:1 3373:1 3555:1 3635:1 3645:1 6186:1 6789:1 11645:1 19191:1 19363:1 22132:1 27906:1 29060:1 33208:1 35905:1 42992:1 46600:1 50287:1 
1 464:1 1033:1 2177:1 2302:1 2536:1 3107:1 3456:1 3785:1 5141:1 5173:1 8844:1 9672:1 11458:1 13451:1 14590:1 15530:1 18346:1 18708:1 21825:1 23665:1 24383:1 24461:1 27127:1 27179:1 28786:1 29112:1 30255:1 30827:1 32308:1 33204:1 35285:1 36285:1 39211:1 40164:1 41494:1 42426:1 42502:1 43336:1 45266:1 47365:1 49170:1 49854:1 
0.31599217512100569 357:1 701:1 717:1 1430:1 1893:1 2143:1 2240:1 3635:1 3709:1 4015:1 7131:1 8192:1 8774:1 11099:1 11452:1 11538:1 13045:1 13540:1 14594:1 15203:1 15492:1 17715:1 17836:1 18577:1 19459:1 22683:1 26627:1 28284:1 30757:1 30972:1 31110:1 34387:1 38144:1 41112:1 41115:1 42822:1 45508:1 46429:1 46958:1 48920:1 49717:1 
1 335:1 684:1 825:1 1017:1 1156:1 2327:1 2816:1 2897:1 3278:1 3564:1 3704:1 3721:1 3738:1 3887:1 7097:1 7788:1 8610:1 12100:1 13441:1 13461:1 14414:1 16206:1 18224:1 18471:1 18733:1 22178:1 23618:1 29097:1 29204:1 30548:1 30846:1 35369:1 35660:1 36459:1 37004:1 39696:1 39994:1 41097:1 41582:1 42687:1 45496:1 45822:1 46898:1 47037:1 48219:1 
1 117:1 393:1 882:1 1009:1 1562:1 2419:1 2426:1 2506:1 3044:1 3161:1 3517:1 4083:1 5696:1 6233:1 6985:1 7034:1 7997:1 9127:1 10134:1 10187:1 10270:1 11143:1 12420:1 14100:1 14500:1 15212:1 18358:1 19694:1 19755:1 19870:1 20031:1 20746:1 23674:1 24471:1 26515:1 26675:1 27186:1 29910:1 30012:1 30017:1 33146:1 35779:1 36243:1 39539:1 40546:1 44501:1 45261:1 45563:1 
1 538:1 1688:1 2324:1 2430:1 3555:1 3727:1 7762:1 10207:1 11408:1 13733:1 20171:1 22132:1 22224:1 23600:1 23674:1 26679:1 29067:1 30054:1 30239:1 40819:1 47098:1 
1 334:1 736:1 1826:1 3176:1 3209:1 3635:1 4019:1 5832:1 7112:1 7419:1 8584:1 10029:1 13924:1 14223:1 18691:1 24131:1 24363:1 27623:1 30951:1 33461:1 34751:1 36226:1 38946:1 39527:1 40625:1 40935:1 41000:1 41068:1 41706:1 42316:1 46931:1 48940:1 50728:1 
0.32407536792190272 176:1 366:1 821:1 981:1 1082:1 1378:1 1788:1 1826:1 1972:1 2318:1 3517:1 3610:1 4026:1 5424:1 7202:1 7214:1 7491:1 7596:1 7908:1 8588:1 8876:1 10138:1 11633:1 13561:1 14811:1 15043:1 15111:1 16916:1 18257:1 18611:1 19713:1 19755:1 21942:1 21968:1 22015:1 22756:1 22949:1 23644:1 23853:1 24131:1 25154:1 28993:1 29036:1 30689:1 31605:1 31703:1 31862:1 33622:1 33997:1 34711:1 36039:1 37046:1 37071:1 37450:1 39527:1 39535:1 39593:1 42556:1 42864:1 45261:1 46419:1 47476:1 48984:1 51560:1 
0.4301814126221023 167:1 170:1 736:1 1442:1 1646:1 2389:1 2488:1 3022:1 3115:1 3650:1 4140:1 4147:1 6712:1 6754:1 6965:1 8866:1 10117:1 10226:1 10236:1 14938:1 15032:1 18691:1 20410:1 21586:1 22140:1 24131:1 24344:1 26701:1 27023:1 27347:1 27725:1 29534:1 29762:1 30453:1 30743:1 31438:1 33058:1 36242:1 38946:1 39350:1 39543:1 39810:1 40256:1 40836:1 41075:1 41098:1 42094:1 42473:1 42704:1 46628:1 49690:1 49717:1 50724:1 50733:1 50895:1 
1 40:1 275:1 1321:1 1539:1 1787:1 3061:1 3100:1 3517:1 5297:1 5513:1 8200:1 8860:1 9084:1 10461:1 12873:1 13285:1 13391:1 13434:1 16499:1 16729:1 17741:1 19460:1 22673:1 23625:1 24739:1 24808:1 25070:1 30467:1 38399:1 39689:1 44296:1 45261:1 45704:1 48516:1 49787:1 50977:1 
0.38527425352287392 1245:1 1799:1 1826:1 3073:1 3111:1 3368:1 3456:1 3515:1 3710:1 4179:1 8664:1 8924:1 15032:1 15457:1 15681:1 15726:1 17199:1 23756:1 24131:1 30110:1 31664:1 39527:1 39810:1 39848:1 40212:1 40373:1 42928:1 43307:1 43742:1 44512:1 45252:1 46967:1 51566:1 
1 40:1 275:1 407:1 479:1 684:1 706:1 740:1 1017:1 1082:1 1318:1 1536:1 2689:1 2841:1 3291:1 3608:1 4107:1 5424:1 5513:1 7535:1 8736:1 8860:1 9244:1 9822:1 10306:1 11492:1 11645:1 12989:1 13118:1 14175:1 14191:1 16095:1 17720:1 19419:1 22030:1 22951:1 26636:1 27081:1 27235:1 27340:1 27460:1 27657:1 28176:1 29172:1 33211:1 34711:1 35776:1 36762:1 37462:1 41630:1 44463:1 46393:1 47199:1 48836:1 49880:1 50247:1 50946:1 51716:1 
1 381:1 821:1 1422:1 2314:1 2453:1 3334:1 3456:1 3473:1 3721:1 4121:1 10074:1 10272:1 11421:1 13066:1 13640:1 14339:1 14528:1 15067:1 15257:1 17046:1 18249:1 18533:1 19683:1 20780:1 20783:1 21952:1 22345:1 24131:1 25261:1 25655:1 27588:1 28993:1 30283:1 30569:1 32845:1 32992:1 33248:1 36481:1 36538:1 37234:1 38539:1 39531:1 39546:1 42363:1 44655:1 47041:1 50464:1 
1 150:1 684:1 686:1 736:1 1790:1 2654:1 2777:1 3434:1 3517:1 3562:1 4147:1 5291:1 6546:1 6549:1 6794:1 7120:1 7985:1 8618:1 8860:1 10175:1 11285:1 11419:1 12841:1 14175:1 14961:1 14986:1 15041:1 16913:1 17558:1 19363:1 22144:1 22476:1 22673:1 23670:1 23849:1 24176:1 24383:1 25923:1 25952:1 27023:1 27179:1 27335:1 27950:1 30890:1 31044:1 33204:1 33511:1 33896:1 33941:1 35285:1 35818:1 36299:1 36704:1 36754:1 37048:1 39807:1 40127:1 42502:1 42556:1 42704:1 43307:1 43449:1 43952:1 43953:1 44463:1 45261:1 45797:1 46087:1 48909:1 50895:1 51418:1 
1 544:1 1445:1 2456:1 2481:1 3785:1 10209:1 10345:1 15803:1 18727:1 20226:1 21285:1 27667:1 30617:1 34217:1 36285:1 39541:1 40819:1 47365:1 49854:1 
1 150:1 289:1 740:1 909:1 930:1 1192:1 2120:1 2136:1 2214:1 2465:1 2559:1 3517:1 3781:1 3800:1 4133:1 6553:1 8227:1 9533:1 11253:1 11451:1 11645:1 12653:1 12970:1 13391:1 14102:1 14388:1 14523:1 15476:1 16693:1 20783:1 23669:1 25963:1 26360:1 26706:1 28039:1 30234:1 30876:1 30940:1 32498:1 35161:1 36538:1 39641:1 40976:1 44430:1 45261:1 46083:1 47347:1 47453:1 49455:1 50618:1 51028:1 
1 40:1 882:1 1321:1 1799:1 1826:1 2150:1 3751:1 5513:1 6716:1 7131:1 8860:1 10156:1 10315:1 12420:1 13404:1 13560:1 13932:1 14528:1 15037:1 15212:1 17741:1 17751:1 17846:1 19696:1 19843:1 21097:1 22153:1 22488:1 23760:1 24131:1 24420:1 26307:1 26688:1 27046:1 27373:1 30283:1 31110:1 31704:1 33896:1 35201:1 36235:1 36285:1 37001:1 39527:1 41006:1 41767:1 42473:1 42969:1 45563:1 47217:1 
1 170:1 171:1 366:1 684:1 1047:1 1562:1 3033:1 3103:1 3646:1 3721:1 4147:1 6757:1 6780:1 8192:1 8870:1 8871:1 8906:1 10529:1 14717:1 14994:1 15019:1 15486:1 19459:1 19755:1 22132:1 22169:1 22673:1 22986:1 23683:1 24204:1 25523:1 26778:1 27736:1 27839:1 29653:1 31046:1 31904:1 35144:1 36893:1 39463:1 40105:1 40462:1 41076:1 42496:1 43592:1 45508:1 46609:1 47030:1 47037:1 50895:1 
1 829:1 1520:1 1688:1 2005:1 3103:1 4056:1 10136:1 12124:1 13464:1 18492:1 19720:1 22132:1 22140:1 23381:1 25434:1 37068:1 40105:1 49088:1 51003:1 
1 684:1 736:1 1000:1 1115:1 1479:1 1532:1 1826:1 2143:1 2481:1 3044:1 3231:1 3635:1 3709:1 3738:1 6726:1 10185:1 10361:1 11813:1 12923:1 13867:1 14594:1 15190:1 15832:1 17046:1 19060:1 19358:1 20008:1 21394:1 22673:1 23111:1 23277:1 23298:1 23618:1 24131:1 25819:1 26556:1 26633:1 26753:1 27459:1 28173:1 29429:1 30972:1 33849:1 35004:1 35699:1 37789:1 38064:1 38950:1 39527:1 39539:1 39551:1 39656:1 39800:1 40836:1 41273:1 45185:1 45657:1 46958:1 47080:1 47085:1 47381:1 49492:1 50016:1 50740:1 
0.63222513770624289 61:1 821:1 1281:1 1562:1 1673:1 1782:1 1858:1 1966:1 1977:1 2407:1 3517:1 3620:1 3706:1 5708:1 6015:1 7890:1 10175:1 10329:1 13601:1 13620:1 13825:1 14905:1 15281:1 16171:1 17203:1 17289:1 17406:1 19755:1 20190:1 20419:1 20511:1 20598:1 21198:1 21776:1 22472:1 22492:1 23298:1 24131:1 24667:1 25100:1 25198:1 26736:1 27161:1 29835:1 30548:1 32034:1 32950:1 33203:1 35886:1 38689:1 39539:1 39800:1 42392:1 43675:1 44700:1 45261:1 46482:1 46925:1 47189:1 48178:1 48425:1 51097:1 51250:1 51566:1 
1 1156:1 1348:1 1646:1 2047:1 2056:1 2327:1 3100:1 7186:1 10134:1 13901:1 14524:1 15230:1 16209:1 17425:1 17980:1 19696:1 21586:1 24131:1 25687:1 25770:1 27433:1 29097:1 30239:1 32103:1 33671:1 36498:1 38322:1 39535:1 41564:1 43282:1 48256:1 49690:1 50213:1 51283:1 
0.32984207559884987 43:1 821:1 1734:1 1782:1 3044:1 3111:1 3278:1 3356:1 3610:1 4006:1 4147:1 5544:1 5708:1 7026:1 8849:1 8874:1 8905:1 9051:1 10088:1 10206:1 10306:1 10366:1 12858:1 14673:1 14898:1 14923:1 15087:1 15462:1 19382:1 20145:1 20803:1 21431:1 21613:1 22907:1 26222:1 26629:1 30157:1 31602:1 36123:1 37345:1 38188:1 39531:1 39541:1 39551:1 39802:1 40212:1 40836:1 41041:1 41585:1 42143:1 42811:1 46412:1 47434:1 48873:1 49956:1 50731:1 50755:1 50895:1 
1 658:1 740:1 1379:1 1440:1 1496:1 1674:1 1745:1 2465:1 2481:1 3785:1 3798:1 8227:1 11125:1 11645:1 14543:1 18078:1 18273:1 18680:1 19181:1 19462:1 21782:1 22708:1 22988:1 24591:1 30409:1 30940:1 32189:1 36367:1 38360:1 38855:1 42115:1 45982:1 46083:1 47365:1 47376:1 47438:1 48973:1 49799:1 49859:1 49969:1 50157:1 
1 42:1 464:1 821:1 835:1 1562:1 1966:1 2484:1 3610:1 5537:1 7766:1 9024:1 9672:1 11450:1 12165:1 13597:1 15118:1 15453:1 18733:1 19755:1 20334:1 25100:1 26357:1 29155:1 30255:1 30485:1 31403:1 32525:1 37543:1 37818:1 38568:1 39696:1 40134:1 40752:1 40863:1 45266:1 46424:1 
1 176:1 802:1 989:1 1219:1 1286:1 1771:1 1883:1 2341:1 3111:1 3215:1 4020:1 5777:1 9480:1 11408:1 11995:1 16887:1 17430:1 18724:1 23352:1 23665:1 24859:1 26026:1 27127:1 27379:1 29324:1 30829:1 31343:1 31710:1 32992:1 33123:1 33592:1 38382:1 39494:1 40212:1 41075:1 41115:1 42473:1 42827:1 44027:1 47089:1 48953:1 
1 821:1 1239:1 1731:1 1826:1 1873:1 1902:1 2007:1 3044:1 3047:1 3062:1 3517:1 3711:1 3730:1 5715:1 6600:1 10401:1 10701:1 11422:1 11838:1 13634:1 15092:1 15392:1 17035:1 19352:1 21630:1 22132:1 22892:1 23600:1 24131:1 24511:1 24832:1 24904:1 25441:1 27023:1 27663:1 30254:1 30309:1 34170:1 34519:1 37381:1 39024:1 39527:1 39554:1 39569:1 39707:1 40030:1 43679:1 43704:1 45261:1 46991:1 47140:1 48222:1 48425:1 50100:1 51336:1 
1 868:1 1058:1 1446:1 1562:1 2405:1 3044:1 3721:1 5937:1 10081:1 10226:1 14171:1 15362:1 15657:1 16527:1 18733:1 19317:1 19765:1 20415:1 29831:1 30515:1 39527:1 39531:1 39543:1 39696:1 43145:1 47037:1 51064:1 
1 117:1 1646:1 2264:1 3103:1 6233:1 13493:1 18381:1 19872:1 21586:1 22132:1 28039:1 28419:1 40105:1 44440:1 49690:1 
1 176:1 2955:1 3022:1 3232:1 6965:1 10306:1 18435:1 22739:1 29367:1 29534:1 30968:1 31312:1 33942:1 36762:1 38789:1 39350:1 41075:1 41286:1 42481:1 45369:1 49226:1 
1 356:1 684:1 1017:1 1176:1 1560:1 1826:1 2431:1 2484:1 3525:1 3635:1 3641:1 3751:1 5996:1 5999:1 6689:1 6780:1 7908:1 8579:1 8765:1 10081:1 10117:1 13441:1 14059:1 15067:1 15177:1 16408:1 17115:1 18227:1 19321:1 19737:1 21911:1 23709:1 23848:1 24131:1 24256:1 24457:1 25274:1 26417:1 27171:1 27843:1 29112:1 29997:1 30066:1 31243:1 31403:1 32525:1 32888:1 33471:1 33896:1 34663:1 36285:1 37236:1 38004:1 38057:1 39527:1 39531:1 39535:1 40615:1 41083:1 42009:1 42076:1 42556:1 42576:1 43314:1 45361:1 46584:1 47217:1 48401:1 
1 194:1 398:1 791:1 837:1 943:1 995:1 2106:1 2150:1 2456:1 3456:1 3517:1 3719:1 3724:1 3785:1 5700:1 8141:1 8628:1 8865:1 9178:1 10175:1 10315:1 12167:1 12827:1 13758:1 13914:1 14922:1 15876:1 16160:1 21097:1 22153:1 22548:1 22653:1 23063:1 24252:1 24424:1 26142:1 26687:1 30629:1 31347:1 31796:1 35889:1 36109:1 36535:1 38748:1 40996:1 42111:1 42473:1 42992:1 44885:1 45261:1 46289:1 47029:1 47078:1 47366:1 48815:1 49866:1 50582:1 50895:1 
1 701:1 1023:1 1652:1 1893:1 2296:1 3605:1 10136:1 11452:1 14397:1 15492:1 19720:1 21650:1 23857:1 24239:1 29094:1 33677:1 40234:1 40869:1 41112:1 46381:1 50257:1 
1 171:1 275:1 412:1 1406:1 3111:1 3610:1 3785:1 6771:1 9273:1 11460:1 15272:1 18448:1 23674:1 28312:1 29831:1 30256:1 36285:1 38635:1 40219:1 42143:1 43317:1 46432:1 47356:1 47365:1 49694:1 49854:1 50085:1 51062:1 
1 150:1 821:1 829:1 1782:1 2389:1 2431:1 3180:1 6549:1 6716:1 7757:1 7908:1 10299:1 12131:1 14103:1 14163:1 14171:1 20985:1 21650:1 22418:1 22423:1 22653:1 23848:1 24460:1 25506:1 25952:1 26357:1 26715:1 27061:1 27247:1 27374:1 29764:1 29991:1 30066:1 30548:1 31295:1 33471:1 35107:1 37178:1 40656:1 40996:1 42415:1 42556:1 43334:1 43449:1 44463:1 49754:1 50263:1 
1 117:1 932:1 981:1 1303:1 1316:1 1691:1 1826:1 2240:1 3100:1 3209:1 3682:1 3781:1 3979:1 4059:1 5832:1 6238:1 6260:1 7084:1 8915:1 9078:1 10117:1 11838:1 12673:1 12872:1 13562:1 13828:1 14519:1 15570:1 17557:1 17702:1 18834:1 18966:1 19720:1 19893:1 20159:1 20783:1 22132:1 22140:1 22208:1 22511:1 22673:1 22807:1 23329:1 24131:1 26430:1 27023:1 27075:1 28283:1 30309:1 30743:1 36538:1 38428:1 39527:1 41000:1 41075:1 41706:1 42056:1 42476:1 42704:1 44752:1 45303:1 46777:1 47347:1 48712:1 49119:1 49455:1 49698:1 51457:1 51662:1 
1 52:1 1826:1 1981:1 2296:1 2343:1 2544:1 3044:1 3115:1 3333:1 5608:1 6419:1 7034:1 7420:1 9553:1 10180:1 10236:1 12130:1 19341:1 19952:1 21522:1 23255:1 24131:1 24237:1 24799:1 26302:1 28117:1 29343:1 30037:1 32197:1 32363:1 33286:1 33474:1 36237:1 37162:1 39527:1 39544:1 40253:1 40553:1 40844:1 42345:1 45993:1 47409:1 48977:1 49035:1 49260:1 49477:1 50457:1 51402:1 
1 821:1 1451:1 1562:1 1700:1 2047:1 3517:1 3826:1 6723:1 14265:1 16196:1 17232:1 18807:1 19755:1 22431:1 22551:1 25675:1 27428:1 27657:1 27834:1 30702:1 33537:1 34493:1 35107:1 40399:1 40656:1 45261:1 45303:1 47771:1 
0.65757837756309201 61:1 194:1 275:1 640:1 1220:1 1434:1 1435:1 1562:1 1585:1 1782:1 3103:1 3517:1 3620:1 3688:1 3747:1 3763:1 5708:1 6746:1 7246:1 7528:1 8446:1 10074:1 10308:1 13797:1 14520:1 15547:1 16889:1 17811:1 18600:1 18621:1 19755:1 20085:1 21045:1 22132:1 22469:1 22917:1 24507:1 25124:1 26902:1 27228:1 27657:1 30203:1 32130:1 33182:1 33209:1 35857:1 36490:1 40105:1 41718:1 41887:1 43682:1 44275:1 45261:1 46482:1 46813:1 46824:1 47199:1 47269:1 48269:1 48425:1 48936:1 
0.42034030890468149 791:1 821:1 1076:1 1233:1 1437:1 1826:1 3044:1 3382:1 3650:1 3738:1 10209:1 10274:1 13917:1 13943:1 15203:1 16972:1 18298:1 18653:1 20221:1 20814:1 22725:1 23352:1 24131:1 24454:1 24662:1 25272:1 27067:1 27374:1 27604:1 32992:1 34046:1 34228:1 36500:1 37178:1 37815:1 37818:1 38057:1 38142:1 39044:1 39527:1 39541:1 39546:1 39736:1 40752:1 40832:1 40921:1 41068:1 43116:1 46646:1 47089:1 51613:1 
1 275:1 353:1 658:1 684:1 1391:1 2447:1 3044:1 3492:1 3550:1 3635:1 3704:1 4006:1 8746:1 10361:1 10374:1 11125:1 12671:1 13149:1 15190:1 18353:1 21394:1 21490:1 22157:1 22961:1 23089:1 23111:1 24381:1 27082:1 30489:1 30566:1 37548:1 38064:1 39551:1 39656:1 42009:1 42473:1 45646:1 46889:1 47080:1 48445:1 48873:1 51646:1 
1 201:1 658:1 1305:1 2465:1 2725:1 3044:1 3063:1 3803:1 5697:1 5939:1 7084:1 10081:1 10151:1 11125:1 11897:1 13260:1 13396:1 13917:1 15184:1 16160:1 16542:1 16761:1 17009:1 17569:1 17731:1 17855:1 19317:1 19822:1 26657:1 30757:1 30940:1 34985:1 36329:1 37840:1 39531:1 39726:1 47466:1 51430:1 
1 367:1 684:1 1000:1 1231:1 1461:1 1826:1 2513:1 3321:1 3620:1 3635:1 3724:1 7866:1 8101:1 8893:1 9240:1 10130:1 12809:1 13595:1 13733:1 13822:1 13831:1 13863:1 14524:1 15219:1 15355:1 16964:1 18934:1 19643:1 20315:1 22059:1 22132:1 22208:1 22488:1 22954:1 23379:1 24131:1 27023:1 27534:1 28842:1 30239:1 30485:1 31996:1 36055:1 38219:1 39527:1 39535:1 42056:1 42073:1 44397:1 44516:1 46482:1 47068:1 
1 840:1 2465:1 3555:1 4083:1 10569:1 12186:1 30940:1 38973:1 50936:1 
1 167:1 752:1 912:1 1125:1 1214:1 1411:1 1646:1 1688:1 1906:1 1923:1 2308:1 3650:1 6712:1 11734:1 12587:1 15726:1 15934:1 16872:1 18494:1 21586:1 22132:1 22673:1 23849:1 24194:1 24930:1 24975:1 26033:1 26701:1 27347:1 28862:1 30743:1 31110:1 31952:1 32589:1 33511:1 33542:1 40234:1 40346:1 40869:1 43742:1 44427:1 45893:1 46628:1 47056:1 49690:1 49740:1 
0.2864041240969426 56:1 397:1 1082:1 1439:1 1479:1 1691:1 1826:1 2062:1 2327:1 3044:1 3517:1 3729:1 5643:1 7404:1 7640:1 9160:1 9762:1 10117:1 10359:1 11500:1 13728:1 14107:1 16215:1 18668:1 19057:1 21373:1 22140:1 22208:1 24131:1 24236:1 25822:1 26778:1 27351:1 29097:1 30261:1 38467:1 39038:1 39527:1 39551:1 39740:1 40819:1 45261:1 45267:1 46830:1 47126:1 47350:1 48185:1 49555:1 51563:1 
0.46574291785760263 171:1 464:1 700:1 1718:1 2131:1 2652:1 2955:1 3517:1 3597:1 3610:1 6771:1 7040:1 7766:1 8781:1 9672:1 10180:1 10324:1 10350:1 11385:1 11408:1 11438:1 11932:1 13065:1 13689:1 14590:1 14969:1 14981:1 15188:1 15348:1 16014:1 16231:1 18824:1 19955:1 21154:1 21345:1 21702:1 22345:1 22782:1 26302:1 30255:1 31992:1 33904:1 36285:1 36334:1 36481:1 36520:1 36667:1 38057:1 38789:1 39458:1 39539:1 39549:1 39863:1 40150:1 40813:1 40863:1 43019:1 43160:1 45261:1 45401:1 46067:1 46329:1 46415:1 46416:1 46429:1 47594:1 49226:1 50636:1 
1 172:1 322:1 697:1 868:1 1446:1 1562:1 1776:1 1985:1 2324:1 2368:1 2414:1 2456:1 3149:1 3216:1 3721:1 5638:1 6784:1 8489:1 10557:1 11362:1 13917:1 15803:1 18734:1 19755:1 22173:1 23499:1 23674:1 25263:1 25839:1 28862:1 29067:1 29214:1 29632:1 29852:1 30617:1 37003:1 39527:1 39726:1 41134:1 43030:1 43669:1 47037:1 51681:1 
0.61978400604742689 740:1 1303:1 1520:1 2308:1 2590:1 3124:1 3933:1 7246:1 11645:1 15082:1 15212:1 17563:1 20438:1 22488:1 24783:1 25469:1 28872:1 32127:1 32954:1 37316:1 40322:1 48420:1 48490:1 48999:1 
0.46477997026744011 353:1 1200:1 1286:1 1406:1 2131:1 2322:1 2559:1 2593:1 2795:1 3413:1 3517:1 5996:1 7055:1 7454:1 8737:1 9562:1 10081:1 11113:1 12460:1 12503:1 13046:1 13901:1 15212:1 16762:1 17430:1 18348:1 18448:1 19321:1 22132:1 22488:1 23265:1 24082:1 24131:1 24137:1 26302:1 26484:1 26687:1 27023:1 29052:1 29831:1 30393:1 32501:1 32652:1 33059:1 35473:1 37658:1 38307:1 39527:1 39531:1 43145:1 43802:1 45261:1 46242:1 47117:1 48420:1 49346:1 51062:1 
1 120:1 1688:1 1906:1 2513:1 3100:1 3183:1 3215:1 3517:1 3709:1 3725:1 6259:1 14625:1 14964:1 15726:1 20148:1 22132:1 23344:1 24766:1 24930:1 26264:1 31996:1 33078:1 34389:1 35277:1 36414:1 40671:1 41124:1 42151:1 42934:1 43317:1 43742:1 45261:1 46961:1 47089:1 
1 452:1 684:1 1771:1 1826:1 1919:1 1988:1 3456:1 3556:1 3711:1 5176:1 9583:1 12589:1 12970:1 13142:1 14631:1 15403:1 15482:1 22299:1 24131:1 24964:1 25302:1 30452:1 31288:1 32945:1 35448:1 36592:1 39216:1 39527:1 40116:1 41026:1 41239:1 44405:1 45749:1 46994:1 49776:1 
1 100:1 368:1 821:1 841:1 1390:1 1437:1 1472:1 1539:1 1562:1 1734:1 1799:1 2019:1 2923:1 3103:1 3456:1 3463:1 3517:1 3661:1 3747:1 6101:1 7599:1 7985:1 8067:1 8924:1 11408:1 13365:1 13733:1 13917:1 15675:1 15726:1 16593:1 18337:1 18339:1 18653:1 18741:1 19019:1 19449:1 19755:1 20803:1 22132:1 22224:1 22907:1 23745:1 25517:1 26114:1 26656:1 26679:1 26688:1 29603:1 33170:1 34224:1 34350:1 35219:1 35394:1 37815:1 37829:1 38225:1 39848:1 40105:1 40459:1 40893:1 42143:1 42187:1 42667:1 43317:1 43742:1 44146:1 44168:1 44605:1 45261:1 46828:1 47198:1 49820:1 
1 1286:1 1434:1 1487:1 3155:1 3620:1 3994:1 5029:1 7440:1 9160:1 10529:1 12694:1 14717:1 17178:1 17430:1 18600:1 19107:1 22169:1 22411:1 25521:1 26736:1 31904:1 32789:1 35857:1 36382:1 40531:1 43444:1 43579:1 43592:1 46479:1 46820:1 47030:1 48799:1 49179:1 
0.47633773474385954 658:1 1446:1 1646:1 2795:1 3103:1 3531:1 3927:1 10175:1 10179:1 11125:1 11838:1 14012:1 15188:1 15726:1 18741:1 19950:1 21586:1 22132:1 22144:1 22249:1 24902:1 27023:1 31797:1 33083:1 35476:1 37718:1 38057:1 39539:1 39848:1 40105:1 42163:1 43742:1 45403:1 48448:1 49690:1 
1 491:1 684:1 1437:1 1771:1 1826:1 3100:1 3377:1 3456:1 3684:1 3747:1 6619:1 9875:1 16469:1 18653:1 24131:1 32730:1 33170:1 34170:1 37670:1 37809:1 39527:1 43054:1 46791:1 47198:1 50716:1 
1 686:1 1033:1 1045:1 1579:1 1734:1 1826:1 3184:1 5550:1 8762:1 9081:1 9094:1 10098:1 11287:1 12874:1 13367:1 14656:1 17486:1 19483:1 20010:1 20772:1 20803:1 22906:1 22907:1 23302:1 24131:1 31480:1 32529:1 33997:1 35472:1 37449:1 37648:1 39527:1 40682:1 
1 834:1 850:1 1335:1 1681:1 1782:1 1941:1 3111:1 3197:1 3517:1 3751:1 6289:1 6393:1 6712:1 8493:1 8521:1 8924:1 10367:1 11168:1 12160:1 12260:1 13591:1 15681:1 16067:1 17775:1 17903:1 19358:1 20238:1 21434:1 21753:1 22039:1 22395:1 23595:1 25026:1 27335:1 28675:1 29200:1 30223:1 33896:1 34061:1 35326:1 35920:1 36285:1 38241:1 38467:1 39551:1 40214:1 40675:1 40813:1 42009:1 42346:1 43310:1 45261:1 45264:1 45543:1 47217:1 47461:1 48416:1 51198:1 51309:1 
0.74394883001241419 464:1 684:1 825:1 932:1 1437:1 1560:1 1782:1 1826:1 3463:1 3517:1 5707:1 7034:1 7158:1 8882:1 9245:1 9464:1 9672:1 10206:1 10287:1 11450:1 12102:1 12674:1 13828:1 14869:1 14923:1 15212:1 15451:1 16596:1 18653:1 19014:1 19723:1 20150:1 20925:1 22132:1 23325:1 24131:1 24314:1 26302:1 27023:1 27096:1 30255:1 30951:1 31311:1 34215:1 35630:1 36122:1 36494:1 36565:1 37168:1 37815:1 39492:1 39527:1 39541:1 40731:1 40810:1 41797:1 43145:1 44221:1 44606:1 45261:1 45266:1 46757:1 51667:1 
1 381:1 738:1 1176:1 1446:1 1688:1 1738:1 2513:1 3149:1 10533:1 11640:1 13003:1 16397:1 18731:1 20607:1 21486:1 22132:1 22930:1 25553:1 28112:1 31996:1 33281:1 39642:1 48386:1 
1 167:1 176:1 479:1 958:1 1332:1 2198:1 2957:1 3022:1 3650:1 6674:1 6712:1 6965:1 8108:1 9822:1 10094:1 13057:1 15355:1 15655:1 17865:1 17885:1 19451:1 25121:1 26701:1 27347:1 27610:1 29534:1 33092:1 36762:1 38808:1 39350:1 39531:1 41075:1 42473:1 44487:1 46628:1 49325:1 49880:1 
1 40:1 110:1 544:1 834:1 1688:1 1731:1 2214:1 2513:1 3517:1 3610:1 3720:1 5501:1 5513:1 8860:1 10348:1 10361:1 11408:1 12157:1 15188:1 16155:1 21321:1 21397:1 22132:1 22224:1 22892:1 23600:1 28039:1 30239:1 31996:1 38057:1 38414:1 39551:1 44427:1 44554:1 45261:1 45724:1 46429:1 47032:1 47098:1 
1 167:1 1253:1 1397:1 1562:1 1598:1 2324:1 3149:1 3721:1 4147:1 6706:1 8885:1 9081:1 10306:1 11408:1 13066:1 15272:1 16510:1 16860:1 17227:1 18399:1 19755:1 20567:1 22345:1 22791:1 23674:1 27936:1 28314:1 29067:1 30968:1 32736:1 36246:1 38634:1 42486:1 44211:1 45563:1 47041:1 47351:1 49579:1 50113:1 50895:1 
1 738:1 868:1 1297:1 1906:1 2325:1 2562:1 2937:1 3459:1 3555:1 3564:1 3784:1 9494:1 9530:1 9732:1 10117:1 10226:1 11640:1 12913:1 15726:1 16282:1 17495:1 18675:1 20421:1 22132:1 24930:1 29077:1 30591:1 32512:1 32923:1 38407:1 38789:1 39527:1 39988:1 43742:1 44402:1 44568:1 45821:1 47188:1 47356:1 49219:1 49222:1 49690:1 
0.49549659254440837 52:1 275:1 684:1 912:1 1826:1 2027:1 2303:1 3460:1 3650:1 4187:1 5608:1 7339:1 9553:1 12588:1 13634:1 15203:1 24131:1 25588:1 28115:1 28800:1 30030:1 33286:1 34050:1 35490:1 38126:1 38135:1 38470:1 39527:1 39819:1 40553:1 40684:1 40836:1 44569:1 45303:1 45976:1 46646:1 49750:1 51613:1 
1 150:1 194:1 275:1 464:1 821:1 1562:1 1782:1 1966:1 3044:1 3111:1 3293:1 3564:1 3601:1 3707:1 3726:1 3996:1 5479:1 6132:1 6546:1 6564:1 7040:1 7390:1 7871:1 8414:1 8543:1 9672:1 10333:1 11346:1 11446:1 14175:1 15426:1 17630:1 18109:1 18653:1 19383:1 19755:1 20596:1 22667:1 23083:1 23499:1 24305:1 24605:1 25100:1 25927:1 26049:1 26701:1 26822:1 27061:1 27347:1 28862:1 29214:1 30250:1 30255:1 33172:1 34220:1 35900:1 37815:1 39549:1 39951:1 40031:1 40212:1 40393:1 40853:1 41691:1 42143:1 42601:1 45266:1 45813:1 46360:1 46817:1 46943:1 47095:1 48445:1 
1 1391:1 2296:1 2869:1 2957:1 3044:1 3517:1 3646:1 3709:1 10226:1 10374:1 13126:1 13236:1 13917:1 14641:1 15302:1 18353:1 18473:1 20410:1 20413:1 21490:1 22157:1 22961:1 23089:1 24381:1 27082:1 30462:1 30502:1 30591:1 31338:1 36426:1 38808:1 38813:1 39543:1 42473:1 45261:1 46609:1 46961:1 48445:1 49311:1 49350:1 
1 821:1 1009:1 1352:1 1390:1 1629:1 1826:1 2327:1 3646:1 3751:1 8216:1 13956:1 14018:1 14101:1 15041:1 15684:1 16729:1 18085:1 18344:1 19462:1 19654:1 21328:1 22480:1 22591:1 24131:1 24285:1 24730:1 24766:1 25942:1 26694:1 26787:1 29097:1 33911:1 36367:1 37042:1 37046:1 37151:1 39527:1 40035:1 42583:1 43033:1 43042:1 43348:1 45828:1 46609:1 47217:1 48420:1 
0.87636243390552582 361:1 821:1 1795:1 2304:1 2307:1 3111:1 3456:1 7721:1 8833:1 13914:1 14434:1 14579:1 14669:1 18434:1 23611:1 23710:1 24254:1 24305:1 28810:1 28844:1 29336:1 29337:1 30053:1 30346:1 30801:1 31272:1 33267:1 33274:1 40214:1 40254:1 41039:1 42125:1 
1 736:1 742:1 1082:1 1499:1 1788:1 2761:1 3061:1 3163:1 3315:1 3492:1 3572:1 3635:1 3719:1 6637:1 7793:1 7986:1 10175:1 10208:1 10227:1 10315:1 11661:1 12984:1 13435:1 14961:1 15466:1 16916:1 16962:1 18149:1 18259:1 19190:1 20196:1 20450:1 21097:1 22132:1 22153:1 22506:1 22721:1 23645:1 24131:1 24312:1 25956:1 26367:1 27023:1 27047:1 30554:1 30691:1 31041:1 33523:1 33994:1 35204:1 36028:1 38446:1 39539:1 39541:1 39689:1 40390:1 40567:1 40813:1 40886:1 41137:1 41762:1 42006:1 42244:1 42473:1 43080:1 43322:1 43504:1 44965:1 45889:1 47029:1 50260:1 
1 803:1 821:1 1446:1 1627:1 1782:1 1898:1 1939:1 2264:1 2590:1 2718:1 2791:1 2795:1 3111:1 3220:1 3456:1 3517:1 3661:1 4147:1 5996:1 6546:1 8886:1 10081:1 10175:1 11429:1 11998:1 13451:1 14015:1 14187:1 15053:1 15200:1 15231:1 15295:1 18348:1 18736:1 19321:1 20198:1 20438:1 21299:1 22144:1 22713:1 23595:1 24131:1 24534:1 24605:1 24899:1 25020:1 25925:1 25927:1 27023:1 27059:1 27424:1 27805:1 28419:1 30254:1 30720:1 32954:1 34208:1 34859:1 34904:1 34912:1 35432:1 35482:1 35938:1 37182:1 37814:1 38122:1 38326:1 38769:1 39527:1 39531:1 39746:1 40144:1 40214:1 40638:1 40641:1 41204:1 42576:1 42601:1 43403:1 43531:1 43854:1 43880:1 45261:1 45266:1 45304:1 45838:1 49029:1 49428:1 50360:1 50895:1 
0.33227014548278955 658:1 1082:1 1446:1 1782:1 1826:1 2240:1 2314:1 2484:1 2868:1 3044:1 3217:1 3517:1 3620:1 7757:1 10227:1 10361:1 10380:1 11125:1 11133:1 11408:1 11620:1 12984:1 13606:1 14206:1 15041:1 15331:1 18733:1 20398:1 20442:1 21391:1 21520:1 21952:1 22426:1 22480:1 22496:1 22713:1 24131:1 27524:1 28283:1 28993:1 30254:1 30968:1 31403:1 32550:1 36411:1 37051:1 39527:1 39551:1 39706:1 41156:1 43442:1 44356:1 45261:1 46479:1 47048:1 47049:1 48949:1 49694:1 
0.34172514410368571 1562:1 1630:1 1782:1 1825:1 2131:1 3373:1 5478:1 5793:1 6289:1 7088:1 8521:1 11750:1 19755:1 21343:1 23846:1 24112:1 24387:1 26304:1 30775:1 35862:1 39242:1 42556:1 42989:1 43407:1 43595:1 46057:1 47081:1 
0.60109916781412864 494:1 535:1 540:1 542:1 623:1 882:1 3728:1 3996:1 4624:1 6948:1 7603:1 9885:1 10092:1 10236:1 10271:1 10360:1 10898:1 12420:1 16222:1 18958:1 19427:1 20756:1 21381:1 22806:1 24026:1 24131:1 25421:1 29390:1 29420:1 33971:1 34362:1 34952:1 35971:1 36228:1 37151:1 37250:1 38250:1 39527:1 42487:1 42905:1 45563:1 46905:1 47114:1 50921:1 
1 742:1 821:1 2465:1 3044:1 3460:1 3686:1 3688:1 7053:1 7599:1 10361:1 11661:1 18259:1 21402:1 22721:1 24319:1 30376:1 30940:1 38225:1 39551:1 41859:1 42187:1 44569:1 46805:1 46828:1 47148:1 
1 544:1 1804:1 2563:1 3635:1 4083:1 10346:1 21304:1 23812:1 31326:1 31345:1 32514:1 45370:1 
0.85611315192713588 194:1 360:1 1076:1 1360:1 1414:1 1446:1 1534:1 1562:1 1627:1 1771:1 1826:1 2313:1 3044:1 3517:1 3738:1 3749:1 8818:1 10136:1 10180:1 10181:1 14188:1 14491:1 14977:1 15188:1 18144:1 18501:1 18733:1 19380:1 19726:1 19755:1 19961:1 19969:1 21299:1 21759:1 22445:1 22567:1 24131:1 27433:1 30548:1 32297:1 33523:1 36605:1 38057:1 39527:1 39539:1 39696:1 45261:1 47206:1 50257:1 51293:1 
1 821:1 1378:1 1674:1 1782:1 2872:1 3062:1 3620:1 3676:1 5441:1 7695:1 9891:1 13442:1 13634:1 14138:1 14935:1 16355:1 16477:1 18233:1 18263:1 21782:1 22422:1 23846:1 24432:1 36213:1 36459:1 39707:1 39803:1 46479:1 46754:1 51119:1 
1 235:1 740:1 1024:1 2897:1 3785:1 4090:1 7531:1 10117:1 10136:1 11645:1 14414:1 19720:1 22140:1 28862:1 29214:1 36285:1 37001:1 37430:1 37442:1 47365:1 49854:1 49920:1 
1 40:1 821:1 1000:1 1458:1 1782:1 3062:1 3111:1 3746:1 3751:1 4111:1 5513:1 8860:1 10131:1 13634:1 13881:1 14015:1 14115:1 14708:1 16391:1 16479:1 16664:1 18485:1 18918:1 18974:1 19659:1 20797:1 22140:1 22808:1 23595:1 23800:1 25917:1 26850:1 27023:1 31416:1 31845:1 32100:1 32976:1 33893:1 36267:1 36819:1 39707:1 40214:1 42704:1 44133:1 45537:1 47190:1 47217:1 48201:1 50300:1 
1 231:1 821:1 1066:1 1286:1 1784:1 1972:1 2902:1 3044:1 3111:1 3149:1 3721:1 6282:1 7221:1 7446:1 10175:1 10217:1 11430:1 11593:1 13066:1 13880:1 13946:1 15030:1 15249:1 17430:1 19649:1 20293:1 20326:1 21661:1 22144:1 22235:1 22345:1 22961:1 23576:1 23694:1 23797:1 25154:1 29010:1 29951:1 31134:1 31932:1 36501:1 36952:1 37072:1 38450:1 39542:1 40220:1 43885:1 47041:1 50342:1 
1 171:1 260:1 1033:1 1323:1 1397:1 1446:1 1559:1 1731:1 3111:1 3517:1 3610:1 3926:1 6771:1 7799:1 11657:1 13914:1 14519:1 14524:1 15135:1 17129:1 17765:1 18395:1 18489:1 18733:1 19696:1 22892:1 23087:1 23674:1 24251:1 24362:1 28289:1 30239:1 30289:1 30696:1 31490:1 32101:1 32357:1 34217:1 37626:1 39696:1 40219:1 40819:1 41196:1 42306:1 42473:1 43823:1 45261:1 46424:1 48224:1 48445:1 49696:1 49790:1 51356:1 
1 822:1 1318:1 1550:1 1985:1 3265:1 3610:1 4083:1 7131:1 8860:1 10365:1 11099:1 11460:1 12077:1 13045:1 15188:1 17715:1 19588:1 21423:1 25263:1 26429:1 30256:1 31110:1 38057:1 39551:1 41525:1 46429:1 47356:1 49527:1 49694:1 
1 686:1 2005:1 2173:1 2513:1 2539:1 2777:1 3100:1 3646:1 3709:1 7516:1 9094:1 11287:1 11838:1 12874:1 13897:1 14594:1 15576:1 22132:1 22713:1 23082:1 23384:1 25434:1 25770:1 26335:1 27023:1 27092:1 27617:1 28903:1 30976:1 31996:1 32327:1 33136:1 33357:1 35281:1 36325:1 36498:1 37280:1 42143:1 46609:1 46958:1 50638:1 
1 1017:1 1649:1 1870:1 2303:1 2308:1 2405:1 2484:1 3263:1 3466:1 10169:1 13863:1 15462:1 15472:1 16736:1 19912:1 20029:1 21629:1 23628:1 25558:1 28295:1 28792:1 28862:1 29831:1 30499:1 31403:1 32535:1 40819:1 40935:1 41068:1 41508:1 43335:1 44620:1 49311:1 49861:1 50086:1 51067:1 
1 275:1 821:1 1905:1 2269:1 3103:1 3161:1 3456:1 3468:1 3730:1 5708:1 10306:1 15021:1 15077:1 15462:1 16838:1 20024:1 22132:1 24346:1 24921:1 25833:1 28479:1 28872:1 33245:1 36912:1 37285:1 39339:1 40105:1 40551:1 40819:1 42154:1 44634:1 47132:1 
1 859:1 1445:1 1562:1 1800:1 1985:1 3473:1 3576:1 6637:1 7908:1 7910:1 10390:1 12304:1 13833:1 15041:1 15114:1 18727:1 19755:1 21552:1 22480:1 22673:1 23392:1 23770:1 23848:1 24026:1 24176:1 24608:1 25263:1 25424:1 27745:1 29984:1 30066:1 31797:1 33471:1 35467:1 37046:1 37187:1 37250:1 37526:1 39554:1 40127:1 41383:1 42056:1 42159:1 42556:1 42579:1 44654:1 45932:1 46361:1 47114:1 49295:1 
0.52400797035357582 52:1 3062:1 3111:1 3517:1 3610:1 3720:1 4147:1 5610:1 6919:1 8860:1 8874:1 9563:1 10208:1 11428:1 13634:1 15041:1 15089:1 15200:1 15265:1 16407:1 20195:1 22132:1 22224:1 22562:1 22673:1 23595:1 23674:1 24068:1 27023:1 27051:1 29030:1 29224:1 35516:1 37048:1 37363:1 38006:1 38126:1 38612:1 38972:1 39707:1 40214:1 40219:1 40687:1 41007:1 41783:1 45261:1 46432:1 47032:1 47115:1 50895:1 50916:1 
