svm_type c_svc
kernel_type rbf
gamma 1.930688290375519e-05
nr_class 2
total_sv 4538
rho -0.9008369137573673
label 0 1
probA -661.9960448350173
probB 658.20413102052225
nr_sv 2383 2155
SV
1 40:1 275:1 570:1 1286:1 1378:1 1778:1 2325:1 2327:1 2554:1 2718:1 3517:1 5513:1 7574:1 8860:1 10664:1 14961:1 15079:1 17430:1 18259:1 22476:1 23529:1 23846:1 24176:1 24316:1 26033:1 29077:1 29097:1 29464:1 29473:1 32464:1 33423:1 34569:1 34905:1 35484:1 35672:1 37312:1 37854:1 37957:1 40127:1 40234:1 40869:1 41829:1 42143:1 45261:1 45893:1 45984:1 46528:1 
0.21849832583886086 40:1 629:1 752:1 1404:1 1555:1 1595:1 2476:1 4056:1 4771:1 5513:1 8860:1 10136:1 10227:1 10279:1 10944:1 11728:1 13450:1 13772:1 13917:1 18339:1 18444:1 19645:1 19720:1 20442:1 20553:1 20889:1 22673:1 24131:1 26688:1 29781:1 30968:1 31053:1 32544:1 38789:1 39535:1 49088:1 49222:1 50015:1 51002:1 
1 821:1 981:1 1610:1 1771:1 1778:1 3646:1 3888:1 5218:1 5703:1 10216:1 12745:1 13559:1 14143:1 14434:1 14697:1 14713:1 19690:1 20315:1 20674:1 22469:1 22713:1 23525:1 27046:1 27066:1 28849:1 29331:1 29412:1 31758:1 31874:1 33198:1 34304:1 34835:1 38450:1 41165:1 41661:1 42083:1 43082:1 43515:1 45633:1 46609:1 48231:1 
1 170:1 1017:1 1066:1 1303:1 2139:1 2481:1 6754:1 7243:1 8314:1 9228:1 12885:1 12970:1 13413:1 15020:1 15249:1 16882:1 17563:1 17942:1 19580:1 23626:1 26396:1 26636:1 27728:1 30474:1 32093:1 32970:1 34914:1 36897:1 38450:1 47099:1 
1 422:1 1448:1 1555:1 1826:1 1975:1 2181:1 2327:1 3100:1 3610:1 6003:1 7520:1 7873:1 8007:1 9327:1 10081:1 13881:1 14915:1 15031:1 15355:1 17133:1 18768:1 19321:1 19649:1 20785:1 21765:1 23798:1 24131:1 24344:1 24346:1 25177:1 26736:1 27176:1 29100:1 32974:1 36036:1 36046:1 36567:1 36960:1 38653:1 39527:1 39531:1 39828:1 40837:1 42094:1 42147:1 42187:1 42698:1 43523:1 45720:1 46418:1 47477:1 51422:1 51613:1 
1 40:1 176:1 793:1 821:1 1138:1 1389:1 1532:1 1562:1 1939:1 2476:1 3044:1 3378:1 3492:1 4006:1 5513:1 6775:1 7097:1 8860:1 10211:1 11945:1 15655:1 16006:1 18323:1 19362:1 19765:1 20254:1 25020:1 26304:1 27173:1 27807:1 28109:1 30720:1 30846:1 31053:1 32525:1 33204:1 35285:1 35356:1 38483:1 39541:1 43084:1 45304:1 45495:1 45885:1 47578:1 48873:1 
1 358:1 909:1 1280:1 2048:1 2106:1 2116:1 2381:1 2883:1 3100:1 3321:1 3603:1 3738:1 3996:1 7253:1 7908:1 8784:1 13652:1 13733:1 13825:1 15035:1 15441:1 17400:1 20859:1 21987:1 22208:1 23288:1 23846:1 25688:1 26142:1 26166:1 26736:1 30024:1 31285:1 31712:1 32157:1 33472:1 33734:1 33780:1 34904:1 36595:1 36981:1 38525:1 40564:1 41097:1 42056:1 42556:1 42698:1 46121:1 48714:1 50577:1 51017:1 51382:1 
1 538:1 1286:1 1895:1 2658:1 2699:1 3044:1 7774:1 10208:1 10213:1 13057:1 16770:1 17434:1 20203:1 20275:1 24149:1 24890:1 27162:1 28332:1 34053:1 34793:1 36583:1 39541:1 39826:1 40930:1 50309:1 51441:1 
1 658:1 737:1 821:1 835:1 1065:1 1330:1 1474:1 1562:1 1730:1 2767:1 2883:1 3044:1 3517:1 3707:1 3807:1 4147:1 6215:1 7757:1 8289:1 8519:1 8886:1 10344:1 11133:1 11460:1 11620:1 12165:1 12834:1 13917:1 14012:1 14265:1 14999:1 15111:1 15297:1 15445:1 16527:1 17699:1 17851:1 19039:1 19652:1 19755:1 21280:1 22469:1 22890:1 24029:1 26538:1 28331:1 34859:1 35246:1 36596:1 36764:1 37293:1 38568:1 38779:1 39549:1 40638:1 44988:1 45261:1 46482:1 46722:1 46945:1 47114:1 47501:1 49126:1 50304:1 50895:1 51232:1 51738:1 
1 167:1 2308:1 2622:1 3100:1 3682:1 3785:1 6331:1 6716:1 8777:1 10187:1 11827:1 12970:1 13628:1 20028:1 20596:1 20846:1 23606:1 26636:1 26833:1 27368:1 28862:1 30117:1 30308:1 33174:1 33481:1 36285:1 38057:1 39539:1 46779:1 47365:1 49854:1 
1 167:1 656:1 698:1 793:1 1555:1 1739:1 1782:1 2345:1 3720:1 4003:1 6712:1 7354:1 11106:1 11387:1 11408:1 11696:1 11945:1 13956:1 14625:1 14949:1 19654:1 22224:1 23408:1 23665:1 24766:1 26741:1 27349:1 27871:1 29370:1 30826:1 32525:1 34007:1 35460:1 36316:1 37103:1 41280:1 45284:1 47032:1 48857:1 
1 355:1 1033:1 1287:1 1435:1 1550:1 1691:1 2371:1 2624:1 2792:1 3057:1 3610:1 4025:1 5785:1 8756:1 10117:1 10130:1 10274:1 10306:1 11428:1 11652:1 11657:1 12970:1 13318:1 13736:1 13805:1 14495:1 15188:1 15273:1 15603:1 15846:1 16972:1 17442:1 18624:1 18727:1 19588:1 19643:1 20806:1 22208:1 22240:1 22372:1 22469:1 22767:1 22994:1 23327:1 25339:1 27046:1 29662:1 29916:1 30254:1 33489:1 33494:1 35450:1 36491:1 36536:1 36628:1 37025:1 38057:1 38645:1 39535:1 39546:1 39548:1 39641:1 40193:1 40308:1 40819:1 42463:1 45848:1 45891:1 46432:1 47432:1 48981:1 50709:1 51589:1 
1 419:1 1595:1 1826:1 3044:1 3517:1 3650:1 8805:1 9316:1 10233:1 10365:1 12358:1 20517:1 20553:1 21424:1 24131:1 32215:1 32540:1 32645:1 34124:1 39046:1 39527:1 39551:1 41470:1 41515:1 45261:1 46653:1 47360:1 48756:1 49168:1 49368:1 51638:1 
1 1286:1 2456:1 2766:1 3100:1 3216:1 3567:1 3638:1 6690:1 11652:1 13439:1 15032:1 15212:1 15860:1 17430:1 18189:1 22488:1 23224:1 24534:1 25908:1 26661:1 27190:1 28265:1 30624:1 32589:1 35241:1 35949:1 37094:1 40379:1 41134:1 42155:1 42996:1 43036:1 43854:1 45855:1 46036:1 46568:1 49249:1 
1 544:1 701:1 751:1 1268:1 1303:1 1771:1 2784:1 3209:1 3267:1 3517:1 3555:1 3613:1 3621:1 3646:1 3885:1 6345:1 7237:1 10117:1 10346:1 11436:1 11657:1 11725:1 13728:1 15146:1 15889:1 17368:1 17563:1 18471:1 21304:1 22140:1 22743:1 24099:1 29661:1 30289:1 30563:1 31345:1 33617:1 34416:1 35349:1 37765:1 38835:1 40134:1 41004:1 41534:1 41741:1 43724:1 45261:1 45373:1 45838:1 46451:1 46453:1 46489:1 46609:1 48185:1 48605:1 49511:1 49696:1 50236:1 
1 464:1 655:1 740:1 821:1 930:1 1286:1 1321:1 1454:1 1667:1 1782:1 1985:1 2037:1 3044:1 3063:1 3107:1 3191:1 3646:1 4001:1 6706:1 6967:1 7112:1 8860:1 9672:1 10339:1 11098:1 11437:1 11593:1 11645:1 12656:1 13263:1 13410:1 13917:1 15339:1 16130:1 16196:1 16656:1 17127:1 17430:1 17741:1 17909:1 18850:1 19652:1 21255:1 21750:1 22411:1 25263:1 25627:1 30255:1 30280:1 30957:1 32525:1 36719:1 39351:1 39549:1 39726:1 40164:1 40736:1 41279:1 44417:1 44455:1 45266:1 45269:1 46609:1 48841:1 50895:1 51140:1 51448:1 
1 658:1 834:1 868:1 1472:1 1520:1 2326:1 3044:1 3928:1 7599:1 7757:1 10208:1 10286:1 11133:1 12157:1 19019:1 20199:1 20923:1 22152:1 22961:1 23499:1 27082:1 28862:1 29085:1 29214:1 38214:1 38413:1 39527:1 39541:1 42009:1 46828:1 48456:1 
1 658:1 699:1 821:1 1064:1 1236:1 1446:1 1562:1 1826:1 3111:1 3258:1 3562:1 3620:1 3635:1 3709:1 3738:1 3751:1 4083:1 6324:1 7757:1 10227:1 11133:1 11406:1 13481:1 14138:1 14546:1 14594:1 14842:1 14981:1 15212:1 16184:1 17016:1 18727:1 18733:1 19755:1 20451:1 20772:1 22422:1 22488:1 22673:1 23618:1 24131:1 24457:1 30972:1 31064:1 33911:1 36367:1 36662:1 38505:1 39527:1 39543:1 39694:1 39696:1 40212:1 40215:1 41073:1 41443:1 42463:1 43307:1 45789:1 45912:1 46479:1 46958:1 47217:1 48225:1 
1 655:1 1445:1 2030:1 3044:1 3113:1 3184:1 5692:1 7127:1 7766:1 10092:1 10179:1 10361:1 11099:1 18727:1 19433:1 19947:1 20696:1 21402:1 24011:1 24268:1 24717:1 25609:1 31525:1 31834:1 34585:1 34601:1 35428:1 35855:1 39539:1 39551:1 40240:1 40251:1 40678:1 40872:1 41196:1 42536:1 43828:1 47016:1 47150:1 48238:1 49780:1 
0.82248148399781218 1771:1 1826:1 1832:1 3044:1 3293:1 5620:1 10361:1 13901:1 16762:1 21392:1 22594:1 24131:1 24196:1 26287:1 26687:1 39527:1 39551:1 40363:1 41697:1 47052:1 
1 2481:1 2792:1 3044:1 3216:1 3232:1 3650:1 3784:1 4000:1 5936:1 7079:1 7757:1 10081:1 10137:1 15188:1 15465:1 15783:1 16520:1 16558:1 17046:1 17557:1 19317:1 19746:1 22487:1 30615:1 31298:1 33919:1 35448:1 36027:1 36520:1 36598:1 38057:1 39527:1 39531:1 39535:1 40127:1 40862:1 41131:1 41286:1 43000:1 44341:1 44596:1 45368:1 46633:1 47358:1 48834:1 49750:1 
0.54736178958717052 110:1 360:1 445:1 740:1 821:1 882:1 1254:1 1446:1 1562:1 1627:1 3044:1 3610:1 3689:1 8813:1 9513:1 10175:1 10408:1 11318:1 11645:1 12420:1 13361:1 13665:1 14127:1 15027:1 15118:1 15726:1 16406:1 17236:1 17424:1 18249:1 18733:1 19755:1 20785:1 21299:1 21652:1 24131:1 26916:1 27335:1 30245:1 30605:1 36228:1 36567:1 36937:1 37550:1 39013:1 39539:1 39555:1 39709:1 40189:1 43746:1 45261:1 45266:1 45563:1 45840:1 46424:1 46831:1 48776:1 50297:1 51262:1 51279:1 
1 40:1 330:1 698:1 909:1 1017:1 1026:1 1595:1 2251:1 3057:1 3297:1 3456:1 3610:1 3646:1 5513:1 6619:1 8111:1 8549:1 8805:1 8860:1 10233:1 11387:1 12970:1 14434:1 14625:1 15086:1 20517:1 20553:1 26377:1 28357:1 29324:1 32215:1 32540:1 37340:1 39641:1 41718:1 46422:1 46609:1 49168:1 50729:1 
1 176:1 367:1 821:1 1000:1 1448:1 1826:1 2345:1 3044:1 3056:1 3612:1 3650:1 3738:1 7786:1 8610:1 8906:1 10226:1 12840:1 13870:1 13917:1 14187:1 15501:1 15681:1 18768:1 19652:1 20415:1 21932:1 23082:1 23671:1 24131:1 27431:1 27857:1 29367:1 30515:1 30896:1 33941:1 36747:1 39527:1 39543:1 39629:1 41069:1 41185:1 42073:1 42436:1 43314:1 43705:1 46450:1 46628:1 48445:1 
1 223:1 821:1 841:1 1555:1 1562:1 1972:1 2166:1 3044:1 3572:1 3666:1 6782:1 7214:1 7340:1 8396:1 8864:1 10361:1 13830:1 14129:1 14171:1 14909:1 15171:1 15714:1 18741:1 19647:1 19755:1 20556:1 21402:1 22037:1 23371:1 24457:1 25154:1 26936:1 27011:1 27498:1 27858:1 29112:1 31862:1 32578:1 34824:1 35368:1 35956:1 36922:1 37976:1 39551:1 39818:1 39848:1 40836:1 40996:1 42081:1 42864:1 43314:1 45891:1 46719:1 47148:1 48205:1 
0.064418697224974508 738:1 1177:1 1688:1 3494:1 7540:1 10306:1 11640:1 15355:1 16422:1 22132:1 28599:1 37487:1 39548:1 45093:1 
1 640:1 838:1 1826:1 1939:1 2002:1 2593:1 3720:1 10494:1 10516:1 11408:1 12169:1 15045:1 16964:1 17948:1 22166:1 22224:1 22713:1 23175:1 24131:1 24172:1 25020:1 25318:1 25411:1 25425:1 30762:1 33060:1 36050:1 37090:1 38790:1 39527:1 45307:1 47032:1 49234:1 
1 387:1 640:1 821:1 1000:1 1076:1 1355:1 1534:1 1562:1 1598:1 3044:1 3111:1 3400:1 3456:1 3661:1 3689:1 7186:1 7762:1 9077:1 9891:1 10304:1 10361:1 11429:1 12988:1 13864:1 14935:1 15032:1 15203:1 15230:1 16355:1 16477:1 18109:1 18509:1 19393:1 19755:1 20563:1 20606:1 21017:1 21299:1 21402:1 22480:1 22748:1 23569:1 24717:1 30254:1 30910:1 32130:1 32363:1 32384:1 33274:1 36213:1 38137:1 38309:1 39551:1 39641:1 39803:1 40148:1 40212:1 40836:1 40996:1 41542:1 43154:1 43551:1 45266:1 45838:1 46161:1 46838:1 47150:1 48238:1 48425:1 49809:1 51119:1 51365:1 51397:1 51753:1 
1 355:1 740:1 1017:1 1214:1 1442:1 1941:1 2624:1 3044:1 3057:1 3328:1 3782:1 8752:1 10311:1 10361:1 11408:1 11645:1 12970:1 13277:1 14524:1 15465:1 16383:1 16872:1 18691:1 21054:1 21402:1 25026:1 26536:1 30239:1 32589:1 33489:1 38944:1 39548:1 39551:1 39641:1 40212:1 40868:1 42181:1 45537:1 47148:1 47349:1 49533:1 50709:1 
0.73226901919529963 258:1 1027:1 1454:1 2048:1 3044:1 3077:1 3156:1 3213:1 3555:1 3610:1 7163:1 7751:1 7908:1 10180:1 10259:1 10361:1 11355:1 11593:1 11906:1 12986:1 13100:1 13670:1 13917:1 14171:1 14179:1 14440:1 14500:1 14915:1 15188:1 15199:1 16018:1 16646:1 17129:1 17809:1 18850:1 19652:1 19955:1 20713:1 21115:1 21402:1 22350:1 22400:1 22621:1 22697:1 23853:1 25688:1 27368:1 29299:1 29424:1 30021:1 30280:1 31353:1 31672:1 31876:1 32597:1 32814:1 33461:1 33630:1 33734:1 33780:1 34898:1 34912:1 34973:1 35441:1 36039:1 36411:1 38057:1 38117:1 39539:1 39551:1 39864:1 40451:1 40533:1 40564:1 40680:1 41074:1 41279:1 42471:1 42477:1 42556:1 44463:1 45269:1 46429:1 47148:1 47600:1 
1 702:1 1299:1 2698:1 3216:1 3517:1 4147:1 6339:1 7512:1 7757:1 8860:1 11460:1 15188:1 17522:1 20923:1 22487:1 25417:1 34777:1 36027:1 37249:1 38057:1 39527:1 41131:1 43000:1 45261:1 50895:1 
0.45307945098190039 703:1 740:1 1033:1 1782:1 2327:1 3111:1 3115:1 3321:1 3610:1 3638:1 3720:1 4059:1 10286:1 10361:1 11430:1 11476:1 11645:1 13822:1 13871:1 14969:1 15249:1 15861:1 18966:1 20923:1 21402:1 22224:1 22807:1 23595:1 23679:1 24503:1 24717:1 29097:1 30984:1 32589:1 36496:1 38450:1 39547:1 39551:1 40214:1 40267:1 42056:1 43145:1 45303:1 46043:1 46415:1 46568:1 47032:1 47150:1 48238:1 49119:1 51457:1 
1 52:1 912:1 982:1 1065:1 1479:1 1562:1 2150:1 5604:1 9533:1 10306:1 10318:1 12587:1 12626:1 12970:1 12989:1 13593:1 13730:1 14544:1 14999:1 17811:1 19059:1 19755:1 21117:1 25839:1 26636:1 26679:1 30418:1 31165:1 34896:1 35377:1 36246:1 36772:1 39527:1 39641:1 42689:1 47364:1 49745:1 49850:1 50619:1 
0.45097268896848275 275:1 407:1 1771:1 2344:1 2481:1 3210:1 3438:1 3860:1 6272:1 9247:1 10175:1 10489:1 11579:1 13001:1 17836:1 19155:1 20231:1 22144:1 22961:1 23602:1 25246:1 27125:1 27772:1 29358:1 30276:1 30757:1 33736:1 37072:1 41029:1 42007:1 43977:1 48052:1 49717:1 51717:1 
1 381:1 443:1 1730:1 2358:1 2405:1 3838:1 3890:1 4509:1 9494:1 10333:1 15188:1 15457:1 22890:1 23068:1 24131:1 29831:1 38057:1 38789:1 39527:1 47932:1 48255:1 49227:1 51067:1 
1 535:1 658:1 1730:1 1826:1 2465:1 2466:1 2481:1 3107:1 3564:1 4106:1 8667:1 9160:1 10074:1 11125:1 13233:1 15212:1 18335:1 22890:1 24131:1 26647:1 30940:1 30951:1 39527:1 39964:1 40164:1 45816:1 50243:1 
1 40:1 125:1 821:1 975:1 1437:1 1959:1 1986:1 2327:1 2465:1 3572:1 5513:1 6337:1 8860:1 8870:1 10117:1 12860:1 13418:1 13640:1 14175:1 14999:1 15160:1 17700:1 17836:1 18000:1 18653:1 20772:1 20902:1 24131:1 24388:1 25283:1 27179:1 27335:1 29097:1 30940:1 33204:1 34217:1 35285:1 36773:1 37815:1 37911:1 38982:1 39535:1 39816:1 40819:1 40836:1 42576:1 45891:1 51017:1 
0.63321102721266542 738:1 1231:1 2327:1 2840:1 3044:1 3111:1 3171:1 3610:1 7192:1 7681:1 10175:1 10235:1 10306:1 10311:1 10487:1 11640:1 11641:1 14938:1 15212:1 15284:1 16960:1 17113:1 20537:1 21054:1 22153:1 22166:1 22488:1 23595:1 29097:1 31608:1 32365:1 34606:1 35011:1 35771:1 35990:1 36241:1 38711:1 39539:1 39548:1 40214:1 40611:1 44126:1 46413:1 46434:1 47037:1 48420:1 51413:1 
1 166:1 821:1 1087:1 1337:1 1562:1 1771:1 1826:1 2157:1 2777:1 3103:1 3115:1 3356:1 3517:1 6324:1 6679:1 6701:1 7908:1 10330:1 11838:1 15212:1 15417:1 15657:1 16184:1 17911:1 19755:1 20604:1 20772:1 21210:1 22132:1 22488:1 23846:1 24131:1 24472:1 25121:1 25642:1 26786:1 27023:1 27046:1 27255:1 27405:1 27563:1 27783:1 30309:1 32555:1 32967:1 33230:1 33265:1 35287:1 38495:1 39527:1 39548:1 40105:1 40265:1 40296:1 42556:1 42811:1 43145:1 43433:1 43823:1 44139:1 45261:1 45778:1 49698:1 
1 658:1 1391:1 1451:1 1562:1 1731:1 3100:1 4083:1 11125:1 12923:1 18350:1 18814:1 19755:1 22331:1 22892:1 27036:1 35757:1 40713:1 51508:1 
1 171:1 932:1 1009:1 1332:1 1376:1 2481:1 3156:1 3709:1 5930:1 6771:1 7858:1 12673:1 12970:1 13277:1 14097:1 14503:1 14594:1 15655:1 16380:1 16469:1 17569:1 17836:1 17885:1 18244:1 22683:1 23958:1 26636:1 26650:1 30064:1 30972:1 32806:1 35878:1 40532:1 42689:1 46958:1 51661:1 
0.29107003125780706 42:1 821:1 1082:1 1327:1 1407:1 1562:1 1710:1 1966:1 2676:1 3217:1 3647:1 3650:1 5532:1 5690:1 5750:1 6063:1 6153:1 9002:1 11053:1 13618:1 13934:1 14559:1 14909:1 17775:1 17812:1 18338:1 18339:1 18454:1 18845:1 19720:1 19755:1 20488:1 22729:1 24432:1 25100:1 26672:1 26688:1 27740:1 29914:1 29930:1 30550:1 33956:1 34394:1 35255:1 35941:1 36903:1 41162:1 41227:1 43368:1 43479:1 44025:1 45051:1 46614:1 46636:1 
1 457:1 913:1 1082:1 1231:1 1637:1 2690:1 3044:1 3610:1 3646:1 3738:1 3782:1 3985:1 4066:1 5718:1 5999:1 9645:1 10216:1 10282:1 10315:1 10493:1 12596:1 12970:1 14188:1 14519:1 15204:1 15281:1 15283:1 16964:1 17113:1 19321:1 20318:1 21091:1 21449:1 24131:1 25298:1 27433:1 28885:1 31499:1 34343:1 34717:1 35258:1 36050:1 38157:1 38691:1 38706:1 39542:1 39547:1 41239:1 42576:1 44405:1 46429:1 46434:1 46609:1 47351:1 47785:1 48205:1 48373:1 48733:1 49226:1 49573:1 49861:1 
1 327:1 791:1 821:1 1151:1 1453:1 1534:1 1811:1 1826:1 3044:1 6291:1 6306:1 7034:1 7036:1 8521:1 10333:1 16183:1 18831:1 19383:1 20379:1 20513:1 24131:1 30203:1 32063:1 38223:1 39527:1 39549:1 41008:1 41790:1 42143:1 47376:1 49958:1 
1 176:1 629:1 698:1 1154:1 2310:1 2637:1 3022:1 3044:1 3398:1 4134:1 4743:1 6714:1 6724:1 6960:1 10226:1 10236:1 10315:1 10937:1 11382:1 13169:1 13263:1 14546:1 14741:1 15576:1 16196:1 18624:1 20410:1 21097:1 26929:1 27362:1 27433:1 28903:1 29504:1 30458:1 31797:1 32093:1 33647:1 35161:1 35391:1 36549:1 39350:1 39543:1 39544:1 39548:1 40134:1 42143:1 42473:1 43531:1 45838:1 50620:1 
1 359:1 654:1 960:1 1084:1 1175:1 1800:1 2624:1 3044:1 3645:1 3751:1 3968:1 5055:1 6938:1 7163:1 7574:1 8797:1 10136:1 10233:1 10306:1 10516:1 11088:1 11645:1 13080:1 13474:1 13978:1 14546:1 14574:1 15158:1 15212:1 15355:1 16385:1 17461:1 17853:1 18259:1 18633:1 19720:1 20521:1 22168:1 22488:1 22645:1 23770:1 24316:1 25150:1 25422:1 25872:1 27059:1 27276:1 28843:1 29331:1 30757:1 31347:1 31786:1 31791:1 32245:1 33198:1 33215:1 33352:1 33489:1 33896:1 35101:1 36285:1 36586:1 37032:1 37902:1 37969:1 39535:1 39543:1 39548:1 40973:1 41443:1 41829:1 42034:1 46600:1 47217:1 48225:1 48654:1 49552:1 
0.27103471749033575 61:1 210:1 337:1 366:1 821:1 958:1 1562:1 1627:1 2327:1 3044:1 3555:1 4147:1 5708:1 5722:1 6647:1 7214:1 8093:1 8165:1 8270:1 8631:1 8870:1 8876:1 10329:1 10335:1 10417:1 10532:1 11359:1 11429:1 12102:1 13063:1 13606:1 13713:1 14257:1 15005:1 15124:1 15199:1 15233:1 15284:1 18342:1 19299:1 19755:1 20403:1 21198:1 21231:1 21299:1 21729:1 22002:1 22492:1 25546:1 26736:1 26753:1 27858:1 28980:1 29097:1 30254:1 30339:1 31416:1 31862:1 32945:1 36483:1 36811:1 37582:1 38116:1 38342:1 38712:1 39549:1 39556:1 40538:1 41013:1 41864:1 42864:1 43565:1 43675:1 44077:1 44324:1 45142:1 45266:1 46482:1 48178:1 48425:1 50857:1 50895:1 
1 194:1 821:1 2138:1 2327:1 3184:1 3686:1 5581:1 7034:1 8251:1 26388:1 29097:1 35490:1 38470:1 40684:1 45303:1 46305:1 46805:1 
1 55:1 821:1 1895:1 3044:1 3610:1 3727:1 5635:1 9735:1 10207:1 10315:1 11945:1 12467:1 12989:1 13103:1 13922:1 14205:1 14969:1 15029:1 20167:1 21091:1 21574:1 23613:1 24343:1 24893:1 26636:1 27955:1 30388:1 31037:1 32525:1 36499:1 36947:1 39541:1 42087:1 42783:1 45589:1 46415:1 46418:1 47098:1 47291:1 49583:1 
1 440:1 1058:1 1331:1 1408:1 1562:1 2269:1 2923:1 3021:1 3100:1 3517:1 3686:1 5708:1 6829:1 7084:1 9476:1 10306:1 10569:1 13009:1 15355:1 17865:1 18466:1 19755:1 28479:1 30441:1 30743:1 37818:1 39337:1 39548:1 45261:1 46807:1 
1 322:1 676:1 1297:1 1813:1 3100:1 3555:1 3922:1 5638:1 8489:1 10207:1 11233:1 11408:1 13665:1 13733:1 17495:1 20171:1 22224:1 22400:1 23994:1 26679:1 36520:1 48416:1 
1 612:1 958:1 1445:1 1562:1 2304:1 2723:1 3114:1 3933:1 4291:1 9637:1 10134:1 10272:1 10311:1 10530:1 10815:1 11231:1 11415:1 12848:1 13066:1 13901:1 14946:1 14961:1 15272:1 15576:1 16403:1 18727:1 19693:1 19760:1 20775:1 21067:1 22673:1 24131:1 25530:1 27062:1 28810:1 34967:1 36228:1 36282:1 36402:1 38636:1 39546:1 39548:1 40243:1 42143:1 42167:1 44307:1 47364:1 48490:1 49850:1 
1 676:1 1445:1 1520:1 1562:1 1688:1 3517:1 4083:1 10190:1 10207:1 10253:1 10311:1 11232:1 14848:1 18727:1 19755:1 20066:1 20174:1 20670:1 21054:1 22132:1 24131:1 26734:1 34231:1 35408:1 39541:1 39544:1 39548:1 40945:1 45261:1 
1 176:1 201:1 1047:1 1489:1 1562:1 2131:1 2520:1 2567:1 2660:1 2991:1 3057:1 3105:1 3650:1 4076:1 4360:1 7096:1 7101:1 8943:1 10125:1 10306:1 10389:1 11408:1 12970:1 13057:1 14440:1 14714:1 15966:1 18727:1 19088:1 19125:1 19590:1 19755:1 21542:1 22673:1 24436:1 25424:1 26304:1 29423:1 30283:1 30830:1 30875:1 31878:1 32210:1 32601:1 34959:1 37250:1 39094:1 39535:1 39548:1 39554:1 39641:1 40117:1 43145:1 46628:1 47428:1 48501:1 49127:1 49243:1 49311:1 49696:1 50665:1 
1 21:1 736:1 1058:1 1303:1 1562:1 2131:1 3100:1 3517:1 3926:1 5390:1 6104:1 7079:1 7237:1 13493:1 17563:1 18381:1 19755:1 23082:1 26304:1 28039:1 44440:1 45261:1 48445:1 
1 176:1 802:1 1000:1 2957:1 10308:1 11995:1 13881:1 14208:1 17333:1 18940:1 21034:1 23800:1 27533:1 31340:1 31602:1 32100:1 33592:1 38816:1 39548:1 41718:1 44716:1 48206:1 49371:1 49552:1 
0.20049736785896166 40:1 464:1 547:1 825:1 979:1 1823:1 2698:1 3646:1 3890:1 5513:1 6881:1 7521:1 8860:1 9672:1 10411:1 11450:1 12110:1 14696:1 14860:1 15188:1 15453:1 16055:1 21681:1 26290:1 28767:1 28849:1 29206:1 30255:1 34778:1 36648:1 37335:1 37818:1 38057:1 39527:1 40752:1 45266:1 46609:1 48237:1 48255:1 50532:1 
1 535:1 1389:1 1826:1 2543:1 3284:1 3517:1 3635:1 4001:1 4006:1 4041:1 5744:1 8137:1 10094:1 10137:1 13449:1 15462:1 18318:1 18321:1 18960:1 19453:1 19746:1 24131:1 26226:1 26264:1 27950:1 29221:1 32350:1 39535:1 40819:1 41614:1 42701:1 44435:1 44821:1 45167:1 45261:1 48842:1 48873:1 49040:1 49581:1 51067:1 51302:1 
1 40:1 1082:1 1378:1 1407:1 2076:1 2310:1 2567:1 3044:1 3555:1 5513:1 5708:1 6706:1 8210:1 8860:1 10078:1 10318:1 11408:1 15549:1 18257:1 18463:1 19298:1 21116:1 26005:1 28900:1 30084:1 31717:1 32601:1 32725:1 39531:1 41114:1 41147:1 41767:1 42674:1 42818:1 43249:1 45397:1 45866:1 
1 1826:1 2131:1 3044:1 3500:1 3650:1 3933:1 7084:1 10175:1 10236:1 17836:1 18280:1 24131:1 24752:1 26304:1 28965:1 30757:1 32877:1 39527:1 39539:1 39544:1 45133:1 46628:1 48490:1 48645:1 
0.66016445267464641 248:1 1286:1 2371:1 3044:1 3183:1 5513:1 5540:1 5929:1 6593:1 7034:1 7389:1 8860:1 9035:1 10206:1 16192:1 16457:1 17430:1 19290:1 20152:1 21847:1 22634:1 23190:1 25525:1 26302:1 26326:1 26990:1 29661:1 34337:1 35343:1 35878:1 39541:1 40182:1 40677:1 42472:1 45839:1 
0.80922996099532241 367:1 684:1 2035:1 2419:1 2465:1 3044:1 3111:1 3377:1 3461:1 3650:1 3721:1 3780:1 3875:1 4000:1 5211:1 5690:1 8906:1 10236:1 10361:1 11422:1 15086:1 15482:1 16371:1 21402:1 22224:1 23595:1 24717:1 25620:1 26247:1 29910:1 30943:1 32410:1 34409:1 35124:1 37333:1 37838:1 39551:1 40214:1 40658:1 41026:1 43065:1 44341:1 44579:1 46628:1 47037:1 47150:1 47331:1 48140:1 48238:1 48834:1 
1 122:1 353:1 1350:1 1646:1 1790:1 1985:1 2303:1 3044:1 3100:1 3517:1 3638:1 3646:1 6298:1 6784:1 8746:1 10274:1 12672:1 13149:1 17169:1 18065:1 19363:1 20442:1 20807:1 21586:1 22624:1 23670:1 25263:1 28792:1 30890:1 30968:1 32589:1 37044:1 39546:1 41155:1 42473:1 43251:1 43440:1 44295:1 45261:1 46568:1 46609:1 49690:1 51656:1 
1 29:1 740:1 1275:1 1339:1 1646:1 1771:1 1972:1 2427:1 3100:1 3635:1 5429:1 6674:1 7179:1 7214:1 7467:1 10230:1 11334:1 11645:1 12984:1 13770:1 16670:1 17383:1 17606:1 17928:1 18170:1 20471:1 21586:1 23058:1 24076:1 25154:1 27588:1 29988:1 30022:1 31446:1 31496:1 31862:1 32841:1 33248:1 33471:1 34300:1 36292:1 36758:1 42006:1 42865:1 49690:1 50636:1 
1 412:1 1071:1 1523:1 1539:1 2253:1 2624:1 2862:1 3057:1 3638:1 3646:1 5548:1 6289:1 8186:1 8192:1 9068:1 9273:1 10207:1 10277:1 10324:1 12970:1 15133:1 16045:1 19291:1 19459:1 20167:1 20777:1 20877:1 21153:1 22153:1 26636:1 28312:1 28364:1 32238:1 32589:1 33489:1 35611:1 36063:1 36414:1 37616:1 38530:1 39546:1 39641:1 41497:1 42143:1 43145:1 43277:1 43317:1 45474:1 45523:1 46172:1 46568:1 46609:1 47005:1 48054:1 49221:1 49455:1 50085:1 50796:1 
1 322:1 1316:1 1555:1 2327:1 2803:1 3044:1 3517:1 3610:1 3979:1 4009:1 5638:1 5996:1 7084:1 7762:1 8489:1 9688:1 10081:1 10175:1 10359:1 10505:1 10573:1 11997:1 12934:1 13009:1 13852:1 14560:1 15188:1 15203:1 15769:1 17709:1 17855:1 18325:1 19321:1 19648:1 21371:1 22144:1 23493:1 25376:1 25917:1 26357:1 27023:1 29097:1 29167:1 30574:1 30757:1 32070:1 33669:1 35528:1 38057:1 38139:1 38399:1 39531:1 39551:1 39775:1 39849:1 40834:1 41029:1 42007:1 44303:1 44370:1 45261:1 45689:1 46429:1 46807:1 48711:1 48894:1 
0.37437108814637476 1061:1 2240:1 2304:1 2423:1 2590:1 2733:1 2845:1 3421:1 3610:1 3624:1 7046:1 7135:1 10271:1 10306:1 11838:1 11841:1 13901:1 14938:1 15098:1 15240:1 17155:1 17857:1 19383:1 20438:1 20757:1 22132:1 22624:1 23344:1 24131:1 25421:1 27023:1 27059:1 28284:1 28338:1 28810:1 29941:1 30309:1 30757:1 31137:1 32954:1 35043:1 35986:1 36244:1 37403:1 39527:1 39548:1 43145:1 43876:1 46422:1 46502:1 49717:1 50290:1 50411:1 
1 229:1 1082:1 1286:1 3044:1 3166:1 3221:1 3517:1 5937:1 6282:1 7406:1 8923:1 10081:1 15666:1 16527:1 17430:1 19317:1 20293:1 23030:1 23576:1 28313:1 29951:1 33951:1 35243:1 36124:1 36846:1 37079:1 39531:1 40588:1 40669:1 41223:1 43227:1 43978:1 45261:1 50098:1 51462:1 51765:1 
1 804:1 1076:1 1118:1 1771:1 1826:1 3707:1 3751:1 5996:1 6557:1 10081:1 10274:1 10311:1 12017:1 14269:1 15188:1 15212:1 15878:1 19321:1 20806:1 21054:1 22372:1 22488:1 24131:1 25985:1 27902:1 33896:1 34070:1 36285:1 37025:1 38057:1 38307:1 39527:1 39531:1 39548:1 41949:1 43145:1 44882:1 46317:1 46945:1 47217:1 
1 366:1 640:1 1378:1 1581:1 1676:1 2481:1 3044:1 8870:1 10226:1 13365:1 14996:1 16658:1 17740:1 17836:1 18263:1 20030:1 20410:1 21797:1 22683:1 23653:1 24432:1 30453:1 30750:1 36747:1 39543:1 51140:1 51724:1 
1 43:1 248:1 402:1 406:1 821:1 1057:1 1233:1 1600:1 2106:1 3044:1 3803:1 5542:1 5937:1 6692:1 9043:1 9194:1 9228:1 10081:1 10136:1 12977:1 14739:1 14877:1 14878:1 15111:1 16527:1 16975:1 19317:1 19735:1 20010:1 20580:1 23302:1 24717:1 24746:1 26142:1 26636:1 27208:1 32076:1 32917:1 35767:1 35778:1 36566:1 37217:1 39531:1 44086:1 44482:1 47470:1 48238:1 48558:1 50574:1 51466:1 
0.27445327656909768 40:1 397:1 885:1 1220:1 2047:1 3044:1 5513:1 8860:1 9160:1 10274:1 12455:1 15600:1 16889:1 20814:1 24454:1 25679:1 25776:1 26948:1 31157:1 33191:1 33575:1 36609:1 37178:1 38304:1 39546:1 45699:1 46148:1 
1 332:1 358:1 821:1 829:1 841:1 1262:1 1782:1 1830:1 3044:1 3515:1 3650:1 3661:1 6281:1 7133:1 8569:1 8757:1 8784:1 10320:1 10427:1 12131:1 13344:1 13732:1 13854:1 17206:1 17333:1 18085:1 18880:1 19648:1 21127:1 21791:1 22153:1 22194:1 23513:1 24175:1 24455:1 25373:1 29283:1 29951:1 30115:1 31037:1 31129:1 37178:1 39556:1 40105:1 42769:1 43287:1 43742:1 44817:1 45253:1 46628:1 49552:1 51686:1 
1 1562:1 1826:1 2007:1 3100:1 3517:1 3610:1 15031:1 19755:1 21770:1 23595:1 24131:1 25441:1 34310:1 36960:1 37824:1 39527:1 42187:1 45261:1 46418:1 51493:1 
0.55932662423987423 229:1 736:1 852:1 1303:1 1562:1 1652:1 1771:1 2131:1 3572:1 5832:1 7034:1 7243:1 7406:1 8923:1 10286:1 10306:1 11362:1 12271:1 14880:1 14947:1 15663:1 17563:1 19755:1 20923:1 21650:1 26302:1 27661:1 32093:1 34156:1 34299:1 35793:1 36124:1 36295:1 39548:1 39799:1 39805:1 40399:1 40836:1 41000:1 41706:1 43207:1 45461:1 45891:1 50263:1 
1 402:1 1082:1 1407:1 1580:1 1649:1 2131:1 2423:1 3110:1 3635:1 3781:1 3933:1 6210:1 7079:1 7681:1 8749:1 9194:1 10117:1 10306:1 10339:1 11253:1 11451:1 12587:1 12977:1 13223:1 14523:1 14938:1 15462:1 18461:1 19557:1 20020:1 20783:1 21252:1 21625:1 23468:1 24404:1 24746:1 26304:1 28684:1 29945:1 30050:1 30234:1 31172:1 36247:1 36538:1 39548:1 40201:1 40819:1 42701:1 44405:1 47347:1 48498:1 48558:1 49455:1 49746:1 
1 1778:1 2116:1 2413:1 2536:1 3044:1 3111:1 3517:1 4115:1 10187:1 10318:1 10333:1 10365:1 11408:1 14947:1 15052:1 20031:1 21117:1 21424:1 22475:1 23135:1 23529:1 23595:1 23674:1 23699:1 24131:1 24176:1 26166:1 26746:1 29464:1 29849:1 31172:1 31602:1 32313:1 34569:1 35145:1 35484:1 36299:1 37151:1 37854:1 37904:1 39539:1 39548:1 39549:1 39551:1 40127:1 40134:1 40214:1 42698:1 45261:1 46528:1 47374:1 49942:1 50427:1 51379:1 51587:1 
0.54692054901809961 52:1 353:1 360:1 1033:1 1084:1 2540:1 3321:1 3635:1 3638:1 3746:1 4001:1 5603:1 8739:1 8811:1 9530:1 10272:1 12970:1 13057:1 13335:1 13772:1 13792:1 13828:1 14100:1 15072:1 15355:1 15534:1 15701:1 17886:1 18734:1 18739:1 19973:1 20442:1 20778:1 22685:1 22769:1 22881:1 23329:1 25558:1 26636:1 26683:1 27073:1 28296:1 30982:1 32331:1 32589:1 32954:1 36449:1 37046:1 37262:1 39527:1 39546:1 39719:1 39811:1 41558:1 42056:1 42473:1 43481:1 43717:1 44515:1 46568:1 47189:1 48547:1 48849:1 49897:1 50102:1 50749:1 
0.46601111885111329 1225:1 1437:1 1445:1 1883:1 2625:1 3666:1 4019:1 6217:1 7223:1 9761:1 10390:1 12942:1 13601:1 13935:1 14975:1 16916:1 17158:1 17393:1 18655:1 18727:1 18772:1 19726:1 21552:1 22335:1 22773:1 24486:1 24866:1 29624:1 31942:1 33511:1 34004:1 34497:1 36567:1 37491:1 37847:1 39554:1 39916:1 40118:1 40150:1 43169:1 43551:1 44114:1 44976:1 45838:1 46161:1 46719:1 46931:1 48178:1 48940:1 49299:1 50844:1 
1 611:1 752:1 1177:1 2123:1 2223:1 3106:1 3517:1 3650:1 3693:1 4233:1 5696:1 7489:1 8350:1 10117:1 10306:1 10802:1 11726:1 15355:1 16422:1 22673:1 26222:1 28104:1 37018:1 39548:1 40141:1 43481:1 45261:1 45778:1 46628:1 46851:1 47596:1 
1 367:1 611:1 736:1 1323:1 1562:1 3111:1 3373:1 3851:1 4006:1 4221:1 4861:1 5793:1 6784:1 8893:1 10311:1 10333:1 10798:1 11750:1 13901:1 15229:1 15355:1 17765:1 19755:1 21067:1 22089:1 22959:1 23709:1 23846:1 24131:1 24387:1 35862:1 37071:1 38298:1 39548:1 39549:1 40222:1 42143:1 42556:1 42989:1 43035:1 46430:1 48010:1 48873:1 
1 289:1 366:1 821:1 2296:1 3650:1 3688:1 7552:1 7910:1 8224:1 8881:1 15190:1 24204:1 28632:1 29653:1 33330:1 37597:1 38074:1 39838:1 40462:1 42581:1 42854:1 46025:1 46628:1 46825:1 
1 436:1 658:1 821:1 2783:1 3044:1 3100:1 3610:1 3635:1 3728:1 3782:1 3803:1 5996:1 7120:1 7717:1 7757:1 9436:1 10081:1 10117:1 10365:1 11125:1 11133:1 15203:1 19321:1 21419:1 21938:1 23082:1 23323:1 23846:1 24082:1 24131:1 24387:1 27001:1 27993:1 31041:1 34180:1 35335:1 36024:1 36309:1 38153:1 38307:1 39531:1 39535:1 39551:1 40193:1 40259:1 41206:1 42556:1 43145:1 43594:1 43886:1 46429:1 47079:1 47117:1 47328:1 47351:1 47466:1 49219:1 49590:1 50543:1 51429:1 
1 367:1 821:1 2327:1 2957:1 3044:1 3530:1 4147:1 8860:1 8893:1 10361:1 10390:1 13320:1 15355:1 17005:1 17129:1 17735:1 21394:1 21552:1 22791:1 23111:1 29097:1 33645:1 37766:1 38808:1 39551:1 39554:1 42486:1 45391:1 47080:1 49297:1 49311:1 49316:1 50895:1 
0.40476187824467347 852:1 868:1 922:1 2698:1 3517:1 4147:1 7517:1 8879:1 12275:1 12637:1 15165:1 15188:1 25839:1 34213:1 34777:1 35779:1 37287:1 37815:1 37942:1 38057:1 39527:1 41135:1 43064:1 44500:1 45261:1 50895:1 
1 2313:1 2405:1 2725:1 3044:1 3105:1 3517:1 3650:1 10207:1 10401:1 13394:1 13658:1 14842:1 16826:1 17714:1 20174:1 20916:1 21630:1 26734:1 28381:1 29828:1 33856:1 34991:1 39339:1 39541:1 39554:1 40117:1 45261:1 46629:1 50098:1 50998:1 51018:1 
1 1825:1 1826:1 2157:1 2544:1 2597:1 3111:1 3564:1 3620:1 3996:1 5708:1 5822:1 8018:1 8860:1 10308:1 10329:1 12130:1 13601:1 13604:1 14903:1 15657:1 16451:1 18363:1 20382:1 21029:1 21198:1 22472:1 23631:1 24123:1 24131:1 24239:1 25936:1 26786:1 27574:1 29910:1 30521:1 32098:1 32363:1 32469:1 32727:1 33119:1 35865:1 37162:1 39410:1 39527:1 39548:1 39966:1 40134:1 40215:1 40863:1 42802:1 43145:1 43675:1 45816:1 46482:1 48178:1 51394:1 
1 176:1 281:1 454:1 701:1 821:1 1473:1 1583:1 1730:1 1782:1 2049:1 2267:1 2323:1 2534:1 3044:1 3213:1 3297:1 3517:1 3555:1 3664:1 4147:1 7681:1 8130:1 8880:1 9627:1 10306:1 10308:1 10335:1 11451:1 13784:1 15167:1 15459:1 18727:1 19025:1 20061:1 21029:1 21231:1 22153:1 22890:1 24072:1 25694:1 29060:1 32306:1 33781:1 36021:1 37953:1 38057:1 39527:1 39548:1 39549:1 40784:1 41071:1 41718:1 42444:1 44016:1 44077:1 44722:1 45261:1 46714:1 46921:1 50337:1 50895:1 
0.28170144385716656 40:1 1454:1 1649:1 3100:1 3689:1 5513:1 8860:1 10306:1 12989:1 18847:1 21625:1 41239:1 44405:1 46831:1 
1 1771:1 1787:1 1878:1 1895:1 2131:1 2467:1 2795:1 3438:1 4183:1 6320:1 7034:1 7053:1 7071:1 10315:1 11436:1 12413:1 13067:1 15035:1 15048:1 17846:1 21104:1 21936:1 22683:1 22713:1 23634:1 23711:1 23846:1 24485:1 24848:1 24890:1 26302:1 30383:1 30548:1 30558:1 30972:1 31285:1 34142:1 35482:1 36977:1 37126:1 37806:1 39548:1 40144:1 40364:1 42556:1 42590:1 43541:1 43979:1 45401:1 46000:1 51587:1 51595:1 51782:1 
1 700:1 950:1 995:1 2430:1 3044:1 3425:1 3650:1 4001:1 5690:1 7685:1 10207:1 11408:1 12970:1 13758:1 15717:1 16160:1 20177:1 22548:1 26789:1 30051:1 39541:1 43669:1 43895:1 44443:1 46628:1 48843:1 50643:1 
1 464:1 1133:1 1444:1 1555:1 1562:1 2148:1 2533:1 2567:1 2583:1 2777:1 3110:1 3456:1 3517:1 3710:1 6327:1 6920:1 7214:1 7913:1 7916:1 8844:1 9672:1 11408:1 11440:1 12858:1 13443:1 13846:1 14030:1 14590:1 14981:1 15212:1 15363:1 15985:1 16184:1 18252:1 18716:1 19648:1 19755:1 20808:1 22488:1 23462:1 24176:1 24196:1 24388:1 24601:1 24613:1 25154:1 26036:1 26363:1 26661:1 26778:1 27179:1 28633:1 29165:1 29230:1 30255:1 31862:1 32298:1 32601:1 32782:1 33204:1 35285:1 36662:1 37046:1 39347:1 39630:1 40127:1 40201:1 40366:1 42579:1 42600:1 42602:1 42639:1 42864:1 45261:1 45266:1 46004:1 46416:1 46967:1 47508:1 
1 1434:1 2472:1 3321:1 3492:1 10328:1 13766:1 17046:1 18600:1 21196:1 22610:1 31011:1 35857:1 38246:1 39548:1 42051:1 43611:1 47376:1 49959:1 
1 360:1 1082:1 1303:1 2471:1 2593:1 3044:1 3461:1 3498:1 3517:1 7079:1 8205:1 8807:1 10208:1 10306:1 14056:1 15212:1 16371:1 17557:1 20195:1 22153:1 23476:1 26383:1 27023:1 28880:1 31007:1 33057:1 39541:1 39548:1 44579:1 45112:1 45261:1 45778:1 
1 40:1 631:1 1341:1 3067:1 3890:1 4849:1 5513:1 8860:1 10306:1 10968:1 11415:1 14519:1 14977:1 15188:1 16913:1 17945:1 33896:1 36299:1 36605:1 38057:1 39548:1 39774:1 45755:1 48255:1 
1 171:1 535:1 1402:1 1771:1 2488:1 3221:1 3785:1 6780:1 7599:1 8938:1 10091:1 10306:1 11297:1 14921:1 15678:1 15926:1 18431:1 19422:1 24131:1 27839:1 29087:1 31430:1 36288:1 38210:1 38604:1 39548:1 41220:1 41908:1 43301:1 43967:1 46969:1 46999:1 47365:1 49854:1 51525:1 
1 275:1 1691:1 2126:1 2327:1 2419:1 2957:1 3044:1 3431:1 3610:1 3933:1 5708:1 6054:1 10226:1 10306:1 13934:1 15103:1 20413:1 22208:1 24131:1 24432:1 24494:1 26250:1 29087:1 29097:1 29910:1 30502:1 37456:1 38808:1 39543:1 39548:1 43598:1 43930:1 46423:1 47118:1 48505:1 49311:1 51108:1 
1 353:1 752:1 1079:1 1305:1 1439:1 2456:1 2465:1 3106:1 4147:1 8740:1 8860:1 11671:1 11696:1 11734:1 13085:1 15272:1 15771:1 15803:1 17569:1 18198:1 18668:1 18788:1 20117:1 20406:1 22775:1 22885:1 23657:1 23846:1 24194:1 25664:1 26033:1 27661:1 29204:1 30290:1 30614:1 30617:1 30780:1 30940:1 33390:1 34158:1 38467:1 38633:1 39826:1 40134:1 40234:1 40346:1 40399:1 40869:1 45270:1 45893:1 47346:1 49445:1 50895:1 
1 397:1 640:1 837:1 1225:1 1408:1 1562:1 1637:1 1771:1 2078:1 2108:1 3237:1 3650:1 3886:1 4147:1 7084:1 8860:1 9160:1 10182:1 12167:1 14188:1 14642:1 16507:1 16833:1 16919:1 17775:1 18470:1 19755:1 19973:1 21450:1 26024:1 26149:1 27433:1 28573:1 30534:1 30754:1 31345:1 32735:1 34046:1 34640:1 34896:1 35354:1 37891:1 38057:1 38144:1 38692:1 38748:1 39539:1 41114:1 41326:1 42818:1 45685:1 45726:1 46147:1 46628:1 47532:1 47789:1 48205:1 48213:1 48815:1 50681:1 50895:1 
1 738:1 1562:1 2389:1 3044:1 10207:1 10311:1 11640:1 13753:1 15032:1 15268:1 15655:1 18249:1 19765:1 20171:1 21067:1 22153:1 22491:1 24131:1 26680:1 27235:1 29762:1 30783:1 33211:1 38621:1 39527:1 39541:1 42155:1 47199:1 49719:1 
1 1627:1 1771:1 2131:1 2171:1 7100:1 19035:1 21305:1 22791:1 23020:1 23298:1 26304:1 26736:1 27074:1 30871:1 31693:1 38973:1 40775:1 45396:1 47074:1 50923:1 
1 393:1 821:1 1442:1 1782:1 2137:1 2465:1 2942:1 3044:1 3209:1 3768:1 6260:1 8108:1 8124:1 8625:1 9127:1 10361:1 17151:1 18691:1 20158:1 21394:1 23111:1 26377:1 26419:1 30940:1 38450:1 38467:1 38946:1 39551:1 40934:1 41004:1 41026:1 41738:1 44487:1 44680:1 45261:1 45707:1 47080:1 47295:1 50728:1 
1 367:1 821:1 1000:1 1286:1 1702:1 2795:1 3044:1 3103:1 3456:1 3728:1 8872:1 8893:1 10279:1 10360:1 13881:1 13946:1 14012:1 14209:1 15043:1 15355:1 16806:1 17430:1 20897:1 21382:1 22132:1 22597:1 22961:1 23800:1 23978:1 24902:1 27538:1 28109:1 31090:1 32100:1 33083:1 35476:1 37072:1 37718:1 38851:1 39462:1 39546:1 39551:1 40105:1 40807:1 45888:1 46932:1 47111:1 48206:1 49738:1 
1 684:1 1047:1 1445:1 1959:1 2047:1 2322:1 2465:1 3100:1 3171:1 3517:1 3558:1 3728:1 4026:1 10117:1 10209:1 14714:1 15702:1 16777:1 18727:1 20226:1 23222:1 23336:1 23846:1 23978:1 24131:1 24532:1 24929:1 25675:1 27102:1 27190:1 27667:1 29055:1 30681:1 30940:1 31026:1 31885:1 33533:1 34217:1 34612:1 37151:1 39535:1 39541:1 40612:1 40819:1 41115:1 42822:1 43249:1 43495:1 43840:1 45261:1 45338:1 45755:1 47111:1 47153:1 47476:1 48984:1 49901:1 51560:1 
1 357:1 389:1 804:1 821:1 1327:1 1562:1 1799:1 1966:1 2575:1 3067:1 3114:1 3247:1 3334:1 3362:1 3628:1 3738:1 6849:1 8775:1 9100:1 10306:1 12016:1 13562:1 14347:1 14696:1 14698:1 14706:1 14708:1 15177:1 17821:1 19737:1 19755:1 23030:1 23474:1 23579:1 23648:1 23760:1 24084:1 25100:1 26703:1 28567:1 28849:1 29264:1 30006:1 31716:1 31771:1 31833:1 31844:1 33397:1 34047:1 38004:1 38057:1 38075:1 38334:1 38455:1 39548:1 39783:1 39866:1 40243:1 41137:1 41382:1 41759:1 42354:1 42529:1 42696:1 42859:1 43082:1 43500:1 45118:1 45458:1 46522:1 47100:1 
1 171:1 281:1 655:1 684:1 821:1 1234:1 1316:1 1826:1 2205:1 3044:1 3157:1 3517:1 3646:1 3751:1 6771:1 7131:1 8137:1 9364:1 10209:1 11099:1 12119:1 12898:1 13112:1 15212:1 16985:1 17705:1 18989:1 20226:1 22132:1 22351:1 24131:1 24137:1 25325:1 27667:1 27692:1 31121:1 32945:1 33911:1 33913:1 34217:1 34474:1 36367:1 37001:1 37023:1 39527:1 39541:1 39800:1 40538:1 40836:1 41026:1 44823:1 44916:1 45261:1 45907:1 45911:1 46609:1 47217:1 
1 653:1 821:1 1873:1 2464:1 3531:1 4014:1 5715:1 6637:1 10569:1 11073:1 11451:1 14947:1 15476:1 22174:1 24832:1 30937:1 31797:1 36300:1 40976:1 42150:1 45403:1 48917:1 
1 52:1 686:1 821:1 840:1 1066:1 1936:1 2481:1 3210:1 3650:1 4009:1 5610:1 7425:1 7983:1 8618:1 8860:1 9571:1 11285:1 12185:1 12841:1 14188:1 15030:1 19973:1 21663:1 23347:1 23500:1 25013:1 26329:1 27320:1 27433:1 29030:1 29224:1 36952:1 38970:1 41037:1 41079:1 42085:1 42531:1 43287:1 44900:1 46628:1 48894:1 50351:1 50895:1 
1 464:1 544:1 821:1 1017:1 1235:1 1286:1 1389:1 1782:1 2344:1 2465:1 3780:1 8070:1 8730:1 9672:1 9822:1 10346:1 10350:1 12952:1 17006:1 17430:1 18327:1 21304:1 21345:1 26373:1 29358:1 30940:1 31345:1 33701:1 33744:1 34046:1 37774:1 38057:1 39549:1 44188:1 45261:1 45373:1 46067:1 47335:1 49311:1 49876:1 
1 1033:1 1359:1 1445:1 1562:1 2274:1 2637:1 3057:1 3431:1 3738:1 7420:1 10207:1 10224:1 12970:1 15576:1 18136:1 18727:1 19755:1 19760:1 20177:1 20388:1 21711:1 26778:1 28514:1 30037:1 31797:1 33647:1 36239:1 39543:1 39641:1 42143:1 43927:1 50695:1 
1 56:1 257:1 799:1 950:1 1533:1 3650:1 5649:1 6876:1 7744:1 9777:1 11968:1 12970:1 19371:1 25908:1 28765:1 32808:1 33118:1 33919:1 36520:1 42143:1 46633:1 48638:1 
1 407:1 821:1 1555:1 3231:1 9244:1 13913:1 19651:1 22083:1 22958:1 24229:1 27081:1 28862:1 29214:1 41272:1 45165:1 
1 170:1 684:1 821:1 1027:1 2023:1 2327:1 2884:1 3044:1 3110:1 3334:1 3635:1 6756:1 7097:1 10136:1 10227:1 11408:1 14440:1 15168:1 15633:1 16206:1 19708:1 19737:1 20444:1 20657:1 22224:1 22964:1 25557:1 27734:1 28284:1 29097:1 29420:1 30846:1 30990:1 34007:1 34951:1 35073:1 36567:1 36610:1 37968:1 39535:1 39543:1 40201:1 42365:1 49714:1 
1 437:1 1473:1 2198:1 2957:1 4076:1 6674:1 9445:1 11827:1 12970:1 14574:1 15681:1 17714:1 19031:1 25121:1 26636:1 27610:1 30308:1 30747:1 33092:1 36540:1 38808:1 42143:1 43317:1 46999:1 49311:1 49698:1 
0.3070171216306094 201:1 882:1 1194:1 1303:1 2106:1 2301:1 2590:1 3044:1 3149:1 7096:1 7258:1 10367:1 12420:1 13221:1 16710:1 17563:1 18830:1 20438:1 21434:1 24131:1 26142:1 28779:1 29204:1 30841:1 31285:1 32194:1 32954:1 36228:1 39527:1 39551:1 45563:1 47461:1 50577:1 51310:1 
1 355:1 393:1 740:1 821:1 1674:1 2532:1 2581:1 2923:1 3100:1 3220:1 3517:1 6078:1 8754:1 9127:1 10136:1 11651:1 13299:1 14175:1 14546:1 16729:1 16750:1 18020:1 18189:1 19720:1 21352:1 21782:1 22424:1 22448:1 24730:1 26252:1 27335:1 32297:1 32755:1 34328:1 37826:1 41206:1 42408:1 43886:1 45261:1 46151:1 48417:1 50257:1 50543:1 
0.33124459185555588 167:1 176:1 821:1 1008:1 1391:1 1636:1 2030:1 2076:1 2511:1 3065:1 3517:1 3650:1 6712:1 7786:1 10175:1 10306:1 14054:1 14267:1 18353:1 21444:1 22153:1 22961:1 23569:1 24131:1 25606:1 26004:1 26358:1 26701:1 27082:1 27123:1 27347:1 27885:1 31345:1 31481:1 31980:1 34027:1 34861:1 37889:1 39539:1 39752:1 41083:1 42576:1 45084:1 45261:1 45373:1 46628:1 47705:1 
0.32821724530135121 502:1 684:1 1321:1 2131:1 2321:1 2761:1 2778:1 3149:1 3556:1 3707:1 5264:1 7034:1 7206:1 9905:1 10311:1 11926:1 13405:1 14286:1 14395:1 17741:1 17862:1 21067:1 23095:1 23162:1 23683:1 24131:1 24432:1 26302:1 26311:1 27993:1 29047:1 29067:1 29416:1 30322:1 31037:1 31041:1 33416:1 34892:1 35201:1 35299:1 39222:1 39548:1 39763:1 40833:1 42143:1 43594:1 45751:1 45891:1 46945:1 47079:1 51337:1 
0.5872612881921957 327:1 821:1 826:1 932:1 981:1 2648:1 2658:1 2858:1 3106:1 3666:1 6289:1 6297:1 6674:1 6681:1 7088:1 8521:1 10074:1 12112:1 12674:1 13559:1 14346:1 14922:1 17430:1 18184:1 19683:1 20434:1 20563:1 22473:1 23456:1 27059:1 28552:1 30779:1 30905:1 33844:1 34053:1 35586:1 35983:1 36102:1 36741:1 39531:1 40134:1 42528:1 43145:1 46719:1 51667:1 
1 229:1 740:1 932:1 1826:1 2698:1 3172:1 3635:1 3751:1 4019:1 6623:1 7406:1 7599:1 7910:1 8795:1 10175:1 10415:1 11370:1 11645:1 12674:1 13922:1 13934:1 14433:1 15155:1 15172:1 21718:1 21907:1 22132:1 24131:1 24346:1 24448:1 25761:1 25875:1 26533:1 29323:1 33115:1 33911:1 34663:1 34785:1 36039:1 36118:1 36367:1 37001:1 37292:1 37882:1 37978:1 38218:1 39527:1 39539:1 39555:1 40615:1 41041:1 41068:1 41197:1 42045:1 42161:1 42162:1 42576:1 43145:1 43252:1 43841:1 46931:1 47217:1 48401:1 48940:1 49909:1 50731:1 51667:1 
1 654:1 1445:1 1534:1 2481:1 3044:1 3062:1 5930:1 6771:1 6858:1 7107:1 10081:1 10226:1 11083:1 13634:1 14171:1 16428:1 16483:1 18727:1 19317:1 19387:1 20415:1 28556:1 30515:1 39531:1 39543:1 39707:1 
1 740:1 1307:1 1826:1 2057:1 2177:1 3380:1 3598:1 3751:1 7059:1 11645:1 15212:1 17595:1 22488:1 23667:1 24131:1 24176:1 24388:1 25789:1 27127:1 30853:1 30968:1 31312:1 33908:1 36359:1 37173:1 38852:1 39527:1 40127:1 42579:1 43097:1 46335:1 47217:1 49756:1 
1 658:1 821:1 1107:1 1233:1 1795:1 1924:1 2296:1 2327:1 2456:1 3100:1 3610:1 3635:1 3728:1 5563:1 6600:1 7046:1 7097:1 7757:1 9209:1 11133:1 11835:1 13934:1 13961:1 15019:1 15086:1 16972:1 18194:1 18298:1 19352:1 19383:1 22725:1 23711:1 23978:1 24434:1 24791:1 24978:1 25272:1 25664:1 26304:1 26778:1 29097:1 29204:1 30308:1 30557:1 30608:1 30846:1 31295:1 33390:1 33736:1 36501:1 36889:1 36890:1 37336:1 39250:1 43124:1 46418:1 46422:1 47111:1 49104:1 51220:1 
1 169:1 821:1 825:1 1234:1 1286:1 1445:1 1562:1 1563:1 1583:1 1919:1 3650:1 5822:1 5929:1 6750:1 10081:1 10463:1 11390:1 12102:1 12130:1 13065:1 13705:1 14677:1 15184:1 15782:1 16415:1 16451:1 16985:1 17430:1 18362:1 18727:1 19317:1 19755:1 19771:1 20019:1 20059:1 21865:1 22345:1 23446:1 24054:1 24239:1 24965:1 27563:1 27710:1 31635:1 32556:1 32970:1 34168:1 34653:1 36483:1 37023:1 37162:1 37808:1 39531:1 39966:1 40055:1 40134:1 40863:1 44581:1 46628:1 
1 381:1 1646:1 2181:1 2310:1 2325:1 2327:1 2522:1 2554:1 3102:1 3720:1 4147:1 5890:1 7034:1 8779:1 8805:1 8868:1 8870:1 11408:1 11429:1 13674:1 14173:1 14741:1 14972:1 15010:1 15212:1 15576:1 18601:1 21299:1 21586:1 22031:1 22224:1 24457:1 26302:1 27173:1 27318:1 28903:1 29077:1 29112:1 30254:1 32093:1 32215:1 32469:1 35872:1 36520:1 36830:1 40095:1 42085:1 42143:1 43314:1 45266:1 47032:1 49168:1 49690:1 50895:1 
1 502:1 658:1 700:1 1082:1 1489:1 2131:1 2321:1 2761:1 2778:1 3149:1 3556:1 3782:1 5299:1 7034:1 7206:1 9905:1 10311:1 11125:1 11408:1 11926:1 19129:1 21067:1 23162:1 23683:1 24131:1 24432:1 26302:1 26311:1 27993:1 29047:1 29067:1 29416:1 30322:1 31037:1 31041:1 33416:1 34892:1 35201:1 35299:1 39227:1 39548:1 40952:1 41271:1 42143:1 43599:1 45149:1 45753:1 47136:1 47351:1 49368:1 49590:1 51337:1 51622:1 
1 466:1 618:1 1023:1 1158:1 1214:1 1422:1 1437:1 2047:1 2582:1 3044:1 3062:1 3321:1 4487:1 7681:1 9681:1 10117:1 10306:1 10389:1 10865:1 11827:1 12977:1 13634:1 13822:1 14397:1 16226:1 16872:1 17127:1 18533:1 18653:1 21544:1 21570:1 23849:1 24239:1 25685:1 26636:1 26876:1 29094:1 31858:1 32589:1 32774:1 32992:1 33511:1 33650:1 34217:1 37815:1 39548:1 39554:1 39707:1 40234:1 40819:1 40869:1 42056:1 45571:1 49253:1 49547:1 
1 37:1 740:1 1555:1 2795:1 3646:1 3780:1 5487:1 8661:1 8810:1 11645:1 11660:1 13913:1 14079:1 19651:1 22673:1 24236:1 26551:1 34683:1 35485:1 37874:1 39646:1 40826:1 46609:1 47331:1 49055:1 50015:1 
1 700:1 1281:1 1753:1 1782:1 1826:1 2343:1 3232:1 4087:1 10311:1 10315:1 10345:1 11408:1 11887:1 13481:1 17124:1 17415:1 18620:1 18727:1 21065:1 21091:1 21285:1 23068:1 24131:1 29344:1 31366:1 32011:1 33489:1 36328:1 36463:1 39527:1 39548:1 39549:1 41286:1 41424:1 42094:1 42311:1 45374:1 45936:1 47818:1 49856:1 51164:1 
1 657:1 2282:1 2795:1 2942:1 3219:1 3598:1 3620:1 3650:1 7059:1 7622:1 7681:1 8860:1 9675:1 10310:1 10394:1 11122:1 21052:1 21567:1 22469:1 24381:1 26429:1 28610:1 34110:1 34681:1 35485:1 36199:1 37874:1 38450:1 38467:1 38716:1 39548:1 41197:1 41952:1 42473:1 43836:1 45261:1 45401:1 46335:1 46482:1 46651:1 48497:1 49047:1 49527:1 49776:1 49848:1 
0.30214911962287183 397:1 1009:1 1010:1 1017:1 1200:1 1674:1 3426:1 3517:1 3635:1 3725:1 3780:1 3785:1 7220:1 8782:1 9160:1 11415:1 12855:1 13265:1 13901:1 14097:1 14114:1 14975:1 16210:1 16309:1 16762:1 21782:1 23273:1 24131:1 26536:1 26649:1 26687:1 26836:1 31924:1 36285:1 36567:1 39527:1 42187:1 43906:1 45261:1 47084:1 47331:1 47365:1 49854:1 50746:1 
0.90254897795407385 690:1 1895:1 2327:1 3100:1 3302:1 3738:1 3860:1 6274:1 7255:1 11318:1 11362:1 13064:1 13363:1 17430:1 20238:1 24890:1 29097:1 32165:1 41801:1 48052:1 
1 1395:1 1557:1 1562:1 3456:1 3482:1 13493:1 14103:1 18381:1 19665:1 19755:1 26715:1 28039:1 44440:1 44861:1 
1 355:1 547:1 1082:1 1562:1 2419:1 2689:1 2999:1 3044:1 3057:1 4607:1 5424:1 5690:1 8756:1 10226:1 10412:1 12970:1 13318:1 13746:1 13929:1 15675:1 16972:1 19755:1 20421:1 21691:1 24404:1 28811:1 29910:1 30601:1 31285:1 34711:1 36487:1 39129:1 39543:1 39641:1 42701:1 50577:1 
1 740:1 829:1 1017:1 1437:1 2106:1 2131:1 2351:1 2419:1 2431:1 2465:1 2725:1 2840:1 5122:1 5690:1 5818:1 5996:1 7051:1 7917:1 8007:1 9645:1 10081:1 10350:1 11645:1 12088:1 12130:1 12207:1 12970:1 13391:1 13637:1 15576:1 16761:1 18653:1 19321:1 20766:1 21345:1 23384:1 24239:1 25434:1 26142:1 26302:1 26657:1 26673:1 27617:1 28903:1 29910:1 30072:1 30349:1 30940:1 31285:1 33357:1 34221:1 34985:1 35765:1 36040:1 36197:1 37162:1 37815:1 38057:1 39531:1 39549:1 40134:1 40857:1 40863:1 42143:1 42643:1 43519:1 43650:1 44029:1 44405:1 45680:1 46068:1 48034:1 50577:1 
1 1082:1 1281:1 1826:1 3057:1 3650:1 10290:1 12988:1 17405:1 20949:1 24131:1 39527:1 39641:1 46628:1 
1 536:1 740:1 1252:1 1510:1 1787:1 3044:1 3062:1 10138:1 10361:1 11645:1 13634:1 15212:1 15684:1 17224:1 19224:1 19766:1 21402:1 22488:1 23634:1 23851:1 25923:1 30548:1 30960:1 31178:1 33559:1 39551:1 39707:1 42556:1 43335:1 45353:1 47148:1 51070:1 
1 42:1 1826:1 3044:1 5530:1 8993:1 9270:1 10350:1 13917:1 18085:1 19652:1 21345:1 24131:1 28261:1 39527:1 39549:1 43664:1 46070:1 48118:1 49217:1 
0.5311831780044276 171:1 387:1 1000:1 1076:1 1214:1 1355:1 1534:1 1562:1 1598:1 2544:1 3044:1 3111:1 3689:1 6771:1 7186:1 7762:1 9077:1 9853:1 10134:1 10311:1 10361:1 11429:1 13867:1 14773:1 14934:1 15032:1 15188:1 15230:1 16355:1 16477:1 16872:1 18109:1 19393:1 19707:1 19755:1 19918:1 20563:1 20606:1 20623:1 21054:1 21402:1 22480:1 23618:1 24717:1 30254:1 32112:1 32197:1 32363:1 32589:1 33274:1 33494:1 36209:1 38057:1 38322:1 39548:1 39551:1 39803:1 40212:1 40836:1 41497:1 43277:1 46838:1 47150:1 48238:1 49027:1 49219:1 49417:1 50300:1 51395:1 51402:1 
1 1239:1 1555:1 1782:1 3262:1 4059:1 10290:1 13913:1 14145:1 17033:1 17354:1 18750:1 19651:1 20955:1 22770:1 23441:1 24247:1 27073:1 28421:1 38983:1 39913:1 40200:1 40930:1 41497:1 49119:1 49225:1 50026:1 51029:1 51457:1 51645:1 
1 625:1 1076:1 1118:1 1771:1 1826:1 3751:1 3782:1 4670:1 5996:1 6557:1 10081:1 10274:1 10326:1 10915:1 15188:1 15212:1 15878:1 19321:1 20806:1 21174:1 22372:1 22488:1 24131:1 25985:1 27902:1 33908:1 34070:1 36359:1 37025:1 38057:1 38307:1 39527:1 39531:1 39548:1 41949:1 43145:1 44882:1 46317:1 47217:1 47351:1 49576:1 
1 45:1 841:1 1826:1 3044:1 5560:1 9204:1 9228:1 10350:1 12970:1 13917:1 21345:1 24131:1 25272:1 26636:1 39527:1 39549:1 43664:1 46070:1 48116:1 
1 172:1 366:1 793:1 1017:1 1435:1 1646:1 2327:1 2465:1 2567:1 3100:1 4106:1 6789:1 8659:1 8882:1 11408:1 11460:1 11945:1 13068:1 15212:1 18617:1 21584:1 27906:1 29097:1 30940:1 32525:1 32601:1 36418:1 50242:1 
1 438:1 834:1 1378:1 2018:1 2872:1 3517:1 4147:1 5948:1 7120:1 7485:1 8878:1 9453:1 10088:1 10324:1 12159:1 12973:1 13449:1 15161:1 16663:1 18263:1 18315:1 18793:1 19387:1 21164:1 22153:1 22776:1 24200:1 24432:1 25505:1 25956:1 26334:1 28765:1 31046:1 35515:1 36460:1 37001:1 37922:1 38446:1 38450:1 38961:1 40423:1 40438:1 40939:1 41137:1 43080:1 43243:1 43505:1 44965:1 45261:1 45537:1 50832:1 50895:1 
0.9985101322683112 40:1 658:1 702:1 1286:1 2327:1 3514:1 3712:1 3785:1 5496:1 5513:1 6426:1 8579:1 8695:1 8860:1 11125:1 11461:1 11696:1 15186:1 15260:1 15548:1 15681:1 17430:1 17639:1 19738:1 23399:1 23651:1 29097:1 29897:1 30737:1 33956:1 36903:1 38043:1 38572:1 39278:1 41748:1 42166:1 43317:1 45240:1 46636:1 46999:1 47360:1 
1 1223:1 1392:1 1826:1 2455:1 3689:1 8545:1 10282:1 15711:1 16907:1 18361:1 23766:1 24131:1 27554:1 30604:1 32454:1 33756:1 33978:1 34366:1 35462:1 37129:1 39547:1 42975:1 43603:1 46831:1 47221:1 
1 110:1 394:1 911:1 1440:1 2342:1 3635:1 9136:1 12574:1 18680:1 23674:1 29341:1 29766:1 31345:1 33450:1 38852:1 49759:1 49776:1 
1 700:1 1280:1 2177:1 2567:1 2761:1 2955:1 3650:1 3728:1 4081:1 8026:1 10315:1 11408:1 15212:1 15457:1 17402:1 18019:1 21091:1 22488:1 23655:1 23978:1 26370:1 27127:1 30767:1 31908:1 32601:1 34009:1 35204:1 37516:1 38789:1 43607:1 43703:1 46642:1 47111:1 47330:1 48420:1 49226:1 49246:1 49785:1 51067:1 
1 171:1 288:1 372:1 821:1 2281:1 2761:1 2923:1 3728:1 6771:1 7073:1 7584:1 8202:1 8947:1 10226:1 13728:1 16051:1 20421:1 22148:1 23978:1 26303:1 28603:1 30591:1 34333:1 35201:1 37827:1 47111:1 48185:1 
0.29050653844541025 397:1 821:1 1016:1 1448:1 1826:1 1903:1 2137:1 2173:1 2327:1 2544:1 3044:1 3661:1 4019:1 5690:1 7279:1 8211:1 8219:1 8491:1 9160:1 10094:1 10284:1 12988:1 13617:1 13935:1 14105:1 14300:1 14645:1 14922:1 15048:1 15184:1 15212:1 18768:1 19461:1 20483:1 20917:1 22418:1 22488:1 22971:1 24131:1 24486:1 24912:1 26384:1 26746:1 27084:1 28145:1 29097:1 31372:1 31611:1 32098:1 32130:1 32363:1 35107:1 36100:1 37117:1 39366:1 39527:1 39531:1 39641:1 40134:1 40656:1 42148:1 43551:1 45838:1 45875:1 45984:1 46161:1 46429:1 46931:1 48178:1 48425:1 48940:1 51394:1 51397:1 
1 241:1 740:1 923:1 1895:1 2389:1 3176:1 3456:1 3517:1 3724:1 3933:1 7587:1 7596:1 11645:1 13077:1 23063:1 24891:1 29762:1 30775:1 34784:1 38057:1 39527:1 40627:1 45261:1 47078:1 48490:1 49719:1 
1 397:1 821:1 1192:1 1555:1 1691:1 2484:1 2511:1 2718:1 3463:1 3688:1 3728:1 5498:1 5906:1 7598:1 7908:1 8701:1 9160:1 11391:1 12156:1 13913:1 14706:1 14898:1 14901:1 16590:1 16673:1 16693:1 17838:1 18660:1 19651:1 22221:1 22586:1 23159:1 23653:1 23846:1 23978:1 24247:1 25199:1 28863:1 29214:1 30757:1 31403:1 31828:1 31983:1 32525:1 34896:1 35838:1 38188:1 38383:1 38399:1 40940:1 41142:1 42468:1 42556:1 44033:1 44295:1 44604:1 45165:1 46828:1 47111:1 
1 658:1 740:1 1058:1 1079:1 1109:1 1303:1 1445:1 1953:1 2308:1 2575:1 3471:1 3933:1 7246:1 7599:1 7757:1 7762:1 10175:1 10366:1 11133:1 11645:1 14961:1 15223:1 15263:1 15764:1 16938:1 17563:1 17842:1 18727:1 21431:1 25054:1 28862:1 30757:1 32127:1 34793:1 38210:1 38246:1 38591:1 39551:1 39838:1 40838:1 41041:1 42164:1 44281:1 44642:1 46828:1 47434:1 48490:1 50558:1 50731:1 
1 436:1 544:1 1286:1 1649:1 1782:1 2456:1 3103:1 3204:1 3589:1 6289:1 6871:1 8521:1 9433:1 9509:1 10097:1 10117:1 10264:1 10282:1 10348:1 15355:1 15771:1 17430:1 18727:1 19477:1 20732:1 21312:1 21625:1 22152:1 23509:1 28708:1 29261:1 29682:1 30614:1 32532:1 33208:1 35472:1 35964:1 37648:1 38987:1 39532:1 39545:1 39993:1 40105:1 40935:1 41079:1 42531:1 45822:1 46159:1 46600:1 51063:1 
1 701:1 985:1 1171:1 1445:1 1559:1 2624:1 3057:1 3067:1 3105:1 3682:1 3780:1 6331:1 10187:1 10395:1 11440:1 11827:1 12970:1 13586:1 13640:1 14519:1 15212:1 15223:1 15373:1 16343:1 18727:1 19696:1 20028:1 20175:1 20782:1 20846:1 21581:1 22488:1 23606:1 26636:1 26736:1 30308:1 33489:1 36520:1 38057:1 38248:1 39539:1 39554:1 39641:1 39774:1 39820:1 40117:1 42463:1 46779:1 47331:1 49659:1 
1 102:1 658:1 736:1 1017:1 1239:1 1437:1 1559:1 3044:1 3210:1 6115:1 8887:1 10315:1 10361:1 11125:1 12292:1 12970:1 13589:1 14413:1 14519:1 15300:1 17033:1 18485:1 18650:1 18881:1 19696:1 20198:1 21097:1 21402:1 22794:1 24717:1 26636:1 27059:1 28687:1 29201:1 30366:1 31416:1 33505:1 37755:1 38789:1 38982:1 39551:1 41038:1 41558:1 42104:1 42486:1 43717:1 47150:1 48238:1 48547:1 49226:1 50102:1 51014:1 
1 491:1 655:1 684:1 1082:1 1286:1 1303:1 1481:1 1562:1 1826:1 1988:1 2465:1 2491:1 2923:1 3342:1 3517:1 3689:1 3747:1 4083:1 7086:1 7218:1 9874:1 10412:1 11097:1 14642:1 17430:1 17562:1 18041:1 18727:1 19073:1 19755:1 21683:1 22469:1 24131:1 25302:1 26114:1 30768:1 30940:1 30968:1 31345:1 31460:1 31905:1 33170:1 33561:1 34058:1 34350:1 35219:1 35394:1 37829:1 38225:1 39527:1 39555:1 39826:1 40930:1 42187:1 42463:1 42667:1 43603:1 45261:1 46831:1 47198:1 47225:1 47477:1 49820:1 50715:1 51621:1 
1 1445:1 1520:1 2169:1 2399:1 2438:1 3100:1 3469:1 10207:1 10315:1 12989:1 14848:1 16852:1 18727:1 20174:1 21097:1 22339:1 26734:1 27037:1 29805:1 35408:1 39541:1 42473:1 44638:1 50543:1 
1 821:1 1245:1 1453:1 1771:1 1826:1 2465:1 2783:1 2793:1 3044:1 3105:1 3163:1 3646:1 3650:1 3751:1 6706:1 7058:1 8553:1 10412:1 11417:1 11424:1 13917:1 15010:1 15111:1 15212:1 15460:1 17199:1 18668:1 18831:1 19652:1 21689:1 22372:1 22488:1 23557:1 24131:1 27046:1 29770:1 30254:1 30409:1 30896:1 30940:1 33494:1 33896:1 33911:1 34254:1 35337:1 35461:1 36299:1 36367:1 36834:1 37116:1 38467:1 39448:1 39527:1 39555:1 40122:1 40566:1 40806:1 41008:1 41162:1 41790:1 43478:1 44512:1 45011:1 45261:1 46609:1 46632:1 47217:1 50564:1 
1 1239:1 1481:1 1649:1 2303:1 2314:1 2689:1 5424:1 6266:1 10306:1 17030:1 18834:1 19071:1 20198:1 21629:1 21952:1 22783:1 24343:1 27073:1 28792:1 28993:1 31602:1 34711:1 38963:1 39548:1 41084:1 42073:1 42586:1 47464:1 50082:1 50848:1 51379:1 
1 40:1 690:1 834:1 1446:1 1520:1 1581:1 1647:1 1688:1 1734:1 1826:1 2481:1 2866:1 3701:1 3720:1 4083:1 5513:1 6093:1 8860:1 10385:1 11312:1 11408:1 11428:1 12157:1 12753:1 13066:1 13296:1 15200:1 15212:1 16694:1 18184:1 18733:1 20037:1 20772:1 21598:1 22132:1 22224:1 22488:1 22906:1 23684:1 23770:1 24131:1 24390:1 31058:1 31797:1 32551:1 35472:1 36391:1 37648:1 38126:1 38413:1 39527:1 39696:1 40682:1 42143:1 42599:1 46878:1 47032:1 
0.78693066538063383 821:1 1826:1 2047:1 2204:1 2583:1 2698:1 3635:1 7613:1 12143:1 15039:1 24131:1 25684:1 27683:1 31730:1 32782:1 32808:1 33638:1 34389:1 34785:1 37018:1 37684:1 38351:1 39527:1 41267:1 42155:1 43317:1 43622:1 47661:1 
1 698:1 995:1 2224:1 2308:1 2419:1 2977:1 5690:1 11382:1 13758:1 14546:1 16160:1 22548:1 28112:1 28862:1 29910:1 38980:1 50986:1 
1 232:1 821:1 1047:1 1560:1 1562:1 1580:1 1731:1 1805:1 2327:1 3426:1 3474:1 3555:1 3892:1 3996:1 7052:1 7474:1 9381:1 13730:1 14244:1 14714:1 15102:1 15838:1 17147:1 18570:1 19734:1 19755:1 20021:1 22892:1 23499:1 24344:1 24403:1 26679:1 27801:1 28829:1 28887:1 29097:1 29100:1 29106:1 29210:1 30367:1 31877:1 34299:1 35889:1 36827:1 37443:1 39357:1 39487:1 42094:1 42694:1 42992:1 43130:1 43905:1 44679:1 48278:1 50738:1 
0.8047844256586687 613:1 776:1 1082:1 1358:1 1359:1 1559:1 1562:1 1959:1 3044:1 3517:1 4313:1 7461:1 7489:1 10091:1 10346:1 10819:1 11869:1 14696:1 15232:1 17856:1 18131:1 18136:1 19416:1 19704:1 19755:1 21299:1 21588:1 21699:1 28596:1 30239:1 30757:1 36713:1 37018:1 38338:1 39531:1 43537:1 45261:1 45266:1 49717:1 
1 84:1 381:1 450:1 684:1 1331:1 2131:1 3013:1 3635:1 4147:1 5603:1 5917:1 6155:1 6262:1 7052:1 8860:1 9530:1 9555:1 10227:1 10311:1 12295:1 15355:1 17865:1 18857:1 20165:1 20444:1 21067:1 22208:1 22964:1 26302:1 30368:1 30990:1 33951:1 36846:1 39254:1 39543:1 39548:1 40588:1 41356:1 41726:1 42143:1 46777:1 50895:1 
1 1534:1 1688:1 2327:1 3100:1 3610:1 4093:1 7037:1 8938:1 10419:1 11184:1 13439:1 15188:1 15921:1 18189:1 19383:1 21737:1 22132:1 29097:1 30224:1 38057:1 39556:1 46429:1 46895:1 49986:1 50910:1 
1 1082:1 1595:1 2481:1 3044:1 3283:1 3635:1 3710:1 4175:1 5707:1 9078:1 10114:1 10282:1 10359:1 10502:1 12141:1 12493:1 12872:1 12970:1 15078:1 15489:1 17702:1 19550:1 20553:1 21367:1 22511:1 25367:1 26636:1 32531:1 32560:1 37293:1 37649:1 39551:1 41097:1 41609:1 42689:1 46757:1 46976:1 46994:1 50968:1 
1 206:1 879:1 1076:1 1225:1 1303:1 1782:1 1826:1 3044:1 3115:1 3373:1 3675:1 3721:1 3728:1 3782:1 3830:1 3847:1 4222:1 4717:1 5183:1 5793:1 6006:1 6042:1 6883:1 7135:1 7156:1 7237:1 8416:1 8890:1 10081:1 10236:1 10274:1 10326:1 10334:1 11750:1 12397:1 15045:1 15188:1 16911:1 17165:1 17563:1 17630:1 19321:1 20806:1 21174:1 21228:1 22154:1 22372:1 22961:1 23151:1 23648:1 23674:1 23846:1 24082:1 24131:1 24387:1 25443:1 27902:1 28502:1 28871:1 30566:1 31138:1 31295:1 33878:1 35862:1 35986:1 36123:1 37025:1 37072:1 37088:1 38057:1 38307:1 39527:1 39531:1 39544:1 39548:1 40253:1 40427:1 41949:1 42556:1 42989:1 43145:1 43212:1 43998:1 47037:1 47117:1 47351:1 47873:1 47980:1 48464:1 49576:1 
1 167:1 1058:1 1562:1 3438:1 4175:1 6716:1 10306:1 19755:1 27368:1 39548:1 43979:1 51560:1 51779:1 
0.38623055327258571 110:1 288:1 456:1 698:1 821:1 981:1 1401:1 1442:1 1562:1 3103:1 3213:1 3517:1 3561:1 3709:1 5481:1 7014:1 7341:1 8207:1 8563:1 9640:1 11327:1 11387:1 11545:1 13493:1 13562:1 13618:1 13866:1 14625:1 14976:1 15612:1 17484:1 17875:1 18422:1 18691:1 19720:1 19755:1 20488:1 22132:1 22383:1 23595:1 28808:1 30030:1 34927:1 35379:1 36583:1 38946:1 39587:1 39806:1 39924:1 40105:1 40836:1 41073:1 42457:1 42584:1 44353:1 45261:1 45780:1 45810:1 46961:1 50724:1 
1 350:1 357:1 362:1 658:1 659:1 1555:1 1895:1 3100:1 3474:1 3645:1 3646:1 3738:1 4006:1 7406:1 7858:1 8717:1 8781:1 8795:1 8854:1 11125:1 11138:1 12795:1 13077:1 13689:1 13913:1 13922:1 14771:1 17147:1 19651:1 21702:1 22791:1 24247:1 24348:1 24891:1 27469:1 28244:1 32331:1 33238:1 35889:1 36118:1 36285:1 40930:1 42187:1 42486:1 42992:1 44679:1 46601:1 46609:1 48857:1 48873:1 50636:1 50749:1 
1 166:1 288:1 397:1 1176:1 2301:1 2567:1 2697:1 2751:1 3111:1 3261:1 3377:1 3517:1 3721:1 3730:1 6061:1 6704:1 7292:1 8205:1 8823:1 9169:1 9234:1 10136:1 10233:1 10323:1 11408:1 13225:1 13401:1 13938:1 14189:1 14245:1 14976:1 15032:1 15514:1 16397:1 17766:1 17775:1 18950:1 19720:1 20517:1 21143:1 22140:1 22411:1 23595:1 23618:1 23667:1 24222:1 24346:1 24536:1 26043:1 26736:1 27291:1 27448:1 27805:1 28075:1 28779:1 29204:1 30860:1 32217:1 32601:1 34389:1 34723:1 34760:1 35107:1 35143:1 36601:1 37834:1 39543:1 39548:1 40214:1 40656:1 41335:1 41494:1 42085:1 42155:1 43009:1 43065:1 43314:1 43882:1 44902:1 45165:1 45261:1 45778:1 46195:1 46380:1 47037:1 47132:1 49168:1 49180:1 50398:1 
1 117:1 393:1 882:1 1009:1 1562:1 2419:1 2426:1 2506:1 3044:1 3161:1 3517:1 4083:1 5696:1 6233:1 6985:1 7034:1 7997:1 9127:1 10134:1 10187:1 10270:1 11143:1 12420:1 14100:1 14500:1 15212:1 18358:1 19694:1 19755:1 19870:1 20031:1 20746:1 23674:1 24471:1 26515:1 26675:1 27186:1 29910:1 30012:1 30017:1 33146:1 35779:1 36243:1 39539:1 40546:1 44501:1 45261:1 45563:1 
1 167:1 367:1 368:1 740:1 801:1 1275:1 2105:1 3106:1 3663:1 6716:1 8893:1 8915:1 10395:1 11645:1 11983:1 13828:1 14519:1 15355:1 15570:1 17381:1 18881:1 19164:1 21578:1 22794:1 23329:1 26137:1 26951:1 27074:1 27368:1 28842:1 29221:1 29300:1 32612:1 33392:1 39554:1 40134:1 42056:1 45005:1 46712:1 49619:1 49891:1 50535:1 
1 1461:1 3100:1 3103:1 3111:1 3650:1 8868:1 10136:1 13922:1 14969:1 18929:1 19720:1 22140:1 24348:1 33878:1 36122:1 36499:1 40105:1 40212:1 42187:1 44407:1 46630:1 
1 122:1 658:1 821:1 1826:1 1906:1 3635:1 4076:1 6309:1 10136:1 11125:1 15041:1 15726:1 19730:1 20526:1 24131:1 24930:1 30283:1 32297:1 37046:1 39527:1 43742:1 49696:1 50257:1 
1 176:1 1402:1 3022:1 3232:1 3517:1 3747:1 6965:1 10306:1 18431:1 24131:1 27235:1 29087:1 29532:1 31255:1 33211:1 39350:1 39548:1 41003:1 41286:1 41718:1 45261:1 45366:1 47199:1 
1 643:1 821:1 1446:1 1461:1 1562:1 2923:1 3747:1 5384:1 11020:1 13917:1 15566:1 18734:1 18934:1 19755:1 26114:1 33170:1 34350:1 35219:1 35394:1 37829:1 39726:1 42667:1 44519:1 47198:1 49820:1 
1 40:1 393:1 699:1 1082:1 1231:1 1283:1 1316:1 2446:1 2533:1 3044:1 3278:1 3520:1 3725:1 3996:1 5513:1 6506:1 7084:1 8099:1 8860:1 9127:1 9364:1 9688:1 10359:1 10389:1 11402:1 12898:1 12934:1 14546:1 14813:1 15032:1 16964:1 17424:1 17705:1 17709:1 17846:1 20859:1 21371:1 21542:1 23344:1 23618:1 25442:1 30484:1 30745:1 30757:1 32298:1 33920:1 34733:1 36055:1 36539:1 38318:1 39551:1 39554:1 40813:1 41585:1 42009:1 43239:1 43310:1 45306:1 45699:1 46807:1 47089:1 49243:1 50756:1 51267:1 
1 535:1 630:1 1175:1 1212:1 1214:1 1316:1 3599:1 3960:1 4830:1 7127:1 7493:1 8569:1 9840:1 10074:1 10311:1 10960:1 12954:1 14673:1 14922:1 14961:1 16390:1 16872:1 17710:1 21067:1 22476:1 22971:1 31602:1 32589:1 36106:1 37074:1 39548:1 42148:1 43933:1 44341:1 46348:1 50118:1 51139:1 
1 289:1 911:1 1446:1 2072:1 2465:1 2874:1 3111:1 3635:1 8224:1 10136:1 12574:1 13760:1 14249:1 17792:1 18733:1 19720:1 22140:1 22556:1 23595:1 25980:1 27822:1 30940:1 36488:1 39696:1 40105:1 40214:1 44743:1 46017:1 
1 357:1 1058:1 2278:1 2698:1 3461:1 3720:1 7512:1 7515:1 8018:1 8776:1 11408:1 11429:1 13574:1 14815:1 15212:1 15219:1 16371:1 20028:1 22224:1 22488:1 23600:1 25417:1 25744:1 26370:1 28545:1 30254:1 34777:1 35204:1 37249:1 37278:1 38222:1 42134:1 44579:1 47032:1 
1 176:1 1303:1 2465:1 3022:1 3747:1 6965:1 7237:1 14226:1 17563:1 19012:1 22813:1 24455:1 25286:1 27240:1 27657:1 29112:1 29534:1 30940:1 33211:1 33997:1 37457:1 39350:1 41075:1 41718:1 42488:1 43291:1 46641:1 47199:1 
1 535:1 542:1 697:1 1437:1 2308:1 2655:1 3044:1 3610:1 3646:1 5846:1 10088:1 10136:1 10233:1 10281:1 11362:1 12345:1 14706:1 14938:1 15041:1 15099:1 18653:1 19380:1 19720:1 20521:1 20904:1 22455:1 22480:1 23560:1 28407:1 28862:1 29849:1 31827:1 32245:1 33964:1 34229:1 36233:1 37029:1 37046:1 37408:1 37815:1 39041:1 39543:1 40211:1 40928:1 40933:1 41000:1 41706:1 42463:1 43561:1 46413:1 46422:1 46609:1 49552:1 51435:1 51583:1 51590:1 
1 700:1 740:1 1562:1 1734:1 1782:1 2074:1 2127:1 2234:1 2324:1 2476:1 2777:1 2783:1 2792:1 3184:1 5690:1 10175:1 10311:1 11408:1 11645:1 12589:1 15161:1 15403:1 15846:1 19755:1 20875:1 21067:1 22299:1 22910:1 23683:1 24131:1 25993:1 26264:1 27988:1 28258:1 29067:1 31041:1 31053:1 33158:1 34154:1 35284:1 35334:1 35428:1 35448:1 35450:1 35855:1 36592:1 36628:1 37918:1 38495:1 39527:1 39539:1 39548:1 39770:1 40116:1 40245:1 40678:1 40872:1 42161:1 43504:1 45064:1 45778:1 45893:1 49198:1 49776:1 
1 658:1 834:1 1082:1 1139:1 1422:1 1455:1 2465:1 2513:1 3172:1 3531:1 3564:1 3785:1 6637:1 7757:1 10072:1 11133:1 12159:1 14690:1 15133:1 16014:1 18353:1 18533:1 18869:1 20315:1 21908:1 22135:1 22961:1 27082:1 28848:1 30940:1 31172:1 31724:1 31797:1 31996:1 32237:1 32992:1 34663:1 36285:1 36520:1 37616:1 38450:1 39965:1 40615:1 41223:1 41537:1 42159:1 43019:1 43978:1 45403:1 45816:1 47365:1 47594:1 48401:1 49435:1 49746:1 49854:1 51435:1 51761:1 
1 367:1 535:1 654:1 687:1 2690:1 5718:1 6885:1 8905:1 10074:1 10487:1 11084:1 11294:1 12970:1 15462:1 15600:1 28906:1 34717:1 39800:1 40836:1 
1 995:1 1225:1 2188:1 2322:1 2465:1 3103:1 3149:1 3495:1 3803:1 4018:1 5690:1 7428:1 8099:1 8625:1 10182:1 11473:1 13758:1 14713:1 15747:1 16160:1 16919:1 18863:1 19981:1 21956:1 22132:1 22548:1 22787:1 23352:1 27003:1 27369:1 28681:1 29056:1 30940:1 31874:1 34046:1 36301:1 36309:1 38057:1 38450:1 39539:1 40105:1 41443:1 43082:1 43978:1 45099:1 46816:1 47466:1 48231:1 48937:1 51429:1 51435:1 51761:1 
1 55:1 838:1 1439:1 1771:1 2327:1 3106:1 3237:1 3572:1 3610:1 3635:1 3689:1 3709:1 3728:1 5632:1 7762:1 8881:1 9719:1 10350:1 10365:1 10588:1 11657:1 12169:1 12483:1 12574:1 14625:1 14958:1 15105:1 15118:1 15184:1 15188:1 15714:1 17452:1 18668:1 21345:1 21423:1 22642:1 23978:1 26050:1 29097:1 29504:1 30289:1 30391:1 30605:1 36369:1 37478:1 37550:1 38057:1 38467:1 38790:1 39549:1 39551:1 39800:1 39805:1 39814:1 40135:1 40836:1 41323:1 43742:1 44194:1 45281:1 45891:1 46078:1 46089:1 46423:1 46429:1 46838:1 46961:1 47111:1 47356:1 49238:1 49696:1 
1 821:1 1348:1 1562:1 1800:1 2913:1 3210:1 7153:1 13652:1 13867:1 14347:1 15259:1 17400:1 17836:1 17977:1 19755:1 20859:1 22534:1 23631:1 23770:1 28577:1 30522:1 31797:1 32815:1 37684:1 38563:1 41035:1 42058:1 42166:1 46485:1 51017:1 
0.51455971466621808 407:1 547:1 736:1 840:1 880:1 1079:1 1281:1 1392:1 1434:1 2046:1 2303:1 2567:1 3149:1 3492:1 3688:1 3709:1 4001:1 7546:1 8545:1 9244:1 10412:1 11408:1 12183:1 12406:1 13607:1 14641:1 15272:1 17405:1 18361:1 18600:1 20412:1 21693:1 22083:1 22958:1 25664:1 27081:1 27554:1 28792:1 29030:1 29183:1 30484:1 30541:1 31338:1 32454:1 32601:1 33389:1 35857:1 37453:1 37533:1 38636:1 44447:1 45292:1 46825:1 46961:1 47373:1 48843:1 49922:1 50587:1 
1 821:1 1239:1 1731:1 1826:1 1873:1 1902:1 2007:1 3044:1 3047:1 3062:1 3517:1 3711:1 3730:1 5715:1 6600:1 10401:1 10701:1 11422:1 11838:1 13634:1 15092:1 15392:1 17035:1 19352:1 21630:1 22132:1 22892:1 23600:1 24131:1 24511:1 24832:1 24904:1 25441:1 27023:1 27663:1 30254:1 30309:1 34170:1 34519:1 37381:1 39024:1 39527:1 39554:1 39569:1 39707:1 40030:1 43679:1 43704:1 45261:1 46991:1 47140:1 48222:1 48425:1 50100:1 51336:1 
1 684:1 945:1 985:1 1562:1 1623:1 1826:1 2046:1 2645:1 3209:1 3281:1 3375:1 3635:1 3646:1 3738:1 3751:1 4094:1 6685:1 6874:1 8872:1 8874:1 10117:1 12860:1 13640:1 13863:1 13917:1 14499:1 15041:1 15087:1 16397:1 19755:1 20783:1 21269:1 22673:1 23683:1 24131:1 24251:1 25664:1 26685:1 27128:1 29257:1 29640:1 30007:1 31041:1 31049:1 33395:1 33786:1 33911:1 34967:1 36367:1 36499:1 36536:1 37048:1 37351:1 39527:1 39535:1 41006:1 41593:1 41765:1 43018:1 44787:1 45339:1 46609:1 47217:1 50895:1 
0.57926922002627246 737:1 832:1 2005:1 2902:1 3400:1 3610:1 3661:1 3724:1 4147:1 6065:1 8860:1 10361:1 11620:1 12144:1 14993:1 15576:1 17392:1 17808:1 20379:1 21394:1 22156:1 22961:1 23082:1 23089:1 23384:1 24376:1 25434:1 27617:1 28903:1 32947:1 33357:1 36735:1 37072:1 37703:1 40134:1 42143:1 43551:1 45838:1 46161:1 46416:1 47079:1 50838:1 50895:1 
1 440:1 821:1 1439:1 1674:1 2169:1 2481:1 2961:1 3635:1 3650:1 5107:1 9467:1 10493:1 11896:1 13391:1 14711:1 18668:1 21782:1 22375:1 23929:1 25305:1 25535:1 27041:1 27148:1 29677:1 30318:1 31863:1 32559:1 33855:1 35422:1 35809:1 37649:1 38467:1 38867:1 41026:1 42896:1 45273:1 45571:1 46141:1 46628:1 50028:1 
1 397:1 1073:1 1826:1 3675:1 3728:1 3831:1 3832:1 3848:1 4260:1 4308:1 4770:1 5225:1 6702:1 7163:1 8797:1 9169:1 10187:1 10311:1 10315:1 11745:1 13087:1 13978:1 15161:1 15355:1 20026:1 21065:1 21091:1 21912:1 22411:1 23569:1 23978:1 24131:1 24222:1 24297:1 25150:1 25768:1 27262:1 31347:1 31798:1 32502:1 34663:1 35107:1 35471:1 36420:1 37643:1 37920:1 39527:1 39548:1 40615:1 40656:1 41424:1 41662:1 42094:1 42174:1 47111:1 47818:1 47879:1 47890:1 47989:1 48401:1 
1 464:1 700:1 2018:1 2869:1 3044:1 3110:1 3162:1 3650:1 3703:1 5063:1 7621:1 8202:1 9672:1 10359:1 11408:1 11449:1 12447:1 12589:1 13137:1 13258:1 15403:1 15448:1 15677:1 16139:1 18700:1 21366:1 22299:1 23519:1 25508:1 26383:1 28605:1 29195:1 29345:1 30254:1 30255:1 30601:1 31834:1 33389:1 33525:1 35448:1 36427:1 36592:1 38424:1 39024:1 39551:1 40116:1 40207:1 40560:1 40680:1 42536:1 43287:1 44722:1 45266:1 46628:1 46755:1 46887:1 49780:1 51334:1 
1 740:1 821:1 1000:1 1436:1 1437:1 1771:1 1782:1 1826:1 2481:1 2554:1 2872:1 2941:1 3044:1 3234:1 3531:1 3738:1 6611:1 7216:1 8871:1 9567:1 10311:1 10339:1 10346:1 11645:1 13442:1 13881:1 13889:1 15019:1 15172:1 18233:1 18641:1 18653:1 19352:1 21069:1 21255:1 21296:1 22153:1 22713:1 23802:1 23846:1 24131:1 26465:1 28580:1 28809:1 31797:1 31878:1 32130:1 32469:1 34221:1 36459:1 36889:1 37001:1 37151:1 37436:1 37815:1 37978:1 38452:1 39527:1 39549:1 40857:1 41035:1 41303:1 42045:1 42162:1 42187:1 43145:1 44455:1 45091:1 45403:1 45636:1 48431:1 
1 658:1 1799:1 1826:1 2341:1 3102:1 3751:1 4083:1 6967:1 9602:1 11125:1 15339:1 17864:1 22085:1 23752:1 24131:1 29324:1 31633:1 33911:1 36367:1 39351:1 39527:1 39938:1 40099:1 47217:1 
1 1437:1 1645:1 1985:1 2815:1 3277:1 3787:1 4076:1 10306:1 11419:1 15041:1 18653:1 21580:1 22673:1 25263:1 25935:1 28862:1 29214:1 30254:1 31180:1 34221:1 35652:1 37048:1 37815:1 39548:1 40857:1 41580:1 42143:1 43317:1 45353:1 47385:1 49639:1 49694:1 50085:1 50709:1 
0.26738286028535857 130:1 411:1 684:1 740:1 1017:1 1437:1 1562:1 2923:1 3057:1 3747:1 3749:1 4584:1 6365:1 9266:1 10398:1 10412:1 11428:1 11645:1 12970:1 13391:1 14366:1 15188:1 18654:1 19755:1 21462:1 21597:1 21687:1 28039:1 28040:1 30254:1 33170:1 33494:1 34298:1 34299:1 35219:1 35394:1 37823:1 37824:1 38057:1 39555:1 39641:1 41952:1 44430:1 44470:1 47198:1 47205:1 47947:1 49820:1 50550:1 
1 821:1 1537:1 1562:1 2057:1 2798:1 2914:1 3778:1 7107:1 7758:1 10311:1 12589:1 15175:1 15212:1 19387:1 19433:1 19755:1 21067:1 22299:1 22488:1 24176:1 24388:1 25789:1 32891:1 33750:1 35503:1 37173:1 37698:1 37777:1 37999:1 38865:1 39354:1 40116:1 40127:1 40796:1 42162:1 42579:1 47328:1 49226:1 49776:1 50003:1 
1 42:1 464:1 700:1 1047:1 1562:1 1787:1 1878:1 2157:1 2347:1 3149:1 4019:1 5532:1 6320:1 9002:1 9672:1 10134:1 10326:1 11408:1 11450:1 13618:1 14528:1 14714:1 15450:1 15657:1 18338:1 19696:1 19755:1 20488:1 21174:1 23618:1 23849:1 24848:1 26672:1 26786:1 29389:1 30255:1 30283:1 31882:1 33511:1 34342:1 35493:1 36032:1 38789:1 39548:1 40685:1 40721:1 42556:1 43145:1 43229:1 45266:1 46911:1 48940:1 49219:1 
1 1082:1 1649:1 2131:1 2488:1 3172:1 4000:1 6669:1 7028:1 10438:1 12574:1 13483:1 15212:1 15714:1 16339:1 18741:1 20010:1 21627:1 21910:1 22488:1 23305:1 26301:1 26839:1 26970:1 30179:1 31438:1 33057:1 34663:1 39848:1 40615:1 42143:1 44389:1 48401:1 48835:1 50046:1 
1 1033:1 1066:1 1286:1 1489:1 2327:1 2488:1 3044:1 3100:1 3103:1 3373:1 3517:1 3730:1 6437:1 6438:1 10274:1 13441:1 14961:1 15025:1 16527:1 17434:1 18227:1 18783:1 19123:1 20567:1 20814:1 22132:1 23634:1 23665:1 23682:1 23711:1 24346:1 24454:1 25654:1 26661:1 27342:1 29097:1 30548:1 30836:1 31014:1 31285:1 31434:1 32738:1 33023:1 33224:1 35925:1 36924:1 37178:1 39546:1 40105:1 40330:1 42151:1 42994:1 45261:1 47132:1 51435:1 
0.49564865536908759 40:1 172:1 381:1 1218:1 1231:1 1878:1 2300:1 2869:1 2906:1 3635:1 5511:1 5999:1 6320:1 6789:1 7084:1 8099:1 8828:1 10081:1 10359:1 11297:1 11767:1 12130:1 13059:1 13090:1 13112:1 15188:1 16320:1 16885:1 16964:1 17113:1 17855:1 19321:1 21371:1 22557:1 23208:1 24158:1 24180:1 24734:1 24848:1 25716:1 27918:1 28770:1 30757:1 33030:1 34142:1 36055:1 36418:1 37154:1 37156:1 38057:1 39531:1 39551:1 40183:1 42143:1 46807:1 48457:1 
1 386:1 1058:1 2423:1 3044:1 3517:1 3650:1 3728:1 6343:1 9069:1 10315:1 10419:1 14179:1 20986:1 21097:1 21737:1 22153:1 22208:1 23978:1 27059:1 27374:1 29955:1 34048:1 38088:1 39556:1 40105:1 41037:1 42085:1 42473:1 45261:1 46646:1 47111:1 50910:1 
0.59523812175532653 629:1 1075:1 2792:1 3163:1 3650:1 3709:1 4785:1 7079:1 10286:1 10946:1 13728:1 14625:1 15168:1 15188:1 15465:1 15783:1 16558:1 17557:1 20923:1 22152:1 22487:1 30615:1 31298:1 33589:1 33919:1 34213:1 35448:1 36485:1 36520:1 36598:1 37815:1 37963:1 38057:1 39527:1 40127:1 40572:1 40862:1 41135:1 43064:1 44596:1 46633:1 46961:1 
1 950:1 1494:1 1537:1 2180:1 2302:1 2957:1 3149:1 3709:1 12970:1 13365:1 14641:1 18473:1 19165:1 19427:1 24198:1 27059:1 27167:1 28782:1 30591:1 31338:1 38813:1 40393:1 46961:1 49350:1 49930:1 
1 438:1 995:1 1286:1 1446:1 1649:1 1651:1 2269:1 3100:1 3492:1 3517:1 5690:1 9460:1 10175:1 13758:1 13917:1 16160:1 17438:1 18734:1 21625:1 21640:1 22548:1 23648:1 28479:1 37122:1 38057:1 39539:1 39726:1 45261:1 51503:1 
1 706:1 1534:1 1771:1 1919:1 2532:1 3278:1 5243:1 5721:1 7035:1 10236:1 10286:1 10311:1 10519:1 11011:1 11492:1 12985:1 16095:1 19383:1 20923:1 21054:1 23648:1 24965:1 25443:1 30200:1 32297:1 32970:1 35856:1 39548:1 41585:1 42988:1 44405:1 48839:1 50263:1 50755:1 
1 176:1 821:1 1359:1 1392:1 1562:1 1631:1 1826:1 1947:1 3044:1 3610:1 3738:1 4083:1 7420:1 9094:1 10117:1 10224:1 14925:1 16469:1 17836:1 18136:1 18363:1 19755:1 20388:1 21352:1 21711:1 24131:1 25043:1 27574:1 30037:1 32730:1 36143:1 36233:1 39527:1 39543:1 46151:1 46412:1 49324:1 50695:1 
1 911:1 2327:1 3100:1 3610:1 3730:1 3780:1 4003:1 6332:1 7762:1 12574:1 14981:1 15155:1 16184:1 20859:1 24344:1 24346:1 29100:1 34793:1 36662:1 37883:1 39646:1 40826:1 42094:1 42152:1 46426:1 47132:1 47331:1 48857:1 
1 413:1 700:1 740:1 1439:1 1448:1 2169:1 2264:1 2720:1 3111:1 3319:1 3368:1 3598:1 3675:1 6637:1 7059:1 9277:1 10308:1 11408:1 11416:1 11645:1 12233:1 13066:1 13481:1 14984:1 15649:1 16701:1 18668:1 18727:1 18768:1 21029:1 22345:1 23595:1 23709:1 27038:1 28328:1 28419:1 34287:1 34678:1 34929:1 36689:1 37873:1 38467:1 39548:1 40214:1 40222:1 41762:1 42035:1 42929:1 43068:1 45261:1 46335:1 48989:1 50294:1 
1 366:1 740:1 821:1 829:1 2835:1 3071:1 3456:1 3620:1 3650:1 8026:1 8882:1 11645:1 12131:1 13917:1 14923:1 14977:1 15219:1 15566:1 22469:1 22476:1 24465:1 26370:1 31172:1 34050:1 35204:1 35490:1 35750:1 36110:1 36607:1 37178:1 38126:1 38218:1 38470:1 39803:1 40684:1 42062:1 42969:1 43376:1 43703:1 45303:1 46482:1 46646:1 48420:1 51368:1 
1 176:1 544:1 690:1 1084:1 2345:1 2868:1 3163:1 10137:1 10311:1 10315:1 10348:1 11312:1 12989:1 13296:1 15355:1 16694:1 18727:1 19746:1 21054:1 21097:1 21312:1 22767:1 23684:1 24390:1 29370:1 30982:1 31058:1 31312:1 33590:1 34007:1 36411:1 39535:1 39548:1 40572:1 42473:1 42599:1 
1 1448:1 1826:1 2554:1 3044:1 3536:1 8869:1 10175:1 10187:1 14985:1 16810:1 18768:1 20031:1 23674:1 24131:1 28261:1 32219:1 32469:1 36699:1 39527:1 39539:1 45439:1 49198:1 49220:1 
0.28381558943736385 40:1 821:1 1239:1 1826:1 2543:1 3044:1 3221:1 3517:1 3709:1 3724:1 5513:1 8860:1 10226:1 13589:1 13917:1 14641:1 17033:1 20198:1 20413:1 23082:1 24131:1 27059:1 29204:1 30502:1 31338:1 32351:1 38982:1 39527:1 39543:1 41220:1 43963:1 45261:1 46961:1 47079:1 51014:1 51310:1 51478:1 
1 740:1 742:1 1082:1 1084:1 1212:1 1488:1 1788:1 2606:1 2761:1 3163:1 3315:1 3572:1 3700:1 6637:1 7793:1 7986:1 10072:1 10175:1 10208:1 10227:1 10315:1 11645:1 11661:1 12970:1 12984:1 12989:1 14961:1 15355:1 15466:1 16916:1 16962:1 18259:1 19115:1 20196:1 20450:1 21097:1 22506:1 22721:1 23645:1 24131:1 24312:1 25956:1 26367:1 26636:1 27047:1 30554:1 30691:1 31041:1 33523:1 33994:1 35204:1 36028:1 38446:1 39530:1 39539:1 39541:1 40376:1 40567:1 40813:1 40885:1 41137:1 41762:1 42006:1 42244:1 42473:1 43080:1 43322:1 43504:1 44965:1 45889:1 46874:1 49220:1 
1 1479:1 1562:1 3005:1 3057:1 4076:1 4743:1 10124:1 10555:1 11460:1 11827:1 12970:1 13008:1 19058:1 19587:1 19755:1 25832:1 26636:1 30256:1 30308:1 39153:1 39324:1 39535:1 39641:1 47356:1 49694:1 49698:1 
1 167:1 368:1 700:1 2493:1 3111:1 3517:1 3650:1 3711:1 6712:1 8922:1 10311:1 11431:1 11475:1 15257:1 15355:1 15649:1 15832:1 16534:1 21070:1 23595:1 26701:1 27347:1 31476:1 32739:1 33761:1 33896:1 36302:1 37670:1 37779:1 38539:1 39548:1 40214:1 42207:1 43054:1 45261:1 45657:1 46628:1 46989:1 
1 42:1 911:1 1649:1 3100:1 3115:1 3209:1 5534:1 7420:1 9009:1 12574:1 18484:1 21625:1 36228:1 40253:1 41010:1 41819:1 
0.95831341564347738 740:1 868:1 1286:1 1411:1 1915:1 3044:1 4147:1 5936:1 8192:1 8871:1 10081:1 10226:1 11645:1 14171:1 15019:1 16520:1 17046:1 17430:1 18493:1 19317:1 19459:1 20415:1 24951:1 30515:1 31940:1 36893:1 39527:1 39531:1 39543:1 44043:1 45508:1 50895:1 
1 868:1 1075:1 2481:1 2792:1 3216:1 3232:1 3650:1 3709:1 7079:1 7587:1 8229:1 10286:1 13728:1 14625:1 15168:1 15465:1 16558:1 17557:1 20923:1 21967:1 22152:1 30086:1 31274:1 34213:1 35448:1 36485:1 36598:1 37815:1 37963:1 38057:1 39527:1 40091:1 40859:1 41135:1 41286:1 43064:1 44596:1 45366:1 46100:1 46628:1 46961:1 
1 40:1 821:1 1437:1 1562:1 1674:1 1702:1 1771:1 2143:1 2322:1 3567:1 5513:1 7034:1 7438:1 8860:1 12604:1 12923:1 16806:1 18653:1 19755:1 21782:1 21956:1 22597:1 23352:1 26302:1 26633:1 27003:1 27369:1 28109:1 29056:1 34214:1 36373:1 37815:1 40364:1 40784:1 45854:1 45885:1 
1 367:1 821:1 2327:1 2872:1 3044:1 4147:1 4194:1 5981:1 8860:1 8893:1 10361:1 10390:1 13365:1 13369:1 15355:1 17005:1 17129:1 17506:1 21402:1 21552:1 22791:1 29097:1 33645:1 36455:1 37766:1 39551:1 39554:1 42486:1 47148:1 49297:1 50895:1 51776:1 
1 360:1 483:1 535:1 540:1 1451:1 2438:1 2620:1 3044:1 3638:1 3689:1 3738:1 3785:1 3978:1 7762:1 8826:1 9602:1 9850:1 10074:1 10136:1 10209:1 10249:1 11827:1 12970:1 13728:1 14319:1 14977:1 18805:1 19726:1 20226:1 20623:1 22140:1 26636:1 27667:1 28257:1 30308:1 30346:1 32589:1 32820:1 33505:1 34236:1 34852:1 36285:1 36605:1 37686:1 39541:1 39800:1 40637:1 40836:1 40981:1 41534:1 46568:1 46838:1 47365:1 48709:1 49194:1 49698:1 49854:1 50281:1 
1 353:1 622:1 1116:1 1200:1 1275:1 1406:1 2305:1 2559:1 2624:1 2795:1 3413:1 4558:1 5996:1 7055:1 7454:1 8737:1 9530:1 10081:1 10175:1 10306:1 10887:1 11113:1 12492:1 12548:1 12980:1 13046:1 13901:1 14070:1 15212:1 15230:1 15841:1 16762:1 17381:1 18333:1 18448:1 19321:1 22488:1 24131:1 26302:1 26484:1 26636:1 26687:1 28821:1 29831:1 30392:1 32497:1 32657:1 33489:1 35473:1 37660:1 38307:1 39527:1 39531:1 39548:1 43145:1 43802:1 44882:1 45784:1 46982:1 48869:1 49345:1 51062:1 
1 1391:1 2296:1 2869:1 2957:1 3044:1 3517:1 3646:1 3709:1 10226:1 10374:1 13126:1 13236:1 13917:1 14641:1 15302:1 18353:1 18473:1 20410:1 20413:1 21490:1 22157:1 22961:1 23089:1 24381:1 27082:1 30462:1 30502:1 30591:1 31338:1 36426:1 38808:1 38813:1 39543:1 42473:1 45261:1 46609:1 46961:1 48445:1 49311:1 49350:1 
1 367:1 547:1 920:1 1150:1 2567:1 3100:1 3969:1 4007:1 4076:1 5769:1 8890:1 9282:1 10412:1 11317:1 11408:1 12621:1 12890:1 13356:1 15566:1 16164:1 17385:1 17703:1 17737:1 21686:1 28384:1 29030:1 30239:1 30745:1 30749:1 32601:1 33542:1 37453:1 45306:1 48660:1 48888:1 49694:1 50543:1 50574:1 50673:1 51072:1 
1 684:1 1445:1 1562:1 1627:1 3100:1 10222:1 10569:1 18727:1 19755:1 20369:1 21299:1 29790:1 39542:1 45261:1 50273:1 
1 1446:1 1562:1 3044:1 3100:1 3166:1 4083:1 10233:1 13917:1 15212:1 18734:1 19755:1 20521:1 22488:1 27415:1 27743:1 32245:1 34062:1 34237:1 35337:1 38248:1 39543:1 39726:1 40590:1 42463:1 49560:1 
1 547:1 684:1 1000:1 1461:1 2046:1 2296:1 2327:1 3044:1 3342:1 3492:1 3650:1 3886:1 3977:1 4006:1 4131:1 5930:1 7406:1 7908:1 8795:1 9132:1 10081:1 10306:1 10412:1 11439:1 12460:1 12970:1 13139:1 13871:1 13922:1 14180:1 14961:1 15260:1 15355:1 15600:1 16469:1 17862:1 18934:1 19317:1 21693:1 22476:1 22490:1 22684:1 23583:1 23600:1 23679:1 23846:1 24332:1 25660:1 25993:1 27287:1 27390:1 27988:1 28693:1 29064:1 29097:1 30066:1 30255:1 30972:1 33335:1 33869:1 34278:1 36008:1 36118:1 36427:1 38573:1 39531:1 39548:1 41613:1 42463:1 42556:1 43504:1 44522:1 45064:1 45149:1 46242:1 46629:1 46664:1 48205:1 48420:1 48699:1 48878:1 50587:1 50604:1 50981:1 
1 35:1 367:1 740:1 793:1 868:1 3922:1 8905:1 11645:1 11945:1 13659:1 15462:1 20923:1 22399:1 32525:1 39527:1 39800:1 40836:1 48416:1 
0.35653260724467789 393:1 478:1 995:1 1082:1 1286:1 1649:1 2689:1 2745:1 3350:1 3517:1 3572:1 3697:1 5424:1 5700:1 9127:1 9814:1 10175:1 10324:1 10542:1 13758:1 16160:1 17430:1 21162:1 21628:1 22153:1 22163:1 22171:1 22548:1 24131:1 25595:1 30937:1 31172:1 34711:1 35101:1 35652:1 39527:1 40105:1 40696:1 40860:1 42576:1 43231:1 45261:1 45353:1 45893:1 46862:1 49736:1 50067:1 
1 868:1 1275:1 1437:1 1561:1 2373:1 3689:1 15355:1 15576:1 17386:1 18653:1 19748:1 29612:1 29676:1 30574:1 34217:1 34224:1 37549:1 37815:1 39527:1 39826:1 40460:1 40837:1 40893:1 42143:1 44519:1 46115:1 46831:1 50677:1 
1 397:1 658:1 868:1 1069:1 1286:1 1548:1 1731:1 2313:1 3149:1 3387:1 3517:1 7681:1 9162:1 9530:1 11125:1 11666:1 12913:1 13081:1 15087:1 17430:1 19583:1 22791:1 22892:1 24131:1 26642:1 37347:1 39527:1 43432:1 44126:1 45261:1 
1 223:1 386:1 430:1 1069:1 2371:1 3517:1 7344:1 8202:1 9069:1 9376:1 10117:1 10311:1 12989:1 15041:1 15089:1 21067:1 22208:1 22339:1 24131:1 26383:1 27037:1 27110:1 29663:1 31041:1 34198:1 35205:1 35392:1 37046:1 37362:1 39535:1 40394:1 40494:1 42155:1 45261:1 45856:1 
0.35204558548287834 738:1 1139:1 1436:1 1562:1 2191:1 10226:1 10315:1 10494:1 11640:1 15188:1 16014:1 18639:1 19755:1 20410:1 21091:1 22153:1 23657:1 25324:1 27563:1 30453:1 30775:1 32559:1 36520:1 37122:1 38057:1 39543:1 43019:1 47594:1 
0.74547871113722108 229:1 381:1 1520:1 1562:1 1814:1 1985:1 1989:1 2196:1 2223:1 2313:1 2729:1 3111:1 3477:1 3704:1 3738:1 7406:1 8913:1 10306:1 11364:1 14366:1 15085:1 17234:1 17287:1 18464:1 19755:1 21588:1 23741:1 24005:1 25263:1 25319:1 27597:1 28104:1 30251:1 30743:1 31550:1 35019:1 36124:1 36818:1 39548:1 40224:1 44699:1 45778:1 46889:1 48390:1 49717:1 
0.22479099380667153 700:1 992:1 1281:1 1771:1 1878:1 2431:1 2777:1 3115:1 3592:1 3620:1 4064:1 5096:1 6320:1 6723:1 6764:1 7908:1 9648:1 11408:1 13728:1 15212:1 16196:1 17202:1 17203:1 17278:1 17416:1 17464:1 20808:1 22132:1 22469:1 22488:1 23848:1 24176:1 24388:1 24848:1 25045:1 27179:1 27422:1 27763:1 29996:1 30066:1 33204:1 33471:1 35285:1 36032:1 37046:1 40127:1 40253:1 42556:1 42579:1 44558:1 44687:1 44698:1 46482:1 48319:1 49200:1 49456:1 51174:1 
1 1448:1 1826:1 2131:1 3572:1 6006:1 7079:1 7336:1 8315:1 10081:1 17166:1 18768:1 19321:1 24082:1 24131:1 24383:1 26304:1 27179:1 33204:1 35285:1 38307:1 39369:1 39430:1 39527:1 39531:1 40672:1 40797:1 40803:1 42502:1 43145:1 43228:1 45887:1 47117:1 
1 438:1 618:1 700:1 995:1 1446:1 1562:1 2792:1 3492:1 3517:1 4491:1 5690:1 9460:1 10865:1 11423:1 13758:1 13917:1 15103:1 15465:1 15657:1 16160:1 18734:1 19765:1 21640:1 22469:1 22548:1 23648:1 29097:1 35448:1 36598:1 37122:1 37457:1 39527:1 39726:1 40127:1 40862:1 43145:1 45261:1 
0.92637752012851216 1445:1 3044:1 10124:1 10306:1 10412:1 12989:1 18727:1 19586:1 21690:1 39535:1 39555:1 50566:1 
1 921:1 1082:1 1303:1 1826:1 3476:1 3555:1 3635:1 3724:1 7102:1 12635:1 17266:1 17557:1 23086:1 24131:1 24346:1 30876:1 38304:1 39527:1 42143:1 44694:1 47079:1 47376:1 49962:1 50695:1 
1 171:1 1534:1 2729:1 6780:1 10306:1 17234:1 19380:1 27839:1 35019:1 39548:1 45778:1 
1 176:1 1402:1 3022:1 3232:1 3517:1 3747:1 6960:1 10306:1 10315:1 18431:1 21097:1 24131:1 27235:1 29087:1 29504:1 31285:1 33211:1 39350:1 39548:1 41286:1 42473:1 45261:1 45368:1 47199:1 
1 367:1 821:1 1239:1 1446:1 1826:1 2131:1 2469:1 3100:1 3601:1 7040:1 7871:1 8906:1 9162:1 10242:1 11438:1 14559:1 15032:1 15349:1 15482:1 17033:1 18733:1 20567:1 23191:1 24131:1 25545:1 26302:1 27673:1 30255:1 30558:1 30998:1 32725:1 38985:1 39474:1 39527:1 39544:1 39696:1 41026:1 42143:1 46360:1 51046:1 
1 821:1 829:1 921:1 1017:1 1437:1 1474:1 2862:1 3044:1 3468:1 3517:1 3646:1 3650:1 3684:1 3706:1 3728:1 5996:1 6619:1 6905:1 8068:1 8620:1 8657:1 10081:1 10350:1 11482:1 11880:1 12128:1 12635:1 13733:1 13917:1 15077:1 15938:1 16838:1 18653:1 19033:1 19321:1 21345:1 22228:1 22253:1 23978:1 24082:1 25272:1 25833:1 28872:1 28899:1 29135:1 34221:1 36052:1 37117:1 37285:1 37815:1 38307:1 39345:1 39531:1 39549:1 40857:1 43145:1 44180:1 44634:1 45261:1 46067:1 46609:1 46628:1 46791:1 46917:1 47033:1 47111:1 47117:1 50695:1 
1 426:1 1017:1 1275:1 1450:1 2250:1 2308:1 2310:1 3044:1 3100:1 3213:1 3573:1 4078:1 6967:1 9347:1 10272:1 11437:1 11593:1 12970:1 13338:1 13825:1 13917:1 15339:1 15573:1 15681:1 17133:1 17381:1 18802:1 19652:1 20778:1 22339:1 23288:1 26636:1 28343:1 28862:1 28903:1 28910:1 30255:1 30280:1 30743:1 33494:1 33497:1 36449:1 39351:1 39527:1 39546:1 40566:1 41073:1 41166:1 42056:1 42094:1 42454:1 42689:1 43313:1 43529:1 45778:1 45917:1 49717:1 50543:1 
1 740:1 894:1 1064:1 2407:1 5191:1 10318:1 11645:1 12495:1 14226:1 14993:1 17425:1 19674:1 20540:1 21118:1 22153:1 23034:1 23678:1 26640:1 27089:1 27341:1 27657:1 29834:1 30951:1 32405:1 36739:1 37001:1 42708:1 47014:1 51240:1 51279:1 
0.31910102445960176 194:1 231:1 241:1 275:1 658:1 821:1 826:1 1326:1 1581:1 1627:1 1826:1 2084:1 2157:1 3044:1 3730:1 5929:1 7446:1 7603:1 10081:1 10318:1 11125:1 11429:1 12112:1 13601:1 13946:1 13992:1 14477:1 14898:1 15010:1 15236:1 15657:1 16451:1 17430:1 17806:1 18668:1 19317:1 20037:1 21118:1 21299:1 22132:1 22407:1 23770:1 24131:1 24346:1 26786:1 27023:1 29781:1 30254:1 31797:1 36501:1 36741:1 36834:1 38248:1 38357:1 38467:1 39527:1 39531:1 39548:1 42147:1 42153:1 42459:1 42704:1 43145:1 43675:1 45261:1 45266:1 47132:1 48178:1 50015:1 
1 536:1 1560:1 1688:1 1776:1 2249:1 2511:1 4076:1 9530:1 10129:1 10306:1 13653:1 14929:1 19636:1 19723:1 20869:1 22132:1 23499:1 28337:1 28862:1 29214:1 30283:1 31984:1 36178:1 39548:1 45212:1 49696:1 50385:1 
1 1352:1 1734:1 1782:1 2481:1 3232:1 3342:1 10306:1 13292:1 13922:1 18085:1 19652:1 22362:1 22904:1 24348:1 31602:1 39548:1 41288:1 42187:1 42456:1 45393:1 
0.77830885355700086 130:1 275:1 360:1 740:1 1047:1 1193:1 1604:1 3635:1 4001:1 4954:1 5160:1 6257:1 6366:1 7406:1 7783:1 8795:1 8807:1 10013:1 10134:1 11645:1 12684:1 12715:1 13922:1 14054:1 14524:1 14528:1 14561:1 14714:1 14760:1 15714:1 16493:1 16635:1 16705:1 19696:1 20315:1 20614:1 21466:1 22127:1 24036:1 24346:1 26358:1 28754:1 28842:1 28843:1 30239:1 30283:1 30605:1 31882:1 32237:1 32733:1 33343:1 35493:1 36118:1 37440:1 38789:1 40685:1 41043:1 42143:1 42187:1 43229:1 44483:1 48052:1 48846:1 49219:1 49435:1 
1 381:1 932:1 1826:1 2431:1 3110:1 3377:1 3456:1 3635:1 4083:1 5996:1 6006:1 6731:1 6779:1 7034:1 7162:1 7908:1 9922:1 10081:1 10206:1 11291:1 12674:1 12964:1 16542:1 17156:1 19321:1 20150:1 23848:1 24131:1 26302:1 27481:1 27837:1 28577:1 29992:1 29997:1 30066:1 31340:1 31602:1 32740:1 33471:1 37670:1 39527:1 39531:1 39541:1 39585:1 40201:1 40430:1 42556:1 43054:1 43145:1 43148:1 51667:1 
1 821:1 1493:1 1782:1 2798:1 3014:1 3441:1 3646:1 3650:1 5267:1 5690:1 8862:1 9379:1 10306:1 14893:1 14927:1 19154:1 35503:1 35814:1 36165:1 38863:1 39261:1 39548:1 44194:1 46412:1 46609:1 46628:1 49711:1 49992:1 
0.45536531081873938 859:1 1445:1 1562:1 1800:1 1985:1 3473:1 3576:1 6637:1 7908:1 7910:1 10390:1 12304:1 13833:1 15041:1 15114:1 18727:1 19755:1 21552:1 22480:1 22673:1 23392:1 23770:1 23848:1 24026:1 24176:1 24608:1 25263:1 25424:1 27745:1 29984:1 30066:1 31797:1 33471:1 35467:1 37046:1 37187:1 37250:1 37526:1 39554:1 40127:1 41383:1 42056:1 42159:1 42556:1 42579:1 44654:1 45932:1 46361:1 47114:1 49295:1 
1 176:1 821:1 829:1 922:1 1437:1 1474:1 2862:1 3044:1 3517:1 3587:1 3650:1 3664:1 3684:1 3706:1 3728:1 5996:1 6619:1 6905:1 8068:1 8620:1 8657:1 10081:1 10350:1 11482:1 11878:1 12128:1 12637:1 13733:1 13917:1 14696:1 15077:1 15938:1 16838:1 18653:1 19033:1 19321:1 21345:1 22228:1 22253:1 23978:1 24082:1 25272:1 25833:1 28849:1 28872:1 29135:1 34221:1 36052:1 37117:1 37285:1 37815:1 38307:1 39345:1 39531:1 39549:1 40857:1 43145:1 44180:1 44634:1 45261:1 46067:1 46103:1 46628:1 46714:1 46791:1 46917:1 47033:1 47111:1 47117:1 
1 167:1 538:1 643:1 700:1 1562:1 1771:1 1972:1 2127:1 2872:1 4160:1 5429:1 6716:1 7214:1 7467:1 8108:1 10209:1 10311:1 11021:1 11424:1 13438:1 15041:1 15114:1 16620:1 17608:1 18184:1 19755:1 20226:1 21067:1 21535:1 22480:1 25154:1 26264:1 27368:1 27660:1 31862:1 34142:1 36459:1 36758:1 37046:1 37516:1 39548:1 42143:1 42864:1 44487:1 49198:1 51138:1 
1 381:1 738:1 1286:1 2370:1 2795:1 5696:1 10136:1 10493:1 11641:1 14494:1 14895:1 17430:1 18489:1 19721:1 22166:1 25296:1 29649:1 29910:1 31488:1 32854:1 34145:1 35475:1 37689:1 45610:1 
1 1400:1 1409:1 1562:1 3044:1 3461:1 3517:1 3780:1 3847:1 4721:1 5708:1 10175:1 10306:1 10398:1 10569:1 18415:1 18477:1 19755:1 21597:1 22174:1 28479:1 30937:1 34298:1 35219:1 35394:1 37823:1 39539:1 41952:1 44573:1 45261:1 47331:1 47981:1 49820:1 
1 1221:1 1238:1 1445:1 1562:1 2196:1 3044:1 3057:1 3105:1 3707:1 10365:1 10395:1 12970:1 14171:1 14546:1 14961:1 16895:1 17028:1 17842:1 18727:1 19755:1 21423:1 21581:1 27597:1 28843:1 30757:1 33352:1 38935:1 39551:1 39554:1 39641:1 40117:1 46943:1 47357:1 49659:1 49717:1 50543:1 
1 194:1 821:1 1826:1 3044:1 3172:1 3180:1 3610:1 10207:1 10308:1 12989:1 13365:1 14105:1 15099:1 20167:1 21029:1 22418:1 24131:1 26636:1 26736:1 28407:1 34669:1 35107:1 36567:1 37408:1 39527:1 39541:1 39683:1 40616:1 40656:1 46422:1 48730:1 51440:1 
1 167:1 1445:1 1734:1 2092:1 2327:1 2481:1 3044:1 3443:1 3650:1 6215:1 6719:1 7082:1 7128:1 7645:1 8569:1 10359:1 10361:1 10390:1 12467:1 13917:1 14088:1 14996:1 16379:1 17154:1 17518:1 17557:1 17780:1 18727:1 19652:1 20785:1 21373:1 21402:1 21552:1 22906:1 24717:1 26110:1 26598:1 27400:1 27524:1 29097:1 29423:1 30728:1 31090:1 33863:1 34966:1 35906:1 36567:1 36754:1 38702:1 39449:1 39551:1 39554:1 43136:1 44243:1 46417:1 46629:1 46830:1 47150:1 48238:1 48328:1 49299:1 49650:1 
1 547:1 635:1 794:1 3057:1 3571:1 4907:1 10412:1 10985:1 11953:1 12422:1 12970:1 18891:1 21691:1 22469:1 31285:1 32650:1 32875:1 38436:1 39641:1 40762:1 42463:1 44844:1 45571:1 45883:1 48644:1 50577:1 
1 248:1 821:1 1451:1 1584:1 1782:1 3044:1 3517:1 3610:1 3650:1 3998:1 4147:1 5996:1 7084:1 7218:1 8265:1 8860:1 10081:1 10175:1 10306:1 10359:1 14179:1 14911:1 15188:1 15193:1 17855:1 18810:1 19321:1 20073:1 21371:1 22153:1 22653:1 24131:1 24261:1 27061:1 27374:1 30757:1 31905:1 33971:1 34051:1 34062:1 35509:1 35991:1 37151:1 38057:1 38088:1 38139:1 38250:1 38897:1 39531:1 39539:1 39551:1 40105:1 40686:1 41037:1 41122:1 42085:1 42473:1 42905:1 43603:1 44153:1 45261:1 46411:1 46429:1 46646:1 46807:1 47225:1 48828:1 50255:1 50895:1 
1 1177:1 3044:1 3494:1 4083:1 7539:1 10175:1 10306:1 15355:1 16422:1 28599:1 37481:1 39539:1 39548:1 45093:1 
1 1435:1 1561:1 1826:1 3044:1 3100:1 3646:1 4006:1 10181:1 14642:1 15355:1 18624:1 19748:1 19969:1 22567:1 24131:1 31345:1 36544:1 39527:1 39539:1 46609:1 48873:1 
1 40:1 736:1 1445:1 1448:1 1562:1 2169:1 2515:1 2579:1 2754:1 3044:1 3111:1 4094:1 5513:1 8860:1 10227:1 10236:1 10306:1 10311:1 12989:1 16534:1 18727:1 18768:1 19755:1 20451:1 21054:1 22339:1 23595:1 24131:1 27037:1 31053:1 32012:1 32739:1 35163:1 39543:1 39544:1 39548:1 40214:1 
1 40:1 151:1 684:1 935:1 1058:1 1451:1 1562:1 1800:1 3044:1 3114:1 3933:1 4001:1 5055:1 5513:1 6561:1 7052:1 7079:1 7574:1 8860:1 10208:1 12697:1 12970:1 13506:1 14188:1 15466:1 18259:1 18805:1 19018:1 19755:1 20196:1 22506:1 23172:1 23774:1 24316:1 24402:1 25375:1 26034:1 26304:1 26636:1 27047:1 27433:1 30367:1 31875:1 34871:1 37957:1 38866:1 39541:1 40243:1 40376:1 40639:1 40819:1 40885:1 41077:1 41829:1 42506:1 42681:1 43099:1 44441:1 45912:1 46805:1 48498:1 48842:1 50016:1 
1 1477:1 1595:1 3366:1 3555:1 3728:1 10218:1 19051:1 20340:1 20553:1 23978:1 29358:1 31376:1 32539:1 33740:1 33913:1 33927:1 42902:1 45375:1 47111:1 47288:1 
1 330:1 515:1 821:1 841:1 1053:1 1655:1 1782:1 1826:1 2327:1 2390:1 2534:1 2878:1 3044:1 3283:1 5980:1 6619:1 7301:1 8549:1 9962:1 10306:1 10333:1 11047:1 14628:1 14831:1 14872:1 16990:1 18727:1 19719:1 21662:1 23151:1 24131:1 24461:1 29112:1 29775:1 31172:1 31255:1 32306:1 35099:1 35652:1 36544:1 37088:1 39527:1 39548:1 39549:1 41597:1 43335:1 45353:1 49976:1 50337:1 50348:1 50943:1 
1 684:1 1017:1 1445:1 1826:1 1883:1 3533:1 3650:1 3796:1 7040:1 8735:1 10098:1 10308:1 10513:1 11415:1 13002:1 14977:1 15304:1 18727:1 19482:1 21039:1 24131:1 24859:1 30239:1 30254:1 32031:1 36605:1 38849:1 39527:1 39532:1 39548:1 41790:1 45420:1 46435:1 46628:1 47432:1 49694:1 50709:1 
1 370:1 397:1 1047:1 1080:1 1985:1 2698:1 7400:1 8935:1 9162:1 10130:1 11657:1 13736:1 14714:1 15293:1 15902:1 19643:1 22240:1 23648:1 24131:1 25263:1 31878:1 34770:1 36032:1 38761:1 39527:1 39535:1 43145:1 46628:1 47100:1 48954:1 
1 275:1 684:1 779:1 1479:1 2916:1 3044:1 3100:1 3216:1 3274:1 3456:1 3517:1 3637:1 9118:1 10129:1 10180:1 10311:1 11885:1 13634:1 13901:1 14546:1 19055:1 19636:1 19961:1 20818:1 21059:1 22448:1 23336:1 24131:1 24534:1 26687:1 27190:1 27335:1 29295:1 32476:1 32532:1 33224:1 34213:1 37351:1 37732:1 37815:1 39539:1 39548:1 41135:1 41575:1 42009:1 43064:1 43854:1 45261:1 46565:1 47347:1 49457:1 50499:1 
1 868:1 1440:1 1782:1 2143:1 2314:1 3044:1 3110:1 3149:1 3517:1 3610:1 3645:1 3650:1 3717:1 4147:1 8860:1 9530:1 10412:1 12913:1 13917:1 15108:1 18674:1 19652:1 20238:1 21689:1 21952:1 23499:1 26632:1 26736:1 27349:1 28862:1 28993:1 29214:1 29743:1 30896:1 33224:1 37500:1 38783:1 39527:1 39555:1 40205:1 45261:1 46423:1 46601:1 46628:1 47017:1 49172:1 49429:1 50564:1 50895:1 
0.64424379644018914 834:1 1479:1 2567:1 2941:1 3321:1 3646:1 4076:1 7114:1 10350:1 11408:1 11419:1 12160:1 13835:1 15041:1 15188:1 15714:1 15897:1 18741:1 18756:1 19060:1 21345:1 22771:1 23394:1 23846:1 24184:1 26305:1 27770:1 29452:1 30254:1 30982:1 31797:1 32601:1 35201:1 36633:1 37046:1 38057:1 38459:1 38476:1 39549:1 39819:1 39848:1 39994:1 40234:1 40836:1 42056:1 42143:1 43694:1 45188:1 45403:1 46072:1 46528:1 46609:1 47381:1 48350:1 49694:1 50016:1 
0.44277014853958113 368:1 491:1 684:1 765:1 834:1 1392:1 1437:1 1562:1 1826:1 3044:1 3100:1 3463:1 3517:1 3635:1 3747:1 4006:1 8924:1 9875:1 10226:1 10569:1 11800:1 12156:1 14171:1 15462:1 15576:1 15675:1 16469:1 16562:1 17872:1 18363:1 18653:1 19755:1 20415:1 23692:1 24131:1 25534:1 27129:1 27574:1 29612:1 30515:1 31110:1 32730:1 33170:1 34224:1 37815:1 38399:1 39527:1 39543:1 40460:1 40819:1 40893:1 42143:1 44310:1 44519:1 44597:1 45261:1 47198:1 48873:1 50716:1 
1 1445:1 1562:1 2078:1 2165:1 3650:1 3717:1 5708:1 6291:1 10226:1 10306:1 10308:1 13917:1 15655:1 18727:1 19765:1 20382:1 20413:1 21029:1 21859:1 21891:1 26024:1 26991:1 29910:1 30502:1 39543:1 45724:1 46628:1 47019:1 
1 537:1 1058:1 1286:1 1445:1 2327:1 2945:1 3517:1 3520:1 3725:1 4111:1 7034:1 7544:1 10187:1 10390:1 16508:1 16849:1 17430:1 17576:1 18727:1 20026:1 21552:1 23344:1 23569:1 26302:1 29097:1 30733:1 38504:1 39554:1 40364:1 40883:1 45261:1 45304:1 45895:1 47089:1 49295:1 50303:1 
1 223:1 381:1 430:1 684:1 1069:1 2371:1 3517:1 7344:1 8202:1 9376:1 10323:1 10333:1 12989:1 15089:1 21144:1 22339:1 23547:1 24131:1 26383:1 27037:1 27118:1 29663:1 31041:1 34198:1 35205:1 35392:1 37046:1 37362:1 39549:1 40394:1 40494:1 43034:1 45261:1 45856:1 
0.55356968119879557 176:1 658:1 834:1 1826:1 2148:1 3517:1 3535:1 3720:1 6690:1 6840:1 10306:1 11125:1 11428:1 12159:1 13374:1 15200:1 17538:1 22153:1 22224:1 23802:1 24131:1 24534:1 26656:1 27190:1 28307:1 32133:1 32174:1 35454:1 35462:1 37001:1 37131:1 38126:1 38450:1 39527:1 40134:1 40681:1 40863:1 43229:1 43860:1 44099:1 45261:1 45434:1 47032:1 48473:1 48821:1 50017:1 50075:1 
0.42323700171290879 882:1 1439:1 1826:1 2770:1 3044:1 3111:1 3115:1 3890:1 4083:1 10158:1 10187:1 10306:1 12170:1 12420:1 18169:1 18671:1 19860:1 20031:1 22270:1 23595:1 23674:1 24131:1 24305:1 35259:1 36235:1 38516:1 38824:1 39527:1 39539:1 39548:1 40214:1 40254:1 43145:1 45563:1 46043:1 48238:1 49465:1 
1 359:1 654:1 740:1 1192:1 1220:1 1782:1 1800:1 1826:1 2296:1 3044:1 3517:1 3751:1 3996:1 4083:1 5055:1 6681:1 6858:1 7163:1 7575:1 8797:1 10233:1 10519:1 11083:1 11645:1 13474:1 13978:1 14546:1 15158:1 15212:1 16693:1 16891:1 17461:1 17853:1 18259:1 18633:1 20521:1 22168:1 22488:1 22713:1 23649:1 23653:1 23770:1 24131:1 24251:1 24316:1 25150:1 25443:1 25872:1 27066:1 27276:1 28552:1 30715:1 30757:1 31347:1 31786:1 31791:1 32245:1 33215:1 33911:1 35101:1 36367:1 37032:1 37163:1 37902:1 37986:1 39527:1 39543:1 40973:1 41443:1 41829:1 42034:1 45261:1 47217:1 48225:1 49552:1 
1 834:1 1389:1 2286:1 2304:1 2567:1 3100:1 3284:1 3710:1 4001:1 5684:1 6456:1 8373:1 10311:1 11297:1 11408:1 12159:1 13483:1 13901:1 14669:1 14947:1 15471:1 15726:1 18318:1 18741:1 21066:1 23070:1 24131:1 24137:1 26221:1 28661:1 28810:1 29967:1 31265:1 32601:1 33587:1 35122:1 36288:1 38450:1 39548:1 39848:1 40657:1 40912:1 40927:1 41614:1 42125:1 43742:1 44439:1 46971:1 47764:1 48842:1 51067:1 
0.31780289282128432 194:1 366:1 640:1 821:1 1225:1 1322:1 2282:1 2307:1 2456:1 3044:1 3517:1 4026:1 6003:1 6286:1 7681:1 8889:1 10074:1 10081:1 10187:1 10208:1 10227:1 10306:1 13575:1 14173:1 14673:1 15318:1 15832:1 16919:1 17133:1 17752:1 19321:1 20026:1 20058:1 20195:1 20352:1 20451:1 22137:1 23569:1 24042:1 24467:1 26736:1 27023:1 27306:1 28610:1 28848:1 29566:1 30622:1 31064:1 31602:1 34046:1 34632:1 37867:1 38057:1 38963:1 39392:1 39531:1 39539:1 39541:1 39543:1 39548:1 40799:1 41037:1 42085:1 42698:1 43247:1 43391:1 45261:1 45661:1 47476:1 47477:1 48984:1 50849:1 51560:1 51610:1 
1 658:1 834:1 868:1 950:1 1472:1 1520:1 2326:1 3044:1 3887:1 7599:1 7757:1 10208:1 10286:1 11133:1 12157:1 12970:1 14414:1 19019:1 20199:1 20923:1 22152:1 22961:1 27082:1 28862:1 29085:1 29214:1 38225:1 38413:1 39527:1 39541:1 42187:1 46828:1 48219:1 
0.49634234107787556 167:1 700:1 1490:1 1786:1 2278:1 2472:1 3019:1 3044:1 3115:1 3177:1 3620:1 3721:1 3834:1 4372:1 5116:1 5712:1 6458:1 6710:1 6716:1 10308:1 10315:1 10326:1 10341:1 10361:1 10373:1 11005:1 11031:1 11408:1 13033:1 13066:1 13162:1 15188:1 15217:1 18329:1 19135:1 19921:1 20488:1 21037:1 21091:1 21175:1 21268:1 21300:1 21402:1 21478:1 22345:1 22469:1 23595:1 23781:1 23809:1 24131:1 24215:1 25788:1 26495:1 27330:1 27368:1 28545:1 30567:1 31020:1 31021:1 31948:1 32197:1 34846:1 37151:1 38057:1 38207:1 39310:1 39548:1 39551:1 40253:1 40562:1 40636:1 41767:1 41950:1 43426:1 44025:1 44325:1 44779:1 45293:1 46482:1 47041:1 47148:1 47902:1 49027:1 49418:1 49448:1 
1 821:1 841:1 1173:1 1316:1 1448:1 1771:1 1826:1 1988:1 2166:1 3065:1 3327:1 3517:1 6432:1 7176:1 8571:1 8860:1 9364:1 12898:1 14060:1 14072:1 14590:1 14642:1 15167:1 16359:1 17705:1 18768:1 22014:1 24131:1 25302:1 26429:1 27010:1 31345:1 31456:1 33920:1 35925:1 36542:1 37949:1 39527:1 39738:1 42162:1 45261:1 
1 40:1 740:1 1407:1 1826:1 2018:1 2413:1 2533:1 2819:1 3100:1 3103:1 3461:1 3555:1 3689:1 3751:1 5054:1 5103:1 5513:1 7212:1 7396:1 8860:1 10136:1 11645:1 13934:1 15020:1 16355:1 16371:1 17570:1 18238:1 18463:1 19652:1 19729:1 22140:1 23443:1 23565:1 23902:1 24131:1 24440:1 25436:1 25505:1 26324:1 28443:1 29850:1 29870:1 30075:1 31827:1 32298:1 33896:1 34964:1 35674:1 35991:1 36285:1 36900:1 39527:1 39927:1 40105:1 40934:1 41030:1 42009:1 42452:1 42537:1 43170:1 44579:1 45999:1 46831:1 47217:1 51621:1 
1 438:1 837:1 1359:1 1402:1 1446:1 1603:1 1782:1 1972:1 3209:1 3517:1 4059:1 5953:1 5956:1 5997:1 7214:1 7780:1 8225:1 9452:1 10081:1 10315:1 11696:1 12167:1 14187:1 16705:1 16733:1 17099:1 18136:1 18431:1 18736:1 19321:1 20594:1 21091:1 21703:1 21871:1 23665:1 24035:1 24131:1 25154:1 25193:1 26552:1 27424:1 27805:1 29087:1 30826:1 31862:1 33150:1 36535:1 36972:1 37411:1 38748:1 39531:1 39548:1 39746:1 39994:1 41002:1 41013:1 41713:1 41872:1 42864:1 43177:1 45261:1 46045:1 48815:1 49119:1 50647:1 51457:1 
1 1245:1 1799:1 1826:1 3073:1 3100:1 3368:1 3456:1 3515:1 3530:1 3785:1 9838:1 15032:1 15457:1 15726:1 17199:1 23756:1 24131:1 30148:1 31620:1 31664:1 39527:1 39810:1 39848:1 40373:1 42928:1 43307:1 43742:1 44512:1 45256:1 45394:1 47360:1 50085:1 
1 438:1 737:1 821:1 1303:1 1454:1 1782:1 3044:1 3610:1 3728:1 4147:1 7237:1 7989:1 8860:1 9453:1 10212:1 10311:1 10361:1 11593:1 11620:1 13917:1 15124:1 15203:1 17563:1 18850:1 19652:1 20271:1 21067:1 21402:1 22153:1 22791:1 23978:1 28307:1 30280:1 31403:1 32538:1 37001:1 37581:1 38137:1 39551:1 40151:1 40863:1 41012:1 41279:1 41855:1 42163:1 42473:1 43340:1 45269:1 46424:1 47111:1 47148:1 50017:1 50895:1 
0.4733451702478324 821:1 1222:1 1225:1 1390:1 1443:1 1562:1 3517:1 3572:1 3860:1 6272:1 10175:1 10182:1 11460:1 12965:1 13922:1 15199:1 15250:1 16904:1 16919:1 18339:1 18700:1 18777:1 19755:1 19981:1 20231:1 22144:1 22773:1 23760:1 24348:1 24485:1 24613:1 26688:1 27771:1 30256:1 31072:1 31611:1 31710:1 33623:1 34046:1 34423:1 37001:1 38057:1 38120:1 38471:1 39024:1 39539:1 39639:1 39821:1 40225:1 40600:1 40836:1 41084:1 42187:1 42590:1 43537:1 43840:1 45261:1 45342:1 45891:1 46429:1 48052:1 49891:1 51334:1 
1 267:1 367:1 1076:1 2047:1 2419:1 2662:1 2994:1 3057:1 3646:1 4107:1 4480:1 5690:1 7212:1 7922:1 8868:1 8890:1 10311:1 10569:1 12970:1 13009:1 14696:1 14961:1 15203:1 15832:1 20553:1 21070:1 23632:1 25685:1 26311:1 29910:1 30536:1 31831:1 31834:1 32525:1 33649:1 33761:1 34142:1 36412:1 37779:1 38146:1 39115:1 39548:1 39641:1 41132:1 42207:1 42502:1 42542:1 42681:1 43013:1 45657:1 46609:1 50247:1 
1 209:1 540:1 821:1 1239:1 1826:1 2722:1 3219:1 7186:1 7574:1 8723:1 8924:1 10236:1 12862:1 14559:1 15675:1 16221:1 17033:1 24131:1 30548:1 34952:1 36112:1 36567:1 37968:1 38985:1 39527:1 41197:1 43836:1 49842:1 51046:1 
1 171:1 700:1 1303:1 1411:1 1520:1 2389:1 2405:1 3044:1 4091:1 6771:1 7256:1 10175:1 10306:1 11408:1 15457:1 17563:1 18492:1 29765:1 29831:1 31602:1 32182:1 37591:1 39527:1 39539:1 39548:1 48901:1 49770:1 49934:1 51067:1 
1 1082:1 1437:1 2310:1 2689:1 3044:1 3210:1 3689:1 3860:1 5424:1 5930:1 6308:1 7762:1 10081:1 12970:1 15046:1 16469:1 18650:1 19317:1 20522:1 23296:1 26636:1 26701:1 28899:1 31752:1 32271:1 33642:1 34711:1 37099:1 37765:1 38738:1 39531:1 39800:1 40836:1 41041:1 41558:1 42155:1 43717:1 46838:1 48054:1 48547:1 49984:1 50102:1 
1 1434:1 1445:1 1562:1 2484:1 3057:1 10168:1 10395:1 12970:1 15576:1 18600:1 18727:1 19720:1 19760:1 19910:1 21581:1 31403:1 32535:1 35857:1 39554:1 39641:1 42143:1 49659:1 
0.73896627825257133 248:1 821:1 1289:1 1327:1 1782:1 1826:1 1895:1 2300:1 2513:1 3044:1 3610:1 6881:1 9290:1 10272:1 10361:1 11436:1 11679:1 13067:1 13083:1 13721:1 14559:1 14696:1 15045:1 15188:1 17448:1 17812:1 20780:1 21402:1 22062:1 23156:1 23236:1 24131:1 24890:1 25135:1 25996:1 28770:1 28849:1 30558:1 31996:1 36484:1 37095:1 38057:1 39527:1 39546:1 39551:1 46429:1 47148:1 51717:1 
